encog,BasicNetwork,java,3.4.0,1,1571410274731
[BASIC]
[BASIC:PARAMS]
[BASIC:NETWORK]
beginTraining=0
connectionLimit=0
contextTargetOffset=0,0,0,0,0
contextTargetSize=0,0,0,0,0
endTraining=4
hasContext=f
inputCount=22
layerCounts=3,41,61,101,23
layerFeedCounts=3,40,60,100,22
layerContextCount=0,0,0,0,0
layerIndex=0,3,44,105,206
output=0,0,0,0,0,0,0,0,0,0,0,0,0,0,0,0,0,0,0,0,0,0,0,0,0,0,0,0,0,0,0,0,0,0,0,0,0,0,0,0,0,0,0,1,0,0,0,0,0,0,0,0,0,0,0,0,0,0,0,0,0,0,0,0,0,0,0,0,0,0,0,0,0,0,0,0,0,0,0,0,0,0,0,0,0,0,0,0,0,0,0,0,0,0,0,0,0,0,0,0,0,0,0,0,1,0,0,0,0,0,0,0,0,0,0,0,0,0,0,0,0,0,0,0,0,0,0,0,0,0,0,0,0,0,0,0,0,0,0,0,0,0,0,0,0,0,0,0,0,0,0,0,0,0,0,0,0,0,0,0,0,0,0,0,0,0,0,0,0,0,0,0,0,0,0,0,0,0,0,0,0,0,0,0,0,0,0,0,0,0,0,0,0,0,0,0,0,0,0,0,0,0,0,0,0,1,0,0,0,0,0,0,0,0,0,0,0,0,0,0,0,0,0,0,0,0,0,0,1
outputCount=3
weightIndex=0,123,2563,8623,10923
weights=##0
##double#10923
   -0.4926880756,-0.2238999517,0.784988048,-0.7416106946,-0.1267136595,0.5064718406,-1.1678570242,0.3979296092,0.4144589934,-0.6336660826,-1.2931244482,-0.0391869511,0.6336635321,-0.8412764353,-0.7371735694,0.1905226997,-0.1525136117,-0.5089509907,0.5927395469,-0.2072725923,0.1040983427,1.2032046657,0.8523374362,0.6231019459,-1.5132304221,0.7653378476,-0.1688088463,0.0121496741,0.0608447063,0.2155678785,-2.2262715624,-0.4315177193,1.1222707351,-0.5981710113,0.2191032257,-1.283604512,-0.019419662,-0.4673373972,-3.2546465597,-0.5371396246,0.6022368023,-0.8070892394,0.5717153676,-0.743811893,0.0866287674,-0.5245157411,-0.0511371688,0.5109752297,0.2968678026,-0.984559637,0.236357029,0.0837599484,0.5371422678,-0.2603487293,0.3413254546,-0.0215402912,0.7302258749,-0.1864364872,0.9418897999,1.6840443409,-0.070717688,-0.7487246285,-0.5318435042,0.7281127593,0.1884916828,0.5575478347,0.0894680641,0.1602519681,0.1015208585,0.3987817529,-0.6924893126,0.0292785432,0.3247600479,-0.2656097001,0.8114861626,-0.240163509,0.7842513045,-0.3286570989,-1.0372049894,-0.1171208723,-0.7561575278,-0.3818506801,0.123349208,0.1208858111,-0.6679940976,-1.1013108842,-0.6100866955,-0.617861661,-0.1631908555,-0.1482701335,0.6962922236,-0.7033945475,0.1331794551,-0.0095105191,0.1321543557,-0.2501893217,0.677693054,-0.1666504653,0.6389343606,-0.0608693583,0.0022862269,-0.7184231889,-0.2817935171,-0.4398992767,0.5100857585,0.0285119448,-0.5618573765,0.8959558665,0.6804737042,-0.5674014362,0.7928419391,-0.316266966,0.5794817272,0.4895574978,0.0623974694,0.3746977082,-0.3069397263,0.0935633471,-0.0189211905,0.9849792665,-0.0016540278,0.2943471863,-0.4966082755,-0.1382548295,0.1642321444,-0.7695936272,-0.7551293242,3.2192422825,0.8930088551,-3.2768918422,-0.4426701622,0.8002571693,0.4420814584,0.5067681289,-0.6530595881,0.0881411097,-0.815350965,-2.7175672669,0.6335277486,-1.3315285073,0.1829454233,-3.7030390814,-0.4413887533,-2.0744303332,1.5845987199,2.6003564391,0.8932036814,-0.2837738943,2.1449538474,1.1508134879,-0.1080238661,-0.3027916527,0.423173314,0.6207328041,0.040068431,1.9097654491,0.6708960718,0.7899139788,0.1827593384,0.0940253388,-0.1453495708,-0.3059562239,-0.5508937165,0.1448243197,-0.6111251868,-1.3502410075,-0.5522054078,0.6860498272,0.3808511933,-0.4608511368,-0.1626617042,1.0786230857,0.7677598619,-0.4536910543,-0.2062700629,0.527617898,1.0095394222,0.8764094684,-0.5713138835,0.7718073537,0.2669969999,-0.6240851095,-0.2429334697,0.6103233433,0.5347646808,0.0272927804,0.2837328989,-1.4817343417,0.157193315,0.5561098351,0.4796435843,0.4770967324,0.3136741838,0.7302621219,-0.837397122,0.7129792761,0.0738642874,1.4488083823,0.2294673189,-0.6621866972,0.7990208934,0.4958457823,-0.6996313054,0.221830794,-0.280914584,-0.5713330383,0.0440767178,-0.3285659431,-0.0598895426,-0.1480722892,-0.7876372714,0.1745025071,-1.1810413642,0.6485727613,-0.0003746732,0.5641945183,0.7311898552,-1.1934833603,-0.5514519172,0.661599817,-0.8330788849,0.5266061587,-0.520305872,1.0339347927,-0.0829932125,-0.660294254,0.3699254245,0.7259375007,-0.9669381154,-0.2567957955,-0.2670883638,0.7422366736,-0.2629482058,0.0549469504,0.7738838023,-0.0678775206,-2.7764547913,-0.1000779417,1.0814877624,-0.6503962595,-0.8437727015,-0.0882002071,-0.1298665407,0.4717123515,0.8760237603,0.8353402706,-3.0390737845,-0.3691666959,0.4020886337,-1.2469222167,-0.0855442286,0.5942016795,0.6173055051,-2.104143196,0.5768754073,2.9437812959,-0.323601721,-0.4283861838,0.2193107435,-0.8926660591,-0.6409683837,-0.611367172,-1.5225934042,0.3371198049,0.9336492155,0.3977284891,-0.9750575917,-1.4359755581,1.1152020974,-1.3514450473,0.4610543807,-0.9514514681,-0.4591810695,0.4946887892,0.7018819531,0.3489245801,-0.5896034918,0.7066224343,0.1355708352,0.6046122191,0.5397723351,0.7549240256,0.5277357241,-0.0974370946,3.4875008842,0.4543045766,0.070341991,1.3199990565,-0.9376623651,0.7070326872,1.5580193335,-1.3516913002,0.5323776521,-0.8055093489,0.6626398854,0.5636125048,-0.9430367648,-0.0580171924,2.421398928,-0.0375639836,-1.7689240635,-0.4207857289,-0.5702938843,-1.055287598,0.9185772845,0.4328965434,-0.6223910181,-0.6473627121,0.8198251638,0.2055906423,-0.6311391505,0.4002577003,0.5026483051,0.8714653098,-1.3381766488,0.4118982307,0.7355953652,0.1668981622,-0.1290832985,-0.8750094004,0.5057448835,-0.1008806408,-0.3588073635,-0.9574230508,-0.6596226047,0.4355208416,-0.5205295768,-0.7983348925,0.0449311332,1.2068875879,0.3147497206,-0.6751942977,0.4338484096,-0.7379854092,0.1172047716,-0.5173767151,-0.944919294,-1.0113486339,-0.8412219921,-0.7740086673,-0.5761926716,0.0312693232,0.1659278988,0.1231652549,0.2729947128,-0.9504754561,0.116298271,-0.4938550349,-0.8245584157,0.9658881279,-0.0711188055,0.6305986863,-0.2498120402,0.1518127573,-0.31204185,-0.4295321706,0.2200982814,1.2574085272,0.3572364161,-0.0807553042,-0.199030686,-0.6070172001,-1.1690462143,-0.4818665152,0.1119277734,0.837011281,-0.2949729081,-0.6185861416,-0.5579843565,-0.4998783748,-1.3358308204,0.7821114188,-0.6709053288,0.8909587257,0.6396962506,-0.1530274643,0.2876533519,-0.8399631336,-0.3383096105,-0.9915048994,-0.031251604,-0.9616464819,0.3838682944,-0.3985027483,1.1689226926,0.6742360187,0.6391985342,1.4537917201,-0.1110700635,0.7692427954,1.0625025334,-0.0422131493,0.8682098352,-0.1489671685,-0.6454129991,-0.5949719183,0.4158834133,0.3703197376,-0.9897960605,-0.0362856321,0.7325494421,-0.7883090866,-0.0757354512,0.0146239649,0.792128698,-0.5530645335,-0.8121528562,-1.3910957405,0.0124222249,-0.9079737087,0.0528071327,-0.4025261979,-0.6377961688,0.5242222577,0.3183212258,0.7273631872,0.7293937565,0.2256922013,-0.3139146014,-0.2834096541,0.0415522124,0.1144373461,-0.3619536576,-0.557245941,0.1586749735,-0.7477612891,0.9516412868,0.6911234464,-0.3843008745,0.2484138595,-0.8490183188,-0.186277054,0.5638482813,-1.0522334516,-0.6929585874,-0.035607001,-0.8605910788,0.6941909194,-1.1999920544,-0.0217023213,0.8074612248,0.871263203,0.0771424593,0.725232875,-0.6287596878,0.4582683449,0.204903458,0.6419625671,-0.1340137285,-1.102248684,-0.0949618172,-0.15433538,2.5223837556,0.1409203203,-0.4516533661,-0.8353486482,-0.0487699626,-0.4093433743,-0.0859995087,-0.1780277805,-0.5362097615,0.589404238,0.4860451289,-0.5245544151,-1.2467762138,0.7538634061,-0.1563833146,-0.8325251885,1.9644947088,-0.5591851842,-0.4910267766,-0.0575876543,0.494575729,-0.0798409593,0.2597943658,-0.391523198,-0.4515684933,-0.4550541687,0.0187345762,-0.3264376673,0.3422575164,-0.5128267375,-0.0593300025,0.2200982027,0.4522366246,0.7844429559,-0.2738750136,0.8731581517,0.2369466684,-0.4975261241,0.3784281543,-0.37955446,0.4767030906,-0.4254708837,-1.0200910064,0.5912377283,-0.4484752424,0.4080754197,-0.8639885251,1.0005759691,-0.8358360116,-0.2568385666,-0.8874279607,-0.3150335768,0.1274291197,0.5143914091,1.3084615192,0.897668723,-0.221428679,0.2858428467,0.792515666,0.1503830969,-0.493273578,-0.0002334687,0.5330178069,-0.9207765155,0.8379638142,0.8855533674,0.0092834809,0.2236665716,-0.1527262492,-0.8558942715,-0.7153895631,-0.1368138118,0.302305644,0.1344818431,1.543788512,1.1994723901,0.0704858399,0.6069444124,0.5250703634,-0.2740613213,0.5039337331,-0.0580418136,0.0453984422,0.6521687027,-0.4113798079,0.7171867572,0.0460180705,0.1627188312,-0.0919851392,0.3181068451,0.6643373244,0.2280215073,-1.6059957576,-0.8256472067,-0.7103912398,0.954808247,0.2818862761,-0.1723714287,-0.0080519646,-2.4297063198,1.1652020031,0.3911665062,-0.1742489031,-0.6619452118,-1.9005759886,0.0676255304,0.8325793225,-0.2239249116,-0.6998662169,0.372686098,0.0807681146,-0.5723897683,0.785084012,-0.6242018601,-0.2547811622,-1.2633236334,0.2875017123,2.6813490126,-1.7040694583,-1.2323317443,1.0318368364,1.4209609094,-0.5695679992,0.2504807857,-2.5314416939,-0.206588467,0.4780205839,-0.8912960068,0.0220859859,1.7379857742,-1.4416139759,-0.1415006002,-0.0724936044,1.43268743,-0.034539931,0.948135787,-0.1772583166,5.1714165859,-0.0871970817,0.8485838424,-2.0616889852,0.1563638797,0.7878541836,-0.5667086374,0.7160856524,1.1153528465,0.0025599948,-0.2408746275,0.0719610743,0.3978013918,-0.4071377941,3.7825492532,0.02576381,1.5417551922,0.8647936631,0.1258771164,0.1378206881,0.5557240602,-0.4598057482,-0.0876632569,-0.2906246814,0.3774349441,0.6497871342,0.2278583874,-0.5787459023,0.1256188171,0.9771963906,0.3645101717,0.1184040117,-1.5147823278,-0.7142041241,-0.5173115765,0.3093505269,0.3981041969,-0.1100176204,0.2117581016,0.1673013212,0.5676915063,0.3584084518,-0.6479241503,0.2664179261,-0.3211946155,-0.8931429822,0.114736264,0.6080586534,-0.1507855709,0.0843499413,-0.0119862093,-0.9637614082,0.5214557012,0.6219385542,-0.2099568533,0.6969638715,-1.0112769603,-0.3621226328,0.0959917891,0.22584138,0.7777601,-0.6127368329,0.104123817,-2.0131898473,0.9809063338,0.7226907913,0.9842498254,-0.013787628,0.4964176593,-0.4262949702,1.4520564463,-0.8351393058,0.7985422103,-0.4939011657,-0.9041293564,0.8659878434,0.908607237,0.2718530514,0.2122822147,-0.5979787772,0.7053704563,-0.3618740493,-0.8682358475,0.9730685165,0.8248451802,-0.8010764785,-0.80428435,-1.3840717103,0.0594772756,1.0679738355,0.5125883366,-0.3036418302,0.2943357148,0.7657956961,0.7366539961,-0.0333586437,-0.3740467307,-1.7552502157,1.0471308203,0.2348164528,-1.1987408281,0.442414059,-0.9596598403,-0.1068281149,-0.5659582487,-0.6356828024,-0.0900102685,-0.2358874305,-0.0953634689,0.7132147253,0.4931363123,0.678871878,-0.0101372642,0.2579145871,0.3145675391,0.0947919471,0.7275459452,-0.0451703458,0.4018111739,-0.8544648317,-0.2857178057,-0.786170461,0.842808937,-1.4962722416,-0.2181365237,-0.6557529995,0.3739510033,-0.4934595889,1.3008932097,0.3399903558,-0.0432150834,-0.6444681829,0.4801327596,0.0749920774,-1.2384989155,-0.4671578281,-0.8094378859,-0.2049402297,0.6173135515,1.0150034459,-0.1400029456,0.9039194745,-0.8136869537,0.7606323667,-0.5125409782,1.2455984507,-0.1865481951,-1.2326901408,-1.6095143132,0.3132957564,0.8994833125,0.1807363121,-6.6884467354,-1.4186587464,-0.6500373976,-1.0409057032,-0.3519047953,-0.4972426284,1.4342052232,3.4762179167,-0.2890694055,-2.7796585752,0.2009686378,1.4218006247,6.7207529431,-2.8195960309,0.3406373894,1.0996489374,0.8310352404,-0.531980107,0.3564289008,-0.2737074999,0.554406567,1.6008846039,-0.5925153996,-0.199972888,-1.0738123703,0.7542716376,-0.984403649,-0.9063399821,0.8852863345,-0.7413422704,-0.0565703132,0.6420027743,-0.1241941374,0.1358450521,0.1035743289,-0.6258565791,-0.0559763195,11.0402134639,0.0671256659,-0.815645458,1.8983638479,0.014209885,0.6258827393,0.043177194,-0.3175399235,4.534389076,0.0173634146,2.7042785108,0.0226506878,-0.3466350266,-0.8385617753,-0.2655723734,0.3844821622,0.2532884201,0.2970511521,0.7186988943,-0.1698190254,13.5565515768,0.8970893012,0.1140476434,0.8098066907,-8.492805312,1.2151003393,-3.9393114018,-0.9315690652,0.1678611756,-0.0744161959,-1.7175730605,-9.6915328171,0.6897617644,9.7838252675,1.4909253245,-4.0068662968,-0.1596197345,-5.0406023675,2.7966603164,0.5323178783,1.1063338835,-0.3508737657,13.5184093538,0.8711415734,-0.4019548385,0.4878651418,0.7121578912,-0.6636791212,1.4529837093,-0.4809233321,-0.1543504618,-0.5091472862,0.5090317618,-1.7985584248,0.1845063204,0.0301479872,-1.280737947,-0.8292715604,-7.7179617332,-0.3490591478,0.0824589728,28.043495651,0.6079834322,0.8685436732,-0.6093360442,0.5776209654,0.4083427387,0.2890437005,-0.2952666837,-3.5250700387,-0.7308740237,-0.6506301798,-0.7800805471,0.5143225007,0.4226204615,-0.347367874,0.3211130588,1.6032485171,0.6183253411,0.8094294904,-0.2341193418,-0.7021355165,-0.3538422427,0.4896377133,-0.9458588403,-0.7003913414,0.8784341777,1.6393723633,1.4770592516,0.0250117825,0.3812844456,-0.5420192674,-0.1639887196,-0.8500893345,-0.5033069581,-0.4094068541,0.7491841807,0.3960685262,0.0736274719,-0.8691247159,1.0739854459,-1.5589145288,-0.1676022802,0.5349031234,-1.1611713425,0.1669566458,-0.5930299687,-1.615976352,1.4224703337,-0.6097934276,0.1041929208,-0.5992266589,0.9711975241,-0.3803054041,-0.2522886864,1.0903298614,-0.0258355333,0.7098327907,0.0174230926,0.5577911468,-0.9229234648,0.424922927,0.4314144905,0.8723273502,1.1375128208,-0.6199112173,-1.7989070809,0.3602988917,0.2830104341,0.1940274871,-0.0583636286,0.5523275829,0.0713490471,-0.229763371,-0.7705566594,1.7165095009,0.7025687281,0.9996933174,-1.2064406296,0.1988429744,-0.6640009278,2.6602247488,-0.7370903642,-0.3306925517,-1.6939787243,-0.0798228838,1.0332549844,0.6178835775,-3.7295147572,0.0713907155,-0.5176405074,-0.1011561253,1.7759832789,1.1467909655,-0.3704968007,3.1041926978,-1.3492655163,2.1196463943,-1.4126939938,-2.3463031342,0.3689485714,0.0069317676,-0.4237949301,1.311127215,-1.3429764219,0.3337027273,-1.1558695151,0.2723777541,0.3721495307,-0.5931409731,2.7087223926,0.7909042097,-0.0490739002,0.2247612014,1.1314513978,-0.1861145577,-0.8142823396,0.7505507516,-0.3989237929,0.150520981,0.9878122514,0.9100732271,-0.3633489591,0.5978775257,0.001770338,-0.1895416008,-0.4456908045,0.86477141,0.2832551872,-0.5491225508,-0.4467279846,-3.9439510477,0.7490928048,-1.9279340017,0.9429244832,0.2496426413,0.492221068,0.5915573304,0.4923244918,0.3815369588,-2.5027320771,0.101612495,-0.5988199046,-0.4359678498,-0.2135886449,-0.5280560901,-0.2331039284,-0.260612805,0.8784781296,2.8729712585,-0.4669582584,-0.8526786072,-0.2600564174,-1.617737937,0.3993241406,-0.9523880713,-1.540735641,-0.43305545,1.0058498252,-0.3058077741,1.9041082855,0.5665216073,-0.5142373222,-0.5736742043,1.1675189638,-0.7172421936,0.7912421564,0.6434478802,-0.6459678993,-0.2713451423,-0.01324708,-0.3840187513,0.6150741329,1.3855764751,0.0561911368,0.5927884178,0.8763729632,0.2217097816,0.3054106961,0.5348605966,-0.01805734,0.1642494116,-0.048736334,-0.8984935778,1.6369302176,0.4061681319,0.0749968616,0.4986697251,-0.3751890765,0.6741681254,0.9533988215,-0.0624164918,0.8596850946,0.0614880623,-1.443846241,0.2001390716,-0.5889275192,0.628711602,0.6750493031,-0.497030772,0.6547193408,-0.3490775537,-0.8883610811,0.6004256641,-0.6864283862,0.1297169393,1.2779762681,-0.9609506943,1.3320188007,-0.0128991767,0.2949466248,-0.0686348345,-2.8871676836,0.5904143515,-0.1165040179,0.4082559811,-0.4495451206,-0.2188938667,0.5866162638,-1.0912803823,-0.0479027597,-0.7805472643,0.1194779921,0.1769186167,-0.950654815,0.8424635943,0.571881108,0.6096966885,-0.3850028721,-2.2419163375,0.6686185807,0.7787998414,0.2826340954,0.8458323789,0.2237032508,0.0239984624,0.058246788,-0.1191570843,0.9651586148,0.8157027147,0.3064421987,-0.2197099047,0.9043630044,-0.4544110052,0.120947349,0.1356023256,-0.1513125448,0.054501565,-1.0991648895,0.012919321,0.9583272189,-0.4045546096,-0.0008143075,-0.2192661667,0.6353346116,-1.6305221829,-0.5943378589,-0.4529254478,-0.3969246557,0.2921094156,0.563267553,0.2338893093,0.4899653333,0.6879503881,0.3603939886,-1.046237285,-0.4153098559,0.6703403805,-0.6526180807,0.9399950273,-0.0625459857,-0.0685063438,-0.1544333171,0.0436114464,-0.7573155452,-0.8403951737,0.6034580225,-1.2188129269,-1.4593333366,-1.0654274281,-0.8846011917,0.2284536877,-0.2801982861,-0.207928021,-0.7677442943,-0.7866748224,-1.0309614617,0.640379562,-0.0660741268,0.6249698535,-0.7180261265,-0.9317904975,-0.7480467586,0.0329173462,-0.8954662586,0.4720528088,-0.013225469,-0.3036869124,0.5644721027,-0.098256466,-0.9230876793,-1.7890499453,0.7001495745,0.7796112092,-0.6667673394,-1.2036317538,1.1505471436,0.3548728784,1.1613755001,0.8003218728,0.1950915871,-0.9029173834,0.7349148882,1.2845509737,-0.4163104004,0.0106606622,0.6413846394,-0.3486827469,-0.8185500464,-0.1751980185,-1.1723961338,-0.6850781084,-0.9964624919,0.4517135119,-0.0822453609,0.8439945731,0.2126958697,3.0270955785,0.5588842092,0.9197064153,-0.4800845498,0.1865156891,0.2521031714,0.3437569042,0.8746624962,0.5763918761,0.7458438327,-2.9601442769,0.1535358264,0.0029325982,-0.3524937726,-2.4198920994,-1.2258476379,-4.0361889146,-0.1256563781,-0.7156083518,0.0752369883,1.5922115354,-1.6756371035,-0.7221520965,-0.1963940821,1.1095464175,-0.1387996181,-1.5291909287,1.9078328472,0.277628766,-0.5595403496,-1.2813397305,0.2246745852,-0.4183972835,-0.0617785375,-1.2693767541,1.0341877207,0.0913449986,0.4701681929,0.4716684945,1.0475921068,0.109797608,1.4869195551,-1.0310632093,-0.4111738637,0.119477759,-0.362943388,0.139416401,-0.4426275323,0.6331250824,-0.4100254784,2.0964531832,0.4176301737,0.5128273264,0.4454114584,0.7489754323,0.5206445862,1.0132457618,-0.3960955339,1.4108077694,0.603530641,5.2308938651,-0.3977706712,0.2360382152,-0.9312147809,1.0585271239,-0.5753745519,-0.4178213726,0.2486264701,0.4360966018,0.4222289409,-6.8059614596,-4.2712061689,0.2360127752,-1.2083143574,-1.3632600708,-3.2900561826,0.4762999496,-3.7431674282,-3.988668193,-0.8659463825,0.6882330758,-1.2142083054,-1.294517405,0.3537677841,-1.9423071234,0.1125125519,0.5854759963,-0.3446487423,0.4487824024,-0.8604118862,-0.4342322699,-0.890750358,0.5962722694,0.182826795,-0.5386030969,0.4516737067,0.072129994,0.0048230335,2.8214104786,-0.4749786316,0.1289088614,3.6251353328,0.7046041819,0.6055473218,0.6135265358,0.5951006412,0.2334591123,0.1175927846,1.0895355423,4.7908850189,-0.8763905134,2.0794211005,0.275129946,-0.3794122749,-0.7789912294,-0.8392629039,0.7598604345,-1.0615001215,-0.3560419066,0.2371471361,-0.4783170095,-0.0884816303,0.0629209599,0.726164273,-0.5537643226,0.4998672103,0.9021757377,0.0865596891,0.7011204422,-0.3509267379,-0.2104088968,-0.0808212074,-0.0895030068,0.4983205206,-0.2977093198,-0.0565189418,0.5533854968,0.2979473971,-1.3184849377,0.0306591824,-0.5721869713,1.2799464788,0.0084361893,0.0841707696,1.2233095547,-1.0231268522,-0.1455935576,-0.6335855049,-0.3915010237,0.1622872908,0.4508057707,-0.4572588684,-0.4018632224,0.1795993932,1.1846016201,-0.5999582865,0.2229544463,0.4652802047,0.9389531043,0.3798822319,0.266023071,0.6110234554,-0.0375480362,-0.4125755342,-1.0060351495,0.2261934492,-0.5088222854,-0.7018444784,0.3099255364,-0.1899347495,0.1169405794,-0.1764147054,-0.000282398,1.0218983459,0.56007279,-0.5358775441,0.7407080107,0.0259520782,-0.6811467557,0.3983811414,-1.177285965,-0.4633120275,0.2848284115,0.641825285,-1.4890594411,-0.4613094945,1.1655515281,-0.1823207847,-1.1137284189,-0.2131003463,0.2636479984,-0.2938799458,-0.1544562144,0.3646078719,0.1044888555,-0.2766337845,-0.3831318705,-0.5155858007,0.8132064318,-1.8816646574,-0.4944295391,0.4172770409,1.2844211027,-0.6065202774,-0.8192531432,0.4085486688,-0.0300683232,-0.9610021399,-0.0370230708,-0.1735478119,0.4076331384,0.1946143541,0.1159694946,0.1652343184,-0.7369081287,0.6226401427,0.4945382072,0.7934691916,0.7871003792,1.2903911164,0.5930702804,-0.4305337185,0.8326974046,-0.6513120187,0.7069397867,-0.8962825036,1.1936794676,0.7799427303,0.9128353453,0.4397979484,-1.1724560529,-0.1426341453,-0.2616315571,1.563702422,0.5376208997,0.8314532117,-0.8129482472,0.2680076781,-0.4917180843,-0.1894671079,-0.171085079,-0.3720459943,1.516829958,-0.3947171634,-0.3599624999,-0.5578309582,-0.5308303601,-0.2085691782,-0.0722508662,-0.4290119467,0.4453021626,0.610575188,-1.1769764261,0.4746225875,0.9205976597,0.0404151331,0.2064297287,0.2387474545,0.2089709129,0.5933844047,1.2136106376,-1.1775970126,-0.4567847901,-0.9615144265,-0.0930797084,-0.7598124867,0.9114454335,-0.1087369732,0.5445511896,0.6071202122,-0.4480258638,0.2847462426,1.9974913907,-0.2905809233,0.2685430386,-0.4763459386,-0.366593685,0.4422733426,-0.3261405724,-1.0954176288,0.5125576654,0.3730865209,0.7973502884,2.2496689147,-0.300722456,0.5363474858,-0.5103711643,0.0227682002,-0.3981037576,-0.4681550928,-0.0539085592,0.1038861416,1.1044873968,-1.3244087391,-0.1798473416,1.523810317,-0.5703784387,-0.4256045048,-0.4086132842,-0.8196367044,0.4289193421,1.1254602407,-0.3198235962,0.2242213486,-0.7019513328,-0.6374045379,-0.7021217,-1.7205511533,-1.3883486774,0.027339525,0.5116200565,0.6216317714,0.3902515284,0.0212654286,0.9955688128,-0.9346710915,-0.2077187281,0.126595078,0.8519221284,-1.0440540661,0.4504045787,-0.5675627273,0.8258406,0.1180897365,0.750447002,-0.7796824978,-1.0568548186,-0.356824364,-0.0097015569,0.148456447,-1.3641318579,0.7564287989,-0.9256951029,-0.7494686377,0.5703969179,0.0461739016,0.4349758772,0.2734371511,0.5771215277,0.5538719142,-0.5820858411,2.8570680241,0.9318627432,0.0067318093,-1.2567967376,0.6090164115,-1.9191700967,2.3450730185,-1.1471651388,-0.901217967,-0.253929018,0.1966933176,6.8605605821,0.8479107392,1.0014217244,-0.7767686705,0.7544739576,0.3753118152,0.259337789,-0.0991052481,1.5673203788,1.9626776133,0.1794889725,1.1609630885,0.1662684931,-0.1336471918,-1.5963117393,-0.1363407152,-1.0855732225,-0.1423859105,-0.0119806879,1.1938126313,1.2484799275,1.007086622,0.0903663595,-0.0093038273,-0.1041316029,-0.5781628812,0.6574298809,0.1941801619,-0.2471338744,0.1529022425,-0.1532872879,-1.0524682163,0.8036971946,-1.0229016016,-0.5528298076,-0.1428802481,-1.3362063553,-0.5978941684,0.3028863499,-1.5545735572,0.7460794246,0.145974536,-1.0706588795,1.0165194523,1.1919766068,-0.4726233299,0.385747434,0.6094030986,1.567541973,-0.6736393416,0.2831362326,-0.2797264579,-0.2823571346,-0.6870928504,-0.1632575869,-0.8068647631,0.7220362722,-0.569804617,-0.9966652491,-0.4437683598,-0.4791276127,0.7582228002,-0.2672760259,0.4978369866,-1.0824941936,-0.8953281674,-0.141626723,-0.0479125457,-0.2885959078,1.74287402,-0.322276325,-0.4585467072,1.0456383544,0.1943207028,-0.2849547714,0.8470237995,1.9824350621,-0.3805013175,-0.8440916742,-0.5868464409,0.4057078503,0.7760497271,-0.3682243609,0.4791972357,0.3989495657,-0.8056403257,0.1267158951,-0.4591087006,-0.4953285549,-0.0821930619,-0.1590717662,0.4304912369,-0.49923503,0.4455704258,0.8432163434,0.8477507749,-0.3577938108,0.5556427031,-1.3410267764,0.0721944454,-0.6232582013,0.9994748539,-0.6101016051,0.3127688424,-0.5414794118,-0.584321984,0.9582401181,-0.4681535455,0.4413789391,1.2384861555,0.2027629505,0.4862178313,-0.5622897838,-1.3546111352,-0.4441629396,0.1398826072,-1.6146616083,-0.3753965123,-0.484294135,-0.5515779312,0.345123993,0.6457214714,-0.1590431789,-0.189011439,0.5216917133,1.5124359588,0.2384885573,0.8134584736,-1.0625557496,0.8178127858,0.4741599355,-0.6208001633,0.6414367332,0.1909460694,0.8935198127,0.3614530831,0.567296038,0.2182707136,0.9957533566,-0.6220200431,0.2187855901,0.2489053025,0.3279532233,0.1841716221,-0.8313353778,0.5751771479,-0.9369360386,-1.2858322886,0.1410986436,-0.8003988791,0.8446016044,-0.366246791,0.3548887982,-0.2856492265,0.3198366128,1.2855624484,-0.4232714315,-0.8554419148,0.9472832531,0.3156110338,1.080185067,0.725229146,0.6742723668,-0.5305813262,0.2831464322,-0.537666695,-0.679265006,0.0555194455,0.7100306546,0.4890684895,-0.2354065847,-0.0462944159,-0.2993977624,0.5039120549,-0.0277374211,0.4218474727,0.0931206052,0.6539207869,0.1184079676,-0.2040143686,-0.5435273,0.9490464095,-0.3542558121,-0.8229430435,1.0457830794,-1.0269077747,0.2024594453,-0.0782911989,-0.8727874638,0.7276433208,0.284115265,-0.0580095067,-0.729364632,1.1470480362,-0.8485714069,2.1199688459,0.131888503,0.1955401655,-0.3041325741,0.6402086472,0.6098987521,0.7038414213,-1.0371217985,0.0352050088,-0.6403205568,0.795969328,-0.5881471469,0.8766677972,2.6758385872,-0.7806553654,-1.0506781767,0.5362148584,-0.9715314386,-2.0546265652,-0.4327679643,-0.6315580049,0.4628696152,0.1435436015,0.8883048147,-0.2060688791,-0.994075231,0.6555667117,-0.6785171512,-0.0597841376,0.4192328595,-0.6483990946,0.6939884582,-1.2984966547,-0.4857400701,-1.3030063143,0.6844649786,0.2835519953,-0.0969243792,0.5724669958,-0.0547301477,0.3931179565,0.1041876064,-0.589291068,-0.0751722375,-0.3382742665,-0.7352658389,0.2921934517,0.1419591775,-0.9009526889,0.7215291812,-1.4389632384,-0.5412433533,-0.1462857997,-1.0774459172,0.2679032528,-0.6697404749,0.3677423526,-0.2726781709,-0.2582693333,0.333448688,1.2376628603,0.1445468887,0.8715769628,-0.5088292589,2.1645438759,-0.0201178225,0.7407704223,-0.7327179004,0.0539972571,-0.4510512875,-0.2207812877,0.0669381955,-0.5947095993,1.4005943962,0.4921373131,-0.8422176471,-0.9740920765,-0.1325252909,0.0614518354,0.1098000731,-0.1454806185,0.8578042446,0.7225505994,0.3512153338,1.1737034046,0.0816133724,-0.3688743701,-0.4983914453,0.4632350718,1.0002733719,-0.8096316764,0.8875465889,0.348306967,-0.5853833044,-0.825009683,0.8149633214,-0.0855238545,-0.0199153184,0.5199498146,-0.7059116444,1.6079972313,0.1830218745,-0.2457675417,-0.7936574199,-0.0821000402,0.6685539637,1.6893973785,0.9406623166,0.8115251931,-0.9135875974,-0.7626938039,-1.042162181,0.4863790919,-1.00450053,0.0765068646,0.8628041688,-0.4094151063,0.8834188978,-0.3746616835,-1.0042224888,-0.0843697238,0.5177607493,1.1015947024,0.4427749715,0.3439138109,-0.6125054197,-0.3282461886,-1.3261937447,-0.5614539255,-0.7227132423,0.2734728547,-0.466769519,0.0981051227,-0.3275912167,-0.3314275943,0.3685813069,1.7605863277,-0.0301725835,0.3365498362,0.7213593158,-0.2572133632,-0.4452125801,0.9470278333,-0.7647942941,-0.0236507921,-0.8248098164,0.5633362563,-0.1014199682,-0.1095638764,-0.4961920341,0.4272115131,-0.0914790589,-0.1264511871,-0.4236800838,0.5751662311,0.272995941,1.7636979436,-0.4788731548,-1.0112206356,0.2202981567,0.7467170276,0.668177444,-0.1231233361,0.8788220205,-0.3777346885,0.5846214327,-0.544660773,0.098009968,0.7086617196,-0.0067685309,-0.0531777371,-0.6157962581,0.2015072003,0.9162973313,-0.4699097439,-0.6717578526,-0.203910512,-0.0677388486,0.0984844899,0.291466108,-0.6740667949,0.4268719609,-0.6861551709,1.6419975481,0.6626845851,-0.5836410871,0.5965297836,-0.1545488269,0.2774324493,-1.1258620548,-0.8556451444,0.4734767642,0.1243731255,-0.8635926414,-0.770009666,0.3402032075,1.4644047364,0.6691282948,-0.6429790509,0.8733331152,1.0691584178,-0.0124159533,-0.4883737529,1.6453472084,-0.4167961634,0.2881931583,-0.9847459263,-0.2415577319,0.5654145705,0.1012499746,0.5232689518,0.0778071292,-0.2357931831,0.5039567156,-0.3480123318,0.930566736,-0.8941258622,-0.9086124308,0.9549321327,-0.5512558216,0.5297607494,0.9317300489,0.8574046835,0.5986229905,0.2529691132,0.5463302473,0.1915958185,-1.0096217084,0.8196535594,0.1531429711,0.9100452243,0.860314612,-0.3786258896,-0.7675885412,-0.2589985171,-1.1137402723,0.2708381606,0.3641650659,-0.5139197642,0.4959625507,0.3912889979,-0.7257504931,0.3890531488,-0.152276659,-0.3644203447,-0.9499533963,1.0510380276,0.0763283904,1.0145644613,0.2626234091,0.7531014493,-0.7250776778,0.2124318388,-1.0307897391,-1.7586795035,1.5898249612,1.4729337919,-0.3559535307,-1.304957534,-0.8817381244,1.9361169739,-0.8200913417,-2.2076620252,0.4755810546,-1.0810936922,0.8896940043,0.1122699018,-3.3711666528,0.3033389393,0.3281977417,-0.3552547984,-0.2378449955,-1.0680065526,1.373992342,0.9043860377,0.2128175458,-0.1423563344,0.409503759,0.2039184732,0.2993986568,0.5655033815,3.1607118886,0.4663803859,-1.4710707858,0.0699194996,-0.2838844566,1.2016174803,-0.6170334861,0.0041143295,0.5491259324,0.8953297124,0.7492819258,-0.7082674184,1.2703497605,-2.974378094,-0.0979447422,-0.6904205607,0.7748156021,-0.1505654163,-0.2501614898,0.4510484084,-0.2001301978,-0.1457439039,-0.036323812,-0.9276605397,-0.5699378832,0.5844254566,-0.2171168973,-0.7343665174,-0.3447450653,-0.46289275,-0.9386418977,0.6751649359,0.6553723571,0.0837943218,0.8524136472,-0.0766595751,0.8332034165,1.0430278492,0.2129291355,0.7591683871,0.9390173483,0.3855912015,-1.0047888316,-0.0308062177,1.1011689416,0.5508417667,0.6332268091,0.4233551021,0.4606494164,-0.7133576308,-0.1929075432,1.0254198591,-0.1564261732,-0.4088268567,-0.5709705271
   0.2869795142,0.871300973,-0.8998837623,-0.3339402839,-0.9962873336,0.6922782979,1.0686785432,0.7008380466,-0.7242577309,-0.5891965493,-0.4017509706,-0.2226163053,0.50479375,-0.8932221014,-0.9529933197,0.4382274131,0.5174490181,0.7978082453,0.3968060108,0.3577838985,0.7527924901,0.1403923231,0.0542931888,0.0727467811,0.0898529432,-0.2891669447,-0.4500787142,0.2371130373,-0.6714955437,-0.0571025181,0.8926523198,-1.5825911538,-0.9157555377,0.7725741772,0.4682553561,-2.9050246975,0.1078150244,0.9273000053,0.1440060429,-0.4960218982,1.114094534,-0.0576214442,-0.5048303552,0.1707831719,1.0912352237,-0.738886193,-0.058324051,0.3205916408,0.7542114506,0.2098975278,-0.0925147275,0.238232387,-1.5768412037,-2.0244529531,-1.0127661836,0.021777361,-0.0474364157,-1.6371101753,-0.9063963416,-2.0787589304,-0.6153225903,0.3865000141,0.1240954476,-0.7439325814,0.2217694657,-0.0378834395,2.0683762849,0.1103327992,-0.1798687142,-0.2685203428,0.3072311931,-0.4711222222,0.5216884609,0.7033611626,0.8232406186,0.2666780957,0.3255718632,0.0031813089,1.1511078859,0.0225748334,1.5441834773,0.9955919288,-1.999338757,0.45872622,-0.3390111005,-0.2721417711,-0.7549456576,0.2419870535,0.0826777935,0.9227868759,0.3166209428,0.1468820261,1.1136142208,0.0700857271,-0.1169477194,-0.4445792579,0.4829219668,0.6221110819,0.2685421763,0.2527739861,-1.1816630286,-1.5080921361,0.6409623897,-0.0672551203,-0.5528811223,0.6318486826,0.3432133854,-0.7604995996,1.063116363,-0.4250584371,-0.2226565561,1.2883959747,-0.5627663762,0.0981858748,0.1153196614,0.3608799598,0.0290215172,-0.0123346241,1.0406833519,0.0753008061,-0.8999172883,-0.524953703,0.6042638692,-1.1820817286,0.6332293667,0.1030797416,-0.5791594468,0.5613414362,-0.8525010155,0.7040132813,-0.1550459949,-0.4739286512,0.7304043085,0.4230055498,1.1588046806,-0.1652497334,-0.7704880241,0.2434191899,0.1587253581,-0.6028901585,-0.730904053,0.2751429735,-0.6972871072,0.7702694334,0.1913811226,-0.9897315485,-0.4581986634,-1.2338129355,0.0721721681,-1.4591289047,1.2626762756,-0.6784835277,0.4081833991,-0.5371834477,0.6355663159,0.3384790365,1.4786315398,0.285061672,0.3310429524,-0.7301908804,-0.9138986618,-0.763511159,-0.8495517394,0.507228715,0.5430674447,0.7912882153,-0.8676880525,0.9626433669,0.457185171,0.940146965,-0.5087434833,2.421125076,-0.5267080136,6.2788704403,0.2703786448,5.2523213285,0.6787079236,0.2524627097,-0.4562726588,1.4258175975,-1.0272763626,-0.242591676,-0.0877890159,0.2718330289,-0.6869665068,0.6555449047,-0.2802366814,-0.4795835315,-2.2897642521,0.1339014806,-0.4923944018,-0.6285866667,1.5580180957,1.668629815,-0.5539734222,-0.4365172034,-0.1007130321,0.6480829738,0.2704322747,-0.5347270254,-0.5928100092,0.2771801819,0.078588327,-0.5553763321,17.4515054539,-0.0987309676,0.4486428693,0.280623846,0.9420842156,-0.2305449462,-0.1376710586,0.2203242267,-0.2920606677,-0.575456131,-0.4520176078,0.3251181003,1.5020016389,-0.9675017907,0.149814957,0.8483614472,-0.4884083421,-0.838070381,0.4930094105,0.9362449667,1.0350143733,1.2762364971,-1.0858775732,-0.5966061888,-1.94428794,-2.7319714756,1.6351287733,1.1096732883,-0.4952812829,0.5459262348,0.6265326561,1.2275455307,1.2914317877,-0.4040573183,0.9097863917,-0.2003225669,-0.7299287685,0.3744903758,-3.6757864867,-0.0238053328,-0.0425644154,-0.3718443643,0.8526940649,-0.3547895321,-0.09151747,0.8571869069,-1.317235947,0.2905555662,-0.3415284298,-0.1077872503,0.666998452,0.3407586419,-0.7642547021,-0.8892654704,-0.2535770056,0.2652297723,0.3618152579,-0.4161072225,-0.2329412704,-1.7323640018,0.451527517,1.2555829921,1.4774005632,0.546789359,-0.7002239346,0.9717667231,-0.3508245565,0.0687780379,-0.8706651101,0.7376175959,-0.0353894065,-0.6773888,-4.528483102,-3.4897973979,-0.5752185043,-1.5641932948,0.3751991438,0.8033617349,-0.6047440467,-1.1892626872,6.8996199934,-1.4702951303,-1.7635061382,1.2203783589,2.8122845754,-1.1845814764,-2.8465217568,-3.7749107647,-6.5816012918,1.5979822673,-0.773037615,0.5020698819,-1.8401289784,-11.6876340675,-1.2997155708,0.4323969107,-1.6015038885,-0.3255195127,0.3467346841,1.3605718342,0.7083011769,-0.8144006601,-1.3617223796,-0.3907486647,-0.2523641989,0.6064068754,-0.0835442116,-3.7813879147,0.8309105142,-0.5305224551,-0.0060267617,0.2120099068,-1.1557207739,-0.1437607365,0.1357729371,1.9802066077,0.2907494588,-0.4776813512,-1.5665709717,-0.6633523035,1.3260646399,0.5751871816,-0.8934639317,0.2013124427,-1.0932994479,-0.2553577895,-1.0235684388,1.1731373079,0.4474366633,0.9827655959,0.9480972969,-0.706626274,-0.1026506678,0.026772216,1.3765722784,0.1017057954,-0.3168471181,-0.3966896142,-0.2415957834,0.7948438263,-0.7614807004,-0.2003832949,0.1720866065,-0.3382418658,-0.1064819955,-0.3379857607,0.1580271633,-0.5562322817,0.5583337843,-2.0248388092,0.1056759322,0.2967236035,0.1640585426,0.7161595645,-1.0878212907,0.6039332232,-0.4810517695,-0.3332157157,0.7118442518,-0.6414587166,-0.0605688851,-0.3552392977,0.6112010389,-0.6287488464,0.8930014451,0.3377840479,0.2575393368,-0.0815220382,0.0032300866,0.7362627098,1.0465585961,0.2616687701,-0.337513077,-0.007527405,-0.2571864498,0.328841402,-0.9155098262,0.7067286667,-0.2655668208,-0.8441384492,-0.4689094571,-0.2449477426,-0.3934380155,0.5919581455,0.3964368581,0.6238682892,-0.4296420765,0.7980398644,0.1658963589,0.7384253834,0.310966513,-0.8034341471,-0.8914292118,3.8242632379,0.175983418,-1.1346967535,-0.7701087402,-0.3402306021,-0.787347232,0.1843290137,-0.1338484706,-1.7018876691,-0.9095713437,-4.5475217306,-3.2286505046,0.3554146213,-0.4683366951,0.8605182823,-2.6727241408,0.6474984373,-2.8117941732,-2.7445715492,-0.5107691375,-0.8653933467,-0.4840635878,0.3959429197,-0.2724903778,-1.1977220586,-0.1282273856,-0.6696150804,1.0589871735,0.2633980709,-0.3671091688,0.2712687173,0.3775657056,0.2058634779,-0.2800809153,1.5599403867,-0.4111737781,1.2008012914,0.7566940997,1.706500731,0.1343946109,-0.6127659345,2.4453449953,1.7213525079,-0.8126593093,0.2155818588,0.3712527756,-0.7771496672,0.1994218786,-0.7440474874,3.5338929264,-0.6476861295,1.235743156,-0.9900297101,-0.8110735627,0.5955796395,-0.3092633298,0.0778863568,-0.4671983475,0.1848945405,0.390955386,-0.184678656,-0.3872724381,-0.4996054574,0.4380775044,-0.4564981197,0.4818110405,-0.4349723196,0.1876204937,0.0405554796,0.3441369848,-0.1713774287,1.6087916961,-0.1367667628,0.7501197864,1.3896114126,1.0987650249,0.1187832276,0.7427270416,-1.5316493137,0.5984778693,0.133313382,-0.5070317349,0.7298528543,-2.3042375583,-0.2659946462,0.6767950845,-0.6451709034,-0.6565197235,-0.3616704279,-0.361703151,-0.0604116966,-0.6130824333,0.7750152333,-0.9863401085,0.0628817847,0.1473778899,0.6902414282,0.3736790188,0.8166039765,-0.9964245479,0.0362217768,-0.1447803388,1.033734831,0.5679748048,0.6454636358,0.9794646323,0.3109996282,0.7833369524,0.4393287619,0.3983915666,2.2109359027,-0.2291170347,0.2271542002,0.4937446924,0.7733791031,-0.1306269091,0.5264569069,0.2358166045,0.8009562221,-0.2451743748,-0.8213631721,0.1125362104,-0.1430587178,-0.4931471987,-0.5794479977,0.3906877874,0.5132175977,-0.4853208211,-0.417872474,0.4662094808,-0.9852971875,-0.2209142947,0.2336491582,-0.667382137,0.4275728379,0.5664784376,0.4755913652,0.7940661711,0.2475190169,0.0598579651,0.0191278571,0.3150950956,0.5748236932,0.317074302,-0.5100988002,0.6132762905,-0.4855167334,0.2733364084,0.264904984,0.2727843242,0.9557440574,-0.5373622522,2.4092912274,0.347392764,-0.0013419028,-0.2130212979,0.9678257669,-1.4718393874,-0.8876462376,-0.3230803755,0.8821748496,-1.1383314436,0.8912023853,-0.3795049288,0.5798584663,-0.1700826861,-0.1319307277,0.8109753145,-0.9834941301,-0.3004512088,0.6701126082,1.9108607174,0.5296115266,-0.0256160306,-0.3724813947,-0.7577657692,-0.4168974306,0.5932717008,0.1486553179,0.2150045601,1.4310182342,0.4899032727,0.8604167132,0.1701713001,0.3060892173,0.6527485699,-0.1840294328,1.4801782872,0.4889632504,-0.608272954,0.9700589476,0.4784949048,-0.6731678121,-1.6530852073,-0.2681937378,-0.7092857045,0.8175615088,-0.2245896319,-0.7472973173,-0.0042103115,0.860215457,0.4129935462,0.9136372257,-0.3992765217,0.8338314788,-0.0946933947,-1.5254552943,-0.8146089732,-0.3903403869,-0.995279278,-0.4279054871,0.9701026772,0.354895895,0.8148518007,0.5987175879,-0.6524384565,0.8531953177,-0.3572304221,-0.5755825363,-1.4613689379,-5.9963253653,-0.5982671033,-0.2330731124,1.3192488407,-0.1408047505,-0.6820295383,0.0738104364,-0.6696280357,0.4404340444,0.0287858243,-1.4253231068,0.1186133766,3.1595796489,0.2709547849,-0.7751350137,0.5817578611,-0.5525329787,-0.1929492367,-1.3184036009,0.8928080371,0.3971285575,0.0594060062,0.3892844839,0.5135607869,-0.5977351105,0.2197290883,-1.6751895158,0.6331412541,0.5625806697,-0.3168672926,-0.2909626195,0.3358016877,-0.2047100572,-0.1910726896,2.0138822151,-1.2854004588,0.3056959976,1.3548005766,-2.3588514861,0.5612435101,0.2932044496,-1.5871668668,0.0522358366,2.7819459618,-0.1864145006,0.0619786335,0.2803979114,-0.5684771629,-0.8364805245,0.4036380089,-1.62956464,4.5818208171,0.2434106049,0.5397893736,-0.3338694808,-0.1097033681,0.3786483969,-0.0146070629,1.2058245574,-1.5542028285,-0.3611577997,1.6690495794,-1.0051912455,0.3115091477,-0.0904248913,2.9441853789,-0.4034665565,-0.5591284686,0.6761123387,-0.0458429187,-0.1735518423,-0.1812988412,0.3870346139,0.6813531616,1.423524795,-0.6029809548,0.64031877,0.9854623421,-1.1344735384,-0.8592381822,-1.0348110842,0.5905666804,10.034522868,-0.4666945286,-0.2142818663,-4.236069423,-0.4027659064,-0.5642474336,0.4802725861,-1.2895014804,-0.7708187988,-1.3727739129,-0.2101201375,0.0670521115,1.1549375879,0.1364952158,0.7868596849,-0.4886910765,0.2887851902,-0.251429011,-0.3752269949,4.094877318,-0.3441852379,-0.3801879384,0.2424189252,0.2568093103,-0.1942477807,-0.2881138071,-0.8805832678,1.0007886837,-0.3438510183,-0.1641179045,-0.2627486129,3.8118454804,4.8696726778,-0.2487187601,1.9295626138,-0.342730539,1.0177206179,0.6430327855,-0.2987435072,-0.7104593202,-0.2145170868,-0.1873538244,0.6500048857,0.6060533484,-0.1522645977,-0.7234330105,0.0357381311,-0.1712458401,-0.2526564596,-0.0717528714,0.2701794969,-0.2517443828,0.0483697294,0.184179281,0.517856247,-0.702071105,0.5237280328,-0.0899993748,0.8903350282,-0.6610331923,1.0907607475,0.3880992221,0.4354184064,0.4682678358,0.7568296178,1.9140478043,1.0619264647,0.719157676,-0.5758666349,0.5886492915,0.3086693292,0.5228987559,-0.0086887075,0.6634345684,0.3668368484,-0.0272872484,-0.4715742105,-0.0341771152,0.0281093772,-0.2943761239,-0.4140952407,-0.6743306119,-1.4455486271,-0.7883205493,0.8140704344,-0.2939427691,-0.1791115229,-0.960698348,0.5404014141,-0.7309267355,0.847425055,-1.4651081839,0.2488437834,-0.4166181791,-0.6740216378,0.3951434122,-0.490611358,0.3434994244,-0.4705887215,0.3864409297,-0.9075463935,-0.2867892969,0.115312501,0.8311201712,0.8299432812,-0.2439162958,0.2266450944,0.6047314589,1.8622639684,0.2419465418,0.8188534823,0.0245197632,-1.7659496207,-0.0911719282,-0.6026272131,-0.9969089988,0.8751851769,0.3938730358,0.6736933421,0.1569381684,-0.1319706252,0.7720549817,0.7468696529,-0.9132936916,-1.372749375,-0.7157580021,-0.6968176882,0.7121502772,-0.0348551851,-0.0643538037,-1.0971563836,0.9815480855,0.0837618697,-0.038093436,-0.5523870412,-0.0994814407,-0.7119165437,-0.2133509791,0.3565839554,0.043167946,-0.8838866257,0.4448419297,-0.5917128816,-0.7620205106,2.0224600879,0.9183170421,-0.3573791809,2.2656722763,-0.4387179444,1.0096583052,0.9679247107,0.8847357479,0.5143144563,0.1786619536,-0.1131273697,-0.3798491084,0.0748081549,-0.2488801411,1.263851024,0.1158860108,-0.0041491087,0.2345869982,1.2233386483,-0.3983541876,-0.0853362539,-0.0912086834,0.5769193706,0.2672124303,1.0447020573,1.0375691616,-1.493746511,-1.1965957898,-0.7595880052,-2.7889368654,-0.4793230491,0.7594006279,1.5985351004,-0.53824096,0.0802568581,0.2980339275,-0.1569815949,-0.1151569143,-0.6230905784,0.3706185078,0.1182209952,-0.2403437405,0.1207510256,-0.1010010807,0.025276666,0.5801708735,-0.0114254161,0.0392908826,-0.1631981116,0.5624064125,-0.1945835478,0.1443234312,-0.2128219802,-0.6934917066,0.433509903,-0.5747696748,-0.6108165992,0.9036208057,0.9965050063,0.0307370081,0.6924150398,0.3809049585,-0.1570710268,0.9938005814,0.7852193128,0.3578804744,-0.8983221886,-0.3741578556,0.4082013629,-2.0173146759,-0.8007444471,0.3642989163,-0.7784717361,0.2307238343,-0.6692684823,0.3093000509,-0.4898882688,-1.3832947541,0.4359305322,-0.621901265,-0.7066353662,-0.2054674875,-0.0042220079,-0.4879136958,-0.0316313318,-0.9608215173,0.025628634,0.5356281166,0.2401978897,0.1615652305,0.1667923212,-0.3937258491,1.042098291,0.162252159,-0.9885225665,-0.1031583465,-0.1308303457,-0.507706367,-0.6598893753,-0.024929892,-0.6093014603,-1.0353945002,-0.3432468639,0.9088863623,-0.3465562729,0.9465552926,0.8829134996,0.1722322086,-0.2723386522,-0.3784277098,-0.9034502305,-0.002657892,-0.1303534424,0.9260202302,0.6861438272,-0.0389471809,-0.6320054948,0.7012092191,0.2666026261,-0.3264435569,-0.5813505888,-0.3482094287,0.9869244386,1.5275239014,-0.3923374684,0.7105249197,-0.6205767396,-0.3860556339,-0.0996368867,-0.6148867732,-0.1917084907,0.6681483936,-0.2665002576,0.2854799151,-0.7877288014,0.8157899447,-0.3615855332,0.2011229975,0.8212695416,0.8249738802,-0.40894394,-0.0515864625,-0.0089566932,0.253491251,0.6499280676,0.4302448569,-0.769715829,0.623335878,-0.4196762505,-0.2313843652,0.2410296478,0.4982622178,0.8714435648,0.1092782125,-0.0970859683,0.5896687915,0.2518240018,0.6480428994,-0.770053925,0.5532323513,-0.4549966224,-0.9745719246,-0.6424977709,-0.7258307628,0.6296436078,0.2537456187,-0.4541984358,0.0821892896,-0.0915239375,0.13402838,-1.7119169583,-0.0803794849,-0.2334298505,-0.0381302169,-0.4563977801,0.050192718,-0.3642189506,1.235956998,0.4748977666,0.9798478356,-0.1064088197,-1.0144629521,-0.0583047363,-0.1312094891,1.0948912016,-0.8040079086,-0.7269853756,0.1772558332,0.6509224027,-0.4027696301,-0.563311222,-0.7162992387,1.0594654501,-1.1607802522,-0.3860903547,0.1924804593,-1.0689530557,-0.283038728,-0.6023817514,-2.3289274893,-0.4262080942,-1.0146190591,-0.3775965522,0.1295685974,0.8841674118,0.1603646017,-0.9285282843,-0.5309868249,0.5887314835,0.7607157745,0.2517160008,-0.8434671761,-2.0588338193,-1.0252142776,0.5626677023,-0.501727053,-0.6072062486,-0.974550937,-0.2619312588,-0.2365978934,1.2945945498,0.6953904215,-0.3759935162,-0.9085027889,0.1257333298,0.1575958837,1.5310202313,0.301358001,-0.8865687549,0.8328139978,0.1775305068,0.8799736634,-0.5015922355,-0.4058657843,-0.4925139917,-0.0429330894,-0.0593200085,-0.765981764,1.0837732422,-0.4128689611,-1.2675286143,1.026753097,-0.403641011,0.0704956261,0.5702494671,0.7703072191,-0.3617601432,0.456756938,0.1422455635,0.2649659833,0.8146560133,-0.6456404646,-0.5212033973,0.7040380724,-1.1357260276,0.8208924157,1.0098291159,-0.5183637726,0.8380096599,-0.1845778065,-0.8769297418,-0.5420988705,-0.7914642631,-0.405982345,0.0549182293,0.5011453201,-0.3518260937,0.2858699575,0.3156749356,0.0620852748,-0.625538856,0.4903023766,0.7774786894,-0.458845374,0.8172321166,-0.6908187566,1.0949715053,-0.0197917338,0.443237298,-3.925754552,-0.6534908597,1.0066260795,0.4823859591,0.9565470292,-0.5620647571,-0.552819137,0.2915099276,0.3010736596,0.2461220133,0.9422018369,-0.0499903411,0.2048099746,-0.9186830794,-0.628156749,-0.4940475134,-0.4958815506,1.8227025185,1.0271956124,0.0666979173,0.1271585674,-0.0776277016,-0.194012162,-0.3053214856,0.8242993177,0.7367649993,-3.0210348551,8.2300229967,-0.7447151501,-0.3277480336,-0.7661602915,-0.7622268766,1.3513830775,0.4449928396,0.0310993565,-0.548765855,0.3883497435,0.3584872006,0.2842757108,-0.4517233581,-2.6098904972,1.5851534174,-0.102349523,3.5461264154,0.695379636,0.1089012809,-1.1966552562,-2.1407453423,0.1705570611,-0.4946490461,1.079776922,0.2960203206,0.28516188,-0.543812959,0.1825583054,0.1605488609,0.1854181302,0.3788155791,0.0238408277,-1.0103356179,1.3186352941,-0.862281538,-3.0096329762,0.7145705621,1.836774514,1.5143591667,0.416139699,-0.7679805396,0.2700881563,-1.0660595587,-9.3421528548,0.1980344406,-0.7192042345,-0.0153478875,-2.0529106748,0.2213030627,0.9021925713,0.7924233238,-0.8927482223,-0.7443070368,2.3510522896,0.0041488562,1.346409107,0.2039612744,0.7432754224,1.3964878061,0.9969345957,-0.3963280562,0.805783476,0.7804948701,0.9694437035,1.7082871084,-0.7881590392,-0.9090706783,-0.4169859547,-1.0237727907,-0.5995810245,-0.7560861722,-0.5913237076,-0.6992289337,0.0551755934,-0.3217379395,-0.1390257373,-0.4284542887,0.5410821687,-1.1957668478,-0.6451764638,-0.5908446299,-0.8291338236,0.8413855414,-0.0949951632,0.8877658139,-0.2218452811,-0.5307067948,0.915696334,0.4393543015,-0.2554481444,1.0604932363,-0.2201914342,-0.2718134194,-0.4491896505,-0.5929727712,1.3175004692,-0.6900377222,-0.1236329641,0.4236843752,-1.8034352412,0.3319710297,-0.1627686775,0.6591066755,0.2264105144,0.4347183474,-0.9380609104,0.7904405013,0.2949947885,-0.8819143404,1.444971822,-0.6289285846,-0.2575543301,-0.1843201819,0.2691844718,0.6670161859,0.5259322331,-0.2420746405,0.2511442473,-0.2419569618,0.4272687902,0.3654251573,0.0042181746,0.3034488385,1.0284328525,-0.9298202118,-0.1225927588,-1.7103629052,0.6107393739,0.3801456565,-0.5025510633,-0.6432289316,-1.2312692521,-2.7174930031,0.1301989618,-0.7419694166,-1.5603405252,1.1978533808,-0.5946589277,0.9264104863,0.1990455918,-1.9241793921,0.7503256419,-0.0522464315,-0.0023355186,0.2896625223,-0.2697293432,0.1667482978,-0.0109615429,0.6764878668,-0.5293523971,-0.8245556206,0.9609152301,-1.1206130101,0.6837664219,-1.1557770411,-0.1611108519,0.0564203569,-0.7244400162,-0.3553640117,0.6031951723,0.4285627332,0.2803274829,0.3755224234,-1.0169242174,-0.1215274107,0.5362100394,0.2763802218,0.440487936,0.2853069822,0.0061913473,0.5276540246,0.020362132,-0.3999288713,-1.0062335298,-0.541450893,0.2769345002,-0.4639555771,1.0704744186,-0.6293775924,-0.8362236867,0.0309494966,-0.300641607,1.110417967,-1.5607607849,-0.8179109823,1.2126761885,-0.5862936497,1.003158609,-1.1915707006,-0.1955092809,1.1462484154,-0.4529147608,0.5874073331,0.7648301413,0.1165109561,-0.0242977656,1.5158764257,-0.251167559,-0.3075549066,-0.4012043238,-0.4751956717,0.3817567608,0.0742656133,1.0147266777,0.1053783501,0.3865917104,0.5950793268,-0.1710777902,-0.491258948,-0.760368964,-0.3947339162,-0.2458945748,-0.5856915592,-0.551927325,-3.7509278286,-0.1575761683,-0.5205655617,-0.0882169705,5.264996018,-0.1137987964,-0.6651436262,0.8353308374,-0.7225475466,-1.3708617324,-0.1834601606,-0.3729165163,-0.2353004164,-0.8673962201,3.0098593302,0.239101384,-0.3086992573,-0.0012165389,0.8546948192,-0.1424460124,11.0877563208,0.1923449025,0.4541560882,-0.20370348,-1.2776918813,-1.6532453971,-0.5211771764,-1.147251062,-0.7448685371,-0.1341162863,-0.1785509088,-1.3398807176,0.5604171509,-0.325527542,0.7183992327,-0.6916974271,-0.8591838645,-0.3474390231,1.0900331676,0.3485849269,-0.3372836276,-0.3687141759,-0.1871564385,0.5919433825,-0.703112386,-0.4538501803,4.3518869931,2.7861679577,0.4990905983,0.1806162988,1.0961648997,0.4863623726,-0.3936185063,-0.8030458298,0.3262868073,-0.7991960733,-1.0463577153,0.4506673512,-1.6860060267,-0.3398119771,-0.4281270492,-0.6692479975,-1.0615597087,0.889792797,0.4187216564,0.2060991331,0.6867222144,0.5169552317,-0.4710024691,-0.5164984187,-0.290563092,0.181660767,1.3736390096,-0.7258628714,0.2612249466,-0.7473914648,0.414258105,0.3834730978,-0.1165300132,3.0448398949,-0.0065093848,0.4601857804,0.5709897408,0.8662877275,-0.0231426708,0.4588114918,-0.3336400032,-1.3200794953,0.392502064,-0.1370545997,0.5443328711,-0.9398763504,0.3596424649,0.5713904717,-0.7272769669,1.1927400005,-0.9472635192,0.4270417173,-1.0040090003,-1.2800797358,-0.5659331049,0.2627218559,0.6044672083,0.9144110724,0.0311008487,-0.8499253077,-0.5032763256,0.7198464053,-0.1579298562,0.5244301441,0.0061980245,-0.7208901585,0.7993723668,-0.9059870999,0.3329089426,1.3611493137,-0.8361653647,-0.0427890208,-0.9688353827,0.1023922883,0.93501539,-1.2135501888,-1.8189060826,-1.1016425531,-1.2595012649,-2.5595934116,3.714788605,0.3134234767,-0.1565222289,-0.4274969554,0.2220779526,0.3101656775,0.3519832335,0.472199906,0.5619133873,-0.6074250613,-0.9412804408,0.4918821827,0.940777665,1.2536988329,0.1275182756,0.4065571242,-0.6910144036,0.5286862188,0.1021092635,-0.607147759,0.7335462271,-2.8547473314,0.3107270032,-1.7637245048,0.0420833003,0.5781459879,0.8505991772,-2.4581729299,0.0110237677,0.510984574,0.9488148603,-1.0273156875,-0.6517172278,-0.8966019074,-0.8993346679,0.0412197726,-0.615526896,1.7550226749,0.0289286221,0.6698402529,0.4013714573,-0.0017330683,-1.1928767457,-0.7428286975,1.1665698651,-0.9949752377,0.6761342452,-2.09514561,0.7196853008,0.6218640329,-0.2413330534,0.3009980052,0.0093916903,0.6291399912,-0.7037541561,-0.222884599,0.3046424207,-0.4151822349,0.4290257536,-0.6398613961,-0.7126103985,2.6972696101,0.6824918212,4.9375558005,1.1108376406,-0.1909057297,-0.6255250415,-1.3152521117,0.4010899223,-0.9052343651,-1.6963065524,0.9755824162,-0.0917513655,0.4652854606,-0.8052149009,-0.6602806844,0.0586406724,0.9972648055,-0.582015143,-0.0992323254,0.3768006859,0.525578508,-0.5387187578,-0.2161541294,-0.027718552,0.201826138,-0.1614502652,-1.0511553931,-0.7903782283,0.4543083734,0.6264490555,0.53865053,0.6830250914,0.9791776745,0.3442857902,1.5834532012,0.8932703517,0.4630246397,-0.8686792209,-0.4166571449,-0.5517679314,0.6618149175,0.0517908242,0.0562314661,-0.9579714506,0.3584691055,0.2167842828,0.0978854652,0.636374067,0.0471942454,1.1056797152,-1.1180575135,-0.3523334229,-0.173295329,0.3487753927,-0.0221373851,0.4909188846,-5.7124947012,-0.2038741762,0.3653461598,1.8137589044,0.4983560362,9.2878540127,-0.2695396608,-1.300338068,-0.8642959223,0.318551031,0.4545182686,0.7640501253,0.8135169755,2.3096903093,0.3798503794,-0.8503763076,-0.9932204782,0.3003083551,0.7072763359,0.9395703358,0.8556145422,1.1285539756,0.2141754819,0.3157462139,-0.2048830631,0.0957523712,-0.9797009232,-0.0998612079,0.7681552649,-0.3291959998,-0.0766228462,0.1827457121,-0.0157469959,-1.0063726146,-0.1588864515,-0.2813424779,-0.3666787598,-0.9317574439,0.8284277126,0.220146119,0.6638556789,0.7843529998,-0.2256099239,-0.3689251618,0.2603235611,-0.2875689633,-0.0702651153,-0.6335732253,0.2465731846,0.7304627293,-0.7672338584,-0.2654458857,1.0545602754,-0.3217415866,0.9273829707,0.2012183867,0.7876035616,0.9686015713,0.3504441937,-0.226854769,-0.7930476042,0.6144921782,1.1430613076,0.3245390159,-0.3990979205,0.4005703003,1.1954502633,0.2779612438,0.4650926922,0.7659002206,-1.1256376725,-0.2780878183,-0.0483171268,-0.202922125,0.5730969068,-0.4407004709,1.7060843283,0.3627864067,0.6002760278,0.9931671275,-0.8639257981,-0.1276511244,-0.2538253007,0.4413472842,-0.8685834149,-0.8125041391,-0.1465088735,-0.4101910847,-1.661323164,0.4486835728,1.4455813558,-1.0327846863,0.799912587,0.4463800421,1.1846914537,-1.0289456919,0.5185481288,1.689137132,-0.7253850401,0.3619891751,-0.8775742066,0.7062764248,-1.0449846137,0.2545688763,-0.0030646541,-0.8638719791,0.5485048437,-0.3790525466,-0.4028271133,-0.1519799512,0.6756347298,0.5349337914,-0.155443995,0.413061578,-0.1638625853,0.636050994,-0.2549570776,-0.430754201,-0.5868849533,-1.0675311119,1.0533852092,1.8714561029,-0.2642403512,0.5601073225,0.5125782589,-0.0933083224,-0.0354041584,0.0584709634,-0.4182589345,0.0021585179,-0.4310525605,-0.4276412222,0.3240711636,0.3548634177,1.2026443653,-1.0616736137,-0.0125079258,0.4520023622,0.6643494794,2.725607951,0.5388869566,-0.3976455487,-0.6101239571,0.0555789453,-0.2546422651,0.8148306444,-0.4787725511,0.4013353599,0.0356266538,0.4624038522,0.942685961,-0.7050284607,-0.9320606901,-0.4337255613,-1.9458231814,-0.9154459045,1.3920342576,0.2870525236,-0.9081774895,0.7687317037,-0.2677503965,-0.4175088607,-0.5470322925,-2.0109447101,0.7910910373,0.5945171148,-0.3745811296,0.0375694707,0.3980690707,-0.9640099727,0.6373319355,0.6087047414,0.0083078822,2.6462150082,-0.3572441069,-0.4208973613,-0.0004083888,0.6739167367,0.4229462414,-0.5799893401,0.0999241274,-0.7567594248,0.3414727223,0.5383589917,-0.1256054798,-1.3835865241,-2.0377478455,-1.8759010293,0.1159559424,-0.7289959161,0.7692265296,-0.3976192862,-0.9119115064,0.6916259084,0.5698150825,0.1055445507,-1.0630360536,-0.3834789195,-0.3551433408,-0.2873294483,0.1539542835,0.5194040273,1.3812195586,0.8076131846,-0.4654120628,-1.1482846828,0.0188272784,-0.2177935258,-0.182336133,1.104593283,0.3269913603,-0.5282082064,-1.91408048,-3.1698527173,0.2201625421,0.0811829486,-0.5674214118,-0.4170469703,0.5898899413,1.4119981733,-0.5669644906,-0.0959197245,0.2702526509,8.1432259434,0.9274966421,0.9641766059,1.5188617424,0.4105407393,0.245129822,0.8033179117,-0.6926735465,0.2123658668,1.0554061393,-0.6319934029,-1.0152417214,0.5963605197,-0.8708490167,-0.3392772212,-0.1736193722,0.7483163904,1.4339459898,0.7152539422,0.8524523599,-0.729533821,-2.355911573,0.2723638855,0.6937595392,0.0642987622,-0.6120256077,2.5517062147,-0.0874380926,0.5989743996,0.5226938889,0.1591324441,0.380454401,0.9770709634,0.1138294756,1.5061459881,-0.1396429605,-1.2183179774,1.0710041871,-1.1013940725,0.6490723127,-0.4285330411,-0.1888453822,-0.4406329576,0.256399945,-0.0346339567,-0.9110673824,0.5895813882,-0.6249039612,1.990557721,-0.917580373,0.7847230371,-0.0737306442,0.790186722,0.2603353579,0.1952542839,-1.095625917,-0.0393207416,0.5976047895,-0.2874408316,0.6348239507,2.5954004897,-0.7421218224,0.4681676157,-0.3269673122,-1.2815463981,-1.3676189238,-0.7166878404,-0.3565956337,0.6132693817,0.1163746674,-0.0037515415,-0.9385120463,0.6951455719,0.3107482972,-0.9887894484,0.3780885657,-0.8304075878,0.5303103919,-0.072585908,0.6196360519,-0.6461986411,0.8591056538,-3.2209212252,-0.7568311939,-0.3776961828,-4.9887034097,-0.1755331275,-0.6415119838,-0.9061799584,1.2154664437,0.5305769971,-0.755656883,0.5427482736,-1.1549629945,-1.1086042138,-3.7024889504,0.8689367958,0.203677798,-0.4103439558,-0.7458401334,0.3437361496,2.1819861257,1.3143691314,0.4729164664,0.8537888705,0.417450723,0.5928753878,0.3730008935,-0.1848942882,0.2289936705,0.4838869943,-1.0083326096,-0.2260657113,0.3272802101,-0.2420222228,-0.6281483249,-0.0300019666,-0.0356932446,-0.1811670799,0.5273670696,0.2097214219,0.9797696527,-0.1443085562,-0.7024718928,-0.4268332553,0.8169868394,0.1092932947,0.0534178074,-0.2740667112,-0.5786493689,0.4289177782,0.7911524106,0.6702329091,-0.3953051072,-0.6009991042,0.6809059528,-0.1691781722,-0.4637056904,-0.2190249084,-1.0289601224,-0.5887604523,-0.3341820355,0.1231149649,-1.2013095963,-0.1424064989,0.5649274921,-0.1276117034,2.0494508976,-0.3992093276,0.1731311677,0.5114413404,0.0742708403,-0.6633151455,-0.0075113693,-0.3986257546,0.8818936619,-0.2676354239,-0.2170830616,0.8216291998,-0.0993284779,-0.3010611688,-0.3645197829,-1.0489123501,0.4204795887,-0.9415659095,0.130294447,0.2439870996,0.0786677184,0.818021385,0.5848185177,-0.4645582359,0.8581905187,0.8328583,-0.2152603868,-0.8280928061,0.7991306498,-0.7847357949,-0.4075482403,0.5408202834,-1.2069559786,0.4992446773,0.7163036723,-0.904185168,0.0362897919,0.3107420566,-0.442602385,2.0708502016,-0.7501433204,0.3421339158,-0.2476224673,-0.8289470984,-0.2503326156,0.2954815755,0.5222181825,-1.1608282076,0.1739859013,-0.1281608872,0.4213159723,0.1447973249,0.2535828737,-0.52921711,2.9762862267,-0.6206810354,-0.9255348711,-0.466257877,-0.2484598719,0.9169759948,0.7396664415,0.8866691949,0.6963655897,-1.0000194911,0.0355437548,-0.4571095703,0.8763609577,1.0199967437,0.1465627307,0.057636274,-0.9629200436,-0.5345908724
   0.2018840884,-0.7700671363,-0.0576281314,0.6577038523,-0.2604713436,-0.7772225306,0.3327224271,0.5966755954,0.9082082478,-0.2928572591,-1.1642051786,-0.9310262324,-0.8495133786,0.0948879799,-0.2617172851,0.001503904,-0.3889830811,-0.0422834039,0.8733582901,0.2738623631,0.9615463743,1.094622567,-0.5020727447,-0.0585759096,-0.948410854,0.8435171904,-0.7381527573,1.0687433153,0.4082032243,0.4352581996,-0.5616163608,-0.5973224823,-0.290595063,-0.7956703578,-0.5651701185,0.256718093,-0.2473708252,0.5833074693,-0.9164778238,-1.0341100924,0.0259480853,-0.8286786397,-0.4697414303,0.032576589,-0.786297463,0.6907800627,-0.5463891903,-0.2792947802,-0.0846516511,-0.4836127717,-0.6889944254,-0.4173077911,-0.9927503343,-0.2983936196,0.7188480564,0.4434383965,0.2786535845,-0.5816514787,-0.3027359143,-0.8603895636,0.1345467229,-0.036463212,-0.6999069534,-0.0519471058,0.2048312623,4.1171223003,-0.4361087969,-0.6102494241,-0.545770122,0.0224061755,0.4873532082,-0.4376116033,-0.7975641453,0.5365428523,-0.1215448695,0.3496324236,0.3119353256,-1.7210347434,-0.1696009498,0.6874097722,-0.6902087417,-0.683189067,-0.2554924985,-0.154724141,0.0336031908,-0.2101744755,-0.442737442,0.2558760682,-0.8938860911,0.9549722207,-0.8051950847,0.2835406373,6.9122072564,0.6720296269,1.8461522755,-0.3584463755,0.5466461116,-0.2697342657,-0.2010722289,-0.2883542072,0.2129985298,-0.5030013931,0.7224462672,0.0586004892,-0.5687137566,-0.26100389,-0.0280277482,0.1828403836,0.3625332922,2.4072196759,-2.6375046973,2.0098143316,-0.7893759483,-0.2286687636,0.9895351795,0.4395785937,0.6950362333,0.7367580858,0.2243149881,-0.5758395373,-0.5114984497,0.1301359584,0.66788312,-1.403715699,1.5052922381,10.1906382691,-0.3670773273,3.1617292384,0.5967945588,-1.0574647017,0.0428988638,1.6053142863,0.1459484532,-0.6497990493,-0.1504212136,-0.3133994256,0.7210490942,0.5805873863,0.4202995909,-0.8898493201,0.5659772645,-0.4964375432,0.5930844527,0.5231333994,-0.0755716502,0.6001200912,0.7187462602,4.2240258064,0.9170441379,-5.0304676987,-0.5854893986,0.198076616,-0.951361739,-2.5702394043,0.9614144526,-0.8186439143,-0.7092468418,0.113513318,-1.411635766,-1.2345975815,0.0986686245,-0.5811388922,-3.9976826396,0.8649101956,-0.4941181988,-0.1586306902,-0.2248112729,2.029007993,0.4688083835,-1.5532868198,-3.3721459373,2.2003952583,0.1007207911,0.9190390054,-0.1224654126,-0.0272729861,-0.5413635093,0.0106441711,-0.408671226,0.7849377262,-0.1808527622,1.3427605873,0.9017642466,0.2240576097,3.2649490802,2.8332437873,-0.2617251627,-0.8521105881,-1.7551268663,-0.3270608576,0.8316654008,0.0146281181,1.0151880453,0.8739490822,-0.5110167125,4.412296924,0.8491622597,-0.7554316099,0.8429480937,-0.000050033,0.7220841526,-0.8521126611,-1.0718875491,-0.8739819434,0.0066442734,0.2151928912,-1.6165938814,-0.5688488676,-0.4438223469,0.4481251456,-0.6463518775,-4.8560547803,1.3684171204,1.0877879372,-0.4010373052,-1.3271774754,-0.3973372138,0.363554376,0.745786877,-5.3976912389,-0.9688608548,0.1869038793,-3.243335235,-1.5636742199,-1.417307944,4.3318631131,-1.206642109,-0.1140117833,0.6994458486,-0.5379250056,0.9217870107,-0.6831824555,-0.4747732873,-0.7707881202,0.4765834996,-0.586605877,-0.4887406928,0.5944107704,-0.880871928,-0.6343193464,1.038994506,0.4539884901,0.2636892244,3.3521812956,6.5946375545,-0.2185729272,0.1373223323,4.8685090592,-0.9657595061,0.6268789457,-9.1923853568,-0.9000312303,-0.9689574544,-0.5825479864,-8.796415442,0.088047024,-0.7780827172,0.5721146602,0.1821275684,1.9478141156,-0.3300154858,0.9422451261,-0.6092404537,4.0615542323,-0.7274734058,-0.1710753851,0.435594211,1.0437710766,0.1702220578,0.7762533021,-1.1162232025,-1.5215434107,1.5395708598,-0.8925602356,0.3731016375,0.7963184569,-3.1727504624,1.020428069,-1.1549511797,-6.4481491885,0.8435567358,-0.0145126536,7.0328798706,-0.7981951322,0.2381981763,-0.3648606915,4.2626514342,0.3190217261,-0.8958119257,-0.3015564755,-1.2704793756,0.7009236717,-1.0131432847,0.4491712951,1.1026216889,-0.1913825551,-4.4215071429,0.7110653963,-0.3193931208,-0.5779552604,0.0732815648,0.7946567771,-0.7785237302,-0.9507193015,0.5087700954,-0.3398579674,0.915991995,-0.9475359031,-0.1409510435,1.0152088836,-0.9390801218,0.1047650858,-2.5759441237,2.6462491115,0.0587772936,0.410491251,-1.2987862592,-0.7367030601,-0.7511798495,0.2510769248,-0.606319856,-0.8566772983,1.001791669,0.7118015752,0.3991237992,0.1217366441,-0.1226842909,3.9485378795,0.3939189844,-1.6131048299,0.6992425525,-0.6135873449,0.5034667777,0.4200993767,0.4462752793,0.0626730727,-0.1254336473,-0.6966200122,0.1689416664,-0.7997995788,0.519501034,-0.4412350492,-0.2590338711,-0.6865409809,0.4157597529,-0.3104099682,0.4382943563,-1.2917978554,-0.3248877676,-2.9187112064,-0.9350460908,1.0688443486,0.2410507498,0.4328763691,0.6474141284,0.0078557999,-3.2902872963,0.9344959514,-0.5221909712,0.5989380667,-1.559270919,0.0631285782,0.0168784706,0.7024572604,0.8391969865,0.4136603384,-1.0449495932,-0.6813777185,0.381989418,1.8713274556,0.8548341037,0.6336844548,3.6591000982,1.429514738,0.7911969392,0.3294142955,-0.2281759239,-0.1070571697,-0.9415904126,-0.6963227292,-0.2986792038,1.2465234605,-0.535416929,-0.1369331129,0.2901736115,-0.0717011516,0.2443718819,3.4654221801,0.8979690277,0.4855486921,0.0596013446,-0.3914359489,-0.6509528657,-0.3294530419,0.5272609306,0.1557420172,0.5420014025,-1.9875361374,-0.0027199635,-0.4392475329,0.0872089034,-0.3389978405,-0.2794032448,-0.0784206367,-0.1913771312,0.5930721646,-0.6829524056,0.9077433561,-0.4764167512,-0.1395021229,-0.3580697834,-1.628457236,0.0473709139,-0.5710026234,-3.3149637381,0.625575872,0.2809725098,0.621583572,-0.16389062,0.2021416097,-0.5221947152,2.8334170927,-0.4523885364,-0.3344069292,0.5563066334,-0.5698807347,-0.1719246852,-0.6888290615,-2.8853575175,-0.4021474527,0.2226594941,-0.1950862839,0.5798920078,0.9949573619,0.7054671001,0.6648739482,0.3567090218,-0.4343075142,-1.071959899,-0.9345107549,-0.8696100677,0.4606035638,0.3305221209,-0.5924191875,0.1254742076,0.8089966484,2.8732307481,0.8742033617,-0.2397416132,-0.3294458987,0.1077490139,0.7741430153,-1.7929746048,1.403941773,0.6813425814,0.1098445104,-0.1312695406,0.5447276389,0.0244951055,0.903044058,-0.296813292,1.0896157859,0.6582760785,-0.7279259751,-0.6644577787,0.2386457737,0.3818553668,0.5231340947,0.7650095611,3.7295668882,1.2928422804,0.9611877008,-0.5396518771,-1.385772608,-0.0228754524,-0.3469469434,-0.2111039475,0.5245766551,0.0102139059,-0.3511032369,-3.2670840039,0.2722171759,-0.5147240002,1.0358462143,-0.8830611383,0.449578878,0.3442530039,0.7504997018,0.3595388048,-0.4555566052,-0.8987430585,0.4387440362,-1.0389914468,-0.790543661,-0.9355210671,0.9058614164,1.9101425324,-0.4454211712,-0.7055834457,0.5805048712,0.1670328076,-0.7798420738,0.4329617475,0.9992660505,-0.7747649299,-0.9753996317,0.4214408484,0.2712160841,-0.1331337724,-0.425884183,-0.2815962784,0.1877488076,1.3818835951,-0.7367890356,2.064990721,-0.2196415755,0.8337544186,1.7269437978,-0.1338915446,-0.2806326716,-0.2424707649,-0.1898048353,-0.8308124747,-0.7445278416,-0.3596537998,0.216823767,-0.4180573602,0.1640993236,0.0202212627,2.5997250627,0.0539901132,-0.9299006316,-0.5346509927,-0.7774836991,-0.0663238612,0.2937049403,0.5698313938,-0.7733812404,-0.1371719612,-1.6896240983,-0.7193144946,0.0130162049,-0.7068404106,0.610538359,0.7208907694,-0.8950520711,-0.8370069324,2.8672800674,0.6788168522,0.0807905241,-0.3149665866,0.8050178163,1.6767781567,-0.6537083223,-0.2310183747,-0.0087947341,-0.8795929673,0.487147279,-1.124434822,-1.0349357332,-0.9508097214,-0.5326565901,-0.2794872277,0.933154286,-0.2612720287,0.5165796069,-1.4934256364,-0.2715275377,-0.6056798193,-1.0058548289,1.8117564535,0.0806585168,0.7139381227,-0.4649854408,-0.4867241306,1.6074169632,0.9954838311,-0.2414096108,-0.2221398151,0.7616759412,-0.180564922,-0.8725270534,-2.6734641529,0.7116658761,0.5515220675,0.771805445,-1.0214635604,-0.5603899283,1.5751136059,-0.0026884168,-0.7560531927,-0.3294970978,-0.9105405916,1.0571465586,0.1927730721,0.7230522509,-0.1871490962,0.8642624418,0.9151982535,1.9715762672,-0.7746008126,0.8908309956,-0.4750347099,-0.7302699828,-0.4557073166,-0.7162731824,-0.4024028071,0.9967951364,-0.0883511865,-0.0379703785,0.3330144252,0.5724736571,0.1630293161,-0.8095719037,0.2788762872,-1.5465389222,-0.7196692061,-0.0103848101,-0.7253827182,0.7591227421,0.3427673937,-0.0286355216,-0.8089530875,-1.426051098,-0.2888774171,0.3859289092,-0.9977780758,0.0813407658,0.8947203421,-1.4201583019,-0.0990353968,-0.0953110824,0.7335221533,0.3256335785,0.7801208648,-0.1097943262,-1.3933087993,0.9830640338,-0.2691453056,0.662243794,0.441621239,-0.6111161983,0.0655900972,-0.848781225,0.8642613566,0.3978760477,0.786862109,-1.1262240033,1.175573725,0.5897292064,-0.2169006645,-0.1620918403,0.6684661308,-0.401214686,-0.6334312127,-0.4784806313,0.4860177431,-0.411631447,-0.0974552784,0.6014382449,-0.5055424259,0.5559126404,0.9994192644,-0.7600956797,0.9408945977,0.2279922476,0.4870982468,0.7718905144,-0.8447178153,0.9982668887,-0.7647008991,0.3001668496,-0.1339435545,0.3083643481,1.417625578,-0.5742513968,-0.4318456201,-0.1892920791,-0.6115845793,-1.0082225214,0.6480804901,-0.0546986963,0.1654313964,-0.9385627137,-0.1110241469,0.7240329293,1.1991820493,-0.9015336622,-0.2231311724,-0.7981456805,-0.7033301602,-0.1962264769,-0.2278892265,-0.3055709543,-0.9757416981,0.4879748595,0.8755603586,-0.5430673596,-0.3812944193,-0.5032881408,-0.0976161646,0.7725009764,0.9431590143,-0.6412527788,0.883054031,-0.4433672112,-0.3567764373,-0.9123471898,-0.2129415736,1.2776134455,0.5735164206,-1.3627696148,0.2920300287,0.9179099166,0.0315027831,0.8454862365,0.96841018,0.1328268078,-0.4812568921,0.2390254553,0.21815047,-0.6752952494,0.7497177909,0.8979593765,-0.7002486081,-0.8381072693,0.1797247813,1.1964398133,0.5434613013,1.11012761,0.3297707249,-0.5960620358,0.3320302227,-0.3318122124,0.0334436077,-0.6778562392,-0.0849167491,-0.2412548114,-1.6565919121,0.5948117132,-0.6168962212,-0.2257914203,0.3389259213,-0.3908751031,0.7045771404,-0.3536045028,1.3345347822,0.7689498226,-3.292295933,-4.4204575295,0.944675655,-0.9401577117,-0.0322900581,-0.4675933659,-1.0710129852,2.5447657383,-0.4630125506,0.5016503372,0.1835003958,0.3194705448,-0.3443648635,-0.5702245897,-0.3644857235,0.8057064104,-1.0976069956,-0.6828813236,-0.2166197519,0.2382718436,-0.6594960561,-0.8185297741,0.9726905859,-0.0721568371,0.3046638423,-0.1108146968,0.5223135401,0.8489588997,0.1443097039,-0.6130707079,0.5353720438,0.9263185051,-0.7971930814,-1.0099215902,-0.8516807093,-0.1687223768,-1.4648054012,0.8500643756,-0.0813617547,3.7147559347,-0.2711635469,-0.4940705159,-0.4413732377,-1.5098571643,-0.2334750342,-0.7133134214,-0.796590006,-0.8509985416,1.2169896766,-0.3166896327,-0.0608752709,-0.8922226185,-0.8461321002,-0.9370459057,-0.5046358435,0.1726039517,0.3888676903,-0.5451744924,0.9632061865,-0.6463333976,-0.3318192801,-0.2205087411,-0.4377333993,0.180487827,-0.0809085627,0.0252458928,0.2015917406,0.1513688947,0.6100625819,0.1105590557,-1.0264127221,0.5350217472,-0.3874907795,0.0540974728,0.4419191465,0.3027820422,-0.608805015,-0.3169216265,0.5240654177,-0.3463775759,-1.3327845629,1.1083030663,0.465421592,0.6549552162,-0.1631353845,0.1192883227,-0.3058138923,-0.4318453918,0.7830281325,0.5697697988,-0.5321646604,0.7470817066,-0.8252324309,0.729629154,-1.4834495835,-0.083881913,0.0414334208,0.2295078852,0.0652022737,0.7306219818,-0.8853145313,-1.1006021217,-0.6960146698,0.9269975562,-0.1515210754,0.1527147344,0.6867042517,-0.9581113272,0.3180725354,-0.4566823305,0.7303535612,-0.0120732706,-0.0064128683,0.818982696,-0.2081580622,0.3390848908,0.1014365424,0.6674399094,0.2947425972,0.1329430163,-1.5601712293,0.0895826686,-0.1940958871,-1.2351182896,-0.6575944034,-0.8097576454,0.7198422938,0.6846557797,0.9662681144,1.1076836202,0.0497992773,-0.8320334384,-0.5045920106,-0.5258767089,-0.0257727228,-0.8342179166,0.6267798496,0.2068288722,-0.7306939595,-0.3391891192,-0.2741350888,-0.9349968573,-0.0581420332,0.1767772236,-0.1602939113,0.2969781247,0.3989330185,-0.7575897601,-0.1939054753,0.4483735558,-0.8526008226,0.0170005268,-0.3489229883,-1.2019792495,-0.9397269795,-0.2984215249,0.7719012113,1.5970434645,0.7163055269,-0.607191602,0.9251747512,-0.635013366,1.0346110861,-0.994074614,-0.0865206201,0.1621262221,0.799610306,-0.6556583179,0.9481619797,0.6531980524,1.8842268969,-3.8854444813,-0.5221726233,-0.6473164263,0.3489971179,0.0749841835,-0.2570983691,0.4581742478,-0.5363867874,0.2864095682,-0.9307463754,1.3946421133,0.0935758325,0.3419704457,-0.729713122,0.7343981053,-0.7010754912,0.384746989,0.3112264564,0.018436103,-0.7374487635,-0.9512573341,0.868568907,-0.5494847008,0.4412668867,-0.2685806531,-0.420270182,-0.6462895126,0.3058096647,-0.8170015505,-0.7087765432,0.5374893795,0.2496289655,-0.7812784704,-0.1618388998,-0.8074482825,-2.4006200578,-0.3740829752,0.6915102255,-0.9103232492,0.554115442,0.4596237486,-0.8259330591,-0.0334707568,-2.618526587,0.7209339833,0.3221465586,-0.0978463337,-0.3526011033,-0.8213688583,0.0199987571,-1.9088796895,0.2061796339,0.124745851,-0.9231201214,-0.7545324164,-0.7899818469,0.7300554582,0.5037923653,-0.8639097772,-0.2731950166,-0.7825881857,0.9275804304,0.770345428,-0.2381133875,0.7167666443,-0.3172935464,-0.163910439,-0.831366027,-0.0748344131,0.6496746499,0.5704713784,0.9751767305,0.0650464789,-0.9246477453,-2.1902940426,-0.4701983042,0.1271906416,0.2101083734,-0.7996929937,-0.4138447398,-0.5798494645,-0.2113766149,0.3781551051,1.017847142,-0.2420701024,0.3847471479,0.0360782519,0.0143488299,0.6783008075,-0.7971463861,-0.2748576859,0.6539004069,-0.1942997543,0.6559273976,0.6832271136,-0.0509757641,0.7729705498,-0.7843239519,-1.0841407139,1.5804646443,-2.396916467,3.5614331571,0.1210379468,0.7625729091,0.716233996,-0.676456748,-0.3697680136,0.9616493477,1.3645468799,0.7481866104,0.5028002385,0.058777995,0.7130231403,2.8231866496,-0.745411939,1.2710226335,-1.0428201884,2.1925866761,0.6554814996,0.5432674629,1.1837737828,1.4407446676,0.6125057509,-0.8006505802,-0.3914024259,0.0487767416,-0.8277237819,0.4185472114,0.3735129902,-0.7322689919,0.8736616345,-0.1622297205,0.7792784064,1.2642205283,-0.7887589754,-1.5314666853,-0.6438988336,-2.6467136454,0.8360965382,-0.4126430004,-0.3844517757,-0.3334204178,0.3966747075,4.2662649006,0.5882732907,0.5470400612,-1.4795606647,-0.667184042,1.2299026608,0.7174974108,-0.2671325713,0.2232024004,-1.5915300996,0.9395447704,0.5156273932,-0.7506872736,2.0674014944,-0.2102486768,0.1067596067,3.0334036731,-2.2781325929,-0.6216738742,0.7923256241,-0.0187168148,-0.3278309235,0.5230768449,-1.017054414,-0.2980527285,-0.5514085076,0.3809180247,0.8901407854,-0.279462564,0.6127008257,-0.2538189056,-0.9516178935,0.882308679,0.3570165473,-0.1944918092,0.0975106838,0.8951830133,-0.5347859106,-0.6178845849,0.7185530942,-0.6978585122,0.7068432447,0.1027817865,-0.9648076035,0.9956555137,-0.3655584866,-0.0224298545,0.3789946856,0.4409228119,0.7608407633,1.3304933528,0.5145457285,-0.3245969869,0.5296619912,-0.5932639651,-0.9640727384,1.7009823962,-0.1836816685,-0.7200501875,3.6125130105,0.0425350091,-0.4664363382,-0.6203092001,-0.8155737238,-0.1089834044,0.2139351776,-1.1803195998,-0.0874694248,0.6770902152,-1.3693091493,-0.678891055,0.2804732005,-2.22130967,0.2641042174,0.2691979361,-1.6803618307,-1.1187853839,-0.556107441,-0.2902114901,0.9178055605,-0.391036005,-0.6479320568,-0.1410072696,-0.7412045535,-0.643011792,1.2838705639,0.1597491795,0.1892084658,-0.968076286,-0.4688504884,-1.21609557,-0.4350306983,5.9071150595,-0.3138480516,-2.019236467,-0.3858028236,0.0742074922,0.9059861064,-0.6715491122,-0.3730137868,-0.2634154666,-1.887658839,0.7668367037,-0.5709862646,-0.3081209078,0.4180718082,1.0383243658,-0.5524355168,-0.3580849049,0.8577426878,0.5372769032,0.0185699377,0.5378348231,0.7711972282,0.2975496523,-2.1367178157,-0.5289400738,-3.759340271,-0.1309651805,-0.5742239046,-0.065260969,0.9558984164,0.5443251872,-0.3823793082,-0.4099118487,-0.2905405023,0.1249380459,1.2926581126,-1.4115460161,2.7711761102,0.4081117582,-0.8240907614,0.3290160816,0.5060023597,0.0758011514,0.6358076999,0.1710230465,0.4967466727,-0.8209358826,1.3342646361,-0.4681082053,0.3867209449,-0.3078133741,-0.0352403955,-0.0442319984,0.190167166,0.2581992371,1.3027507069,-1.2123636915,0.7501340746,-0.2611564582,-0.6163475762,0.626885416,-0.4491614164,-0.7892239332,0.7842076041,-0.8579932505,-0.1678481875,0.1919355605,-0.5522019916,-0.5343290164,-0.5941173647,0.3470775546,-0.3209295289,-0.8529895302,0.4467281551,0.1486682542,-0.8954943253,0.1115009125,-0.0954398896,0.5758145528,-1.112864425,-0.6452694874,0.1289179001,-0.4197220654,0.9992306306,-1.0452914315,-0.1212977547,-0.2185916475,-0.3071209901,-0.7002619282,-0.670225018,0.6272884785,0.6331988427,-1.3203871117,-0.4581285476,0.1838710641,0.2395064314,-0.7938078117,-0.4709017788,-1.3131831764,0.2010875609,-0.7323635604,-0.3432226341,0.886268127,0.2435707178,0.4013960521,0.0207913039,0.1802438547,-0.5174971993,0.55386325,-0.6777852397,0.5474471668,0.0426399392,0.1788718557,-0.0079099733,0.5460183255,-0.6273988832,-0.6384074206,-1.3511556296,0.4390982228,-0.4712876282,0.6248711405,0.0644483933,0.9648461537,-0.2430248314,0.1778469459,1.2067877655,-0.7773571071,-0.9369961046,0.0602762031,0.6337674389,-0.7560756758,0.3535391116,0.448743154,-0.660896215,-0.2769763961,1.0801573212,-0.0576888426,0.748452922,-0.182162116,1.2753837465,-1.0274034378,1.1795681196,1.6678486192,-0.4491699135,-0.4600639657,-0.3533688445,-0.2057057728,-0.6303540499,-0.1133992228,0.290957092,-0.5808466635,-0.5890556612,0.1094525447,0.9458783721,-0.0869670396,0.1862941877,0.5222620561,-0.2610893438,-0.1543578964,0.877692212,-0.7548619402,0.0894833265,-0.6285058067,-0.9499517844,-0.4833668046,-0.0087721392,0.1642067139,-0.492760101,0.0508636223,-0.6866778161,0.5317459377,-0.9675055142,-0.0762848558,-0.6414609267,0.2230269971,-0.7828386948,-1.8918848655,0.3294407012,-0.3264142316,-0.9651372341,1.5756812619,0.3090724,0.1128048124,-1.2371611321,0.1634187552,0.4828772732,0.0022821853,-0.0909031651,-0.7210752438,-0.72861259,-1.6527931589,-0.2451479364,0.095362051,0.6064790025,0.7653388126,-0.3694651464,-0.3853730562,0.6332320925,0.6288652923,0.4217813573,-4.028514887,-0.1527034893,-0.6579441599,-0.7291017246,-1.3307721541,-0.7765205782,0.0971578105,0.4057249447,-0.0923532004,-0.8140403992,0.1723642012,-0.7231365648,3.1187853101,0.7349321685,0.804699169,-0.7436721084,0.8621804307,-0.3017841043,-0.1577236873,-0.8838706021,0.3951598426,0.2632573796,-0.1906046129,0.0160296518,-2.2684662891,-0.0577948711,-0.541176405,-1.8467601454,-0.0934246222,-0.7834273036,-0.0370387766,0.1567696517,0.338386347,-1.6063183952,0.9614897955,1.5470837311,-2.7979593757,-2.1834796191,0.3114664042,-0.0104496341,0.3750568772,0.2182763758,-2.304686011,-0.2843150074,-0.9982356219,0.4401500862,-0.1025160175,-1.8952156104,-0.7763858122,-0.4626643722,-0.941493829,-0.9810035258,-1.1725665468,0.663335237,0.4675216823,-0.6149838277,0.6086372674,0.731719489,-0.0333799976,1.1371628336,-1.4828552955,-0.2762411487,-0.8092914425,0.1867404749,-0.2357345795,-0.3842130258,-0.4910364036,-0.7411215909,2.5180474386,0.6042352146,0.4267119794,0.4677206302,0.900716391,-0.6979662756,0.1835880713,0.1408523853,-0.7276535738,1.1344956412,-0.1264084776,0.1965209198,0.5961130833,-0.5643718081,-1.3182942918,1.2832695875,-0.9520547517,-0.6139079358,1.3508013268,-0.2202062601,0.0994336318,1.3122749364,-0.0634615718,0.7019569491,0.8473181408,-0.1332910089,-1.3395473602,0.0484667442,-3.0778267494,0.3777769811,0.545096912,0.0404476996,-0.4842151084,0.2530140999,-0.4950899156,0.2899990821,0.553067349,-0.5392117833,-0.7492738773,-0.388539868,-1.5549647449,-0.8215883492,0.402951545,-0.4023163858,1.2405591465,-0.344056947,-0.3430711151,0.809205385,-0.3037934537,2.1932091472,-1.1002495523,0.8042560309,1.0152069117,0.8641916439,0.921707683,0.6604229755,0.7398848739,0.8905253382,0.0082090702,1.0458187895,1.8257742654,-0.0325976974,0.1264063956,-0.2966354432,-0.5869717646,0.0641589258,0.7661438924,-0.0377026625,-0.4120999264,-0.4273329904,0.0121084377,0.6490593344,1.2094827046,0.8706946079,0.7950692119,-0.0787745208,-1.9564500235,0.4406135016,0.326071449,-1.6549566192,0.2367569795,0.8900991261,0.0012403742,-0.9299593525,-0.5702498156,-0.9398547605,0.2011123387,1.1412595156,0.2583645059,-0.1904781048,-0.1516513044,-0.7311554164,0.6683222333,-0.1016986691,-0.8621816023,-0.0982305235,0.9311860951,-0.9154911589,0.3881038489,-0.7075706866,-0.6264258688,0.1917721644,0.3031272627,-0.9628766123,-1.2112488621,-3.4967943029,-0.0654806264,0.0640750571,-0.3643105141,0.933541547,-0.3740730526,0.1896184441,0.2129978861,0.5041739467,0.4189658668,0.2712974914,-0.579106072,-0.7675619651,2.1295165755,-0.727692155,0.5785206084,-0.9465863052,0.1839947075,-0.489030827,-0.2666646312,-0.6425124724,0.9350027034,0.5049384716,-0.8606326533,-0.3378497595,0.0612641172,0.5552709481,0.7254562108,-1.2483530022,-0.020202071,0.3684013771,0.9401743773,-0.1562291323,-0.7537950636,1.0479263149,0.7304955743,-0.3313881598,-0.2630086358,0.046146407,-2.9098609889,0.3121194455,0.3712843776,0.6875228865,1.2182898641,-0.0837052001,0.1163276315,-0.8004021513,-1.0781202304,0.2620968729,-0.788026499,0.6971053582,0.0828435259,0.5842427766,-0.570410975,-0.6226089453,0.759721489,-0.0729496524,0.8988964205,-0.3705244468,1.1953363629,0.211192152,0.6160515648,0.581706659,-0.0002401823,0.0653789305,0.8564197863,0.227786697,0.9422315773,-0.939853754,-0.5666657205,-0.1734799948,-0.6888448212,-0.2535156555,0.069608439,-0.4972918301,0.6126802471,0.4310677277,-0.3596895277,-0.4749139569,-0.739032473,-0.1777682797,-0.9337509778,1.1024879376,0.4870590011,0.0432376591,-0.4577209828,-0.153315415,0.2793155288,-0.123498125,-0.619636861,0.4598947304,0.9403288369,0.2136124296,-2.1107564738,-1.1519566915,1.1042036261,-2.0705759665,0.1104826197,-1.269700009,-0.2419111984,-0.7663406749,-0.5431321776,-0.9369525564,0.8090190527,-1.1343901713,-0.3634186803,-0.9862100685,-2.1164244436,-0.3938570259,0.6658273767,-0.8208714386,0.0487762639,-0.380948146,-2.7794376995,-0.4899560366,-0.1897384676,-0.507105905,0.1517927903,-0.0760233222,-1.077823647,-0.3956035717,-0.6299391786,-0.6849340759,-3.9734447839,0.1014593645,1.137819411,0.1937105632,-0.4111757702,-0.7801024875,0.5447676491,-0.4617916094,1.0734735673,-0.9454453909,-0.4303049639,0.4830844308,0.5577360636,-0.0141897447,0.3773165078,-0.2292898972,-0.2465037465,-0.4969174572,0.1937718917,0.7661088917,-0.0364619274,-0.9150053576,0.3634040197,-2.7812349496,4.3137230247,0.8179105963,-0.2529248024,-0.3972097989,0.127205992,0.2565454945,-0.3071437827,1.3681803446,1.1559031687,0.3043915934,-0.0211298533,0.1689318867,-0.44959967,0.4954417162,0.2275964343,1.5575263689,-0.5008461572,1.1372215372,0.0383546075,1.0482328585,1.289929583,-0.6535857685,-0.1041079388,-1.0538362817,-0.6000413023,0.0126656582,-1.4011819385,-0.5001011611,0.4793104015,0.723743976,0.3409420336,-0.2053801059,0.9628241317,-0.7941727094,-0.2609850481,0.8254940306,-0.2301265111,0.1839561574,0.5943165574,0.1644906545,-0.3163120233,-0.0061076198,-0.1590964709,0.5182305982,-0.6806552797,-0.4035893853,0.0197775489,-1.3287015252,0.7282982488,-0.735552375,-2.415676969,0.147763972,0.5712623657,0.240431001,0.2232787472,-0.6356575283,0.4780420362,0.4724291707,1.1372497677,-0.1611015237,-0.5823969681,0.9527423829,1.2562478347,-0.7305064386,-0.8802031869,0.1935058809,0.5880492929,0.3210797725,-0.8169148003,0.4065147465,-0.8282512891,-0.0948629104,0.5601906009,-0.3763252374,-3.0016951515,-0.7558970242,-0.2698842995,0.243007757,0.7356683834,0.1537664607,1.0880408878,0.5589627423,-0.3455557684,0.3185232391,-0.2966001799,-0.2990066607,0.3478615519,-1.3219637192,-0.6610806395,0.6260185361,0.5958493761,-0.4417741473,0.1676590441,0.9399377091,-0.7928260814,-0.1289864409,0.0573432233,-1.0498624029,0.3937237999,0.2239954973,-1.0888902904,0.1121039834,-0.5932790802,0.5438721897,-0.3831036932,0.2376918386,-0.0654223687,0.4340761038,0.7251330074,-0.1309967533,-0.6894601915,-1.0763158891,-0.7819469022,-0.0942846964,0.8098655983,-0.0280972083,0.1801975756,4.2479174215,-1.0001218201,1.6023298408,0.7607068879,-0.0015154015,-0.1400283641,1.8678519221,0.7797143643,0.4249614276,-0.5099329087,-0.5695574392,-1.4902990627,0.3070449998,-0.3851331147,-0.2909848607,1.2166484196,-0.0980985294,-0.1827212079,0.3589658465,0.161756265,0.2427975104,0.495857274,0.2424398963,-0.2104314902,-0.3694206728,-0.6689680769,0.1478771438,-0.2834843848,0.1582976563,0.2124811102,0.5657178956,-0.0436792703,0.7606045006,-0.8529839092,-0.2185596878,0.6125727373,-0.7120163041,-0.8697918439,0.7467198661,0.4392605469,0.5476420862,-1.0704386718,0.4728302401,0.5849506067,-0.4642810268,0.1941132992,0.314553745,-1.2422172991,1.0522638403,-0.2592524351,-0.1727924306,-0.1024233019,0.9958099124,1.1016847673,-1.0500404828,-0.8256509992,0.1819525213,-0.3253365671,0.0079204906,0.9143978952,0.0779143869,-0.3379306295,-0.845887149,0.7062939922,0.4946163803,0.7104815916,-0.8165669084,-0.4986948933,0.9914587459,-0.0801488611,-0.8232297971,0.6221794273,0.844002305,0.4686713004,1.0299671079,1.281088433,-0.1204478708,0.8794511027,-0.8724962463,0.1891162149,-0.5169594582,-0.4106048567,0.0240965645,-0.5021203109,-0.4075663837,0.8597687392,-0.4851367633,0.5094298644,0.4263326624,-0.5829959475,0.3753595276,-0.1486153506,-0.3204333624,1.1626624092,0.4677324478,0.1203002459,-0.5917982858,0.6662978581,0.2077488363,-0.0593737277,0.6304990292,-0.9529693898,-0.2950386144,1.268323572,0.3519145322,-0.9511659533,-0.5050519202,-0.0342380086,-0.8845446075,-0.8300493495,0.0562800799,-0.2467378223,0.0205534621,0.8258432892,-0.2714428241,0.3643003414,-0.3859682003,-1.1198385522,0.7935410843,-0.7160453637,-0.2514442568,-0.7200885008,0.2198212948,0.1351036825,-0.7131014149,-0.9703398033,0.4899669898,-0.8390423248,-0.3872910687,-0.6799535912,0.8672625689,1.300373009,-0.0408943225,0.6236994374,1.2632655781,-1.4166619983,-0.1162400188,0.4704321356,-0.3552571952,1.3666673125,-0.1304834693,-0.8146440163,1.1247183309,0.2167206437,-0.3514328886,-0.2222767469,0.8654877336,-0.2423623966,-0.3224751479,-0.3815953808,0.2853018906,-0.0412199498,-0.0955509845,-0.4217227761,-0.8260681439,0.5597166078,1.1716773522,-0.6297641835,0.3118804646,-0.0363779007,-1.0094869058,-0.1938367003,0.5556844921,0.0173138734,-0.7172760791,0.6734837076,0.8699456652,0.181904898,0.2194074508,1.5513545684,0.4531869677,0.4474688413,-0.6597638666,0.0817434955,-1.1778875811,0.0231290007,-0.6644155142,-0.6230807643,-1.5212476846,-0.1466097783,0.2088961817,-0.1555152197,-0.1247277769,-0.4075617701,0.54475215,-0.2660571515,0.1232487261,1.4298184668,-0.4861702903,0.5305930989,-0.3979515,0.6079565193,0.5807100317,-0.3498471556,0.4831343251,-1.0764121082,-0.7805440514,-0.131975911,0.0644257063,-0.3884804989,0.3397334189,-0.969028711,-0.2708992789,0.8526640628,-0.359456848,0.093304688,-0.290360772,0.6164846189,-0.7020506409,-0.4953620755,-0.0366315664,0.5670339159,-0.4597728954,0.4503327756,0.6822556366,0.0864821533,1.1144255758,-0.3732885693,-0.7722174863,-0.2630484313,-0.4099404128,-0.0480020338,1.4267508782,-1.2241077859,-1.6234258121,0.6790120087,0.7016628185,0.3644635287,0.4196734422,1.8702643226,-1.2783100294,-0.6110998938,-0.4216469368,2.6571935617,-1.2060302357,0.1488842675,-2.2449141776,-0.9871532686,1.4183937118,0.1501341295,0.5543387387,0.4757028646,-0.2579432409,-0.188916471,0.0593011938,-0.2127551669,1.1267875264,0.6659249245,-0.885798169,1.8661547834,0.7333297048,-0.2543890509,2.3445815353,0.942434294,-0.5151134565,-4.3367523757,-0.4679543879
