encog,BasicNetwork,java,3.4.0,1,1571652081431
[BASIC]
[BASIC:PARAMS]
[BASIC:NETWORK]
beginTraining=0
connectionLimit=0
contextTargetOffset=0,0,0,0
contextTargetSize=0,0,0,0
endTraining=3
hasContext=f
inputCount=22
layerCounts=3,41,101,23
layerFeedCounts=3,40,100,22
layerContextCount=0,0,0,0
layerIndex=0,3,44,145
output=0,0,0,0,0,0,0,0,0,0,0,0,0,0,0,0,0,0,0,0,0,0,0,0,0,0,0,0,0,0,0,0,0,0,0,0,0,0,0,0,0,0,0,1,0,0,0,0,0,0,0,0,0,0,0,0,0,0,0,0,0,0,0,0,0,0,0,0,0,0,0,0,0,0,0,0,0,0,0,0,0,0,0,0,0,0,0,0,0,0,0,0,0,0,0,0,0,0,0,0,0,0,0,0,0,0,0,0,0,0,0,0,0,0,0,0,0,0,0,0,0,0,0,0,0,0,0,0,0,0,0,0,0,0,0,0,0,0,0,0,0,0,0,0,1,0,0,0,0,0,0,0,0,0,0,0,0,0,0,0,0,0,0,0,0,0,0,1
outputCount=3
weightIndex=0,123,4163,6463
weights=##0
##double#6463
   0.2569707331,-0.6074804705,-0.3363488884,0.5419976871,-0.1756420418,-0.6895142678,-0.5442426201,-1.3703831161,-0.5613815283,-0.9898676338,0.9180349678,0.2874420889,-0.5754885437,-0.0096230431,0.0070316652,1.2746572851,-0.0725075435,0.5400933613,0.2557957359,1.2212268747,0.5427101247,-0.0914250559,0.955802873,0.0748668961,-1.4484364803,0.7752811863,0.6028590034,-1.0026459524,-0.1348776412,-1.0388700786,0.3010220366,-0.001542814,-0.0367381968,-0.042494032,-0.1825630239,-0.3566607699,1.7141438593,-1.2855900841,0.5457853658,-0.8935576375,0.4081263195,1.0678375286,-0.7658527268,-0.068608781,0.4106363871,-1.0054941337,0.7732586317,0.6165965583,0.7662535254,-0.0505517428,0.1621035511,-0.6820421288,-0.1328202664,-0.4470175185,-0.6223228528,0.6274057625,-0.6172946893,-0.1475733738,0.2261425333,0.642116777,-0.745090412,-0.284051208,-0.5181297024,-0.6262046991,0.2676213636,-0.0007729618,0.7406290646,0.0819785285,-0.7867159716,-0.5530130742,0.8894093404,-0.7544545035,0.4154371596,0.6188018483,-0.5108963543,0.0034482111,0.8320728295,0.6973393865,0.6224791753,-0.7031602593,-0.3414744592,-0.8719913609,-0.7634769215,0.1096756715,-0.6789051641,0.9075097052,0.2978961082,0.263476712,-0.5356407172,-0.1096812406,-0.5314161258,0.4677184695,-0.0038657544,-0.0115741335,-0.0040190694,-0.1918839526,-0.0007940605,0.0026990119,-0.8233858094,-0.8618398655,-0.5031592808,-0.0084700005,0.9329701389,0.6466291678,0.0041016546,-0.4398475871,-0.0031366709,-0.3262967685,0.7155549109,-0.04276028,-0.8584009117,-0.2820049786,-0.6928883019,-0.3957531237,-0.3139396467,-0.3160306395,0.3965200536,-0.4496919709,0.4513006653,-0.3924640839,-0.324792393,-0.0598491055,-0.1449237563,0.7392878337,0.7423733008,-0.4695355392,0.8866663406,-0.7405421897,0.1285617628,-0.0320577337,-0.3787729505,-0.6242979133,-0.9746703449,0.1189250606,0.5305675319,-0.5823215433,-0.3415391806,-0.9745363604,-0.7670745783,0.7128582199,0.7056517627,1.128495367,-1.132188592,-0.8761596987,1.3191058596,-0.1428793746,-0.6122758648,-1.2576855288,-0.0888251351,0.0062344741,0.4393641322,-0.0620517418,0.8974511514,-0.8937379074,0.5073376647,0.7080816599,0.6697345335,0.9248548534,0.4656572215,0.4311016163,0.5926552519,-0.6558270314,-0.400121441,1.0959398672,-0.2793086949,0.0104113725,0.1400668772,-0.6960148748,-0.44150856,0.7132320051,-0.2737885122,-0.5056276724,-0.5458624216,-0.1393828038,0.5006551913,-0.8660736368,-0.4711826454,-0.4853984663,0.7835721778,-0.1994594599,0.0108016019,-0.2208217216,-0.6488425465,0.0920232572,-0.5340019783,0.1504283023,-0.6653942881,0.375020759,0.0532833183,0.5789936118,0.9790157971,-0.0573370741,-0.4283731313,0.7517238185,-0.4511183922,1.0683312903,0.1527971728,-1.6498410796,-0.6721192877,-0.7431551927,-0.0089229725,0.8901538947,-1.0665665372,0.5271377228,-0.6111495363,-0.0024986322,0.6880589061,-0.7574556323,0.2179567164,1.2893434302,-0.9364373611,-0.5587130235,-0.7318718611,-0.5187553576,0.7562858009,0.894238382,-0.1625781853,-0.067993557,-0.2825424123,0.9222527384,0.2229112245,-0.7837141563,-0.0741882529,-0.6663723426,0.7735183263,0.3921204196,0.5707422798,-0.8855011163,-0.9481174304,-0.2295820254,0.2372309364,0.9878159349,0.6446497708,0.5430946826,0.403940038,0.5439655838,-0.8080068228,0.8918575832,1.0078683248,-0.8505133676,-0.854651517,-0.2199070778,0.2798665702,-0.2906294278,0.4915430593,0.5372546666,-2.1516879691,-0.3559015308,0.340459316,0.0371759404,-1.2916294905,0.1168674941,-0.7647233908,-0.7322076812,-0.6579708386,0.5302232348,0.9196850699,0.6206492564,0.4596622513,0.5767956922,-3.5738467285,0.1884114166,0.6019014521,0.0808518892,0.6258593965,0.6097742737,-0.1696872899,-0.8640614334,0.9679631552,1.1709230488,-0.6869777871,0.4830738679,0.4156939784,0.4645719688,0.3198440642,-0.3345164049,-0.9080587286,-0.4683487512,-0.7868514685,-1.1975607996,-1.0104523408,0.1216509463,0.9530213868,0.2449492324,-0.167994535,-0.2399162662,0.0678061512,0.4014074849,0.2292926154,-0.2286753023,0.4773851482,-0.0653232619,0.4198826387,-0.3091145065,0.4428380112,-0.5215972976,0.0460808677,-0.4926940542,0.5958418518,-0.5460925162,0.1381406119,-1.5074809862,-0.6862889302,-2.4691506263,-0.7328097287,-0.3149368947,-0.0682634407,-0.2218185938,-0.5139300327,1.0667531128,0.1171556107,0.6977501739,-1.2904295918,-0.6253391713,-0.8119836668,-0.6097590416,-0.6132894333,0.3809092318,-0.0903201429,-0.1068785744,0.2108075078,1.0970217782,-1.3722027593,1.1766560094,-0.7845382925,-0.0373742293,-0.6916587248,0.0357867621,-0.481992646,-0.7120540688,-0.4286645405,-1.0475905359,0.9307857043,-0.8186628946,-0.5444137429,0.5423260019,-0.5113735755,0.1441888653,0.2902229204,0.4128988538,-0.328850833,-0.7319069753,-0.530293671,0.3929297317,-0.5542500609,0.3543831555,0.0658532641,1.5645623018,-0.2717636578,0.6067890684,0.951692522,1.1984272394,-0.5109894075,0.3350404269,-0.498954365,0.3911543585,-0.0010706638,0.4799624206,-0.8677578546,-0.6276512595,2.8204432561,0.2256045209,0.9612163331,-0.7745218351,0.2511465826,-0.4630090437,1.2471926155,-0.4077249482,0.7293588374,0.369227387,0.8980157585,-0.3380483854,0.4473096403,-0.4298005061,1.5588666843,0.2965972955,-0.3986960467,0.8679967656,0.8138785243,-1.4411008977,-0.2058325769,0.0219719973,0.9091588541,-0.879617869,1.2218490768,-0.0539211832,0.5580030085,-0.1767105742,-0.4049064744,0.6055857133,-0.6492426613,0.6331274089,0.8599992236,0.8868081846,0.7987159183,-0.2370791915,0.62607811,0.5161146993,-0.9210532534,-0.2865152739,-0.0754369375,-0.6274467736,-0.0332218776,-0.2537858081,-0.0888431149,-0.2337407499,0.4875879168,0.2208926637,-0.4163733633,-0.007340878,-0.2627791536,0.28876732,-0.9071760587,0.9253273589,-0.89366014,0.9667374669,0.6602161856,0.7726401703,0.3717684427,-0.5923579299,-0.5363105495,-0.0059312069,-0.478736644,0.2234861723,0.5183064393,0.1154984909,-0.667957872,0.7936156945,0.7757105061,0.8995619574,1.845385759,-0.7727631986,0.395023751,0.0237597503,-0.74798189,-0.4995757422,-0.4330278066,-0.5925964684,-0.1964131943,-0.2450665046,-0.2230487751,-0.1606627688,0.1332214958,0.593222532,-0.5460139666,-0.1913065326,-1.9753793889,0.6405139769,0.7919630533,-0.3863062118,0.9908657043,0.4695796535,0.6832301365,0.195940597,0.5934185075,-0.0270819948,-0.6366113375,-0.1648090672,0.7738980018,-0.1001056902,-0.2719017115,-0.9105276252,0.4024829328,-0.4280203774,0.2479552171,1.1480274334,-0.057019766,-0.0792523919,-0.690900222,-1.8963897392,1.1532735604,1.4267877434,1.3568703084,0.2643950046,0.5967045181,0.9175130415,-0.0689278449,0.3904263838,0.4007213513,-0.1527932775,1.7434341258,0.8887724392,-0.9419685663,0.1829498673,0.2386985547,-0.2329405665,0.6084059761,0.8623715285,-1.3203318263,-0.5622013693,1.1758555248,0.5267116171,-0.5233317997,-0.3475780439,-0.4356387906,2.054218073,-0.5986400293,-0.3280183298,-0.3076205428,-0.4292849732,0.1594194812,0.2978467872,-0.3731397312,0.1437623066,-1.9574515519,0.1596513757,-0.5971153115,0.3633139208,0.3002289064,-0.0816595378,-2.070282664,0.4939573242,-0.2804109992,0.6133920866,0.1044767294,-0.3319225544,-1.0877444522,-1.3962304009,-1.4062255908,-0.2667257905,-0.8596980767,0.0980798519,0.5354829771,-0.6439817808,-0.0551791254,-0.5297463354,0.4895066861,0.2607377946,-0.3858711915,-0.4920220382,0.3859396268,0.2564291014,0.233674501,-0.9719028435,1.1807148316,0.0114873649,-0.1911813142,-0.7519329645,-0.2018885507,0.4864453087,0.1946952797,-0.394662038,1.1240705325,1.5350434372,-1.0203694708,1.9723046843,1.411957654,-0.3677510889,-0.3925991056,-0.8165442038,1.2677071459,0.167249092,1.13738982,1.0085233713,0.8011575166,-0.0825117396,0.0342426475,0.3134807906,1.3109248123,-0.5238381079,0.0063873323,0.4629135487,0.3439240406,0.6220213411,0.0660374673,-1.5262478206,0.3444700636,-0.0642022188,1.1390313256,1.3264055643,0.3966021425,-1.1980911367,-1.5342456135,-0.9112500749,-0.0717752486,-0.3314854479,-0.0853282155,-0.734659441,-0.1483520606,0.6428583794,-0.6025474691,0.0050699326,-0.4943969079,0.2440408942,-1.4910364391,-1.0120975419,-1.4203743277,-0.4661703979,0.358583962,0.5646573627,0.52700333,-0.7682870662,-0.2679792148,-0.0130671328,0.1519223203,-0.8520497208,0.3458778757,0.0101620314,-0.6602227012,0.3200986799,0.2604494563,-0.6727381638,-0.1512864197,0.6452103521,-0.4847076411,-0.5088554906,0.9872730993,0.6149369735,-0.1851164741,0.2437928294,-0.733619154,0.31410102,-0.3054606207,0.0295165486,0.1504246073,-0.2660984717,0.6981994235,0.2901265988,-0.7227953722,0.1622231287,-0.1347544175,0.4464705243,0.3653702105,0.847760479,0.7708027901,-1.3590107071,1.6692815593,-0.6948087042,-0.8005400935,-0.4261444964,-0.1773635245,0.1500501421,0.5021572528,0.8821040884,-1.0221441335,1.3311656349,-1.7704653394,-0.2839435868,0.0192428847,-0.9142496977,-0.2275467123,-1.104295271,-0.7171984825,0.5888737119,0.1536424445,-0.5423361387,-0.3082199396,-0.6015777909,0.9155512937,-0.7257005818,0.4074636359,0.2475642301,-0.8834821268,-0.4427646157,-0.8390679077,0.2235128947,0.4520995363,0.6640869717,-0.3430020857,1.8197887723,0.2232777849,0.0128823749,0.4784769856,0.6415438769,-0.7913783587,-0.5472877416,0.3754824431,0.2083685457,0.811900684,0.2939990664,-0.2150528111,0.7090055561,0.3451680416,0.4258029234,-0.5704287847,-1.5598859193,-0.4737014456,0.1300120432,-0.5673654434,-0.5921534337,0.3059199756,0.4463337887,0.0927780879,-1.6602053609,-0.4032516877,-0.564764397,0.4009980082,-1.0642657514,-0.4868180894,0.1006226277,-0.1517510293,-0.1246313359,-0.0521339464,-0.9365476252,1.0742103594,-0.8578298996,0.2314376848,0.6557525525,-0.4274071974,-0.2198439555,0.5963407494,-0.1142763363,0.6754506201,-0.2727397592,-0.768690212,0.3464259242,0.2165222313,-1.021287083,0.3856889989,-1.3531885966,0.223497697,0.0269431628,0.5414791375,-0.1530008595,-0.7194929893,0.949620939,1.0548348635,-0.4800594245,1.0467157909,-0.6186376425,0.7954934011,-0.0759058883,-1.1301874564,0.4817907153,0.8732972925,-0.588160416,-0.0371782464,0.1996862572,-0.6057941694,-0.741546686,-0.5452272669,0.656126977,-0.3842648453,0.0046914783,0.030166948,-0.9781622285,1.083532481,-0.6739186661,1.1301181924,-0.0594026221,-0.193745858,0.8731229548,0.5332519895,-0.7555535694,-0.5691186789,0.4731062979,0.4699777736,-0.6348975175,-0.4712157126,0.5426357753,-1.0486604261,0.1184814588,-0.069188865,-0.7962132276,0.9991503359,-0.2542975679,1.1283543972,0.4749570966,-1.1967232073,0.5185594984,0.6219151209,0.4934383424,-0.0027264874,-0.1852635803,-0.24576454,0.4001725348,-0.1948625373,0.4820344312,-0.7773750791,-0.7553157277,0.7304125277,-1.350545481,-0.7328517837,-0.7771019564,0.2143659035,-0.4582624858,0.802124504,-0.4852342246,-0.4777451304,1.1144298432,0.7163858609,0.4084909383,-0.4901715844,0.7775701325,0.329573408,0.0522841154,1.2238656342,-1.7445225364,0.6892483187,1.3975559033,0.086809964,-0.8258671494,-0.5141976645,-0.2137216723,-0.3843990712,0.0891557601,-0.3379719557,-0.3679450567,0.7819078124,-0.3618906156,-0.5291084701,0.6833690664,0.0653503555,0.7782229956,0.6011431429,-0.0566572353,0.7455870211,-0.1829242309,0.0077792374,0.9247113348,-0.0721501197,0.8593644295,0.8677624492,0.3298526048,0.0471372883,-2.185221058,-0.9859126684,0.6061336417,0.7758584693,-0.8928570884,0.3982068386,-0.6279751548,0.2248465309,-2.0744670589,-0.4385725992,-0.8151472339,0.8146072508,0.5434332941,0.3890277712,0.5577742849,-0.3939725571,0.3772455393,-0.8562800386,-0.5222668754,0.637900791,0.5870997947,1.1478571017,1.0061953473,0.6261697037,-0.8908209214,0.3980232213,0.1054905542,0.5195665714,-0.2732311364,-0.4950574626,-0.8786409661,-0.9621332797,0.1407984739,-0.6929429378,0.2598103122,0.2093293113,-0.7790666773,-2.1648349279,0.2502696961,-0.1298753962,0.2914845499,-0.8024268316,-0.9415865697,-0.7616528622,0.2843642229,0.9184690119,-0.1200553851,0.6631011703,-0.1842681974,-0.4172622984,-0.0276430565,-3.6214193257,1.0138765212,0.2387326378,-0.2229087383,0.6175507459,-0.3533212712,0.8171354078,-0.6633510944,-0.8702474512,0.4032020554,0.9740666935,-0.2890455849,0.3036971849,0.4250747203,-0.7877263895,-0.4045590313,0.9303032893,0.5164920195,-0.0112336432,-0.7547138635,0.2385127629,-0.3759913615,1.2104116625,-0.237745675,0.6838625858,-0.6566436408,0.9523194138,0.3168114945,0.4902253362,0.5156681987,-0.8755026308,-0.7665627223,-0.147793653,0.1388280684,-0.4083751661,-0.8901244105,0.0327288062,-0.8627899923,0.3484204284,-0.5520933086,1.4117644209,-0.3575726432,-0.7460167129,-2.5213819786,-0.4487676459,-1.5385231544,-0.0132544024,-0.2289351919,0.4882438128,0.1170971813,0.5870739777,0.7106578658,0.0100649338,2.9745969317,0.434389046,-0.3071033293,-0.4698982902,0.6381526321,-0.1387002993,-0.1083804989,4.1108275902,0.0270698539,-0.4979765644,1.4560128721,0.1454469831,-2.4996180865,0.1102828749,-0.0985448789,0.2011657583,-0.0109874898,-0.0531487124,0.3290935119,0.599292104,-0.2860703154,2.2262954106,0.6588618584,1.3021291993,1.1765954159,0.8132878631,0.384586357,-1.9298751036,-0.1255991438,0.2207972332,-0.3957737308,-0.7678031002,0.4821957114,-0.4276316539,0.2709842292,0.7787463715,-1.5895083752,-0.5504978088,1.1496858894,-0.0024218658,2.6377489784,-3.0645999467,0.8181758389,1.4061375901,-4.58521113,0.9191958567,0.2917677843,0.929917217,1.2037683213,-0.8228778634,-0.5902089239,-0.8778428624,-0.6316854729,-0.5069088326,-0.0645624433,0.7049868318,-0.8730447482,-2.9367122148,0.0029863152,-4.1392455362,-1.0305792148,2.4864278495,-0.7922307473,-0.7990918861,0.2854467299,0.8118863077,0.2848796452,0.6625719217,0.574498102,0.1197262055,-0.5230095222,0.3370206759,-0.3381514455,-0.8752128224,0.7067491508,10.6855550151,0.5440095956,2.8823270109,-0.5086443852,-0.3690314712,-0.0110636033,-0.2226530332,0.3628905853,-0.4578395845,-1.7384163625,1.0110476014,-0.3496374709,0.2939501408,-1.3092484085,-1.8724152202,0.973049345,-1.2940463852,-0.2954329864,0.8831024018,-0.0227031805,-0.5028819442,0.0019047797,-0.6955048199,0.0096563286,-1.1591494456,-0.1588471087,-1.8828641543,0.0447194248,-0.1116891598,-0.063740828,0.2998012945,0.3080851443,0.087017641,-1.8632261468,-0.0104412066,-0.4603653496,-0.4343194659,-0.8742902245,3.7368074267,-0.2913153595,-1.26255168,-0.8301521878,-0.3029916739,0.4776647445,-0.5550246019,-0.256024096,0.2353393576,0.4128882415,-0.2698310884,0.1033117527,0.7345557708,-5.1052282887,0.0082933793,-0.265618375,0.6521795757,1.8479068212,-0.2864916073,-1.0621719763,-0.5313685319,-0.3153321136,-0.2236962346,3.4125804593,-0.8652964941,1.2612786666,-0.2071280228,-0.4214457982,0.0370932603,5.2702263326,-0.4201079912,1.2478548661,-3.3556724432,0.8947494704,1.2120921918,2.6070362208,-1.0558213852,-0.971283655,0.6196029238,0.4090883109,2.6011824453,-0.2819386382,2.0480598609,0.6926906758,2.2955160177,-2.5215071181,-0.0436692891,-1.2351329219,-0.1836637843,0.4659727499,-3.3437544673,-0.1046860072,0.7282435985,0.3471875611,-0.702398402,-0.4934545189,1.0419149865,0.6704406108,3.3390216934,0.5508949917,0.4181399365,0.1996128519,-0.5912006335,-0.2940010797,0.2522449399,0.142148774,0.4909256984,1.210575995,-0.8534767825,-0.2522848812,-0.2385117934,0.2053470558,0.0071023505,-1.6792179159,-0.1702262801,1.5383383148,-2.5801280537,-0.7947893206,-0.3199218167,-0.3067780417,0.0876499301,-0.5115357452,4.0371930414,0.8665438335,-0.4922475672,0.7614668912,0.151270859,0.294258465,0.4278534368,0.2197655778,-0.6316035408,0.8582573117,0.9088841094,0.0410293055,-1.4512131838,0.4382710055,0.6677160235,2.9022578549,-5.3410061731,-0.5979047655,0.4509669623,0.9891129181,0.956309282,0.35965886,-0.9660663776,-1.0662532264,0.8949060096,0.2699420248,0.6495726912,-1.763129567,0.8393769858,-0.032936115,0.8588292358,0.4635368177,-1.2821228687,-0.2269515843,-0.5258074618,0.9542313529,0.8383041775,-0.867996059,0.8319387615,-0.0693242396,-2.3740392238,0.0368804335,0.7770094588,-0.7437391359,-0.2413646146,-3.593663276,-0.4661392713,0.849145804,0.8128929104,-6.5882772897,-0.3814333662,-0.4455071511,0.8896991313,0.3053841915,1.5281622365,-1.2803381211,-0.1998991157,-0.2765411059,-0.6547095909,-5.574396948,-0.8019433512,-0.5726071893,0.5302059475,0.1860477652,0.2001611519,0.008831803,-0.1739825071,-1.0522956329,2.1210087143,15.4199558647,0.1450657809,-0.3041714766,1.1897425202,-0.6036833775,-0.3318912909,-0.1701223255,2.9784437176,8.1253214063,1.3166038831,-6.0836974092,0.6468459621,0.4878678804,2.6786846258,-0.202549455,-1.1429415162,-0.4515164097,0.6829915092,0.034168514,0.2549806632,-0.844861148,0.177656058,0.1849017917,0.7950722955,-0.527876031,-0.5058233313,-3.0370717538,-0.8388038762,-0.196566026,-0.7538201275,0.7334144485,1.6322033413,-0.7793395685,8.566023039,0.8090639302,4.602236371,14.9527179382,-7.5743642659,2.6948643298,-2.9681393449,0.1572301158,-0.3688053561,0.0662093456,1.2137476126,-10.5920470863,-3.6610032912,-6.0742703926,-0.4500155698,-0.8837442572,-14.6095864422,0.5363233459,-3.3301775037,-0.6482650574,-0.1134632858,0.7746078694,0.3334415146,-0.797134389,2.4463961483,-2.9844734873,-1.6630526905,-0.2184581886,-0.7487304159,-0.1565615906,0.7415833056,-1.3663943601,-2.4119133303,0.2575025301,3.2423357698,-0.2768428246,-1.2071297237,-0.033145629,0.1599653317,-0.6497246841,-0.8526950782,-2.0078920501,2.569999715,1.2697182174,7.2007277948,-0.6608459443,-0.5517595801,-5.0442993064,2.5338010752,3.1968835129,1.0440260109,-0.1730529057,-0.2964593842,0.6446401964,0.1222255538,2.0608032172,-0.1792408519,-0.0081136148,2.2958000527,-0.4841023665,4.3168673506,0.1682151368,-5.0646648394,0.8868209048,0.0100038575,1.1551053179,0.9936494566,1.2088608179,-9.4762217217,-0.5446021364,2.8855721118,0.4849337882,2.0389396648,-2.8684335994,0.5059352927,0.4358378594,-1.0905595463,-1.4988677893,-0.9426293363,0.5330573554,-0.7214525729,-0.9388596564,-1.0746122115,5.4785489227,-0.4821026544,-0.9738360962,-0.2698414573,0.7909755639,0.573886168,-4.0092531205,2.4203985253,3.4232425743,0.1677584779,-0.7302576005,-1.5387399586,-2.1864639914,0.057959675,-2.3834405813,0.5348108368,5.6591495464,-1.1009245892,1.6309836274,0.2532822577,0.7858628792,-1.7563789305,0.5535973171,0.5556854183,0.0609945109,-0.0505821446,0.2517547855,0.4029340029,-0.8380408387,11.7630041779,-0.0104799173,-5.5877622253,3.7628955273,0.8355803184,-1.9424727441,0.8524416953,1.1941874295,-0.1422419926,0.0924170056,-0.8575890023,-0.662055319,0.2710229841,0.8145197627,-0.1754765699,-1.4796805298,0.6243655568,0.1766236485,1.0241392992,0.6676038458,1.0443681852,-0.3767539956,-0.6430362055,1.0175086395,-0.2871003115,0.7062225126,-0.4005468638,-0.0824159291,-0.333667038,-0.300716657,0.8891045229,-0.7071621955,-1.0402284574,-3.1627242898,0.8446145073,-0.2607296363,-0.5109534458,0.9470053135,3.6450603922,-0.004397517,-0.2994315497,0.5830109244,-1.3927054157,-0.7791661187,-0.0257024458,0.1344627552,-0.79632463,0.2758806505,0.0295931211,0.1392281789,-0.1516560305,-0.5319933401,0.2430687627,-0.3501740961,0.5450750952,-0.3275058803,-0.266285786,-2.0316154441,-0.8270493278,0.0110546373,0.3054909475,-0.9247778421,0.6209186046,0.9483253582,0.3622009503,-0.9945299407,-0.4371084766,0.7241362101,-0.776741399,-0.8496791923,-1.0002822529,-0.4467872119,1.0073244796,0.4737459837,-0.2398915766,0.0652886771,-0.802676338,-0.4100031779,-0.076192033,0.3065775757,-0.2870725706,-0.3279150591,-0.0100900188,-2.238691134,1.1361946703,-0.0122172377,0.1708552767,0.8762376268,0.1877389706,-0.2760025956,2.4108746412,-0.5676649493,-0.3139790433,-3.4426005324,0.3486724154,-1.0433526851,-0.2323615682,1.0723375755,1.0529121439,0.4618776972,0.4049535603,-2.4890727506,-0.7143399377,-4.3921114057,-0.3339150338,-0.6560101037,0.9246227002,0.3422573697,2.3173194092,1.051631809,-0.0419782294,-0.345998688,-0.6190367564,-0.1873589165,-0.5489466867,2.9606767306,0.4997552361,1.1885850044,0.4402349321,0.8311497729,0.125233425,2.9065341782,-2.2563631343,-1.1323977739,-0.4755453736,2.0311135802,-0.1080306662,-0.7960846386,0.5432473871,-0.1436608437,-0.0784475391,-0.3640226051,1.0511263803,0.9466368668,-4.178633791,-0.6073017324,-1.1483178239,-0.9911288308,0.8830687645,1.1893445976,0.4539495451,-0.8962122524,-0.734604138,0.1469592647,-1.1586940534,-0.3483283527,1.093234366,-0.2879309789,0.0907663691,0.2593624558,6.7979111134,-0.6147246131,0.3711298076,0.0979223376,0.7930056966,-1.8226113158,0.1709608674,-0.9370570834,-0.4545633199,-0.1907670833,-0.6544511008,-0.1170005663,0.016120179,0.212346265,-1.1477794677,-1.8563816411,0.6827375032,-0.3677660458,-0.9697364149,0.87397301,-0.6486395423,4.9731760328,-0.293171007,-1.1040584476,0.1703963038,-0.0808196605,-1.1595841174,-0.6658746539,0.6210840894,-3.4216483417,1.3114632249,1.3597880803,-0.7485949563,-1.7810002322,0.7984816489,0.0421297504,-0.5640970091,1.6200754819,-0.6639594762,-0.0762850423,-0.1624245266,-0.0828881924,0.4180565327,-0.1568681853,1.265071056,-0.063672075,2.7011052355,0.97186919,-0.5736110437,-0.2998575279,0.2568098833,0.6649670745,-0.2593077224,-1.643537413,2.9404673098,-0.3932391492,-0.6599019392,0.5687355087,0.3334563604,6.3527511416,-0.7177195899,-0.2263951432,0.73313235,-0.3279330115,-0.748874937,-0.9507846629,-0.6590194622,-0.8380784003,0.9914243012,0.5162222845,0.0747553046,0.6752819217,0.5919685447,0.3671103881,-1.6079858604,-0.5075845605,-0.1548808453,0.6253502275,-2.3368496376,0.1002497684,-0.2383646212,-1.2347778195,-0.7884505666,1.7354602777,0.0995875577,-0.1825958973,0.2956095459,0.5524828329,-0.6415581194,4.0550257193,0.4793065962,0.363667856,0.491605221,0.3779882869,0.361520576,-1.5235458153,1.0094212611,0.2029440863,-0.2476481616,-1.0479592493,0.0983225593,3.233612198,-0.2027250144,-0.1786131154,0.7561993279,0.1368451211,-1.455828059,-0.9682887537,1.2884389561,-4.8046321029,0.7383692848,-1.2634690694,0.7624738556,0.632238246,-3.2161094828,-0.1112448022,1.4627815999,-0.3201095548,0.9722511242,6.1018622132,-0.6913188677,0.8697040164,1.3170351987,0.4377979377,0.4277575649,-0.5952890927,0.6046659283,0.4739850614,-0.6616231067,-0.3012887713,0.066801804,2.7267312375,4.0707689478,-0.1157586032,-1.8196985927,-6.167602352,1.7254009848,-0.1737746601,-0.4258956436,0.6466575027,-1.3414363954,-0.6225470078,-1.7823189644,-0.5845584094,0.2972890828,3.5671206642,0.3468635632,-0.7104257087,2.3558525117,0.557205991,0.0848056797,0.592110633,-0.5437801455,7.5387922909,-2.3440888482,0.9756619169,0.599512128,-0.7876678359,1.0641380026,-0.1898520169,-6.1746540925,0.7954465532,-0.5089194562,-0.1408303999,0.1747278548,-0.1874034419,-0.619292305,-0.1496245382,-5.7065737001,2.63727924,-0.6769662039,-0.6057887498,0.5513431899,-0.3562427124,-0.8119250708,1.1307057884,0.5919773235,-0.2281515513,-0.0371204708,1.5915223004,-0.979670453,-1.3140817392,-0.1727298253,0.5170752253,0.9408216099,-0.1589050227,-0.1992870426,-0.5505200143,2.2773057794,0.0216656738,0.6860502251,-0.3764001753,-1.3346058191,0.8195053467,-0.743513735,-0.21919018,-0.1086681521,-0.3089570238,-0.0670329029,0.4603058116,0.6761890948,-0.7923022293,-4.8857806097,0.0531469597,-0.279355217,-0.160262263,-0.7376826422,0.4648122713,-0.649595816,-1.5120604218,2.4556211318,-0.0550982681,-0.2019721172,0.4188915245,-0.7402540305,-3.312827977,0.5978811972,-2.0043187924,-2.0439694173,-0.6485679206,-2.2921718331,-0.1365263089,0.4669181481,-1.9004781241,0.3860709916,1.607170887,-0.4606127206,0.8189299916,0.7020250386,0.9328848168,-0.8630170801,-0.5193125999,-2.6876412909,3.0090417226,-0.0485301148,0.4677005738,9.1981980668,-1.4644951926,0.1757264036,-2.0728788387,-0.0329149557,-0.3716578164,0.8665388703,0.7434431812,0.1910719334,2.2074215395,-4.4204567564,0.0643241465,-2.2970160498,-4.3119681457,-0.8604674936,-0.710984309,0.4335814672,0.3308911187,-7.249052723,3.083477664,-1.7503029658,-0.9163674464,0.7009932794,-1.2059055399,-0.8166179839,0.9238306133,-4.0737842784,0.7197392199,0.2679467773,-0.2277174346,-0.139648044,-0.1301218743,-0.4936172303,-0.482803692,0.6304721714,-1.465911141,0.8387412934,-0.6031988928,1.3879919226,1.1105242041,-1.107193958,-0.4263155219,-0.7027589358,1.1079365598,0.2600666351,-0.0686614205,0.0805429027,-0.9712864287,0.2442817375,0.6379789969,0.158647764,-2.5096935729,-0.8175865128,-0.168548578,1.3521714318,1.6746759451,-0.3389198015,-0.2841511922,-1.680205174,0.5413534735,0.7585308516,0.3897911548,-2.1322366053,-0.8929604185,-0.5084224418,0.9393382176,0.550618406,0.1381429383,-0.996354028,2.491267728,0.8213886424,0.058073028,0.6664604138,-0.9871248738,-0.2593084093,-0.9092802642,0.92535041,0.2307043205,-0.5691966151,-0.6725524922,0.0946038574,1.8460934743,-1.0216509404,2.0375506883,-0.7208793692,-0.5099419259,-0.8989631031,-0.561314837,-1.5202723137,-0.6164731111,0.4786578855,-0.8801361695,0.8090014888,-1.9858928593,0.9037437576,1.1052003935,-0.7147936433,-0.8847544536,0.0001761402,-0.6627936104,-0.4774618378,0.9178798609,-0.3646040508,0.4048265014,0.6773310779,-0.7168466844,-1.3967047388,1.6589849979,0.8288488373,0.4939957176,0.4415615901,1.2086552471,0.0301751945,-0.4233874387,0.3693824008,0.6918212017,-0.1753606563,-1.001339897,-0.3164897249,-0.3226707779,0.6929744015,-0.3447116154,-1.1155733669,1.5178540621,0.259944061,0.7734826281,0.1419413459,0.1588377706,-0.0288922711,0.9569282742,-0.6769857081,0.263356673,0.6677107257,-0.0182398567,0.0572544124,-0.7436965502,-0.6531073748,-0.465102125,-0.7581172382,0.1700062091,0.3984958342,-0.488504721,-0.1239086798,0.8184373192,0.1077120073,0.3697106809,-0.8014656121,-2.3672945682,-0.424271097,0.5635406161,0.1010440285,-0.2179263601,-0.7753266741,-0.5257596038,0.7594602156,-0.8030695225,0.3998474679,0.075042958,-0.6101799026,0.2275218604,0.2255620102,-0.8371929572,0.5485195239,0.0829553021,0.2502912463,-0.3262008588,-0.092938048,-0.7119718144,0.1488539589,0.9889316913,1.6080498057,0.8206958623,0.8822427202,-0.1406734995,-0.9862808321,0.6426305243,0.061056197,0.2826027792,0.9517946518,0.6670748692,0.7992507264,0.0054074698,0.9793361087,-1.6624616808,-0.0017611841,0.4260317147,-0.0874598169,-0.8145876278,0.2713017817,1.3842303628,0.5709020044,0.8976359135,0.7315133046,-0.9151526176,0.0807312023,0.6531290683,0.5973737178,0.7197643633,0.0870841471,0.6396221264,0.1823875103,-0.6413824087,0.1069197968,-0.0620721693,-0.7229923384,-0.610223645,0.3839211011,-0.3623883424,-0.1706520919,-1.126940799,-0.6848886506,-0.0643146251,-0.1325050284,-0.115050214,-0.4529454937,-0.0216658125,0.4968413253,-0.9049428326,-0.1064190026,-0.5857335486,1.201981569,-0.136622297,-0.0704678417,0.1309334976,-0.0298978956,-0.0019345019,-0.0662572695,-0.9561637662,0.4995905022,0.6240586286,0.2137966179,-0.5865375429,-1.1262024683,-0.2084739158,-0.295895555,-0.9428251887,-0.6125588002,-0.8774220501,0.5385362459,0.5573710792,-2.3463966656,0.1149330906,-0.1816812623,1.1642354899,-0.0549321147,0.0527430962,0.7094562653,-0.6232946683,-0.5622606658,1.182268568,0.3439923436,-0.1426613064,0.527938151,-1.4639239576,-0.1435568594,-0.2931952387,-0.035920908,0.1921768561,-0.2573189998,0.6092609089,-0.7766559118,-0.2730517497,2.468964808,-1.1130070265,2.1328529843,-0.2592989685,-0.5191579507,0.3301875191,0.5862666479,-0.7151233574,-0.2532849891,-0.4894201179,-0.5703238519,-0.4741280953,0.378995955,-0.8516124938,1.0989063328,1.9342535968,-0.403846297,-0.2716286802,0.1520758533,0.42062121,-1.1257074145,0.3335582946,1.1191066087,-0.0001482164,-1.0039734123,-2.2915941423,-0.0761872619,0.7956199918,1.7249977373,-1.0063892591,-0.2805627381,-0.4612899164,0.4627678983,1.2178156162,0.1349506072,0.1792373697,0.0572825832,-0.6474184022,0.8965381923,-0.9829950368,-0.1362880822,1.5976151717,2.1231201489,-0.0925791995,0.3524480847,-0.2176125623,-0.0782045905,0.0639859767,0.2892026552,0.3505828324,-0.6136209704,0.0230892036,0.6102182193,3.0773578781,-2.2382179672,-0.9284136969,-0.2140088797,0.1101401197,0.7268817181,-0.5748883851,0.7174699327,0.2272639721,-1.691465619,0.0474939083,-0.0759102462,-0.1173498596,-1.5723564254,-0.9879621498,0.9951843631,-0.0213447246,0.9979966547,-0.606996272
   0.9707115844,0.0998798399,-1.5678817865,-0.8945628565,0.5797838531,-0.5209491911,-0.5351605733,-1.1416409567,0.7544368976,0.3971640292,0.6884545324,-1.3858381136,0.5800407088,-1.44092615,-0.5952585265,-0.7807843398,-1.4179473062,0.1385366255,-0.12182762,-2.2630481743,-0.5112605793,0.0298976067,-0.3908522472,-0.0648376734,-0.272344445,-0.301624531,0.4943552769,0.8174044007,0.6685867066,-0.8861067803,-1.1558168201,1.0786024195,-0.6556630323,-0.5950554592,0.8028732275,-1.4443474961,0.8697818193,-0.5350982888,-0.1415875042,0.7110910692,0.0235490916,10.43372628,0.7084654245,0.1683049438,-1.4110002235,0.7136284966,-0.7481385894,-1.1456568037,2.6947996528,2.5985948433,0.0633889367,-0.8926575414,-3.0994353219,0.1544779521,0.2419507681,-0.7073920108,-0.540412343,-2.2822044631,2.5901130414,0.5059562465,-0.8855818603,-0.75306702,0.0635039952,-0.0075122334,-0.539398912,-2.7459161531,0.066118691,-0.2910487749,0.5295054749,-10.0449595646,-4.3629744874,1.1997452748,0.5053667279,-9.867720512,-0.3577260109,0.8342725586,-0.7086333275,0.4025298023,-0.111023791,0.1054870146,-2.3785943804,-0.9965123604,-0.1863717421,12.8533156488,-0.8156010991,0.4288692138,0.1946611556,-0.4623688698,-0.826801658,1.7200381434,-1.1300821279,-1.2826024761,-0.8700407191,-3.2101320805,0.4968370758,1.0863558231,1.1783095796,0.0419570489,0.181702646,-0.0584636278,-0.8304040046,-0.6884526927,0.3144882692,0.2163279382,-0.6481859316,0.9445038002,0.5543722793,-0.7779859828,0.1295832245,0.2740454977,0.1140238264,-0.2950789624,0.1381207469,-0.3006276723,-0.367061265,-0.360114082,1.4745634841,-0.5795058259,-0.6086087398,-0.1055586975,-0.2612202822,0.1143627503,-0.8925584813,0.3482952833,0.3684066037,-0.1696495091,-0.0297800007,-0.029417446,-0.4253906049,-0.783712634,2.419308271,0.0921307111,0.5882783263,-0.7769163606,1.0341749321,-0.0571266674,0.4366139199,0.0012499057,0.2857822273,-0.7819483524,0.3431489023,0.1527144202,-0.2472312407,-0.2143990068,-0.937290274,-0.0041699116,0.8625028674,0.0753178238,0.716520407,0.9460816557,-0.1035218146,0.1816892776,-1.4257161597,0.6959516676,-1.8891353823,0.5137071427,-0.8710515299,-0.7123466681,-0.7626551467,0.0746149469,-1.4128751806,0.5934580556,-0.7962102124,-0.9142594436,-0.0492943313,0.7431874441,-1.253228449,0.0047813562,0.0569423922,0.3464730274,1.2504117212,0.0136377634,-0.7176691203,0.8864937595,1.2138511647,0.6160253912,-1.5111246664,0.4863761799,-0.0071939291,0.0162923031,1.3323223007,-0.0941664565,-0.0290857298,0.1907759028,0.4740318761,0.881025694,0.0213628907,0.2030394675,0.3697218433,-2.6942996146,-1.2506748571,0.0267393533,-1.1560199571,0.4879534761,0.4938433796,0.4879652826,1.6890871758,0.5410059019,0.5077372935,0.1459408449,-0.4595839959,-0.3791964006,0.6981279006,0.0121267704,-0.5593205018,0.1102758364,-0.1631432364,-0.2586109841,-0.4702431239,-1.0374722781,-0.4332841848,-0.900443395,-0.4391971618,0.274303983,1.0305929163,-1.6002722763,-0.7209863716,-1.0872694502,0.170605062,1.22901484,-0.1122621327,-0.6978715046,0.8217557645,0.0291918281,-0.2711013924,0.7613496981,-0.2012669353,0.3765969257,-0.4675940331,0.5975027776,-0.3889825704,0.060662164,-0.6447101368,0.1498823962,-0.5513212538,-0.3675699384,-2.0251256467,0.0961821163,-0.0365183939,-0.8899184748,-0.857438961,-0.3503310506,-0.5315121907,0.0024947145,0.4077357752,1.1394242127,1.6905588001,0.6141090433,-1.2645223727,0.7125779804,0.823833826,-1.550050371,-0.8626058901,-2.2842265181,0.0033777727,-0.7820007256,1.5459357149,-0.4262554688,0.3547620603,-1.9948505412,0.325782339,-1.1624599903,0.6941352356,0.5426390181,0.9752120491,0.8621880756,-0.8943286823,1.3224722983,0.5789660632,0.3769503971,-1.238192274,0.2409484705,0.2475571357,1.1544521246,0.9274013138,-0.3649213041,0.3197314654,-1.6221723425,0.4508690865,0.2181521711,0.2874688367,0.7625137408,-0.223911382,1.2265238466,-0.5215648114,-1.3613422983,0.7905664859,0.3622831038,0.8115527475,0.5356648284,-1.1044341125,-0.3232387236,-0.1231010581,-0.5809100611,-0.5205534717,1.4085032916,-0.7806096547,2.6745977958,0.8641507648,-0.8151163819,-0.4621465338,-0.8706103213,-0.8977880196,0.3936515754,1.2243790742,0.586744808,5.5339771493,-0.9289649517,1.0145111427,-0.7041610135,0.4829612557,-0.9863938917,4.9597908102,1.5569736246,-1.7215214426,-0.0986185327,0.1049558147,0.2111008225,-0.7525165745,-0.103147986,0.7849749586,0.2768166809,-3.6451899677,-0.2173578464,0.5154455659,8.5962555594,1.1857955991,1.8898098733,-0.2118734417,0.1230406025,0.2424380388,0.8262762154,3.2810451313,1.0168622135,-0.2050270021,-0.2578962876,0.8234786632,1.976607795,-0.7348212716,0.5348310928,-0.5806869714,-0.5609795434,-0.8485616443,-0.4874384111,-2.2164828336,0.6437533726,0.7677467794,-2.6036357328,0.6885489102,-1.5673742223,0.1086822595,-0.8329565757,2.913281922,-2.9637131973,-3.7263364474,-4.9705209911,0.9123459847,2.3602401312,-0.3482804215,0.6111166668,-0.5851140894,-0.5744428286,0.0138590277,0.2277391507,0.0265129959,-0.8735926831,0.3780309291,0.3585182965,4.4325562019,1.4708064959,8.5144818266,-0.6049574517,5.5411871362,-4.7712409698,1.9432502098,-0.5679519231,0.7234761787,0.6315634523,-2.2155115202,-0.9127563775,2.2421685141,0.9186982212,-0.5172924378,-2.3990958288,11.0354484806,0.3296821476,-0.0221725802,0.3012249277,0.5853832418,-0.0776073276,-0.4027117291,0.4937780451,0.0731101826,-1.5551393151,0.7812994847,1.5760543733,6.1141493626,-0.8633278921,1.0206858627,-0.0991917249,-0.165438463,-0.7143256858,-0.656877014,0.2364308166,-0.9328580821,0.6281015971,0.7332583834,-0.1981666309,-0.2999015203,0.7262333264,-0.7081216627,-1.5367333878,1.227000037,-0.4688309616,-1.1610342819,-0.1111995552,0.3398996105,-0.4795437499,0.40021928,-3.4367932094,-0.5655511145,0.5831553905,1.4250551125,0.4937579722,-1.7652108375,-0.3371551987,1.408510882,-1.1819582396,-0.587188142,1.8147627768,-1.8306873627,1.4227629523,-0.3216502087,0.0219646933,2.3049865972,-1.4815768855,0.5474394123,-0.1887870715,3.3844788917,0.1002858962,-1.2579041242,0.0392802044,1.174165995,0.5125633842,-0.5868938322,1.0432942403,-0.6939529545,-0.2554425832,-0.5104417151,0.9704811093,-2.5408393194,0.187591397,-1.7469404856,3.4375680869,-0.1363014389,0.0928946889,-1.0713651199,-2.2449396389,0.1295017751,-0.7705211517,0.265676347,0.7125970705,-0.9450908314,-1.0863474488,0.6313435558,-0.3244192202,0.2585888898,0.3876609097,0.9715100202,1.5823684285,-0.5907190161,-0.8142693295,0.5193314897,0.4320319972,-0.2844441769,-0.5237446925,-0.3457791734,0.0079118673,0.7608838933,2.6690346154,-0.7071544531,-1.0092004935,-0.6494012393,0.3186587159,0.0805607304,-0.5648514028,1.5942443643,0.2254510878,-0.1765029377,0.4799312852,0.3518699101,-0.2686288399,-0.038812551,-1.525686179,0.3825578361,0.5437284677,-1.0450068539,0.5435144249,0.8540035983,0.6106166603,0.1527006949,-0.1337508757,0.4699980949,-0.5614597553,-0.9932889057,0.335594051,-0.3471508154,0.4918989002,-1.5378570123,0.0406706948,-0.3591025564,-0.8579084018,0.7707135545,-0.2748273752,-1.0586772268,0.8434032864,0.5582552315,1.2393293699,-0.2851547561,-0.2857051523,0.9570262211,-0.6822072122,-0.3593896333,3.3508399386,-0.5355117298,1.4878276822,-0.3688427258,0.1596327948,-0.8163748055,-0.7352610498,0.0186222418,0.2903812356,-0.2688746619,0.4897895002,0.1458071196,0.1920330878,0.7233010175,-0.9399799291,0.4621239569,-0.0903384845,0.1604330651,-5.7073955566,0.372941076,-0.1682868987,0.8284204969,-0.1417943337,0.7078160574,-0.0110953725,1.1644979414,-0.8458930526,0.1330539946,-0.4540401934,0.5421356155,-0.1395686156,-7.0780321047,0.8604358365,-7.6632999834,-0.9020362014,1.1586410396,1.3737755135,-0.8325067926,0.6042151529,0.4423168249,0.4605361954,2.5074359182,0.0076422237,0.0278263341,-0.1514001914,-0.9042869387,-0.5621298259,1.8257292919,0.1188091333,-0.2570554198,-0.1146475751,-2.3394970408,-12.1025469764,0.0254047743,0.3684998858,1.3563581622,-2.6910292941,0.0516908292,-0.6713422847,-0.4540788199,-0.8885691496,-0.1148955001,1.0602745085,0.4826815142,0.6700817723,0.5425863601,-0.7735245212,0.3307975339,-0.7589244758,0.1218691441,-0.1890023045,-2.0702547029,2.4144839488,2.0385637099,-0.5682523196,1.3821005191,0.2058545176,1.0694193447,-0.2979483337,0.9521227791,0.0641363291,-0.5311352755,-0.3821882863,0.6520201251,-0.8881941277,0.1574280689,1.6701183042,0.12566042,0.1036123079,0.0865281433,0.8853622725,-0.3383906552,1.482499721,0.561454346,-1.0188062107,-0.166184334,0.2593405599,0.5056695059,-0.2737196421,-3.1260327548,-0.2587906932,-0.6776179481,0.496713078,-1.7184236506,-0.7602955414,-0.4478029934,0.6848330989,0.506155364,-2.0902501818,0.6613544159,-0.4201950648,0.0133202603,-0.0094110295,0.360251715,-1.4627423571,-0.7387475166,0.479819353,-0.5352383277,-1.3489862018,-2.4131139954,-0.0808499423,0.0941526288,-0.4877192183,0.7842080079,0.0615912295,1.5461905654,-0.4669663045,3.4705376936,0.8375044793,-0.1433768569,-0.7242614803,1.7168318639,1.7750551707,0.7677020725,-0.3801153364,0.2837013872,0.0936518019,0.0593317622,-0.8300190831,0.3478353684,-0.5685273202,1.4211684603,-0.7242348102,-1.0261548971,-0.8183879131,-0.896880301,0.4373752372,-0.8732665824,0.5452411241,-0.4513895447,1.3308794575,1.1176093028,3.2430049001,-1.4049298417,-0.0072798919,-0.7006603508,-1.0052117401,0.6053191734,-0.882825409,-0.7139491939,-0.3105028922,0.7798287672,-0.3967626084,-0.2157988606,-0.3055917366,-0.3943745051,0.0932213863,0.6872893527,-1.0436482312,0.8085134907,-0.7668643654,-0.3944785985,-0.3057181608,-0.6774873654,-0.8382469563,0.5029730783,0.0171393083,0.0572757139,-0.7898763972,-0.3043971186,-0.7992159252,-0.2926140818,1.1387464764,0.4604633208,0.7520241249,0.7714057984,-0.3683328301,-0.9623929794,0.508424479,-0.5468235393,0.1418059015,0.2264427433,-0.7802770369,-0.1322494104,-0.3644646618,0.2632020876,-0.3643439358,0.0522625675,0.4334246844,-1.1997392838,-0.2058299405,-1.0264509423,0.3578538465,0.791660299,0.003090642,0.66937942,-0.2310860105,-0.7409057788,-0.3632317156,-0.5439857497,1.2703955794,1.1412720685,0.8516162489,-0.5749455643,-0.7718022623,-1.1765676628,0.0845129355,0.2201149573,-0.795103187,0.592695823,0.7515145975,-0.9620704471,-0.287503315,0.7488323654,0.938452508,-0.6020653908,0.390294921,0.1179126441,-0.0742337341,0.5832994706,-0.8796727085,0.6772521308,-0.5420322483,-0.2265719515,-1.0361603562,-0.3365452043,-0.0745272581,-0.229261551,-0.8025798804,0.0749052175,0.2758565162,-3.8390943731,0.7044477142,-0.1936492,0.011217105,-0.9091691509,0.4285319057,-0.4223605433,0.6356277065,-0.6865171678,-0.0821632838,-0.5904586999,-0.1049169132,0.0794342439,-0.7069725731,1.3207426636,0.0939454584,0.1282106233,-1.5280958355,-0.6229677072,-0.129588168,0.0666362405,0.3231208181,0.589153149,-1.0613473727,0.2815134004,-0.8632532067,-0.6230898827,-0.0163064337,-0.1851097279,0.7303714455,0.0304468274,-0.7122148438,0.9871430191,-0.2339960929,0.1464317732,-1.147032314,0.3162405723,0.9459064985,-1.4650950643,0.8844327287,-1.0673798753,0.3492747878,-0.2016089729,0.092647094,-0.0134746244,-0.2780060808,0.7603820633,-0.4051839081,0.3547857409,0.714910391,-0.7293221182,-0.659370836,0.2935791035,-0.1517789206,-0.8418619772,-0.4203858067,0.9130690003,0.0928766503,0.5783929838,0.0132995762,-0.3631669797,-0.4161673514,-1.2008352815,-0.7012003515,-0.0334714004,0.6003820067,-0.1672780973,0.0908590571,-0.8209757087,-0.1136164568,0.477259984,-0.2101232762,0.2394819337,0.4824013851,0.7686159831,-0.2898637792,-1.6652777919,-1.2272912191,0.4196631312,0.1292843126,0.718232187,-0.5377696584,1.1168951037,-0.2099084851,0.391059362,0.4038674722,-0.3342836143,-0.1268369043,0.4346675961,-0.6743886542,0.5322346953,-0.496163865,-0.5103704322,0.7052499037,0.9534188865,-0.1735276261,0.4680209503,-0.2406912171,-0.4848293124,-0.3809168956,1.0774901427,-0.6223166105,-0.6046705966,0.4890263189,-0.5827933111,0.6784111072,-0.1439307872,-0.798011563,0.3130908161,-0.5236247628,-0.2601015423,0.2468829535,-0.4702169823,0.8684424295,1.4128334842,0.403303788,1.1376782448,-0.2537857319,-0.5552795075,-0.125110133,1.0981589391,-1.0892013197,0.889730332,0.2606053666,-0.4710950498,-0.3803204643,-0.2947153935,-0.1063584899,0.27483459,-0.2363196519,0.355501644,0.8773933541,0.3570095315,-0.5066900806,0.1979088227,-0.0255703254,-0.0896137225,1.9001079306,-0.779826747,0.5830717342,-1.5181000927,0.5557007093,-0.8122432148,0.5972847605,0.9147112235,-0.5493884087,0.1410453129,1.0936474716,0.8492639156,0.3953599536,-0.4090557427,-0.5431673037,0.2948681435,-1.5166326121,0.6724348581,-0.1383214588,-0.3896938655,-0.711306753,-0.333885552,1.1183816674,-1.3578346729,0.9024354678,1.1132713438,-0.1959073143,-0.3955180751,-0.5861003913,-0.3487629115,0.3191297865,0.1608622676,-0.9246419081,0.5820467077,-1.0552571142,0.5546424158,-0.5451553853,1.1563379899,-0.0850629982,0.119809445,-1.1541342066,-0.0089695107,-0.3108010082,-0.4335968688,-0.4703353713,-0.3421710746,-0.4928046879,-1.1710464676,0.3421935073,0.6089891036,0.2559430271,0.0951359781,0.952368101,0.5886897028,-0.7982883408,0.3349459764,-1.3495761859,-0.2355246253,0.1910098171,0.6237211785,0.5169254899,1.2461116628,-0.1024413967,0.0018871181,0.0813361004,-0.8144250725,1.7402495723,-0.3206970274,0.5688983272,-0.2659288232,-0.2240509019,-0.6748908481,1.1538913344,1.2574142787,-0.9362645228,-0.5593832928,-0.7175426513,-0.0440657851,1.8096835075,0.1099792776,0.6822657307,-0.1035512649,0.9938825611,0.7655228638,0.1801240759,-0.1609485149,0.2184252078,0.6266493526,0.0474681762,-0.1212296111,0.9264704025,0.4899974645,1.0334082641,0.3690817308,-0.7199254418,0.5078837248,0.5514398148,-0.7329485242,-1.406821822,0.5006134731,0.2412773559,-0.5960864783,-0.8662053333,-0.3457852024,-0.6917649127,-0.7884662018,-0.1300198129,0.6671269726,0.1873248749,0.6221183518,0.8397612095,-0.6486799027,-0.3588926017,-0.6795481678,0.2242432684,1.2043454427,-0.0521842483,-0.0834225977,-0.0307176033,-0.4831545089,0.6908826439,0.4352926142,-0.8694297402,-0.2102039048,0.87959352,-0.4250875569,0.4976077122,-0.9794295777,-0.7805019021,-6.1199742325,0.90646726,0.8817291543,-1.0835734504,-0.3115563535,0.0428528727,-0.0142250908,0.678643669,0.665786712,0.2573513233,0.9622034835,-0.5288665331,0.6299437942,-0.6156085097,-1.0173089801,1.1311604665,-0.5037782297,0.3164126637,0.0247164766,-0.5318289477,-0.1696216891,-0.2822041139,0.7350196412,0.7354176191,0.4532623186,0.0633594723,-0.7672794363,0.0111064731,-0.6201725139,-1.0473103396,-0.5783646704,0.2747563844,0.7374971869,-0.460868598,-1.1254572751,-1.2275231512,1.0355768363,-0.4116137878,0.2908829334,-0.0136293294,0.2610894436,1.2374043508,0.415875747,0.4572399497,1.4943193236,-0.2597044498,0.3022963844,0.4120267079,-0.281223964,0.2533150391,0.9146989152,-1.0839830993,0.7902164306,1.7971590257,1.2282548573,-0.4211208746,-0.1983419828,0.9512525516,0.2179460473,-0.359916235,-0.0124029345,0.185532584,-0.0554722657,-0.0077874012,1.0604182411,0.1927833915,0.7429021819,-0.02236577,0.2091491189,-0.1968211,0.1795182151,1.2771381827,-0.764930629,-0.6633279354,-0.4149823987,-0.1597206932,-0.785905816,-0.276789666,-0.0029199766,0.7832707624,0.6833550249,0.4522451067,-1.4765151737,0.9602058873,-0.5451583515,0.7976886348,0.676980805,-0.2146585167,0.4657498218,-0.1516810766,0.2646049146,1.7803782708,-0.269547395,-1.2988264997,-0.3989752528,-0.3874517113,-0.2470379546,-0.6608121089,-1.8155161988,-0.6115423684,-0.5637885592,-1.2142665044,-0.9584748523,1.3614594519,-1.0781998953,0.7604446079,-0.0880175564,-0.5896238925,-0.9861516263,-0.0421483235,-1.5087087979,0.8378352248,0.2423366036,0.7803754111,-0.6309146367,0.1822134127,-1.0866674992,0.053983618,-0.2938644237,-0.4317537075,0.30457457,-0.5965297989,0.0586329096,-0.6627442343,1.1062798398,-0.7027798073,-0.6444997058,0.0100865711,0.0075128648,0.9817453589,-0.0349851807,-0.800108074,0.5460211303,-0.9002419304,1.8448451934,1.498826003,-0.6084481205,-0.0601939551,0.9487853268,1.1981022857,0.2588738268,-0.7294586484,-0.2069135905,1.151461362,-0.7103792168,-0.1914754495,-0.6422887105,-0.7420409848,-0.7465397943,-0.8639739939,-1.0201413417,-0.6083542026,0.2856679451,-0.9371007057,-0.4257208644,0.2837814295,0.4654023711,-0.9855386191,-0.0054220299,-0.2330535495,-0.2446979978,0.1445592782,-0.114088173,1.2263627003,-0.2489506037,-0.418410855,0.2727163342,-1.1561716443,-0.7836790573,1.3616633835,-0.2827125787,0.0242278023,0.0358566403,0.896464804,0.1341259568,0.2752072716,0.9919210377,0.9000285032,0.3651873019,1.1680619001,1.0662769687,-0.6044905635,0.4367356753,-0.5793397154,0.2227273893,0.315213763,-1.0427982087,-0.7825960192,-0.1653542173,-0.1746247446,1.1926162038,-1.3206606127,2.0410445509,1.6504030226,0.5886052325,-0.7653120423,0.5861093739,0.9102411899,0.2714303047,0.4693715381,-0.6682409926,-1.0795749648,0.6885022057,-0.7458302944,0.8665276712,-1.3501709403,0.3576342148,0.4534068068,0.1079175794,-1.3140439451,0.6459137618,-0.7395662044,-0.6295933734,0.1731669737,0.5341047776,0.4761462783,-0.5372515654,-0.0008511559,-1.0252300115,0.3872941365,0.7262124674,-0.7822220746,-0.0379103055,0.2844216839,0.3526826683,1.3926189434,0.8709299766,-0.8315128517,-0.6293099251,-0.6397879396,0.261081407,-0.8533491294,-0.4432179293,0.0897157636,-1.2318341486,1.2071003779,1.7580608665,-0.4369041907,0.7702464392,0.0671811543,-1.0617988071,0.8188756693,0.7131665965,0.9067329103,0.2276379374,0.9594781498,0.1568094908,-1.5295948092,-1.3655802471,-0.6375979466,1.3216914929,0.0287505743,-0.6042221456,0.3699822223,0.3084291817,0.093299016,-0.2447420145,-0.3854896627,-0.5371277581,0.0194875022,-0.8369743556,-0.6574023285,0.9532703634,0.5865102727,-0.6604413261,1.2557478341,0.6479255854,-0.1952587784,-0.3683957117,-0.0038594016,-0.6211482964,-0.4968970867,0.724779842,-1.0753236778,0.1146263462,0.721941311,-0.0760983349,-0.0762113502,-0.7407552114,-0.8271846376,0.8161028467,-1.0099283592,0.612345382,0.501993571,0.3250486581,4.0029281905,-1.4829863792,-0.0334343812,0.0758101441,-0.3227120345,0.2016153394,-1.0535204961,0.5200749941,-0.8405748807,-0.1419647646,-0.913466451,-0.142629864,-0.7226325876,1.5487941504,-0.57697489,0.5935695966,-0.3133809925,0.8245449113,-1.0561034205,0.2185489013,-0.4279991615,0.4832590247,-0.6687669295,-0.122530852,-1.4741301813,-0.588634382,0.8114765087,0.6515002224,0.6289842049,0.0125868712,-2.1731329348,0.6516596032,-0.6724626906,0.3933985663,0.3468971807,-0.1878656118,-1.8154461497,-0.3932785351,0.859799431,-0.763562188,-0.3048381772,-0.6628299805,-1.1383750792,0.3573885307,1.1597604825,0.7664950496,-0.7217420605,-7.3613829172,-0.5863800854,-13.3377437967,-0.0963841102,-0.4169314504,0.5884997401,0.0060513475,-0.5522928098,0.3365057875,0.7954163983,0.2052308597,0.1216807288,-0.8493557398,0.2787855787,0.6327294787,-0.7692617401,-3.5618564517,0.0657013562,-3.2803927463,-1.3023186581,0.4632704619,-4.7021358618,0.4058711904,-0.6574292093,-0.1519927585,-0.2542209807,-0.7969951443,0.1952488726,0.2261224633,-0.3688579123,-0.208385366,-0.1065096742,-0.4482209923,1.8057863944,0.6245111088,-0.127799899,-0.3847184025,0.5716107623,-0.637951084,0.8627468339,4.4111416635,0.7753709457,-0.8251646508,-0.3981389041,0.3176404633,-1.0700618369,2.3685808412,0.4001260018,-0.3433997299,1.1403538713,0.277174858,-1.1768114711,1.124953114,-0.6923375361,-4.4933818705,1.4875558994,-0.5075772575,0.4379746898,-0.7752501063,0.9070967472,-0.3203835467,-0.5511722882,0.7875906724,-0.3534379405,-0.659615402,1.6397588413,0.2379399257,-1.3838252895,0.3733527481,0.1734263404,0.334822625,0.6923347543,0.2940411798,-0.7682330654,0.8997455268,0.1929020862,-0.0265074185,-0.9498758272,-0.2417443679,-2.3556726454,-0.1041302536,-0.6242411337,-0.3611476594,-0.4616312825,2.1571706101,0.1484561076,0.6402609388,0.5320357662,-0.5191177846,-0.6303911243,0.1245838721,-0.3692864803,0.4656172069,-0.0695808726,0.5966925204,0.7714820904,1.1968281201,0.0084801402,0.2848321264,-1.4518121014,-0.6814911451,7.8140540675,-0.1030375922,-0.6762678153,0.1788328147,1.1790963333,-0.6963720016,0.5742445313,-1.7163193659,-2.8974363166,0.4705910208,0.0724713197,-0.5685913415,0.4684096399,0.4900407425,1.1491884999,0.1450662508,-0.6456033606,-0.0082297884,2.8421467522,-0.5479525664,-0.4468687522,4.7772318021,-0.5373391354,0.0799672835,0.5699334012,-0.6704977911,0.4067331857,0.8306194177,-0.0093728105,-1.2205400996,0.1742975283,0.0744578014,0.7798657154,-0.5135985551,-0.6181567032,-1.0505543408,0.2831933238,-0.3147796628,-0.7670514348,-0.6524430935,-4.4370922562,-0.8136136779,0.2299979132,0.9974941706,-0.2074456231,-0.4632835103,-4.2356244009,-0.0252179239,0.4867138719,0.1686190273,-0.0540642978,0.8321135906,-0.2046402089,-0.7861068107,0.1902925796,-0.0608831198,0.0616639056,-0.7341449592,0.1053042832,0.2418980844,-1.8262241662,0.2856804742,0.5301926502,0.4459063392,0.5185829425,-0.6372881498,0.3715059076,-1.4340903757,0.3328861172,0.2831633146,0.0280716115,0.7658830765,-0.1155767346,-0.2723082924,0.427476385,0.7870590878,0.1581246667,0.6334482059,1.3336374689,-0.5115316656,-0.271579607,1.6478558997,0.4976358703,0.3616721646,0.5152387222,0.0875129309,0.8798241732,0.3724113472,0.8346069392,-1.0839867328,-0.1074308482,0.7648832452,0.7771559962,-0.9517806638,-0.6214485107,-0.7788602025,-0.9417357137,0.9287600251,-0.3535164468,-0.6168501692,-0.1504915292,-0.5088331067,0.9902958487,0.5748228545,-0.1935287854,0.6396819364,1.9449529114,0.7860799918,0.5111797461,0.9026604919,0.9143077525,-0.0377280792,0.5310424686,0.7572117137,-2.4821580556,0.8278309099,-0.2703910397,2.231002482,-0.4036512992,-2.0779052765,0.3810073221,2.6115063695,3.6798506303,0.0381907083,-0.5434380414,1.066101751,0.1468827328,2.3499512989,0.7102395553,-0.9563476695,-0.8212769426,-0.846487494,-0.3321044175,2.3323572493,1.6318791251,-0.1792872836,-0.098379298,0.5457616641,-0.5881770892,0.4214622039,2.2751196512,0.0212464542,-1.6457193918,1.5373635111,1.0862599463,1.2358549509,-0.0492209165,0.0782032638,1.2725527831,-0.7491219277,0.7210163011,0.0889988476,-0.9907549313,-0.6527886282,0.0833580234,0.6158391258,-0.0660633078,-0.8519281959,-0.1734296686,0.3040469849,-0.172377862,-1.0998414159,-0.4909890676,0.1003234457,1.8211010401,-0.7884060835,-0.2364359849,0.7123882242,0.348255414,0.1754318293,-1.4342011582,-0.5464853522,-3.3764567552,0.274654547,-0.3577952745,0.094645402,0.0164403333,0.435720155,-1.4955354713,0.618958652,-0.549024981,-0.6329084338,-1.0706316838,0.8114352214,0.2872967103,0.9484539642,-0.2906589942,-0.5273953482,-0.0853056669,-0.9966232082,-1.0614490819,-0.2721821135,0.6308349828,0.891396189,0.5481009845,-0.7442596693,-0.0780832387,1.3954369266,-0.6706845162,-0.1341292069,0.5217808693,0.7762683504,-1.1510469677,0.131642076,1.1279112699,-0.0265397734,0.5714362804,-0.2412188759,0.6569361418,-0.9108820983,-0.3542752019,-0.1850274921,0.0119681534,-0.8563316609,0.2551773505,0.9123541793,-0.5236001837,0.5473007811,-0.0068585204,-0.4652604178,-0.1720115848,0.7843254271,-1.3039838576,0.141500134,-1.1311452159,0.6104966121,-0.2074501675,0.4781437474,0.4636487484,-0.4679436623,1.4448796999,0.7052049435,-0.4973688252,-0.8007151435,-0.5965145714,-0.0141653375,-0.016770596,-1.0852739491,0.2967801451,0.597971927,-0.9855335283,-0.5782273033,0.1125666256,0.2704587039,1.2723801163,0.6391393571,-0.1860472779,0.2633145464,-0.4099489986,-0.2714844936,0.3470581055,-0.0406232416,0.3921610718,0.2852810126,-1.0537595038,1.0652256434,-1.1386739817,-0.5044470527,-0.4940089289,-0.5573973658,-0.4687800661,-0.0279343349,-0.2225977619,-0.522682614,0.7247686325,-0.1086748627,1.5800026352,1.0603975994,0.6172311469,-0.0200662503,0.2851199874,2.770427666,-0.0615747499,-0.0589478967,-0.8471019897,-0.5487532657,-0.3213858591,0.4761014998,0.0387873465,1.9965896772,1.2060028688,-0.4837276416,-0.500916234,0.6647002603,-0.3221130246,-0.3187644832,0.6681848073,-0.019001971,-0.6434113887,-0.33220852,-0.6617495208,0.0364885621,1.0773988667,0.524427586,-0.7846615037,1.2086974031,-0.8684552116,0.4833927419,0.2144469886,0.9101553554,0.0462798285,0.4814605948,-0.8263358232,1.6353074549,0.3066100007,0.457199372,-0.0193486415,-1.12704313,-1.4964471363,0.8348093431,-0.8642668444,0.4869436839,-0.1428893338,0.4201960747,0.644746801,-0.7787986693,0.2917131628,-0.3237354239,0.6687799924,-0.2020170432,-0.0238478175,0.1168921162,-0.5460718753,-0.5094228662,-0.6075342344,-0.1387751725,0.582091894,-0.1712842095,-0.6538359599,-1.7952615888,0.9371422544,1.2028568862,1.0119851275,-0.7105648411,0.2374188862,-0.8875864984,1.8779125954,0.0626643641,-0.5238103231,-0.4803953705,-0.3482934042,-0.5730768134,-0.4794914631,2.4992775019,0.3729557346,0.4424769008,-0.0093231673,-1.2597143405,0.1049499987,-4.3183735864,0.9915111708,0.0207879259,0.6261585359,-0.0252610117,-0.1892258144,-0.3100452575,-0.5527324148,-0.6523350615,-0.9185480808,-0.7650095829,0.5397056622,0.6593211446,-0.1424351759,-0.6489276863,0.1119950849,0.2520581141,-0.5163048318,-0.206693061,0.6080349037,-0.7369025693,0.4875026477,-0.0273968161,0.2944345474,0.9802723604,-0.0884105931,1.5445935676,0.6437398878,-0.3983711521,-0.6676788613,-0.675841762,0.940151968,1.5309298195,0.7621242236,0.2783119431,-0.8260186892,0.3687361304,-0.1591434869,0.6895520703,0.6797437424,-0.7393733087,0.6316143857,0.8119848045,0.2167675257,-1.0083727866,1.2401833266,-0.7264011677,0.0235198142,-0.3209611606,-1.0561816994,-0.9164515785,0.1339034577,-0.7391853936,0.1668406581,-0.2553401791,-0.1989598515,-0.7065117065,-1.0314252036,0.0354080227,-0.4024237454,-0.2837651994,0.1027379675,-0.2799816843,-7.7016925994,1.2321430107,0.1297676848,0.2681165308,-0.0126188277,1.0777098665,0.673714761,0.5674259043,5.3103638959,-0.2133430404,-1.3467012699,-0.4664284432,3.1551447643,3.8880373855,0.4055875408,-0.6205453882,-1.0342643659,-1.45835434,0.651731396,-1.2287732895,-0.8111747063,-0.656594308,0.1491140062,-0.378173002,3.6187088771,-0.4287024746,-3.052507863,-0.3278753296,0.9745049515,0.0792121028,-0.1491099327,-0.0580776098,0.0963214357,-2.3647559867,0.3787049894,0.6378991046,1.1110771161,-0.5308622056,0.2314417452,0.6971397167,-0.1136977633,0.3684478931,-0.8512889217,-0.3752163396,1.278483667,0.8426441024,-0.281722956,0.6875556712,0.1940468191,-0.490361743,-0.5814079571,-0.8661108462,-0.729883063,-0.0910470321,0.7992018947,0.4944839347,-0.5848592316,-1.0002667081,-0.5593745455,0.9680109064,-0.3964436332,0.6077743318,0.3309824057,0.7918372907,-0.6800137771,0.6329085927,-0.2498248991,-0.7734098405,-0.4028850393,0.574519036,1.3876207444,0.5446784335,-0.5970141466,0.4062849789,-0.9406077847,-0.5518373334,0.9446226859,0.6644155134,-0.8181046341,-0.7244804807,0.6713079705,-0.0154502598,-0.6232418279,0.4066671968,0.7641287385,-0.8719505894,0.2656557577,-0.7129381802,-0.523031941,0.2281427132,0.4266419976,0.5162495848,-0.3273278127,-0.6990389117,-0.0055388719,0.5043445814,0.5683092489,0.923539273,0.6517118072,-0.0752251381,-0.7283959229,-3.7843359919,0.9031440344,-0.6523239752,-0.2035475905,-0.9284900137,1.2295343217,-0.2286401167,-0.5714225686,0.7473088529,-0.1862976421,-0.4482224074,-0.4289465535,-0.0177719108,0.2994526761,0.1845901195,-0.2958959684,-0.4634490301,-1.495842811,-0.5385856209,-0.1318162957,0.0876533612,-0.4465084371,0.5527182247,0.4064922206,-0.553687712,0.5906146482,0.1819897511,0.424210138,0.4966498691,-0.6313906361,-0.4050793376,-0.4059327579,0.3219361435,0.1341906255,-0.098501569,-0.3216829224,-0.2203655487,0.4576046413,0.2548801607,-0.3863294998,-0.368918826,0.6309307171,-0.5450722731,-0.1959445611,0.5992647027,0.1350331825,0.2700154823,-0.684911851,0.0073689098,-0.7559844273,-0.685592438,1.4724473865,-1.2303072499,0.6761418302,0.7530183709,0.0030817457,-1.0862708502,0.4064535227,0.0088985662,0.3854694361,0.6174415635,0.680381397,-0.7133134628,-0.1882098608,-0.4715556213,0.5784750907,0.0178998882,-0.388894421,-0.8051905469,-0.1122162599,0.4637532691,-0.3381254513
   0.6338685827,1.5812410801,-0.0460798542,0.7493876764,0.079494783,0.7519849257,0.8450415623,0.2436650301,0.8819461551,0.3619339417,0.8792053138,-0.6600611004,0.958259243,-0.8061631813,-0.1886775392,0.7500353739,0.4183384925,-0.1680093638,-0.4392501261,0.6527221169,-0.4403064723,0.0156487262,0.3245710794,-0.2416727946,-0.5858610703,-0.5648796324,-0.0503109374,-0.1060166217,0.4443869378,-0.4927717003,-0.4613337749,0.1459445663,0.9295669829,0.9947143329,-1.1050745533,-0.0296265443,0.3087328807,1.1018473629,-1.0873583972,-0.4139100862,-1.0518814081,0.3286352904,-1.3992291442,2.4496487985,0.1304053674,-0.6016560971,-0.0097140059,-2.5421744849,0.9807073706,0.2376062136,-0.8890995762,-0.4926461205,-1.4064550032,0.2056840647,0.3886510371,-0.334168039,-0.0184342837,-0.5155506055,0.9374279271,0.8154110206,0.4607582059,-0.5457733538,-0.7456951961,2.0621907005,0.1188996891,0.6048604625,-0.555243538,-0.0788745329,-2.5788020296,-8.5939272921,-0.5297470787,-0.8978401041,0.6164281199,-0.6224714697,0.1698570684,-0.4431262241,-0.7282339513,0.5383566611,0.9085851223,-1.071891516,0.3120222093,0.1494346212,-0.0100725828,1.0828261428,0.637406344,0.1254919884,-0.1082572908,-0.3154098327,-0.4089000887,-0.4794664502,0.2968108812,-4.07632658,-1.4294985685,-0.1376128183,-0.114862463,-0.6951696482,0.1660632627,-0.219247089,1.116382328,1.0235569511,-0.3558828236,0.5152194311,0.1924518523,-0.2793512872,-0.2505564551,0.3444346439,-0.6466638728,-0.2991606534,0.5282959869,0.0951246019,1.0853161961,-0.066078174,0.758061279,1.1916809808,0.7282909273,0.4497950092,-0.1162978639,0.6156765038,0.6702648466,1.4474799276,0.8042604934,1.0974218058,1.4906151728,1.7230503921,0.151656604,-0.4583565784,1.0652262431,-0.358761532,-0.7430181555,1.1795700382,0.996728787,0.6451959357,0.5318141654,0.2446123946,0.8994085713,-0.1465845704,0.4795150946,7.884378568,-42.5917618169,0.8186343684,0.0584703963,0.6467201214,0.5471212417,-0.1518045265,-0.5445773429,-0.5377206392,1.0379352915,0.8669634126,0.9711193551,0.2329893309,-0.0274832954,-0.0110455857,0.2800884762,-0.3850616546,-0.024320662,-0.0964692827,0.3768454317,0.3901246788,-0.7343948913,0.770219634,-0.3258140314,-1.0666970695,0.3722770304,1.1471728925,0.5542777693,-0.3092620454,-0.3379181599,0.8042949039,-0.114427199,1.2396077625,1.2707531756,0.7675459859,0.6979090138,-0.254480396,-0.2532955975,-0.0223394496,0.6448418816,-0.162760854,-0.524087519,0.1290028183,0.8594022933,0.1751619778,-0.1574449177,-0.0993513473,-0.6799526289,0.0240785972,-0.3254518578,0.0212463267,-0.126285427,0.6854242573,-0.3111446654,-0.9739848343,-0.1415321832,-1.0079244046,-1.0922182086,-0.9391199907,-0.5411211384,0.4137034229,-0.6620751459,0.273454399,0.6054338371,0.7880405579,0.2844536321,0.3029229451,-0.8634440339,0.8785195984,0.0087177908,36.9347468296,0.4151025865,-0.6990223496,-0.7079613107,0.8322386338,0.9877919961,0.9842116987,1.0615976926,0.5014647686,0.0464674908,0.328852197,-0.8325074888,0.7658744198,-0.7973565216,0.8784150884,-0.1484004642,-0.6268750256,-0.2562026825,0.8909673925,0.3815666774,0.3439666768,0.632167343,10.1848309785,27.5370294337,0.9597328873,0.1574319087,1.0958732462,-0.6159477349,-0.4730412436,0.0473497386,-0.4110415269,0.9578552579,-0.8734660269,-0.7509040966,0.269715694,-0.5635865706,0.2640815201,0.4804825396,0.6734213538,0.3836204592,-1.1066763346,-0.5067224672,0.5815005554,-2.5871207038,0.3304102093,1.34100012,1.1175002416,-0.9723085753,-1.103753761,-0.438258008,0.6771641082,0.7310658763,-0.3707909385,0.6217853513,-0.4246920253,-0.4488214463,-0.1614643869,0.2548844205,-0.1287648189,1.2184594536,0.0755422801,-0.9558855874,-1.3283378786,0.2189398577,-0.724776488,-0.1225687517,1.975877742,0.1390064248,13.1868826626,16.9133757625,0.8500437221,-0.6488759643,-0.9799186155,0.2406393564,0.4602166082,-0.7121530292,0.1042329039,-0.6648338117,-0.4630747575,-0.0821721478,0.5158652238,-0.9597023081,-0.6614010601,-0.7432089452,-0.2736005039,0.4579462444,0.2315229132,-0.6869441823,0.3072338618,-2.6137177553,0.397197404,-0.0854462769,-0.3004057963,-0.6836151327,0.2295452978,-0.3470610438,0.5099141043,-0.2182722029,0.0413384699,-0.2343139593,0.669456465,-0.0843988407,-0.0478340064,0.8028562546,0.9343052025,-0.3531895534,-0.2796624156,1.0310406701,1.3002079955,0.6877817127,-0.4122075744,0.8233350022,0.6784942198,-0.3691478588,-0.5097812382,0.9637705911,0.2659986515,-0.4625543595,-0.4090766328,-0.5293159324,-0.6404625388,-0.0618314915,-0.3107474146,0.1479542258,-0.6405458756,-0.4219274434,-1.0830123636,-0.2656757426,-0.3984716984,0.1788095281,0.31732867,0.8988695664,0.3128128977,0.6169073751,-0.0580095233,-0.7041093593,-0.7521040414,-0.2810844679,0.5522367971,-0.2995914259,0.5171517985,-1.0743649175,-0.9125021431,0.3612832515,-0.4181481752,0.7869861378,-0.5447201163,-0.7941305783,-0.2857319021,-0.4030632072,-0.989039498,-0.4004273999,0.8588659606,-0.1463031408,-0.6254825036,-0.3653133431,-0.0216051644,-0.1931825523,0.2261667391,0.580885205,-2.0334284961,5.9511284887,-0.8063733557,0.9426023459,-0.0017965693,0.6153630992,-0.237596055,-0.5574971523,-0.4193949847,-0.4590380372,-0.0202946217,0.8104807194,-0.0541572555,-0.202448252,-0.6746725888,-0.2229966057,0.6141381613,-0.9279688302,0.4152649012,-0.8454753703,-0.0411067791,-0.3477859514,-0.3132294933,-1.9421278901,-13.318133061,0.357163654,-0.6161943026,0.3909476548,-0.7209879243,-0.9251284372,-0.7187509636,-0.1886936533,-1.1128664343,-0.5107839264,-0.678463067,0.6665412498,0.4859959384,0.7807079928,-1.1410742442,0.9191578828,0.2383206364,-0.5991722952,-0.2293762826,-0.5171996355,-0.0224585805,-0.361753242,-2.3494159079,-9.7444704348,-0.8520832807,-0.4772721342,-0.516816477,-0.0405620115,0.5484554442,-0.9297274328,-0.9564568732,-0.5888557328,-0.6788210377,0.7337755613,0.4926275477,0.2603925378,-0.1463224034,0.3827553693,-0.3986107891,-0.8164318365,-0.9079107702,-0.8703569358,-0.9441392855,-0.6256393909,1.0836727701,-0.8791949943,-35.3078411331,0.987515428,0.7649306521,-0.784580854,-0.7136750986,-0.8253798413,0.4004274912,-0.4687124498,-0.3640692411,-0.4031645281,0.5724280222,-0.8314423454,1.1899133931,0.5722501848,-0.1948087262,-0.9187930854,0.1765955257,-0.4826479717,-0.3553586971,-0.1034175347,-0.4576309127,0.8084000435,1.5371380113,-4.5704038158,-0.1305315728,-0.0642594844,-0.4753261263,-0.261528753,-0.7175342633,-0.385768894,-0.9415255963,-0.2327032836,-0.1127091629,0.5425575077,0.7772177881,-0.2995981707,0.2455196728,-0.4257261693,0.6049433958,0.5139463223,-0.9289805982,0.1659451939,0.2444757412,0.1523169319,-0.1455261775,-1.2014577944,-1.9844194773,0.1952395342,0.6617188426,0.0385945511,-0.5751121381,0.1330076256,-0.9246958439,0.9046531388,0.3187793383,-0.4033840853,-1.5066351723,-0.011123217,-0.1376137989,-0.654037984,-0.2266580817,-0.2195204989,0.0139221015,0.2741385886,-0.7152623444,0.1396029047,-0.5964305494,-0.1280379345,-2.4182902229,24.8380780895,-0.1010095722,0.7141866364,-0.1748319436,0.7802516916,0.4109010255,-0.0748027594,-0.8863986604,1.1659977069,-1.0772809133,0.8843571986,0.307076229,0.4485752042,0.0487823104,-0.385389536,-0.5943454186,-0.8410525326,0.1637401634,0.7434298455,0.644604486,-3.9270462628,-0.2920735017,-0.6529747151,-0.8755695209,-1.1428261125,-0.4646320556,-0.9846062492,0.4004753034,0.6942650983,0.8151064409,-0.8404583505,-0.8874807088,-0.9454247325,-0.7394917884,-0.8443567363,-0.1162636665,-0.7621641612,-0.8345801558,0.7989014187,0.1979834012,0.3185772605,0.4104648967,0.0230815722,-0.0337198296,0.7668446527,-6.1497643498,-33.229983287,-1.0639167419,-0.8407344806,-1.2432120953,0.62633002,1.0606713717,0.4180165211,-0.2706467427,-0.7097525565,-0.687597554,-0.8056984922,-0.9559358068,0.6553851243,-0.8027312506,0.133969592,-0.3809388558,-0.9456544142,-0.7495641955,-0.390776217,-1.3671978697,0.0093505411,-0.9020359239,2.7107939389,11.4316429438,0.4556256788,0.6989798209,-0.6723361775,0.5231187855,-0.1232795784,-0.241337407,0.59378506,-0.7491134952,-0.807742883,0.7680226138,0.5994618243,0.2992514885,-0.0817557945,-0.173040567,-0.1508512189,-0.0015767509,-1.0037033344,-0.4565469326,-0.3163927414,3.5019715994,-0.2668381222,2.6235374572,-76.6532646498,-1.699786249,-0.973181081,-0.4680215098,-1.0866251484,-0.8973323256,-0.7734805318,0.0658382388,-0.3655494975,0.7796219311,-1.2144270932,-0.713227239,0.1331060707,-0.6348002947,-1.0375660839,-0.4368227011,0.3228210262,-1.2875686891,0.3517417581,-1.375264519,0.7864103513,-0.1174994277,6.9716794466,-9.8836897474,-1.2440826374,-1.081733814,0.6737156463,-0.0900566593,0.621889593,-0.1858190076,-0.1576180566,-0.7807587045,-0.0366664955,0.3324798047,0.4469177287,0.571868322,0.001019562,-0.1130678199,-0.7806957457,1.0737349988,0.9712734996,-0.7026697925,-0.5059295706,14.8082581094,-0.9891970256,-3.2436796692,-0.3911013559,-0.440250586,-0.6303656765,0.8776357737,0.1955895638,-0.6253359476,-0.3667192576,0.3779175319,0.9941368644,0.4841589463,-0.4576834222,-1.0147002888,-0.3836501687,0.9937060986,0.789629303,-0.7994866106,-0.3790928464,0.7584268521,-0.125642687,0.1146149403,0.3991435483,0.1050723398,-5.1500833848,-1.4349925831,-0.5109171077,0.8217364339,0.4316150948,-0.3881352646,-0.4899836437,-0.7161124876,0.1134594508,0.1280075796,0.5924353075,0.8079306489,-0.3597859868,-0.4196016555,0.0695389296,-0.5591489214,-0.4363288949,0.2410788564,0.298088597,0.1177041312,-0.4014229541,-2.9354716225,-0.262572184,-0.0874705368,0.2403667347,1.1553755546,-0.3032590552,1.1861334109,-0.2790893939,0.506966157,0.0434147357,0.8723507183,-0.3150865189,1.2636779441,-0.1668353358,0.7162087519,1.0207476232,0.1807317538,-0.0700310391,0.5849637086,-0.0047526431,0.2040502408,0.527055961,1.3541111711,0.3731261568,-0.038177615,-1.2974532682,21.3212357019,0.9002326979,0.5432619249,-0.8036821379,0.2368266553,0.28419436,-0.0940501546,-0.4749962518,-0.3919113292,-0.5555087099,-0.0677306321,0.4106171132,0.2159802296,0.5251716764,-0.038075536,0.2633642079,-1.2302228343,-0.0708234761,0.496950276,-0.9300555172,-4.3618642869,-1.013576578,6.916075835,-21.073409134,0.1973928001,-1.0156703917,0.1254530194,-0.6546571267,0.3627912451,-0.9953727626,0.6640254342,0.8240782393,0.4942378696,0.3134637334,-0.2067110238,-0.0695230798,-1.013677794,-1.0145951481,0.4962588287,0.2325955539,0.8594050205,-0.6630553244,0.8271030517,-5.1969830636,-0.4385070748,-1.2472586104,24.6936897342,-0.6675263152,0.4831277402,0.3970174221,-0.2361726664,0.6075501589,0.8276821046,-0.1078707054,-0.9650863382,1.8946903579,-0.0314255374,0.6216610608,-0.382471026,-0.0264125047,1.3886945893,0.8228091483,0.0477366056,-0.3079176781,0.1661205441,1.5170878259,0.7420721944,-0.74097867,-0.1860965838,-5.4554457504,-0.7843489103,0.0591776883,-0.8110233805,-0.5282017064,0.0316494689,-0.5137529324,0.5355465069,0.9478996927,0.2179426401,-0.4763893033,0.0587564575,-0.2749212355,0.9996015432,0.06850641,-0.83059682,0.8759428485,0.6562965608,0.312646057,0.9006431986,-0.245167968,0.6233173098,-13.162333641,13.2001907345,-0.9199697193,0.2578084672,-0.0469606366,0.4758611313,0.1406063114,0.0729660951,0.5896710821,-0.5215379368,-0.051766526,-0.0700503107,0.3875627057,-1.002667612,0.3259052186,0.775833364,-0.8363233146,-0.341954833,-0.4489477074,-0.3278151935,0.0219462494,-1.9390442439,-0.7125198836,-3.554360395,0.2800338559,-0.084031224,-0.2039342665,0.272940217,-0.8208154565,1.1173561969,0.999284345,0.4435875092,-0.3832141944,-0.1248273606,-0.6110058115,-0.8465427835,0.5501882014,0.1260930309,-0.8118161068,1.0644824133,0.9681122095,0.1756946205,-0.3418855067,0.6462592149,0.0933708916,-0.757071436,0.0925763943,0.3207561143,-0.25330514,-0.4630943916,-0.7807752427,-0.049719938,-0.6837302085,-0.4369130778,-0.3242197679,-0.702835709,0.34785084,-0.8077140551,0.0360235917,0.4040287496,-0.3720746974,-0.7028803437,-0.4975005106,-0.8405955308,-0.4851166064,0.1672813488,-0.9330572529,0.8121333802,0.059313439,-1.4658961248,7.4862766095,0.0519099672,-0.0174236011,1.0354360389,-0.5916304873,0.1245397495,0.5164603722,0.5695478073,0.4490955157,-0.8353076419,-0.8945836392,-0.3990905008,-0.1138693378,0.5971481038,0.4938900589,0.4426370359,0.36780701,-0.3687996382,-0.5797207645,0.6484212744,-0.7944577518,-0.7898769152,0.0615438816,-0.3823769553,0.4406736492,-0.1288033194,0.5905852705,0.2499309722,0.717422036,1.0481781965,-0.0023010621,-0.7789509123,-0.8010376246,0.5896549646,0.4027948967,-0.4346345091,0.7120591542,0.5560556304,0.8744095538,0.0253121572,-0.7714358196,-0.7617712944,1.0012747345,1.439682994,-0.8284425365,-2.4100458909,-11.5292835077,0.8329703539,-0.5223086916,-0.6448876898,0.194144616,-0.3419975302,0.1404612819,-0.7835666091,0.7288925287,-0.3735147715,-0.2281131382,-0.2891693742,0.8606831188,0.3714494825,-0.5245924089,-0.1445074143,-0.611177442,0.5173479826,-0.1433917089,-0.1868897949,-1.0957503832,-0.0846361446,1.7414472311,3.5472909377,0.6788731706,-0.4422586293,0.6047277809,-0.9996607637,-0.3257909616,0.4072461544,-0.9388652996,-0.088750344,0.3048495539,0.5522614516,0.1028917295,1.1719809672,0.8313632446,0.0531167817,1.142733099,0.9811801245,0.599338227,0.8116196028,-0.2801153345,-0.5337026286,1.1910996888,-0.5285628112,-1.1041262857,1.2137730188,0.6824581768,0.1862205479,0.6018187488,0.0477682859,0.8305642719,0.610017325,1.0703814078,-0.4051523423,0.0232475458,-0.3366827839,0.5535361793,1.1094203225,0.0101663925,0.5516925761,1.1264722501,0.657117478,0.882982043,-0.0796780344,0.5041856623,-0.3672937218,-6.6720575985,-17.6806194207,-0.5069947432,-0.7940369907,0.1369189004,-0.5683100014,-0.173162031,1.0296899467,1.2232752947,0.1818864891,0.3942177424,0.3918186895,-0.3430938091,-0.7852477812,-0.0533720291,0.0885202104,0.2324383738,-1.1285205469,-0.5241586837,0.3977137759,-1.3753324203,1.3428416062,-0.4306022841,0.6134578303,28.2363588992,-0.0534434127,0.4003446443,-0.5089993739,-0.7572693613,0.1828784029,0.3436608748,-0.1471180172,-0.6040260942,-0.0019604505,-0.706756748,-0.3037816314,-0.4205481846,0.645176454,0.6217492251,-0.8310615931,0.1316045692,-0.7665395268,0.2142990567,-1.4424427958,0.4340398495,-0.0851902858,9.0520509872,21.3069020117,0.3760656726,0.4973680932,-0.5066410489,-0.1158661844,0.0686607466,0.3141473846,0.7984043143,0.197598673,-0.5920960712,-0.8590397188,1.0478200535,-0.105306711,-0.6533001565,-0.7037256614,0.2040394694,-0.2780654365,0.217087931,-0.447995726,1.5670195429,4.3708188142,-0.81814683,-0.8533776077,-0.4074391171,-0.4842309363,0.2616125224,-0.3344716126,-0.967818796,-1.2609464194,-0.470997735,0.2178960924,0.2875412769,0.5008364909,-1.0588131786,-1.0748619773,-0.8404745635,-0.7205493611,-0.9158368657,-1.2086328416,-0.4482706666,-0.7820931997,-0.0425024793,-1.0678226429,-1.3360154526,0.3053595572,-0.5157743773,2.4628186759,0.1603223172,-0.1209188133,-0.4399823561,-0.6537599196,0.0193177228,-0.452826541,0.9453493762,-0.5921353021,0.9362795532,0.8431262695,-0.23493191,-0.2609883358,0.5605082643,0.4640193732,-0.1981504606,-0.197004264,-0.6027455353,-1.1625556184,0.0321053546,1.1585632,0.7851696036,1.3032986656,-43.1244920921,-0.0637290046,0.8938062952,0.1275167006,-0.9184919685,0.1207845393,0.4727766822,0.8513482088,-0.1903008585,-0.3269015074,0.8122074699,-0.980453512,0.6062494291,0.1410371441,1.0359392803,-0.1989355628,-1.4744469512,0.0615899238,-1.0477680269,-1.022443436,5.602133288,38.0756159759,-0.5486830628,-1.0512265812,0.1845676079,-0.3792839599,0.9727201161,0.1267606191,0.4253221446,0.4181311287,0.2699135731,0.7267715631,0.2549238242,-0.4990458581,0.6506042075,-0.296121365,0.9679737606,-0.2868162349,0.1418492714,0.8362452182,-0.6857700523,-0.2481217984,-0.4504288338,1.2078930454,0.3413711585,0.0828894775,10.7662912817,-1.3900367214,1.0273427634,0.0864097591,1.0127003295,1.0049659239,-0.0164340034,0.4907088397,0.1476205079,-1.0481935052,0.5015918029,-0.3412370654,-0.0467595403,0.5115694618,0.585793464,-1.0205607782,-0.2672776235,0.3174845247,-0.8909032312,0.4686361219,-2.0780348803,1.156621191,-0.8439133404,14.8410918577,0.1833768788,-0.251711792,0.7175314063,1.1988243865,-0.1729833634,-0.112033756,1.0866052197,-0.6788092543,0.0582417441,0.4207015832,1.2915785555,-0.2275729107,-0.6213996945,0.8279401605,0.0480826276,-0.3856362376,0.8307467552,0.781629561,-0.4513151223,-0.2028738632,0.0310581367,-2.2567652109,0.6384906906,-0.0715742317,-0.2504731762,-0.7797644958,-0.6922702103,-0.0400395197,-0.4468486617,-0.9060344465,0.6845380276,0.2608665444,-0.4111447259,0.7694175393,-0.5114899452,0.9345390347,0.1220223885,-0.0672000317,-0.336061697,0.0892530472,0.1219412648,-1.1225861671,0.8785436215,-0.8266642161,15.8285125254,3.5794197329,-0.0683644253,0.6866884069,0.6023239755,0.593349066,0.5299916537,-0.1848146281,0.2918539839,-0.226397844,0.5821173222,1.3860711077,-0.0038563344,0.888453865,-0.2105149168,-0.3089301189,-0.3747473545,0.5376700426,-0.4169356573,0.502092159,-0.8617994026,0.3720034849,1.0525889508,0.4920265006,-0.2706646491,0.5316239364,1.079331137,0.3337754086,-0.4210026394,0.6947133499,-0.4685729979,-0.1439904341,-0.1030735197,-0.1232964821,0.9583407695,0.0726288732,0.2365682949,0.631062821,-0.3423443211,-0.5402234868,-0.6359085312,-0.5606982646,0.3830022776,0.0694562999,-0.1202580695,-0.3296461711,-6.2046752881,16.1780572116,0.6424612144,1.2738657945,-0.3664420603,0.4621340705,1.1502788354,-0.2865047011,0.9431666619,-0.4591517969,-0.3757531207,0.8139661543,0.5207901674,0.6490385433,0.7765413506,-0.7490154172,0.3214397166,0.4465986537,0.7497490211,0.5275932032,-0.3927389736,0.9184844902,-0.8400619911,-0.2286589094,0.2926575187,-1.3240154707,0.4748417898,-1.0802124509,-0.747553811,0.7246474265,0.5144202151,0.5620018702,-0.7040004666,-0.4779521049,-1.4029696107,-0.0973428159,-0.2748964897,0.5638999479,-1.1812440869,-0.5053437157,-0.5479643995,0.4586724843,0.8488337306,-0.7355099264,0.176113018,0.5915702763,-2.9973681657,-18.2919123418,0.7775933783,-0.7221573793,-0.1964149227,-0.0730632514,0.0961066319,-0.7409608534,0.7917872068,-0.0458276083,-0.2820574096,0.544213179,0.4180124125,0.6303656421,-1.1947927049,-1.0715157526,0.2437867791,-0.7964585122,0.0854672041,0.1897801275,0.3585566852,1.0356295437,-0.9038754756,-0.575736661,1.2152823014,0.8291948073,0.6410185232,-0.5464021477,1.0580190514,-0.3587796303,-0.6873727303,0.8964286441,0.5868461211,1.3311414181,-0.1090123486,0.2776340513,-0.2362823972,-0.3486320777,0.8237582654,-0.9788315058,0.7433736035,-0.0292195714,-0.5899753777,0.0296323125,0.0635278852,-0.9447899201,-2.0063843324,-8.8635441466,-0.5839934495,0.5458095095,0.8674059543,-0.5760627484,-0.5167399055,-0.6696365562,-0.743065197,-0.5969542105,-1.122952336,-1.2695348758,0.6968749636,0.6204805837,0.475197304,0.9219400316,0.2826697238,-0.3825211558,0.7364695904,-0.1324980844,-0.643153709,0.6810940379,0.2842884566,-2.7962304112,1.2504053721,-0.4241355614,0.0591801983,0.2137889917,-0.633616386,0.3806975467,-0.7506984612,0.1186731075,-0.8049666224,0.5248865898,0.2702431477,0.4302300188,-0.8980468089,0.8137452388,-0.5706760086,-0.3097023657,-0.7551744284,0.1707101444,0.132419595,-0.9916971418,-0.4465011221,0.5049761791,7.2683374674,-6.1822155144,-0.4433044407,0.5132823038,-0.2867961731,0.2000762127,0.2863143418,-0.9119174908,-0.157444172,0.3091324624,-0.595674698,-0.4655957008,0.1172212677,-1.2156605669,0.2280586096,-1.1428694882,-0.3294141081,-0.6354198547,-0.6332619036,0.3403014761,0.4189264529,-4.3264771049,0.0785822524,-0.8996605107,-8.0287971719,0.7543422579,0.0222726473,-0.1687739235,0.2688758578,-0.0287411228,-0.7508792988,-0.4699291306,0.1205911961,-0.1071160172,1.0187266508,0.213877805,0.8034158596,-0.6713560138,0.0120232859,0.6043207633,-0.212415308,-0.2731187909,-0.0794778773,0.7561257019,0.2175661813,0.3200791256,13.2706803504,-34.0145034518,-0.3934310781,-1.3784129295,-0.0984511484,-0.5280878639,0.1569849181,-0.2787871607,-0.6231574174,-0.103720209,0.9978960298,0.2405110537,0.2003573223,0.3428939191,-0.8195348646,-2.1651992382,0.8724268119,-0.9503439933,-0.3816268769,-0.9169097286,3.1426540945,-2.3763992974,1.3404310217,-0.1782759094,1.1548529113,-0.7127905975,0.0658960047,0.6562395377,1.1366000908,0.3628734834,0.052687331,1.2551405675,0.4436120535,0.7378477025,-0.2756536089,0.3939842579,0.860901507,-0.2630938378,0.2617426435,-0.6558538338,1.1699909144,-0.1720564788,0.5771356937,-0.4882048337,1.173650903,-0.4416677623,0.4881551603,0.4950947894,0.6497740315,0.114224363,-0.9780091191,-1.0051080539,0.6268436007,-0.4369684084,0.8357537731,0.0527371213,-1.111827776,-1.0394964535,-0.5248028461,-1.1085268961,-0.0526338497,0.0235331834,-0.6196668506,-0.9586774614,-1.2155523844,-0.9761333765,-0.933157107,-0.8302724718,-0.8828888296,0.8881492734,-17.6959899607,-1.2513127608,0.5070990745,0.4665375118,0.394075385,0.874849691,-0.063702213,0.2406288218,0.2512843113,1.4041088022,0.2117731424,-0.1589004946,-0.3915169913,0.7781016043,0.189340742,0.0402562442,0.2009348331,1.1480537391,0.4597972482,-0.3660582861,1.1455973516,1.057403159,17.5081866125,-11.047848864,-0.0758858035,0.7358394912,-0.7861363947,0.2297063246,0.9329903746,0.2409910775,0.1981273244,1.0242662591,0.1841036074,-0.7824105107,0.0918042878,0.2007781093,-0.5347106167,-0.4289261802,0.1234082736,-0.8369826327,0.9690904636,-0.1749040662,-0.4549272292,-2.0397700248,0.1216587398,-0.0554609206,2.8286847172,-1.736928526,-0.3070589425,-0.4506838984,-0.9699186514,-0.3067005003,0.3885926755,-0.5418886864,-1.0836561386,-0.2255677759,0.3695100244,0.5615051883,0.0322512965,0.9851617981,-0.7243720685,-0.6133799444,-1.0157014189,0.8181594079,-0.4402543805,-1.0800402246,-1.3933385487,-1.194739727,0.0253956959,0.410156959,-0.1694764759,0.1969169972,0.2114732688,-0.0383946482,-0.2668761369,-0.4688687327,0.5384599786,-0.1501974068,-1.0783921065,-0.0952706481,-0.8273748708,-0.2642192628,-0.4999366401,-0.5678738579,-0.7913767479,-0.7367682068,-1.089570011,0.3432629236,0.0938178038,-0.5521350722,0.0043655164,-0.4185202306,0.0417072792,-0.104392973,-0.6861192059,0.5328724677,0.0991682164,0.7158930074,-1.061068021,0.4045427894,-1.1907691572,-1.0072542075,-0.7012189337,-0.1481556393,-0.5782388673,-1.1212024632,0.2359826311,-0.0059921674,-0.1960979315,-0.1184683235,-1.0516474714,-0.8937565516,0.358763105,0.9524850365,-7.1441505387,10.8915074766,0.1941931138,-0.2849168455,0.629682756,0.0357853956,0.3491899199,-0.1908817719,-0.3927142608,-0.1509523295,0.3176094967,0.0110283329,-0.4697024155,-0.5492402365,0.770765137,-0.3251649953,-0.187674509,-0.9043059614,0.0722860449,0.3365849302,0.8183838813,0.4689336994,-0.047606611,-0.2914463547,0.0611386815,-0.7893288051,1.028389645,-0.066050118,-0.2876202165,0.6467105114,0.6752799611,-0.0141769341,0.3443685325,0.2736030636,1.002204525,0.9597709568,0.1429894958,-0.1331670731,0.4018747305,1.0326001969,0.8186649197,-0.6534959418,0.4945890222,-0.1098820402,0.7881379354,-0.1698032318,-0.961695996,-22.136383965,0.8940412595,0.8520065211,-0.7127613064,0.4590173631,-0.8801389288,-0.2751313767,-0.2484852571,-0.3033621137,-1.154961959,-0.0275756025,-0.5574932447,-0.3033632976,0.6057345915,0.3016993187,0.1232689047,-0.0868008672,0.1797932429,-0.3824824909,-0.2636826534,-0.8556872267,0.1414271661,-2.3297145795,-2.9491024553,-0.089851617,-0.1631045033,-1.0661225289,-0.5937694948,-0.5154348349,0.7924416134,-0.8309413144,-0.9724248499,-0.7352087155,-0.2142366491,0.3415682315,-0.556194924,0.7940528732,0.8235722727,0.4157034753,0.7856362112,-0.8543104518,-0.6601008928,0.0208079247,0.9066036773,-0.0327372787,2.4120712578,-40.9258243061,1.1786652589,1.3902940326,1.7187931972,-0.2899601493,-0.7270264473,-0.7213587569,0.0956897958,0.6558601198,0.722769187,-0.542754275,0.5948523687,-0.6529579551,-0.7494083767,-0.7949951907,0.0250786689,0.7128498943,0.1836837695,0.5686297137,-0.7812861905,-5.7916604976,-0.2700271616,11.8273829434,-7.4168211027,-0.70968973,0.4420960451,-0.1722575532,-0.8912840761,0.1781014163,-0.5345055619,-0.0252961777,0.3063561021,-0.2940735073,0.3898430954,0.659346774,0.4618416458,-0.6762976873,-0.7714350003,-0.2091657716,-0.7531321634,0.5967916025,-0.1326103999,0.2135423539,-15.0551212322,0.6956333304,3.9060284502,0.1772142169,0.7238288411,-0.5841893271,-0.9149312875,0.6971765061,0.1261537531,0.0496916343,-0.7186525289,-0.7590040961,0.1875874302,0.8243349022,0.2240144824,1.0842249348,-0.7076973584,-0.1001393795,-0.2577715556,0.1363475626,0.9648906006,0.6647149457,-0.0576173022,-0.4249174679,0.6849342994,0.7244760384,-0.3194743935,0.6214616503,-0.0673290841,0.0629454143,-0.4404247234,-0.0994229998,0.4347077207,0.1812375511,0.8914875628,-0.9698341755,-0.3260492738,-0.696448002,0.3752093884,-0.7757435727,-0.0863556183,-0.3858058995,0.171932118,-0.138912814,-0.4579544489,0.8092681182,-0.0830640859,-0.8298112972,-0.2959087589,-2.4471245031,-0.0058987672,-0.9882950893,-0.3754713491,0.5284265461,-0.1568539007,0.0585853931,-0.1853674271,0.3798328188,0.6515509171,1.5517646774,0.0056113093,0.6946459074,0.2615891777,-0.3321029535,0.0846032012,-0.1833452117,-0.9645374944,-0.2941634643,0.8260625663,1.7095489324,-0.3619526078,-1.5654558504,-26.5461296809,-0.2038411243,-0.4191109548,0.618478886,0.4261007334,0.1322195521,1.3080502283,-0.499308123,1.1203420489,0.5295915401,-0.6054656002,-1.1138811231,0.2853321923,0.3617333501,-0.5385260355,0.0759381966,-0.8233188876,0.4701481805,-0.1128842905,-1.529511406,2.4941838544,-0.3805974572,0.7953914479,0.3413079101,-0.566491902,0.0947342037,0.0793107555,-0.1142422384,-0.2076496843,-0.1615375735,-0.7317242803,-0.8531354881,0.2786355573,-0.8591393499,-0.6434273855,-0.2667764386,-0.2831297455,0.3580716696,0.5394899448,0.829090766,-0.6265722345,0.1708986513,0.4582852877,0.5577907646,-0.8601931895,-1.1954165087,7.260090753,0.335874159,-0.4838972569,0.8111382042,-0.891763498,-0.2790661472,0.2330390203,-0.3548602751,-0.8181094813,0.956307728,0.5345939298,-0.1330146204,0.3127110607,0.1946897276,-0.0937667734,1.2021502308,0.4449117118,-0.5780789577,1.049126647,0.0778138965,1.7516299999,-0.8271074239,8.3161354639,-25.7167898323,0.1002296627,-0.9941627116,-0.3478626814,-0.2645838343,0.4984890871,0.0449635605,-0.893934984,0.0958130437,-0.0905589228,0.7742245654,-0.4816089556,-0.5975972859,-0.2260851705,0.0233802403,0.1508797092,-0.3456316544,-0.7528849359,0.3371748255,-0.1477578943,-0.4179423781,0.4492517689,7.2043658944,0.0054057339,0.3817234098,0.7936915226,0.1729288159,0.6488535577,1.073567409,-0.724074496,-0.238652962,-1.269367493,0.3763790362,0.3065791623,-0.213320029,0.2456047744,-0.1880152193,-0.9996974905,-0.1806671835,-0.5765587121,0.5495602,-0.4741793432,-0.1217213237,-0.537081336,-0.1676488588,0.4464991063,16.3512438102,0.1736621773,0.3478532199,-0.8502193846,0.1838869852,-0.5608173365,-1.0810760023,-1.1102237328,-0.2098200568,0.1778080161,0.3052099469,0.0123025486,0.4183229474,-0.9399854836,0.8748576585,-0.4649630592,-0.9218109332,-0.9986439539,-0.8040216073,-0.2919653072,-0.4834815104,0.8524964155,-36.5899665302,-23.1698279832,-1.1158639364,-0.1918474574,-0.9307886334,-0.5157229185,1.197121097,0.0372231975,0.5318917724,0.096486626,-0.6110003614,-0.0658358401,-0.7625224124,0.7148503904,-0.3544850764,0.8241852196,-0.6085124675,-1.1796086722,-1.338172408,-1.5190852968,-0.9717352304,0.8622565689,-0.7539328184,-1.1552682247,1.0544800901,-0.4869110639,-0.7585270308,-0.6011336084,-0.3442716108,-0.990374526,-0.8984748233,0.26978059,-0.0814946734,0.1265391524,0.1157841406,-0.8564566013,0.0850441216,0.0131779773,-1.2219598306,-1.276984165,-1.1719833992,-0.8121129797,0.3747412669,-0.2691731278,-1.2552493481,0.2059268033,-15.3890252804,45.643346145,0.1208008479,0.2244052376,-0.0806174244,0.4910262737,0.6854762577,0.6632595939,-0.4303519133,-1.0315662201,-0.567981278,0.0024666376,-0.721191784,0.2431244192,-0.9712744989,-0.5416159302,-0.3877523175,0.2838013406,-0.4808664295,0.7936976896,1.9252456636,-10.3645616922,0.6417654351,5.2485024638,1.52449275
   -0.6847759926,0.4667346287,-0.2033282505,0.2072883322,-0.6221679645,0.5962806747,0.1271076321,0.9721159735,-0.7633498009,-1.0925128668,-0.6647804821,0.7155905911,0.1799235452,-1.0106949286,-0.2754221863,-0.8615140967,-0.0937096817,0.2397851907,0.6005685005,0.8281704573,-0.2319570194,-8.2550949473,-14.0264916839,0.1670531557,-0.1052530625,0.032069662,1.203025678,1.0267706036,0.8781423463,0.4800003119,0.4038584373,-0.0810288466,-0.0677794104,-0.5746811111,1.2905193849,-0.5989380494,1.1867885725,0.5986988671,0.6795555282,0.0116934469,0.1274805701,1.3049599577,0.9737995782,0.16863203,-6.9988329599,-33.1989016151,-0.1543945902,-0.6058826413,0.2507604512,0.5905363307,-0.1606334703,-0.2815122383,0.1637005365,-0.0094899338,-0.3783945379,-0.2574717981,-0.9301847898,0.3849851529,1.5916821664,0.4289341891,-0.0875158688,-1.0636282738,-0.4638595587,-1.058325654,-1.0280207305,0.8768067897,-0.4115973928,1.0707615574,-8.8385177949,-0.5858233133,0.1256881813,-0.6214681254,-0.3819239109,0.5496869066,0.5101740154,-1.0320822138,0.5503584345,0.3444520894,0.4658268743,0.7561644566,0.4172041782,-1.2281387654,-0.0839954599,-0.3335841014,-0.2820023163,1.1349120231,-0.376511986,0.4269208533,0.8978077788,-0.2554142418,-0.4599720161,0.3115306955,0.6180875308,-0.2486658019,0.3116632644,-0.7126602106,0.07321867,-0.9664451711,-0.576685386,-0.7888607114,-0.796450987,0.0572232367,-0.9468670032,-0.4770955318,0.1402473548,-0.2535592803,0.0049470248,-0.6350378028,0.2992493061,-0.7651140066,0.4426315084,-0.6530796276,-0.6041631635,0.6121254716,-1.0544056125,-0.8245269867,0.5591990026,0.5227074479,-0.7145588683,0.5421453319,0.514903666,-0.7013994826,-0.0021685562,-1.1989682016,-0.9172771779,0.1482152682,-0.8863893985,-0.1221346835,0.5839260184,0.5233433651,-0.7766389641,0.6329370192,-0.7593671627,0.5656588127,-0.4687291498,-0.3527147615,-0.9593530532,-0.583213879,-0.2018428043,-0.9318511883,0.2527127475,0.252448662,-0.6396163134,0.0811140018,0.3218128019,-0.7968271213,-1.0460226992,-1.0714297033,-1.2565298515,0.5582662009,-1.0325291953,-0.0689269821,0.1033364815,-0.9523148166,0.4335745236,0.4729278361,0.2880307868,-0.3785874146,-0.498037512,0.0514852648,-0.0701501518,0.3439467231,1.2423805616,0.4576732584,1.8229813636,1.1464426819,-0.036824703,1.362860154,0.8724798176,0.4920103177,0.6548774031,-0.2752966418,0.9759925358,-0.1118128466,0.5313138249,0.6873053722,1.1286913952,-0.2498918684,-0.2083863992,-0.2326003433,0.9579208286,-0.3183378857,-2.6545050727,6.7000198285,1.3465206273,0.3723558384,0.6204482788,0.9612130578,0.9345193601,-0.0802212089,0.155711586,-1.3856790444,1.7734895034,0.4393871004,0.1662300894,0.1631507,-0.2197527332,0.506286487,-0.3194610196,-0.5519437753,0.0071043832,-0.5681273388,0.255682185,1.1008098879,-0.7947021195,1.096492241,28.3017534518,0.1163527233,-0.1474234181,-0.1994791032,-0.3449804711,1.1707777707,1.0839579036,-0.3171680938,1.1727850743,0.829383889,0.9816523123,0.075331522,0.3067860468,-0.6741871777,-0.7608155903,-0.2240216538,0.7506299077,0.9776344108,-0.7649279043,0.2696808302,2.2908813669,0.2888157626,8.0959314753,14.8401836004,0.7458082562,0.5722450734,-0.9790855721,0.4161421695,0.3881184765,-0.5984430291,0.1957813849,-0.114823812,0.1486954189,-0.9997525723,0.5774419907,0.694723702,-0.1029593668,-0.8909622475,0.1207813813,-0.703490212,-0.6048550006,0.462141863,-0.894830518,0.066694898,0.6333468655,-3.7085233637,3.3213824839,-0.1353529824,-0.4921889176,-0.0025429652,-0.5902750923,-0.4290337691,-0.4026231992,-0.1573927664,-0.5271229293,0.9961208224,-0.4382274415,0.615064441,-0.6129078254,0.4086510694,-0.2927328179,-0.8931955919,0.0685826478,-0.0141427271,-0.4020851039,-0.7494233398,2.8982627786,0.9697577321,-10.8480341356,26.3655718983,0.0507223034,-0.5411044492,0.6311111695,0.1291738489,-0.9110734642,0.7898332973,-1.4223283498,-0.1355523716,-0.4879443019,0.8164585574,-0.6275855201,0.6627060605,-0.9163269818,-0.1818844153,0.5305548738,0.0443503415,0.377050459,-0.8132199868,-1.2654381803,3.8052973388,0.3214127091,8.9701557825,5.5692829671,0.9570470291,0.1992877703,-0.3906669096,-0.4644354474,0.3082231149,-0.2416791628,0.521041837,1.0531606795,-0.5529384273,-0.3382516367,-0.2834313759,-0.7053410905,-0.6789451715,0.5374617646,0.5190951352,-0.5941196619,0.0845631916,-0.9150115895,0.3662867493,5.6335742088
##end
biasActivation=0,1,1,1
[BASIC:ACTIVATION]
"org.encog.engine.network.activation.ActivationTANH"
"org.encog.engine.network.activation.ActivationTANH"
"org.encog.engine.network.activation.ActivationTANH"
"org.encog.engine.network.activation.ActivationLinear"
