encog,BasicNetwork,java,3.4.0,1,1571485367725
[BASIC]
[BASIC:PARAMS]
[BASIC:NETWORK]
beginTraining=0
connectionLimit=0
contextTargetOffset=0,0,0,0,0
contextTargetSize=0,0,0,0,0
endTraining=4
hasContext=f
inputCount=22
layerCounts=3,41,101,201,23
layerFeedCounts=3,40,100,200,22
layerContextCount=0,0,0,0,0
layerIndex=0,3,44,145,346
output=0,0,0,0,0,0,0,0,0,0,0,0,0,0,0,0,0,0,0,0,0,0,0,0,0,0,0,0,0,0,0,0,0,0,0,0,0,0,0,0,0,0,0,1,0,0,0,0,0,0,0,0,0,0,0,0,0,0,0,0,0,0,0,0,0,0,0,0,0,0,0,0,0,0,0,0,0,0,0,0,0,0,0,0,0,0,0,0,0,0,0,0,0,0,0,0,0,0,0,0,0,0,0,0,0,0,0,0,0,0,0,0,0,0,0,0,0,0,0,0,0,0,0,0,0,0,0,0,0,0,0,0,0,0,0,0,0,0,0,0,0,0,0,0,1,0,0,0,0,0,0,0,0,0,0,0,0,0,0,0,0,0,0,0,0,0,0,0,0,0,0,0,0,0,0,0,0,0,0,0,0,0,0,0,0,0,0,0,0,0,0,0,0,0,0,0,0,0,0,0,0,0,0,0,0,0,0,0,0,0,0,0,0,0,0,0,0,0,0,0,0,0,0,0,0,0,0,0,0,0,0,0,0,0,0,0,0,0,0,0,0,0,0,0,0,0,0,0,0,0,0,0,0,0,0,0,0,0,0,0,0,0,0,0,0,0,0,0,0,0,0,0,0,0,0,0,0,0,0,0,0,0,0,0,0,0,0,0,0,0,0,0,0,0,0,0,0,0,0,0,0,0,0,0,0,0,0,0,0,0,0,0,0,0,0,0,0,0,0,0,0,0,0,0,0,0,0,0,0,0,0,0,0,0,0,0,0,0,0,0,0,0,0,0,0,1,0,0,0,0,0,0,0,0,0,0,0,0,0,0,0,0,0,0,0,0,0,0,1
outputCount=3
weightIndex=0,123,4163,24263,28863
weights=##0
##double#28863
   -0.9248242684,0.7687293075,0.25723501,0.5668645759,0.947013387,0.6448768852,0.4562325002,0.5080791111,0.0351474983,-0.7558025537,-1.8464635613,-0.6627126158,-0.7108963241,-0.2963009305,0.7753091488,-1.1022644772,0.4594898178,0.7179713758,0.7483135487,-0.286277121,-0.6614084619,1.0267412722,0.6825271118,0.3875938537,-0.6376743034,0.8140200667,-1.8479647737,-0.2502021381,0.0272481543,-0.0878090348,0.3721132874,-0.4780108439,0.0129448147,-0.2103541896,0.3705823345,-0.5642878305,-0.9450756155,-0.0106914952,-0.5777022896,-0.1369174557,0.6448540544,-0.3072806218,0.2442399559,-1.044513598,1.0523933592,-0.124860841,0.55945916,0.5159932594,-0.017652368,-0.1974236066,-0.0656462827,0.2738780213,0.4035867206,-0.0535863826,0.3007315478,-1.4193294451,0.1451846615,-0.6140442979,0.867402423,-0.9093001762,0.8501332078,-0.5898677229,0.3175440117,-0.4283683343,-0.6642443162,-0.4343411723,0.0579329516,0.5778360635,0.966202407,0.5199601576,0.7720784953,-1.0902452202,-0.5986515518,-0.1905841723,-0.331614306,-0.9614803884,-0.9525486487,0.192492609,-0.6700931508,0.0892604693,-0.1125937338,-0.3509560558,0.5088955758,1.0081402531,0.5228326017,-0.0743763625,0.8580669251,1.0177353118,-0.7587247413,0.4210392365,0.7405605282,-0.4929762004,0.0303612821,0.2116858393,-0.1003807476,0.4262629097,-0.0665680229,0.0949294921,0.1919656616,-0.7586817961,0.3189824685,0.5479733988,0.2429136006,-0.0778051935,-0.2512850027,-0.7279356506,0.606028753,-0.9135558633,-0.0327128282,0.3372278228,0.4025037336,0.4376226058,0.6005674267,0.1396834879,-0.0706099119,0.5739448962,-0.8461889245,-0.5103298051,-0.3455678604,0.4871441567,0.9965093146,0.3425151185,0.5621814179,0.806058496,-0.9287013429,-0.7553902398,0.0646737109,0.3129997305,0.0117529325,0.1531013298,0.298982048,-0.166044036,0.5475286373,0.1043177807,-0.3703830625,-0.1246539708,0.8308902122,-0.6541746991,-0.90772906,0.8767695179,0.0704063293,-0.9984797212,-0.5545882206,0.1077772162,-0.3884706141,-0.6614722305,-0.4096156409,0.5949530297,-0.3203280289,0.7657715031,-0.2524092369,-0.8443672682,1.0474674456,0.6677860831,-0.0761418111,0.244101602,1.0675962653,-0.4847484925,-0.7745061461,0.2266397889,-0.6923395772,-0.5829513834,-0.4710201403,0.1871724705,0.0867863001,-0.7818987881,-0.5527661301,0.4985697759,1.1914961778,-0.4659843698,-0.3942531058,0.9258392268,0.241845918,-0.841972154,-0.4318573734,-1.0115516111,0.6719572197,-0.5795479932,0.0218387698,0.099179941,-0.535452038,-0.5899775736,0.479299846,-0.116666482,-0.6279241376,-0.3905440329,-0.5182536007,-0.6815047913,0.5509540855,-1.089704353,-1.2865938065,0.3624502397,-0.7837084614,0.4259683953,0.6500241637,-0.5859419885,-1.0185444789,-0.0509271537,-0.7451175417,0.9150417591,-1.0584584575,1.1600994124,-0.5025623257,0.6855794399,1.0646547336,-0.1442701934,-0.286793262,0.0791611776,-0.2114685261,0.3298352578,-0.6896566374,0.5752724403,0.8489529107,-0.2929592305,-0.4979772494,0.9371605792,-0.6370306615,-0.3845669078,0.4045324272,-1.0842146256,-0.0330634599,0.7490247029,-0.7612350806,0.2497673333,-0.2166655139,-0.2227596671,0.8058314992,-0.173333135,0.5815741511,-0.4196641158,0.2522438292,1.0836542753,-0.5094585919,0.2573924709,0.0020048924,0.813076398,-0.2252159159,0.6282742411,-0.3801023856,-0.2003279791,0.7174836885,0.8787589929,0.2038084766,0.2824705178,0.7664821301,0.5408764265,0.3901697399,-0.4414579384,0.8616483459,-0.1150133648,0.8812028994,-0.0557260791,-0.8511532641,0.5534350357,-0.9729799201,-0.5032540135,0.4587179954,0.2285341878,0.9881429638,0.700743548,-0.0526647507,-0.2936091423,-0.175379006,0.7043504866,0.1206514279,-0.8744256226,0.4533656972,-0.8579242513,-0.8014730874,0.2110405907,0.1223884392,0.3221912875,0.7104984129,0.0727901476,0.8362946407,-0.0955295542,0.2491285586,-0.8815720574,0.7984263829,0.2500439601,-0.7285320537,0.5936013117,-0.2015064491,0.3497581039,0.322985449,0.5844675871,-0.3353444495,0.4701546692,0.9183262324,0.6490823846,-0.0798237499,0.0270046496,0.5413970235,-0.5304697007,0.8708597595,-0.0615841249,0.2922502955,0.8006501348,0.4161401693,-0.6745809138,0.232184015,-0.0489520624,-0.8302497205,0.6209708321,-0.1825961231,0.0682317298,0.0686585312,0.452760514,-0.062962584,-0.9388498546,-0.0367779121,0.3536493219,-0.2921855566,0.5899235541,-0.9084397579,-0.7926300884,-0.4407008694,-0.1297928153,-0.725105868,0.5451934851,0.8770157607,-0.7590600043,-0.0225004827,-0.3243701643,-0.2685505376,-1.2484141145,-0.098930521,0.7799009103,0.5794167291,-1.6927562749,-0.2705037937,-0.044808663,-0.0994616068,-0.4416403443,-0.4252970168,0.4622886268,-0.487247457,-0.3315211806,1.8758907269,-0.3580612063,-0.4134351788,-1.356707992,-0.7966266867,-1.3738130315,-0.8728678373,0.970246162,-0.0361128602,-1.6771554006,1.9065051508,-0.2001392583,-0.2254249675,0.2014963273,-1.9141995882,-0.4439463884,-0.0940264753,-0.6212508681,1.1305035742,0.0277393055,0.3298066487,-0.4171947987,-0.0489848962,0.4718913793,0.09973957,1.2480042458,0.291931732,0.0038161458,0.3870548788,-0.1395616475,-0.4472583657,-0.9739654777,1.048164519,-0.3279986298,0.0279976791,-0.328997145,-0.2316602124,-0.4053700356,-0.3721536494,-0.5168885883,-0.9548794792,0.456016229,0.7407057013,-1.6085210184,-0.2608548739,-1.2162925663,0.0353412631,0.9166118359,-0.4185226218,-0.4457842722,0.4132594008,-0.3641109623,-0.2303964851,0.2642368504,-0.2860196516,-0.0679654629,-1.1584479092,0.1256060149,0.5545073154,-0.1791886892,-0.2850778868,-0.2533308276,-1.1731290036,-0.6425382311,-0.2778099616,0.5304826933,-0.5872237753,0.6516159125,0.4313374207,0.2335729584,-1.023648168,0.4153318296,-0.343506297,0.1389583837,-0.3443558736,-1.2718061084,0.2496140967,-0.3110808301,1.543178621,0.8763021443,-0.69154265,-0.6682563388,-0.6024745047,-0.8418988889,0.17515084,1.0743820257,-0.292963888,1.2240042178,-1.4587477393,-2.1831970909,0.8339745689,-0.5459865891,-0.0713401413,0.7518099279,0.4485652814,-0.5390331346,-0.9440211037,0.6417545278,0.0675141874,-0.9357042701,-1.7977713747,-0.7184918694,-0.7969063172,-0.481890963,1.0685562738,0.1740258813,0.5399536072,-0.5516828283,0.6739743288,0.2110317721,-0.8851855962,0.7230333455,-0.2983306873,-2.5166533651,-2.0989627155,0.4830273838,-0.7711348539,1.0590693805,-0.6309114616,0.8512475601,-3.4686127032,-1.1681976368,0.5653832997,-1.0081298902,-0.3944370606,-0.2305460343,0.9285722775,-0.7628902572,0.1049272462,-2.0401450435,0.8410184627,-2.5135081641,-1.3465505184,0.4885353354,2.623015028,1.0038881422,-0.7716045821,-2.2578260387,-1.919888878,-1.6112957114,0.7935792693,-0.2659728264,-1.7701083112,-0.9107948663,0.4230735285,-0.6508849015,-0.031471052,-0.0789363317,-0.2862868395,-1.055236087,0.339647915,0.3611948173,2.6644502841,-0.714064191,-1.0740547886,0.9675572805,0.607827896,-0.0036460704,0.2957928862,0.5951631861,0.7869691085,-0.8190555137,0.091856854,0.4977081297,-0.6989466491,-0.9156371486,-0.1812457679,0.1454366109,-0.9528651503,1.3431214082,-0.0777473942,1.4060571903,0.0382728629,2.2436498912,0.8468145817,-1.2415377653,1.4225772374,0.3079122648,0.5132002312,0.3844714504,-1.6665208452,1.3765298545,-0.5242424498,-0.3135856025,0.9959262474,1.570571032,-0.4676300294,1.2222876079,-0.230631926,-0.1439300167,-0.3701037828,0.1638365831,0.387339552,0.7846015388,-0.4860426158,-0.0865108139,0.6118656962,-0.1116320292,-0.9041968392,-0.642584252,-2.5382968117,-0.773399043,0.6146938355,-1.2807435454,0.3530468738,-0.6436971298,-0.572370946,-0.2320979304,-0.0887435048,-0.3244088351,0.6290947505,-1.4348787644,0.0664133906,0.2828293986,-0.5364268672,-0.3601961798,-0.5412727105,0.5274134647,0.8002024148,0.3898776517,-0.004145263,0.3248191594,-0.09498411,-0.3102987979,-0.0127350073,0.9033736518,-0.1677492532,0.7756602346,-0.7499931214,-1.4446342321,-0.6403462542,-0.6442974608,0.115249789,0.3265427059,1.0666498404,0.6768241387,0.3993283652,-0.4929412455,0.0212170222,1.1235808489,-0.8966827604,0.4728015421,-1.043385545,0.1313786647,-0.4228307628,0.5010076346,1.0443813857,0.0196710625,-0.6557438531,0.1517466267,-0.2567172413,1.0404088877,1.1188040064,0.4961260247,-0.4710179972,-0.6051497616,-1.9771871232,-0.1644818775,-0.4169620142,0.1203441681,-0.3333757925,0.6199825847,0.1111520876,0.3055395676,0.1112843321,-0.9310163365,0.6337514483,0.4969309151,0.4588277987,-0.5958692014,-0.1899438451,-1.1996870659,-0.5161677031,1.2876069877,-0.0735177927,-0.5250656999,-0.8349784308,-0.689810659,0.4302133308,-1.469671547,0.8465044136,0.1788691403,-0.2182699417,-0.8215496748,1.0518271833,-0.5265939805,-0.491080218,0.7659222524,-0.2365678926,-0.4271483802,0.5022754451,-1.1459701385,-0.5102436703,0.817103099,0.7763999689,0.0117351863,-0.2086428073,0.1693700327,0.7700853238,0.6583007024,-0.4034563265,-0.6880713272,0.8596746639,-0.9065584557,0.2752215755,0.6275086204,0.2127179677,-0.5495288118,-0.563914592,-0.2884890786,0.8022161912,0.7984010789,-0.4476685999,0.2520612473,-0.5085370414,1.1693385734,-0.1101843788,-0.782859897,0.4685643331,-0.8055369749,-0.5792645566,0.1791450106,0.2608805367,-0.0790008897,-0.4740981933,-0.6182885555,-0.7993684571,0.8963283328,0.0360225609,0.2618465573,-0.1244465762,-1.0699993068,0.78183621,0.3613774543,0.7437941832,-0.8568282675,-0.9541405905,-0.8421991496,-0.4551951091,-0.4840966776,1.1758230311,-0.6293166205,0.0188278317,-0.6708107725,-0.5768982294,-0.1041460526,-0.4185493184,0.5893607671,-0.293637373,-0.2513927449,0.3999166255,-0.1638163809,-0.2544020886,-0.9995732516,-0.2212438269,-0.8131810634,0.8254419489,0.9149361111,1.0366547839,-0.5674952795,-0.6778811074,0.0760713461,-0.0363755499,0.708901722,0.7736081116,-0.6014251432,-0.2076903555,-0.9285445772,0.0534193819,-0.1014772215,0.874610099,-0.6179757036,0.3815267868,0.136014875,0.1024031972,-0.3890612935,-0.0561949463,-0.1962834388,-0.4394334763,-0.7571113669,0.3418321691,-0.4896093579,0.1974294694,0.2595140249,-0.4913436442,-0.8403637605,0.4049732964,1.6786827043,-0.8641134771,-0.7021100847,-0.403268487,0.0386618063,-0.1449513381,0.2241716142,-0.712485335,-0.5451172742,-0.9000388469,-1.0233867244,1.0248843341,-0.6729729717,0.5721082129,-0.000476777,0.0801653632,-0.16706513,0.8568544118,-1.5377336478,-0.3149915926,0.0954469158,-0.7295805993,-0.7158606221,-0.9489261573,-0.3716600986,0.040406797,0.1752955258,0.0189941567,-0.8275518721,0.1174924364,-0.845914726,-0.3595308696,0.3179088545,-0.4173431151,0.5718647363,-0.6133607437,1.2606210239,0.1255874953,-0.8757727776,-0.6220062263,0.4446900334,-0.7411790795,0.2709053412,-0.5614270537,0.4595595795,0.2527705726,-0.7188138097,0.2178627393,-1.538479922,-0.5957362736,-0.3708011062,-0.1307318088,-0.4135303508,-0.6387628481,0.4185190222,-0.006900068,0.1328170456,0.505893218,-0.2360331725,0.8046002208,0.4131595142,0.300240334,-0.0120967829,-0.0713682506,-0.7016254512,-0.8494641513,-0.7153253177,0.3089993678,0.2472958376,0.3183847028,0.5726450803,-0.0884618068,0.3310054249,0.0897996078,-0.1990120847,-0.2734707561,0.334263342,-0.8398101922,-0.4592331206,-0.957408465,-0.3145164048,0.9323320509,-0.5954432737,-0.602165772,-0.2273756688,-0.0796303867,-0.7450675271,0.1900624343,0.7776053076,0.1900578763,0.1949184184,0.9598736673,0.0763721715,0.1303159739,0.1508582637,-0.7352284289,-0.070433072,-0.5636859044,-1.8459779734,0.3500423676,-0.46250652,0.1404876995,0.5427959328,-0.1466610306,-0.8548113998,-2.1094494097,-0.0597756427,-1.4119552541,-0.0914263586,0.0327871574,0.0785917291,-0.8166047404,-0.5373585802,-0.2420612061,-0.4430304325,0.263499871,-0.6302329927,1.0885151227,0.5694752041,0.8670461041,-2.2045924878,0.8267538525,0.288914194,-0.8255663765,0.7544373694,0.0678659809,-0.17152743,-0.9797814772,0.8125282315,0.4069620689,0.7092446959,-0.3628895902,-0.345277752,-0.9622026992,1.6225637732,-0.8587098716,-0.4196425454,1.208257041,-0.9094513184,0.2216889506,0.6399675706,0.7752809617,0.1477891726,-0.2126384003,-0.8091247369,-0.3168376869,0.3621270203,0.640196694,-1.0971804464,-0.0939068319,-0.8243020306,0.7431996654,-0.2329086655,0.8136987919,1.1867012618,0.3122245643,-0.2459052253,0.9348906417,0.1531212533,0.1784473675,-1.0950418837,-0.2125833416,0.0286857249,-0.9130986509,-1.0645647436,-0.6490733154,0.0016968028,0.6447598006,0.0626872893,-0.6670467193,0.5954584424,0.1970269386,0.4605586464,0.7114738339,-0.1758151322,-0.1151684809,0.6965547515,0.2816910837,0.3020637293,-0.1608167733,0.9543237879,1.0087468411,0.2980874739,-0.9631193009,-0.2397865611,0.7670398204,0.9805247302,0.2169915914,-0.8162334373,-0.5997233297,-0.8015514653,-0.0750099282,-0.149642502,-0.221569563,-0.2977680904,-0.175105041,0.0129439299,0.5624268061,0.4887232976,0.8116884756,0.0934678685,-0.0250032538,-0.5911636149,0.7703723643,1.022778471,-0.2140990477,-0.5833641758,0.1803833499,1.9702636624,0.4901333275,0.6510735406,-0.8942477023,0.0913779574,-0.3176534622,-1.1417432517,-1.4555940272,0.5673318818,0.5192459712,-0.3969753011,-0.4503093093,0.8010287307,0.2483129929,-0.0450758105,0.6212376951,0.1293648867,0.8733935441,0.7470510258,0.9840307899,-0.0479390416,0.2034172102,-0.2830336571,0.6130921279,-1.0735802739,0.3609094303,1.1918886237,0.3164055643,-0.0008033534,0.8615891265,-2.3135145695,0.7219736055,0.607766397,0.2830297763,0.187675304,0.3244094785,-0.1924201658,1.5922225688,-0.7221531188,0.3351414345,0.3651533946,0.8540561335,0.2935627475,-0.894613478,0.1225171417,-1.8166585809,-0.6252292834,-0.3034527955,0.5065199662,-2.0163521429,0.6272770936,2.1504494851,0.5407515447,-0.710170856,-0.234250977,2.0033138372,1.0828766246,-0.9027170953,-0.5728256852,0.4030882285,-0.7608797844,-0.560978582,0.6749983147,0.0905628961,-0.3686038647,0.0466437508,1.1472640277,0.6135912187,-0.7672819203,-0.2657061105,0.0320950072,-0.1683751293,0.8276022228,0.9513293289,0.6440430045,-0.358396741,-0.2906041848,-0.0665669621,1.1939863283,-1.5775378654,-0.1700489601,-0.5097179448,0.1242641183,1.9306128368,0.3764485352,-1.7616677693,0.1298876816,0.0984800935,-0.4063402454,-0.7451274454,2.1915124564,-0.491287409,-0.0619549614,0.3577360012,-1.3373522659,0.7745162345,0.8669502743,-1.3727568626,-0.4183887099,-0.2810469071,0.146438241,-0.0883918287,-0.8965655383,-0.0372794709,0.9525017916,-0.6123290068,0.5901372778,0.8247731968,0.7213129534,0.5623307529,-0.5594795705,1.2392271856,-0.8840847309,-0.1270317573,-0.5509735084,0.9832461729,0.5376774624,-0.8195456599,0.8884709487,-0.1015376466,-0.7883689979,-0.7901494552,0.7524730859,-1.7068073853,0.6888248798,-0.2338731936,-0.2597205202,0.0971903107,-0.6719133165,-0.8620363369,-0.529398431,0.6832783267,-0.8919640417,0.0806164193,0.0966527832,-0.901907644,-0.4663402017,-0.1412377075,0.2990940863,-0.4591337372,0.3767431167,0.6129990654,-1.1372274346,2.7641057424,-0.7860866037,-0.8355560989,-0.245002451,-1.2417442561,-2.7313440416,1.8886630645,-1.4779073148,-0.4129273885,-2.913997821,0.8231476253,-0.9094748085,-1.4943187781,0.2050311678,0.1864328324,0.2706920764,0.1537565386,-0.5003252513,-0.7239668828,-0.4001652758,0.5713938103,-0.1271298309,-0.5885700905,-0.2287674312,-0.0239166986,-0.7537082021,-1.4824541686,0.7752490665,-1.8191892417,-1.0760879822,-0.4091958642,0.3317044167,1.7322946671,0.0466565341,0.4291877554,0.0455587564,-1.1335707957,-1.2693461272,-0.9258118157,-0.0889673938,0.9100724745,0.03108617,0.634561723,0.9994129927,0.7502171113,0.0260903432,0.6310458909,0.1956737928,1.9194996113,-0.1433217823,0.8156257003,-0.0503215225,-0.2771333195,0.2772163575,-0.6136335355,1.503211,-0.7309896579,-1.4459997051,-2.7337348466,1.2719478318,0.9023761847,-0.6166596158,-0.1907694418,-0.6304905819,-0.9300164,-0.9601103826,0.5897740061,-1.1336809157,-1.5261828207,-2.1770841924,-0.0644631599,0.3528923651,-0.1487733069,0.6786933081,1.0142271524,-0.9175554613,-0.1107729407,-0.7435342181,0.8738661826,0.4697737013,0.2757620804,0.0931799831,0.0787896926,-2.8783345365,0.7309866287,0.7703286347,-0.5075865781,-0.5100013554,0.2993657712,-2.9281759128,0.3945214084,0.1922558771,0.4661351129,0.0693700512,-0.7219651897,-0.7640565411,-0.8417753426,0.7540177364,-0.8417834407,0.4325351555,1.1345623651,-2.2080389088,-0.3083572409,3.2846370042,0.091562929,-0.6891826678,1.2132163778,0.970637249,-1.9215516062,-0.7740198211,0.6743981388,0.3520023577,0.2296103312,-0.9179462204,0.6578491809,0.032634963,-0.6225986456,0.4626793164,0.0181968162,0.3894770966,-0.7478373077,-0.5184966249,-0.7106651634,-0.7263670592,-0.1032006222,0.8365795871,0.8787613657,-1.010385751,0.900918038,0.0026859228,-0.7145371229,1.1052782848,-0.371724973,-0.3640918909,0.4383131478,-0.9361579082,1.550279411,-0.3811995942,-0.5540199995,0.3226479366,0.3434074067,1.0512404809,-1.1282423358,-0.3549019004,-0.4721229256,-0.8467300253,-0.3999857721,0.5278663895,0.1857481242,-0.0147263936,-0.7683134307,-0.298269976,-0.8142112427,-0.2856554368,-0.2602257812,-0.5965234001,-0.2198941498,-0.6478425877,1.2328142567,1.2093969943,-2.8763273602,1.1720216145,0.4629336448,-0.4606353696,0.4603760812,0.8640423221,0.2428237448,-1.8202543204,-0.6514106292,0.1566811982,0.9618581409,-0.6146422598,-0.801260285,1.0639808908,-0.9852549183,1.6995480854,-0.8494779761,0.545580119,0.7390343178,0.7840818887,-0.8332489391,0.8808107639,-0.1957220673,-0.5931241594,-0.0758353518,-0.1495037466,-1.2792834034,0.7943514271,0.5363633613,-0.5943576087,1.4703432647,-0.8446593742,0.2650269265,-1.0351257611,0.072314526,-0.2172413655,-0.5470509243,-0.3972256812,0.5634654407,2.0162024798,-0.8467643129,0.3035026595,2.1034481421,-0.3003554041,-0.9774725304,-0.5319792662,1.6081674599,-0.1452293032,0.118306323,-1.4756417064,-0.7395951545,0.7556670095,-0.6218357876,0.6051738786,0.8738061955,1.2287877726,-0.1344394081,-0.6081462145,0.9807261488,0.0222492635,-0.034442584,0.0168203519,-0.7073873029,0.7077341807,0.1665556918,-0.4417736986,0.3615406959,-0.8365679712,1.4212485845,-1.2359392959,-0.2110864806,-0.3323792722,-0.4444352927,0.48844919,-0.9117380135,0.4293030003,0.8566789984,-0.9623467768,0.8336703414,1.1333727196,0.3167664658,1.3246322102,1.7330716097,-0.9426245392,-0.731177573,-1.3860053447,-0.4185230786,-0.0707278522,-0.885269429,0.2320446643,-0.8004594994,-0.9648554247,0.139769303,-0.1558139284,1.9137585459,-0.0157775373,-0.0687995037,-1.4190208417,0.2230194199,0.3817734196,-0.8516661981,-0.447295405,-0.3607188458,-0.9457363903,-0.3620198864,0.1478098047,0.3352222277,0.2589398819,0.3902771345,-0.0954008928,0.0730648569,0.1505645698,-0.4652673121,-0.165654359,-1.3289224588,0.4958283266,-0.0500237219,-0.6993671151,-0.041868014,0.204166273,-0.8626449559,0.0341111538,-0.112448412,0.8096079297,-0.1894728568,0.7289555556,-0.8293245625,0.4382457874,1.0178430734,-0.0306789007,0.6819020917,-0.3219741401,-1.1354520119,-0.9485861534,0.1723089663,0.5105811139,-1.1414880939,-0.9206304917,-1.0040500305,0.7712166983,1.9877449556,-1.0152715488,-1.0821592966,0.1498930068,-0.6613779757,0.1464528813,0.6499542156,-0.3608726934,-0.8789145799,-1.7635514865,-0.475155866,-0.0080643151,0.442280558,0.426054486,0.8796497413,0.398400908,-0.0931480794,-1.0296356893,0.0681624463,-0.5662018884,0.5469157958,-0.7630191447,0.6073795227,0.4470126695,0.9383332227,-1.0990697894,-0.4958835236,0.5240304062,-0.2744175459,-0.0362891976,-0.2713454765,-0.7100709789,0.6315418018,-0.7534517174,-0.6832742222,0.2410502881,-0.7689345529,0.0450309186,0.6952423174,-0.2638582513,-0.4718379984,-1.0060498713,0.5288273667,-0.6480403023,0.7973051561,-1.9757752175,-0.1981412946,0.0133729549,0.7092648333,0.8724238062,0.6672442126,-1.6050474957,0.217059524,0.6023319327,1.158230293,0.4396785431,-0.7724932429,-0.4196260867,0.5775291343,-0.3313114441,-0.4365590223,0.0052096379,0.7337593183,0.2444683246,-0.2885355722,-0.1215030463,-0.7782258717,-0.3569057398,1.0405625152,-1.2825720732,0.1371848765,0.0421463522,0.9479197613,0.5938495146,-0.2346354363,-0.2400003648,-0.5060565584,-0.3445736532,-0.362467786,0.9669575876,-0.2823974902,-0.5821749782,-0.2347182405,-0.2238834575,-0.3347689486,0.9274999714,-0.4399661053,0.5026973047,-0.8583406416,0.5224327078,-0.0258242105,0.1232989065,0.7428739213,0.4812665586,0.7167375275,-0.04705903,-0.4818757116,0.7569403152,-0.0479262097,0.5686557363,0.3381722378,-0.279146268,0.4226302216,0.1318446206,-0.5751438082,0.347881484,-0.3706441106,-0.2625065065,0.7294890897,-0.2366909331,-1.5963423064,0.1182919776,-0.4358806973,0.0756259844,-0.4307974777,-0.4708687474,-0.9007579154,-0.6912121821,-0.4220538563,-0.7609156702,0.0220288796,-0.6115448551,-0.002243583,-0.3532462612,-0.4227193743,-0.4895180533,-0.2616684899,0.5249936339,0.211530017,0.7040677292,-0.4735823777,0.0946167408,0.7977610218,-0.3224027754,-0.5222180388,-0.3204666957,0.4983428352,0.7083545843,0.1204224637,-0.6883569045,-0.3380854843,-0.2933296202,0.8004537252,0.0397996213,-0.7722076276,-0.0452582612,0.4195157196,-0.821106469,-0.1479460625,-0.3954030114,0.8691105992,-1.0982379662,1.1042555708,-0.9565499281,-0.2011816043,-0.3707895997,-0.2873809745,-0.4809632888,0.865388682,-0.3781065703,-0.9319616218,-0.2216694423,-0.0340999286,-0.0090145501,-0.724443629,-0.2857727422,-0.2492212444,0.8178610437,0.2451488324,0.0109165135,1.1448210705,-0.5835623011,0.9188675856,-0.7281256604,-0.3032978461,-0.1727653016,-0.6571695667,-0.7340061238,-0.3923555009,-0.5824935015,0.2818994984,0.7972078717,0.1237076106,-0.4660745122,-0.4474473213,0.7722471084,0.1719481678,-1.7952847197,0.7569950105,0.5301274219,-0.4489715648,1.1173448211,0.4760868175,0.2759009175,0.6225040772,0.0983799717,-0.949628379,-0.031142448,0.0461948065,1.0234582557,-0.2196257868,0.6842025379,0.6482858511,-0.2437824456,-0.3443047909,0.3702145585,0.2723938272,-1.1596300756,0.919851364,0.1236540662,0.2022905384,0.1145300882,0.737370437,0.6700942724,0.8409992338,-0.696198318,0.3228958073,0.312083059,-0.6112550537,0.9637672767,-0.0741427447,0.2363109805,0.566816876,-0.248920416,0.891223617,-0.0230385195,-0.525991423,0.025422308,-0.9103920559,0.6075382408,-0.0233683359,0.13424669,0.5774624074,0.5499369752,-0.6658847782,-1.0024960689,0.9818096552,0.3710788726,-0.8841025618,-1.0796958153,0.2408082314,-0.5023149802,-0.2693179393,0.0287768068,0.6432177076,0.0758884876,-0.8250617339,-1.1213567219,0.5977291097,-1.0847884404,-0.898354787,0.6419870074,0.2032020596,0.4455773159,0.7479350756,1.307346762,-0.3194277637,1.3118179175,0.4090877836,-0.4902874749,1.0774518159,-0.630024523,-0.9650487221,1.015765901,-1.675681315,-0.0085867095,0.7658746606,0.162413371,-1.0830628645,1.1531984138,0.3648893654,0.9016153398,-0.7394502524,0.7030479833,0.5781080078,0.3900187278,0.7061657633,-0.476496959,-0.841686482,0.0487525593,-0.7743324936,0.8020720234,-1.5339126332,0.9126070001,-0.4289455034,0.7539652018,0.5190388649,-1.4539368604,-1.0419347321,0.6080021372,0.7014523444,1.032017069,0.8203963446,0.4176316117,0.2067036345,-0.8833419735,0.1156328046,-0.1808664907,-0.8245854412,-0.1889484509,-0.8220647266,-0.5685028887,0.3599152598,-0.5713845352,-0.0571901865,0.7947564373,0.1113905385,-0.7626607005,-0.3165484754,1.4414481108,-0.8969534925,0.1931737549,-0.1952941104,1.2547109883,-0.34766186,-0.1274501044,-0.3551100281,-0.4467510693,-1.1213073062,2.2405535163,-0.9290995848,-0.4799739342,-0.2327645091,-0.499334963,-0.5988627475,-0.2859924287,-0.9914776761,0.298357767,1.9154660225,1.2131733939,-2.2759638099,1.005842917,-0.7105268439,-0.6590284317,5.1778745035,-0.7169121502,-0.9161325498,0.0930293652,0.8084864208,-0.1762100912,0.5473012621,0.5555799274,-0.9693550617,-0.1953002954,0.8310817642,0.2944619381,0.1724205492,-4.2271835159,-0.3359606099,-0.5251740796,0.6474342956,0.0703136538,0.5182937649,-0.7436335518,-0.2385256756,-1.0618154277,-1.9809945115,1.4143029647,-0.4881364712,-1.3979501305,0.2002834281,1.1066750174,0.8109854072,-0.5732234734,0.2006032441,1.4664261319,-0.8506305881,0.3565874192,0.421224294,-0.8859923672,0.650145281,-0.5442162826,-0.5916122557,0.6306779295,0.4818308963,-0.7921792329,-0.9555174696,0.4833177766,-0.6107499567,-0.2811162689,-0.8770573549,0.2619017918,-0.9709088814,-0.2975470354,-0.2768194666,-0.7926676404,0.5550707236,0.563636784,-0.1186670389,0.0858546495,0.6928346961,0.9257324768,0.584905838,0.5681738085,0.4650151948,-0.1255621827,-0.1726597094,-0.2490466689,-0.8472993231,-0.9065979,0.6057300021,0.3593589523,0.223903516,-1.0018387797,1.7446667894,-0.790835487,1.0055767581,-3.2010147966,0.9394102365,-0.966211031,0.3915346284,0.8718589604,-0.1264524761,-0.4362304311,-0.8459331899,-0.4109447786,-0.254777149,-0.5443212719,1.0072485518,0.1153440364,1.2389789499,-0.0948474819,1.1503393277,-0.1441393627,0.0100121694,0.9663979442,0.8526896666,0.5172166004,0.6410581703,0.6893746895,0.2610081207,-0.6850458007,-0.2575361721,1.1576984988,0.9666727227,-1.1992812709,0.2838063851,1.1518977925,-0.6638258118,-0.3282785025,-0.1478827055,-0.1855868984,-0.7734525394,-0.9695198989,0.6291232887,-0.5215822334,0.293795683,-0.3437536138,-0.8676962751,0.991973631,-1.1406346762,0.3585085934,-0.9530871104,0.1673288513,-0.3646065642,-0.7557826924,-0.7063464175,-0.3028128109,0.6117836647,-0.6395332927,0.2989105479,-0.3933843549,-2.3234982923,0.3166487572,0.0321960706,0.8452606953,-0.1164448083,-0.1803367341,0.3755639887,0.1814546314,0.8303826304,-1.1065251139,-0.6965424766,-0.9134563387,0.1592698091,0.6825768236,0.7408024843,-0.5285755864,-0.6144323775,0.6541162512,-0.0074572534,0.455751551,-0.025626743,0.725870331,0.4589063619,0.0794076186,1.4448289842,-2.0855435618,-0.4046865923,-0.1206730593,0.8033492532,0.0966413176,-0.4686934722,0.4212232779,-0.1348814837,-0.5048835184,-0.7706772188,-0.7301271182,0.837735448,0.9346092866,-0.5361570039,-0.1036001747,-0.5286133989,0.9471802408,0.0733197113,0.0772013843,-0.2606872562,0.351645175,1.3408259433,-0.3650417289,-0.3090205179,-0.6793946785,0.8128794716,0.750569721,-0.5281218368,0.1596072444,0.7576008913,0.1320517981,-0.2268314089,-0.8388590126,-0.3044004272,0.493882554,-0.7518538635,0.858629252,0.3407246899,-0.5567040347,-1.0800917555,-0.0476470843,-1.7800187053,-0.193768497,-0.7103304186,0.571127473,-1.0952899407,-0.6637159,0.5776331759,-0.5331739602,-0.5268302862,0.0611234287,0.5853075084,-0.07661917,0.210999675,0.618751612,-0.4195035083,0.6772426709,-0.5137750004,0.4305114001,0.3387788889,0.2651074845,-0.9054880171,-1.5972465292,-0.6578511661,-0.6314945396,-0.3300077487,-0.8769949188,1.2778290945,-1.0772530603,-0.6524020908,0.4106235186,-0.4738247046,1.1294735246,-0.2954831669,-0.8343345534,-1.1094299439,0.481826243,0.6047494417,-0.8009621989,-1.9013621918,0.0905841091,0.3891445864,0.2222049972,-1.1111927062,-0.5604116165,-0.1905802288,0.2465342169,1.6379206993,-0.5092382182,0.0808320898,0.8388881961,0.4172263091,0.4845621808,-1.2715762216,-0.4611305592,-0.4352628566,-0.357364492,-1.0511815463,1.192856617,1.0080349441,0.4454709388,-0.9098450559,0.5055648691,0.5530677445,0.4959722789,-0.6892334186,-0.8366070439,0.6817030506,0.1092967292,-0.0785086753,0.4983384049,1.5397422097,-0.0754308521,0.0321542213,-0.2195527878,-0.1028189129,0.9544564697,2.0050280489,-0.900057329,0.4485246549,0.2507322788,-0.5469729587,-1.7038295146,0.0297068506,1.3138006545,1.1517190703,1.4984777284,-0.5518005844,0.886946787,0.0489645603,0.5640688504,-0.1240872304,0.1237608561,0.670193708,-0.0893615558,0.0265074172,-0.1006114141,-0.9264676196,-0.6352491008,0.3702072187,0.3063084996,-0.1815441055,0.8741338316,0.4465217005,-0.8092211731,0.5289290793,-0.149415087,-0.4231942637,-0.5853834873,0.0657098718,-1.0515937468,0.7753885738,-0.0291369037,0.2649567931,-0.4878488577,-0.1402340486,0.5252926549,-0.8297088104,0.8869830834,1.0506226744,-0.2530544844,-0.9395128098,-0.7674497758,-0.0078273178,0.0920023132,0.5168556953,-0.3640371843,-1.4347973359,-0.4417465558,1.0676055054,-0.7370090003,-0.2479871193,0.9326768076,0.1231068009,-0.9500273434,-0.4605900188,-0.7264411397,0.3817752264,-0.5748737427,-0.087601849,0.1421974015,0.3363140249,-0.4213075865,0.3736334728,-0.8671618998
   0.780406539,-0.159000706,-0.5339846134,-0.1863414678,-0.1552809625,0.0941526078,0.2262432741,-0.4960348641,0.7093529372,0.6558812125,-0.70980127,-0.9695413833,-0.5233662555,-1.1220562405,-0.1872346445,-0.7151440152,1.0992275426,0.6096475514,-0.4616237224,-0.620011335,0.4526124215,-0.5506064776,0.9746908029,-0.9415829641,-0.1234492583,-0.7061944881,0.2985953421,-0.8140204841,0.6525896313,-0.5184138916,-0.0654801181,0.6493348641,-0.622411772,0.2244238099,-0.6593783578,-0.442921126,-1.1245508574,-0.5954816333,0.3033123755,0.8871045434,-0.2065707294,0.730122029,-0.821816051,-0.3469114134,-0.714035365,0.9536781254,0.2964862377,-0.5002125798,-0.4283498557,-0.7714930707,0.9957566758,-0.3116459924,0.5755858486,0.0268083275,-0.3209678969,0.4835230755,0.7344212906,-0.455632277,0.4630371,0.8093022338,0.6651638894,-0.7281624824,0.4265689121,-0.6063940659,0.0589774984,0.214161428,0.8153181836,0.1677558215,-0.9842778946,-0.1818289731,-1.0089853701,0.5554646768,1.0247320732,0.4431403681,-0.4047721473,0.7071834645,-0.5764494544,-0.742556064,0.7481823957,-0.6539544391,0.5031006711,-0.164137436,0.7035952647,0.6302055727,-0.5178311334,-0.0549781271,-0.983127553,0.8983043286,0.7475898859,0.2084680117,0.1527331822,-0.1150590597,-0.0646674767,-0.7127919694,-0.0181357802,-0.1568272672,0.057722971,0.9310128162,-0.7061334981,0.0051626353,0.4004099221,0.7860035904,-0.4089451483,0.9334162187,0.4270672371,-0.1884381232,0.775739683,-0.7947063237,-0.9936481968,0.5847847327,0.8184901008,0.4254594664,-0.5580925479,0.7863973817,0.0470386304,-0.1095024431,-0.5152075376,-0.185700759,0.6370355974,0.26999929,-2.9049603849,-0.4316524389,0.4365455483,-0.0337820438,0.2296576289,-0.0312094439,-0.1580336301,-0.1242136082,0.6513557692,-0.0753025394,0.1573944971,0.4379352803,0.6571151146,-0.7236617095,0.7228670762,0.919326095,1.139152232,0.1701245029,-0.1169061266,0.9658057457,0.3521980584,0.7701540546,1.3320608908,0.9839181344,0.0949048201,0.8089065713,-0.3276758147,0.3846656687,-0.5454780039,-0.2343155954,1.1652857448,-0.3669273967,0.4619016848,-0.8542497527,-0.6648096684,-0.4000953773,-0.7475359441,0.6757521821,-1.1576475206,-0.5381759165,-0.9106534245,0.0359026036,0.3269577821,-0.4487441557,-0.3801317651,0.2008056121,0.0448618428,-0.2339259851,-0.1523769314,-0.905466011,-1.1200600234,-0.375749745,-0.9651082953,-0.5465033868,0.7855040457,-0.0630526508,-0.3870633856,0.8666116653,0.7873314414,-0.7962723974,-0.8207509824,-0.6074451361,0.8127226947,0.1968133831,0.3401828187,1.0340212192,-0.7643971397,-0.2939465036,-0.7144875249,-2.0394428475,0.7969329155,-0.4613892816,-0.1137428185,-0.1149311519,-0.3982287958,-0.6607694225,-0.7473826134,0.2912603769,0.6246104887,-0.6655220456,0.6193938391,0.3627341905,0.4024077487,0.5733779516,-1.3928446919,0.2009476917,-0.0511045987,0.0759177009,0.3979421919,-0.2874567666,-0.172682603,-0.592817367,0.2128354823,-0.5312929574,-0.0798824425,-0.7567606733,-1.1585558798,0.3835040791,0.0377225073,0.6776089889,-0.2139506368,0.4011114731,0.3713506148,0.6522839066,0.6545558871,0.0540720288,1.2556076412,-0.9070086248,2.894685787,-0.3549056546,-0.9187467716,-0.8827493156,0.5825150733,0.7580547638,0.9901499565,0.5489551794,-0.0538771107,0.8980832409,0.8769435096,0.1810495677,0.1009029285,-0.697820819,-1.0263482068,-0.6188921646,-0.1968247327,0.7535529792,-1.9570391172,-0.6161912006,0.8063248757,1.660358847,0.3871659431,0.6351587092,0.5617070311,0.4107077862,0.7936422733,0.2397810855,-0.6147576284,-0.7522426987,0.8512146493,-0.9447917395,-0.3181485176,-0.58708065,0.0601654408,-0.3626296875,-0.1546107707,0.9374235479,0.6041526745,-0.4753112503,0.0746652452,-0.2694837676,0.0313810494,0.1278304122,0.7410996124,0.7742213651,0.1717669261,0.2668708702,-0.801012218,-0.4139741909,-0.9804624295,-0.7703228342,0.3162447776,-0.9823407196,-0.256200575,0.7297109114,0.1153020202,0.1658172396,-0.7440996489,0.2928745012,0.9973248715,0.4053643806,1.0532361731,0.2327685026,0.0075467743,-0.1859263956,-0.0977307141,-0.9463388117,0.4674590592,-0.2168345622,0.2316679073,0.5382418865,0.0735738957,0.5203975396,-0.5431588396,-0.6356384571,1.0570871936,0.361394516,-0.7471382294,0.6376426694,0.0483576001,1.0770048178,0.7962660758,-0.8015288372,0.7737075262,-0.3029356706,-0.7316605414,-0.4987503829,-0.3992036632,-0.6157640472,0.8685962947,-1.0701961771,0.1942858265,-0.7845935154,-1.8261727493,1.0508423462,0.5603940638,-0.0318960897,-0.0108386179,-0.6022848881,-0.5885081519,-1.8011139395,-0.0165326511,0.5670835912,-0.6631588749,-0.0778494185,0.34974558,-0.2995227053,-0.364161384,0.1606832131,0.6510476418,-0.4562113931,-0.2204931157,2.5563782197,0.6556161644,-0.6375098409,-0.1722512414,-0.3652699537,-0.4962039605,1.5123456952,0.6437153472,0.213092857,-0.7205154463,0.7377742874,-1.1379672618,0.3684963629,-0.3020514415,0.3729350615,-0.2379664613,0.5045383217,-0.6120658243,-0.7820868108,-0.4978853462,0.3382268277,0.4694980613,-0.6366061753,0.3143114472,0.7119756645,-0.7077772933,-0.1529549285,0.7251459164,1.0243858871,0.4924718902,-0.730257306,0.6767603291,-0.4248088593,-0.4042964967,0.6848822066,-1.2918148286,-0.3303176844,-0.782687511,0.6235974986,-0.6035145766,0.4100265623,0.1119185483,0.5091157158,-0.1543749947,-0.4377044,0.3485026497,0.6126075555,-0.6057318215,0.4327934356,0.4985472636,-0.8960877543,-0.3544606152,0.0779378877,-0.1101058705,0.1467856407,-0.3185014813,-0.6012619146,0.6820925921,0.0168687815,-1.0949618881,0.9877915762,0.5388878665,0.2444729701,-0.8277875385,1.0867335487,-0.7651704486,-0.7691810266,0.1087172477,-0.3957237255,0.5138829047,0.6193772729,-0.7225640308,-0.7994046522,-0.0502704815,0.6443014673,0.1141330466,-1.0921443591,0.8540266844,0.4047395823,0.3853250365,-0.6406769526,0.6769069027,-0.0016277636,-1.0078674752,-0.4052858794,0.971632422,0.2889386351,-0.504230177,0.2645358161,-0.3813981863,0.0263500641,0.5737789732,-0.0409568492,0.5635436576,0.5248620302,-0.8725211239,-0.5479561649,-0.1649160169,1.2823962432,-0.7033364696,1.1758170513,-0.6357694653,0.1195620103,-0.4868860492,0.8782011196,-1.070005235,0.0971946212,0.1221589833,0.7771557911,-0.2530316128,-0.5588741305,0.2207489173,0.9340625722,0.3978452102,0.5004766052,-0.8770632142,0.2979171106,0.8184060224,-0.6923808223,-0.7438716566,0.1933198375,-0.566568887,-0.220178075,0.3023308202,-1.0472996722,0.692578026,-0.7999642467,-0.9505551385,0.1104690674,0.7133774448,-0.7914511376,-0.9005761876,-0.4194796283,-0.1528399384,-0.3200713118,0.3181437978,0.2851679819,0.8760176797,-0.2808161645,-0.0984822209,-0.1032847729,-0.8692297823,0.6689571707,0.8094608483,1.0038193713,-0.0407298004,-0.2169703879,-0.1924706913,-0.3902747963,1.3202311207,-0.0272652636,0.7488296096,0.1836231701,0.9795140263,-0.0874425697,0.0967849402,0.2254791121,0.0449273144,1.8444176559,0.8338355419,-0.2580422779,0.6109700757,0.7543055443,0.1924966151,0.5422450666,0.4299719023,0.5702270775,0.7341331693,0.2988695203,-0.8824010982,0.7196811771,-1.5241733519,0.9166863332,-0.4271451394,0.1509009254,-0.1850499192,0.1110787694,1.4887151887,-0.6938874982,-0.7603379558,1.0788371055,-0.1554745728,-0.1126413296,-0.2611333945,0.0346078229,0.4533310258,-0.2905699966,-0.828220393,-1.1068024939,-1.4314767779,0.0893350923,0.9574296802,0.5481411858,-0.2005687015,-0.5009402441,0.629145134,-0.7905978881,-0.1292448598,-0.068432825,0.6165057216,0.1882371627,-0.7452997914,1.1728719906,-0.4320968542,-0.4948315819,-0.2361564057,0.3313175218,-1.1586474396,0.7289597401,-0.3960910043,-0.2341512737,-0.7073360674,-1.5277981948,-0.1800807761,0.2451583276,-1.1406897347,0.405176865,0.1674259604,-0.3893491197,1.0723780093,-1.2858844491,-0.565684125,0.8038266879,0.9423697603,1.0037722964,-0.2351835697,0.5902966573,0.5557838077,0.0086393504,-0.00475589,0.5236998022,-0.1909318581,-0.3622987738,0.4047047502,0.3366706168,0.8844471828,-0.6463473877,0.7346922084,-0.8852831904,-0.270835673,0.1539923595,-0.6757146341,-0.1997044848,-0.000799312,0.8299773803,-0.748944137,0.2272633669,-0.1021904963,1.8135118833,-1.139988357,-0.6478004112,0.4558231511,-0.0280745824,0.1749782818,-0.4354643909,0.6253341038,-1.0284785418,-0.3071697198,-1.6098278199,-1.0935547027,1.0451384252,-0.5822086374,0.6452250313,0.4251903951,0.9368195605,-0.5154846175,0.1003581453,-0.5320662683,-0.0029613115,-0.2108919955,-0.590784511,0.1689474178,0.8557204275,-1.369875028,0.6832501163,0.1860491647,0.2286493919,-0.9947630973,0.2273428275,-0.3982244923,-0.1352762062,-0.4346111446,-0.8339702447,-0.1604694808,-0.2873237473,1.0031127164,-1.3483345917,0.1105907177,-0.3294808457,0.8925486023,0.0841392204,-0.202844379,0.2601289846,0.3645772497,-0.2950483215,0.3166030381,-0.7875220156,1.1090702981,0.1785196115,-1.5572967615,0.1050888413,-0.5717209774,-0.4010260541,0.7201015284,1.5886187453,-0.6001893143,0.6252308479,-0.1333281472,0.6158304548,-0.8125329779,-0.6063913883,-0.2862538626,-0.7475908105,0.3045135915,0.2130792349,-0.1928548901,-0.7231413913,-0.261433423,-0.3168038223,-0.0583757832,0.0361260807,0.9509467089,-0.4811801912,0.1773255038,-0.0956140928,-0.7910509509,-0.6125870658,0.0264126592,0.6268019077,-0.1272593821,-1.0756784198,0.4377504594,-0.6703452037,-0.9641362248,-0.5918595727,-0.5325239118,-0.9899333884,0.5175724464,-0.7019667261,-0.2663182491,0.5025244562,-2.3316428316,-0.8273361406,-0.248889949,0.4530406934,-0.9201532012,0.8367072564,-0.0137742113,1.060166189,-0.5156034565,1.1314377577,-0.5328866458,0.2084776961,0.6749033661,-0.7380933215,1.1978105483,0.9115078369,-0.0165763466,1.1591314647,1.4398951785,1.5846951219,-1.6756816597,-0.1925508551,-0.1599796088,-0.5884102143,0.4688148341,-1.0758658216,0.3129106863,0.3524264366,-0.2716068304,0.5789628021,-0.3464276117,0.1449575019,0.0520158818,-0.0581628763,-1.0369502105,-0.4853008903,-0.9357670562,0.03952442,0.7485708248,0.621506912,0.2330459031,0.421858068,-0.3869816453,-0.0867246581,0.3717081643,-0.0039148965,0.2512047275,0.9065768841,-0.4969410734,0.884635296,0.7764573382,-1.9379761638,0.906242434,-0.6808211791,-0.0742318816,-0.7986410131,0.5896677241,0.4693089541,-0.7228998554,0.9406158577,0.4318780448,-0.1864654855,-1.6951111,0.5331868834,-0.6680153638,1.3478221656,1.1849525397,-0.6358822109,-1.5839448223,-1.1160006116,0.6537150096,0.201770445,-0.4502111313,-0.6474902978,0.563583388,-0.0993221705,0.7326637967,0.4803616801,0.1229075706,0.6649016193,0.9006059323,-0.3453414243,0.60892424,1.5087498399,-0.4092856461,-0.2025416433,-0.6565382054,0.855068404,0.3105888877,-1.9884152153,-0.3183956258,-0.8505125917,0.3857641167,0.6738849824,-0.0761311345,0.3762979468,0.4207046205,-0.584294688,0.4606419693,0.160260229,0.3020933717,-0.328525838,0.7494162799,0.3541855144,1.4749551383,0.8883841947,0.7274055745,0.8956114248,0.5032431441,-0.1851863266,0.7013892632,-0.2121808454,-0.1704576718,0.4041970739,0.5949553286,0.114031042,0.7212272747,0.373514982,0.6030450939,-0.8469961377,0.850574021,0.2239607502,-0.2554343339,-0.0209241348,-0.8129596322,0.0511119042,1.6026580989,-0.538080731,-0.6081302065,-0.7508465635,-1.0158931377,-0.8243453172,-0.3584750852,1.0995979774,-0.2619490816,0.7173756177,-0.2026064963,-0.8276593255,0.1870039261,-1.00593826,-0.716552406,0.0044347525,-0.582704651,-0.2425630734,0.6826878332,0.887338923,0.7453991967,0.1500929162,-0.6329434993,-0.6129682296,-0.1199433873,-0.1315284757,-0.3763861007,0.1159045816,0.3837321879,0.0740020091,-0.1245422764,-0.2025346842,-0.682498914,-0.7710449851,0.5449707639,0.0754146453,-0.749870529,0.0734115571,-0.8040739065,0.5232905667,0.8106936512,-0.139032173,1.2130681494,0.7830997434,-0.4153680571,0.4681226992,-0.5391587318,-1.0730540039,-0.3834774382,-0.1777396439,-0.2625026592,0.2523955281,-0.0344534896,0.5059365381,0.0615281978,-2.8343212786,-0.343757908,1.0854605729,0.0912012353,0.9238413445,0.3723536284,-0.4691748115,0.0616441639,-0.151749428,-0.04744247,0.3568413832,0.3547413331,-0.507856343,0.3171800604,-0.5157733869,0.026660515,0.6393083114,0.5433788267,0.1182761513,0.0548082758,0.0308529408,-0.2603939662,0.087918554,0.0202185692,0.6371540958,1.6091918597,-0.0296369281,-0.3358586549,0.4662116864,-0.4620196206,0.4671014903,0.0594986639,0.3689010207,-0.111981429,-0.3372328186,1.4164843912,0.5226787575,0.4624451759,-0.0748453399,-0.2509362574,0.5127352482,-0.5762034142,-0.4377033462,0.1457160277,0.8013191449,1.1215759823,-0.8758543583,-0.0348808349,-0.2527252063,-0.224661132,-0.4720235306,-0.9124303801,-0.6231359054,-0.5202098224,0.4311586991,0.0072296893,-0.4889007363,0.5783564125,-0.952727595,0.1318192229,0.8173993035,0.1358287415,-0.8758293642,0.6956749595,-0.7311365066,0.3537077097,0.560867605,-0.3270954857,0.3041372101,1.2257003146,-0.5185536765,0.230153293,-0.2736408466,0.7135090063,0.0064473948,-1.1222557974,-0.6831830179,-0.9526904318,0.2800375702,-0.2467838265,-0.6580143475,0.328885227,-0.1313249636,-0.3174180126,-0.1442119377,-0.9314000408,-0.1186591272,-0.4716580955,-1.0112576401,-0.5809373707,-0.8134213672,-0.4653632395,-0.3104477021,0.5105657665,0.0228334962,0.1275874782,-0.4972670989,0.1124059464,0.9181078046,0.1542023807,-0.6361495315,1.0735791161,0.1535877181,0.2892673543,0.3266117569,-0.0510238532,-0.1312097297,-0.0591821861,-0.9462275202,0.8742195789,-0.6961043044,-0.0219171004,0.7535430414,0.4132916165,-0.4336586807,-0.1650339583,-1.4167237241,0.8101529801,-0.4934145587,0.347771703,-0.1165916602,-0.9568461895,0.1859249748,1.0489323052,0.5037696736,-0.0654120531,-0.8744431537,-0.1283698246,-0.5820022395,-1.2051074627,0.8000345939,-0.7649038008,-0.3651022705,-0.7986411672,0.3306125271,0.409048587,-0.6829930708,0.6596119547,-0.1190605181,0.317975887,-0.3715752685,-0.2560865305,-0.4243436081,-0.2457857374,-0.8375166376,-0.4034569308,-0.0655096011,0.5828377416,-0.0705282766,-0.8141831075,-0.3924695698,0.1508638732,-1.1561971853,-0.348762056,-0.783431887,-0.8962788486,-0.6489584182,-0.0410083552,-0.2654588776,0.6319476954,-0.9034324595,0.8340817229,1.2989373642,0.6439618056,-0.258030023,-1.0700831767,0.3113832942,-0.9037022747,0.2036233305,0.743682123,-0.1323571366,0.4457821944,-0.7082532684,-0.2871531705,0.391897647,0.1578420263,0.5649552949,0.5839424261,-0.4264101118,-0.4044009667,0.5064667616,-0.6895088038,-0.6523552984,0.6032506381,-0.0229461595,-0.618993283,-0.1580210306,-0.3772770577,0.0739819351,0.4802945882,0.253867897,2.2501735737,-0.4397561692,0.5313521705,-0.2243264195,-0.8624635943,-0.8752126144,-0.6477029064,1.1798935409,-0.4225336227,-0.0949657801,0.9660888372,0.6521246462,0.0471610644,0.1114285048,-0.6680416967,-0.6697549085,-0.898060954,0.6221530717,-0.3797669678,-0.9899011063,-1.0759029687,-0.2783584804,0.3493041656,-0.3318912689,-0.2711959771,0.0159219535,0.503707962,0.1219001853,-0.8280796767,0.5896822053,1.3683471647,-0.7128950652,0.2989770531,-1.1887799838,-0.8025458676,-0.1645549718,0.8982945655,0.4616437649,0.0556567392,-0.0756047592,0.4012977798,0.1317624464,0.4189661182,-0.4140748325,0.9239435912,0.5963006718,0.2347190731,-0.1373372344,0.920596312,-0.0664912819,-0.1696612132,0.9171380577,0.1640430582,-0.3201994095,0.5823976381,-0.65364278,-0.4551554969,0.0265715736,0.0658603094,0.378439431,-0.7827038229,0.5607351516,0.8546047592,0.449476281,-0.8773085686,0.5294192773,-0.1925799629,-0.8503315113,0.8260833136,-0.2830328694,-0.6116701025,0.2975554823,0.3553247657,-0.6030085317,0.4660297668,0.293138517,0.7836794531,-0.6117632453,-0.8730751507,1.1138112356,-1.1483600995,-1.0547578763,0.3312548563,-0.1223095158,1.821025368,-0.4813203614,0.8917462457,-0.4934219536,-0.2715225031,-0.9564401481,-0.1414025317,-0.1535809868,0.0473173336,-0.8753932998,-0.2810310434,0.48295895,-0.2487409278,0.1592982165,0.527381071,0.6683202801,-0.7433275268,0.7371399907,1.0747187482,-0.4363582146,0.5315971442,-1.0058342857,-0.1116175355,0.4906978115,-1.161882676,0.7679417823,-0.8566164277,-0.2322139921,-0.509395849,0.7999246965,0.4427258448,0.3650056094,0.9678621126,1.0972805502,-1.0810921973,2.0458567436,1.1233035818,0.2520476328,-0.2238798976,-0.5991284479,-0.3473749273,-2.2860847087,-0.3457253924,0.6538940182,0.9553975572,-0.623560362,-0.7666442749,0.6067111745,-0.2242668414,0.0120695402,-0.5304177478,0.9443093636,0.894370654,0.0541539065,1.2394247143,-1.1334586995,0.3190414974,0.8659044614,1.0707078209,0.8369954317,-0.712007007,-0.134429211,0.8253332008,-0.3691832905,0.2316073291,-0.9886337425,0.0778420221,-0.0696775523,1.0186699076,-0.2589656191,0.1298135183,0.8645873079,-0.054419894,1.4079398441,0.347833129,0.7155399722,0.2751215334,-0.7268624695,-0.4448055898,0.1225329168,-0.956848252,-0.1988552575,0.0724355186,-0.0891054443,0.7350721296,-0.3500923662,-0.7491589565,0.1188446437,0.5965023597,0.0322166201,-0.9044950108,-0.2908993326,-0.534741325,-0.6641856404,0.6333715506,0.3614582941,0.0058305992,-0.0209346214,0.5154819287,-0.0373016671,-0.3044939673,0.9579560279,0.1607546475,-0.9324055675,-0.5857298492,-0.0914279109,-0.4249081988,-0.68506808,0.2250604328,-0.7534970091,0.7606349933,0.960595124,-0.1040429328,0.9306963527,-0.0007843449,-1.3095730609,0.1837495318,-0.4749518373,-0.8734625986,-0.192704285,-0.6500546179,0.2472811893,0.4897622212,-0.0689395005,0.1542371639,0.1231818625,-0.0284678635,-0.4109210937,1.3299303673,0.3458555395,0.8722655762,0.8125036563,0.4118612393,0.4601715696,0.5659561943,0.0164008529,-1.5550341431,-0.909977223,0.8984163391,0.2211615761,-0.0115753115,-0.5546976876,0.3333903506,0.1333047176,0.4779911842,-0.869559038,-0.8378268704,0.1204754191,-0.4976391217,0.1939058556,0.1391543998,0.2289903145,-0.0601991609,0.0139107415,0.8653729755,-0.3391031479,0.0052793953,-0.5186463867,-0.130432454,0.6174489371,0.2617358282,0.4615453275,-0.8441286061,0.0367637207,0.5795583267,-0.3770288348,-0.7092664668,0.419623032,1.033483565,1.5497851658,-1.6956528894,-0.4293383578,-0.5028027239,-0.066047793,0.4690269391,0.0311362966,-0.1546738214,0.2589655371,-0.5569039301,1.128015858,0.2267352938,-1.0817557553,-0.6186215807,0.1117423098,0.0246160814,-0.7810611735,-0.9627932445,0.234306831,-0.8372857927,0.4842063641,-0.9997371698,0.142173751,-1.0637396625,0.3143135355,0.4691974174,-0.5496683613,0.083607766,-0.5668731698,0.7790612315,-0.7201325565,-0.202691069,-1.110327616,-0.7560331423,-0.8365321237,0.1075820549,0.2343667847,-0.5780646348,0.1184029827,0.7666828554,-0.0568892436,1.0783888784,-0.0665455076,-0.4013466084,-0.3089611746,-0.214699635,-1.3605168867,-0.039047547,-0.8068551105,-1.5981759744,0.6475289843,-1.4962339926,-0.740334367,-0.9292734056,0.64310537,0.8348294756,-0.164716163,0.0633523391,0.1827858703,0.7121050261,0.7836471219,-0.1690185734,-0.925585501,0.2315250479,0.2346484807,-0.7940338502,0.274260514,0.7546086379,-0.1083350807,0.8524508567,0.4211999983,-0.3912865714,0.5087601766,0.0287383844,-0.4807546366,0.649900488,-0.2185398617,0.1289729593,-1.0224093381,-0.6712094384,-0.991892553,-0.3060462887,1.0579511768,-0.1210000534,-0.2875021948,0.6694957257,-0.1370180706,-1.2895408649,0.4776446634,0.6096301561,0.9020397922,0.602119708,-1.6265261332,-0.9867403324,0.1728568751,0.1693550996,0.2706373462,0.5510256472,1.0211743596,-0.497949701,0.7346048162,-0.7831173885,-0.1600738512,1.648828642,1.1040659719,-0.7315354935,0.7595513111,-0.370617607,0.546877156,0.5978706628,-4.001351916,1.0809801727,-3.701614702,-0.9776337313,-0.0446737274,0.1774716676,0.329482599,0.8208833044,-0.2825561204,-0.2054085975,-0.152801139,0.2044487086,0.5270634169,-0.6465087348,0.5223517287,0.9397578019,-0.6433087258,0.5771338301,-0.4693655079,-2.3890936655,0.9535082398,-0.3073903414,-0.1425300529,-0.8140752283,-0.1623175382,-0.7316865753,-0.5849564186,0.3720955915,-0.4958361244,-0.200460578,-2.2749715676,-0.7802564317,0.9878250351,-0.2052546999,-1.6417462904,-1.1078977836,1.0356329035,2.7524392247,1.8505402885,0.1103023495,-1.1474677293,0.2636926177,-0.8726325459,-0.7317961432,-1.6394917913,0.5878647432,-0.3530648072,0.9870840363,-0.1418610423,0.1658535032,0.3450505761,-0.5504685758,0.3945596364,-1.0925936207,0.998231005,0.1728931135,0.8647552026,0.5102075531,0.2140823155,-0.5286786357,-0.0930819782,0.5412669657,1.0609187163,-2.0899192783,-0.6177711258,-0.3432275213,0.0086026156,-0.9285720321,1.0260737546,-0.4828142276,-0.8881379848,-0.4537937286,0.7379407741,0.3169832746,-0.9706196512,-0.347724871,-0.8517650988,-0.3441773529,-0.109732568,-0.5767290482,-0.45259198,-0.1403793204,-0.1302809702,-1.2183085674,0.5998992949,-1.0385873285,0.7000394698,-1.5915595911,0.068780949,-0.3795567135,-0.6153315173,-0.3260986165,-0.6056078626,-0.4313504255,-1.1258816971,0.8056264713,-0.6575045378,1.3693412082,0.9228128713,0.3097310207,0.8912948524,-0.1557766971,0.4564274166,1.0118022136,0.9780842766,0.5235257468,-0.1349093168,-1.6808924861,0.5358291902,-0.2594605616,-0.5884601362,0.826878942,-0.3449283947,0.5325101172,0.2423197143,-0.5600474967,-0.7700710268,0.4224464741,-0.5247850987,-0.0344184347,-0.4006937116,0.4305468797,0.7660957233,-0.6810089705,0.6454759417,-0.8682883641,-0.1531864079,-1.1814858703,-0.6207005112,-1.129017888,-0.497851691,0.0120906196,0.3292961262,-0.3720532011,0.0719594616,-1.0712001703,-0.825832614,0.0237797017,-0.2376511076,-0.7220661535,0.6714159855,0.1002506468,-0.085973747,-0.0743303195,0.8275721802,-0.76573518,-1.2531743483,0.5202345439,-0.580608243,-0.7579580482,-1.0896539153,0.4613863414,0.2352977482,0.0201921222,-0.8377270644,-0.2133899606,-0.5776662713,-0.660060691,-0.0239715155,-0.7737795725,0.7149793439,0.0634100158,-0.8882055069,-0.7110280345,0.6144280257,-0.9365687062,0.9176042049,0.9701140318,0.8681116378,-0.89639759,-0.3891066282,0.8888505702,-1.4254155843,0.0459704233,0.3408820993,0.0557422138,0.1772874666,-0.0906238327,-0.4243147566,-0.0852849734,1.1370506828,-0.88772143,0.0553111729,0.3589825271,-0.906775763,0.7553445665,0.7930178472,-0.1225491046,-0.2997141012,-0.5283910201,0.4986104536,0.1395101978,0.4891193031,0.5798614513,0.9147371818,-0.7777739632,0.3201675485,-0.0339259924,-0.6038676882,-0.4250210128,0.6504027956,-0.4830106105,-1.2782111978,1.0580618387,0.7287564531,-0.1195817875,-0.1220599351,0.8200039148,-0.0335097659,1.2009908313,-0.5852476295,-0.562970314,0.3468508928,-1.0004819872,-0.646285981,0.7461850181,-0.3536723228,0.4277122525,0.8207501225,1.1175431309,0.6671993716,-0.957375234,0.1653361108,0.6719386878,-0.1528406858,0.7198749481,0.0746080676,0.8704877273,-0.2945573096,-0.8034945984,0.0272341312,0.1711849573,-0.8936456086,0.6914247776,-1.0481853841,1.0249974182,2.3120812104,0.1395033699,-0.4904292725,0.9844091697,-0.4058202542,0.2512129388,0.067540374,-1.372701064,0.8265770757,-0.7439803957,0.2366486238,-1.4819725505,-0.8956677599,0.6312863534,-0.82518545,0.9580816126,-0.8397339815,-0.1098964844,-0.1374102069,-0.92810566,0.1099330337,-0.5872649257,0.9860659021,0.5441064355,0.0726321072,0.6982884076,-0.6743163466,0.6988451765,0.8990130363,-0.03578161,-1.3996653101,-0.527489412,1.0459737927,0.298454341,-0.344604576,-0.9327403355,-0.1899728875,-0.2273345388,-0.5678017398,1.1498757186,0.1145363086,0.6417325121,0.0246636843,0.5369200373,-0.2507400057,0.4001446202,0.426522717,-0.3428063004,-1.0456511585,0.7003469241,0.6489625943,0.0047713653,1.1885301432,-0.2749398079,0.1963536694,0.2461162521,3.8943692733,-0.5945627911,0.7050382572,0.8147391828,-0.6126353671,-0.308751015,-0.3645860621,-0.1761484861,0.3353133846,-0.5070814428,0.3520872665,-0.8496080755,-0.5949203605,1.1612979745,-0.4876565308,-0.8566695103,1.1403260556,0.3760594234,0.5689228499,0.4086831244,0.4002668597,0.3366406599,-0.9945679193,-1.5168982903,0.1841559713,0.8298050438,0.0539166436,-0.6501349195,0.8537995343,0.9909848639,0.3511516002,0.1069771395,-0.7271266618,-0.8052014067,-0.7307376291,-1.0712384135,-0.1022173871,0.7369750354,-0.951058284,-0.5707581856,-0.404021336,0.1411944713,0.6568021062,-0.3990123021,-0.3196803417,-0.4025466675,0.6521926502,-0.3396036526,-0.2985167567,-0.3252901801,-0.3204337434,-0.5383619183,-0.5522365978,-0.2949404446,-1.0563933782,0.011171598,-0.3747780362,-0.579614886,-0.3952622511,-0.5711354689,0.4579186759,0.9912395332,-0.6383851531,1.0152223715,0.1460383064,-1.1238082179,0.5015731608,0.0213259078,0.5436191081,0.3670680327,-0.6212841748,0.3090492489,0.1358542217,0.9533802109,0.4995322566,-0.4877197023,-0.761754051,-0.6031799095,1.9909410419,0.716372324,-0.6506917948,-0.6538746405,0.8260689458,0.0794958464,0.7688061445,1.2305608476,-1.0434324727,0.3680337408,-0.4255733321,0.1971807494,-0.5908166401,-0.9340907197,0.0900416074,0.3972482519,0.7568860526,0.4271314419,-0.2939174531,-0.4586825283,0.6283661423,-1.4836098276,-1.6662532147,-0.0313875738,-0.8643438222,-0.5969135297,0.530368192,-0.7837772639,0.3880122869,-0.407291953,-1.3392721944,0.9877273893,0.9582843061,1.0097351185,-0.2405981212,0.6293263632,-0.297547947,0.0810811099,0.0652377579,0.1043090292,-0.0626588202,-0.4289360409,-0.6377598401,0.8814763447,0.4782885536,0.4608966261,-0.0708644194,-0.274307549,-0.1426220288,0.903255618,-0.0845991211,0.8421932765,1.0359318317,0.8114523035,0.0959392167,-0.2653225681,0.4973781527,-0.7620748617,-0.7437421622,0.9772416139,-0.6507731011,-1.1482005521,-0.4700907554,0.5278783113,-0.3332782756,0.3137276467,-0.1752076234,0.2527023302,0.9248988385,-0.2056871211,0.3230946171,0.9088758252,0.6121629299,-1.0471422399,-0.1731737042,0.4162723729,-0.5199468051,-0.7201562418,0.697155017,-0.0059632061,-0.2303645734,1.0270117074,-0.526270163,0.888708643,-0.3326906756,-0.8398184479,-0.0514107323,0.5466967341,0.6619414405,-0.5062668885,-0.2694129715,0.730053919,0.9203732898,0.2687023726,0.9482813731,1.0811514304,1.1396332845,-0.4629889892,0.3411212852,-0.7917000781,0.5324931171,0.6229310134,-0.3490538378,-0.4360117764,-0.0197984096,0.2647398669,-0.873056676,-0.2170326406,-0.1243795262,0.3458530536,0.2717611215,0.8813381972,0.0788659695,0.4859890741,-0.5905551458,-0.2410742046,-0.0740431767,0.6263541612,0.2630520487,0.1203597864,1.7448958785,0.7180806919,-1.134673776,-0.1492177465,-0.0872092174,-0.300288833,0.095346718,1.0954572715,0.0000803946,0.0190056748,0.5161681058,-0.9962571201,0.0469196717,0.6215656069,-0.0858970214,0.1977421207,0.4828744141,0.9295627575,0.4698576082,-0.3749753738,0.1421049262,-0.3868430236,0.1709343405,0.1952664797,-0.0583234781,1.103066908,-0.4320986289,-0.6944343344,-0.6922659347,0.9597768546,-0.8169354486,0.4613161629,0.5672084257,0.5646051466,-0.0890535565,-0.5862647401,-0.5206129806,0.783085926,1.4869379434,-0.4205667137,1.1599427809,-1.0126958652,0.0290629365,0.772301038,-1.1738774903,0.0774991203,1.0762900349,0.3768062605,1.0677608429,-0.5420799293,-0.5402952514,-0.4744718568,-0.3795880205,0.2408313628,0.1320671878,0.1655798328,0.9659623277,0.3693650149,-0.5173798367,-0.0028270406,0.1574721954,-0.0119584625,0.0223050154,0.5161817814,0.2870150159,-0.0575533264,0.1160636284,1.0419615416,-0.2444433374,-0.0477770176,0.3482990313,0.5108245499,-0.4164050927,-0.3720264215,0.5378776206,0.9853788272,0.8385509023,0.6702876739,-0.0813086133,-0.3337106439,0.8258287345,-0.4670405097,-0.2287112532,0.2272653651,-0.9952926493,0.8931868269,-0.3983311707,-0.8566032603,-0.6114996928,-3.3981818464,-0.0342922188,0.6446498636,0.2998444634,0.4700004985,0.8050246077,-0.4230795884,0.0005889803,0.6316129093,0.1051123761,-0.1555973627,0.3051281362,-0.8458442232,0.7725554144,-0.6037149452,-0.7578219013,0.2979452721,0.4793373905,-0.2507693291,0.2820417367,1.1231667294,-0.1913072328,-0.5090160181,-0.8077421217,-0.7446165006,-0.3508349528,-0.8842521096,0.6899464274,0.2573498276,-0.0264457799,1.064170365,-0.7707194849,-0.5393385345,0.5692948669,-0.955783342,-0.6284990218,-0.2755932516,0.7537053179,0.576643148,0.3500149585,-0.3130798795,0.6882156229,-0.1615902662,-0.3938462435,-0.2452868581,-0.7137131112,0.5800195996,0.9515662129,0.1759383703,0.2330986448,-0.3196574892,0.7459304791
   0.0221914408,-0.5421060874,-0.0038203321,0.6492496041,-0.4208611907,-0.4595345958,-0.0271235502,0.2881189952,0.5732111,-0.6532127723,-0.4628296105,-0.90758207,0.0732164866,0.1817987887,0.3080829906,0.5817930474,1.307423739,-0.0231036255,0.0142942824,-0.3641673141,0.1750790731,-0.9111500687,0.6450540906,-0.2438751934,-0.2973381361,1.181187745,-1.2320420029,0.8633803872,0.6981443761,-0.6690372436,-0.5329458014,0.642289989,-0.1130010539,-0.1119823405,0.8896506773,1.1036738175,-0.7167633475,0.5445608796,0.536225877,-0.9301340624,-0.9837996813,-0.6106233363,0.4132440111,0.6403142679,-0.0586827791,0.4316479224,0.366047101,-0.356848503,0.3710356891,-0.7310159451,0.1446896996,0.8913092933,-0.2521731885,-0.0051879706,0.8688976005,0.0328261867,-0.2980265127,0.6722327203,0.6066859678,-0.8034728089,0.6398280962,-0.8888387432,-0.4402820125,0.9111992109,0.8294601473,1.1165780212,-0.0667984068,-0.5000794762,1.2855120045,0.4143203166,-0.1081984788,-1.2798947431,2.0053940221,-0.0128339758,-0.5659337853,-0.7896593731,0.4457167697,0.3355189896,-0.1196420813,-0.196794809,0.1023940414,-0.4548977948,0.3479588448,0.4406070983,0.6163380597,0.1454860317,-0.4788623874,0.5499883075,3.3118279555,0.0156136514,0.9210147402,0.356751728,-0.8665191168,-0.4731244867,-0.3941270303,1.2781495666,0.9713071765,0.8289755884,-0.3251980702,0.138354622,-0.4615410142,0.5898997715,-0.5137275048,-0.4737304807,-0.6985627802,1.3241609667,-1.3473517129,1.4477247477,0.3640442502,0.0838844778,0.3388114127,0.795365007,-0.1209303999,0.096121195,0.5042066582,0.3668430747,-1.0086800157,1.0627669493,0.0494553852,0.5763483865,-0.9956593412,0.0107244067,-0.6194486787,0.6944802786,-1.0728285053,0.0983513295,0.1622475269,-0.2565278693,-0.2794374085,0.5984576494,-0.6280023303,0.3149847538,0.1440189764,-0.6075406701,-0.5198344339,1.1360168552,0.2043223311,0.0348294785,-0.2259889884,-0.7159302924,0.8947098317,1.0541074972,-0.3284818184,-0.4054550596,0.449307474,-0.1745124941,0.4010780526,-0.6480358212,-1.4284505336,0.6554345207,-0.8815791364,2.6148333921,0.290403489,0.5114268436,1.5939656257,0.8567746844,1.4624406215,-0.9208682523,0.1383870169,-0.6209080864,1.0885027525,0.904299913,-0.6055105139,-0.2745297755,-0.7005564107,-1.2692012036,1.425681674,-0.1127812601,0.5878859239,1.6994811238,0.8104962123,0.275441606,0.1057870036,-0.3791511625,0.3917697411,0.2861987494,-1.1235369407,0.7158661821,-0.710331179,-0.4971063524,-1.9442968291,1.2895878582,0.187106985,1.4219050713,-1.4533039188,-0.5134945737,2.4186190502,0.8075293581,0.7169862468,0.4562849388,-0.4837346683,0.0877494207,1.7063845073,0.2360171981,-0.0803077306,1.0894968342,-0.4682615963,0.0404755081,-0.6121449565,0.8604637172,0.8640964903,0.312305025,0.9363042543,1.2485723241,0.7326587467,2.4374844272,-4.8765008759,0.0456866126,-1.0777730509,0.515350927,1.6343534356,0.0997400949,-0.3801636455,-0.2039959431,-0.4447290775,0.8411906455,0.5159149761,0.3936098122,-0.8550594456,-0.6884712782,-0.3986206066,0.4192909598,-0.7061925177,0.7140301689,0.3388181016,-0.2191081981,0.5820773196,0.019797869,-0.3823783476,0.0858035345,0.5258101159,0.4734970802,0.0870747559,0.0978142905,-0.7089558375,-1.4839949156,-0.4283571522,1.8480373146,-0.213635946,-0.7034585555,-0.2249770095,-0.8400806432,0.4361661101,-0.0816387736,1.4922308322,5.5163135576,-0.3147512294,2.3878065125,0.4562168914,-0.2760721005,-0.9047943683,-0.3231727607,-0.7445709008,0.2973133807,-1.1464322025,-0.4995076498,0.3950347386,0.9695866962,-0.8980820859,-0.9925059314,-0.5565278247,-1.8997313077,0.1197510122,-1.2312909789,-1.0766779316,0.3229724297,-0.2130533665,-0.4268626053,-6.4050619474,0.579887736,-0.9103927349,-0.6064017528,0.164427151,0.9738129962,0.941950004,-0.1034941433,0.1149706501,0.3449165113,-0.6350450771,0.7107619248,-0.7027034047,-0.4897227896,1.1439005866,0.7207855826,0.747011476,-0.1876787332,-0.7994626655,0.8604286991,-0.8562746844,-0.8530593598,2.5004821922,0.4899651124,0.7288497083,-0.5764908145,-0.1977416064,-0.3996172349,-0.389023428,0.4093717677,0.7292022862,-1.3358599512,0.7363607022,0.3388761127,-0.3421158459,0.6714224729,-0.7193987749,-1.0442424908,-0.8610723009,-3.4835766322,-0.5409862943,-0.1755995675,0.8385731309,0.4316144051,-0.9089464912,0.6342806411,0.7088758164,-1.0196397768,-0.6476035623,-0.6731098044,-0.870064722,-0.8460101338,1.0003674379,0.4915601626,-0.8805234865,0.4273378822,0.9635438946,-0.1982775933,-0.2775812244,-0.265083818,-0.5541050906,0.6668134356,-0.8606606737,0.0305136829,0.7238166339,-0.4420729102,0.5352457928,-0.3870393629,0.8761596983,0.0990518683,0.7350763414,-0.3125332088,0.144740598,0.2997239115,0.6998645375,-1.0693540386,0.0993043945,-0.815018258,5.0910683287,-0.2061479721,-0.5392995504,1.0350650716,0.4643078013,-0.5271444717,-0.6196407326,-0.890925984,0.4761269686,0.6700954843,-0.232890218,0.1469778656,-0.166153523,0.062873774,0.4546849756,3.0391658379,-0.1798399925,-0.0629028497,1.0065505135,0.1087876132,-0.0474614488,0.4702900419,-0.1557561868,2.0779854285,0.8600211537,0.2915555843,-0.05997115,0.5669725942,1.1815949629,-0.5343811998,0.1724649895,-0.5778310071,1.4185186275,0.2203047571,-0.676995168,-0.3730558669,0.4996978762,-0.3898176716,0.1783207519,0.9115211138,-0.507714746,-1.1100553822,-0.6183228086,-0.3448615793,0.2072419311,-0.6261295391,-0.8054817552,0.2664326169,-0.192483969,-0.8805692398,0.5403175097,-0.6309527627,0.354932713,0.5892765279,0.3336204558,-0.7067435414,2.6341864318,0.1678493781,-0.1312795778,0.4852137649,0.74452913,-0.3557519092,0.7232550259,-1.7212604449,-0.5088368669,0.4188604653,-1.2048939106,-0.7326487275,0.3836855667,-0.5956521179,0.6703219176,0.1168527145,0.3512611484,0.3965658555,-0.0027618807,0.4664082939,0.7058663527,-0.9448758992,0.3369893086,0.3175016188,0.01221545,-3.5289488647,-0.7268829772,-0.0150000962,-0.842760428,-0.9923262674,-0.6370376158,0.7499559729,0.277707605,-0.1463301676,1.3303315409,0.3856566879,1.0649534458,-0.1542059898,0.8552580335,-0.0338576019,-0.5056826351,-0.7870717983,0.6271091252,-0.3571840267,-0.0029814939,0.1431205266,0.3862974358,-0.1978623633,0.3861322949,-0.2241126851,-0.1467777421,0.6182150346,1.5967450628,0.0738163778,0.1785922778,0.8827594121,-0.8245500305,0.8299167033,0.6584438385,0.0823665816,-0.5772265044,-0.3510709906,0.1720627262,2.4204637362,1.0227250687,-1.1177224712,-0.054252982,0.2763689774,-0.7525249467,1.0246953413,-0.7879836765,0.3903457718,0.9494970236,0.7587341809,2.6489984573,0.3458322253,-2.0463406273,-0.7268227024,0.5474198598,-0.1368539315,-1.2344138261,0.6659628897,0.6320305348,-1.0021909098,-0.0187048545,-0.5418379953,-0.7753607089,0.5678445787,0.6530192698,-0.5033134573,0.7222131585,0.9272428134,0.8841845954,-0.2707975532,-0.2832096413,0.7008398331,-0.7228980069,0.5540909629,1.011107975,-0.9234871013,-1.4720195112,0.5087768002,0.0043908349,-0.4832622192,-0.0419405639,-0.5266741397,0.1122034299,-0.1474318935,-0.2330888633,-0.6343442072,1.5386113128,-0.4076954198,0.385624836,0.4979123736,-0.8399781419,0.160649588,0.3049673032,-0.0644357217,0.0257630239,-0.6618124372,0.546951145,-0.4592121984,0.3772346037,1.2256378885,1.0279671609,0.8828564411,0.5758358937,0.0658224163,0.6339594393,0.3148111399,-0.8282148907,-1.4203711352,0.08508953,-0.7369711447,-0.8766135739,0.7377635963,0.8432747068,-0.423263599,-0.5024411234,0.1197513194,-0.3883773452,-0.0867620742,0.4118746259,0.1379684893,0.7837394477,0.4063403673,0.2604906686,-0.2652172057,0.0916108022,-0.2758824603,0.9228747038,0.5042415852,0.1738081665,0.5951082992,-0.5472976076,-0.7621028675,-0.8629668921,1.0076700299,-2.9681447744,0.4605799087,-0.8312078712,0.0303144316,-0.3989664819,1.0225024621,-0.2246687557,-0.6891058371,0.3302485881,-0.3407831979,0.0468087017,-0.5275960235,-0.892139303,-1.0291062474,0.8592563351,1.1196145755,-0.3929766862,-0.8846242938,0.5882839129,0.4534886717,-0.8183442706,0.5669748881,-1.6372349729,-0.3121623812,-1.0359923514,0.3346288092,-0.104272404,0.8488727132,-0.4125983511,-0.806642256,0.4016043172,0.318379033,0.0746718384,-0.7121490208,0.2449526415,0.2967092285,0.6763583708,1.6457562401,-0.7120968746,0.5434458393,0.394658069,0.5407230351,-0.4449198835,0.6119894234,-1.0729048569,-0.8194240344,0.8691676292,-0.9215183781,-0.2924255344,0.9341519578,0.5798529177,1.0080977841,-0.2533500965,-0.0053749285,0.0922406632,-0.7906322944,1.4155842752,0.7853932585,-0.4550345847,-0.2943351714,-0.5183713041,0.8364200203,-0.1402454017,0.2999399497,0.518781174,0.7352105278,0.8339566769,0.0640093438,0.8358096423,-0.7644184205,0.4138094769,0.3894657481,0.2276724065,0.2007553367,-1.3431862874,0.7147684826,-0.0839001468,0.1569002622,-1.1617269332,0.6098576932,0.6298250733,0.4278273703,-0.4726632695,0.3606769023,0.6951911114,0.3863039752,0.1971113441,-2.2648973901,-0.5922462151,-1.5355935548,-0.3301866779,-0.5104378392,-1.3203286497,-0.3190019559,0.1655282901,-0.7896753073,0.2147354352,0.2998070571,-0.4097549006,-0.4358014838,-0.5485126457,-0.7621577678,-0.1384638358,-0.1795447722,0.5662973278,0.8296776268,-0.4593684192,-0.6860528379,0.9878200364,0.2012547598,-0.3040946781,0.3366102652,0.7642885062,-0.4463351532,-0.7068066984,-0.9082311594,1.0303365382,-0.7981612605,-0.1045364792,-0.8490408339,0.13289927,-1.1072408948,0.5801547829,-1.0394431328,0.0862414244,0.3625125021,0.2474910931,0.2412667055,-0.5564681059,0.174208865,-0.5488269259,-0.6713637067,-0.6607334153,-0.4727906418,1.2351063212,-0.2323950785,0.3430154146,0.4832592974,-0.2244700466,-0.0821315656,0.7178873135,-1.2613326346,0.0686820153,-0.595044962,0.7557280825,0.8537141117,-1.326612234,-0.3355412054,0.4422608046,-0.8228244568,-0.3306265203,-0.2484032479,-0.8132314796,-0.730731088,0.4573492556,0.2509279713,0.6472790325,-0.666850588,-0.298327677,1.0575071572,0.0630500338,-0.8006559827,-0.1034431104,0.2469530979,0.7315846417,0.9256576703,0.7546282836,-1.060696851,-0.1395066254,0.8051384424,0.4937769203,-0.0187395085,0.3003912813,-0.0309334516,-0.9818819899,-1.1371563817,-1.0760483603,-1.1175601473,-0.0262119174,-0.0702080297,1.4965805658,-0.5991759781,0.4282403504,-0.8203525182,-0.4111889813,-2.0896253947,0.0599144167,0.0390286222,-0.0530782574,-0.3338036889,-0.3293420578,0.5135093226,0.2758825341,-0.9410787704,-0.0242603341,-0.1675508276,0.5364966587,0.3640089785,0.4102465466,0.1116710622,0.6084483575,-1.2266802742,-1.119642899,-1.9420796364,0.5705952276,-0.7467572674,-0.1819409536,0.3948958712,-0.1593200253,0.5286620101,-0.5850864479,-0.7375165126,0.2660354099,0.5848410651,0.4116030574,0.3266778098,-0.5241299111,0.6231539518,-1.2379218325,-0.8841391752,0.9382052759,-0.9705418785,-0.3344200391,0.6957635757,-0.0638899806,-1.0945381118,0.8960498373,-0.9238284224,0.7756181536,0.6753820196,0.826970858,0.7587798314,0.4292375868,-0.1086892287,-0.6955007159,-0.7265770313,-1.1130626443,-0.4746270735,0.2425524484,-0.5278101584,0.0110017894,-0.5699341931,0.3173190316,-0.9248663776,-0.3219804405,-0.4151973785,-0.0299340946,0.3179450594,-0.3563217643,-0.2074158376,0.2424197363,-0.05009995,0.5090779453,0.5068058304,1.1986736253,0.65779848,0.202904167,1.0692644655,-0.3642096682,0.055395032,0.5623865546,0.0297032094,-0.1478704904,0.9250075798,-0.6066915609,-0.3841788284,-0.3662993148,0.6484216847,-0.7612512656,-1.0403135792,0.6493791841,0.2240484942,-1.1489483522,-1.3199656172,-0.6190693349,0.1877853842,0.0504359412,0.2441059266,0.0144342672,0.7144247814,0.4614771572,-0.0787925407,-0.1146322805,0.4084034849,-0.5838566966,0.3550384756,0.1809571168,-0.3029503535,-0.7983229756,1.8327723781,0.5684599873,-0.4517719181,-0.8052770446,-0.6656294446,-0.394895546,0.3365464196,-0.6054470294,-0.5436841989,-0.2276491127,-0.7800330743,0.2801922117,-0.6549297369,0.2507806817,0.7488237731,-0.2722691228,-0.0974993822,-0.4901210644,0.8725863902,-0.0771924525,-0.6501642662,0.8904195158,0.8662586042,0.4062519446,0.6476613825,0.3845640269,0.2857610352,-1.2086650515,0.6317166527,0.8346126125,-0.0143711325,-0.1776566925,0.4270354483,-0.0450208088,-0.8427491264,-0.4065476676,-0.4436457869,-0.1685294331,-0.2922096373,0.2491689216,0.5045519894,-0.2178160025,0.3773650023,1.1697918418,0.8731833932,-0.393814095,-0.4392549971,1.0747290165,-0.615388611,0.3307450145,-0.5023649235,0.6231098708,-0.1622285873,-0.4673055825,-0.3228816524,-0.5514515141,-0.7991400233,0.5881301391,0.8944552639,0.2324917021,0.8543951999,-0.7856537578,0.1691582875,1.14451053,0.3965908406,0.2494582102,-0.5015580762,0.7028976724,-0.0206794988,1.1252020123,0.785284028,0.469717025,0.3296013243,0.5185869939,0.1226789382,-0.570924895,-0.1296084192,-1.3146041682,-0.6407274625,1.061909882,0.4176468092,0.8992342623,0.9426124973,-0.7126492497,0.1183690195,0.5923648094,-0.6283529737,1.2344900508,0.1215943629,-0.2731741892,-0.8279941958,1.1551629932,0.2018609717,0.2860166477,0.3762283817,0.8622858405,1.2587396383,0.8375001808,-1.0021975599,0.4152021954,0.1184687441,0.0919996005,-0.1004142681,0.2765763754,-0.6522008202,0.1924864138,-0.3403621273,0.734651207,0.7768117198,-0.587235428,-0.4778135536,-0.4820036423,-1.1744593073,0.3014858843,0.4872948406,0.5810611323,-0.2360841837,-0.5464620066,0.2799365513,-0.2929227032,0.7719677741,0.832100937,-0.303182148,-0.0660524585,-0.5061446879,-0.6383445631,-0.3418137929,-0.1002042394,-0.2951405975,-0.2599559073,0.9148874247,-1.0092968996,-1.1708239516,0.5230047449,-0.6408741728,0.2496730245,0.1768081863,-0.0711438283,0.5866777383,0.5894379645,0.9394441612,-0.2871529574,-0.2648093332,0.4854666065,-0.1225124628,-0.0563442257,-0.4707370985,-0.3852827959,0.9486283846,0.3289574281,-0.8133324285,-0.8667512446,-0.7207169646,1.235132228,0.4258630865,0.2999458378,0.6594336976,-0.3701413945,-0.5932383011,0.8995697222,-0.260491374,0.1742956272,0.3693437069,0.35705942,-1.2011047043,-0.6671369735,0.6012884892,0.249798961,-0.1305321641,-0.5682927085,1.0092717112,-0.4467000669,-0.6622270991,-0.6539373606,0.0581839678,-1.3434961046,0.3876556514,-0.4656607251,0.243782327,-1.0094977181,0.6122525882,0.413736429,0.8521626589,-0.3956701535,1.0641296799,0.097188267,0.7399717512,0.3626045368,0.7266075784,0.5105716618,-0.1433824731,0.2741072904,-0.7782931819,0.3786836473,0.0376780816,-0.4558019146,-1.0306371679,0.1451307346,-0.3248505844,0.4097998076,-0.7497824977,0.3050651805,-0.4530020388,0.4445727714,0.7287231056,0.2190686901,-1.1953643183,-1.2214702873,-0.0936090554,0.0729336404,-0.3736208397,0.3580436671,0.5531204912,0.7102547233,-1.1444512454,0.751692056,-0.0712140345,-1.07641159,-0.3472710296,-1.0326050908,0.5824621007,0.767603073,-0.170517731,-0.6039925419,-0.6025342151,-0.3305206774,0.2757842269,-1.8604213362,-0.1815914365,-0.1112060784,-0.0557729715,-0.5149310414,-0.4443801996,-0.364577567,-0.2281935947,-0.2045730749,-0.2828032168,0.0117725462,0.0465320007,0.3062702117,-0.3386486447,0.7568027483,0.1212066397,0.4568412581,-0.9955683836,-1.017638484,-0.631437111,0.4516627414,-0.4235475646,1.121031763,-0.8260627976,0.2647107894,0.4477726777,-0.6435775126,-0.0676231984,0.8360468537,0.0746470321,0.9447034111,-0.6757582545,0.0497703906,-1.0941563262,-0.0710098318,0.1031633184,0.5721332712,-1.0797161309,-0.1464027554,-0.5003069545,-1.2214101296,-0.9283344293,-1.0406971311,0.2891978735,-1.0920780409,0.9402101146,-1.0482434514,-0.5232725983,0.1399544679,0.4715520739,0.8179226951,-0.9558641204,0.2274071389,0.6449480627,0.0281224477,0.2669423135,-0.0401141032,0.806528384,-0.8828338166,1.1351386756,0.4814800813,0.2866793339,-1.1353990668,0.0756374789,0.5466134334,-1.0612816296,-0.0430702811,-0.208285696,-0.879218598,-0.368049395,0.4699011053,-0.2401727998,-0.9602458389,-0.8620020795,0.3694466908,0.7437830497,-0.5180451049,-0.3603899759,0.7652675561,-0.8985069076,-0.4847917752,-0.4555969791,-1.4551623133,1.4957640788,0.427093994,0.6170713352,-0.2573576262,0.3002636052,-0.8923465821,0.631042406,0.0676798389,-1.3631397097,0.100689233,-0.6817901669,0.3286644079,0.4829652817,-0.7539164942,0.5664856881,-1.0311712828,-0.5118391204,-0.1282138437,-0.0427625193,-0.2203647103,-0.3001061633,-0.2164919791,-0.9074576609,0.1463400639,-0.3720223558,0.408725035,-0.8715630605,0.7322487539,-1.0963751244,0.0806570312,0.3367800835,0.7178309888,0.3721509902,0.0089133543,-0.1984414729,-0.4605630783,0.2103438598,-1.1356119449,0.2854848505,-0.6553731804,-0.2736081036,-1.2723339862,0.9031665734,-0.019027059,-0.3000689031,0.1071278347,-0.0678134918,-1.0377957899,-0.8499256468,0.538601908,-0.7514394183,-0.8726455365,-0.8480673564,0.0964740366,-0.7782709949,0.1806169081,0.3942620452,0.5777542804,-0.6421014021,0.4712933197,0.6948900881,0.6099591773,-0.4317522343,-0.5045715087,-0.5100919156,0.1621611684,0.2575171467,-0.2043668683,0.4248993757,-0.8743441155,0.7550145047,0.0891716572,1.0908551456,0.4736247207,-0.3954083799,-0.7854207421,0.0585542009,0.7100598022,-0.7204401737,0.4387718562,0.3875044313,-0.0459205871,-0.8770112438,0.6112922923,0.0845556046,-0.6002409285,0.688652313,0.5421690902,-0.0232483865,-0.3363585568,0.6062163378,-0.0195913609,0.9759624851,0.3908039846,-0.4687136085,0.2085055903,0.11222529,-0.378047966,0.8532705268,0.3001676976,-1.1329523738,-1.0435221491,-0.7173072794,0.4146088968,-0.7969308263,-0.3337376107,0.2012117038,-0.1007116853,-0.0103715721,0.9620741805,0.6728050399,-1.0376475486,0.216706781,0.7666614862,-0.4490777513,0.9299606492,-1.4536368552,-0.3700365498,-0.5010774949,-0.473614058,0.864753636,-0.0360394474,-0.6439421199,0.9821638418,0.7927773664,0.8278981035,0.1128933046,0.2896750414,-0.363088627,0.6682989896,-0.0783172653,0.0043283922,-0.1039637868,-0.341479818,0.1764339138,0.3524368244,-0.2692004638,0.6263007894,0.6088859163,1.0102627901,-0.2935241141,-0.8834967412,-0.8341485724,-0.0343512484,0.2999033374,-0.4891206577,0.4103571435,-0.4446924962,0.0271673332,-1.5526245291,0.3196709463,-0.91646407,-0.0961545834,-0.4483292496,0.6004330651,-0.3229976053,0.5815743272,-0.5434708876,0.0301997577,0.450382825,-0.8335190315,-0.5788794698,0.1131644959,0.1233397673,0.180040317,0.2481034896,-0.6363190153,-0.6767813149,-0.2040800591,-0.5525010217,0.1024617133,0.08984881,0.5866601088,-1.6629807958,3.0211160634,0.6903710213,-0.5560097835,-0.0319662728,-0.9213238602,-0.745891121,0.339535024,1.0341191319,-1.1162189541,0.6133194845,0.1429298772,0.5062202412,0.7992846648,-0.4724055685,-0.02251837,-0.1942130806,-0.0837071642,0.0236280269,-0.7762896739,-0.6529711721,0.2574439172,-0.4463854733,-0.9113153682,-0.6527289848,0.5738837891,0.7858726671,0.5307855586,0.3756075532,-0.0844986251,-0.1813256344,0.2507548188,-0.2210519567,0.5486891248,0.8737201349,-0.9997888775,0.556893214,0.8356257964,-0.5374623447,0.6888546658,-0.0960848844,0.2754900256,-0.3206288837,-0.8054711042,-0.2664081661,0.2455125331,-0.8822896857,0.8228167963,0.2988196986,0.429785069,0.1773473169,-1.364625877,-0.0495870258,0.1776183559,0.646010712,0.986944843,0.0992915038,-0.6688342528,0.3561933125,0.5391806325,0.7058674638,-0.1647386297,-0.2074667156,0.1656971786,0.3695084231,-0.1069194641,0.144081538,1.1205738528,-0.4111701474,0.6342297662,0.4574313573,-0.5505876366,0.1970110654,-0.8528230336,1.1388670646,1.3263743854,-0.1944816119,-0.3652057946,0.2711661306,0.8989058924,-0.7018198637,-0.1952274718,-0.8084676981,-1.5476750311,-0.0177116413,-0.6320147323,0.7627352859,0.06209864,-1.4138626862,0.7347993928,-0.7662982425,0.3741802881,0.2605069066,-0.7000908836,0.499986038,-0.2681467551,-0.9030050429,0.2609875316,-0.7744105134,0.1648089546,-0.5001150491,-0.2541614121,-1.275434679,0.9459652458,0.1212824416,0.3899224371,-0.7843845715,0.4711680621,-0.0120344914,-0.6525005211,0.0592147476,0.5149179418,0.8983933894,0.041240262,-0.2532978495,-0.8876715867,0.0581657189,-0.1926616134,1.1683818543,1.0186621671,5.2377016962,0.4841620589,-0.9070199345,-0.1920566682,0.0217807103,-0.1820528159,0.2243262254,0.7303168619,1.1491479283,0.5966213897,0.872392325,0.0120307231,-0.6015664129,-0.3817690511,-0.1201277156,0.7388176906,-0.4918531041,-0.6417835639,-0.1010125743,0.9927157236,-0.3767602061,0.5237855417,0.3881963683,-0.2982562165,0.1082176531,-0.4100252625,0.2007962985,-0.9588475605,-0.0302609176,-0.5041001626,-0.4103289334,1.1960900909,0.5247453454,-0.3765326454,0.2515578195,0.6010274193,-0.4734467379,-0.1419101167,-0.273465603,0.4796140279,0.8618260007,0.7540808753,0.5019446572,0.6785700873,-0.1288995495,0.7442198675,-1.0204263079,0.2584954198,-0.3270755243,0.9368752524,-0.8110298537,0.6336477699,0.6152722144,-1.0327441342,-1.0135801561,0.9221151028,-0.6158560338,-0.2570402039,-0.4706753021,-0.6158262135,1.2399898217,0.4766878851,1.9305613522,-0.421051401,-0.8291740082,-0.6532417314,0.8014046029,0.9320686675,-0.5492323813,0.1232353417,0.2509275623,-0.5516162202,0.9569846561,0.7247594466,-0.9221304749,0.1126086225,0.8263531604,0.7766975519,-0.7607092865,-0.6940959226,-0.3601484944,0.7833792858,1.6038352344,-0.0137313332,-0.8765284567,-0.0077146569,-0.3802605878,0.1859587477,-0.7893169718,-0.4588022542,-1.3007364923,-0.9841949301,-0.1575080052,-0.0045133926,-0.9697532154,0.0027296395,-0.8730338525,-0.2503407758,-0.8320402134,-0.4983499893,0.2059682013,-0.6106840417,0.0291850982,-0.4541993165,0.5269732106,0.3926412041,-0.6699906158,0.8377790329,0.7858405748,-0.7517849299,-0.900978432,-0.6373760711,0.2604428907,-0.6787465774,0.7484730385,-0.8839975678,-1.4419767606,0.7296278605,-0.7396612169,0.8254012924,0.1585098025,0.0853359541,0.2623518489,-1.3664853776,-1.4801382001,-0.2002754593,0.8362783018,0.6415284319,0.9279240436,0.7489745911,-0.92173059,0.5580844111,1.0363547071,0.6900970454,0.4404774067,-0.9175591691,-0.7377863776,-0.914602446,0.6045580088,0.8514926446,-1.0803547733,-0.4519155526,-0.3692019675,0.4910342472,-0.4066000715,-0.1852181629,0.0782351232,1.7188263211,-0.8631782088,0.0427619867,0.7109290085,-0.0079250313,-0.6261482711,-1.0082773652,-0.9421770989,-3.8158578025,-0.3894974309,-0.2864975178,-0.8327285532,-0.7290872089,0.0401602678,-2.1401031882,-0.310757642,1.8535548994,0.807221826,-1.0856540073,-0.7765297401,-0.8453333804,-0.3302204129,0.5577961095,0.7301709364,0.0245901671,-0.8006297983,-0.2487031456,0.0471444455,0.4088898077,-0.2075864514,-0.3908271731,0.7587535853,-0.7948238525,0.7592264669,-0.4616430315,0.0907426655,0.8276442444,0.4345474767,0.6908575246,-0.1611065341,-0.274930551,-0.934693004,0.7084298217,0.444199572,0.7746715946,-0.6353376289,0.970851534,-0.1721499095,0.2260569509,0.0013902025,-0.6363330698,-0.7653782748,1.3252089981,-0.2275345063,0.8844981018,0.310124544,-0.4806034303,-0.5028579002,-0.342718968,-0.70936875,-0.3836528625,-0.0070883275,-0.939629204,0.1478608536,-0.6584200855,-0.4343434205,-0.4349523729,0.4075244962,-0.2377522771,1.2142321068,0.6407154655,0.397800075,1.0535373317,-0.4435253927,0.5215285897,0.4240425972,0.2830598844,-0.9741453202,0.7016200265,1.3672245008,-0.8331245089,-1.0350389531,-0.7573894857,-0.4395437257,0.5199639989,-0.8541159134,-0.4194449756,0.9841421878,-0.1031788649,0.7488526295,0.4148899927,-0.0401479442,0.3966182335,0.4656115229,0.7449643677,0.0686118577,-0.7410515147,-0.402727535,-0.3544755879,-1.5439450828,0.7876861776,-0.2520944459,-0.8747411591,-0.2168394151,-0.3229401247,0.2665381529,0.3441542673,-0.0429013808,0.218330886,-0.5078849451,0.2272354072,-0.8016276987,1.0693344351,0.7829737404,-0.1636298147,-1.3153938366,-0.2479411619,-0.025138806,0.3271747529,0.5876027339,2.0334980786,0.7080685539,-0.5612776526,1.0599069257,-0.620324804,0.9610453083,-0.7273300296,0.5364994269,0.7165895127,-0.1419665116,0.113938165,-0.0922294686,-0.9038438352,-0.412422098,-1.3735794793,0.648500527,-0.0256037684,0.9254263378,0.9048704932,0.8282993932,-0.0209974129,0.5836327325,0.2883194675,0.7688233353,-0.2128708394,-0.2936722834,0.5144443559,0.3663343492,-0.7666804167,0.7010491566,-0.3774134827,-0.4397739532,0.0455644688,-0.0139138005,-0.1200844009,-2.0570861697,-0.4962732202,-0.0168374338,-0.5964362191,-0.2843878916,-0.6564980891,0.8359492207,0.7064797626,-0.6193085564,0.7451420474,1.2738136321,-0.9513237349,-0.2560305961,-0.5145701022,-0.210746452,0.614457986,1.3523627718,0.5427735865,0.122544253,-0.4983167789,0.4015012421,-0.9225608937,0.6595654409,1.8326113966,0.5838786359,0.854731874,0.7840125455,-1.1591829515,0.1825800985,0.992670844,-0.5366004838,0.2730446797,0.6329713848,-0.6041249774,-0.3088673716,0.2843897783,-0.5007226675,0.2065204384,-0.7880720828,0.4024976036,-0.3799027055,-0.2893616685,0.085723432,0.2586104724,0.6853916578,0.8596883185,0.1825193877,0.2931105924,-0.326986544,-0.257486469,0.7044711972,1.0304147285,0.403470877,-0.5154016851,1.0582376376,0.5981729583,0.6414377287,0.334278294,0.9420243346,0.6792378918,1.2645662905,0.6837419646,-1.7592721663,-0.9350752856,-0.118364938,-0.2752070103,0.4599599763,0.0080964448,-0.3632455063,-0.4456936595,0.4121366714,0.6346606162,-0.1158815622,-0.289028803,0.4253376795,0.4017656147,0.475783464,-0.7784767593,0.4719728256,0.1417793918,0.5807705848,0.1478725468,-1.0786370759,-0.5893084005,0.2763623639,0.0828221216,-0.6774483602,-0.9319093856,-0.6179964045,0.4344497804,0.8322339309,0.7711921053,0.0962736518,0.0727988326,-0.7179434506,-0.6761385901,0.269113881,-0.8909728356,0.6900842506,1.6278911101,1.0076354183,0.6481230878,-0.4243143535,0.4819025812,0.5765052109,-0.6007249461,-0.6691023498,-0.7057064702,-0.21929235,-0.8779262637,-0.1403727243,0.775387971,0.7287387242,-0.2802629789,-0.3459173402,0.3642324458,0.2025798386,-0.985299459,-0.8225294872,-0.8139907157,0.2583678236,0.2255792757,1.0281051917,-0.9737165831,0.1559113829,1.1643797577,0.5555356755,0.1753730597,-0.7355977184,0.2302647589,-0.9601503335,-0.6896965046,0.9006754391,-0.0003624816,0.7221231831,-0.1147278336,-0.0491027395,-0.4418625423,-0.5094912648,-0.5574189692,1.1014026372,-0.0721537504,0.1553669134,-0.6117117912,-0.4056438221,-1.0163015171,0.2812099674,0.2714491243,-0.9802355366,0.4027253288,-0.4227541402,0.0855244665,-0.2521311092,-0.6325422216,-0.4014632596,0.8386719768,-0.6805716624,0.3213169952,-0.2686398174,0.2633198586,-1.8277789705,-0.1726449957,-0.6158146385,-0.7963398531,0.7917180076,0.0631299261,0.7524660005,0.8336121926,0.3848735688,-0.7902299754,-0.7482138123,-0.4565094613,-0.7557004007,0.7483898006,0.641006182,-0.6163182879,-0.8669998134,0.0272583856,-0.6283825264,0.7546812492,0.3199807061,-1.2044686067,0.0714515489,-0.1852776084,-0.2681581459,0.5358107763,-0.6408247341,-0.0300021146,0.643451325,-0.1003674261,0.0539469766,-0.5025595178,0.0392341502,-0.6854755715,0.9889016859,-0.7724936334,-0.1570468258,0.0749358111,0.8436932049,0.3869696711,0.4947683645,0.7475252048,0.4602096141,0.7315053099,-0.3367343773,-0.4148436303,0.647777241,-0.3093089498,0.4136833182,-0.5502511742,-0.3495297304,0.7027670009,-1.0277858542,0.2307932099,-0.955482443,0.1593177028,-1.1255092308,-0.9551388851,-1.091434749,-0.4587920517,0.1527260243,-0.0934781134,0.3797201432,-0.5230545903,-0.1521187909,0.3797884482,-0.4099096483,0.0703226406,1.8802785584,-1.0523155343,0.6861045724,1.5895228048,0.7888656586,-0.8296290018,0.3716437009,0.5034466431,-1.0587761362,-0.3762146613,-1.0811560958,-1.3838951521,1.0502472757,-0.575954345,0.7870539527,0.8100550926,0.6805778473,-0.8048166295,-0.9605037182,-0.3008723685,-0.2516898273,-2.0020338553,-1.0577076138,0.1895343537,0.8671899142,-0.4527023365,0.3465093873,-0.9720774098,1.4830406921,-0.6094866896,0.0455656919,0.768826053,-0.6982369116,-0.3653843102,-0.7482484215,0.6035715494,-0.4810762428,0.3306979173,-1.2560175773,0.0686903498,0.3065595485,-0.9912853831,1.165961818,0.7543270561,-0.9585368744,-0.4897441752,-0.3243254261,-0.8677435744,0.3010963059,0.2267949207,-0.4750832073,2.2230363,-0.4747624468,0.2258333206,-1.5691731093,-1.2830649542,0.7264023848,0.5456002618,0.039830952,-0.9682615447,0.4478851046,0.5336957685,-0.0760120425,0.4636253301,0.3351271795,-0.3497198515
