encog,BasicNetwork,java,3.4.0,1,1571406715353
[BASIC]
[BASIC:PARAMS]
[BASIC:NETWORK]
beginTraining=0
connectionLimit=0
contextTargetOffset=0,0,0,0,0
contextTargetSize=0,0,0,0,0
endTraining=4
hasContext=f
inputCount=22
layerCounts=3,17,19,21,23
layerFeedCounts=3,16,18,20,22
layerContextCount=0,0,0,0,0
layerIndex=0,3,20,39,60
output=0,0,0,0,0,0,0,0,0,0,0,0,0,0,0,0,0,0,0,1,0,0,0,0,0,0,0,0,0,0,0,0,0,0,0,0,0,0,1,0,0,0,0,0,0,0,0,0,0,0,0,0,0,0,0,0,0,0,0,1,0,0,0,0,0,0,0,0,0,0,0,0,0,0,0,0,0,0,0,0,0,0,1
outputCount=3
weightIndex=0,51,355,733,1193
weights=-0.5272567348,1.7402206645,0.0468350387,0.3678646875,0.7245477845,0.2384548423,1.3144737793,1.0514502371,0.1037069261,0.6704460065,-1.4040631828,-0.0739844464,-0.0244065371,-0.4492895324,0.2123272029,1.193545721,1.0373306879,-0.0091174224,-0.3869425984,-0.9224760577,1.7106609542,0.968780344,0.009981047,-0.9237268155,-1.0088143042,0.7063869789,-0.8983081728,-0.6134527604,-0.9976572469,0.8439026367,-0.2959957112,-0.689018463,-0.437145371,0.2893720727,0.7692112112,-0.0379559118,0.7419194096,-0.032190184,0.0250017868,0.6872802908,-0.2619011803,-0.0050362198,0.9494356741,-0.0073502134,0.0227543853,0.3960130151,-0.8465762042,0.5585768972,0.7333816855,0.7975734803,0.0489670448,-0.0682162332,-0.9228356184,0.9788004459,0.4045345282,-0.717708399,0.1699136311,1.8871348494,0.69950342,-0.418532173,-0.7359981574,0.4836490707,0.5134780829,1.7868054834,-0.3388148964,0.4398854542,1.6711149266,0.6414123231,3.1630906729,-0.3221136931,-3.6939425411,-0.2599671577,-1.2460930577,-0.4405452413,-0.7654448165,-0.4881868049,-1.9805246912,1.184337896,0.0782885299,-2.5739414317,-1.4107300423,-1.0554529811,-0.2253090902,1.2005915018,-0.2536772572,-2.0761052566,2.8262555264,4.823816544,1.4093584666,1.2359358915,-3.138662755,-3.3019801926,0.6421893572,2.2653982529,-0.6953601891,-2.1261896816,1.2054487034,-0.7113167852,-0.1172283005,1.0526591742,1.9765862009,2.2473912891,-0.5246485613,-1.0644325572,-1.7606023811,0.8844674653,0.2892101905,-1.1510081017,0.7900841982,-0.5631048365,0.6381401266,1.0656099329,-0.0396569932,-0.4443278099,1.4952159597,0.5474156477,-1.0870025574,0.3049545263,-0.4703298944,-0.2130271635,0.0067830624,0.3138410495,-2.8096723131,0.0838686123,-0.5593001698,1.1948401723,-0.7119907155,-2.7248851978,0.6144212006,1.1415402145,-2.966823192,-1.5235876328,0.5863452728,-2.1934308972,0.2603133913,0.2183273967,-1.0556795236,1.4304356517,-0.2817738501,-1.2070303149,-0.6405171956,0.5787337936,1.4216851454,0.9716382429,-1.4654866244,-0.90770869,-0.271738705,-0.9343112969,0.4473797074,-0.5727779611,1.0266087915,0.6933057204,-0.2449760592,-0.9260396947,-0.6856757006,-0.1517904392,1.7038110746,0.7630828895,-0.8209417317,-1.0714012417,0.6035998902,0.9802428487,-0.0110582135,-0.2041198312,-1.0696998528,-0.4027396904,-0.8353979169,0.2181101291,0.2295671201,-0.2598841895,0.3723969828,-0.3927881734,-0.9669818099,0.573673002,-0.1811422808,0.3440994826,0.1673634806,0.2226155493,-0.5870010959,1.5210023926,0.8425613471,0.8846849431,1.0983141833,-0.6977759491,-0.720719597,-0.5646731963,-0.3896569368,-1.4463980768,0.8920613419,-2.014843793,-0.9445093586,0.5682289341,-0.3961363755,-0.5982652176,7.6431583541,0.4675277306,0.9775634735,1.1068458477,-0.5779604158,-4.1176521067,-0.1309077031,-10.7595918199,1.0458459542,0.324719437,1.1258419892,-1.0111126676,-1.1317199905,1.4728087682,0.0488179499,-0.8614721449,-0.6992956528,0.1132695483,0.0204543285,-0.1986456,1.1241498532,1.0917917474,-0.3244644507,-0.2604080776,0.5636596858,0.4843351197,0.3922758174,0.629680132,1.4453630547,-0.8647845168,65.1012560443,4.9820791367,5.8866032648,16.9799789152,19.3894679803,0.3458615665,1.4812852324,-2.2965598097,36.9067546069,-0.2137359691,1.1034916145,-1.5642203945,0.5444622338,-1.2599497041,10.6181451477,-3.4359009016,0.6656374819,-0.1206732125,0.6907619161,-0.2175022941,-1.5644194894,0.2050115293,-0.0694475385,-0.4276949475,1.2923978552,0.8087825556,-0.061584237,-0.5500034743,2.0382754444,-1.4187031963,-1.1202400362,-5.6663929691,2.1462214785,2.2486299745,3.5138096412,-0.4478035527,-0.5732978612,0.5994098028,-0.177018765,-0.3972386711,-1.2838789954,0.2591680464,1.0813396777,-0.8084327914,-0.0270986189,0.6320540329,-0.4118907255,-0.7169884109,-0.6559577233,0.4998212301,0.7822408441,1.2909571458,-0.3280946831,-0.7410159489,0.2991051705,0.1444745527,-0.1646894804,-0.859394609,-0.7760753665,0.2480462768,-0.1017981956,-0.8072133554,-0.038622519,-0.2354854199,-0.2433554731,-0.2800829104,-0.1090590368,-0.7546709572,-0.2536956867,0.3120176355,0.3160562691,0.3770653413,0.2037610133,0.4930098386,0.2529296685,-0.9378894291,0.1767865507,-1.0692913459,-0.0511732621,-1.8985514144,-0.2482672092,-0.1604488522,2.6590753941,0.5197643173,0.637291607,1.2578324877,1.4277556167,-0.6225766805,2.219299993,-0.370727333,0.5195174581,0.3109568622,0.4827961745,0.4116257873,-0.2314681889,-1.2486239099,-0.2116374599,1.9158603104,-0.204017641,-0.5139316678,-1.0116235358,-0.9852201528,-0.6677511066,-0.4333065385,-0.7972184969,0.3263830038,-0.6734599537,-0.0117507038,-0.6232195713,-0.5329126438,0.5241820578,0.4985975333,-1.0981967464,0.5396427857,0.6493906581,0.953133767,0.7945291941,-0.1385868216,-0.2040047379,-0.2048727558,-0.2490000326,-1.7829094491,-0.2398821179,-0.431729816,-0.1557551769,2.7941140098,0.1928018801,-2.6493717782,0.8577975467,-0.1174220131,0.6308360389,0.3628320015,0.6656070629,0.8528291315,0.0496989028,0.3496850219,0.9225345099,2.4674404857,-0.4031411169,-3.2994970274,-0.5166742177,-0.3640926884,-0.6594144538,-0.0275099016,-0.6861361863,0.0184035774,2.8702850514,1.0297842657,-1.3662343586,2.7377135631,1.5754935441,-1.7247881848,-0.1015607897,-6.1966882511,0.1787567668,0.9328706147,-0.4242870828,-7.7551259836,0.1744623015,-7.3033681838,3.8741348408,1.9337418624,-0.5543367943,-7.8661337746,0.3586708697,-0.7945637589,-0.7383730944,2.5463573269,-0.8648995459,-0.9469509865,-5.6528571083,3.8273956081,0.6448595031,1.3803594351,-0.7622004934,-0.5932105461,-0.6448473109,-0.2667126154,0.4120356489,-0.7731838981,-0.6950484642,-0.8528362064,-1.1687540444,-0.7358893417,0.1348157865,0.1684230423,0.346332041,-0.021679304,0.141257942,-0.6154474771,0.2546457972,1.318350063,0.6875955148,-0.8765328414,0.2130832888,0.2069347336,0.3357941045,-0.3321306463,1.0833552822,0.6157090694,0.0454527318,0.5792992532,-0.5278452996,-1.0971634092,0.2101736629,0.2715407173,-0.2715512986,0.948253243,-0.1096515178,-1.2922783156,-0.7519258978,0.4745261844,1.264462421,-0.6463191211,-0.7230343533,-0.1706724674,-0.1605930806,-0.5041897773,-0.2842049389,0.2617001978,1.5133673029,0.1563013319,0.1917204325,1.2998698419,-0.0059859355,-0.1882897606,-2.8072383437,-0.5814000866,-0.403596822,0.3672961914,-0.5099903391,-0.9872369169,0.6945438659,0.9395880074,-0.465711712,0.1599088464,1.3721068954,-0.2529616873,0.59464199,-0.9628728041,-0.7657771308,-1.0738140032,-0.5943140311,0.2806636501,0.5005240563,-0.4397054339,0.3918311428,0.0564047913,-0.4224031971,0.6208332886,-0.3159021282,0.5435438804,0.170562422,0.4947238082,0.3412640057,1.2705623346,-0.2335803003,2.1454608311,-0.7112221768,-0.1327669754,-0.1222916381,0.3139145511,5.0116252798,-1.8285071891,1.6146716884,-1.1032504573,0.286034246,0.823463531,-5.4566257141,0.5681805635,-0.104151411,3.5393610575,6.9559847976,0.5254557815,0.4433282491,-0.5176449699,3.4963353448,-0.9244272309,-0.122135129,1.8478604325,0.7728738739,0.3263357201,0.5146535167,0.4775780075,1.3949913803,0.4322446338,-0.8399945925,1.9769030539,-0.3003583765,0.5998636883,-0.8627756941,0.0380483005,0.2342969394,0.8322069098,1.1280897709,-0.9526883185,-1.8016719415,-1.460406996,-0.8119263836,-0.2836945964,-0.9387323223,0.5958421638,-0.5156468463,0.3110991653,0.5858946995,0.184643058,0.3607133515,-0.2160192752,0.1088300509,0.4983628786,-1.9301416854,-0.4730724465,0.0371181097,1.6142166978,0.1004441825,-0.8516828968,-0.0097374041,1.1929609672,1.13194318,0.07832535,1.2154010885,-0.4352069482,1.4631481032,-0.7637920982,0.3163542143,0.4518441872,-0.0654901559,-2.064566395,-2.1390978904,-0.6868718527,-0.3289802839,-1.8718083001,-1.2815080145,0.1591153344,-2.4388288302,1.0329836957,1.5401354816,-1.602468566,2.9632026667,-3.9448944433,-0.1471120753,1.0546184902,-0.0913334742,-0.7992467694,-0.3510292746,-1.0480587055,0.5323164441,0.6157179941,0.0397880582,-0.2883047625,0.9329459694,-0.5561382109,0.5189326559,0.8281370927,0.8390164461,-0.0100263488,-1.3012120746,0.3568671555,0.8421582961,-2.0985556661,-1.1466953051,-0.571170087,-0.9497346736,1.0384992672,0.9987084702,-0.5597775168,-1.095145002,0.4701728504,-0.470345644,-0.2155058145,-0.2207065167,-0.5150498878,-1.2474495052,-0.1400855083,-0.7902863164,0.05578344,4.0477495237,-2.2762091969,1.3368200624,0.4162575738,0.7192228611,-0.6970642668,-1.0301481504,-0.2062195618,1.85003335,-0.4012550465,-0.8754402247,0.0675578567,2.7308735845,-1.0833756934,0.5855018263,0.7301092527,0.8424045304,-0.7164853891,0.7440563283,0.5325325354,0.702087686,-1.4138357491,1.5303127793,-0.36319116,1.0149040284,-1.404009541,0.5057354109,-1.1367280227,0.9466872555,-0.086810914,-0.5819338989,0.5393130966,1.5347969469,0.7487960982,0.6132172015,-0.048207502,3.8621786776,0.3625569964,0.8503663515,0.8504733861,0.6466805353,-0.4570919844,-7.3334208671,0.7001636814,-0.2198314562,-0.0088085256,1.5001975069,1.1802487092,1.1203318127,0.2359641976,-0.3264143148,0.9110758911,-0.5928977714,-0.6153151668,-0.0661108252,0.713913521,0.3358639631,0.9019120554,-0.929150469,0.5733722532,0.6406231171,0.6759190343,-0.874604944,0.5061810813,1.8026786589,1.1420227317,-0.1167607962,-1.3464357719,-2.0091905598,-1.1076360795,1.1869642039,1.4853295403,-0.6520988935,0.6198788095,0.0974476663,0.5648675755,-0.7023337205,0.9242858267,1.0236295401,-0.420388101,-0.0225181448,-1.4275201427,-0.873003773,1.3500665266,0.7839671479,-1.7561456786,0.5520765081,-0.6295522035,0.6587570705,-1.5662841318,0.8438647762,-0.5844571775,-0.8381627787,0.4610723432,-0.4358810453,-0.4225665482,0.1430337859,-0.7614155267,-0.5665267201,1.3863674058,0.5109835275,0.74782876,0.5915723968,-0.7672360959,0.4416191543,-1.1200065651,-1.7461930537,-0.7840617677,-0.1388024757,-0.0310747021,-0.6777195502,-0.6676307722,0.6636039857,0.1422642398,0.2905972637,0.8306013956,1.7362335102,1.2406949825,-0.3823921252,1.2273561054,-0.2401947745,-0.2691231784,0.3167562763,1.1132512475,-0.7696877026,-0.7868500622,0.3188049138,1.0025059532,-0.0192387531,0.6557182849,0.8621462744,0.4061557106,-0.8796715241,0.2436665768,-7.6668282132,2.1135085798,-0.1219931717,-0.5463862407,0.5644855687,-0.8210791473,-0.7042142228,0.6943252184,-0.2221309206,0.2401674445,-0.1287124734,0.0647854787,-0.5887092751,-0.0721198082,0.1756415796,-0.1340380873,0.2485254487,0.1170453179,0.4267606933,0.668083296,-0.3573493869,-2.9852804383,-1.1704020651,-2.6828384378,18.0124946211,-0.2335717592,-0.8055385801,0.9311243944,-0.4651034007,0.1321854524,0.1463117836,0.5553158416,-0.8498323102,-0.1524050531,-0.3515265067,0.2904719682,1.0663726059,-0.2236902476,-0.3586694109,0.7291795814,-0.0791020741,-0.0467211411,0.7287903367,-0.6343321544,-0.0837093467,-0.8776782046,-4.6730909516,62.0514510421,0.4609272903,-0.7973493945,-0.9175011535,-0.1836062699,-0.4682653294,-0.5671269634,0.0904012031,-0.8431092248,0.3725817054,0.3230225496,-0.4849377488,-0.0794277304,0.8195644374,-0.5140366535,-0.4638525835,-0.4044884272,-0.0987810944,-0.9412513731,0.7465837448,-0.8873421325,0.9388310968,-6.7208492176,12.7625746847,0.968977339,0.6332375893,0.9486202528,0.911173816,0.8121465194,-0.9819354078,0.7815284172,-0.5197978491,-0.2487404761,-0.3042472325,0.8932302868,0.4484328047,-0.6711956505,-0.7273458289,0.0861766538,-0.3732767428,0.3416864326,-0.7271606016,0.9918729358,-0.6832112776,0.2317869144,0.0651174583,-0.0210674835,1.0409165509,0.1160350265,0.7345474147,1.6499528959,1.3699280648,0.6306643104,0.0339786685,1.1812883769,-0.1121779714,-0.2398388219,0.1527683436,0.0887204407,0.8443392177,-0.0794799499,0.6126829811,0.0416907927,0.3673188103,1.2635805386,1.1912024278,0.4228537999,-1.3276037569,34.4722214489,26.4715320831,-0.5782255864,-0.4188410135,0.7078065824,0.8515276379,-0.6608206796,0.7464442193,1.0896630458,0.8443360217,0.51672116,-0.157305708,-0.7607511269,-0.6404270158,-1.4286367253,-0.3727102983,-0.2629295541,0.3488320956,0.1886237076,-1.3829645589,-1.26627698,7.8309039326,0.6779909909,-6.0888223103,-9.768195946,-0.9211376841,-0.9551587001,1.229685083,-0.4733023269,-0.4688829596,-0.2978513943,0.7878181781,-1.0888045941,0.4846130578,0.0208543402,-0.0172051562,-0.2657419054,-0.1939466177,0.4898267116,0.894313279,0.6684363399,-1.2146770835,0.3934707327,-0.2541365073,2.2839444835,0.7208653081,-0.9611514839,0.6727525107,0.3622084699,-0.4382371568,0.30356493,-0.5942320221,-0.799267824,-0.8792575736,0.2696545382,-0.6283830385,0.4027425292,-1.3426588457,0.1806458562,-0.0059122757,-0.0975391094,-0.1713801113,1.3886283647,0.4554651334,0.7573029957,-0.0775670869,-1.0917964674,-0.4544458677,0.7331523641,-16.7707990968,119.6931572992,0.0635638232,-0.2083268674,-1.0563989458,0.2468333289,0.926994731,0.5700203502,0.4202501686,0.7137432301,0.893079818,1.6884426187,-1.0893314272,0.2326087915,-1.0941664722,-0.6877644863,3.0171635797,-0.2152410104,0.8936172567,0.6914797151,-0.6868077746,0.7274558169,1.0366425296,-0.1832290066,20.8006472911,0.0267740959,-0.7265042074,0.8108589319,-0.6581896041,-0.4634086441,0.1004816924,-0.5362733302,0.7223954607,0.8638572381,-0.3920386454,0.1312344377,-1.0109009999,0.9949302636,1.005682482,0.6403547308,1.0211225093,0.1619207137,0.5055269415,0.0855271728,-0.632411458,0.4126503532,-0.3719480448,-22.5617818011,-0.6375012829,0.5915452834,-0.1446653188,-0.5636119835,-0.1139965574,0.4242489618,0.520776635,-0.273533475,0.4670438767,0.6014246367,0.4111458658,0.8227233743,-0.7344885445,0.5072365419,-0.9521815161,0.7714981528,-0.8966828751,-0.6480507411,0.6230575807,0.1147044981,-0.6934846398,-16.1473527586,-11.7242165575,1.1613413264,1.1726194078,-0.544713378,-0.4033850394,-0.523515238,0.7007438448,0.445208939,0.5260653369,-0.3685450593,0.0590479493,-0.6279317197,0.9188831238,0.208226496,0.1190552687,0.8158209254,0.060632751,0.2237079637,-0.8844182486,0.9925964786,-3.5640945156,1.0162025482,0.0803916091,-0.811969117,1.0852015868,0.2223373703,1.2740286359,1.4559053052,-0.2135935527,1.0641740073,0.3626915486,0.8036355865,-0.0508415395,-0.2890202871,-0.4583254258,1.0233200323,1.1719698799,0.570857428,0.3403984902,1.2999050599,1.2251357588,0.6523076699,0.9973378291,1.0043557753,-0.4176114504,-0.2846568279,0.2408462587,-0.0835122004,0.6947411794,1.3501207878,-0.1552566312,-0.2803143581,0.6197706495,0.9019100275,0.9593450875,-0.0309318004,0.5748070592,1.0273908062,0.8099203953,1.0459084319,1.2111932741,-0.380802653,-0.3350490154,0.9222948432,0.2091975458,0.0322502593,0.6814675287,-0.0194943786,-3.5506116256,-3.337524132,-0.6358594801,-0.5898667441,-0.2939891835,-0.2704084574,-0.6567990665,0.502462348,1.3918852915,-0.6204316583,0.2043632652,0.041136484,-0.0937976074,0.0456347139,-0.0297360926,0.0079351585,0.3027226993,0.0847801549,0.6086940118,-0.5923658385,-0.5405142004,8.3107741909,0.5634101403,-0.1914017821,1.2419178576,0.0518090834,-0.1149143467,0.1063284864,-0.0393710183,-0.1956616912,0.5624940923,0.0049302326,-0.2646692455,-0.4224255037,-1.0530379705,0.0091539254,-0.5399936573,0.6327719719,0.0436632628,-0.9997737978,0.5524714723,-0.5152393129,0.6078659351,-0.3367572751,0.6957084076,-1.2977444218,-0.9883595034,-0.3211705163,-0.0265872221,-0.6153392094,0.043982141,-0.71508115,-0.4013116223,-0.3660936918,-0.825287097,-1.1087817913,0.1436190431,-0.810134732,0.3391579456,-0.2649682331,0.5047229575,-0.4934711129,-0.5265254794,-0.2185094787,-0.2454633266,0.3070906185,-1.2794758443,-1.2547602739,1.8600253284,-15.667747348,117.7111269091,0.5227239155,-0.2869396059,0.1587630301,0.0118993821,0.3900817799,0.0341216789,1.0733659809,0.9484928148,0.7172933154,0.6667947957,0.2843456381,-0.0543647274,-1.8951261101,-0.1580542167,-0.463330368,0.5148345409,0.7609125296,-0.4097441431,1.5475655963,-0.1396464985,0.2535968705,-12.5489977952,12.0755792091,-0.1847680112,0.0735025061,0.3473436256,-0.7518302184,0.4711757869,0.1115793544,-0.9320281941,-0.3136558889,-0.8313978583,0.6513784379,0.5398258984,-0.3170512513,-1.4652788448,0.3033570113,1.1987917404,0.105234448,-0.7783463709,-1.2443144972,0.3587636275,4.66975539,0.9014917651,0.1878812599,6.6619652754,0.6603433401,-0.1180902504,-0.1614563153,0.4939564734,-0.6531862586,0.0376613742,-0.0801160682,0.1522008313,-0.7788297058,-1.7371666674,-0.3153634729,1.3600691802,-1.5500155173,-0.8962358104,-2.5677812039,-1.5699353429,0.5971371757,-0.738528802,3.8171187539,4.6639109189
biasActivation=0,1,1,1,1
[BASIC:ACTIVATION]
"org.encog.engine.network.activation.ActivationTANH"
"org.encog.engine.network.activation.ActivationTANH"
"org.encog.engine.network.activation.ActivationTANH"
"org.encog.engine.network.activation.ActivationTANH"
"org.encog.engine.network.activation.ActivationLinear"
