encog,BasicNetwork,java,3.4.0,1,1571474172982
[BASIC]
[BASIC:PARAMS]
[BASIC:NETWORK]
beginTraining=0
connectionLimit=0
contextTargetOffset=0,0,0,0,0
contextTargetSize=0,0,0,0,0
endTraining=4
hasContext=f
inputCount=22
layerCounts=3,19,25,31,23
layerFeedCounts=3,18,24,30,22
layerContextCount=0,0,0,0,0
layerIndex=0,3,22,47,78
output=0,0,0,0,0,0,0,0,0,0,0,0,0,0,0,0,0,0,0,0,0,1,0,0,0,0,0,0,0,0,0,0,0,0,0,0,0,0,0,0,0,0,0,0,0,0,1,0,0,0,0,0,0,0,0,0,0,0,0,0,0,0,0,0,0,0,0,0,0,0,0,0,0,0,0,0,0,1,0,0,0,0,0,0,0,0,0,0,0,0,0,0,0,0,0,0,0,0,0,0,1
outputCount=3
weightIndex=0,57,507,1251,1941
weights=-0.4274131776,0.0067566658,0.0763282305,1.0111276348,0.6386313575,3.2595951205,-0.757302468,2.5418838002,9.6034139267,0.2080548131,0.0451248604,-0.0915691187,-0.3431793724,-0.1313600541,-0.1826929647,0.2967122541,0.1005913909,-0.5085584074,-0.1374410888,-0.8020295048,-0.0111276864,0.9609008312,2.948658506,-0.6947768134,0.1174235683,0.7298220494,-0.9437692738,0.0493650094,0.7033306008,-0.6738630916,-0.7817474448,-0.0647854173,0.8908965529,0.9255062523,0.8105265452,0.3858143584,-0.0160527646,0.3214667477,-1.0239781078,-0.289384774,0.0342671101,0.0066672711,-0.0883903507,-0.0334449357,-0.2004794988,-0.0526107778,-0.0119156776,0.6854751707,-0.6934771482,0.0128276366,1.1538012609,-1.0800868037,-0.3449387021,0.1870119728,-0.8046141222,-0.4792974669,0.0451334107,0.6894017347,-3.8757684607,-0.0740442586,-2.3427953648,-0.1331360433,1.8758308856,0.7910246566,-0.8515209411,-1.848897522,1.208473278,0.3575783174,0.2369001738,0.6277740856,-0.690142477,0.5765881371,-1.1312414207,-1.0335999154,1.5047498093,1.1256526498,1.0594570319,-0.4947841709,1.5374455354,0.3447589107,-1.3079996385,-0.5616085599,-0.2045023782,-0.1447163757,-0.4428758546,-0.3960089238,0.0151230421,-0.2014119434,-0.7648083711,0.4356355821,0.4110471585,-0.1610418684,-0.0383973394,-0.4316102716,0.1913874304,-0.2097590063,-0.4757012626,1.2161446702,0.0026633412,-0.6798800002,0.8686019873,0.3428042065,0.9313086355,-1.772864055,0.6656588771,-0.2535731967,-0.5233848857,1.5678135166,0.282317276,-0.1303919323,-0.3555826955,-0.1656822635,0.353886265,0.0025369485,0.976752095,0.6632779837,0.3386200829,0.1486891996,-0.9756245073,-0.4614114287,-0.3914357189,0.9804688246,0.053522431,-1.0106519701,0.904593587,0.6698758488,-0.1170615835,-0.8859011801,0.5604040267,0.1099484115,-1.0303296393,0.5693615206,0.56726152,2.6119855459,-0.3692774176,-3.6296924365,-6.5254203134,-1.528359513,-0.2552215691,0.0242209427,-1.4251050875,-5.3145400589,7.7795106187,-0.2132709668,-10.8493488747,0.3148887563,0.9279274932,0.5913502737,3.8250255974,1.0760928094,-3.6146619938,0.1516240266,0.7670763313,-4.1607242907,2.2788335284,-6.116330744,0.6802011023,0.6142951446,-1.6733610362,-3.2568687093,3.936753212,0.4679874168,-0.5619437648,1.436721761,3.2798762239,4.8073342916,-0.5274491782,-0.233729567,-1.1133340383,2.5546255986,0.7018473205,-4.4470722502,-0.4488377369,4.0969194863,4.0252184254,0.2107009475,2.6895594323,0.6637362917,-3.1409638531,-0.2717101365,-3.4420325537,-0.8384470707,-0.3971640061,0.1646929688,-0.6001319665,-0.0806993343,-0.6763323064,0.6646552294,0.0659160274,-0.7662156054,-0.1351087139,-0.1782446795,2.6159547602,-0.2158418917,-2.6648405883,0.1004342075,0.3763275222,-0.2598103493,0.6013615811,0.0870753582,1.0038337958,-0.3614195266,-1.009431129,-1.8066171758,0.7029413998,-1.4230284266,0.2111615175,-0.3104314253,-9.0775411464,4.6412401402,-2.177791989,-0.4586562747,-0.5883594165,1.6145601679,-1.6280353983,8.8333874374,-3.5184873362,-1.1830174475,-0.737398225,0.008995914,0.9593337872,0.0093070899,0.4032374187,-0.5633120608,0.9326002579,1.4391197385,-1.161083908,1.3078188179,0.4467310251,0.7218546121,-1.0861777777,-0.8259633037,0.3577833176,5.6786846676,-0.7884914138,31.214916847,-1.3944139672,-0.5913606821,0.3311383727,-0.7165429278,0.1884549986,-0.0103331235,0.6130140365,-0.7009130561,0.6413368236,0.5823868002,-0.8650525396,-0.197312535,-28.8016398209,0.2193774087,0.4681043308,0.9816189706,-0.8917948622,-0.9209971563,-0.6504953593,-0.8817647372,0.0642728326,0.7078747028,-0.4614671728,0.0649444409,0.056062859,1.2045240679,-0.4782450764,0.5001180563,0.7270879773,-0.4827436774,0.8612907791,-1.7610160131,-0.8482699369,2.6038324823,-0.0847193395,-0.8274250142,-0.1307272916,-0.9423262422,-0.2968321205,0.5080486182,-0.463750022,-0.8891292541,0.7125626095,-0.9405268051,1.5902520163,-0.904463407,-1.4836872177,-0.4146216587,0.0589508363,-0.3972063156,1.4769990222,0.315904686,0.0303820307,1.0975259822,-0.7413514493,-1.6739774189,0.8879149659,1.4863684761,0.2691364473,1.0512210028,-0.3798177744,-1.0721700679,-0.8341074701,-0.9341264975,-0.2647224127,0.9485338531,0.4822729168,0.0109458499,-0.4495494914,1.3359617159,-0.3498329663,0.3418637147,-0.394359281,0.3417059868,1.2969128449,0.6362183778,0.1205450317,-0.0112874741,-0.3949510948,-1.6926173448,0.1328022026,-0.1286747676,-0.760621097,-1.5365367349,0.3694406072,-0.5632858842,0.5767599201,-0.058138248,-0.4276332224,-0.1873224957,-0.5131882579,0.2918114732,-0.4841369764,-0.4789629521,-0.5488597268,-0.1859229054,0.1323456085,1.5570655784,-1.7966975964,-0.3235772062,-0.3458200764,0.4773247051,-0.6285309633,-0.4004495851,0.4201323159,-1.2940466067,1.7160241978,-0.635134481,0.6431158519,-0.1999590082,-0.4840335587,0.90408284,-0.4935602953,0.0845592684,1.9491998289,1.1820326781,0.9050859322,1.6223688829,0.1181976135,-2.4526868254,-0.6554291565,0.2333056297,0.9835040826,-0.8952211535,0.3737449806,0.2021646344,1.2107973049,0.4765067804,0.1233021704,0.4414346717,1.8961535485,0.0281471589,1.0009424938,-0.2819404983,1.2922981222,2.0962641372,-0.3356029235,-0.4374587841,1.0747309379,-0.39514085,0.2234379026,0.6249993045,2.0062370174,1.9440388869,0.1306860519,-0.4209698684,-0.5101471174,-0.1049023948,-0.2679160521,0.6368391006,0.0350627639,-0.4904477508,0.142151108,0.0755429721,-0.4961153674,-0.0766814381,0.6020287872,0.5146304834,-0.0120985042,0.1865941988,-0.1259993006,0.3918787135,0.1043397938,-0.2622493742,-0.5121052501,0.2682177933,0.436763461,-0.141782457,0.1044054678,0.4593359254,0.3328531674,0.7752097263,2.1748437541,-0.4299032653,2.0746805441,-0.0863069029,-0.8998714128,-0.5319725232,0.8191742024,0.4145708708,-0.5684852031,-0.7769002744,0.155949957,1.3594690434,0.5202103891,-0.4183800708,-1.0446859427,1.338194023,-0.5463269803,-0.206642711,0.9341123208,0.4070478284,1.020702444,-0.6034672711,0.1157097936,0.5468903721,-11.1473866604,3.1861994019,-0.5632458071,4.8480965198,-1.835016478,-0.2315884973,2.7595944914,0.2809911452,0.0316058052,-0.4311034979,0.3725936623,-3.2296646981,6.7072508355,0.9612804959,0.6405929956,-0.8000216292,-1.0150986744,-0.4180907957,0.1172802924,0.1191776032,1.3690687989,-6.3552922721,-0.9640261908,0.5245603299,-0.4575386753,1.7922829024,0.1141107369,-0.4015420492,-0.8172719071,-0.7792054619,0.4236553991,-0.5763909633,0.9758382524,1.4172662655,-0.3046346476,-0.0284074535,0.9471592261,1.2808877385,0.4309907564,-0.9187497319,1.2578330512,0.24983003,0.657828707,-0.4354568909,1.705860079,-0.8214736695,1.576708016,0.1960961798,0.7504548898,0.6419548146,1.3941854223,-3.1604262803,0.445049815,-8.8407717724,0.2783825189,-0.7502474909,3.2366255776,-2.7190152593,2.0563049625,2.2678245212,0.2399727391,1.1045395088,0.0494540461,0.2857091287,-2.2538456053,-3.1256115661,-6.7495520583,2.9181138729,-0.5803939313,-4.7135486078,3.4693704333,6.2917639947,-2.4338232553,0.9119594176,-1.3298765037,0.0429243761,1.0545653066,0.0738422723,0.7828965218,-0.2255933657,-0.2533198098,0.7250474015,0.7258703517,0.9074540282,-1.0332609488,-0.4838002487,0.0886221134,-0.0664712598,-1.0728892271,0.4280024747,-0.6444035106,-0.6341502723,-0.81496114,0.0740974777,0.4272170082,-0.0521266238,0.5174993467,-0.5786925897,0.2386453364,0.8999817417,-0.6761687548,-0.6884741895,-0.8281687036,-1.5533795078,0.3324683608,0.3834229516,0.792529679,-0.7020449643,0.1259509373,0.1231114634,-1.6515430889,0.4694102757,-0.4276119358,-0.6446090758,-1.806017619,0.6110668259,-1.461245991,0.2120886023,0.159807102,0.2634488275,0.7390854819,0.680827338,0.5801840849,-0.6272982724,-2.7092672094,0.2758066793,-0.3255135689,0.7829244469,-0.6236008029,-2.1858844561,-0.6300415925,-0.1208832399,-0.9840704347,-0.0430922791,-0.6309012889,3.12348507,-0.6383815747,-0.1531825305,-0.2337258249,-0.0117672893,0.6464423144,-0.437565109,0.4812710757,0.1239212567,0.13215144,0.9541955711,-0.9709717104,-1.9476776189,0.0892722303,0.3301257138,0.0423803566,-0.805784749,-0.7331478828,0.4177901545,-0.2176783859,1.5257619401,0.6578220777,-0.4995287654,0.5199645997,-1.0420212045,-3.7471798058,0.4864664331,-0.9154416066,0.6890171731,0.6333340988,-0.1804930972,-2.0318677273,-1.1091570626,-0.9702478642,0.1477708735,0.2742606954,-0.6147334662,1.5443653706,1.292708245,-0.7480968729,-0.4465978026,-0.3261265573,-0.3681093997,0.5532922073,-1.1527816222,-1.5839778926,-0.7908087705,-0.6918906745,0.9054602652,-1.1914962559,-0.0913280682,-2.0312586229,-0.3530319995,-0.1008040301,0.6398959439,-0.8157648764,-1.1074755687,0.3291091906,-0.3719993715,-0.0404054241,0.4002278933,0.8911656651,-0.9167671657,1.0603801016,-0.2102456939,-0.8332703807,-1.3114955945,-0.2768002897,0.5411250659,0.795848033,0.0637117959,2.9642992564,-0.6588256572,-0.5182494083,-0.2127974083,-3.6500973713,-4.8126285292,-0.9306500631,-0.4343701615,0.0105588878,-0.0965457814,0.579028662,2.4827094785,7.3490801086,0.401807978,0.0575406246,-0.2128400443,9.7556087019,0.3699268957,-3.3739596091,1.0332255853,-0.2669878816,-0.5488992738,2.1364594536,-0.207218547,0.1659471127,-0.6446870423,0.7317701416,0.8917896334,3.4210993202,-5.5564389253,0.7686305415,1.8380897643,0.1363095612,-0.1694381393,-1.6069198275,-1.4517693554,-0.2285239663,-1.4697371682,0.2918975857,-0.4614985483,-0.1540254307,1.1145137286,0.9093854993,2.1901371603,-4.2684785408,1.7234887556,-0.8699824959,-2.4205477944,7.2183530662,0.4867810947,1.3045410555,0.0126583531,-0.3953657666,-1.2361266696,0.113335345,-0.481391172,0.8777092188,0.9626606663,0.2878347823,-0.4450563871,0.143796663,-0.5831221503,0.6974254518,-0.0324756204,0.154123332,0.2856610996,-0.8844309375,0.2527844295,0.3322644454,-0.3709865726,-0.672961487,0.4666973896,-0.6265407843,-1.3603505347,0.8815749487,0.8007116462,-0.8524467951,-0.0884910798,-0.7817834875,0.0383708561,1.4849623599,-0.6059998898,-0.3676008119,0.0792181295,0.5867927782,0.5549043331,0.2567228562,0.677572235,-5.2816113365,-0.8491556501,0.8493683648,0.4712666854,0.3466073913,1.5392228815,1.169083843,0.1265152623,-5.0203334461,-1.2300694793,0.2460046947,0.5379386816,0.6472739996,0.9619642005,-1.0600952,-0.5070897174,-1.2022978178,-0.7440293012,0.6884079761,-2.9468209681,0.1666386623,1.3430916206,-0.5403581418,0.7667737901,0.2225133573,2.0269065085,3.0826725086,-1.9802412196,0.9597579585,-0.7526725377,0.5660376404,-0.5566559834,-0.5737092044,-1.0062672887,-0.854404258,0.2275383148,0.4675399802,0.5962285466,0.9623584592,0.474688604,1.0935172222,0.5646944525,0.3649764037,0.2592321401,-0.0544455896,0.5370500574,-0.8142815017,-0.1448756521,0.00227198,-0.8819286517,-0.5199996006,1.721832897,1.2042877579,-0.1905252961,0.3659378952,0.6811707896,-0.8028188412,1.0880598448,0.7996485009,0.7710603577,0.1585757104,0.5407236675,0.7088630483,-1.0159595434,-0.5654218966,0.8773818222,-0.5328764359,1.4251929244,-0.259646684,0.4582532764,0.3273270419,-0.0811925522,1.3482997198,0.8437248434,-0.7081430628,0.7735202806,0.645917422,1.4372429095,-1.0671533975,0.4919769202,-0.8462974425,-0.1838916401,0.187195051,1.3662120308,0.43886955,-0.1354218407,-0.6923878671,-0.2549441447,0.3870080775,-0.5123318768,-0.5596583774,-1.131502777,0.1533730842,-1.0123707039,0.3587473792,1.274272493,-0.8074760793,0.6019882635,4.6247689638,0.5674890602,0.5567816755,0.7211892767,0.6867567199,4.8775701037,0.4350377154,-0.5676712095,-0.7727588789,-0.0717320878,0.5034325129,0.5924856988,0.148180362,-0.1145746937,0.5340928811,0.0004195169,-1.1320586877,0.3445813698,0.6589209398,0.1333002103,0.774676676,-0.6920895588,0.2285699359,-0.0342323493,0.9355564257,0.5113448771,-0.2952050479,-0.2984406417,-0.4812685865,-0.0488275686,0.4873288655,0.8839791992,0.1001983865,0.1499443557,-1.5382780548,0.0036629649,0.5979223793,0.7120970514,-0.740220323,0.3865519955,0.7664306616,0.8195876568,0.9376817225,0.5433083941,1.6333843668,1.9855192227,0.0571944391,0.8583615161,-0.6716382736,-0.408696927,0.1184798151,-0.0396250609,-0.8580171895,0.5150677577,0.4393389308,-0.8990148384,-0.0716144957,0.4187092675,-0.9567443154,-0.2565272762,-0.0926091875,0.049919104,-1.986677413,-0.8903282641,-0.966641517,-0.1556522547,-0.0277784078,-1.4179523277,-0.479397495,0.4250650305,-0.1873201826,-0.717227514,-0.8589460715,0.8042310228,0.8082308589,-0.4359563911,-0.2565787251,-0.4168131008,0.1903868147,0.147765485,0.1420693962,-0.2390522371,-0.5931195911,0.6745578725,0.3796865912,0.7299197293,-0.495634418,1.1149427019,0.9968573514,0.3720892877,-1.8636669425,-0.8634924346,-0.6446218547,0.9114182355,0.103218699,-0.4039585262,0.2356474548,-10.2380170352,0.9041201998,-0.7354723984,-3.3657960773,0.833029121,-0.8271336703,-1.5698286256,3.8524613205,0.9404584903,-2.8027005109,-0.724233484,0.0779898789,-1.34429243,-3.1537704232,4.9951951066,0.0692469557,-0.4248041597,0.8102394644,1.591677429,-0.3886049863,-0.6360844012,-0.6846150132,0.1842197531,-0.3984978678,-1.5997633434,-0.1400121238,0.2703732427,2.6056351941,-0.2978840171,-1.7466502697,1.6360868029,1.9834918811,-1.8742967885,-0.6159055308,0.5999495441,0.5885868517,-0.223293434,0.4188681107,-1.3309338233,2.2505238801,-0.7997503778,-1.2781119932,-0.8669638538,0.4603994379,-0.8884937044,-1.3097458055,0.531648022,1.0679454051,1.0979101819,1.3795664119,-1.2971795636,-0.0010922568,0.175523952,0.8937980132,-0.1608826559,-0.0577574441,-0.3949738406,-0.5443911956,0.697761424,0.1445672672,0.6545044423,0.5417763012,-0.4476334419,0.1041616997,-0.6006383493,-1.8046672788,-0.6526125629,0.0469091818,0.3591777208,1.5061677036,0.5823576093,-0.8803676638,0.807980289,-0.0009961046,-0.6044939019,0.0771738135,0.6930003873,0.9157313981,-0.7822516401,0.3675137912,0.1094632961,0.7244778838,1.0917097332,0.5423188051,0.0778474389,1.0034309887,0.7004737257,-0.1264380025,-0.1135683276,1.636392983,0.5814847451,-0.9242762298,0.264897633,0.1472763101,0.4297872661,-0.5262179302,-0.7357849277,0.3866897837,1.0062942877,-0.2769583403,0.8309698126,0.0218756637,-0.0565724712,0.3701016891,-0.9941823175,-1.4094311379,-0.2105691066,-3.5121752315,0.7199929013,-0.6900534596,0.5509369374,0.7270082972,-0.6580763083,0.6513103736,0.132369952,0.0298461586,0.7386119041,-0.2925207121,-0.5498830568,-0.0675361606,-1.4855081121,0.9290322917,-0.3534480034,-2.444556302,-0.5958575836,-0.8015417759,-1.2356710592,0.9383469126,-1.046426495,-0.0233734167,1.0743269497,1.3824272449,-1.2714450045,-1.6544818981,-0.0574111629,-0.9799428964,0.7433872598,-0.5544367065,-0.8687607645,0.3581357868,0.1895326101,0.0273342402,-1.5593277834,-0.1307563525,0.9732932514,-0.4457630138,0.456401052,0.1630698562,-3.6520955131,-0.6411367465,0.7724556101,5.0261268904,-0.4044046575,0.1996314349,2.9114904305,0.4652383728,-0.0190902536,0.6895915806,0.2592656871,-0.6535226092,0.3147874408,-0.0427773307,-3.3020557113,-0.2226048284,-0.3265641153,0.2194496991,0.1871596767,-1.7479082795,-0.1789649196,0.5168320293,0.6445319784,-0.4838853643,-2.1085494076,-0.6469124213,-0.9022976643,-1.0370250946,-0.5582817382,-0.9848081404,0.3084698764,-1.9811811744,0.7614934794,0.0744841675,-1.7274530518,-2.3396949397,-0.3791290038,-5.1547559886,0.141780047,-1.8431073165,-0.3076947081,0.3357624098,-0.2152173605,0.5763600093,-0.1919557445,-3.4182764548,-3.0346007392,0.2022287811,0.1338336327,3.3220202903,0.2514821281,0.4444097182,3.8983627458,-1.2541273863,-0.6322108487,-0.5687132577,0.2157185913,0.5591638772,0.2462755514,-0.9351879711,-0.6721087384,-0.6120374416,-1.0907985028,-0.0670412173,-0.3035563678,1.0282407658,-0.2088173861,0.6548264711,0.4480610621,-0.4837942466,-0.4644960546,0.3571281129,0.393216813,-0.7074866183,0.4479500591,-0.0881263357,-1.0973131123,0.1105419003,-0.595531474,-0.0883967667,-0.8947856825,0.7527129516,-0.5243972731,-0.0782026311,0.0830743063,0.8139079611,0.7454540907,-1.5219523869,-0.9188775721,0.5443892439,-0.4285890104,0.0137894647,-0.3135829417,-1.1679338731,-0.1295296361,0.8057251992,-0.1702957465,0.061154981,0.8328058619,1.0190196508,0.5206511882,-0.0106197805,-0.3515070554,0.576615793,-1.274531996,0.3756476472,-0.1773979372,-0.6925787108,-0.9470679285,0.459351487,-0.6553845951,0.5634620121,-0.0538516874,0.1993675887,-0.797688084,0.836323467,-0.5942293328,0.4026461458,0.0399685961,0.5133307336,-0.1925198452,0.6515551024,0.5803474941,0.1124593957,0.2927638965,-0.4356770012,0.9144634431,1.8554743562,-0.6259738215,-0.7040935866,0.5509624674,-6.8694810665,-1.4845762845,-0.7744970023,-3.433175928,0.0006723538,0.9055255496,0.4957162205,3.0857820339,0.7457142928,0.3744673684,-0.3602520995,-0.8356638273,1.2212424572,2.5297691928,-1.8464036936,0.8021126329,0.6196422424,0.12954285,-1.5794378313,-0.6734313973,-0.4360312839,0.3063994205,-0.2311640761,-0.7290446473,-0.763121371,0.3721956692,0.9067532444,0.8975386445,-0.5326341583,-0.2460199914,-0.1219416155,0.8663397602,-1.8031445443,0.9475239755,0.8878876036,0.395828156,0.2333836225,0.3556981787,-0.7234836746,0.4388513831,-1.006111175,0.9476202382,-0.334847745,-0.1175805631,-0.5297787345,0.9570670975,-0.5827691801,-0.5170699169,-1.0124000389,0.8740105803,0.6493334224,0.2192560024,0.5378970156,0.7843362532,-0.2548017452,0.4445855321,-0.963845713,0.1698828356,-0.0344057419,-0.1945404407,-0.027186355,-0.6590861758,-0.4771784161,-0.6929772158,-0.2094135238,-0.76433173,-0.6620721353,0.0789551584,-0.3152008656,-0.9793098232,0.7480215852,0.5154561827,0.0738586776,0.7166230002,1.0673507297,0.2288497118,-0.2654495454,-0.6348554223,-0.5320635916,-0.5108150667,0.9427910733,0.2455639532,0.2616908197,0.6338686676,-0.5604156784,-0.0220664706,0.5452980654,-0.3383836693,0.1702810255,-0.4803958442,2.2472905767,0.7677276006,0.7677063734,-0.3407264355,0.6786274155,-1.2577223714,1.0131006477,-0.578529597,-6.7136819904,16.7471132475,-0.8448999699,1.1488872614,-0.4879902526,-0.2030640665,-0.2934064721,0.6202018439,-0.1726121749,-1.0044180911,-0.4648132047,0.5000568539,0.0438261385,-0.2991029009,0.312767274,0.3434520072,0.1516981757,-0.2745120947,0.3512678815,-0.7705435943,-0.9406233563,0.7808995982,-1.3729930264,-0.8704793576,-0.1495071295,-0.5242947935,-0.0272314419,-0.7258980371,-0.2372387869,0.4756282769,0.3885726249,-0.7708230624,0.224709564,0.3597585236,-0.450157827,-1.4951168646,-0.9624922976,-0.6903682368,0.4309207618,-0.4647415624,0.121471075,-0.8122340461,-0.4950728597,-0.461111776,-1.3226074618,0.1595174455,8.9011197726,13.5594781004,-0.2532857508,0.2549135097,-0.0795771037,0.4292354249,0.3401636605,0.4714874813,-0.7126367089,0.1829253649,-1.1699900843,1.0644406079,0.2322577516,0.2430883889,-0.6759715945,-0.132214446,-0.5548082583,-0.4627632482,-0.4456133387,-0.3471382247,-0.0495243789,-3.934291646,0.9844833823,28.7427860628,182.3654684533,2.2100115343,2.2881092176,0.688188145,0.8588423338,1.505709418,1.5166924511,0.0632389736,2.8545725404,-0.9990112301,-0.2632503729,1.0073832745,0.5540333623,0.574847384,0.1722956322,-0.4779216348,-0.7566066326,1.1152277442,0.9885330152,1.397668721,0.1532489009,-0.9457008177,-9.3062995439,0.2489002679,0.3611721373,0.3604742336,-0.9349679915,-0.460343399,0.2400964539,-0.069918149,-0.2962419466,0.3653044658,-0.9316009036,-1.0666546855,-0.8904202301,0.8323782056,0.4372883053,-0.5859930023,0.0591557451,0.7244397106,0.7934929677,0.7064659225,-0.2536283072,-0.9834817669,0.2480555352,-3.7419076153,-4.2770538092,0.1087513615,0.2573411543,0.1232129264,-1.0906832616,0.6698886515,0.0506412602,0.1852861189,0.0749836569,-0.6189349274,-0.30178412,-0.0280501947,-0.4230870235,-0.9723573514,-0.3563200803,0.706959669,0.2587874676,0.1228406064,1.4938388981,0.2621231341,0.4094744047,-0.1220106473,-4.4023578009,79.9987473937,0.2538526262,-0.865774288,-0.465768488,-0.3883704477,-0.629941577,-0.2376620202,-0.2002082261,-0.2359827137,-0.4266505981,-0.4475328975,-0.1735113505,-0.2041638462,0.6886608547,1.1936544765,-2.9448588177,-0.7779656498,0.5511683007,-1.1636363076,-0.0265966675,0.1600127625,-0.1090245184,0.2386724122,0.4576773504,0.9175415166,1.0063623646,-0.1792723978,-0.67076517,0.8082620846,0.9965222731,-0.7453001552,0.3656351046,0.6128669412,0.0747290141,0.5695597393,0.7878238056,0.0634575245,0.268127179,0.0116969181,0.3332187368,-0.7475360138,0.9266840793,0.3350646391,0.4276195326,-0.0705984281,-1.8911610115,5.304978714,-0.6594745119,0.5436797136,-0.3131206132,1.7777257708,-0.0958913305,1.3580731953,0.0036983736,-2.8801678686,-0.6218642038,0.0863646925,-0.5801019946,0.6354842171,0.7119865971,-0.0359661068,0.4233394767,-0.5543919531,-0.308779913,-0.419193859,1.1440560969,1.752701198,0.3782181177,11.1104127377,24.7649646172,0.3797227006,0.5894762745,-0.8780571297,0.4122500837,-0.0293743439,0.080898845,-0.5936141313,-0.6884643891,-0.5818658043,1.5111812157,-0.3874357422,0.815869867,0.646930915,-0.6061346907,-0.7090914162,0.4702206219,-0.4966015587,-0.3264479033,-0.5409604448,9.7096002039,0.7388736055,1.2587431275,7.1861126866,-0.1675152228,0.8096231864,-0.6995850616,-0.5150661874,0.6391508591,-0.0587417091,-0.8917945512,0.3360484123,-0.1412656577,-1.5861726151,0.0444934025,0.219636762,0.1591858192,0.0571843326,0.59084548,0.2144932131,-0.8680997455,-1.1858476042,-0.9015619808,0.1251888418,0.3622348066,-0.3303095395,0.3584699043,-0.2307210882,-0.0134501765,0.8649935759,0.2523101545,-0.3122805299,-0.3141188895,0.3998144296,0.7540722551,0.6003795318,0.8686031941,0.1698434186,0.7876454842,-0.284806176,0.2653047041,-0.2536417726,-0.4140256445,-0.4353277817,0.7591690872,0.7372340944,-0.6120638405,0.5489912358,-0.0856612378,-16.9531252404,-0.0841477427,-0.4255314494,0.8457112406,1.0180911591,0.7962660113,1.1386914736,-0.1104124519,1.3674993115,-0.5800278201,0.9098294643,-0.5353681405,0.5887768543,0.6765645984,-0.3749998182,-0.5198128163,0.4847044941,0.6564147877,0.8317315469,-0.4764704448,0.0294658131,-0.275644645,0.8520715341,0.0081213308,0.2948420083,1.0440496572,-0.3310474333,-0.3275404497,0.1676201664,0.0621458082,0.3204974543,0.9096948483,0.095523464,1.0403953503,0.6363706392,0.8054041393,1.1936096081,0.2043775509,0.9090040014,0.6549066018,0.803362272,0.8867878256,0.0469567693,0.2924392345,-0.8804292082,0.4338430228,-0.7648571644,-0.3092355858,-0.5620242729,-0.6357449142,0.5393477958,-0.9947245488,0.6956383507,-0.498984266,0.4444945658,-0.7798319273,-0.1840543329,-0.908477302,-0.914365228,0.3859507345,0.2051227309,0.7121612093,-0.7555430862,-0.2957856023,-0.339725018,0.3029963783,0.9591759776,0.1123377293,-7.8246166144,7.5445362178,-0.0178352969,-1.1631012973,-0.965851359,0.2573361177,0.3903632985,0.4265512974,0.623980834,1.1778017549,-0.743002979,3.0708507087,0.2419865213,0.7303645227,-0.2867772219,-0.4165284773,-1.1251945277,-0.459717525,-0.7607681245,0.7010836932,-0.7766416252,2.3590786979,-0.1482805672,5.7115962896,5.1739146568,1.5530265279,0.3953247398,0.7529165683,0.7632754439,-0.3498760545,0.7507749115,-0.6499080328,-0.6443413856,0.1083331214,-0.9847747799,1.0867480625,0.5824193125,-0.3926100827,-0.2087618973,0.4150027945,-0.1331811885,-0.0100276298,-0.422364189,0.0260236889,1.6616501442,0.0780439476,15.099443522,-36.7941732447,-0.23265943,-1.8279213091,-0.8426016538,-0.0009524299,0.469799288,0.2891991784,1.1662974652,0.121828264,-1.0944461656,-0.0839140078,0.5664020386,-0.8041739817,0.4737807946,-0.1756997489,-0.5585882947,-0.3287926809,0.3568787031,-0.8954168948,0.2139263387,-11.204180725,0.5947942668,3.4526042927,0.1181200764,0.6535601601,-0.4683782608,0.8834309943,-0.2573867567,0.568227576,-0.3830831466,0.8571750791,-0.4816896896,0.9424481298,0.5591127934,-0.6194703621,-0.4514546436,0.7795205027,0.2470436945,-0.0880372706,-0.0345706168,0.7073682666,-0.1114016652,1.0775549144,0.2687885552,1.0226000416,-0.4625707743,0.4064696197,1.0151295018,-0.3473083278,-0.2688081668,0.180653574,-0.2765896691,1.2041363353,-0.4106268725,-0.1255403961,0.0765018279,0.9349484744,0.9172960432,-0.9906992777,-0.3703183464,0.5739302975,0.047675519,-0.5293572699,0.9730867879,-0.1452054865,0.0138918613,1.1874948489,0.7409697786,-3.216967089,11.1754415066,-0.4192570379,0.9202548305,0.1414532922,2.0795700612,-0.6746137817,-0.5608158729,0.4898665109,0.2140933074,0.3717881967,-0.5103204294,0.4428587471,0.0937379994,-0.6862808151,0.3416395038,-0.3015413549,-0.6753717921,-0.1528279605,-0.5424394558,0.5215076056,-2.4495916214,-0.1666068087,0.1044722358,1.574796031,0.4447151023,0.6692627287,-1.0163355252,-0.0594874406,0.2269032439,0.4313862828,0.8470423676,0.831733053,-1.2571664419,0.2227735781,0.003922341,-0.2069426939,0.2873368486,0.0753244895,-1.0735461876,-0.2732294328,-0.4256576424,-0.3318789553,0.667881956,-0.3241682147,0.6044977358,-6.9597466696,-4.2505405769,0.6165125611,0.6285734038,0.9750274047,-0.2118981923,-0.0813267979,-0.4783956682,-0.4238975525,-0.0232451022,0.4420110119,0.5994448384,-0.6834577661,0.2608056494,-0.3841559385,-0.8264046447,0.3179931428,0.9645251821,0.6308160538,-0.7209851791,0.380361661,-0.439576585,-0.7264960921,-0.9763618155,-19.92957914,0.4183297057,0.035844138,-0.531676897,-0.843280609,-0.1296612438,0.6613646443,-1.028621599,0.2770081242,0.2763477618,-0.783042969,1.0294723428,0.4503217949,0.8920867705,-0.3625343053,0.5301547164,0.0267870345,-0.2187332319,-0.3308944183,0.3207926336,-0.5902175445,-0.8628972458,-0.2377525989,0.9617140748,0.354225735,-1.0528657701,-0.0809682308,-0.1378006532,-0.5924916506,-0.0222803962,0.4741015925,-1.0082164363,-1.1835169692,-0.9490376374,-0.1484050875,-0.7712698527,0.5973105951,0.2150289882,-0.7719874347,0.5928326855,0.285091763,0.5788834481,-0.8230954472,0.2378666859,-0.741567541,1.5315506454,57.5446195552,-0.9251419522,-1.4019727446,-0.9797559403,0.4184456258,-0.6297088216,0.4422764043,-0.9450061822,-0.4326418702,-0.086447016,0.5610307966,0.3594849096,-0.4798253644,-1.0143060498,-0.7841661092,0.0388208771,-0.391279255,0.2968769679,0.1181097862,1.2051350366,6.3839495567,0.4736387929,5.5513556677,-20.1609699127,-0.1499571879,0.4548176848,-0.4794160276,0.9338956124,0.8778768855,-0.6165335126,-0.2986040135,0.8247082026,0.1547048587,-0.3415234259,-0.1824624501,0.9361866507,-0.724893736,-0.5995172541,1.0799953657,-0.4095290733,0.0880756919,0.2750112526,-0.7837229321,-1.0046161044,-0.0297932254,-1.7766582283,11.1238290657,-1.2375561292,-0.2238228188,0.6440073462,0.0650937756,0.1595922223,-0.2757840871,-0.0445251645,1.0818543334,-0.2171294041,0.0093390774,0.2534978875,-1.2022125083,-0.7713329121,0.3944620812,0.9516348531,-0.4233560307,-0.394255026,0.4558146565,1.0269164013,-1.3767667252
biasActivation=0,1,1,1,1
[BASIC:ACTIVATION]
"org.encog.engine.network.activation.ActivationTANH"
"org.encog.engine.network.activation.ActivationTANH"
"org.encog.engine.network.activation.ActivationTANH"
"org.encog.engine.network.activation.ActivationTANH"
"org.encog.engine.network.activation.ActivationLinear"
