encog,BasicNetwork,java,3.4.0,1,1571654778845
[BASIC]
[BASIC:PARAMS]
[BASIC:NETWORK]
beginTraining=0
connectionLimit=0
contextTargetOffset=0,0,0,0,0
contextTargetSize=0,0,0,0,0
endTraining=4
hasContext=f
inputCount=22
layerCounts=3,31,51,71,23
layerFeedCounts=3,30,50,70,22
layerContextCount=0,0,0,0,0
layerIndex=0,3,34,85,156
output=0,0,0,0,0,0,0,0,0,0,0,0,0,0,0,0,0,0,0,0,0,0,0,0,0,0,0,0,0,0,0,0,0,1,0,0,0,0,0,0,0,0,0,0,0,0,0,0,0,0,0,0,0,0,0,0,0,0,0,0,0,0,0,0,0,0,0,0,0,0,0,0,0,0,0,0,0,0,0,0,0,0,0,0,1,0,0,0,0,0,0,0,0,0,0,0,0,0,0,0,0,0,0,0,0,0,0,0,0,0,0,0,0,0,0,0,0,0,0,0,0,0,0,0,0,0,0,0,0,0,0,0,0,0,0,0,0,0,0,0,0,0,0,0,0,0,0,0,0,0,0,0,0,0,0,1,0,0,0,0,0,0,0,0,0,0,0,0,0,0,0,0,0,0,0,0,0,0,1
outputCount=3
weightIndex=0,93,1623,5173,6783
weights=##0
##double#6783
   1.964090206,-0.8194082978,1.1014013209,0.4445940103,-1.243869485,0.5716755535,1.2508085811,0.1150401981,-0.1503958353,-0.1418693891,-0.9000760363,-0.3605847967,0.5051044165,0.2692236951,-0.5445964501,0.3629661677,0.4241974338,0.1262662764,0.4096121551,-0.2970085353,-0.9517442742,-0.5253008841,0.0478714377,-0.7308007904,0.5678973711,-0.2452525972,-0.2807782787,-0.1556824437,-0.3186697118,0.1064597377,-1.0659549145,-0.3133389181,-0.6123953116,-0.5400295626,-0.3368882897,0.564021081,0.9347316851,-0.3422779411,-0.2191948424,-0.368716617,-0.92724926,0.1089109325,-1.0188367514,-0.614952154,-0.0443623413,0.7864328744,0.2733559314,0.3386636422,-0.4663863565,0.3503626808,-0.3465443483,0.2566029356,0.4314183244,0.4313643832,-0.2600123419,0.5705664768,-0.2667420238,-0.7675230897,-0.9002820603,0.1919009581,0.5192792312,-0.9389621011,-0.0051210292,-0.493575379,0.9034362496,-0.0461509226,0.0771036889,-0.0049591954,0.6192567539,-0.1616488625,0.4441577997,0.5928861457,-0.6104900682,-0.8765731662,-0.1751637021,-0.5726232391,-0.4456960441,-0.7581134382,-0.111226916,-0.3212777538,-0.0481725196,0.129937322,0.0232364308,-0.6286332135,-0.6883895828,0.2082111688,-0.0828894873,0.3629711007,-1.0900201214,-0.1266781131,-0.2792769457,-0.1845196938,-0.5606675562,0.1043031599,-1.3489512856,-1.6604756345,-0.3642448106,-0.6764969013,0.6841491021,-0.1806259433,0.6482078353,-0.6285609945,-0.4382506699,-0.5347723465,0.5778880984,0.6989492127,0.3651824654,-0.6649926535,-0.1245058815,-0.5932434073,-0.2503562418,0.4349506749,-1.1273830454,-0.2788074125,0.0425117255,-0.0398766252,-0.6516207365,0.2263184667,-2.5172802022,-0.8158576695,-0.6991663063,-0.0004887947,-0.2608577725,-0.9835360548,0.6116668646,-0.7271261163,-0.1640764533,0.0672627713,0.9300655501,0.23270246,-0.674992053,1.0517391872,-0.1191378698,1.3716405514,0.735216247,-0.6606059736,-0.4395318135,1.1918771852,0.9785153292,0.8551926213,-0.9788074193,0.4581347018,-1.0498783483,-0.582735422,0.9018224815,-0.586320985,-0.1327330469,-0.0024562786,-1.0223391899,0.2048064674,-0.0187409963,-0.2958063827,-0.7554904288,-0.460819119,0.5826504723,-0.0891211461,-0.598636842,-0.2519808795,0.6009466722,0.0458891671,-0.1825457684,-0.1905639145,-0.8386041296,-0.5006284897,0.2088030331,-0.050760082,0.5069382825,-0.8935813802,-0.3280301886,-0.1896276411,0.4369252587,0.5295353699,-0.4025634587,0.1086448126,-0.3686313691,-0.3612026861,-0.303141137,0.6484948531,-0.4787303025,0.6327587752,0.2458681214,0.8109287928,-0.8901096136,-0.6633596556,0.1525941354,-0.6675832918,0.5459977238,0.1033157101,0.3446737757,0.4401614412,-0.1460812316,-1.0848566785,0.3870911525,0.7252179258,0.9644190349,0.5818062048,1.7440582235,-0.4431895212,0.485687928,-0.0750692725,-0.2132562013,-0.0468778791,-1.1354028961,0.6524995575,-0.180752531,0.5948250057,1.5886937407,0.7687298778,-0.6123238239,-0.7019480413,0.9911127178,-1.070501978,-0.7497663346,0.1041157143,-1.3944491057,-0.3861429553,-0.8070614851,-0.6942486929,0.3801288662,0.8877198633,0.9177337344,-0.3172806303,0.6051344931,-1.6666453726,0.0606072743,-0.4065287274,-0.6101406061,-0.8881450715,0.6818340257,0.3296739801,0.3221729026,-0.6290108454,0.1993075486,-0.3057208649,0.1358028957,0.1526736545,-0.1833192218,-0.7677264171,0.492724739,-0.1819892749,-0.4309453915,-0.1414836127,-0.8376917941,-0.446617325,-0.5317167658,-0.9492514052,-0.482937245,-1.5064113945,0.5905266256,-0.2435542868,2.8630350683,0.0225002774,-0.6482285107,0.0329737293,1.1744354251,0.7514668378,-0.8825338707,-0.1546844459,-0.4969546339,-0.6750474209,-0.2965364475,0.9485547994,1.2883596979,0.9053910645,0.4891661641,-0.0368132808,-0.4626133892,-0.2360229872,0.0076832856,-0.3016517165,1.220468262,1.1057455819,0.6538191245,0.1386896273,1.2770516153,-0.6469881918,-0.7717940464,-0.5970797765,-0.8247044619,0.7603278146,-0.2581500829,0.257166823,-0.5349252833,0.4218534279,0.0404122187,-0.9318544478,1.8606234857,0.2181641251,-1.1259426691,0.2803886356,0.083907329,-0.4831507751,-0.0337154931,0.4604086408,0.145787047,0.1402400848,0.5189838542,-1.643583791,1.4523363388,2.5281880705,-0.7629508059,-1.3964964132,-3.3267915411,0.5349907543,-0.027494187,0.3648617797,-0.46880294,-0.6068532769,-0.2538737629,-0.0359179472,-1.2439099034,-3.2457309999,-0.7882165868,-0.8001873519,-6.4851000971,0.4395013964,-0.7493473771,-1.4625518236,-4.0981058276,-2.9299081934,-0.0809735489,0.445576608,-6.1037952353,0.6476778246,-0.2000277145,-0.4372607792,0.6852271226,1.4196921487,-0.7798719828,0.0788009241,-0.660332854,0.4792703142,-0.5276384142,-1.3236161059,4.7769153764,0.4563341679,1.0580301112,-0.9735736706,0.3083225793,0.0829916339,0.0195118214,-5.107049219,-0.4673813021,-0.7934593306,-3.9120887189,1.033594846,1.773478382,-1.5314994222,-1.151122056,2.0045550673,2.3495947536,0.8052374025,0.7348623059,-0.9408170353,0.1803687234,-0.7331209317,1.2042087143,-0.8651643191,0.6291656862,1.0521231786,-0.4343682771,0.2242943921,-0.0986361982,-0.503500485,1.1200639232,-0.9617010528,-0.3437470739,0.1077014097,-0.2192344781,-0.5423115282,-0.3879203145,0.7209714159,-1.4263933719,3.717409577,0.5558495348,-0.4205504469,-0.0241598375,-0.1272770881,1.3310092142,0.1184864023,-0.3414859354,-0.2034058219,-0.8186053767,-1.0900095525,-0.7726867018,1.1447073204,-0.3515110863,0.8818634136,-2.0328844305,0.452802018,1.0735887906,-0.3961568752,-1.8672567673,-0.4413759962,-0.5285728039,1.1899666351,-0.6791175316,0.486281141,0.367603983,0.4339756366,-1.053011242,0.7850204174,-0.9715423414,-0.8559870318,-0.2943203018,1.5548826749,-0.8978331959,-0.1840885178,0.9524814403,0.6471749812,-0.2361742793,-1.250358225,0.2787651587,0.84219452,-0.0039986862,0.4461788527,-0.0438273957,0.7596176051,0.968944761,-0.5216943833,0.9308197325,0.071576592,0.4703809927,0.6246059445,-0.3218643927,0.0393638236,-1.0450521533,0.6327504558,-0.483138672,0.1937342531,0.3691697045,0.2702426153,-0.153551856,0.2094455729,-0.1028560133,-0.6853804333,0.2306916233,-0.9018369095,0.0689297456,0.5028623852,0.5109004659,-0.8926153385,-0.6505545211,0.4376579931,0.254499634,-0.3611043564,0.6003764698,-0.2519241009,0.4788608786,-0.7827918665,0.8683164822,0.842000724,-0.8407157404,-3.0889066521,0.2295666518,0.5116680297,-2.3053465269,-2.8878238211,-0.4849067724,-0.5259052699,-2.3545715768,0.3495123865,1.167850436,-1.1186146418,3.4748396029,0.3337078111,-1.0609142068,4.1210231424,-1.4659612954,0.8980421891,-0.0683482193,-0.4395268566,2.309297467,-0.6733873478,0.5276214458,0.1928090752,-0.0425075105,0.7463244575,1.2908905181,-0.6585792002,-0.9346972411,-0.6581233271,1.6475077144,-0.9763625438,1.4066927094,-0.6913526249,0.1380495283,0.4393980815,0.3825285397,-3.1739004108,0.0235825641,-0.7819340648,-0.9983698768,-0.1076339581,-0.3021385008,0.5010704141,0.2588932072,0.1309412027,0.6227027269,1.4872532423,1.4958976211,-1.0128008675,-0.1640506797,1.0696732928,0.8434193654,0.3253241159,-0.553088263,0.3995385342,-0.6772829863,0.7180962303,-0.4213484768,-0.1555854007,-0.2072384066,0.7730233854,-1.3473882957,0.9536391588,0.0862543346,1.0026379335,-0.7281112649,0.6586455052,0.5950801252,0.0304302325,-0.0749598683,-0.0433441378,0.194901687,0.6488392115,-0.3000104598,0.7945798063,-0.4019281132,-0.4673678899,-0.7859809475,-0.0070740537,0.0560644608,0.2425154182,0.332911977,-0.2397165043,2.0415557849,-0.4990641793,0.3097443984,-0.5855236863,1.1203837611,0.7125183719,-0.6394714433,-0.0130624799,0.1118542806,-0.5634862567,-0.4506395557,-0.7711402571,-0.123256662,0.1346563119,0.306595577,-0.2934564734,0.0811449983,0.1349959,0.3115922585,0.4798060421,-2.1251487549,0.5853150198,-1.4029541295,0.4638450306,0.745185373,-0.1833797288,0.6791202874,-0.999313211,-0.0082096246,1.0908039618,0.6412698719,-0.4456022435,0.6237677381,-0.4862640678,-0.1549557048,-0.9042150411,0.5785248739,-0.1242726016,0.9818051021,-0.3726110865,0.7919753347,0.4009746438,-0.7600407155,0.0079765422,1.4155541565,-0.4934843547,-0.1625873677,-0.3908979201,0.7307657577,-0.0055461231,-0.7360264713,-0.567493704,-0.644925957,-0.1351138929,1.1624988606,0.7191720956,0.126876248,-0.393249827,0.4176253674,-0.2517625285,-0.0139854627,-0.8857940186,0.8342836325,0.102646175,-0.9308187801,0.5788943785,0.2379901104,-0.2644829015,0.7940909037,-0.2757056486,0.0756594727,0.0662177152,-0.1646335001,0.502899153,0.2717470434,0.7488493666,0.2703050335,0.677147137,0.0696470498,0.3049352154,-0.8037985112,0.5137452697,0.0380553029,-1.3124367027,0.2488603782,-0.1386633271,0.6028325909,0.7833934579,0.5142540524,-0.0437587606,-0.7678508605,-1.2092869469,-0.022387219,-0.8610590518,-0.2091983964,0.1030117481,-0.9760166637,-0.1511925993,-0.7457285268,-0.2976428008,-0.6696519974,-0.6296013465,-0.3118188787,0.4819614119,0.1740206221,-1.2669923394,-0.0584987609,0.5099853024,-0.2499534632,-0.2192871164,-0.3515517431,-0.2007937571,-0.521711865,0.9421718792,0.4626997297,0.2459979873,-0.217269477,0.5671162648,-0.6278534067,-0.1120153015,0.4618319839,-0.0539323472,1.1284509344,-0.7597991787,-0.2738210534,-0.6617912292,-0.5177744145,0.5945122249,-0.3714213686,-0.332846711,-0.082683481,-0.7531003359,0.9586972117,0.3671835932,0.7473687324,-0.4905927657,0.4667640265,-0.7769738722,-0.4733652374,0.7293076932,-0.0249096902,-0.0899632209,0.7254679025,0.0624570454,0.0691176107,-0.3301629111,0.6300669868,0.015824589,-0.1639951969,0.3430955175,-0.8130147572,-0.30976185,0.9620560938,0.883416754,-0.8228240543,-0.4588637771,-0.847860057,0.4292885559,-0.4386710115,-0.8899769414,0.8348282055,-0.7507703045,-0.8759382842,-0.337194684,-0.4498760955,0.57180201,0.8023031522,0.6316897065,-0.0657647845,-0.567315384,0.9327009365,0.1299128573,-0.3974091867,0.4962133911,0.1998273478,0.8484806733,1.3224659993,1.8056647022,-0.49262016,-0.5416434226,0.8555146123,-1.2307503448,-0.6304692704,-0.9425741909,-0.2540488639,1.0204972314,-1.1579942563,0.7337141136,0.3915616616,0.6945695385,1.6784544182,0.8304042846,-0.4725054734,-0.13378296,0.1764695878,-0.8695738829,0.9343818819,-0.9603772954,-0.3194935672,0.4063936726,0.4034729286,-0.8993592373,0.6618026609,-0.2981164141,0.4627941572,-0.1437509964,-0.5540623912,0.0557153619,-0.5790903169,-0.3075593786,-1.9545586916,0.5717593013,-0.722667724,-0.5038696724,-0.2809615751,-0.8519299418,1.7147459674,0.7758910508,-0.3556066507,-0.8492783957,1.0567465748,1.4930876047,-0.1906281389,-1.0949506907,-0.9866162711,0.8728291032,0.6725830022,-0.0112417861,0.5394614469,0.6629255275,-0.8051068002,-0.7787812513,-0.8290953187,0.1395799924,-0.3818470178,0.0852225268,-1.0271612356,-0.0247841051,0.7685062309,0.7469252866,-0.334985813,0.500371611,0.7876023143,-0.6350571701,0.5549763265,-0.973608185,-0.190581654,0.3271673706,0.1452366671,0.0319426632,1.2383317058,-0.6683382906,0.5574848119,-3.0659148539,0.7179018903,1.0953544001,0.6844116653,-1.3345933602,-1.1041837667,-0.1305466638,0.4416719049,-0.67849657,-0.808096006,0.2367562032,-1.0064777629,1.0630730862,0.4418601897,-0.3380175209,-1.003970124,-0.2911157268,1.297829606,-0.9982459455,0.9116773487,1.0750055269,0.8493328222,-0.0025511555,-0.7142954226,-0.0458419666,0.00861266,0.3338106713,-0.2604261382,-0.3687639999,-1.0023268339,0.5956360718,0.4936387656,0.5752207659,-0.7278261573,-1.0106499056,-0.3730860037,-0.0728563873,0.4927893458,-1.2044990093,-0.413650991,-0.6950911901,0.1106134082,-0.9830703229,-1.0232750631,0.944153662,-0.1045506782,0.1193010732,0.2922191438,2.0165223973,0.5786463954,-0.8138592368,-0.0440419352,0.324522872,0.7914103596,0.9036059613,1.0596941131,-0.2277137799,0.6102865956,-0.1153559036,-0.3025262195,-0.4199531144,-0.3971423717,-1.1168005584,0.2201198976,0.2012862132,-1.6506619186,-0.6308970954,-0.2935997054,-0.0173208449,0.9412547205,-0.3630479009,-0.4866396146,-1.0752633551,-1.4561477482,0.6069441783,-0.6419178058,0.2410426826,0.7919804378,-0.8035886504,0.1021208754,-0.0410100813,-0.3142854454,0.244614181,1.2787242001,0.7029308717,0.9924683702,0.0089476869,0.3881554201,-0.7204996904,-0.4033736118,-0.0253443974,0.4723817141,-0.8477268911,0.0633771907,0.4945831809,-0.0398522868,-0.027707675,0.8832475894,-0.7005956593,-0.3189332791,-0.4679778881,-0.5750298435,-0.5141330414,-0.7301746326,-1.0675038465,0.1071707696,-0.7813871688,0.9370626014,-0.6342635799,0.1303436337,-0.2009449579,-0.4198381303,0.8291002468,-0.531207913,1.4164411814,-0.9281017107,-0.6594196354,0.2505877318,0.5011627044,-0.3118340699,-0.6154002726,0.9596465553,-0.1860186091,0.0506899486,-0.3891429175,-0.127509024,0.7793753005,-0.2562133912,0.5833567608,-0.828699638,-0.0464966865,0.0937990035,1.0848667096,0.7169672514,-0.1520093738,0.4033159299,-0.4214084668,-0.6883204411,0.2837806893,-0.4758206709,-0.2285300216,-0.4233156142,0.6808783129,0.5193163554,-0.2536448729,-0.265281409,-0.5766271925,-1.4784129145,0.6638180303,0.8433893716,0.681800793,-0.1728877431,-0.4847427455,1.3319444124,-0.1435076418,-0.6133553173,0.75716322,-0.6360101681,0.6061144872,1.1477394888,-0.3120390127,-0.9542600562,0.1579147772,-0.8367192197,0.9022890184,-0.5477465369,-1.1131809754,0.2139977525,0.5453169143,-0.6198733309,-0.7852193827,0.1267249173,0.3366157522,0.3876901553,0.4505228868,-1.0323429929,-0.4205485124,1.2449882132,-0.1687297307,-0.8224010809,0.6130341506,-0.8640303653,-0.2978549625,-0.2713208965,-0.5223533976,0.7338451522,0.6975097145,1.112349508,0.5955787378,0.4663104271,-0.4348012799,-0.2666608796,-1.0220410683,-0.0854182924,-0.5130835479,-0.4532372543,-0.8461827631,1.0347228335,-0.5362563693,-0.4125306487,0.4268077418,1.5635698753,1.2293887722,-0.803737601,0.1499658159,0.7638308144,-0.2639525197,0.3080316376,1.5120053101,0.2297009091,-0.4170804288,-0.4725431271,0.5623976337,-0.6700075223,-0.1147431077,-0.6597491435,-0.470586854,-0.8490056563,-0.2282558471,0.2844920724,0.0969111058,-0.272515888,0.2030997392,-0.4319394995,-1.8263634734,-0.3085984599,-0.0085790439,1.03896238,-1.0468408328,-0.2889563656,1.3886695125,0.1692090612,-1.1284422601,-1.1137390728,-0.8798971301,-0.6088752235,0.2335401336,0.6798801428,-0.8840620433,0.6570322369,-0.9034829757,-0.0221876248,-0.2145963056,-0.1286067506,0.4364400072,-0.4293953463,0.7410686692,-0.848790103,0.2763894825,-0.069517604,-1.4951833359,0.2078085378,-0.6165273014,-0.1612006393,0.4585682085,0.4535312488,0.5761948714,-1.0916295766,-0.6966919362,-0.5232306103,0.8008070128,0.2163687851,0.0422489368,0.2281089436,-0.7995652306,0.7092351764,-0.0030968859,0.4509958387,1.297361472,-0.0537277145,-1.1183510066,-1.1564509302,-0.4993061837,-0.1368617275,0.8014243752,-0.1505056818,0.8972552794,-0.3389594311,-0.688121653,-0.129818997,1.102947971,-0.5853165991,0.4606744344,-0.425997805,0.1731303936,0.5230545542,1.2643381491,0.0004263616,-0.9426997739,-0.8362724691,-0.1144002277,-0.1313426044,-0.1516141522,-0.827626865,-0.499295297,-0.6291066383,-0.5924834105,0.9111337195,0.3904359143,0.2214872009,0.6466303271,-1.0655713918,-0.7185670241,0.7097399752,-0.0247013993,0.5520578262,-0.0384333689,0.6344863418,0.0271496329,-0.3475515531,-0.5687551706,0.0803330806,-0.679768968,-0.1296453452,0.176057705,0.2484410876,-0.6355218087,-0.0012169494,-0.2111535225,-0.7782323425,-0.0245209446,0.4614282055,-0.7142228708,0.4059831644,0.4366409345,-0.1716725822,-0.851054435,0.2070077235,-0.8040874672,-0.7337936896,-0.5531249303,2.748983389,-1.7378202281,-0.120730796,0.3942508958,-8.8523233558,0.593294145,-9.6376564029,0.0958028388,-0.9188780643,0.9338218339,0.2149079256,-0.3385649304,-3.8570412368,-0.4620987474,0.4706063792,-0.0718253095,-0.767339234,-0.4484874957,0.7790356085,0.1462244603,5.987380484,0.7000881451,-0.0684720931,2.4046487676,0.3548905689,0.6966783,-0.9136471617,-0.1852720398,-1.4107193571,0.5621825536,0.8322654803,-0.4531549498,-0.0335740163,-0.0335996564,-0.8425851557,-0.4367236598,-6.3939971021,1.8045083056,-0.2292360292,-1.1281892665,0.4876947311,-0.2280341591,0.4946217495,0.8914313807,0.7129690944,-1.1132215019,0.1072304321,-0.5679038683,-0.9012879507,-0.3657684356,-0.8990226273,0.3478509965,-0.172468981,-0.929122448,-0.5804745847,-0.0983026699,0.8002075992,-0.7280494322,-1.1709312792,0.7385515864,-0.2584707885,0.198843679,0.9797789956,-1.1725625582,-0.0429269394,0.4575685175,-0.6723813257,-0.0082343732,0.476003407,0.8293499333,-0.5754985148,-0.7988032601,1.3198961945,-0.4191457013,-0.6744351708,0.5818513655,-0.9283807565,1.9272202888,-1.1408022715,-0.3950018739,-0.3322976625,0.7156277965,0.2676484484,-0.4608540903,-0.8825780343,-0.2559219474,0.8466849048,-0.4243726886,-0.7374447434,0.1587244516,-0.8821057801,-0.0995122508,-0.9723505286,0.3488926708,-0.6263488403,-0.8392430795,-0.1076153154,-0.9747041051,0.0263789985,-0.3795474209,0.5968725319,0.1134012289,0.2196784138,-0.4720821825,-0.6911818207,0.3502922766,0.1037118242,-0.4825492571,0.4905099836,0.6772726516,0.3190696214,-0.3343028939,-0.6414306511,-0.6421645585,0.2569774567,0.4402312297,-0.4672689397,-0.3488736463,-0.5350837106,0.5318932925,0.025405124,-0.0382310804,-0.047514987,-0.0709132727,-0.8951779146,-0.2337482297,-0.430260474,0.5600817308,-0.1266764176,-0.3058583952,-0.8566688106,-0.0778167725,-0.6847149202,-0.3620896563,-0.4407557269,0.8480513735,-1.5705901028,-0.703312192,0.5329774769,0.5997446703,-0.2739200856,0.7332638035,0.276006378,-0.0629210552,-0.2121524504,0.4130249312,-0.704119539,-0.7750053295,-0.7142168501,-0.4551538114,0.3137339863,0.9305691667,0.3777777981,0.1745316422,-0.3335632598,0.103025679,-1.2359457455,-0.5349218368,0.3829351539,0.0494846568,-0.6467329202,1.4057466006,0.3984937088,-0.6339707735,0.3092235384,-0.4937641042,-0.0489316632,0.4065781048,-0.1687114012,2.2641963791,-0.4362642621,-0.252790738,0.6981264007,-0.004351795,1.0475942851,1.0311183663,-0.3912064031,0.6446646533,-0.2227112232,-0.2857061782,1.0828664853,-0.4230262514,0.7692226273,-0.8013764953,-0.0109246695,0.9826733121,0.4825377807,0.0209347501,0.9594973468,0.3376473145,0.2800837291,0.6265705872,-1.0315087323,-0.0413840128,-0.1805078246,-0.4079779525,-0.0966569759,0.8671016967,0.1217379617,0.7220885797,-0.2383881206,0.6829019835,-0.5392627889,0.7628996799,-0.8689899344,-0.8512865732,0.3806065142,0.3891315279,-0.51160414,-0.4241150504,-0.7319259911,-0.1485176337,0.691279564,-0.5952237349,0.4322066349,0.3959017647,0.2416500801,-0.7279277835,1.2978430003,0.3002495625,-0.2916068202,-0.929449244,-0.5489635423,-0.5024338443,1.2072675381,-0.5709240655,-0.3277719745,-0.512344274,0.1052778268,0.6690128007,-0.1026857788,-0.3075689195,-0.3244715068,0.9835972178,-1.8730365837,-0.4115757901,0.3349687422,-0.4050417734,-0.1990398834,-1.0848877503,-0.3109254022,0.579780273,0.5302613642,-0.5266040924,0.0767021505,-0.5581130807,-0.4938567308,-0.5184826248,0.6389428023,0.0144045766,0.1919766013,-0.2514834033,0.398659429,0.5386566596,-0.4157990572,-0.1138386211,1.749360561,0.0366042975,0.2414222678,-0.5918723937,0.1613530557,0.1359752673,-0.1259275281,0.455568867,-1.3522136621,-0.1899023476,0.7162636865,0.6522878555,-0.0796501737,-0.2656105904,-0.1841808079,-1.2249653604,-0.2038816075,0.2166312335,-0.0895240109,0.2040189788,0.0281262233,-0.5966861241,-0.8494439313,-0.9224628926,-0.5375316516,-0.6773988144,-0.2075066909,-0.8586798378,1.0505610927,0.2066621318,-0.9509789996,0.2588991522,-0.0966960456,-1.0754575062,-0.6903346382,-0.5156987886,-0.0661933217,0.5895089353,1.1839400856,-0.3115680706,-0.3672584236,-0.3402827374,1.3225267317,-1.2560088877,-0.5717249532,0.6962685999,-0.065904485,-0.3805672059,0.9005191893,-0.2116556614,0.4394401965,-0.1835974376,-1.5379202017,-0.0465798104,0.9679421482,0.7848790805,-0.7136887676,0.2813181262,-1.1469833177,0.3483248382,1.4459069055,-0.4638515483,-0.9055279898,0.2414625884,-0.2185118096,-1.1876225569,0.6155288937,-0.8747049427,0.3196866171,0.2284880917,0.4277406761,0.0749924058,-0.3984570491,0.2012460961,1.0482837278,-0.1115636818,1.233886886,0.2000802784,-0.7034263522,-0.7366753475,-0.0227415892,0.0230132624,0.3183062739,-0.7858020895,0.741897255,0.2474250002,-0.2365959529,0.6011266294,-0.7563508056,-0.244212632,0.2437382549,0.8306821441,0.4352464674,-0.7780633213,0.2367386175,0.6435277277,-0.0180940718,0.2639622929,1.8692968897,0.9694533257,2.2283587041,0.2386604724,-0.0087259039,0.1592962874,-1.221755834,-0.3020471226,-0.8115223906,-0.5099353786,-0.5616365692,-0.6118649619,-1.5813451295,1.5144079327,0.5217907413,-0.8393521082,0.9069513436,-0.7872841867,-0.8248018457,-0.3529496088,-0.6808947024,2.4166567455,1.0529840183,-0.3581629844,0.0810646366,0.4362222531,0.3114642333,0.1759041695,-0.0640326966,0.0589042734,0.2029458982,1.5594175061,-0.6262139371,-1.3869467264,0.4815926584,-0.3166698393,0.0685550106,0.1089160502,0.5797378372,-0.4528807863,-0.799195597,0.7615594047,-0.2500901392,0.205444592,0.9811835781,0.2295621003,0.1409592348,-0.8764142478,0.9164452151,-0.7046574882,-0.1449048041,-1.9906494573,0.5517393016,0.834304291,0.3004804868,0.9901749951,-0.1538463842,-1.1567460791,-0.0381220839,0.6707188002,0.516896859,0.2779723335,0.0502302706,-0.4637547332,-0.2493334022,-0.6656990362,0.8135174711,0.3609090092,-0.4115802993,0.4341390011,0.7031889178,-0.5579476578,0.0054929364,0.0661309992,0.2779874805,0.3010862038,0.7558415206,0.332526644,-0.6824989722,0.3884156462,0.261280998,-0.032246261,-0.0993490721,0.2910657788,0.8242362405,-0.5995251912,0.0635900059,-0.0970329292,0.8581480977,0.760709943,-0.3314576723,-0.0302289701,-0.5327852863,0.5016948099,0.7949716494,-0.4436406311,0.1335730717,-0.8583128064,1.0974378422,-0.8200742902,0.7427456788,0.2323667061,-0.8687151268,-0.1911712306,0.899653884,-0.2952661197,0.9837771091,0.5767375442,-0.2603133143,1.9958040211,-0.3662153701,-0.7850079748,0.0270018755,-0.6085296007,0.2404736247,0.270089454,0.8496762536,0.1477250014,0.2323795833,0.230065991,-0.7207016179,0.4393505352,-0.6804443936,-0.6474713944,0.7530132105,1.1932299158,0.3312557701,0.5442115657,1.3752108129,-0.3792834525,0.2495060816,-0.7914112206,0.3929471603,-0.5615603991,0.9113524139,0.0260467036,0.8137783938,-0.1796094264,0.9549169721,-0.1678168395,-1.0033559074,0.2056950959,0.2673704045,-0.3800226577,0.8365531132,0.0522805727,-0.8402660232,0.4066336133,-0.5995307967,0.4335998278,-0.1575877711,-0.8034422196,0.7791893021,0.2401542235,-0.667159665,-0.4195102118,0.6952672328,-0.5336099059,0.3217265466,-0.2246271944,-0.4523916788,0.9408178979,0.5878223892,-0.1105052145,-0.5269273771,0.6653054845,-0.2812505049,-0.8943492971,1.2189153521,0.4925167657,0.8220677569,-0.9365486942,-0.125151641,0.2793014847,-0.9870622765,0.2372253789,0.8358528467,1.5600341349,0.6170779918,0.1451509723,-0.3581512896,-0.7143348139,0.4483163508,-1.1307811609,0.129642589,-0.0237565652,-0.70497638,-0.4305109777,-0.5786382341,0.8582069911,-0.0841145829,-0.246252057,0.8225581648,-0.6898497492,-0.0995042141,0.2875693137,-0.0115290462,-0.8090901106,0.9371899685,-1.2557191974,0.4381127223,-0.2585321299,-0.5919750241,0.9221490078,0.9398268231,-0.030438936,-0.3321448556,-0.1757314859,-0.5643767628,-0.3696902797,1.3827594199,0.2274065588,0.5007973115,-0.7733519707,0.4927254274,0.4653629005,0.6592712298,0.8924355169,0.5749016382,-0.3427644285,0.5969388148,-0.9809955257,-0.3400903538,-0.4421228299,0.1072275269,-0.7741137229,1.1412959762,-1.8351887666,0.0743940424,0.1775714256,-0.8464162049,-0.1112245302,0.2794863831,1.6611470643,-0.7577132721,0.1511210814,-0.5316502363,0.9513002421,-0.7322112337,0.715948142,0.5595737509,1.0118011713,-0.8211692589,-0.6917529399,-0.3969069606,-0.808672079,1.0014144688,-0.0522595435,0.091856864,0.3623354438,-0.6636419805,-2.3309010432,-0.4970895411,0.976274595,0.4329402806,-0.6311811067,-0.8701505125,0.8049838881,0.7453506196,1.4359694223,0.1054270493,1.5210277558,0.0208941595,0.5395525175,-0.3267411311,1.4388684917,1.9888970752,-0.8268369193,-0.5855513162,0.8712945375,-0.6862626102,-0.9061516342,-0.2579850199,-0.1242863819,-0.7741305933,2.7022956494,0.5845358564,0.8249294631,-0.2813923008,0.3588132466,-0.3317299582,0.1415053513,0.6448757026,0.9612637755,-0.8340536917,-0.5090677771,-0.0314124136,2.1613585727,-0.1514492289,-0.6597716094,-0.7276199099,0.7412208826,-0.5850266128,0.7897822818,-1.0585750128,0.138013479,0.074033891,-1.7861332373,0.231801597,0.1301246447,0.1580542363,0.2033197404,1.0047129,0.7458144445,0.021909374,0.6171064166,-0.2290486356,-0.6159784445,-0.3197718869,0.8572805171,-0.2386706321,0.2401608843,0.6494639225,-0.8263321579,0.8043028672,0.3975660817,-0.707381841,-0.9253664712,-0.4455826827,0.40345056,-0.6163539649,-0.5418234428,0.9777492179,-0.5334046305,-0.9784434547,-0.9295896365,0.7528345721,0.7828144954,-2.4774331146,-0.6136983103,-0.9295983549,-0.826250664,0.5197916338,0.6180725692,-0.5154200727,0.3941115707,0.6538972618,3.5040824463,0.260887813,-1.2396323469,0.9014157298,-0.5840786934,-0.1057743036,-0.3803620399,0.7309126926,-0.8897154832,-0.9118409771,0.5878367596,0.6586859528,0.8984612868,-0.019690709,-0.8171401443,0.1145865642,-0.7053504661,1.055899391,0.6286160632,-0.891754668,0.8162771572,-0.5444925777,0.4558894404,-0.7019208654,-0.125283177,-0.6656315062,-0.8765807492,-0.7787863389,-0.9550392144,-0.8556482308,0.9890617061,0.0002696724,-0.1354333015,0.8969059921,-0.6535662247,0.9827050828,-0.2973296028,0.2220957627,0.57613084,-0.3840138712,-1.709754186,0.7664383131,0.3353885197,0.371190993,0.8048466286,0.0483547182,0.3315995903,0.5247095375,0.9026932868,0.0498658964,-1.0048483831,-0.0126568549,0.856252662,-0.5079514364,1.9873889182,-0.7804789322,-0.458677459,0.00169115,-0.2452824416,0.6540698183,0.3736207522,-0.2650889449,-0.2067546731,0.6098508872,0.3891695927,-0.8978662707,0.0856374599,0.117734838,0.398843334,-0.8188343471,0.272700543,-1.2887925571,-0.0061563488,-0.8457748561,-0.155737972,-0.1423399891,-0.7547996692,0.6367218033,-0.7241972516,-0.6782714689,0.9886151227,0.0917813581,-0.5898302966,0.0311461291,0.1767577402,0.7484427411,0.3255454832,0.3415334062,-0.478727863,1.0647174838,1.0303239651,0.0062917565,-0.7584310437,-1.118749398,0.0579726655,-0.3203305362,-0.2057089736,1.1291033403,-0.2239449025,0.0313795974,0.1535848403,-0.9230105515,-2.1494350695,0.3160629739,-0.5269121288,0.6364045357,-0.2992661244,0.2608406707,0.7512543137,-0.1685226328,-0.5450773981,-1.2783343344,0.1771353817,0.472777686,0.317401319,0.3956293303,-0.9884031638,-0.5886453092,-0.6429642652,0.4238550329,0.1768829538,-0.0385687738,2.1465716993,-0.4682318067,-0.7990954066,-0.4303115436,-0.5439119643,-0.6700190229,-0.6732768608,0.4860949696,-0.1523221053,-0.0280125434,-0.582391819,-1.9627525627,-0.9482252355,0.2168712585,-0.0853972544,0.0000573966,1.9970956734,-0.4394692956,1.1099970333,-0.9198443574,-0.0796411058,-0.3377506216,1.1216240815,-1.2507133726,0.8695428857,0.4401848608,1.1284621093,-0.2716334648,-0.7860325163,-0.5742392759,-0.3414173597,0.1778404422,0.6520223815,1.0677524925,-0.3670084364,0.7689525163,-0.5530538233,0.4264803168,-0.1058847352,-0.1665994464,0.4337961169,-0.0232584383,-1.3697916229,-1.0500984649,0.1521194479,-0.778348696,-0.90145362,-1.0364734333,0.2629783904,0.0784997135,0.4258317783,-0.1723765721,2.3892538674,1.4919475189,-0.2123592438,0.2527044383,0.6836302486,1.2483857001,-1.5664211019,-0.0932551978,0.1930726286,0.515007817,-0.7123921426,-0.8641190232,0.6419850946,-1.3924238292,0.4886835426,-1.1318841065,-0.3245227086,0.5176503763,-0.4069891572,-0.0668249561,0.1617691736,0.217404569,0.2604049519,-0.2894041951,3.6501437796,-0.916928909,-0.7168327466,0.2885946277,0.5566574153,0.8706355834,0.8138527578,0.7738795091,-1.7303350693,-0.6668629878,-1.3405099675,-0.6261535194,0.43537145,-0.5122452666,2.364938764,-0.0826928401,0.1895738241,0.5931421694,-0.60367043,-0.7585828961,-0.5612943099,0.411603328,0.8768655397,-0.1316912299,2.9813145813,0.2608139481,0.4556704506,0.2238871408,-0.0459353953,-1.3615516131,0.2785984914,0.7858356088,-0.7488742609,-0.72148315,0.1698477696,0.302035549,3.708291679,0.0849922074,-0.3984792724
   0.2064930323,1.0524584442,0.1747751228,0.8986762895,0.0346144806,-0.5448454268,0.445628599,-0.5501757346,0.7000048168,-1.0619565553,-0.5587749424,-1.1426993153,0.1425237675,-0.6657843376,-1.2339037069,0.0643367643,0.2006617963,-0.4007178949,-0.3150536995,-0.7132956611,-0.7537174345,0.2138362439,-0.0811600505,1.0769152279,0.033702658,0.6472664291,0.7241472676,-0.0356609136,0.2887082817,-0.5271589394,-8.499947622,0.3680284111,-0.3024453763,0.6324269745,-0.9653263523,-0.5767741699,-0.2542602186,-1.9794722799,-1.263059659,0.9502207965,2.1129765754,0.312156944,-0.4518448961,1.497702874,0.8104618757,-0.8162250524,-0.8255971048,-1.2284535417,-0.5904631077,0.9633338389,1.0104845663,0.5557457344,0.8595709025,-1.8156699142,0.5002283852,-1.1372561734,0.8779563626,-0.1452514136,0.5245480941,-0.6954844509,-0.8849485766,-1.0578920212,-0.8726980765,-0.5647809681,-0.124008241,-0.2368638647,1.2933855574,-0.862053152,-0.5317130004,-7.5620802002,0.3537998404,0.613699437,0.3368329477,-0.0247720582,-0.0796226512,-0.3308252192,0.255223108,0.3695010844,-1.1149242059,0.3252345931,-0.0265965831,-0.608694323,0.9319864127,0.8727373703,-1.0398741903,-0.8739707461,0.7588412356,0.2019448223,-0.4428471639,0.4432188078,-0.3557548964,-0.3011047357,-0.1077565338,-0.2601304851,0.5388691482,0.3776158487,-0.1367734091,0.5213743155,-0.0599773904,-0.0303308251,-0.4546898472,-1.1313277434,-0.6896315639,-1.0473214645,0.8793007129,0.9642283018,0.4120830632,0.4114844148,0.3252989294,-0.6607491536,-0.8830421983,0.0669131831,0.5191875923,0.4281318246,0.6580139743,-0.2384234996,-0.4254701762,-1.1164361349,0.183923342,-0.6769837016,1.9244589233,-0.5340919668,0.7848249036,0.9930148516,-1.5841417908,0.987589203,0.7961891738,0.1624642463,-0.8601009701,-0.6170058822,-0.1566057315,-0.7276913338,-0.2254568301,0.6872099383,0.1976151517,-0.9031719364,-0.7678364363,-0.8500766759,-0.6125059769,0.7446133109,-0.845762801,0.2091000013,0.0051646393,0.1810842258,-0.7636537135,-0.591180679,-0.4249039516,-1.031428541,-0.0039661714,0.7690827528,0.0267115737,-0.089985525,-0.2989117992,0.6961773419,-0.092262832,0.9799804251,0.5250922983,0.3343857239,0.3086203677,0.8626389306,-0.4207480245,0.4937226534,0.6577337804,0.530414786,0.2626485521,0.0002777334,0.7346788427,0.7521434892,0.2787996556,-0.5996655836,-0.6815879508,0.6869184742,0.7543075274,0.1234048158,0.2718684648,-0.8204653418,1.0884394562,0.2062990195,-0.5020233472,0.850590683,-0.8009616278,0.3246656794,1.3045099317,-0.1491622354,-0.6088613608,0.8949603837,-0.3559405738,0.2660378439,0.845816691,0.5738276617,0.0826652339,-1.0342138142,-0.3308972141,0.2547081417,0.4653014807,1.384039633,0.8372336705,-0.7792938197,0.8584101533,-1.0404381988,0.5140119413,0.1121070189,0.6675881079,0.1005300252,-0.2045740815,-0.1309537275,-0.4547838714,-0.267136154,-0.2798131667,0.1517424391,0.00094344,0.0574345899,0.0785224096,0.397980285,-0.2180567913,0.3402759713,-0.8705941035,-0.2467314363,-0.1959013907,1.065900652,0.4476688372,0.6533560855,-0.6452495447,-0.8401291841,0.6485583964,0.965806488,0.9198629092,-0.3501686393,-1.1503627269,0.0956571885,0.5770481475,0.5417180756,0.7045859756,0.1999465978,-0.2353965186,0.4298722541,0.5253720926,-0.9119014696,-0.2244627823,0.5726471298,-0.1799707312,0.0263213695,-0.1894018783,-0.1043277269,-0.5332401295,-0.5722399148,-1.2233594942,-1.0563100474,-0.4277681652,-0.4249128086,0.2998590836,0.0202390662,0.595458587,-0.8455910889,0.8712452601,-1.2843217945,-0.2443552456,-0.748241374,-0.3322124704,-0.9221310968,0.1787020532,0.8763986897,0.502343861,-0.7474096702,0.1739663819,-0.2616040858,0.6654999596,-0.8414526238,0.3516368931,0.6874761257,0.6201589544,0.6317771632,-0.2121304534,-0.4512859419,0.5752427823,0.7365383574,-1.2773365986,-0.1064968241,-0.8277015043,-0.2662570469,0.9149323024,0.1006020715,-0.0863779134,1.3852406053,0.7582909426,-0.9374279648,0.3613011891,0.0197377911,0.9677786019,0.2587558738,-0.6950556063,2.2878809662,0.626747769,0.7496014677,0.4994026824,0.7426740337,1.3022295304,-0.360885831,-0.6401366563,1.0546241072,-0.2573428239,-0.3746161504,0.8611145784,0.8880526479,0.5911591672,0.5915702913,-0.8114861848,-0.1738539456,0.1557928915,0.2127261523,-0.3181734952,-1.1392587323,-0.5550559234,0.4374170493,0.2055304636,-0.8024586287,0.8806094527,0.1602911372,-0.7173743343,-0.4280764454,0.2980725487,-0.4418235786,1.3664888117,-0.4315476206,-0.7107540138,0.2960905043,1.3822145941,-1.015337396,-0.5177453486,0.4247477435,0.6012174723,-0.4195195933,0.5931221589,-0.1443837823,-0.0455817204,0.2355301638,-0.8845965306,-2.1147968774,-0.5176883868,0.5548229416,-0.8930047958,0.0714021498,-0.5828219356,-0.2395868879,-0.8142627191,-0.1082399558,-0.0368019431,-0.0426205027,0.7859202977,0.0504383396,-0.8808283633,-0.9056468133,-1.5384556934,0.0125548935,0.1005722604,-0.1320543618,-0.6129668945,-0.812143229,-0.4285983731,3.3530005118,0.5938130282,-0.650843243,-0.2646234956,0.000046348,-0.6199423127,1.0926150114,1.7943793658,0.5015546705,-0.5285448817,0.72420949,-3.7477303901,-0.5815896905,-0.263067848,-1.1109669127,-0.1365130596,-0.2076178299,-0.1233820185,-1.1286565824,-0.9686087289,-0.7385200977,0.1640579095,0.486845544,1.2659149795,-0.4541518155,0.559781659,-1.3202818068,-0.8345031491,0.172746997,0.7898771496,0.4461593597,-0.6913038397,-0.2579425011,1.0868781817,0.8041745743,0.0986613199,-0.210060452,0.5477102181,-1.0429577696,-0.1622958933,-0.4555098504,-0.7512796824,1.0847695837,-0.9533396867,0.6203710981,4.8628683221,-0.4581510966,-1.0743986668,0.6601468616,-2.459457696,-0.0617130017,0.6175292234,0.2786381234,0.14675481,-0.9559957345,-0.7214085401,0.3788121814,-0.0649916973,0.6700744579,0.8012993516,-0.7032906344,-0.1605675347,0.6356196359,0.5730052072,0.8912796716,-0.3996742742,0.3012095237,0.2978800961,0.3019220967,-0.2114344726,0.6994411854,0.9185309543,0.5045362028,0.02681739,-0.3926259999,-0.9574871746,0.0022898744,-0.8662902586,0.740503625,-0.2037267355,-0.0629065777,0.0121205997,-0.2319917002,0.332305551,-1.4028768115,-0.6767791429,0.8004586099,0.8098779663,-0.7676715141,-0.4478090112,0.7495027849,-0.8574003824,0.5156887302,2.0814881021,0.7922280798,0.0736126642,-0.6341673131,0.9462925574,0.4284265904,-0.0794170821,0.8876531902,-0.845362411,0.8754561669,0.7049343359,-0.4971271804,-0.1434812952,-0.0239384978,-0.6222658724,-2.5544012154,0.1237519077,-0.3455423112,-0.5080326941,0.1131019965,-0.6801183891,0.8108703792,0.1832478711,0.8924792112,-0.0998456117,1.1006079834,-0.1996438652,0.8529058569,-1.2387896003,0.2348969573,-0.7328466108,0.1257138901,-0.764966722,0.6977712358,1.2801867499,0.3555105423,0.4952913662,0.2804169873,0.7263630088,0.2518447288,-0.7010910592,-0.344885992,-0.217542485,1.1396407442,0.2013898851,0.5249092814,-0.7313523694,0.743177965,-0.0262895311,0.5153550772,-0.9538912088,-0.3111665251,-0.137890307,0.5087356519,1.0427743357,0.391979209,-0.1396383082,-0.9055637444,-0.0803514878,-0.7563172422,-0.7609837849,0.0231600653,0.5073947322,0.0956881089,0.2023167959,0.7599529581,-0.1574266623,-0.4311443342,-0.8670865859,0.5778613197,0.6342361995,-0.302808335,-0.0573640304,0.3145188237,0.5742552366,0.3954224274,-0.2110126854,2.2654207224,-0.5749647792,-0.5889847652,-0.5746988546,-0.542642339,-0.1590530123,-0.1884768635,0.1263925444,0.0788905408,-0.6599239801,-1.1418606071,0.474350069,-0.4888288876,-0.537739313,-0.2133418985,-1.0821271086,0.6848466786,-0.8494267275,0.1761461453,0.917487251,-0.9879125169,-0.0550872694,-0.1122173661,-0.7657685514,1.1902822849,-0.718545156,-0.2328273163,0.3175102251,-0.7160712857,0.2481321153,-0.6730002368,0.2333390811,-0.2531629267,0.2527537307,0.735156016,0.2272344239,0.7608092837,-0.138893798,-0.7140862912,0.7588128652,-0.124863617,0.0584825969,-1.0076791024,1.1764065564,0.1863132448,0.5576493943,-0.3987567841,-0.0751694793,-0.258308316,1.025141492,0.1440244335,0.6995944792,-0.7405387637,1.4488661149,-0.5224505936,0.5952235437,0.1808640513,0.4782444672,0.0584880902,0.1217529008,-2.2263842797,0.7566914104,-0.2041407472,0.483685565,0.3444216357,-0.340965087,0.7144851393,0.7643381442,0.7363591937,-1.1397574763,-0.9466006479,-2.086172486,0.9366747928,-0.5063609324,0.1391335189,-0.7648172724,-1.2165004672,-0.4988675782,0.6925225916,-0.9869835762,0.7201674955,-1.4207529718,-0.0574246482,0.6701460201,1.0382117682,0.7027817241,1.7199418786,-0.0752063175,-0.3253541973,-2.0808347655,0.4054898437,-0.4209999014,0.1729299032,0.610086316,0.1501163066,0.8360119585,0.0676494804,-0.0827977385,0.0709244433,-0.2682973141,0.4712554309,0.931578356,0.3290372532,0.0711824175,0.8285325034,0.5875048878,-0.6677721341,0.2891480097,2.1656233375,-0.2045795068,0.6561452696,0.4414505591,-0.1638721463,0.2883956359,-0.7461893218,-0.9691014223,0.5048458847,1.3195212572,-0.6905383924,0.9980830774,0.1425121179,1.356409506,-0.2166458013,-0.6630100444,0.7120945712,2.5082910897,-0.5949513693,0.2115676773,-0.6940512969,0.3049692482,0.1228445544,-0.9847490534,-0.9102125703,1.6936468863,1.1344759413,0.6621473444,-0.333657029,-0.7167082721,1.5837516176,0.8892159826,1.249504649,0.0842434958,-1.1105872521,-0.2567237536,0.8057989282,0.3862208023,0.2683933156,1.4853189025,-1.2798246322,-0.2508363227,1.6884701182,0.5769032977,-0.1219500517,-1.0519347257,-0.6805882584,0.3459745981,-0.4865923238,-1.070159029,0.4406396257,-0.6381957085,0.9920984873,-0.4443077181,-0.6867002999,-1.2598776137,-0.0236996252,-0.3528000154,0.7541734496,-0.8569349967,0.3950030648,-0.4614628612,-0.0343007176,-1.4063643628,0.3654859314,-0.6145171652,0.3158365105,0.4031400652,0.8682824744,-0.4089103613,-0.3706554462,0.5863630321,-0.2126252006,0.2129485228,-0.3211266849,-0.5793369764,-0.8684383379,-2.059788315,0.3425321362,0.1882897661,-0.9669061018,0.2523337171,-0.956823964,-0.0659178324,-0.5791664186,-0.2204917546,-0.2029611376,-0.374067322,1.1562591435,-0.8975697565,-0.0287278904,-0.1030780896,0.2730581948,-0.3766216138,0.0451655166,0.6504141819,0.556404808,0.4143660448,-0.3507742707,-0.331286831,-0.9553706719,-0.8690524887,0.0093806269,-0.7550546702,-0.4067621079,-1.632092095,0.5049626541,0.139205767,0.9326411289,0.6861310678,0.6192182782,2.434053219,-0.0003274631,-1.5441816404,-0.1163328817,-0.0223097989,0.1845730339,-0.5535001451,0.2404516513,-1.1155447536,0.5031677464,0.7746858414,-0.7908038588,-0.8508254085,-0.717468034,0.1244946995,1.3696563679,1.1054181551,-0.0269125115,-0.9734173205,-0.3198139655,0.7551282357,0.6539897812,-0.8125110838,1.3987307807,-0.4612633403,-0.2554865144,-0.2641432606,0.1478374954,-0.0665634858,0.169675857,0.2897484063,-0.0934074705,-0.0749788705,-0.0266685022,-0.0110384345,-0.9509896241,-0.5080952306,-1.85679623,0.4035315641,0.3651258864,1.6617602705,0.2656838789,1.3374315501,0.4977917766,-0.288601291,-1.9381624982,0.7998524807,0.3659711463,1.0631191405,0.2265160698,-0.9067434394,-0.3003589713,0.3056650242,-0.0172374937,1.0631127411,-0.4392675144,0.4421681964,0.3643403168,-0.7533313143,-0.4540449275,-0.3771393683,-1.7119011023,-0.1474668154,-0.2307666484,-0.1814038132,3.0858480294,0.3162317935,-0.0858034319,0.7716435215,0.379224643,0.7638585725,0.7397576326,0.8854123657,0.4182050588,-0.4574813685,0.2333364922,-0.2327892441,-0.1999284171,0.0788326912,0.239141412,-0.8609708599,0.9659248292,2.9293977392,-0.0711616785,0.206007257,-0.261918433,-0.9423163049,0.1195066416,0.0024966466,-0.0495184329,-0.1454738436,0.2444481868,0.2294211207,0.2145565217,0.209520686,-0.5473349522,-0.0645515308,-0.757337086,0.677641197,-0.570336919,0.4320873384,-0.4588566908,0.0602283937,-1.2761612561,-0.8444891717,0.1981068219,0.3378936648,1.1686719906,-0.6751571634,1.0325093547,-1.5346546102,0.0277049462,0.7227047497,1.3008610322,-0.851406602,0.0538758879,-0.6994780841,-0.923755476,0.3745381588,0.4595812042,-0.2393878285,-1.3066228972,3.2451311614,0.2876193677,-0.5288342894,-0.5612872826,-0.3045157886,1.1167730797,-0.5489476331,-0.9199090667,0.0633554065,0.2402371914,-0.234515903,0.0786534271,0.8039837759,-0.594148121,0.6860868451,-0.2302594791,-0.6491064145,0.6616592863,0.7574245248,0.578966926,0.7623798025,-0.6470543061,-0.9748285065,-1.6768211673,-0.3413514003,0.3731718622,0.7619087353,-0.928657992,-1.1766970585,1.1823291204,0.465839131,0.1735398206,0.958523614,0.413454026,-0.6326083091,0.3762886539,-1.0731409883,0.3974667773,-0.5612289748,0.1004565368,-0.9090651118,0.9729255244,0.4066052866,-1.9465749543,-1.8394105257,-0.8499803378,-0.0851335983,-0.653025703,-0.8612999191,0.3197421426,3.182485712,-0.8048999947,0.2641703369,0.1656142241,0.1961624227,-0.1605255307,-0.8768502508,-2.6749787313,0.7471589187,0.3993808147,-1.1850650412,-0.4602031507,-0.5730451704,-1.0516933245,0.9192875454,0.4830825359,0.9630252924,0.9691274069,0.9290985536,-0.6478359829,0.6699374249,-0.7981171462,-0.8653326503,-0.0009622245,-0.0334333588,2.036077871,-0.6647042406,-0.9943001018,-0.198306659,-0.3370013842,-3.5822802172,-0.7474501139,-0.1487723939,0.4046930858,-0.3257597915,0.2920221865,-0.3326454552,-0.2580821253,-0.7056592667,0.5963668409,0.0449883828,1.1030823082,0.3245073931,-0.4896586237,-0.2527341279,-0.5621736639,0.4107503731,0.3486036987,1.0728741378,0.8442862843,0.6271983132,0.1913190154,-2.5135052679,-0.6898825128,-0.5808606013,-0.0469095926,-0.1579210241,-0.5583744315,-0.9811723691,-1.0074317171,-0.5059166399,0.6472372557,-0.1954183301,-0.6183453456,1.3471861386,0.0701744259,0.670538988,-0.6438881117,-1.0844799792,0.4556790067,-0.733439392,-1.2869732765,0.1624900603,0.756096191,-0.5671967435,-0.9528868362,-0.484664227,0.2598814083,1.1242880845,-0.8931852163,1.9035978496,1.3873726715,-0.5313418751,-0.4487681346,-0.2174567869,-0.268075288,0.688125022,-0.7047256172,0.1995421567,0.5263306719,0.4464069235,0.352427229,-0.5253226628,-0.8743627466,0.6777960488,0.851037209,0.0134616107,0.0447119572,0.324280504,0.6847813517,0.5033085045,-0.2016476011,-0.9232353563,-0.3346171062,0.3005372528,-0.2935776524,-0.6587018444,-0.680415256,-1.1642913756,0.2076561153,-0.8656249801,0.7815871636,-0.9097097161,-0.7482059944,0.6982340004,0.854355318,1.0984386006,-0.7002284189,0.6762880094,0.5230653624,0.8840947926,-0.0227186924,-0.0949102998,1.7167395262,-0.5759279443,0.2153204161,0.6748773895,-0.3536101152,-0.5909610376,0.5472257295,-0.5673902671,0.0265817495,0.2406383113,-0.8264070931,-1.0920204433,1.5273739424,1.2009631382,0.3475377292,0.3096203205,1.2523641134,0.5569595663,0.5094694408,0.1688538172,-1.1684599992,-1.0451343409,1.0430955427,-0.746338128,0.001567818,0.9321325715,0.5020920929,0.7836985927,0.0683443816,-0.5859450046,-0.3476961652,0.3095562402,0.621905298,-0.6640309106,0.9807284358,0.6661992279,0.1223583374,-0.0722680486,-0.380919414,0.1168392636,0.7167714222,0.7093185184,-0.4792198232,0.2024138773,0.4346016409,0.0542933631,0.5486131883,0.5165389899,-0.8994536845,-1.1375551853,-1.0422437921,0.8613870237,-0.8215538491,0.9267731914,0.6817411409,-0.3395648593,0.7308419402,-0.1338860865,0.776784163,-0.5249240904,-0.9491919498,0.7450377151,-0.4970051299,-0.8314647478,-0.6126212135,0.9014503083,0.3447941974,-0.1737615903,-0.4438153754,-0.0131774851,-1.0135824917,1.2578518522,0.6288131121,-0.8299337839,-0.8399526067,-1.8439591205,-0.3357921913,-0.7477216957,-1.8736368759,-0.8949080857,0.2632264472,-0.5457434777,0.9970171001,0.4848446571,-0.3389421535,-0.7861384628,-0.409385703,-0.5258623661,0.5151077716,0.007237886,-0.0292022098,-1.1876403558,-0.8945213404,-0.3343793018,0.141648676,0.9117793793,-0.7699429433,0.8270335761,-0.5135324663,-0.4703145151,1.2252027703,-0.1564767647,0.1901047863,-0.4338109656,-0.0622519732,0.2033796026,0.3609654143,0.7331148979,0.2160053668,0.0398762738,0.3621371423,0.3345577676,0.5677943042,0.6005042856,0.3151354988,-0.119025304,1.1258603488,-0.7973590399,0.9420814502,-1.5184891345,0.979796542,0.1418116909,0.6690780366,1.8876681272,-0.080958952,-1.2636970976,0.4547718616,0.8606775027,-1.0272675149,-0.9823440474,-0.6147756224,0.2970249714,-0.0904391076,-1.0847410865,0.9502168008,-0.423014733,0.4358410301,0.7015734546,-1.7858817633,-0.4169931211,1.9597560476,0.7038373105,0.8022793366,1.1500415475,-1.0894246632,-0.2099832087,2.2466520804,0.5618548003,0.6468358014,0.2123722756,0.3721940986,-0.2804597044,-0.4929364456,-0.6570595755,0.7390781194,1.2698086987,-0.7758885056,0.0321618804,-0.5487710376,0.7496375123,0.9156398538,-0.6489667805,-0.4932533066,1.3088589072,-0.5781440503,-0.6463269305,0.5973431333,-0.1470642851,1.4765155201,-0.2000658299,-1.8056398315,-2.7376246525,2.0614498843,2.0680476189,0.6053804442,1.004281568,2.5414341534,-0.1137124104,-2.9415649511,1.9291629388,-0.3735573856,0.8166113185,-0.4919726547,-0.7149900082,0.4196768128,0.0828174591,3.0148332105,0.2755489091,0.2531807104,-0.5546043616,1.0927543127,1.231623462,-0.1221444116,1.1467410072,-1.1546247661,0.2112271417,1.1826628289,0.0849571793,0.5385569042,0.6123308068,0.6684472148,-0.7497740349,-0.3978165886,-0.6214768649,-2.7059631181,1.7612657386,0.6003610512,0.4583950711,0.5226713038,-1.2440888404,-3.6098345005,0.7662363717,0.2717162318,-1.7101934763,0.3788951204,-0.8274804684,-0.8531471925,2.0604186817,1.8171456156,0.1934985397,-3.5616120705,-0.1918187701,0.9392594139,-0.4074899545,0.4594237616,-1.6798874619,-0.7067601661,-1.3990750558,0.680060664,0.9424393299,1.4859375288,0.1379207669,-1.0206746041,2.6852931913,0.710299738,0.086412119,0.3962409958,-0.7607299377,0.2974363098,1.1954028542,-0.3627896166,0.4770528426,-0.9602429953,-0.6011832994,-0.0001174503,-0.8995053497,1.0065536893,-1.2592515074,-0.443248105,-0.1466487614,0.0723115863,0.0397956206,0.6229367128,-0.8430623591,0.8693025176,-0.6832061439,0.8536558763,0.1485320876,0.6617661319,0.062519597,-0.3770928536,-0.8028634751,-1.8712613222,-0.7044620611,0.1794192872,0.734725027,-1.1175614725,-0.001078531,0.9160948214,-0.9405674004,-0.3494321223,0.8433338583,-0.7561994972,0.4162723067,0.3076944298,0.7642593178,-0.4430423967,0.167568355,-0.1172972821,-0.215404107,0.7102120617,-0.4813377806,1.0184974824,0.6604879949,-1.7577865278,-1.5466050718,-0.477997448,-0.1538853152,0.338653635,-0.5436608279,-0.0190259159,-0.6965032744,0.4881352992,-0.9605598492,1.2102840417,0.2558868808,-0.7624804925,-0.2253556819,-0.3876548662,-0.3111821103,0.8288726673,-0.5775463071,-0.4757721886,0.4120592928,-0.3621206509,0.9768844467,-0.8051556163,0.1092333459,0.2743049222,0.9074536042,1.5510719386,-0.2197961952,-0.596304133,-0.7596405307,0.1970689588,0.6037330581,-0.5230781453,-0.2962999291,-0.6299394641,0.685751358,-0.255947828,0.0823231018,0.1956337391,-0.3969368641,-0.0299990355,0.8136237063,-0.5073385261,-0.3950775831,-0.4483152843,-0.1961404656,-0.8883170512,-0.5693479229,-0.7062398833,0.6019786844,0.6722546075,0.1596915671,0.0471689378,-0.5346876834,-1.2531569684,-0.3133728374,-0.0609017365,0.8940919935,-0.0298523438,-0.379536461,-0.203615127,0.5246299444,0.2556425665,0.39282293,0.4420832636,0.7885682823,-0.6035154553,1.0300095266,2.4489268079,1.4756403538,-0.1774860182,-2.058275453,0.6467398029,0.6052921365,0.3879800191,0.6364813937,-0.5731800745,-0.8515405241,0.5593033254,0.4966295146,0.0654897027,-0.7272785087,1.0676613735,-0.1603466292,0.2087022792,-0.0190701258,-0.3776761898,-0.5498406468,-1.4835160746,0.6994672984,0.1353678959,-0.7156154382,0.9909179869,-1.000706979,0.5025444161,0.7903969456,0.0711409531,-0.6444140886,0.9496307576,0.0432316088,0.737403396,0.270732739,-0.2730198779,-0.671629573,-0.6489959141,-0.7263209729,0.378713591,3.2646138815,-0.4145153682,0.919651186,0.0220945018,0.7592779733,0.769866417,-1.1005742601,1.3411606619,-0.053267586,1.2566198691,0.701875321,-0.3993218765,-0.8847902266,-1.1027623142,-2.3274925663,-1.5359087346,-2.8216815684,-1.0996276147,0.7106745757,-0.4093473202,-0.5370702512,-0.0681769666,-0.0378455566,0.3843378846,4.8582001181,-0.698752626,-0.7290124229,0.7347935543,-1.1054560991,1.1403187297,0.0718246126,-0.5125419736,1.2974774986,-1.6585867302,-0.8345368746,-0.3049954448,-2.2004141159,-0.1029896272,0.770913311,2.5235437515,0.7295712931,0.5360974431,-0.9594883904,0.9269186306,-0.465109803,0.2667076769,-0.295033658,-0.0432004422,0.333025177,-0.3545814132,-0.9465914254,-0.8291913715,-0.8353493185,-0.6368123674,1.1320076047,0.2335907906,0.2183919048,-0.4865418746,-1.0752492292,-0.5660539755,-0.5153171201,0.7603250036,0.6806711973,-1.1136614412,0.1535150195,0.1482983266,-0.6716905572,0.9716307937,0.1565791207,0.8468588112,-0.7304741465,-0.0270412903,-1.521898278,0.596664405,-0.0282531898,-0.9718050903,0.93737462,-0.5416210648,0.8375186797,0.0172293703,-1.5402581752,-0.0797745575,0.9783872102,0.1391750798,2.1068216215,-0.0506266716,-0.4220337563,-0.3069052655,-0.9169393278,1.3728814394,-0.0040790081,-0.8025239103,-0.3210019594,0.435728084,-0.1655480753,1.4453299386,-0.6664281763,-0.6560529765,-0.2774225255,-0.9242748684,0.4464026153,0.6720608757,-0.8670374783,-1.0425222004,0.129498542,0.8619897569,0.9079532347,0.3668322209,0.8088087501,-0.0671100736,2.761342138,0.6761024604,-0.1205360994,0.5038001229,-0.9581566516,-0.169427992,0.2859143539,-1.0123695769,-0.7231152343,-0.6874457828,-0.7250568871,-0.8829428316,0.6841017471,-0.7777154217,0.8948886602,-0.613723342,-1.625251488,1.6588709365,-0.3470149972,0.983101219,0.3208716539,0.6317552211,-1.5411307633,0.8500709151,-1.0774097937,-1.566496088,0.0723795873,2.0918127895,-0.0904771701,0.6998528911,0.2586447612,-0.909189895,-0.6716490438,-0.0400157212,0.302424738,0.351325983,0.9279044059,-0.7173684869,-0.8772414901,-0.590634697,-0.4933420649,-0.5864232138,-0.1935341723,0.1397489413,-0.4902966777,-0.7347046174,-0.8665215543,0.3359493466,-0.313249273,0.3270564908,-0.8911393104,-0.0847177947,-1.0881875614,-0.8860527494,0.8720612808,0.5887054982,0.5273987996,0.1523126761,-0.4435362886,0.1810532681,-1.0988591334,-0.7976129699,0.6721590966,0.7246648107,-0.4735887894,0.3388966695,0.499165514,-0.5453747761,-0.8459414301,0.4700770757,-0.4392077142,1.39697778,0.3547146543,-1.0009289922,-1.4920423398,-0.8122771883,-0.2926627593,-0.0695184498,0.1114601332,-0.0294759548,-1.0377394113,-0.0869247834,-0.3955869022,0.3303128475,-0.7704565798,0.2578516369,-0.2330908798,0.6951197822,-0.4464959807,0.1923866496,0.1215845734,1.108293239,1.0259008791,-1.4749771493,0.2696837864,-0.2690002811,0.213785608,0.1268348146,0.9591904397,0.8066811198,0.0229620407,-0.6584776737,-1.0418168833,-0.9678493005,-0.1026990749,0.3574949445,-0.0619545535,1.7859371326,0.7824692942,0.3440852878,-0.519859103,0.8047466844,0.2819590119,-0.0881217372,-0.2188540166,0.9392414826,-0.4632711882,-0.5452610187,-1.643659809,0.5240626777,-0.8600871546,0.8833020334,-0.7502796437,-0.0447473269,0.3314471719,0.124933269,-1.4036056529,-0.5093698391,-0.4668195562,-0.9976506534,-0.404596198,0.6652930451,0.6198491891,-0.0391808038,0.4613741067,-0.6776452026,-0.6315093218,0.0280702987,-1.0245156533,0.293657543,0.0208266193,-0.1316188357,-0.9567070641,0.1056083085,0.577255894,-0.5546122442,-0.4137871041,0.6219745696,0.1724918848,-0.534854575,-0.4511793198,-1.1648024426,0.7416408681,-1.5841299877,-14.3736399107,0.458466921,-0.0729936942,0.194477799,0.3021589392,-0.8330100895,0.1162913467,0.964997355,1.0630351446,-0.6332481606,1.5810503491,-0.3149611839,0.5603288791,-2.2891081118,0.4755934803,-0.0303457743,1.1061571729,0.4952413971,-0.2907246516,0.5053004054,-1.5506199547,1.9739827015,-1.7854716239,-0.2058211801,-0.1288986684,0.7500802673,0.1552529939,-1.1973969179,0.7124088014,-0.4506607539,0.4453696758,0.0150216503,-0.246992296,-1.3966682062,-0.8838095748,0.4629737846,0.9864465906,0.0217178703,-0.4373636174,0.9358019606,0.2451960735,0.0726742293,-0.691763889,-0.5766934994,0.5459546947,0.2080013474,-0.5336907952,-0.062843933,-1.1699278035,-0.5955772799,1.3248597606,-0.7488519956,-0.9429504555,1.2102672407,0.4668607827,2.2769151962,-2.5869536243,1.0183458095,0.7388840297,-1.0318348025,-0.1515131857,0.000385746,-0.6165060885,0.4567713066,0.1562498672,-0.4188337109,1.0795455608,-0.0252742526,-0.5675086872,0.7534104593,0.4685862278,-1.2394007364,0.4967471072,0.506456765,0.3044203037,-2.0540062234,-0.8776428305,-1.2153101551,-0.4319291217,0.1413769455,-0.3674652356,0.3890232474,0.1672954463,-0.1462485401,1.2129743059,-0.4988017262,-0.3680200885,0.6150105202,-0.7784607128,0.2800387129,0.1959454037,-0.0641925416,-0.1863620286,-0.2689956466,-0.5046619354,-0.7774794961,0.5351769297,-0.534233634,0.1682644649,0.6273528738,-0.7019286975,0.0240137754,0.1342559589,0.0913114017,-0.184081853,-0.1960952042,0.6953991411,0.3211695102,-0.5403667297,-0.0372535477,0.649412848,0.1273216866,-0.0356204445,-0.8859930555,-0.5431289212,-0.6124464537,-0.4819082531,0.4746880514,-1.0851289289,0.6259858401,-0.069542477,0.7585389737,-0.0637487621,-1.2362450924,0.9014334795,0.1893630825,-0.5016316025,0.4733493525,0.2924227124,-0.7404096133,-2.4268680246,-1.5350181877,-1.0503753154,-0.1991528355,1.0088849044,0.6611311033,-0.3515912264,0.6193056389,0.6728707377,-0.3985820275,-0.1576669597,0.4287818217,-0.0607535125,-0.3760363911,-0.0060451722,0.3227461486,-1.1485907707,0.5831316049,-0.9775145476,0.4687985047,0.0405350156,-1.0817369986,0.8459300761,0.2521191725,-0.0315949216,0.9535264878,0.6940381438,-0.2424404138,0.9784904815,0.6625048263,-1.1180970421,1.2428337663,0.3891956966,-0.7700740152,0.2630679997,1.3122722277,0.2214237526,-0.6841542597,1.0632242359,-0.0034420707,0.6284050487,-0.1566409949,0.9875121603,-0.6551279785,-2.4015661293,0.958730879,0.7053374042,-0.1818100435,0.4882240075,0.683068252,-0.5932438136,-0.4513967693,0.8683613699,0.532283752,-0.7343354126,0.5072713604,-1.2131681664,0.4827897273,0.1820195686,-0.0756884331,-0.1540491926,-0.0106673418,1.0200078746,0.2487864766,-0.2852553827,0.363805634,0.4631210358,-0.0405824518,0.3720650332,0.1112124094,-0.0014744065,-0.8216872669,1.9097581123,0.4000642494,0.1461546691,0.5619223489,0.1170029646,-0.2174902894,-0.3775536171,0.858456003,-0.0729694629,-1.0522429416,0.5663083065,-0.6853542863,0.0455285683,-0.0718668072,0.0711037036,-0.3105867225,-0.1167086764,0.0142254763,-0.6558980344,0.0037378088,-0.2685277172,-0.8963894383,-0.2013341736,-0.0846742114,0.1086974342,-0.6834288287,-0.1370568927,0.7420148184,-0.7484988817,-0.1125956025,-0.5118206698,0.6462129119,0.5937739659,-0.2316846381,-0.4863337059,0.0385680219,0.1455840717,0.2281551955,0.0842642119,-0.2996073317,0.6174850956,0.7662848605,-0.6717330228,0.080423776,0.2094775967,0.0156388761,0.1535790545,-1.1778902478,-0.9251565678,0.5266308683,0.5093333239,0.9534475482,-0.0961898033,0.5597733212,-0.1080126247,0.2401552974,0.9165348789,0.27181835,-1.0164139518,0.9154475178,-0.0331022197,-0.8810848778,-0.936404798,0.2205505241,-0.5927136468,-0.1702999188,-0.9323653538,0.0587236826,-0.8889887072,-0.1892707093,-0.1458396128,-0.9453383675,-0.9050481852,0.2875969134,0.1637393966,-0.2038135879,0.1426640156,-0.1853859548,-0.3100431343,0.2292800524,0.7189995842,-0.1339994293,-1.3357273072,0.2644050272,0.8700876448,-0.2035810677,-0.6729206274,-0.1623722957,-0.4537771183,-0.5429109665,-0.4528743138,-0.4163806123,1.2590209342,-0.8340841523,1.2470333308,1.1819809158,0.7816020077,-0.6294240362,0.353541287,-0.7806968101,1.0681053351,0.8644974232,0.1186338424,-0.120937238,0.3306708484,0.0483450762,0.2679324498,0.277488651,0.2803747886,0.1968754345,-0.3470732746,0.7939300516,1.1536738398,0.468710976,-0.8877113499,0.7825440735,0.7476027464,-0.9157842058,1.8831977512,0.1729736663,-0.305390908,0.2547883427,-0.2425549977,0.2238071975,-0.0897108385,0.0522160863,-0.622002709,0.6850815917,-0.3557804811,0.6993529429,0.5418530698,-0.0616855856,0.8232201964,0.6044194975,0.5195514625,0.48210423,-0.1737832688,-0.0605690416,0.7155501692,0.8866288654,0.2219739884,-0.5513942444,1.4516580082,0.2168889384,0.5203984776,-0.629786877,-0.6280476221,0.3763940825
   0.1873299867,0.7246238955,-0.3427720676,1.4447244046,-0.2205220378,-0.0859321953,0.8727691792,-0.4354080623,-1.6266431969,1.1361119525,1.037708803,-0.3330585706,0.8241735552,0.2621223781,0.3887655126,1.6871561907,0.4075021147,0.9519957209,1.0192167572,-0.4118685004,-0.5810735366,-0.2647204562,-0.156934045,0.064716021,0.5948413949,-0.6634841208,-1.9159476696,-0.3009799445,-0.9029205372,0.5123458667,0.9117671398,-0.7100988178,0.3387106104,-0.9300620014,0.9396284816,0.4039013665,-0.7279727141,-0.3193896888,-0.2366070001,-0.3587426298,-1.0597699967,-0.0304472473,-0.3205924099,0.3757400655,-0.7040632359,-0.9313723278,-0.584120196,-0.6669306327,-0.8469623341,-0.2783658661,-0.5159537485,-0.9832584079,-0.4207289345,-1.8004648584,0.3586639393,0.0472965253,0.9941613923,-0.8399732396,0.9708634716,0.6835095271,-0.1156741891,-0.0084844294,0.8169651174,-0.5323136968,-1.1566126373,-0.0198870924,0.6918063165,-3.2558380216,-0.5169880429,-0.3514075225,-0.8171885438,0.1005184785,-0.7776082798,-0.8355185583,0.2534521312,-0.9987350119,0.4677953622,0.3902099362,-0.0888751891,-0.6841247582,1.0022876644,-0.2939582332,0.1669947036,0.308330658,-0.3290444766,-0.1814018894,1.0334827494,-1.0623319493,0.74103612,-0.4726477097,0.1951267302,-1.3175401273,-0.7835300847,-0.9292510972,0.6875305022,0.1699715566,0.4737912064,0.2689795113,-0.1059524489,-0.0895961622,0.3086351743,0.2651893631,0.2214315285,-0.6490334881,-0.9046038926,-0.8024445474,-0.9506054291,-0.5923217473,0.0801748166,-0.998250361,0.9351792816,0.7213585987,0.022180945,-0.1139855654,0.3979269432,-0.0980354715,-1.0582043457,0.1347984305,0.6987591577,-0.3232763227,0.2031749137,0.9170268944,0.6497384324,0.3882362816,-0.0301343805,0.2469769689,-0.1450329789,0.6353479863,-0.5842739327,-0.5383363454,0.1772590256,-0.7807108266,-0.1769039053,-0.4386500868,-0.7358993305,0.7540388377,-0.2637396828,0.1747175331,-0.685053241,-0.4268895405,-0.1598031524,-0.1667245487,-0.3232946674,-0.8047564907,0.2300737243,-0.6462977018,0.6249850807,0.5640415526,-0.9367010815,0.8903465407,-0.3536231153,-0.5280204641,-0.2960160685,0.7340603638,-0.1736572674,-0.0125796647,0.5081522008,1.3279019575,0.477433373,0.9667692747,1.0520781358,0.4424862496,-0.2622625086,-0.8950985612,0.1909873044,-1.33255541,0.0170071614,-0.8554793376,-0.3641052856,0.1558884895,-0.9824247728,0.1762257531,-0.1773750957,-1.0886297031,-0.7954391943,0.7907896194,0.1234327756,0.400260176,-0.6015503224,-0.4928537617,-1.2478324401,-0.5217111193,0.1923844097,0.9023462445,0.6646816756,1.9389677522,0.9990639158,0.2420506738,-0.7490583553,0.1761483427,-0.4005838201,0.0632658059,0.1675885848,-0.2787391922,0.6752511426,-0.3042930206,0.4430614219,-0.181560545,1.2741749711,-1.1828428216,0.3334040803,-1.0753459153,-1.7186240282,0.3475188633,0.1646442991,0.2121441701,0.3421077979,0.2053799199,0.5755447617,0.1400037158,1.0941914372,-0.8375689801,0.6356966602,0.2175929483,1.0746878663,-1.0872808541,-0.9728331168,-0.1499105034,-0.7522138587,0.1796047951,-0.5988894175,0.3041121432,-1.4134911451,-0.8266630466,-0.4877635235,0.8888334982,-0.1961783425,0.5014541109,0.1724002959,0.325920481,-0.4276414698,-0.3069148954,-0.7389100818,-0.1930045886,-0.5011398669,-0.9782858488,-1.6917566013,-1.5085954307,-3.0055301699,-0.0351636682,-0.0331234034,0.0999721049,-0.5696644543,-0.1739418327,0.1136159753,-0.4663147925,-0.6507945644,1.1995044937,-0.7235001386,-0.7808455196,0.4939467872,-0.2212718586,0.545745701,0.3617806473,-0.4974977331,-1.3905957638,-0.3708771752,-0.3094503966,-0.8048988804,0.4902982324,-0.3552760136,-0.4795952312,-0.6759979551,-0.1192997556,-0.33188442,0.3010533622,0.9050712412,1.2076640012,-1.2784846487,-0.3649089542,-0.7645933234,0.3706105313,-1.0278604702,-0.5489364703,-0.3955173563,0.7398055768,0.3593897153,0.042370816,-0.2562042375,0.0514427079,1.2405807278,-0.1935034501,-0.4301585619,2.059662761,-0.2252055172,-0.588884036,-1.2247915845,1.3267706661,-0.4436897885,-0.0920022467,0.4176608906,-0.4250823595,-0.3271078062,0.2711816702,0.2946675784,-0.350996661,0.9542032731,2.0664224391,0.5025240084,-1.1176811462,-0.0188476602,-0.3132525815,0.8622193362,0.3598889905,-0.7764189049,-0.0223555444,-0.0571734297,-0.9582246489,-1.1802378555,0.1739156359,-0.6821625378,-1.0304875396,0.5751661284,1.1479181601,0.8150804416,-1.2354952422,0.2635720981,0.244386657,-0.0571816459,-0.4303001189,0.0843439541,0.4025832254,-0.0804278576,0.0554379819,0.334363723,-0.5955580661,0.329891247,-0.514053891,-0.5668388247,-0.5974959885,0.5712526804,0.5247096345,0.5879139138,0.0745341899,-0.2319774046,-0.650391058,0.4665235119,0.9844770656,-0.3394446791,-0.0899975107,-0.6108809633,-0.4991045342,0.8182757265,-0.24680831,0.14724888,0.3250081443,0.0055074333,-0.6254057294,0.3424707789,0.0149212538,0.5296347249,-0.2349005438,1.1975715037,0.7476920677,0.3075334487,-0.6464319972,0.5329519399,-0.1416850281,0.2661127585,-0.9681950877,-1.1602850416,-0.6529218263,-0.1525569102,-1.0131366644,0.3994080635,-0.6598991283,0.4702756808,0.4342105648,-0.8073984455,0.1582456086,0.968946926,0.5187381032,-0.4068198068,-0.7632575861,0.5322008334,-0.7099724852,-0.8049689809,-0.2287460558,0.7372280067,-0.447167958,0.2195616972,1.0592546251,0.9146159752,-0.183790915,0.1741798549,0.2251201881,0.7842771751,0.4668576155,0.5292358589,-0.6925882437,-0.9285663223,-0.0266284465,0.0049179611,0.15403657,0.2666091115,-0.6120827841,-0.2404145042,0.938031613,-0.0640244109,-0.4283783705,0.3767231698,0.3999224248,0.2483154899,-0.7491881228,1.5414377184,0.7080286555,0.1744732296,0.0968186751,0.438787931,0.1580755832,-0.6257130156,0.2260586779,0.4151862213,-1.693074102,-0.4050656156,1.096031961,-0.3216309985,-1.047344166,-0.7580193538,0.6600711216,-1.0362266677,0.2296828309,0.7102006561,-0.7739741463,0.8481217932,0.8318172925,-0.2978403274,0.1007359886,0.5360394857,0.5669554039,0.3355618542,0.1603496153,0.1678250631,1.0453521893,0.3368326435,2.8015206911,0.2951750907,0.9209011173,1.479945095,-0.6041262524,0.4208906781,0.4327289098,0.7882745009,2.6042006516,-0.2181011756,0.0487956946,0.0342628514,0.7311204433,-0.3723093107,-0.7248794223,-0.342750946,0.8004101597,-2.3251151303,0.9104400371,0.0443910213,-0.0843391928,-0.9711249219,-0.3047440267,-0.6411550043,0.7177945407,0.4773991161,-0.0416249789,0.2967465998,0.7702933758,0.260923726,-0.736123532,0.8092577769,-0.8876931198,0.6073724584,-0.8289244342,-0.9012157032,-0.2102817976,-0.5588565559,0.5181624886,0.9038883935,-0.4639606658,-0.0763734702,0.4571564227,1.8444762455,-0.6225096489,-0.4351581135,-0.6602623323,0.7766948977,-1.4250924905,0.4854649218,0.6936390418,0.1732321228,-0.049046583,0.3506879991,0.1174310672,0.7145211126,1.3907377325,0.5371902486,-0.8375982478,-0.2567660639,-0.7253769229,-0.0397752251,-1.0082692791,0.1257359547,-0.4539584238,0.2299828053,0.1210657669,-0.6249376401,-0.1604804496,0.4534433472,-0.1384822596,-0.1150571588,-0.7996870405,-0.2986960765,1.0535161466,0.1903662254,-0.0399795449,-0.7216677469,1.1159033881,-0.6448279201,-0.8204231064,0.1706076537,0.1326114663,0.1057801583,-0.4401617261,-0.2791327992,0.676146241,0.7438502467,-0.0818534362,-1.4016490527,-0.1213897109,0.9534436559,-0.0781052275,-0.0780486194,-0.4424109594,0.8234969512,0.5663224019,-1.0687555561,-0.2773867186,0.9471662653,-0.074446173,-0.2434577191,0.507523584,-0.2166443484,-0.837660112,0.8003258995,-0.1289135463,-0.7581962344,0.8877063474,0.8225351918,0.0496070477,1.0319656619,-1.002737044,-0.5148527594,0.7237533956,0.3793948321,0.2897319821,0.5427377964,0.7155960391,-0.7549521196,1.6637369345,0.5172169124,-1.0732144972,0.6840881931,-0.2950349648,0.1541668415,0.2464102285,0.3054950721,0.0265838702,-0.0428431754,0.5535497722,-0.0047746136,-0.1503000783,-0.3636378595,-0.9948076035,0.5010232577,-0.4801095768,-0.2159538384,-0.331306568,0.2097504376,0.010957746,-0.6115608414,1.4209889604,-0.1248667547,-0.6831554453,0.4190811651,0.1431055599,-0.8606212438,1.6441831918,-0.3500949337,0.7771588953,1.1251969254,0.5722865521,-0.2834357576,-0.3857712426,0.4175036355,0.346940425,-0.2352549136,-0.3216132173,-2.1386613874,0.1381893709,0.0064513236,-1.2547758683,-0.4843883188,0.2578432859,-0.1813783258,-0.9147999576,0.7528172733,2.5358444198,0.7601483786,0.8670937538,0.3773122746,1.849750701,0.2819159697,1.1641660625,0.0681234162,0.2030521688,-0.4182062573,-0.7049067306,-0.7121212039,0.6781152363,0.2859698045,-1.0609620649,0.7154617773,1.3764078644,0.9177980223,0.5991615514,-1.5713382363,-0.4440362284,-0.1263066131,0.5182832417,0.0527369861,-0.8153280147,11.2005273809,-0.5822325681,-0.9615050648,-0.4717169764,-0.9048637209,-0.2370644378,0.6712828388,0.3894046288,0.2926460429,-0.4457094976,0.28379628,-0.094951161,1.1597809339,1.2640718335,0.5451976356,0.3561295503,1.0277809935,0.4913434968,0.711828855,0.3996749006,-2.1477664091,-0.0669613896,0.1986474294,0.4401042733,0.5163899821,0.8976849523,-0.5370878275,-0.6819829616,0.2872016346,2.2067550957,0.7240716953,0.8247306714,0.007035446,-0.0694093305,-0.4131002435,-0.1922708545,0.2664047937,1.2293559058,-0.7393917728,-0.6580260173,0.3331933418,-0.0906231231,0.648353637,-0.194007412,-0.4240470889,0.0870281783,0.3396565119,0.6827598744,-0.6179267742,-0.3135349076,-0.0161091975,-0.5249394914,0.0876871211,-0.9476250159,-0.637236315,-0.6131587403,-0.4396301892,-0.4167283715,-0.6238500747,0.9330888106,2.2128408404,0.7363354516,0.8040487213,0.3423176957,1.2541040511,0.0743504932,0.3622854046,0.1575401189,1.4068101127,1.2401808975,0.8752805728,0.8196821215,-0.855084725,0.3772289588,0.4477966724,-0.5062732379,0.1694455322,-0.7819709865,-0.1459025043,-0.5258043292,0.557872638,0.3131030806,-0.5825219181,-0.2645275604,-0.6678065571,1.1102198998,0.583415629,-0.6412734348,0.0795802276,-0.459123954,-0.3097558691,0.2710173686,-1.1780414464,0.1333979162,-1.0685665271,-1.9344611025,0.1310294911,0.9600297289,0.5911975006,0.8602128409,-0.1631809454,2.6679826624,-0.8182429222,-0.8623709993,-0.5963133755,0.9394654254,0.6407107067,0.7803659175,-1.3063324044,-0.8010246292,-3.7010896107,-1.0562732644,0.600317524,0.9527455351,-0.0344429298,0.2142901204,-0.8489662493,-2.9419086056,-0.7773330228,-0.920510193,1.3720678383,2.3327575771,0.0040609264,1.4908518233,-0.1199894381,-1.7231552979,-0.8960087854,0.2915214097,-2.8779851955,-0.3724565415,-1.6441720595,2.2710038146,0.2936677166,-1.4996289849,2.0422193217,-0.0774341403,-0.7899962634,0.464324487,0.6356233864,-1.4959481294,-3.1101252687,0.7716608656,0.0524587026,-0.1071873017,0.3563923772,-0.149411581,-2.7552887508,-0.4488736787,0.1558227943,-0.0452118763,0.3228322519,-1.6482683445,-0.1445201494,-0.5545851439,0.6652540363,0.6909647865,-0.4448792624,-0.3065983201,0.9420293962,1.0335096345,-0.2397414652,-0.3564648861,-3.9138937117,0.581651101,-0.0054193923,-3.5044764052,-2.7173302185,-1.2677455249,0.5871138313,-1.2118839289,0.1385366974,0.1235964301,0.8907396096,-0.3236145669,-0.7280421369,0.1250706486,0.3089415024,1.1022693366,0.7906091721,-1.0441073603,-0.6432339437,1.172182739,-0.6272714276,0.5514693696,0.8539763319,0.8353405804,-0.8626857451,-0.8464048947,-0.7500963259,0.1309979586,-0.5343399793,0.4554007947,-0.1066422737,-0.7706127731,0.9921920022,0.334570215,-0.3883259116,-0.9667804036,-0.5620856218,0.4690453906,-1.1452414874,-0.1627140539,-0.9991102866,0.2297107083,0.4181100563,0.0632666373,-1.0259273047,0.6631270046,0.0397729254,0.4712188808,1.5673860538,0.1830596125,-0.4365113695,0.0130537739,0.4607170363,-0.6629635062,-0.4795329004,-0.0719686022,0.1977254326,-0.0805062091,-0.2241883191,-0.5385111069,1.1301190022,0.2587846509,-1.3555224207,-0.7438709123,0.2241291234,0.8637859576,-0.290790587,1.3299963437,-0.3904168972,-0.0001008612,1.7673519163,0.070921682,-0.1696462164,-0.1770714535,-0.2024514518,0.4927642251,0.0876290977,0.9731844554,0.6428388517,0.1680058299,-1.8070059107,-0.4402379463,0.5758594884,0.8189794391,0.7618866825,0.8007489716,0.0346695324,-1.2852649557,0.9420121458,-0.4702371063,0.4508532852,0.2731435405,-0.7924790231,0.1318735172,-0.1502710986,0.1169001731,0.668314604,0.651658812,0.6813537275,-0.5349038654,0.571422194,0.854126184,-0.8638208852,1.5277883407,-0.8229161116,0.1088710947,0.2568390116,1.4271147772,-0.5083149727,0.749706965,0.5854461915,-1.1878485156,0.275805751,-0.4877173538,-0.5954361485,-1.0556066726,0.0458384405,0.1687971967,0.722015503,-0.0449288727,0.0730160672,-0.0108124524,-4.1515515496,0.8437992117,0.5196753845,-0.5891527305,-1.3622587728,-1.3728166695,0.2972235916,-1.7831372074,0.7256228916,-0.6484206038,0.995145732,0.6820624284,0.0237179305,0.2648808387,0.3075655795,0.7145304989,0.7210044576,-1.3559959752,-0.2401609354,0.5555383772,0.4212798335,0.2371538245,0.1902032044,0.2126573801,2.0330439746,0.2048905714,-0.1311907114,-0.6200366162,-0.1996064505,0.5941674103,0.6045643596,0.9784511492,0.0804698367,0.414268865,0.366398626,0.1154599447,0.1057017781,0.2147397631,-0.0153964732,0.0448856708,0.9121253587,0.9096347259,0.5850756325,-0.1430136317,-0.7223538431,-0.50518757,-0.1376278563,-1.0364963257,0.5252510431,-0.903224166,0.1940038708,-0.1184425339,-0.7623566006,-0.8974225154,0.8946669792,-0.259943988,0.3606902841,1.8862759901,0.9389186919,-0.3895808341,-0.6676235752,-0.8270184213,0.0729637986,0.8909663771,0.723160188,-0.4942001957,-0.5766010191,0.3497886352,-0.239185594,-1.83032269,-0.1996993351,-0.3286203553,-2.4462534792,0.2102513255,-0.0937998272,0.0219101576,0.07624742,0.1805049964,-0.198504918,0.6774493485,-0.6206550666,0.346127503,0.8832333475,0.7748745744,0.1561643415,3.721616583,0.3833056797,-0.6056262916,0.5508911426,-1.20738013,-1.6235938608,0.368329284,-0.3198728933,-0.9154772769,0.4252681189,0.897817754,1.1527477408,1.280877324,1.1178056614,-1.6274476705,1.6051927692,-0.8006649868,0.4969750974,-0.5126229591,-0.7436868877,-0.4619339837,-0.4170158027,-0.5797227629,-2.2035645249,0.0828983298,-1.2954802671,0.7696380266,-0.0661955785,0.1191548707,0.7108736815,0.1093505541,1.3556417681,-0.8184514073,0.065815873,0.5753878572,-0.5827734517,0.1194518026,0.5531954014,0.4361188973,-0.0366780508,-0.4417819582,-0.6482799206,-0.144154165,-0.7546243974,0.184499593,0.4081509029,-1.8365719065,-0.6706745977,-0.9718996951,-1.1053501323,-1.3498724431,0.6779713383,0.2412813249,-0.0022387402,-0.7456969951,8.9803524073,-0.2153488946,-0.6396854642,-0.2608952925,0.731098355,1.0014244083,-1.6504885637,-0.8620112043,-1.0116691841,0.3814096238,0.9903514723,-0.0317958883,-0.6786259832,-0.3627666003,-0.7642150968,0.4514573076,0.3424715828,0.7161867856,-0.4954819247,0.4789586529,-0.7373588313,-3.2926006359,-0.5612102008,-0.8842268282,0.3710029304,-0.30527346,3.0888324679,-53.5045515987,-0.5380965627,-0.0579314945,0.5520501061,0.4265868426,1.0460547285,0.1277783923,-0.3799867227,1.4709394304,-0.4265922762,1.1023673009,0.1004335019,-0.1710290779,0.2179881305,0.9329525806,-0.0879338795,-0.2997360071,1.4734094287,0.074769425,-0.1137067593,1.3991337603,-0.4380321581,0.9934991488,1.2863503344,0.5274250973,0.1441955717,-0.8270211264,0.3404187435,0.2437344388,-1.1549638734,-0.558661181,0.3388357929,0.5462231475,-0.8748953876,-0.2336125823,-0.6438545167,-0.8135220713,-0.9473590274,-0.4820190011,0.3245558231,0.3073788444,0.1698953508,-0.412653372,-0.6244547435,-0.590645621,-0.2330771242,-0.9901338665,-0.7899441136,0.4471112394,0.4471744036,-0.3244923424,-0.5264399676,0.4110157167,-0.362973565,0.0508743248,-0.8289740227,0.0631250289,0.256134953,-0.6384652971,-0.6213472365,-0.1811466191,-0.0938380157,0.2073774942,-0.6298055948,-0.5734185941,-0.5326888317,-0.7946701452,-0.1151612369,-2.6100531997,12.6749601454,0.4858755521,-0.3511638156,-0.2803538106,0.4163130129,-0.6789205756,0.5268263691,-0.519036406,0.7491326795,0.9292018734,0.2343465594,-0.5222565006,-0.4540271694,0.5692812105,0.7755022421,-0.5754032165,0.2185790416,0.9147813519,-0.7139855125,0.0358341534,-0.250747454,-0.4691190424,0.7384432435,0.3746761859,-0.2307279677,-0.1133462153,-0.9314121316,-1.1436799607,-0.6940147822,0.7962473769,-0.8531778385,-0.3178928578,0.3805812395,-1.1616969186,-1.116742319,0.1331366495,-0.6048164591,0.751634022,-0.5963254399,-0.6060165573,0.2533387702,-0.3520951382,0.3040650321,0.5736495982,0.1008891244,-1.7140909421,6.8011984262,-0.4442395253,0.8250513302,-0.4188705595,-0.0558981653,0.3069070991,0.3574566412,-0.335683276,0.0982114212,-0.861551171,1.0477941714,0.106002401,0.6847144204,-0.3503629482,-0.5162066208,-0.4570803778,1.0286186044,-0.011851285,0.1564526046,0.9384822924,0.0752986683,-0.0172185202,3.5008402728,8.5343571035,0.7312274067,0.66639772,-1.0198009452,-0.6520518726,0.8920195676,-0.3243001168,-0.471222112,-0.0053292438,0.4632370644,0.8166900018,-0.8558712246,-0.9964440371,0.0209905644,0.4566915285,0.237827565,0.352685794,0.4323869178,0.1266674228,-0.5960664153,-0.2363575039,-0.0211760998,11.5743869441,96.6242303613,0.0486026864,0.3500949364,-0.9376864447,-0.4356349565,0.7021701988,0.3648188397,0.4635383736,0.0060054899,-0.0435238579,-0.921959877,0.7926391838,0.9424503078,0.7043057341,0.378558682,0.0573838461,0.6380712079,0.0289097246,0.2159487341,-0.3374855412,-2.5196645942,-0.8532714088,0.7289329473,3.817608993,0.5238947577,-0.8907991844,0.2612896051,0.1166465955,0.401266016,-0.6755255525,0.248786841,0.5772554676,0.984330638,0.7523971722,-1.2074732833,-0.6990325973,-0.2226732448,0.5526311452,-0.1917322229,0.0702969142,0.3870852427,-0.3618909087,0.4583773341,1.0910287482,0.3846851944,0.6573556483,0.4479526485,1.0638338379,0.5444995593,-0.4233240205,0.7743114082,-0.6765318565,-0.7102451644,-0.4886677925,0.6984566232,0.6046031849,0.2586948239,-0.304587335,1.7607980481,1.5656365439,1.4361215536,0.7166213027,0.5975303813,0.829896151,1.1114810532,0.7158757917,1.643372773,0.5116466307,-0.2559473607,-31.6036450752,0.2488529756,0.3446208175,-0.4469766235,0.5264053209,0.4193286351,0.5146452517,0.7565503342,-0.6232185821,0.7381782933,-0.5295115288,-0.1805591933,0.3123395344,-0.9331770247,0.6008718919,-0.5970611647,0.2736801787,0.1415719008,0.7080727823,0.8173417454,-1.6448701588,0.4088614657,-1.2192105174,5.651418474,0.5757304422,-0.122844378,0.4799088262,-0.2127532665,-0.6925185504,0.0770037331,0.5560973423,0.6640276883,0.3792044072,-0.3454575722,0.7385065779,-0.8406257122,-1.161426519,-0.7478110039,0.035154411,-0.4743903336,0.0649128151,0.6298738219,-0.1217525268,-1.2722119818,0.8081798303,-0.9218426048,-0.0390008713,0.5370804608,-0.0526488441,0.4401880982,0.5282727045,0.6860772159,0.2916375588,-0.2711974545,0.6677302881,-0.5772579506,0.9306946585,0.1836743363,0.9436728559,0.0983800976,1.1646624753,0.935674076,1.0098850132,0.5660666626,0.3263876369,-0.4019438747,0.7423077328,0.7657880094,3.5669515974,2.491164732,-0.818593435,-0.2876133428,-0.2273491832,0.4438868007,0.4078411823,-0.8683393603,-1.0961896926,-0.6592178325,-0.4958423141,0.5259664332,-1.3845896461,0.1931554551,-0.3636457051,0.3833645467,0.0193207344,0.8402953161,-0.0894373284,-0.5018019209,0.00913014,-0.3486638591,-0.0744747076,-5.440133584,-14.2247618863,-1.1035796729,-0.6571601281,0.1784228249,0.8840063555,-0.8257028992,-0.7999817484,-0.3267161757,0.7009520768,0.2837475523,0.1183429827,0.3321314979,-0.8423065675,-1.420632142,-0.805618267,-0.2651485492,-0.2351328835,0.0674488022,-0.9677373163,0.5780102094,1.5390321634,0.2094761445,15.2775820639,-95.4345096517,0.8411720743,-0.4515853212,-0.8862653817,-0.5027540891,0.1037303526,0.6149283226,-1.1407807306,-0.0896762338,-0.5197148196,-1.0850685408,0.5360617674,0.2915632708,-0.3705601242,0.4449597684,0.1460070062,0.2885498167,0.6068605415,0.5259177563,0.032382247,8.9320057771,-0.4874385164,2.9311415429,-19.2653437396,0.8987377291,-0.2419942107,0.245824612,0.8615053685,0.6332296395,0.2659077196,-0.2119641499,-1.0150065879,0.9343127832,-0.8164080475,-0.1311038842,0.6192720268,0.7186787271,-1.005742743,-0.123503929,0.444010175,-0.9490546929,0.4443613075,0.8416357296,-0.1738707983,-0.5082439238,0.0577756557,-0.2095411316,-0.9483906782,-0.0821351727,-0.4049916167,-0.9953031386,0.3255555689,-0.0680907684,0.5233791781,-0.4521965868,-0.0372772637,-0.7778244373,-0.3559181945,0.0694622102,0.0221394137,-0.0590576117,0.154286853,0.0609167636,-1.1809411263,0.4533272294,0.0941754969,0.0088355481,-0.8663494029,-0.8689682825,-0.4918737565,0.7453400712,-0.119553877,0.0248166766,-0.0012911233,-0.3934488511,0.8721570252,-0.3335102015,-0.0946163341,-0.3396435839,-0.5511416612,0.0446226864,-0.5559057835,-0.5190174151,-0.6357012515,-0.1160200556,0.6424209919,-0.3583684321,-0.8044410485,-0.1681481906,0.5267933764,1.1136308079,9.5095487341,-8.3384743209,-0.140605151,-0.9015418175,-0.3401525896,0.6581288754,-0.6102997049,-0.0317249267,0.0576123582,0.0066041919,0.3835859694,-0.0452159912,-0.2587763829,0.2399831051,-0.8155295894,0.6359583951,0.5111360164,0.939000946,0.5304201369,-0.1322003961,0.4213477977,-0.8467512992,0.1418099328,0.9356511777,-9.1747852556,-0.9594579201,-0.9311190908,0.2949508895,-1.6137520904,-1.6047927368,-1.3542569476,-0.8365270078,-1.9285784373,0.0134821049,-0.8051236686,0.3395554545,0.7292889712,-0.0320009353,0.2769152743,0.4777204547,-0.4335288414,0.0393744111,-0.0485166223,0.1928069813,0.5607390089,0.8009721166,-1.7887131714,-11.8313866219,-1.0510818355,-0.8261818216,0.0303035469,0.3758149463,-0.1711012051,-1.1401416097,-0.6161145918,-1.2561348871,-1.0431905362,-0.2663294857,0.09474594,-1.0744486993,-0.7005530548,0.2140327339,-0.9558949167,-0.5131922039,-0.1904524073,-0.5796548958,0.3206178466,1.7120057463,-0.5458824384,-4.0853941368,7.488044032,-0.1587897795,-0.3798507484,-0.3260238262,-0.5258555564,-0.6317078576,0.8102421602,0.0962870715,-0.5396532722,-0.475254848,-0.5762474586,0.4577411884,0.1001523819,-0.1222320753,0.2565100031,0.3195810235,0.8233328245,0.1122993027,-0.2111397361,0.4116513037,-0.6308768596,1.1304566573,0.2042238614,31.1508594216,0.0702601389,0.6873160541,1.2755334518,0.0517610774,0.6322503726,-0.7066317725,-0.402597097,0.5967608232,0.9966380385,-0.1770859451,-0.7313998352,-0.4904770777,-0.8447066303,0.1701506677,0.4900287613,0.5471234864,-0.2127493433,0.5918727874,0.8697370712,1.0229623023,0.7185544978,-0.5004019968,-1.1850646621,-0.4700356201,0.5762705592,0.7188770887,1.2007809657,0.8917156111,-0.2916386245,0.6784210349,1.0808079784,0.0057010867,0.1846979718,0.795496755,-0.5088520012,0.1195235639,0.9653729433,0.1059903723,-0.3325725558,1.152800462,-0.0265643433,1.0823745742,-0.778395604,-0.7881367613,1.8690953529,21.251020659,0.1028560823,0.5709058624,0.1942482067,0.8779145311,0.5732402345,-0.5500771595,-0.7630145744,0.2027045661,1.1564352159,-0.2156110095,-0.4251320307,-0.5211424899,-0.120283552,-0.5105084758,-0.0920132804,-0.5684623012,0.6313896484,0.0499137432,0.7167408167,2.2167052815,0.4911344134,-0.522650414,-3.8352375603,0.1093202958,0.8841473173,-0.2575888981,-0.7879527856,-0.7013999964,-0.3119681831,0.0931619456,-0.9288419903,-0.2653257834,0.6186680045,-0.5145872377,-0.1910948764,0.4435874857,0.5546641699,-0.303850195,-0.5182161557,-0.5881928311,-1.0391869152,0.7274309055,1.158876828,0.1377510902,-0.7153938573,-12.2751800515,0.7021681432,0.6317409214,0.2454294188,0.4644330625,1.3213462528,0.8941639705,0.0920024836,0.1615467557,0.1837876353,0.8114346284,-0.5263482546,-0.5229669776,0.1795728446,-0.0593743977,-0.5748236047,-0.983021944,-0.1876060083,-0.0871375908,-0.011731615,-0.1263897208,0.0720638743,0.4866861787,0.6112995544,0.6884074004,-0.7177021869,0.3989749158,0.2940554005,0.448904649,0.4661989463,-0.4180472474,0.1411407953,0.7172526106,0.9497366235,0.7261046692,-0.2551140204,1.0230186757,0.1716436253,0.7001931402,1.1446820451,1.1657788503,0.7884631434,-0.1666956597,-0.0416818648,0.4378117713,-2.9373607566,-0.3549700844,-0.6094763773,-0.4569694859,0.0448343965,0.2253045435,-0.8720864871,-0.807737628,0.4837094606,0.4153611882,0.2136980551,-0.2012389151,-0.333886059,-0.2734036015,0.6173954919,-0.8547642416,1.0480214171,0.3340482838,0.7143964437,-0.124231148,-1.146148748,-0.3256205122,0.631910406,-0.397696423,0.4192763627,0.0822285555,1.3289299487,0.5506576393,0.8363674547,-0.1303308335,0.705606115,0.0419281446,0.2872838663,0.450803375,0.171314916,0.6702809223,-0.4921676425,1.1824644184,0.2261810295,0.2701745573,-0.5110899789,-0.4354402199,1.037725468,-0.6030822949,1.1179250247,-0.5729191123,1.4033202251,-19.2944889173,-0.170210889,0.0799040192,-0.4362572912,0.0388846092,-0.5849318712,0.3805802043,0.661948921,0.5153426305,0.6898275578,-0.7596707145,0.1761519258,-0.1270651826,-0.2709725315,-0.0903101842,1.4248235819,1.7120428985,1.0957136102,1.5694553432,0.9867017887,-1.1457368192,-0.9818182905,0.7328732071,1.0553213876,-0.2406192896,-0.2653424348,-1.2158423481,-1.3819325884,-0.7234168914,-0.8805773114,-0.3327072234,-0.4845952822,-1.0022048975,0.2784169519,-0.5835175175,-0.0374246884,-0.0954308242,-0.171315488,0.0303254204,-1.0182845491,-1.4042307681,-0.7622966928,-1.0905116658,-0.8992855935,0.0028007294,2.9749169862,-4.6828382659,0.7120009367,-0.5248419482,-0.9984333217,-0.5549207445,-0.1923521653,-0.2000835999,0.3199361811,-0.0943987392,0.431048733,0.2222100385,-1.1654362835,0.22022451,-0.2252889747,-0.3833595322,-0.0311908934,-0.4133241549,-0.5500428513,-1.2330507263,-0.990051281,-0.3823816542,-1.0163177955,-20.1756422472,-24.6589381579,-0.9666999198,-0.6847327249,0.436895525,0.3813091808,-1.2050365931,0.7312625341,0.4228476163,0.2758460188,0.6755397947,-0.0803992864,-0.022702948,0.0149200643,-0.6641088556,-0.4346247823,0.4686509983,-0.7172912093,0.3299929954,0.2262149139,-0.2701354666,-1.7384427365,-0.9137176837,-0.9908433072,-0.5943842279,0.6503111767,0.2745638039,0.5741225882,-0.5550808691,0.1249151833,0.2845083991,-0.4683499443,-0.080497167,-0.2742784474,-0.2848318202,0.1385510036,0.1600460951,-0.5922822707,0.3560747536,-0.3015986706,-0.6854970834,-0.151137668,-0.9248460359,0.4194112431,-0.1314375696,0.111599361,-1.077061359,4.1370107872,-0.5810813542,-0.7262515159,0.6184389672,0.2136313239,-1.0183144485,0.2719607329,0.9874557217,0.5229420139,0.229667413,0.679056621,0.3491582734,-0.1534070259,-0.9852474061,-0.0291878293,-0.0866568924,0.1537179612,0.9024526775,0.5920658394,-1.0106902729,-0.3540036717,-0.4280656249,8.4471484157,1.2020924071,0.6998709691,0.5179464191,-0.9135921092,-0.2208316848,-0.2905180328,-0.4646436085,0.1233934342,0.5615257593,0.3028767703,0.8032896942,0.1542047649,-0.0054547915,-0.4081865684,-0.1849178432,0.6729615262,-0.3519425443,0.4358342126,-0.6275802611,-0.8465470581,3.6513438028,0.5541116471,-0.57095359,-0.3040457075,-0.6211114212,-0.7866676558,-0.5819872569,-0.4984610913,0.8453738364,0.6075859919,0.6155839543,0.5442237489,0.4190128058,0.1496450002,0.6076415751,0.1853777675,0.2930485474,0.6623416929,0.1846271646,-0.935195428,0.2637412507,0.2724436775,-0.5303912411,0.3393225911,-0.0305752974,-0.1014503791,-69.7604163273,-0.099128567,-0.8623165106,0.9113975209,0.8603411202,0.7416461842,-0.9479670455,-0.9327017073,0.1905317268,-0.2582964877,0.5224906496,-0.30538309,1.0873959364,0.092335768,0.0109597686,0.5146543674,-0.0500459296,-0.7056108372,0.7115877215,-0.5385705501,-2.8181996693,0.676911277,8.0708125108,8.6761342418,-0.5523803708,0.6406191252,0.6172719547,-0.8728981781,0.2260970937,-0.9281277743,-0.6714598452,0.2973603105,-0.1979804454,-0.5880730788,0.2929051427,0.5815339866,-0.840486236,-0.1617189905,-0.2233588327,-0.4365013605,-0.5570528322,0.4887127537,0.398756556,0.3555294606,-0.5790765015,5.1886647397,-20.118090262,0.5668100627,-0.5414667288,-0.8953270854,-0.9128257082,-1.0401593979,0.7271274788,-0.8034264577,-0.0091892707,1.35603486,0.6291923772,-0.1499645384,-0.9309286857,-0.2852324316,0.4960916045,-0.8056621652,0.5837207606,0.5886757868,0.8542249365,-0.822397289,-4.7601707449,-0.3009640465,-4.3210155724,13.802876978,-0.1750903466,-0.7459558853
   -0.7640652509,-0.1256042558,0.3820005116,-0.2840177596,-0.1399956065,0.0190303428,-0.3096640274,0.0733811449,0.2741786121,-0.6811852487,0.7218073174,1.1329031612,-0.8709065945,-0.3641960818,0.5809945413,-0.356192412,0.0004597747,0.5342770988,0.1653055819,-1.2793067712,-0.1138879899,-0.7214236789,-0.8391080033,-0.1317291732,0.038040901,0.2786726688,-1.292265508,0.0934876292,0.1907233523,-0.8379103592,-0.185287638,-1.0940765324,-0.8476777605,-0.129136074,-0.8270696428,-0.9139310328,-0.9463051799,-1.4600302744,-0.1273150873,0.1040671064,-0.5143767865,-0.2887191136,2.9539174344,-4.3446244071,-0.7075732193,-0.4057480154,0.3110110654,0.0334671709,-0.6660796706,-0.3138832891,0.6913517406,-0.8202980555,-0.4619585845,0.2321200215,0.8209384645,-0.7846892839,0.4732200379,0.9067160876,-0.5115555513,-0.4962866988,0.7214628729,-0.1629144211,0.2139447936,-7.7551806319,-0.1107787453,-0.2038123418,8.8547316609,-0.2788889728,-0.9223554331,0.1326170779,0.2132659683,-0.464094347,-0.7454088223,0.0561921768,0.2253840443,-0.0744557356,0.9871624284,-0.5561723604,0.2851319767,-0.0411858955,0.8197305331,0.3861949657,0.310534156,-0.6818505087,-0.5961842986,0.9101382533,-0.6644386169,0.2948955095,1.603286342,4.3753869947,1.0010229686,0.1087463095,0.3442078552,-0.520935072,0.3445582412,-0.053714731,-0.9659058288,0.1464631045,-0.0665707397,-0.7191786187,0.4563023222,-0.2749091864,-0.3497167464,0.3251439533,-0.918335246,0.3499836153,0.8859694662,-0.1672770343,-0.6948941581,-0.392455704,0.414500179,0.3988406923,1.2968702134,0.9311611565,0.9090041903,0.5129952675,-0.0966655751,0.4417745025,-0.0743583505,-0.1862844647,0.7613228492,0.5657833753,0.0289954579,-0.2323137867,0.9647306643,0.5374119269,-0.6909824855,0.1377780468,-0.1204267206,-0.812439976,0.4680610985,-0.0430278289,0.3900514699,-0.3779814228,-2.9581514732,16.0147486268,0.6855950619,0.0440398542,-0.7493962589,0.4355914258,0.8642206768,-0.8256241905,-0.6318733306,-0.0668296677,0.5984821471,0.5587373435,0.0228303006,0.8682774307,0.9100384526,-0.382321012,-0.3894435344,-0.7513413894,-0.0196627077,-0.8143182901,0.1050485371,0.0478228777,0.7678165018,0.4221793144,-0.2613208666,0.0491935226,-0.6638541616,0.0428299823,-0.0439964506,-0.3494288491,0.6285127636,-1.0853835204,0.7272705093,-0.2762898361,0.4686042891,0.4281688744,-0.8623192761,-1.1313543252,1.0059461092,-0.3842479089,-0.7021251792,-0.0852480463,-0.6220435743,-0.2049036556,-1.2401005935,0.1110710699,-15.6174714158,17.9567762154,-0.1813250842,-0.3439892743,0.3198100904,-0.6373741888,0.4731209788,0.648113305,0.1660250912,-0.990826895,-0.1031138465,-0.8589019095,0.074278193,-0.8678433657,-0.8006009692,0.5711281681,-0.1115427235,-0.4387694349,0.4798325645,0.2858472209,0.8013515888,-0.7626637788,-0.3532742855,0.5830131199,0.081466925,0.2000518266,-0.524896779,-0.9772356994,-0.0124833189,-0.8505011704,-0.546687385,-0.7425700911,0.269417335,-0.6700420029,-0.9816636549,-0.5757815929,-0.4480553234,-0.6993247205,-0.8963372652,0.4580775061,-0.8518892102,0.1080023475,0.1997480101,-0.4076452088,0.5741017433,0.5500962497,1.4509744199,18.8720468342,-0.1729923873,0.0244580745,-0.2954461006,-0.8882174563,-0.4601035249,0.2850699617,-0.8286268876,-0.9838965709,0.5057009561,0.320893439,-0.3697586878,0.5755154557,-0.5005198426,-0.51955579,-0.0449035097,-1.0495956367,0.3427103801,0.4152096581,-0.9529028055,-0.7760562068,0.4277742436,8.3080775777,-10.2560674955,0.757474853,-0.7238905698,0.5613093265,0.76435682,0.2083901751,-0.431695066,-0.7530674938,-0.4341989086,-0.6938875629,0.2936100421,0.3750839803,1.1612777302,0.085298746,-0.2541690882,0.3047615952,0.7682673893,-0.1153782782,-0.5944639276,0.9035543476,1.877349727,0.9636613065,5.4376498924,-49.8286977184,-0.0889299854,0.8896490581,-0.4707725739,-0.2376983876,0.5093822548,0.8141585943,0.8563539513,-0.4346445989,0.0503059127,-0.1002763214,0.5116974218,-0.1691898045,-0.9519365441,0.1988155588,0.7951024912,0.1869129012,1.4509664301,0.48103482,0.7093537989,0.9257722261,0.4625716083,-6.3174188201,8.2018266894,0.5035011976,1.0039478922,-0.1929054638,-0.8507894843,-0.1706676187,-0.0845276812,-0.6940581319,-0.6597915545,-1.1598571142,0.9630339032,-0.9663965803,-0.1628312848,0.5985966853,-0.3811321208,0.2461036438,0.4664610436,-0.7659366444,0.0229305234,0.3048930291,0.3481029299,-0.4674281383,-0.39225115,0.6641773393,-0.3108716987,-1.0065809482,-0.7913855318,0.7443134852,-0.4295373602,-0.2260664504,-0.472020562,-1.2007221274,-1.1573517825,-1.2095176491,-0.6715931917,0.0980835153,0.1126979547,0.5751549964,-0.5983550373,-0.4805470852,-1.0232549853,-0.1194129993,0.6645419446,-0.7835257783,-0.6184929235,-4.5867364916,-14.8868814843,-0.2953813888,0.0054388476,1.0005370681,-0.7754615834,0.6835675262,0.3777404607,0.4782769191,0.6154511842,0.0835859477,-0.5247355381,0.1684306659,-0.5468372941,-0.1763882553,0.7259296318,-0.0022281716,-0.8432321824,-0.0979767735,-0.2922001274,-0.6603884712,-0.4499908677,-0.6975873028,38.8415451641,69.1856475285,-0.307940322,0.4985654612,-0.2378563807,-0.4306293541,0.2364963951,-0.8988494117,-0.9927965196,0.2949856448,-0.4934532802,0.7421892046,0.1092068988,-0.9097405004,0.5720192248,-1.0145485114,0.0595577242,-0.3087046716,0.1174695895,-0.0148030541,-0.6246788026,-18.9024172387,-1.1158355134,-0.4105805089,0.0237725827,-0.0808412721,-0.072921527,-0.3036259405,0.4588379667,-0.5818893532,-0.4131542714,-1.190570767,-0.8409638908,0.4683041814,-0.1169274994,0.1595555619,0.273628759,-0.9893598863,-0.2587336513,0.3718976076,0.1126355375,-0.8657931305,-1.0139131237,-0.4919275943,-0.359396196,0.8990504667,-0.404484941,-18.7560623695,-0.886450015,-0.2727728041,-0.5605092938,-0.8225052473,-0.9715687596,-0.4914711712,-0.9534761723,-0.8286627601,0.6371650783,0.4522438662,0.4340633638,0.1605029773,-0.241132275,-1.5975075514,0.1747297829,0.4238049826,0.441596305,0.4561898902,0.2368795626,0.7480708857,-0.0106658764,0.1805476046,-0.0089434635,0.2367721186,0.6615361993,0.4836059995,-0.4634304545,0.3492445405,0.8511368519,-0.6288615883,0.2831366093,0.6562525671,0.6400128036,0.1833875703,0.7997572613,0.8811133389,0.796933029,-0.3474624595,-0.261946779,0.1956946321,-0.2123538065,-0.5290085481,0.3989636918,-0.8624243442,3.1001314625,1.6179505704,0.5083488706,-0.0701572519,1.1062887233,0.7868121359,-0.7685517092,-0.1141389527,-0.2948333627,-0.5035010382,-0.0650399503,1.2651758443,0.468398698,-0.7665539509,0.6126307031,0.2916436809,0.8558335722,-0.3226790626,0.4364108385,0.9239743531,0.0721272008,-3.8777908968,1.356007196,0.0669448134,0.3136241087,1.4396931258,1.558332874,1.4128994828,0.5836402892,2.0543094081,0.8312039319,-0.6840470945,-0.5857286254,0.8723808249,0.796047994,0.3599166118,1.4412786162,-0.1192892557,1.3048541325,0.2681611408,1.2503768067,1.0262255492,0.5319747965,-0.398804328,0.1914202978,0.7790475261,-0.7671522272,0.5485635677,1.0485237663,-0.6132230499,-0.1671790185,1.1360162488,0.7887800545,1.3469496528,-0.6001288759,0.6636929133,-0.393232586,0.1352794399,1.3195864586,0.012869333,0.1227088884,-0.4924742813,-0.5714467115,0.0360282895,1.0902266104,-0.3315212115,0.3637567607,-0.5308182927,0.0902171666,-3.2246035938,3.3485739309,-0.6913620161,-0.7274307192,-0.4871741143,0.5005292448,-0.3072343416,0.9938717275,-0.2839456107,-0.6842346669,-0.2148181678,0.3578976982,-1.0955815457,0.5207288765,0.2202861244,-0.037509346,-0.796490153,0.4351744528,0.1383295725,-0.8473119245,0.6747963832,0.1195827289,0.6247316681,-0.5693057988,0.2703622758,-0.410293768,0.0510405651,-0.9947603206,0.8950800933,-0.7475843651,0.3414249214,0.4147732649,-0.0956426153,0.6583889586,0.7752131274,-0.285698284,0.7460248066,0.1886933636,-0.1668392804,0.2238526989,0.5263905099,0.1460039457,-0.4097593658,0.3250331192,0.9097318104,-0.3316587124,-2.2384947868,9.3989372913,-0.716519989,0.0268548315,-0.1193747672,0.2608242803,0.5743476981,-0.372770915,0.800465308,1.0371365381,-0.6820452514,0.5781204822,0.7808628823,0.8131405443,-0.9999745595,0.6317789912,-0.3900778103,0.8359212369,-0.4006427219,-0.8669664845,-0.4206502157,-1.7417472761,-0.8459795041,4.1247643084,-8.8026637048,0.1432378429,0.8681452045,-0.4993015619,0.4162275744,-0.0478787162,-0.2551242342,0.5158613373,-0.5277094056,-0.1180998449,1.3537179679,0.5397034362,0.5146675844,-0.4348208204,0.7698518327,-1.0404683008,-0.272484576,-0.320345925,-0.0963711185,0.0175655872,-3.2680661114,0.8848933015,-0.4441037481,3.5231312298,0.1549576214,0.1422974601,-0.5813963103,-0.0327523153,0.675413957,0.5769572557,0.1813635375,-0.7350342954,0.3412327615,-0.9181568234,0.6134942484,0.5930440495,-0.4428699988,0.0318171509,0.212826906,-0.5028853866,-0.1959731886,0.1536293634,-0.7206189824,-1.0269234497
##end
biasActivation=0,1,1,1,1
[BASIC:ACTIVATION]
"org.encog.engine.network.activation.ActivationTANH"
"org.encog.engine.network.activation.ActivationTANH"
"org.encog.engine.network.activation.ActivationTANH"
"org.encog.engine.network.activation.ActivationTANH"
"org.encog.engine.network.activation.ActivationLinear"
