encog,BasicNetwork,java,3.4.0,1,1571649470305
[BASIC]
[BASIC:PARAMS]
[BASIC:NETWORK]
beginTraining=0
connectionLimit=0
contextTargetOffset=0,0,0,0
contextTargetSize=0,0,0,0
endTraining=3
hasContext=f
inputCount=22
layerCounts=3,41,101,23
layerFeedCounts=3,40,100,22
layerContextCount=0,0,0,0
layerIndex=0,3,44,145
output=0,0,0,0,0,0,0,0,0,0,0,0,0,0,0,0,0,0,0,0,0,0,0,0,0,0,0,0,0,0,0,0,0,0,0,0,0,0,0,0,0,0,0,1,0,0,0,0,0,0,0,0,0,0,0,0,0,0,0,0,0,0,0,0,0,0,0,0,0,0,0,0,0,0,0,0,0,0,0,0,0,0,0,0,0,0,0,0,0,0,0,0,0,0,0,0,0,0,0,0,0,0,0,0,0,0,0,0,0,0,0,0,0,0,0,0,0,0,0,0,0,0,0,0,0,0,0,0,0,0,0,0,0,0,0,0,0,0,0,0,0,0,0,0,1,0,0,0,0,0,0,0,0,0,0,0,0,0,0,0,0,0,0,0,0,0,0,1
outputCount=3
weightIndex=0,123,4163,6463
weights=##0
##double#6463
   0.2656255759,-0.6237703473,-0.3449485239,0.5248774661,-0.1659824054,-0.6818173829,-0.5463781096,-0.6250183349,-0.5446068013,-0.9733890069,0.4842688058,0.1862728232,-0.5383443153,-0.0375578055,-0.1768936326,1.0608176489,-0.0562861825,0.5035611591,0.2549736923,0.3471499717,0.5719591785,-0.2015611399,0.8119805363,0.0835955527,-1.105896217,0.5311660723,0.5887322703,-0.99204827,-0.1182589071,-1.0221765152,0.292360765,-0.008761066,0.7148767509,0.655701694,-0.2592906543,-0.3649865753,1.7181904452,-1.1284040679,0.5286727129,-0.599182745,0.3910060986,1.0829487236,-0.7567666206,-0.072940417,0.3996902902,-0.9895807028,0.7874231422,0.5879743043,0.7538861885,-0.0443308399,0.1712528416,-0.4550100227,-0.1297807104,-0.3075646147,-0.3783468777,0.6001293162,-0.3306031153,-0.0926821707,0.2011715875,0.6228486858,-0.3664096357,-0.2629283457,-0.4517988104,-0.5691839954,0.2731368984,0.0181273861,0.729691861,0.1249387145,-0.7721538347,-0.541925504,0.9002520807,-0.7683871026,0.3991957773,0.3746968422,-0.4343730313,-0.0434644641,0.8138084476,0.6573511037,0.5504413749,-0.6722833468,-0.3405541074,-0.8829374578,-0.7637200638,0.214137384,-0.6579385389,0.9083352357,0.2982099642,0.2663457274,-0.5422197934,-0.2134687366,-0.5377921285,0.4669369395,0.0382484571,-0.0092366204,-0.0084171443,-0.297071316,0.0001041738,0.0117507765,-0.822908874,-0.8645391007,-0.5107458629,0.18904124,0.9366832561,0.7920157441,0.0749487166,-0.437125339,-0.0459054422,-0.3510843433,0.7972588044,-0.0434245807,-0.8591984817,-0.2826085162,-0.6922641421,-0.3948288179,-0.2265477423,-0.1695987901,0.5428979377,-0.4545626366,0.6601980002,-0.5063073219,-0.2528657121,-0.06121045,-0.1440982258,0.8729183798,0.7671801535,-0.4838431247,0.8723587552,-0.7548497752,0.1428693483,-0.0463653192,-0.393420378,-0.6013335942,-0.9603627594,0.1046174752,0.5448751173,-0.5680139579,-0.3171702552,-0.960228775,-0.7527669929,0.9955638127,0.8757576973,1.3461263552,-0.8193623849,-0.8618521133,1.333413445,-0.1285717891,-0.5979682794,-1.2433779434,-0.205559637,-0.0993268089,0.4250565467,-0.0477441564,0.5430577024,-0.8008689558,0.6086547147,0.727524645,0.6840293811,0.9391624388,0.4273734379,0.4453964639,0.5726215569,-0.7706557179,-0.4144290264,0.7812136136,-0.2650011095,0.1845553155,0.1543744627,-0.6015034462,-0.4558029413,0.6989244197,0.308936415,-0.4810276672,-0.2306838674,0.510093611,0.4863476059,-0.5065161563,-0.45687506,-0.4999020397,0.7901050919,-0.1851518745,-0.0562289126,-0.2468176092,-0.3210565517,0.0102524855,-0.5483095638,0.1647358877,-0.6578065439,0.3607131736,0.0675909037,0.5933011972,0.9933233825,-0.0716446595,-0.4426807167,0.7660314039,-0.4368108067,1.0540318807,0.0669241526,-1.4892859206,-0.6874652562,-0.3884213084,0.0054190191,0.9044614801,-1.0520993386,0.5414453083,-0.6510379332,0.0118089532,0.6549102891,-0.7431480469,0.2303756416,1.2748597122,-0.9507449466,-0.5445937215,-0.3707035268,-0.5044477722,0.7705933863,0.9085459675,-0.1768857707,-0.1806247923,-0.2968499977,0.9865435734,0.4832292319,-0.1288877059,-0.0886959629,-0.680679928,0.5818846359,0.3450175658,0.5731664269,-0.8830769691,-0.9456932833,-0.2320061725,0.2937024635,0.367454508,0.644786725,0.7627186123,0.4063641852,0.5415414367,-0.81043097,0.8512497057,0.3496541038,-1.1512254343,-0.807486247,-0.2174829307,0.2774371332,-0.4043754069,0.4891189122,0.387108308,-0.72379496,-0.358325678,0.4324925828,-0.0115067559,-0.8966747887,0.1192916413,-0.8762206836,-0.7323298666,-0.6726378609,0.5034113737,0.5613065918,0.6294183194,0.4572381041,0.5819613652,-2.561984012,0.1031805783,0.6043308892,0.0832760363,0.7820271849,0.5577138164,-0.1303382528,-0.8664855805,0.9697320582,1.1864232867,-0.68455364,0.1057379475,0.5209689477,0.1549263628,-0.520437289,-0.3320922578,-0.9056297415,-0.4707728983,-0.7380435406,-1.0617723146,-0.8597807185,0.0815508674,0.9611781794,0.297066557,-0.093024491,-0.2374921191,0.0653820041,0.5986933886,0.2526191037,-0.3529639027,0.474961001,-0.067747409,0.7639836588,-0.3066903594,0.3907341088,0.0186265922,0.1808782227,0.1760986946,0.6479429068,1.0057360968,0.1358787612,-0.768391476,-0.6887130774,-2.2733285071,-0.7387156953,-0.7410141289,-0.0789562826,-0.2859606541,-0.5163541799,0.3617135301,0.4278567793,0.7842164173,-0.8893180602,-0.625860212,-0.814407814,-0.6121831887,-0.6157135805,0.383333379,-0.0878885058,0.0941990152,0.4335187852,1.1120145417,-0.9131275142,0.3619923512,-0.7821141453,-0.1198213107,-0.6942638115,0.0331816754,-0.4845977327,-0.7146591554,-0.4260594538,-1.0502813065,0.9234772286,-0.8779062638,-0.5416452796,0.5397209153,-0.5087684888,0.1467734527,0.3303156184,0.3539384952,-0.3261889451,-1.0604735444,-0.5662934105,0.5394630024,-0.6993169776,0.3569882422,0.0684468066,1.5711785016,-0.2691585711,0.5654481632,0.7043046157,-0.0320427595,-0.5135944942,0.278190774,-0.4963083039,0.2283879212,-0.0746016806,0.4687673695,-0.8651592473,-0.6250461729,2.2290797537,1.0325082265,0.9679248596,-0.788259639,0.2485414959,-0.4336980387,1.2497977022,-0.0723616831,0.7319639241,0.1868416514,0.8944811999,-0.3406534721,0.2392245532,-0.4324055927,1.5910317562,-0.2033845497,-0.4013011334,0.865405978,0.816483611,-1.447752248,-0.0744095435,-0.1627534028,0.9881521407,-0.8642593084,0.9538765036,0.4191896691,0.5553979219,-0.1741259868,0.6599490798,0.6029806267,-1.2814136795,0.6357324956,0.8626043102,0.8842079643,0.7961108316,-0.2345927914,0.2993862754,-0.3683589135,-0.9146368376,-0.089807107,0.0296354083,-0.3310875416,0.4532724091,-0.2511807214,-0.5220271061,-0.2311356632,0.9124567416,0.2234977504,-0.4591827399,-0.0047357914,0.0529583267,0.4261426826,-0.9094071304,0.8155147386,-0.4339894982,0.9693425536,0.6628212722,0.775245257,0.369163356,-0.3996048027,-0.041346551,0.3089416572,-0.5017060943,0.2790323362,-0.0613385236,0.1128934042,-0.667957872,0.7936156945,0.7757105061,0.8995619574,1.845385759,-0.7727631986,0.395023751,0.0237597503,-0.74798189,-0.4995757422,-0.4330278066,-0.5925964684,-0.1964131943,-0.2450665046,-0.2230487751,-0.1606627688,0.1332214958,0.593222532,-0.5460139666,-0.1913065326,-1.9753793889,0.6405139769,0.7919630533,-0.3863062118,0.9908657043,0.4695796535,0.6832301365,0.195940597,0.5934185075,-0.0270819948,-0.6366113375,-0.1648090672,0.7738980018,-0.1001056902,-0.2719017115,-0.9105276252,0.4024829328,-0.4280203774,0.2479552171,1.1480274334,-0.057019766,-0.0792523919,-0.690900222,-1.8963897392,1.1532735604,1.4267877434,1.3568703084,0.2643950046,0.5967045181,0.9175130415,-0.0689278449,0.3904263838,0.4007213513,-0.1527932775,1.7434341258,0.8887724392,-0.9419685663,0.1829498673,0.2386985547,-0.2329405665,0.6084059761,0.8623715285,-1.3203318263,-0.5622013693,1.1758555248,0.5267116171,-0.5233317997,-0.3475780439,-0.4356387906,2.054218073,-0.5986400293,-0.3280183298,-0.3076205428,-0.4292849732,0.1594194812,0.2978467872,-0.3731397312,0.1437623066,-1.9574515519,0.1596513757,-0.5971153115,0.3633139208,0.3002289064,-0.0816595378,-2.070282664,0.4939573242,-0.2804109992,0.6133920866,0.1044767294,-0.3319225544,-1.0877444522,-1.3962304009,-1.4062255908,-0.2667257905,-0.8596980767,0.0980798519,0.5354829771,-0.6439817808,-0.0551791254,-0.5297463354,0.4895066861,0.4578570951,-0.3999381299,-0.4914375691,0.3865240959,0.2570135705,0.2330900319,-0.9625037619,1.1927957215,-0.2856321993,-0.1922334811,-0.7513484954,-0.2024730198,0.4749158053,0.1970677001,-0.408060566,1.1229493725,-0.0197261115,-1.0157401558,1.3365751524,1.3961649684,-0.368335558,-0.3932337678,-0.8790473979,1.2671226768,-0.2195133481,1.365632894,-0.0656019409,0.8017419858,-0.0948703807,-0.0483488319,-0.2949156977,1.1980296086,-0.5436634325,-0.0169888969,0.4623290795,0.3348254428,0.6091808125,-0.0307109631,-1.518127683,0.3450545327,-0.0485360219,1.1301697501,0.1773055995,0.3960176733,-1.0344771654,-1.5332310681,-0.9106656058,-0.1361114468,-0.3451514752,0.0498766289,-0.2066740021,-0.1477675915,0.63370957,-0.6031319382,0.0126800208,-0.4864086448,0.2660751037,-1.5427836586,-0.4291681823,-0.8159990791,-0.4466777892,0.3591684311,0.5531278593,0.5020142905,-0.7594259307,-0.2813777428,-0.0136516019,0.1513378512,-0.7895513843,0.3464623448,0.0012831224,-0.6725791423,0.3390891733,0.2691963637,-0.0093543079,-0.1374531213,0.3816912953,-0.4200917963,-0.5094399598,0.9654820122,0.6143525043,-0.2122362223,0.2432179531,-0.7566861887,0.3135165508,-0.1497027166,0.0396988438,0.1514767742,-0.2764851963,-0.0058294752,0.2895421296,-0.7233798414,0.1616386596,-0.1341699483,0.1737684935,0.3942239608,0.8569441125,1.0406396524,-1.5878111826,1.6826800873,-0.694224235,-0.4914820806,-0.4175898268,-0.1713844164,0.1560292502,0.5081363609,0.8761249803,-1.0161650254,1.1454029482,-0.756980242,-0.2899226949,0.0252219928,-0.9202288058,-0.2368798365,-2.272542198,-0.7195735615,0.5828946038,-0.1891599371,-0.1905192346,-0.3286556889,0.2308809442,0.9095721856,-0.6145325062,0.3981305117,0.241585122,-0.7711511726,0.262613426,-0.7989519858,0.2294920028,0.4437640196,1.7074812939,-0.5975079177,1.226709067,0.0763695691,-0.0791371615,0.4724978775,0.3007002486,-0.8435917338,-0.5446253835,0.6723612364,0.2143476538,1.0731696299,0.2856257922,0.4466419034,0.703026448,0.342931185,0.4487437638,-0.5644496766,-1.3259772737,-0.4677677026,-0.2283885966,0.0271319116,-0.5861743256,-0.566168836,0.4403546806,0.9390970007,-0.638871262,-0.4115668444,-1.5184878051,0.3885207705,-0.7391674633,-0.4959906009,0.1066017358,-0.1610841535,0.2181286752,-0.0432508253,-0.9421135691,1.0682312513,-0.8638090077,0.240770809,0.6617316606,-0.4357808559,-0.2242640341,0.6496002079,-0.1128378216,0.1927706871,-0.3341195594,-0.6901823352,0.3664636072,0.2105431232,-0.2054295817,0.3797098908,-0.1845585663,0.2176302302,0.1635222032,0.5355000294,-0.1997641983,-0.8756174057,0.9556000471,1.0534228918,0.6617699845,1.0407366828,-0.6246167506,0.789514293,-0.0699267802,-0.989764308,0.4898426265,-0.1385141861,-0.3522103208,-0.0400020937,0.2166121563,-0.5998150613,-0.3186399347,-0.2425148332,0.6631561379,-0.3772356844,0.0117206392,0.0231377872,-0.9712496822,0.6955396727,-0.0373622207,1.1224228774,-0.0523734613,-0.2007750189,0.866093794,0.3031542747,-1.1037131624,-0.583366245,0.2287651056,0.3674975515,-0.8591429652,-0.0646653605,0.5356066144,-0.920050958,-0.0570322708,-0.0761991213,-0.7826163522,0.5556103735,0.7157945669,1.135383558,1.4279202932,-1.2452445066,0.7433659146,0.4992481379,0.5807891682,-0.6611946677,-0.1922927411,0.2324386706,-0.0529514809,-0.4601134968,0.5439894543,-0.7703459183,-0.8473466874,0.7227941657,-1.0067789807,-0.7398809446,-0.5949985465,0.2219536579,-0.451233325,0.8100298083,-0.4721780176,-0.8602180276,0.8782628767,0.7234150218,0.4573040072,-0.4972007452,0.7828707663,0.3794951552,0.5103475121,1.111983237,-1.2208291656,0.4361700799,0.4970599699,0.0938391248,-0.8328963103,-0.5486053914,-0.2069248954,-0.5547302548,0.0821265993,-0.3450011165,-1.0954315016,0.7889369733,-0.3580187533,-0.4607816183,0.8688191247,-0.0530002303,0.6344861221,-0.4090424098,-1.0127455372,0.7365585603,-0.1899533918,-0.7121790284,0.9176821739,1.2594590821,0.8485014512,0.721837221,0.3228234439,-0.0403534448,-2.3613204327,-0.9782432063,0.240443791,0.2664752762,-0.8998862493,0.3911776777,-0.6350043157,0.2318756918,-1.5052752541,-0.0200211497,-0.6558110884,0.2945851723,0.3913069386,0.0182048908,0.5648034458,-0.7514486249,0.3721183891,-0.8610532292,-0.5270400661,0.6331276003,0.5918729854,0.841558552,0.662764954,0.6525485085,-0.8920440326,0.3932500307,0.1102637448,0.524339762,-0.2754193689,-0.4578304587,-1.1666365254,-0.9637854786,0.1364267045,-0.6881697472,-0.1277308897,0.214102502,-0.7796395064,-0.7000580169,0.2550428868,-0.1336729563,0.3117849971,-0.7321137309,-0.9463597603,-0.7876575192,0.3159708286,0.9195553247,-0.0804722503,0.7934244501,-0.1793726546,-0.4124891078,-0.0465634614,-2.6023647471,1.0161968625,0.2339594471,-0.2276819289,0.7773124766,-0.336499708,0.8183889167,-0.6585779037,-0.8746559436,0.4043347872,0.9692935029,-0.7745239821,0.2989131107,0.6640046952,-0.7738811622,-0.409332222,0.9257142296,0.5212652101,0.2062773081,-0.9122864456,0.2496885769,0.5289032894,1.1954788793,-0.2533247714,0.7028658512,-0.6614168314,0.9570926045,0.615808177,0.3662672375,-0.3192474597,-0.8707294402,-0.7617895317,-0.1856856978,0.1340548778,-0.3886812275,-0.7347541513,0.1496613695,0.1917100802,0.3328660517,1.00866357,0.2704680721,-0.1608020689,-0.7412435223,-2.2786677672,-0.4436948758,-1.3513747528,-0.0108792836,-0.2761183246,0.4930170034,0.1240179039,0.5639668724,0.6101945841,-0.0775721419,0.9826696741,0.4391622367,-0.3023301387,-0.4651250996,0.6333794415,0.478238837,0.155132099,1.6102280426,0.0212910311,-0.6380427251,0.3692822313,0.1406737924,1.1902028359,0.0980116249,-0.1103184721,0.189392165,-0.0227610831,-0.0413751191,0.0590790741,-0.9810129345,-0.2782708895,1.5533084724,0.6470882651,1.3139027925,1.1883690092,-0.0324318392,0.6935440808,-0.7480189623,-0.2494512417,0.2076247304,-0.3840001375,-0.8463820367,0.4939693046,-0.4158580606,-0.0435677339,0.801081708,0.7308549353,-0.6047335685,0.6120495774,-0.0141954591,0.3654124349,-0.0398902796,0.8027177541,0.5184631956,-1.4176483614,0.93096945,0.3035413775,-0.4750837687,1.0997886153,-0.7738345505,-0.6019107704,-0.8896164556,-0.4184581418,-0.4846924155,2.2297385451,0.716760425,-0.8872278861,-2.8829580358,-0.0090728389,0.5690351716,-1.0442043082,1.6013213825,-0.4184644512,-0.8108654794,0.791727268,0.823659901,-0.4056907407,-0.036522681,0.8197765964,-0.3551295771,-0.4368212282,0.7999640097,-0.4191075849,-0.8869864157,0.7185227441,10.6207747014,0.1914253619,1.4180003076,-0.496870792,-0.3572578779,-0.023000548,-0.2344266265,0.1305594196,0.1693989665,-1.2661294456,0.6255888982,-0.6328375913,0.0567008588,-0.3923307977,0.3265541561,0.9848229383,1.1082382198,-0.2703821687,0.187807275,0.0002338579,-0.4252196816,0.013678373,-0.6837312266,0.7385791109,-0.4530710147,-0.0776347972,-0.3432142812,0.056493018,-0.0999155666,-0.0519672347,0.2880277013,0.1295700604,-0.4250165438,-0.2003023068,-0.0400151615,0.3377625902,-0.1466015078,-0.8860638177,0.8089971993,-0.4369607576,-1.2225954656,-0.7901959735,-0.2630354595,0.4377085301,-0.5150683875,-0.1574552915,0.3355860376,0.3729320272,-0.2298748741,0.0633555384,0.7367998292,-5.1448347797,0.020983067,-0.3055745893,1.2119514344,1.6865666407,-0.2544130068,-0.9313263171,-0.5713247462,-0.3552883279,-0.2214521762,3.2148516356,-0.9061444871,1.2430068722,0.0448732328,-0.3814895838,0.02140128,2.5783382349,-0.6706753574,1.2626711222,-1.4784145804,0.8969935288,1.1721359775,-0.3001964835,-1.0824237396,-1.1742431636,0.4798582943,0.4490445252,-0.0750779986,-0.333163341,1.8873086719,0.6527344614,0.3241931673,-0.6966425406,-0.0037130747,-1.8313883322,-0.530586714,0.2014821059,-1.8722724057,-0.0647297928,-1.9886776934,0.3072313468,-0.5025002048,-0.5131801903,1.0262230062,0.4785835553,-1.5615032877,-0.47349271,0.3553242933,0.2395690662,-0.5889565751,-0.313726751,0.2922011543,0.1412240273,0.4509694841,1.1706197806,-0.8557208409,-0.2123286668,-0.2897389403,0.1905346013,0.0462710251,-1.5257541573,-1.6645029238,1.6206292867,0.9048537756,-0.894454001,-0.3598780311,-0.4808336974,0.0476937157,-0.5971668687,3.9947819457,-1.0641504629,-0.5322037815,0.7215106769,0.3454099843,0.3342146793,0.8482126863,0.6907666958,-0.6715597551,0.8183010973,0.868927895,0.0809855199,-1.1608385932,0.3835405868,0.5768980285,1.7386524485,-0.1447858922,-0.5719361861,0.4909231766,-0.0905674011,0.9590358096,0.3598250883,-0.9659001493,-1.0660869981,0.8947397813,0.2701082531,0.8833836295,0.1043325598,0.8475862861,-0.0327698867,0.8586630075,0.4632658939,-1.2631914407,-0.2685000506,-0.5233261509,0.9521983174,0.7444439357,-0.8671850434,0.8311109521,-0.0694904679,-1.4376853609,0.4841066901,0.7768432305,-0.5305829317,-0.2413559391,-0.1217936854,-0.465973043,0.79959937,0.8131661377,-1.7777405282,-0.3814246907,-0.2744355676,0.922511999,0.3052179632,0.2257632639,-0.397368069,-0.225297012,-0.2773574894,-0.6545433626,-1.0352856981,-0.8021122835,-0.9787528923,0.5300397192,0.1876126771,0.1982711445,0.0089980313,-0.407261809,-1.0521294046,-0.7796740781,3.4581875052,0.1452320092,-0.3043747168,1.1895762919,-0.6024904736,-0.2300457712,-0.2438373039,2.4300681066,1.3584859838,1.2000751977,-3.4039760592,0.6470121904,0.4875969566,0.6694540836,-0.2023832266,-1.4805432691,-0.451682638,0.6828252809,0.0492038765,0.2551468915,-0.8460540519,-2.1610734245,-1.4613626582,0.1190487259,-0.5286924146,-0.7721066738,-0.7271123402,1.1215772271,-0.1967322544,-0.7914192602,0.7332482202,0.2285753508,-0.7794736803,-0.4612098484,0.8088977019,0.1977833965,4.7085075109,-4.1531400795,2.5584850398,-1.332476925,0.1570638875,-0.3689715844,0.0660431173,1.2139138409,-0.0562546012,-2.339155263,0.4947086968,-0.5364407372,-0.8848361376,-4.5333898487,0.5364895742,0.0264871554,-0.2049197673,-0.1335955428,0.7544756123,0.3133092576,-0.7770021319,0.5457755885,-0.4654783405,-0.6829677649,-0.05162609,-0.768862673,-0.1364293336,0.7617194458,0.6502805576,0.2837860902,0.4321229327,2.7832447996,0.2988011742,-0.9543206221,0.1340353808,0.1800975887,0.3091347148,0.0322716773,-1.8375018267,0.2010645987,1.4134352907,6.5900422404,-0.6809782013,-0.5413941649,-2.0334233287,0.7409868309,0.8243862633,2.260929641,0.7335484174,-0.2763271271,-0.0414847054,0.5572969039,2.3687727346,-0.8113685136,-0.0282458719,0.8041626629,-0.1543562815,2.2135216414,0.1883473939,-0.8580977177,0.7187373986,-0.0101283995,0.6627206745,0.8515814773,1.0705889764,-5.9539221721,-0.5647343934,0.3542302742,0.5050660452,0.8581761551,-4.6993500764,0.4794629113,1.3163910075,-4.9757814809,-0.2380303567,-0.9280502636,0.5129250984,-0.7013164327,-1.2506881282,-0.9699592315,5.5396871684,-0.4619703973,-0.9537038392,-0.0556276209,0.7708433069,0.640396339,-3.2066608543,3.8627068298,3.195681792,-0.1119717305,-0.2104775382,-5.1405983832,-0.3263986965,0.0780919321,-1.3455603421,0.631424694,3.3984286981,-0.48142391,1.8885866103,0.2734145148,0.6803169985,-0.2371155456,0.3880678845,0.0248982431,2.6606917102,-0.0304498876,0.2718870425,0.4230662599,-0.8581730957,6.972334896,0.6780111183,1.0554896636,3.9981156778,-0.2975301401,-2.346704901,0.8323094383,0.4971983111,-0.1113012532,0.1016649373,-0.8483410705,-0.6528073872,0.2617750523,0.8237676944,-0.1740428668,-1.1503564009,0.615117625,0.1858715803,1.0148913674,0.6583559141,0.7296507008,-0.7706667875,-0.6522841373,0.7980674616,-0.1910394569,0.7060497008,-0.0708161773,-0.0916638609,-0.3429359329,-0.3099645888,0.8798565911,0.9354310081,-1.0721931114,-0.5666979293,0.853862439,0.2494922309,-0.9657834117,0.9488672276,3.5690357863,0.5801068535,-0.3086952765,0.5737629926,-1.2647416658,-0.0562648748,-0.0355266382,0.18751306,-0.7870766982,-0.6091069662,-0.0015098642,-0.7188749699,-0.1609039623,-0.5271751169,0.2523166945,-0.3409261643,0.22049259,-0.3182579486,-0.5690184689,-1.9542741376,-0.817801396,0.1150456488,0.2962430157,-0.9487986245,0.732985184,0.7421299603,-1.2501141205,-1.017968322,-0.3911023289,-0.2136663563,-0.7674934672,-0.8589271241,-0.679818959,-0.437379939,0.9601586508,0.4644980519,-0.2491395084,0.0745366089,-0.7934284062,-0.4376583461,0.3886412813,-0.2054681793,-0.2963205024,-0.2750555165,-0.0586235623,-2.5499409617,0.4602936807,-0.0214651694,0.1773212436,0.866989695,0.0439410451,-0.3191774377,0.1025102762,-0.5769128811,-0.3301298108,-1.2141945326,0.3581266232,-0.7382903151,-0.6821774069,1.0630896437,1.0436642121,0.4526297654,0.4142014921,-1.9434583075,-0.7994489166,0.0395815844,-0.2779738628,-0.249886092,0.327329311,0.3515053015,0.3792436606,1.0300810919,-0.0615364414,-0.3655569,-0.6385949683,-0.1678007045,-0.5461362064,0.7424073441,0.6355617321,0.5074477581,0.4206767201,0.8507079848,0.144791637,0.3606083948,-0.9479020106,-0.9681557097,-0.4843184444,0.9377470929,-0.1023012273,-0.8749360691,0.5628055991,-0.1422230808,-0.0734234274,-0.3444643932,-0.0315852949,0.9471099368,-0.3494564973,-0.6268599443,-0.0270430261,-0.5059798259,0.7497564095,0.9434948069,0.6440315912,-0.818534785,-0.7150459261,0.1880230524,-0.7866248569,-0.6121867347,0.1535299162,-0.3074891909,-0.5357633954,0.2549535754,2.421167606,-0.5951664011,0.2367794542,0.0816257415,0.7734474846,-1.1638563745,0.15392936,0.0607666069,-0.0241601125,-0.2103252953,-0.6721355928,-0.0974423543,-0.1201470426,0.3246754584,-0.8755183989,-1.8194765615,0.0532758651,-0.8879567754,-0.0510024483,0.854414798,-0.6290813303,0.9539610462,-0.324558365,-0.1393863055,0.1899545157,-0.0612614486,-0.8888660436,-0.6854328659,0.6205732311,-1.1047953469,0.6597753605,0.0021738182,0.2840870862,-1.0955636885,0.2847282462,0.3608845831,-0.5445387971,0.7025865456,-0.628107561,-0.0787101004,-0.0940823475,-1.0826346878,0.4376147447,-0.185288545,0.0076774644,-0.0490406934,1.2758561395,-0.1504023691,-0.5540528317,-0.280299316,0.2763680953,0.6454088625,-0.2659006167,-0.4355363749,1.0558523653,-0.6716996283,-0.2880080799,-0.1745618598,0.3138981484,1.5798262413,-0.6952346975,-0.2029376263,0.7565898669,-0.3044754946,-0.7723324539,-0.9272483192,-0.5260078929,-0.7760806614,0.4105924354,0.5396798015,0.0512977877,0.6518540324,0.6014628924,0.3599657623,-1.6225170598,-0.4628326726,-0.0870168679,0.5994209457,-1.1636911737,0.0767922514,-0.2479122107,-0.7925813837,-0.8119080836,0.6095457451,0.0874544002,-0.2855481288,0.3190670629,0.4936747027,-0.6691311997,1.8433704042,0.4361164649,0.3705279197,0.3876333363,0.3545307699,0.3500545741,-0.8636132224,0.9982591696,0.2290958035,-0.2241906446,-0.088901579,0.0757205142,0.5296496495,-0.2261825314,-0.1558039382,0.7596164206,0.1603026381,-0.9542211696,-0.9448312368,0.8734402116,-2.5733107545,0.7618268017,-0.8818111311,0.7390163387,0.6825078077,-1.9899706885,-0.1263038171,0.4959717339,0.4871582197,0.9915168332,1.8252327689,-0.6678613508,0.846276127,0.1067190001,0.4612603232,0.2701246559,-0.6187466096,0.5812084114,0.4914617487,-0.6381655897,-0.3195029197,0.563436346,2.0836437125,0.482688715,-0.0930073351,-2.3829521613,-3.9992936666,0.5906760228,-0.197232177,-0.5875903459,0.6231999857,-0.5195990127,-0.6416127864,-0.7966315472,-0.6080159264,0.1575367134,2.0886899799,-0.0492358182,-0.7230091209,3.1203206241,0.5337484741,0.0613481627,0.5686531161,-0.5203226285,3.05827239,-1.4924107258,0.9797362915,0.6019881575,-0.7580351604,0.409063024,-0.1663944999,-1.3497502166,0.8006255166,-0.5043427659,-0.1362537097,0.179304545,-0.1919801321,-0.6165647889,-0.1528314571,-1.1683991673,1.0449365652,-0.6723895137,-0.61036544,0.5467696676,-0.3499150294,-0.8164873459,1.1255831228,0.5906029961,-0.2234312102,-0.0418046584,1.573354137,-0.9842471433,-0.2107295479,-0.085236202,0.5124985351,1.0029295378,-0.1630733073,-0.1201917888,-0.545943324,1.5023737284,0.0171006954,0.8422614116,-0.3753560089,-1.0795115732,0.814363587,-0.7480904252,-0.2247286564,-0.0897951235,-0.3148858321,-0.0627104557,0.4648825018,0.1425870136,-0.7968878815,-1.8192225949,0.0485702694,-0.2741871748,-0.1627785701,-0.733105952,0.4332670011,-0.6450191258,-0.7207663234,1.695965914,-0.0505215778,-0.1991266703,0.4143148343,-0.7374604377,-1.5883452279,0.5924344488,-1.125984888,-1.0959210289,-0.6449808215,-0.2022984822,-0.1319496186,0.4623446258,-0.3049118496,0.3905606933,0.8255161736,-0.4651894109,0.8143533014,0.706672911,0.937461507,-0.8671208725,-0.3205840498,-1.2560893002,1.096005744,-0.0438351913,-0.095852179,2.3228920242,-1.1522501071,0.1711497134,-0.7994209075,-0.0374586794,-0.3691897759,0.8619621801,0.3595465547,0.1864952432,1.0205484304,-2.0674087774,-0.111572902,-1.4809319217,-2.2092583187,-0.8650441838,-0.7155609993,0.4290047769,0.3354678089,-3.5934757358,1.7731445263,-0.6873709074,-0.8164267752,0.7019386947,-0.0273540686,-0.8120412936,0.225519399,-3.4083923929,0.7292999033,0.2775074607,-0.2181567512,-0.1492087274,-0.1270901679,-0.220337911,0.4252114344,0.6274320014,-1.4563504576,0.8291806101,-0.6127595762,1.1620367516,1.2366104681,-0.1926943779,-0.2871485297,-0.6748047001,1.0112164725,0.273455095,-0.0782221038,0.7787774439,-0.4051688278,0.2347210541,0.6949397956,0.1846769124,-0.8230369638,-0.8080258294,-0.1779827627,0.7180309569,0.3353405986,-0.234299961,-0.2927968555,-2.0998752429,0.5317927901,-0.1646503988,0.7738188607,0.1291198897,-0.7938022625,-0.4988617584,0.9437298312,0.5233589928,0.4119740168,-1.0059147114,0.991566862,0.8210832813,0.2438518402,0.6661574927,-0.9735545588,-0.7565547076,-0.8880122153,0.9349110934,0.2443097079,-0.5787572985,-0.6412018151,-0.0226260509,2.1433410275,-0.98862889,0.5118129258,-0.9220116388,-0.5056684104,-0.8894024197,-0.5708755204,-1.0591311476,-0.6315376843,-0.6631036935,-0.8896968529,0.7994408054,-1.3570248824,0.913304441,1.0845305188,-0.4942715667,-0.4297531082,-1.9568458539,-0.5639326417,-0.4178355587,0.0351997102,-0.8469354787,0.395265818,1.141310528,-0.7022245215,-1.3858275557,2.5590559364,0.3128790482,0.4844350343,0.518328886,1.1920663148,0.0332153645,0.9168772015,2.3598765364,0.6822605184,-0.1849213397,-1.0109005804,-0.3069290415,0.0729390316,0.1516751152,-0.3562955566,-1.164095611,-0.5979846203,0.2585202439,0.7830433115,-0.311066828,-0.0589407402,-0.060529118,0.9252914272,-0.7086225551,0.29499352,0.6360878618,0.8054979441,0.2821258961,-0.7147729116,-0.6847442218,-0.433465278,-0.7264765555,0.9832969779,0.4339808763,-0.5139174642,-0.1340109415,1.029156885,0.207431215,-0.0136280057,-0.7698287651,-1.1136318594,-0.3626288859,0.595737347,0.2889456816,-0.5661540941,-1.0437656525,-0.5573964507,0.7910542903,-0.8220388843,0.0401585333,-0.4012976878,-0.8628871537,0.2333749751,0.2571988572,-0.1870107309,0.5601217076,0.0893287434,0.1772634793,-0.3578377058,0.1696722002,-0.6803733084,0.0942138039,1.0205685383,1.6517999495,0.7947063426,0.8506083132,-0.0590898822,-1.0154468874,0.5580815371,0.0784647949,0.2509659322,0.8302577245,0.6987117162,0.7725955581,-0.3992847354,1.0073387021,0.6826392332,0.003372658,0.0969466346,-0.1974161372,-0.8462244748,0.3029424644,1.3694161995,0.5399448704,0.3692212591,0.7631501516,-0.8835157706,0.0305058849,0.6214922213,0.6289830654,0.7465479769,0.1422612172,0.2909172102,0.1501066338,-0.6136543525,0.5943216905,0.4113062753,-0.6913554914,-0.7348214043,0.4155609202,-0.3856858467,-0.1020825007,-0.7682747993,-0.6532518036,0.2334104497,-0.5027402542,-0.4912895095,-0.4924989573,0.5543872125,0.5284781723,-0.8733059856,-0.0747821556,-0.6173703956,0.5838700763,0.0529948007,-0.1688657325,0.1363245839,0.8447748054,-0.4635998433,-0.0978941165,-0.5580459593,0.5199722458,0.6160234403,0.2057614296,-0.5945727312,-1.11816728,-0.2165091041,-0.6267297593,-0.1457689052,-0.6045236119,-0.8854572384,0.5465714342,0.5644697521,-1.1108223166,-0.6580037618,-0.3260988321,-0.0082189504,-0.4361961911,0.0375740819,0.5698736677,-0.61525948,-1.1656940775,0.8386342229,0.3520275319,-0.1816708551,0.4069657521,-1.6185207493,-0.1515920477,-0.805798552,-0.3128750362,0.8033738795,-0.5963419114,0.0087344774,-0.7840859562,-0.2650165614,1.1002638075,-0.759909563,1.8372541781,-0.2546217937,-0.5271931391,0.3867841544,0.5952206031,-0.2954010425,-0.2452498008,-0.2810480184,-0.5783590403,-0.4821632836,0.37103446,-0.8595410013,0.9145668628,0.0306911603,-0.4118814853,-0.3029500254,0.1601110416,0.4113768906,-1.0578794343,0.46118749,0.4677642492,0.4992127769,-1.3583090749,-2.3790377938,-0.0842224502,0.8027186647,0.355427059,-1.0215625912,-0.6409076484,-0.4532547281,0.4708030867,0.8085067836,0.1269154188,0.1863539614,-0.1562033032,-0.9549824822,1.1178475203,-1.1069690712,-0.3244906296,2.1240436138,1.4407233937,-0.0845440112,0.1867749659,-0.1423948034,0.544520353,-0.4900917844,-0.3349732088,0.3586180207,-0.2596299105,-0.1263974918,0.602183031,2.803017855,-1.6250906724,-0.9203785085,-0.2059736914,0.118175308,0.7188465298,-0.1905530744,0.7672383904,0.1683444362,-0.5034601198,0.0772041143,-0.0437644008,-0.125385048,0.0958213973,-1.0134832889,0.9760164673,-0.0405126203,0.978828759,-0.5878283763
   0.9515436886,-0.1186652901,-0.530419977,-0.9064914996,0.5606159573,-0.5017812953,-0.5159926775,0.6276656038,0.8197982378,0.7856791049,0.7103429957,-1.3943008224,0.5992086045,-0.2146253375,-0.5760906307,-0.7638040124,-1.3989480086,0.1577045212,0.4081156643,-2.1291358375,-0.4693813496,0.0107297109,0.0960982805,-0.0455423118,0.9730108807,-0.2756965134,-0.0061551892,0.8365722964,0.6877546023,-1.2041226871,-1.4530644563,1.0798361028,-0.6748309281,-0.614223355,0.1052799395,-1.4190913971,0.8480889569,-0.5159303931,-0.1607554,0.715755594,-0.0450372636,0.6502197088,0.6892975288,-0.2415276639,-0.7157004584,0.6944606008,-0.7654144199,-1.1264889079,0.5544731693,-0.0417277123,0.2235443187,-0.9686953436,-0.1822990996,0.1563333296,0.7247032235,-0.7265599065,-0.5212444473,-0.4519790733,2.5214091596,-0.6751167162,-0.8664139645,-0.7338991242,0.0149729286,-0.0266801291,-0.4649312091,1.3991123051,0.8544781202,-0.0593414722,0.58403135,1.4040434836,0.7746756762,0.1990940075,0.5245346236,0.2354525072,0.4615043958,0.8665567519,-0.4878391015,0.002381049,-0.0918558952,0.1237648748,-0.164483578,-0.9889919375,-0.1915011439,0.2780487584,-0.7964332033,0.4480371096,0.2138290514,-0.4815367656,-0.8516643287,0.5215117728,0.3415380165,-0.2826159702,-1.0572016329,0.419493449,0.47766918,1.0620142285,1.167907089,0.0303726282,0.1701182253,-0.0700480485,-0.8188195839,-0.7000371134,0.2835259198,0.2694547032,-0.6366015109,0.9329193795,0.5659567,-0.7666557898,0.4224895682,0.6074215285,0.1470106883,-0.6162897752,0.1324249716,-0.2899677248,-0.4561847879,-0.3485296614,1.5678835292,-0.5610235943,-0.5970243191,0.1164443757,-0.3319189342,0.9149503682,-0.904142902,0.3460442138,0.4423409607,0.6376298087,0.4606042923,0.4584274257,-0.4487929338,-0.7721282133,1.8903219453,0.1038759101,0.6667997994,-0.9095075801,1.0225905114,0.1175809464,0.4478779317,0.5618234411,0.297366648,-0.7803986243,0.3315644817,0.1411299996,-0.4825998929,-0.2259834275,-1.1591649517,-0.0751214848,0.8509184467,-0.0707563689,0.7281048277,0.9309169228,-0.6787697854,-0.0928602586,-1.4247334266,0.7077129802,-1.8989767766,0.3652062773,-0.8826359505,-0.7010164751,-0.4480655743,0.0630305263,-1.0390876207,0.6050424763,-0.7846257917,-0.3376389601,-0.060878752,0.7543729967,-1.3083299395,-0.8602993282,-0.1907573582,0.2424778521,1.02266786,0.1675932312,-0.7709961041,0.8980781802,1.1910413075,0.6278747745,-1.6241100531,0.5604045114,0.3458415173,0.0278767238,1.3301054651,-0.2825176877,-0.0406721505,-0.5307327104,0.2396330306,0.8926101147,0.0329473114,0.2146238882,0.3581374227,-1.9984374588,-1.1890407371,-0.4816038525,-1.1539359449,0.494523059,0.6146697639,0.4763808619,0.9758848001,0.5445739447,0.5113014769,0.1495050283,-0.4560198124,-0.382760584,0.701692084,0.0087443423,-1.6117730913,0.10670234,-0.159579053,-0.2621751675,-0.4739894974,-0.5277885828,0.3175987852,-0.9040075784,-0.4598275561,0.1642737826,1.027112494,-0.0670232939,-0.724550555,-1.089330823,0.1674436334,1.2252706521,-0.9829889167,-0.5404201773,0.1037847139,0.0327560115,-0.2759265276,0.595471323,-0.1965136392,0.6221418078,0.1432344436,0.590353985,-0.3925467538,-0.3580779358,-0.6511598316,0.1461669703,-0.5483611425,-0.364005755,-1.2011030994,0.0926075877,-0.3059716802,-0.8934826582,-0.8538668035,-0.3469257877,-0.5279480073,0.7989100129,0.4112999587,1.3335281954,0.0519207815,0.6176732267,-1.2290948917,0.709013797,0.8832268191,-1.1746780629,-0.8651669347,-1.037170439,-0.0015633024,-0.6578151323,-0.3136077708,-0.4226912854,0.3510156868,-0.3599675422,0.3293465224,-1.1454840653,0.6905710522,0.5390748347,0.9793358421,0.8657522591,-0.897905411,0.4088385432,-0.3086443074,0.3751040961,-1.2325362312,-0.0284727775,-0.6916813604,1.3917597389,0.9238371304,-0.4854337742,0.316167282,-0.2352340795,0.4472289769,-0.0830613108,0.2839046533,0.8130973977,0.0781882446,1.2300791548,-0.5292340624,0.4009315645,0.7870023025,0.3587189204,0.8079885641,0.5392290118,-0.8840637604,-0.8882723513,-0.1774228074,-0.5780642524,-0.4135709696,0.7924274166,-0.7770454713,1.6153642942,0.886819783,-0.7875521959,-0.4345823478,-0.8430461353,-0.9253522056,0.3868282647,1.3515523208,0.2191361438,0.8999765803,-0.9014007657,0.9869469567,-0.7317251995,-0.5128700894,0.2568737653,1.4031221158,1.0874834628,-1.714029757,-0.0396996808,0.2551611143,0.1835366365,-0.7653094244,-0.0185159438,0.7574107726,-0.6005517147,-1.7832532498,-1.0667940912,0.5430097519,3.9392109549,1.1413258483,0.3731052428,0.2583288292,0.0233212108,0.2220112811,0.7987120294,0.2767375369,0.0806754687,-0.2253869835,-0.2637183735,0.8510428492,0.3016942475,-0.7619986767,0.614035845,-0.6082511574,-0.5668746074,0.4784157486,-0.4598742251,-1.0928102785,0.6694817086,-0.5420549268,-1.1076668192,0.7161130962,-0.4718720527,0.0811180735,-0.8057574853,0.9129707979,-1.8692252218,-1.5428051412,-2.168987332,0.9240386439,1.2246793937,-0.3207162355,0.5835524808,-0.5463267094,-0.5468786426,0.5808358805,0.2001749647,-0.0010511901,-1.1088812697,0.4055951152,0.3311916263,1.0247165361,1.2200107283,0.2108967583,-0.61234966,1.4853420931,-2.2680235957,1.3205323263,-0.5955161091,0.635475776,0.6039992663,-1.0066040267,-0.9352666648,0.2016048406,0.8911340352,-0.5979628848,-1.0678928382,0.5949779831,0.0104018171,-0.4488330549,0.2736607417,0.5578190558,-0.1051715136,-0.3751475431,0.8286661553,-0.2595028617,0.1490711105,1.0371201334,1.3681520881,1.6397140068,-0.8357637061,0.5467217435,-0.1053326029,-0.1715931859,-0.7204804088,-0.663031737,0.2425855395,-0.9390440408,-0.8876955644,0.9922677298,-0.1919784722,-0.3060562433,0.7323880494,-0.6826579064,-0.2658966055,1.9056086212,-0.4626428029,-1.1992661967,-0.3035011188,0.4369634576,0.4026462684,0.406374003,-2.7636713404,-0.5372538846,0.5857187906,1.1618471998,0.5559319591,-0.8356241793,-0.3433099217,1.2222142916,-0.6850278812,-0.6252188197,1.042686494,-0.6899840033,1.6963290378,-0.3154954857,-0.0226577508,1.8929731843,-1.4395316648,-0.8142947031,-0.1949417944,3.6112927729,0.106287047,-2.2000598098,0.0454349274,1.0118193124,0.5088489081,-0.5930485551,0.7651471108,-0.7001076775,0.9569038637,-0.6574047163,0.9643263864,-1.1029535998,0.1937461199,-0.6000887591,1.0416912302,0.1198963631,0.1921610753,-0.6267203271,-0.286576353,0.4070333471,-0.7766758746,0.2911401033,0.6188777504,0.4846310371,-1.0209275891,0.6374982787,-0.3182644973,0.2329745004,0.3815061868,0.9774637106,1.4945527043,-0.1881192168,-0.8376597765,0.3584730029,0.4430997835,-0.1497426581,-0.871320616,-0.3396244505,-0.6784077759,1.0285839586,-0.3325221506,-0.7013155164,0.7486711814,-0.6432465163,0.5403989829,0.3473696301,-0.5710395615,0.7735928849,0.7354407005,-0.1703482148,0.4860860082,0.3580246331,-0.2747835629,-0.1696265311,-1.2957910846,-0.3166997089,0.7955885414,-1.9323702429,0.9931087395,0.8478488754,0.6123316535,0.1621630967,-0.1242862739,0.4794626967,-0.5519951535,-1.0027535075,0.3450586528,-0.3501796955,0.0144632838,-1.7461722979,0.0501352966,-0.3685671582,-0.8673331796,0.7691580873,-0.283006897,-1.0883733479,0.8437876882,0.5574241593,1.2392307331,-0.2813232734,-0.2951697541,0.947585505,-0.6920753499,-0.3688590118,1.0879391085,-0.5353306791,1.4914635594,-0.359378124,0.5226153978,-0.8221613981,-0.7350672434,0.0192243893,0.2994156336,-0.2779284038,0.4803248984,0.1464102737,0.1850201565,0.713853934,-0.8952098814,0.4715885587,0.122288111,0.1509684634,-4.9650110346,0.3634764742,-0.1648342707,0.8376312335,-0.1323297319,0.711773388,-0.0016307707,0.5397070375,-0.7694842896,0.1425185964,-0.4460384826,0.5326710137,-0.1300970372,-1.9992177531,0.8509740753,-2.2643739239,-0.028280528,1.1578244179,0.6378483156,-0.8230421908,0.594790375,0.4507809545,0.4701428499,0.8805328954,-0.0018223781,0.0183617323,-0.141991514,-0.8948223369,-0.5715944277,1.8196945363,0.0904932413,0.7639419883,-0.1145511384,-0.5242942059,-4.2983603831,0.0291663463,0.3590352841,1.3522905933,-2.7005410899,0.0506005472,-0.6808887487,-0.4598643318,-0.8980337514,0.2000048929,0.5985593569,-0.118193445,0.6614563668,0.5611018253,-0.7829891229,0.3213329321,-0.7683890776,0.1313337458,-0.1890322669,-1.1324836056,1.369843076,2.0379515107,-0.5633297319,1.2168222006,0.2153191194,1.4539391463,-0.3061659498,0.9349928122,0.0470063622,-0.5482652424,-0.3650583194,0.6351245844,-1.7053495341,0.2349701534,0.1461370749,0.1085304531,0.1207422748,0.1036581102,0.8544331381,-0.3933814533,0.7336133563,-0.6798465401,-1.0355079149,-0.1490303281,0.2393568694,0.5227994728,-0.2565896752,-1.2916028595,-0.2456317945,-0.6863754832,0.5003635197,-1.1065651271,-0.7774255083,0.0183290681,0.6173630227,0.4969212428,-2.115595089,0.6660193163,-0.4030650979,0.0304502272,-0.0069872647,0.0954895779,-1.4533737373,-0.7559191393,0.4626893861,-0.5588054707,-1.3322392378,-2.2120532968,-0.0637199754,0.0849261231,-0.5218834565,0.767078041,0.0726819816,1.5369854794,-0.4225085664,-0.2666047837,0.8203745124,-0.1472693019,-0.7071315134,1.3219116772,0.9103610717,0.7844830939,-0.1821221108,-0.0166289504,0.0742868017,0.5998460454,-0.84714905,0.3649653353,0.5734755486,1.4152244292,0.0087951226,-1.0090249302,-0.8012579462,-0.914010268,0.4202452703,-0.8565707494,-0.327515063,-0.4422627798,0.1664877405,1.1083594082,1.0434813816,-1.3328713414,0.0796560979,-0.6835303839,-0.7558137397,0.6221331566,-0.9140031346,-0.6971617463,-0.1036755759,0.7969587341,-0.3797056297,-0.2292194559,-0.1657810758,-0.3779358935,0.0507523309,0.7044193197,-1.0265182643,0.8256434576,-0.7839943323,-0.4269488989,-0.1738388891,-0.7899072339,-0.8470864522,0.5116384961,0.055581494,0.040145747,-0.5352769601,-0.2989700965,-0.8095466981,-0.3029448547,1.1284157035,0.4707940937,0.7531341519,0.9748191134,0.5141780542,-0.9537625199,0.4980937061,-0.5364927664,0.1521366744,0.0835139622,-0.7496702239,0.1502203286,-0.3511488653,0.2527912031,-0.3540131629,-0.0170651381,0.4437554573,-0.4751730651,-0.1572152063,-1.0161095558,0.3711353266,0.7951373685,-0.1560013328,0.6590486471,-0.2079136392,-0.312569174,-0.1448063674,-0.9465305622,1.2344726311,1.1359344894,0.8619470218,-0.5827556628,-0.432270575,-0.6909460169,0.0741966186,0.2097841844,-0.4075325196,0.5958284487,0.7778052436,-0.9517396741,-0.2820649627,0.7396181173,0.9281217351,-0.4423045683,0.3774225818,0.100553475,-0.0843156701,0.5729686977,-0.8896669835,0.6875829037,-0.5408919953,0.0949651019,-0.9820044167,-0.6484527789,-0.0641922852,-0.2327791266,-0.7937689013,0.0645744446,0.2861872891,-1.6135035352,0.7754724741,0.3665291676,0.0215478779,-0.898838378,0.7275036933,-0.4326913162,0.638646032,-0.6898613058,0.0489558552,0.0748075622,-0.1080604117,0.3592548005,-0.7170904585,0.5315734053,0.1042762313,0.4265224618,-1.2909609425,-0.6318109271,-0.6970361397,0.8963263162,0.333451591,0.6193193819,-0.453523439,0.2754037661,-0.9354417563,-0.616053104,-0.0059756608,-0.174778955,0.7407022184,0.0201160545,-0.722535854,1.0627253069,-0.2241957149,0.8290442417,-0.7667947506,0.4246028278,0.9355757256,0.0778213603,0.8852814774,-1.0665311266,0.3501235365,-0.2007602242,0.0917983453,-0.0126258757,-0.2763707308,1.3268762282,-0.407129982,0.3556344896,0.7140616423,-0.7309554682,-0.6612921494,0.2927303548,-0.1526276694,-0.289390559,-0.4222692023,0.9384210014,0.0999293552,0.5775442351,0.0125284379,-0.3647762542,-0.4170161001,-1.2025737194,-0.5141021715,-0.1180913136,0.6012307554,-0.1692248992,-0.0065071311,-0.6497225673,0.0940043293,0.4414337511,-0.2102169315,0.238633185,0.4842954488,0.7682242675,-0.0419077783,-1.667328618,-1.2264424704,0.4215880976,0.1284355639,0.7190647282,-0.5386184071,0.0872329598,-0.2079624112,0.3919081107,0.4047164721,-0.3334348656,0.2213606195,0.484054024,-0.6735399055,0.533083444,-0.4970126137,-0.5095157875,0.7050629586,0.9525701378,-0.1754141897,0.2744301041,-0.0934652139,-0.4866832705,-0.3800681469,1.0758567927,-0.4650014656,-0.6038218479,0.4871069898,-0.5836420598,0.6775623585,-0.1422974372,-0.7971628143,0.3122420674,-0.5244735115,-0.2594676281,0.2449368796,-0.4408332673,0.8703860634,-0.0290292937,0.4082603039,1.1368294961,-0.254641237,-0.5561282562,-0.1267330966,1.0973101904,-1.0872368756,0.8888815833,0.259321968,-0.4692209343,-0.3783994232,-0.2943456436,0.2926931025,0.2739858412,-0.2371684006,0.3546528953,0.8782421028,0.4096813646,-0.5050808058,0.1974578662,-0.0289687825,-0.0456950623,1.9009436393,-0.7789779983,-0.6095871773,-1.1749114027,0.5418143849,-0.8261295392,0.5833984362,0.9285975479,-0.6015831682,0.3937642916,1.0796784604,0.8537491083,0.3814736292,-0.3951694183,-0.5292809793,0.5678127684,-0.421105476,0.6344216743,-0.1391143053,0.0754869892,-0.6974204287,-0.3543128026,1.1322679918,-1.3438656617,0.9045102858,1.1271576681,-0.2480831232,-0.335553472,-0.6534726627,-0.3626492359,0.3118634747,0.174748592,-0.9385395557,0.8534951478,-1.0691423521,0.5685979454,-0.5312690609,1.1746542521,-0.0981288836,1.5829474463,-1.1680205309,-0.022855835,-0.2969146838,-0.1752607618,-0.4682389115,-0.3282847502,-0.2261455497,-1.1731409275,0.3283071829,0.6119858187,-0.0317786321,0.003897779,0.8922482773,0.5748033785,-0.5710731394,0.3488323008,-1.3677009045,-0.3723661386,0.5180167638,0.5659296016,0.656648101,1.5861672092,-0.1207604615,-0.0119992063,0.0952224248,-0.7962295875,0.9377284311,-0.3796122578,0.5827846516,-0.2520424988,-0.2208509751,-0.6887771725,1.621499833,1.2601274745,-0.9341700629,-0.5573112028,-0.7008798647,-0.2109507579,0.0268158566,0.1247413859,0.6961520551,-0.4437869202,1.0077688855,0.7342575561,0.4986299236,-0.4180235539,0.2323115321,0.640535677,0.1486286782,-0.1280078168,0.9447888647,0.4727330015,1.0472945885,0.3829680552,-0.7060391174,0.4939974004,0.5381249285,-0.7339282223,-1.0860981928,0.3710649047,-0.4608069452,-0.5728396194,-0.8800916576,-0.4450714662,-0.7260140878,-0.7942189567,-0.1357725677,0.6613742178,0.1930776297,0.5417564527,0.8330888825,-0.653498801,-0.3157718499,-0.6853009227,0.2299960232,1.2100981976,-0.2372035851,-0.1620888167,0.1465794889,-0.5132529155,-0.6281093041,0.441045369,-0.9192130396,-0.20445115,0.8852198158,-0.3884774065,0.5033604671,-0.6416089512,-0.3169818461,-1.4457022479,0.9007145052,0.8765348074,-1.0778206956,-0.3169631162,-0.1153060988,-0.0202031486,0.6845641915,0.6715394668,0.4137203807,0.9856628093,-0.4193261971,0.6241910393,-0.6213612646,-1.0115562253,1.150779008,-0.6580876862,0.3221654186,0.0188506159,-0.5988765358,-0.1753744439,-0.3107098962,0.423566927,0.7298522204,0.3820180911,0.0576067174,-0.9708689623,0.016859228,-0.6209136981,-0.2495500418,-0.5359175426,0.2344884539,0.7806170685,-1.035304653,-1.1073160299,-1.233275906,1.0413295911,-0.4331843823,-0.2952438238,0.2276629559,0.2668421984,1.2431571056,0.4027540618,0.4514871948,1.2021173805,0.0885642284,0.255031065,0.4361793915,-0.294662571,0.5701657015,0.8920535514,-0.0992106593,0.7959691855,1.9334302517,1.2340076121,-0.4928581099,-0.1101082938,0.918177602,0.2236988022,-0.3541634802,1.0353474779,0.1424118322,-0.0764252848,0.299328791,1.0661709959,0.1985361463,0.7486549368,-0.0281185248,0.203396364,0.1330226217,0.1550910842,0.9067801681,-0.4981906773,-0.5340902204,-0.4207351535,-0.1426286254,-0.7817130183,-0.2723556914,0.0015139981,0.787704737,0.6789210502,0.4569073907,-1.4720050628,1.2364550106,-0.5495923262,0.8021226095,0.6725468303,-0.2190924913,1.4064376721,-0.1563433606,0.26017094,1.4650446295,-0.2737179948,-1.2629131003,-0.05740844,-0.391885686,-0.250737572,-0.6652460836,-1.8199501734,-0.6161766784,-1.1233959458,-0.9895370749,-0.9540408776,1.3567971679,-1.0829900529,0.4924138334,-0.0595493567,-0.585439282,-0.9909069706,-0.0465822982,-1.4736999546,0.8330864325,0.2379958547,1.3616887837,-0.626480662,0.1817041003,-1.0913297832,0.0783403576,-0.2982983983,0.6784636144,0.3090085447,-0.5920958242,0.5012576941,-0.6585607619,0.9554950827,0.1116735406,-0.6400657312,0.0143849332,0.0030788902,0.9864850257,-0.0303535107,-0.8047703581,0.4967753825,-0.3569869463,1.9184649936,0.2028951037,-0.6040141459,-0.0646279297,0.7190813436,1.2027645698,0.2542115427,-0.7338926231,-0.2113475652,1.1558953367,-0.7059452421,-0.1961377335,-0.6469509945,-0.6092825405,-0.750811288,-0.4521295539,-1.0154073214,0.5305151393,0.299424151,-0.9415346803,-0.4305042855,0.2793474549,0.4746772045,-0.9899725938,-0.7198490807,-0.2374875242,-0.2701602522,0.1490737891,-0.1096541983,1.2408815076,-0.1212246158,-0.4228448296,0.2682823596,-1.1606056189,-0.7792450826,0.7007315303,-0.2780502947,0.0281244547,-0.43536329,1.2810203295,0.1387882409,0.2796412463,0.6902552238,0.8748474384,0.3602887983,1.1631633966,1.0613784652,-0.59959206,0.4558948609,-1.0581598713,0.2443189336,0.3126289174,-1.0476967123,-0.7776975157,-0.1604557138,0.2244556139,0.4549797156,-0.2169519236,1.8817566204,1.6487711103,0.4774754678,-0.3966061818,0.5910078774,1.3526804663,0.3135385803,0.4742700416,-0.072892118,-0.8858626212,0.402686504,-0.750728798,0.8616192097,-0.9225433636,0.5571753551,-0.3456910885,-0.2319233695,-1.4570383308,0.6508122653,-0.5279652157,-0.2649481361,0.1786438832,0.4248066472,0.4712477747,-1.2558583226,0.0080597953,-1.2054404174,0.3921926401,0.6967270656,-0.782143732,-0.0409173365,1.1063022527,0.3476450111,0.8271708999,0.829488413,-0.8364113552,-0.4642006646,-0.6348894361,0.142000138,-0.7261156544,-0.4168861786,-0.3514351724,-0.8523869957,0.3470747415,1.0960733936,-0.4418026943,0.7751449427,0.0812332538,-0.4389789768,0.8147046119,0.7180651001,0.9116314139,0.209895501,0.9545796463,0.1659911302,-0.5591234719,-1.3396962114,-0.7790217925,1.1629086382,-0.3400200305,-1.0190802716,0.459888689,0.3133276853,0.1317990078,-0.2452467979,-0.4488945084,-0.5343455681,0.4931316653,-0.8320758521,-0.4130379897,0.9349691013,0.5890991846,-0.6514880758,1.2786199453,0.6528240889,-0.1903602749,-0.3634972081,-0.0087579051,-0.0315948616,-0.5058994806,0.8439489088,0.5786901459,0.9349401471,0.4198266352,-0.0809968384,0.403848128,-0.7110339361,-0.7974633622,0.845824122,-0.9802070839,0.5826241067,0.5317148463,0.3692684795,0.8468875634,-0.9123291493,-0.0037131059,0.0460888688,-0.3534072444,0.3566919836,-1.0708931292,0.4903154978,-0.7634548734,-0.0644209371,-0.9441616609,-0.6501805562,-0.7523538629,0.9876953689,-0.6076791399,0.5638483213,-0.9301593583,0.7846871738,-0.3960405156,0.2482701766,0.5985149315,0.4568011046,-0.7792753031,-0.8171028031,-1.0298258457,-0.619315754,0.7817552334,-0.4097312498,0.6071585802,-0.0172155625,-1.1874212799,0.6813808785,-0.425777416,0.363674651,-0.5114209645,-0.2175868871,-1.7857226744,-0.3655349071,0.8895207063,-0.4873694298,-0.2751169019,-0.0585424521,0.0188814542,0.387109806,0.9193946456,0.7367737742,-0.6920137052,-0.6375307833,-0.6046644557,-3.369869437,0.0671924849,-0.3339497869,-0.1938468236,0.0357726228,-0.5829880197,0.2961992979,0.8251376737,-0.0240321314,0.0919594535,-0.8790770151,0.306177731,0.6624507541,-0.7989880954,-0.096304525,0.1097005231,-0.2315276264,-1.2715241167,1.3274731943,-1.939204374,0.0295065005,-0.6871504847,-0.1820960832,-0.283942256,-0.4608457215,0.1655275973,-0.1668383575,-0.3985791876,-0.6016314581,0.7174791362,0.9345332285,0.6274719395,-0.7358435983,-0.1575211744,-0.4144396779,0.541889487,-0.6082298086,0.4708352965,0.5067120502,0.1478297474,-0.7946934349,-0.3591901742,0.0042106214,-1.0403405616,0.3800972518,0.2966851061,-0.4468374209,1.0369161803,0.173737167,-1.0733737801,1.0226296998,-0.8083698763,-1.0929754443,0.4394510882,-0.6110149485,0.5414123807,-0.6280427451,0.8857126477,0.3956029102,-0.4477222017,0.7781468241,-0.3591095653,-0.6507725715,0.3689137908,0.3413776166,-0.4861391406,0.5205725048,0.2768640313,0.8960477541,0.7008375044,0.2837613459,-0.8716707563,0.4041994782,0.1363536384,0.0098560506,-0.7286386404,-0.7709329123,-2.1291570624,-0.0006925627,-0.1196753184,0.2052570329,-0.3582214323,-0.9658909446,0.0450184167,0.52257377,0.634349225,-0.0174135072,-0.5269534333,0.1126607138,-0.4770410407,0.362179516,-0.1428857548,0.4937180124,1.334213125,-0.3419184168,-0.0949575508,0.1813944355,-1.3483744104,-0.809090259,1.3930921062,0.0109291181,-0.6403564992,-0.1115405337,1.1492628858,0.2664862736,0.4708068404,-1.5691120047,-0.0178746271,0.3682775621,0.6352773463,-0.4651536505,0.5718473309,0.3428277365,1.0457508089,0.2310899427,-0.4835865559,0.1912062948,0.235914461,-0.5563820291,-0.3040481828,1.9056436932,-0.5506913393,0.1834049744,0.666239296,-0.5670601001,0.5595861598,0.9340571086,-0.12717477,-1.1171024086,0.4953911843,0.0515647793,0.6133268383,-0.2670052634,1.6792924369,-0.9471166498,0.3866310147,-0.2113419718,-0.8704891257,-0.6616674936,-0.8875688485,0.0727174407,0.2128245493,0.8456817625,0.5887416216,-0.5667212012,-0.4138065471,-0.0647710136,0.4860559044,0.1679610597,-0.0547222653,0.8327715581,-0.6708377212,0.2584113481,-0.8146949961,0.0949666543,0.0610059381,-0.7334869917,0.1059622508,-0.3330855935,-0.8042223866,-0.1812383255,-0.0595181151,0.4553513987,0.5288220471,0.1695918724,0.3721638751,0.3876096629,-0.0693767517,0.2838212822,-0.9983303392,0.8282932926,0.0072879328,-0.2729662599,-0.3254239825,0.7874553418,0.2861613135,-0.486265264,1.0604096984,-0.5807498902,-0.2709216395,0.4790874467,0.1411926327,0.6139423426,0.45753629,0.0868549634,0.9703053512,0.3730693147,-0.3300440151,-1.0833287653,-0.131332606,0.1874589737,0.7764980287,-0.2224987537,-0.6221064782,0.2011327461,0.1098010662,0.9281020576,-0.3533859658,-0.6161922017,-0.1511528647,-0.2196396549,0.0852584346,-0.2180152004,-0.0532092758,0.6742699059,0.7483326399,0.7854220243,0.5118377136,0.6274509675,0.9137110838,0.1398143536,0.5317004362,0.7578696813,-0.3499885364,0.8271729424,-0.2697297042,0.1484384773,-0.602755759,-0.5983917757,-0.1744780896,1.4705017945,0.2762380139,0.1863541804,-0.5427800739,1.0681689386,0.1475407003,1.0976781956,0.7108687518,0.209989009,-0.8206189751,-0.89725444,-0.5532372946,1.1061062606,-0.5838571578,-0.4601318595,-0.0977213304,0.5464196316,-0.5875191217,0.4208042363,0.6116017956,-0.344179192,0.3815143876,1.0968667587,0.1432464962,-0.179048026,-0.049878884,0.1483446212,1.2736828939,-0.7478576218,0.7222806071,0.0902631536,-0.9920192372,-0.6515243223,-0.5051399736,0.6202587593,-0.0673276138,-0.85066389,-0.1746939746,0.302782679,0.2845934971,-1.1012459792,-0.4922655816,-0.4887777967,2.1113177351,-0.7899424338,-0.4648675044,0.7111239183,0.34698663,0.1741553153,-1.242394068,-0.5585459304,-3.3365844435,0.2853224494,-0.3565309685,0.0978807211,-0.7976360408,0.4370235703,-1.5211392262,0.4792985114,-0.5644762992,-0.6341727398,-1.1426755043,0.8005310827,0.2860254862,0.9058200803,-0.2893946883,-0.5085908481,-0.0864106242,-0.5267037209,-1.0627133878,-0.2708980497,0.6445126691,0.8926604949,1.0520643196,-0.7429953634,-0.6691067417,0.8712326253,-0.6694202102,-0.1977807741,0.5205165634,0.9331603291,-1.1498612159,0.1305119652,0.4238620658,-0.0278718672,0.7166457998,0.1510328686,0.6582004478,-0.9121464043,-0.3525603164,-0.1830321158,0.0105782381,-0.8575959669,0.2539130445,0.9136306933,-0.5223358777,0.5440164741,-0.0079598296,-0.4568870638,-0.1732908359,0.7935814384,-1.3053807354,0.1492766826,-1.1298351088,0.6092323062,0.0089682596,0.4768794414,0.6651818516,-0.4721917205,1.0272099628,0.7039406376,-0.5129123078,-0.735373795,-0.5952502655,-0.0153807306,0.087315984,-1.086538255,0.2955158392,0.596707621,-0.9842692224,-0.4750077201,0.1136679348,0.6688853532,1.0462397423,0.3658745937,-0.2080385453,0.2645788524,0.0602734478,-0.2670367063,0.3513189123,-0.0363624348,0.3964218786,0.2810202058,-1.049498697,0.1217982139,0.7178843479,-0.2843081097,-0.4897481221,-0.5616581726,-0.473843862,0.1111576674,-0.3602958525,-0.5263432015,0.8495180543,-0.274459092,1.5704008754,0.1363416861,0.6129703401,-0.0475165685,0.1990423275,2.7670723957,-0.0303952333,0.0608099769,0.0165899914,-0.5444924589,0.12620187,0.7131606747,0.2225569462,1.4919795865,0.868344666,-0.4967484931,-0.5051770408,0.5793733681,-0.4690249361,-0.3054994645,0.6269913324,-0.0147411642,-0.7967610493,-0.3363757072,-0.2447760498,0.0322277553,0.8069035178,0.527584472,-0.7803768041,1.0317488865,-0.8639637642,0.2400279401,0.6144446931,0.9144161622,0.0629578924,0.477199788,-0.6510418953,1.2910138596,0.3003992615,0.0712184889,-0.5422153833,-1.1336845203,-0.1873899256,0.8390701499,-0.8693306402,0.1914138831,-0.138606915,-0.0560192535,0.6404859942,-0.7830594761,0.296718691,-0.3194746171,0.6645401579,0.3267599087,-0.3280756574,0.1641002977,-0.5550802983,0.0508706263,0.4090840435,0.4083264918,0.5778310872,-0.5471362737,-0.6580747185,-0.2097183346,0.9329009979,-0.2631989443,1.0077243207,0.2069619949,0.194809612,-0.2178704075,0.4711449636,0.0616341612,-0.5280711299,-0.4846561773,-0.352554211,-0.5688160066,-0.659185394,0.2067070735,0.7312096113,0.6852253882,-0.1048336012,0.4063697609,0.1092108055,-1.4535356955,0.8899217061,0.0124102905,0.6177809005,-0.033638647,-0.1808481791,-0.3178610772,0.5901742865,-0.3251564041,-0.0268951275,-0.7733872183,0.5480832976,0.6677567187,-0.0128970193,0.0305990915,0.1914402605,-0.0353631311,-0.4916579141,-0.2379616963,0.6454807277,-0.728524934,0.4973686827,-0.1933218163,0.3028121828,0.5476317188,-0.2646565607,0.0295028763,0.6353622525,-0.1918583545,-0.7137786234,-0.6558559196,0.6460504307,0.5812649082,0.7727518076,0.2866895785,-0.6314958605,0.1420352958,-0.1562910456,0.7039635986,0.6713661071,0.3591657713,0.6415976394,0.5261584449,0.225145161,-0.9944939994,0.4073056101,-0.7347810031,0.2243021429,-0.328748114,-0.3063764621,0.0177441447,0.1255258223,-0.7512398676,0.1752182934,-0.265861065,-0.2446156899,-0.697646665,-0.9147194264,-0.0818762382,-0.3661395498,-0.2436251258,0.0943603322,-0.2715461101,-1.7520674531,0.8462262573,-0.029171756,0.2764941662,-0.0042411923,0.8225855219,0.6653371257,0.577483632,1.2993506926,-0.4658298181,-0.1032064255,-0.4496489841,1.1841437915,0.5305358346,0.4406224831,-0.6121677528,-0.2883805836,-1.3598324103,0.2483599362,-0.663990995,0.2572477419,-0.6482166726,0.1570289969,-0.3820433684,1.6903067039,-0.4843021955,-0.0557672522,-0.3194976943,0.9828825868,0.0875897381,-0.1574875681,-0.1649959453,0.1445786129,-0.8803707938,0.1338476597,0.6301300454,-0.1810500079,-0.5392398409,0.2466522537,0.688077149,-0.122760331,0.3593853254,-0.8603514894,-0.3661537719,1.2718517353,0.8504959735,-0.1627994754,0.6966477909,0.1849842514,-0.4812991753,-0.5730609307,-0.8717741706,-0.7232511313,0.0655886441,0.7120681769,0.4861211738,-0.5765122052,-1.0086519256,-0.5503119778,0.9770734741,-0.1231025956,0.6168368995,0.3193533516,0.7974476309,-0.6890833353,0.623846025,-0.215264026,-0.8278849512,-0.4101931051,0.5990937855,1.1101892129,0.5530254599,-0.5879515789,0.4119494248,-0.9576996115,-0.5452054017,0.9362598678,0.6553529457,-0.9769720967,-0.7178360523,0.6894595647,-0.0063876921,-0.6323043956,0.3975750771,0.7550661708,-0.6257291261,0.2565823355,-0.4461383508,-0.5320945087,0.2190801455,0.4175330485,0.5253121525,-0.3339323923,-0.7917805347,0.001468837,0.495890368,0.5773718166,0.9179031927,0.645864819,-0.0842877058,-0.7200488965,-1.6031127418,1.4231168641,-0.5297606225,-0.1944850228,-0.919427446,1.2211820053,-0.2377026844,-0.5647906369,0.7539407846,-0.1268139294,-0.5644775908,-0.4346395253,-0.009441138,0.2919487619,-0.1418248155,-0.2868334007,-0.471284658,-1.459075717,-0.5469404651,-0.512185002,1.5097603848,-0.4374458694,0.5581277573,0.4121630393,-0.5632662124,0.5957860079,0.1763005928,0.4332727057,0.5057124368,-0.6223280684,-0.4141419053,-0.4155963988,0.3160456832,0.1367965376,0.6387514904,-0.474739142,-0.2287799599,0.4485420736,-0.6621553286,-0.3799664519,-0.3562264427,0.6436231004,-0.5323798898,-0.2086369444,0.594517297,0.1368749379,-0.1468864543,-0.6872607304,0.0200612932,-0.7686768107,-0.6982863462,1.4798788234,-0.9125475121,0.6659583416,0.7373271157,0.0833281626,-0.9237422384,0.797866192,-0.0037938171,0.3761223022,0.6528827093,0.6677104676,-0.8336493794,0.6825819135,-1.220520759,0.591167474,-0.12120399,-0.7333697645,-0.8088142106,0.4334500091,0.4336334664,-0.350579063
   0.6211761994,0.2993752299,0.1338891502,0.8661743047,0.1923475858,0.764677309,-0.1899043625,0.2356882729,-0.2761951307,0.3492415584,0.8639785752,-0.6225997474,0.9709516263,-0.1594556081,-0.175992152,-0.1009244319,0.5783831906,-0.1553169805,-0.1461886107,0.6400297335,-0.7361349874,0.6121627696,0.4637745835,-0.0132356043,-0.3124453397,-0.7739549114,-0.3358299808,-0.0933242383,0.4316930297,-0.4595901197,-0.4527780441,0.0162031677,0.9168745995,0.9820219496,-1.1216545255,-0.016934161,0.3382162921,0.0235966354,-0.2536482697,-0.3788464397,-1.0554970845,-0.1077413458,-0.5667915421,2.0947287133,0.1177129841,-0.7597616478,-0.0223429694,-1.4983799809,0.9685824425,-0.0163959702,-0.9017919596,-0.4698054464,0.1703271846,0.2150003309,0.0017873308,-1.0729998664,-0.031126667,-0.5282429888,0.9247355438,0.828103404,1.4427639544,-0.4316634677,0.0044290329,1.7682229269,0.17330166,-0.190121792,-0.5425511547,-0.071272851,-1.9010801243,-7.6350716023,-0.5303785808,-0.8913912573,0.6209127601,-0.613530916,0.1928510628,-0.4038321324,-0.7593654553,0.5837690309,0.8766792079,-1.0720384796,0.309679942,0.1746716464,-0.0405780404,1.0231933575,0.6081972622,0.1164644242,-0.1197940089,-0.3278352221,-0.4164947602,0.0630463893,0.2936639998,-5.0003351387,0.614394939,-0.1463018272,-0.1237557355,-0.6986257872,0.1617979173,-0.2233196872,1.1148727215,1.0237342234,-0.3414743695,0.5160082587,0.2301994821,-0.204068079,-0.2492610052,0.3386983348,-0.6591834287,-0.3625346061,0.5115072604,0.1023767973,1.0871122495,-0.0649504192,0.7548610378,1.1916809808,0.7282909273,0.4497950092,-0.1162978639,0.6156765038,0.6702648466,1.4474799276,0.8042604934,1.0974218058,1.4906151728,1.7230503921,0.151656604,-0.4583565784,1.0652262431,-0.358761532,-0.7430181555,1.1795700382,0.996728787,0.6451959357,0.5318141654,0.2446123946,0.8994085713,-0.1465845704,0.4795150946,7.884378568,-42.5917618169,0.8186343684,0.0584703963,0.6467201214,0.5471212417,-0.1560031875,-0.5445773429,-0.5377206392,1.0379352915,0.8669634126,0.9711193551,0.2329893309,-0.0274832954,-0.0110455857,0.2800884762,-0.3850616546,-0.024320662,-0.0964692827,0.3768454317,0.3901246788,-0.7343948913,0.770219634,-0.3258140314,-1.0666970695,0.3722770304,1.1471728925,0.5542777693,-0.3092620454,-0.3379181599,0.8042949039,-0.114427199,1.2396077625,1.2707531756,0.7675459859,0.6979090138,-0.254480396,-0.2532955975,-0.0223394496,0.6448418816,-0.162760854,-0.524087519,0.1290028183,0.8594022933,0.1751619778,-0.1574449177,-0.0993513473,-0.6799526289,0.0240785972,-0.3254518578,0.0212463267,-0.126285427,0.6854242573,-0.3111446654,-0.9739848343,-0.1415321832,-1.0079244046,-1.0922182086,-0.9391199907,-0.5411211384,0.4137034229,-0.6620751459,0.273454399,0.6054338371,0.7880405579,0.2844536321,0.3029229451,-0.8634440339,0.8692202269,-1.5332613643,26.7955405641,0.4176422185,-0.6993128772,-0.7094698267,0.8308423684,0.9863108745,0.9821101814,1.0583486878,0.4961143881,0.0371350544,0.2515304852,-0.8382842081,0.7736410021,-0.7503318321,0.8797938226,-0.3287182479,-0.6560273105,-0.2679876448,0.8741222072,0.3831106446,0.3395804145,0.6432478835,4.7666476511,18.7334189847,0.9959193011,0.1788188646,1.172235786,-0.6094133724,-0.6348064282,0.0570654349,-0.3560327127,1.0732706201,-0.9149661974,-0.6878925135,0.0101769468,-0.5036425474,0.0699724283,0.6339001954,0.7058841066,0.4064800103,-1.0654266373,-0.3984386736,0.6564251162,-2.0357185521,0.2908588153,1.3796032581,3.2643532641,-0.9915272507,-1.1149274401,-0.4412245159,0.6838956935,0.7461104297,-0.3511610316,0.649405937,-0.3610708198,-0.3339268555,-0.1704886765,0.3320438091,-0.0583849356,0.7018655829,0.0979829567,-0.8806725429,-1.0274095129,0.2764316813,-0.7139316025,-0.1824683069,-0.1542793498,0.1370473971,10.8899725948,13.3702573897,0.9175675634,-0.6129121118,-0.9546323425,0.2553233651,0.4699343043,-0.7067648701,0.1049432533,-0.7260290803,-0.5470675628,0.0111715185,0.4771622124,-0.8742526005,-0.6408244163,-0.7361550222,-0.2761459943,0.4477579228,0.1948535492,-0.7699377867,0.0344777459,-2.3600103086,0.397197404,-0.0854462769,-0.3004057963,-0.6836151327,0.2295452978,-0.3470610438,0.5099141043,-0.2182722029,0.0413384699,-0.2343139593,0.669456465,-0.0843988407,-0.0478340064,0.8028562546,0.9343052025,-0.3531895534,-0.2796624156,1.0310406701,1.3002079955,0.6877817127,-0.4122075744,0.8233350022,0.6784942198,-0.3691478588,-0.5097812382,0.9637705911,0.2659986515,-0.4625543595,-0.4090766328,-0.5293159324,-0.6404625388,-0.0618314915,-0.3107474146,0.1479542258,-0.6405458756,-0.4219274434,-1.0830123636,-0.2656757426,-0.3984716984,0.1788095281,0.31732867,0.8988695664,0.3128128977,0.6169073751,-0.0580095233,-0.7041093593,-0.7521040414,-0.2810844679,0.5522367971,-0.2995914259,0.5171517985,-1.0743649175,-0.9125021431,0.3612832515,-0.4181481752,0.7869861378,-0.5447201163,-0.7941305783,-0.2857319021,-0.4030632072,-0.989039498,-0.4004273999,0.8588659606,-0.1463031408,-0.6254825036,-0.3653133431,-0.0216051644,-0.1931825523,0.2261667391,0.5782184443,-1.4392172651,2.2855951213,-0.7450339453,0.9528446227,-0.0009363583,0.6248530165,-0.2284431498,-0.5518217576,-0.4192044375,-0.4546632986,-0.0415465138,0.842887321,-0.1482997826,-0.2028920064,-0.6748150149,-0.2010699256,0.7884797124,-0.885160187,0.446015223,-0.8146782868,0.0838071854,-0.3462209652,-0.3147169734,-2.3639973739,-7.6223825435,0.3455508867,-0.6213534239,0.387677561,-0.7223297759,-0.9244348721,-0.7168765123,-0.1867629787,-1.1111580125,-0.5086985318,-0.6736685761,0.6717749117,0.4792561688,0.8501919965,-1.1111596782,0.7208752724,0.188594943,-0.603060102,-0.1789818718,-0.2363392694,-0.0188486457,-0.3765441441,-3.8006343757,-5.2236388743,-0.8484248626,-0.4721351581,-0.5103128536,-0.0320481173,0.5590795469,-0.8827196621,-0.9502624248,-0.5855133844,-0.6828953155,0.6946572677,0.507583994,0.2582388477,-0.0956237585,0.4104340237,-0.2665796162,-0.8014327698,-0.9160462022,-0.8659344103,-0.9389645329,-0.6194497854,1.0793971129,-1.6163999145,-23.5562161043,1.0087196638,0.7838843271,-0.7757161043,-0.7094293336,-0.8231579916,0.3362159201,-0.4916447959,-0.3428531757,-0.4591859849,0.6014935666,-0.7884284017,0.9976022219,0.6409272017,-0.1710388669,-0.9077747503,0.1831694989,-0.4777347905,-0.3514777264,-0.1011491045,-0.6345813486,0.8022458612,0.324603153,-0.9923548254,-0.1378926852,-0.0710549972,-0.4821180715,-0.2683373284,-0.7243268243,-0.3914614409,-0.9413691257,-0.2620281565,-0.1403902094,0.5354068413,0.7692743178,-0.304562749,0.2465629214,-0.420735647,0.5833853794,0.4844299606,-0.9587112482,0.1540294717,0.2301315982,0.1462037276,-0.1071981453,-3.1533988672,0.3857283057,0.1969120835,0.6634904886,0.0402594372,-0.5738181959,0.1336998279,-0.925827877,0.9441375949,0.273032317,-0.4276337989,-1.4770055516,-0.0159120962,-0.1536921419,-0.6613890736,-0.2278220137,-0.224871466,0.0106750254,0.2764510107,-0.7159157844,0.1085261101,-0.5951477142,-0.1665798308,-2.1908349172,20.5697775101,-0.1787746755,0.6872071205,-0.1994155359,0.7533389187,0.4028232341,-0.1158529076,-0.8077242138,1.1315886498,-0.9996503531,0.9501359374,0.1976253005,0.6468988383,0.0387281195,-0.4173550456,-0.6828757586,-0.8830993796,0.13265483,0.7186239906,0.5497400124,-1.7180660727,-0.2920735017,-0.6529747151,-0.8755695209,-1.1428261125,-0.4646320556,-0.9846062492,0.4004753034,0.6942650983,0.8151064409,-0.8404583505,-0.8874807088,-0.9454247325,-0.7394917884,-0.8443567363,-0.1162636665,-0.7621641612,-0.8345801558,0.7989014187,0.1979834012,0.3185772605,0.4104648967,0.0230815722,-0.0337198296,0.7624363289,0.3443114942,-7.0668077817,-1.1101725492,-0.8495931154,-1.0051908138,0.4690158005,0.7805737069,0.3976967094,-0.2752029188,-0.6913191581,-0.6857187792,-0.8727071051,-0.9667660893,0.725880659,-0.7613797425,0.1225505916,-0.4021376824,-0.9673495776,-0.776014284,-0.4250369683,-1.4104374174,-0.9905017138,-0.8900194581,4.2752533578,12.4193220827,0.5495249572,0.819201086,-0.3901590079,0.5776979126,-0.0989108477,-0.2271806319,0.6002365193,-0.7525777716,-0.8471980218,0.7451739773,0.5602588421,0.2471734173,-0.139401436,-0.1551305341,-0.1050258278,0.0295624949,-0.9477242895,-0.39862534,-0.1168759489,2.6364063691,-0.2489087834,4.7265452384,0.8953234141,-1.1888564196,-0.9276225098,-0.4232809935,-1.0616348441,-0.8423148568,-0.7707663852,0.0621051284,-0.4421749384,0.7279380939,-1.1396000319,-0.7832905005,0.0380466475,-0.7064422549,-1.1283614558,-0.514210105,0.2317994329,-1.4336354576,0.2890867303,-1.2702166481,0.680163916,-0.1165585909,6.4170481792,-6.4336389982,-1.104825989,-0.7877598419,0.9005358569,0.0186143268,0.6430996664,-0.1843665421,-0.3187901004,-0.8062728132,-0.0851360103,0.3690973711,0.3168043177,0.3604140439,0.1228475062,-0.1282830243,-0.7727932018,0.9587342398,0.8714955981,-0.857161759,-0.2100380152,14.8145853229,-0.9779684321,-1.7454537367,5.4039635882,-0.3818180938,-0.6083828461,0.8897968825,0.2016858633,-0.6302001305,-0.3699169517,0.3513357474,1.0018432062,0.4963952084,-0.6048276314,-1.0180644348,-0.3904782878,1.0111145567,0.77284407,-0.8128885831,-0.3809815002,0.7631710209,-0.1113053201,0.1288540327,0.3704690801,0.1257327504,-1.9212003125,-3.2561968879,-0.5019632467,0.8226427347,0.4326840579,-0.3817981239,-0.479133368,-0.6997226102,0.1552713953,0.1499522173,0.478084403,0.7281723385,-0.3238447783,-0.3608495258,0.0252058483,-0.7776265884,-0.4539479299,0.2362393117,0.3118420596,0.1359667861,-0.3649967528,-2.0996751839,-0.262572184,-0.0874705368,0.2403667347,1.1553755546,-0.3032590552,1.1861334109,-0.2790893939,0.506966157,0.0434147357,0.8723507183,-0.3150865189,1.2636779441,-0.1668353358,0.7162087519,1.0207476232,0.1807317538,-0.0700310391,0.5849637086,-0.0047526431,0.2040502408,0.527055961,1.3541111711,0.3731261568,-0.0321566657,-1.2104311728,18.2809241873,0.9336537906,0.5718587947,-0.7797204293,0.2568729493,0.3010150054,-0.0499788918,-0.4612215677,-0.3930722418,-0.5734588445,0.0044845252,0.342103005,0.2305750127,0.2898196486,-0.0437070711,0.3033471945,-1.2004324178,-0.0451454342,0.5173074074,-0.8903842852,-3.3534671946,-1.0449453833,5.1055011341,-23.776387938,0.2835365382,-1.0091640214,0.1347963918,-0.6395618503,0.3729469416,-0.9782621112,0.6804099054,0.819304869,0.4684282635,0.3112608548,-0.0776537898,-0.0654212801,-0.9878603046,-0.9366926322,0.5204811948,0.2181056725,0.8011942386,-0.740970985,0.7496969152,-4.1480985198,-0.4237148389,1.3406044436,11.202566933,-0.6868360747,0.4593064299,0.3885539072,-0.2353464968,0.6099653902,0.8396018579,-0.0202929403,-0.8939986656,1.6781689143,-0.0293208881,0.6040311539,-0.3964513973,0.0920391344,1.4014108994,0.837427972,0.0611242506,-0.2953673471,0.1780088056,1.5279448927,1.1645719733,-0.7363076286,-4.2200611883,-2.6944362967,-0.7484840376,0.061470543,-0.7999313171,-0.5271581196,0.0362983041,-0.502556335,0.5556589848,0.9061882328,0.2727625779,-0.4369374737,0.0736599496,-0.2846378064,0.9022401443,-0.0013341149,-0.8000723893,0.7966771268,0.473401368,0.2079319696,0.8425472952,-0.3684307165,0.6286956894,-13.5471876803,6.9155430872,-0.0438488376,0.338397803,0.05928242,0.5493107815,0.1771619747,0.0938574569,0.2105081233,-0.4731535625,-0.0718782678,-0.0609629127,0.2732832488,-0.952383037,0.3446258851,0.744943372,-0.8500473531,-0.350132717,-0.4554532681,-0.3328898473,0.0168332552,-1.1423087187,-0.7347597268,0.277878577,-0.1160448938,-0.1014919178,-0.2218097864,0.2482627432,-0.8892869823,0.7054467085,0.6398894517,0.4009610657,-0.3512710223,-0.166402677,-0.6447774762,-0.8776853221,0.5386735897,0.1856944383,-0.789352603,1.0619755979,0.9510100368,0.1644272661,-0.3345131194,0.8216406147,0.071250571,-0.757071436,0.0925763943,0.3207561143,-0.25330514,-0.4630943916,-0.7807752427,-0.049719938,-0.6837302085,-0.4369130778,-0.3242197679,-0.702835709,0.34785084,-0.8077140551,0.0360235917,0.4040287496,-0.3720746974,-0.7028803437,-0.4975005106,-0.8405955308,-0.4851166064,0.1672813488,-0.9330572529,0.8121333802,0.0439812201,-0.489843662,1.3659594147,0.0238583494,-0.0479845726,0.9876950711,-0.6109650815,0.1230624613,0.5603381118,0.5412040509,0.4603965369,-0.7673295208,-0.8674940149,-0.552171794,-0.0410966054,0.6019530774,0.4574401951,0.4325984464,0.361407127,-0.3714194853,-0.5799694888,0.6661714293,-0.7865832466,-0.7988666003,1.755165546,0.6686728715,0.4393938792,-0.1264655017,0.5909772385,0.2465636346,0.7087583516,1.0447993116,-0.0009028122,-0.7712109278,-0.7305527838,0.5514501019,0.4120898875,-0.5141034422,0.7574837315,0.7971231329,0.8253690864,0.0329803185,-0.7649260938,-0.7785527088,0.7620103,2.6347427449,-0.837965957,-0.0367120705,-1.1069608547,0.7867482063,-0.5470985508,-0.6600989314,0.1850306653,-0.3460576261,0.1456579576,-0.5555882826,0.7858642512,-0.5295480114,-0.2322811839,-0.2409770815,0.8457515238,0.3929909778,-0.4848190211,-0.1200825655,-0.5790414015,0.54132908,-0.1007378023,-0.1392343694,-1.1015493671,-0.0685285435,-2.4985738314,-0.4035341644,0.7887329335,-0.3854981063,0.643549861,-0.974218507,-0.3081167963,0.4239648158,-0.886621739,-0.0910746183,0.2814864862,0.5621069761,0.2724625777,0.2489264639,0.8286006854,0.0601653072,1.1095732887,0.994904308,0.6425081813,0.8066979103,-0.6566275342,-0.0591186423,1.1910996888,-0.5285628112,-1.1041262857,1.2137730188,0.6824581768,0.1862205479,0.6018187488,0.0477682859,0.8305642719,0.610017325,1.0703814078,-0.4051523423,0.0232475458,-0.3366827839,0.5535361793,1.1094203225,0.0101663925,0.5516925761,1.1264722501,0.657117478,0.882982043,-0.0796780344,0.5041856623,-0.3477708402,-3.5511744499,-13.2410475956,-0.2384074557,-0.7772590277,0.1430549798,-0.4956160162,-0.1450120274,1.011070077,1.1647498383,0.1744540862,0.3870019181,0.4259985468,-0.484010514,-1.0649230842,-0.0433721424,0.0908956354,0.2380983316,-1.1174348042,-0.5033776761,0.4345403834,-1.2118268909,-0.747216342,-0.4224809304,0.6105730646,2.5370578262,-0.0490241925,0.4048512312,-0.504426449,-0.7511946618,0.1888439762,0.3487785804,-0.1413161044,-0.5989088812,0.0022569394,-0.7025362474,-0.3007052366,-0.4189351546,0.6028080259,0.5870108923,-0.7235505875,0.2387813784,-0.6510815716,0.3655498184,-1.2897005414,0.4412735088,-0.0826568342,7.80825077,21.5294665389,0.3066349029,0.4866386253,-0.4881475136,-0.0946189745,0.0689856337,0.300520568,0.7481638079,0.2119159777,-0.5974164474,-0.8683287726,1.0182493353,-0.15807354,-0.359390338,-0.7054962358,0.1923433248,-0.2711245394,0.2252707629,-0.4517600058,1.5500899976,4.4090649908,-0.81814683,-0.8533776077,-0.4074391171,-0.4842309363,0.2616125224,-0.3344716126,-0.967818796,-1.2609464194,-0.470997735,0.2178960924,0.2875412769,0.5008364909,-1.0588131786,-1.0748619773,-0.8404745635,-0.7205493611,-0.9158368657,-1.2086328416,-0.4482706666,-0.7820931997,-0.0425024793,-1.0678226429,-1.3360154526,0.3046376842,-0.0601926646,3.9388169002,0.1506347741,-0.1314052782,-0.4616105419,-0.6881937235,-0.0140223985,-0.4746042861,0.8530852853,-0.4882371817,0.9572900494,0.8435303258,-0.2435102099,-0.2458288496,0.5563500138,0.4457934684,-0.2053210634,-0.2018191161,-0.6031380885,-1.1596276787,0.0661742917,1.15721719,0.7486452437,0.188104558,-30.10689475,-0.2403340708,0.8070301105,0.0952137775,-0.9406878617,0.1115122178,0.4719772934,0.8970418382,-0.1489438902,-0.3771903953,0.8980613566,-0.9466586309,0.6278294332,0.1528967531,1.0279183911,-0.1632729556,-1.5304528253,0.0724595677,-1.0201099927,-0.7924796324,2.6968016063,38.0756159759,-0.5486830628,-1.0512265812,0.1845676079,-0.3792839599,0.9727201161,0.1267606191,0.4253221446,0.4181311287,0.2699135731,0.7267715631,0.2549238242,-0.4990458581,0.6506042075,-0.296121365,0.9679737606,-0.2868162349,0.1418492714,0.8362452182,-0.6857700523,-0.2481217984,-0.4504288338,1.2078930454,0.3127488251,0.6629391003,12.5393338161,-0.9357776482,1.0440469942,0.0872344325,1.0057492418,0.9843752881,-0.1591540234,0.4135673438,0.1573558128,-1.0763297362,0.4801484716,-0.3337639859,-0.1062311801,0.4903028018,0.5984979549,-1.0045468429,-0.2511375752,0.340900493,-0.8475178173,0.6594387996,0.1439065186,1.0970060172,-0.7783290183,14.9270218307,0.1074096987,-0.3276789722,0.6415642262,1.1228572063,-0.2489505435,-0.1880009361,1.0192675465,-0.7208728874,0.0041914614,0.3615950476,1.2248937497,-0.3110281196,-0.7113273775,0.7728016336,-0.0049344178,-0.4364791004,0.7799123762,0.7325494683,-0.500395415,-0.2588865358,-0.0075726843,-0.5546021933,-13.6845567564,0.0949879202,-0.2311895274,-0.7716933149,-0.6833569408,-0.0157485968,-0.4139868736,-0.8617692893,0.8758072872,0.2467527078,-0.4280622539,0.6302890164,-0.5211039941,0.9420938135,0.1588906845,-0.0433083352,-0.315392217,0.1118804386,0.1471916063,-0.6635691173,0.8903807644,-0.8228594887,17.3106669792,7.3318453648,-0.0477475398,0.7181161757,0.6377051639,0.6200784977,0.5458602731,-0.176579506,0.2886500989,-0.241322004,0.5404227809,1.3802842352,0.039795468,0.8911568647,-0.2234502687,-0.3552346172,-0.3974494773,0.5228480992,-0.4301674573,0.4893964886,-0.8745868816,0.4305928414,1.0525889508,0.4920265006,-0.2706646491,0.5316239364,1.079331137,0.3337754086,-0.4210026394,0.6947133499,-0.4685729979,-0.1439904341,-0.1030735197,-0.1232964821,0.9583407695,0.0726288732,0.2365682949,0.631062821,-0.3423443211,-0.5402234868,-0.6359085312,-0.5606982646,0.3830022776,0.0694562999,-0.1202580695,-0.3465780911,-5.8641950066,36.2673606916,0.7232935467,1.3327420062,-0.3243633414,0.4998761674,1.1816797057,-0.4220420369,0.9379741299,-0.4194888249,-0.4321877838,0.8252031835,0.5213813982,0.653620177,0.7803889082,-0.7207393255,0.3176665501,0.4422684968,0.7659852648,0.5573638199,-0.3126420221,0.941457115,-0.8400619911,-0.2286589094,0.2926575187,-1.3240154707,0.4748417898,-1.0802124509,-0.747553811,0.7246474265,0.5144202151,0.5620018702,-0.7040004666,-0.4779521049,-1.4029696107,-0.0973428159,-0.2748964897,0.5638999479,-1.1812440869,-0.5053437157,-0.5479643995,0.4586724843,0.8488337306,-0.7355099264,0.176113018,0.5743343884,-1.5709493058,-7.9447283477,0.7761596026,-0.7250183269,-0.1995851261,-0.0827833729,0.0901553635,-0.7325694722,0.7865277049,-0.0959686604,-0.3419737,0.5613335809,0.4214473156,0.614582698,-1.1185066964,-0.8365728154,0.1457563,-0.7087990146,0.1336641485,0.3408018408,0.5756331852,1.0306726728,-0.9027120665,-0.6167655863,-0.6984308809,0.9738262353,0.6756454216,-0.5285590928,1.0682924898,-0.3522875579,-0.685234197,0.8935819382,0.5756436086,1.2490036626,-0.266411472,0.3923287412,-0.5350847163,-0.2402857421,0.8448507037,-0.906095889,0.7986073176,0.0301733506,-0.5127976168,0.5273725763,0.4291253685,-0.940232733,1.4553477445,-3.3076701811,-0.6088979302,0.5339840722,0.8561911982,-0.5855395594,-0.526028466,-0.6804263314,-0.7613927857,-0.6159160615,-1.1517235053,-1.2942391875,0.6933399332,0.6062903051,0.4550749967,0.9148051414,0.2696275436,-0.3794217924,0.7508812928,-0.1074640491,-0.5649980057,0.6880940384,0.312644583,-1.4653159307,3.4462868712,-0.4293508418,0.0588694145,0.2152098078,-0.6248427815,0.3830366188,-0.7500160939,0.099810677,-0.7688087307,0.5218808747,0.1696339634,0.4048330852,-0.7966678586,0.7044840556,-0.6200061855,-0.3181743203,-0.7491922392,0.1893526102,0.1680089419,-0.9127143612,-0.3576526111,0.5071212014,5.8255783506,13.1470814243,-0.4788539001,0.5049963482,-0.2922108136,0.1964905821,0.2838688367,-0.9144399015,-0.2064700329,0.2188491735,-0.5339596818,-0.4739509,0.0730410595,-0.8441030159,0.2175196478,-1.166199039,-0.3625767185,-0.6730164762,-0.6774061231,0.2847000921,-0.4627767201,0.2420599741,0.0743296842,-0.9468803817,-8.5168477675,0.7613891045,0.0275159191,-0.1642081924,0.2724155703,-0.0254772306,-0.7480629562,-0.45759314,0.11485998,-0.0948945892,1.0178311349,0.1965640908,0.79052472,-0.7478357827,-0.0216334425,0.6001652608,-0.2148104369,-0.2725297578,-0.0736283256,0.7637933194,0.2158208652,0.3276842624,12.510370969,-23.3608846968,-0.3825261745,-1.3614532951,-0.0772242837,-0.5078711116,0.3022437426,-0.2641243466,-0.6155284464,-0.1007944088,0.951263046,0.1741773579,0.2354224377,0.2443320624,-0.6855418068,-0.8946271863,0.908808201,-0.9371904949,-0.3840837932,-0.9364495202,0.7312222124,-4.9344935857,1.3404310217,-0.1782759094,1.1548529113,-0.7127905975,0.0658960047,0.6562395377,1.1366000908,0.3628734834,0.052687331,1.2551405675,0.4436120535,0.7378477025,-0.2756536089,0.3939842579,0.860901507,-0.2630938378,0.2617426435,-0.6558538338,1.1699909144,-0.1720564788,0.5771356937,-0.4882048337,1.173650903,-0.4416677623,0.4881551603,0.4950947894,0.6497740315,0.114224363,-0.9780091191,-1.0051080539,0.6268436007,-0.4369684084,0.8357537731,0.0527371213,-1.111827776,-1.0394964535,-0.5248028461,-1.1085268961,-0.0526338497,0.0235331834,-0.6196668506,-0.9586774614,-1.2155523844,-0.9761333765,-0.933157107,-0.8302724718,-0.872620525,0.6711025852,-16.4963917213,-0.4548484771,0.5524090879,0.4855498074,0.4220136525,0.8270683948,-0.3082541038,0.1491965439,0.1544249178,1.4416264177,0.207886078,-0.1464851177,-0.4305255341,0.7022507345,0.1886247099,0.0464756388,0.2102445921,1.1596579503,0.472903386,-0.352254087,0.8052595549,1.0595833723,18.0569680693,-10.4392445705,-0.0662764688,0.7431290048,-0.7817526912,0.2303464071,0.9325108751,0.2373247279,0.1875003515,0.975176195,0.2308890808,-0.8054347381,-0.0432268332,0.2042666918,-0.5161990895,-0.382114238,0.1429120174,-0.8010555833,1.0224782363,-0.0766577923,-0.3747461309,-0.9684463089,0.0828620973,1.8925546953,1.5850676949,-0.6638859753,-0.2947951531,-0.4548171,-0.9966068611,-0.7507178202,0.0996665736,-0.5643351528,-0.9474087971,-0.1572030171,0.4060691404,0.5379158418,0.1370837366,0.9205478678,-0.499122978,-0.6131913648,-1.0860011264,0.5783772545,-0.6491946961,-1.0778753608,-0.4364537078,-1.194739727,0.0253956959,0.410156959,-0.1694764759,0.1969169972,0.2114732688,-0.0383946482,-0.2668761369,-0.4688687327,0.5384599786,-0.1501974068,-1.0783921065,-0.0952706481,-0.8273748708,-0.2642192628,-0.4999366401,-0.5678738579,-0.7913767479,-0.7367682068,-1.089570011,0.3432629236,0.0938178038,-0.5521350722,0.0043655164,-0.4185202306,0.0417072792,-0.104392973,-0.6861192059,0.5328724677,0.0991682164,0.7158930074,-1.061068021,0.4045427894,-1.1907691572,-1.0072542075,-0.7012189337,-0.1481556393,-0.5782388673,-1.1212024632,0.2359826311,-0.0059921674,-0.1960979315,-0.1184683235,-1.0516474714,-0.8937565516,0.358763105,0.9485750229,-7.7974021475,9.4516591338,0.2080338634,-0.2803416199,0.6290656267,0.0282339339,0.3355034426,-0.1985601536,-0.3937141382,-0.1497733643,0.3235621811,0.0635972902,-0.4931127082,-0.5205141028,0.7709965113,-0.3254481631,-0.1886328327,-0.9053385258,0.0708316281,0.3348979672,0.8164716554,0.4680395829,-0.047606611,-0.2914463547,0.0611386815,-0.7893288051,1.028389645,-0.066050118,-0.2876202165,0.6467105114,0.6752799611,-0.0141769341,0.3443685325,0.2736030636,1.002204525,0.9597709568,0.1429894958,-0.1331670731,0.4018747305,1.0326001969,0.8186649197,-0.6534959418,0.4945890222,-0.1098820402,0.7881379354,-0.1710453216,-0.4202131778,3.9840384573,0.8921364537,0.8498447791,-0.7147753122,0.4568558229,-0.8820398423,-0.2769802506,-0.2498999503,-0.3040496931,-1.1552431602,-0.0273945596,-0.5568542347,-0.3010385306,0.6254196059,0.2073471814,0.1266447061,-0.0844076787,0.1749249737,-0.3641664046,-0.2606478023,-0.8564145619,0.1394340513,-4.7306762384,-3.249334631,-0.0807845311,-0.1547031762,-1.0578805977,-0.5820574585,-0.5002491103,0.8202180093,-0.7987755304,-0.98449183,-0.648806486,-0.2234700457,0.3163217843,-0.4511675087,0.8096394167,0.8375202111,0.4216202295,0.7868703095,-0.8572314658,-0.6657211267,0.0122393269,-0.5776076472,-0.0086198118,-2.4840171896,-51.6901190942,1.0278614259,0.9866200192,1.0523183172,-0.3927799911,-0.766726131,-0.7333945484,0.1711016411,0.8023687484,0.7591391099,-0.5835646436,0.6198392033,-0.8072084058,-0.7248332414,-0.6815140401,0.0307846563,0.707355049,0.1675379448,0.5267286453,-0.9512273546,-0.7966438962,-0.2509536742,3.3450130748,14.3946021985,-0.7103348972,0.4411771689,-0.1745991804,-0.8983872033,0.1672378073,-0.5493230217,-0.2945122585,0.2843145163,-0.4429813589,0.4410042375,0.5854917463,0.4762037757,-0.6667025819,-0.754597813,-0.2128033941,-0.7652882066,0.5769711146,-0.1569831462,0.1891946061,-7.5108294588,0.6963571443,4.1907709511,-1.0386831849,0.7219975192,-0.5867987303,-0.9181020649,0.6929258687,0.1215550963,0.0442155482,-0.6608996889,-0.7745342285,0.1723528484,0.8449407261,0.2308570183,1.0907310347,-0.7375851123,-0.0968142131,-0.2541906613,0.1409635015,0.9696004931,0.6690489571,-0.0547521787,-0.4247235968,0.6844670979,-0.2929521555,1.870929074,0.5667173602,-0.0847528484,0.049551928,-0.4523138947,-0.1381380016,0.4241164311,0.1623211185,0.8888848823,-0.9695666692,-0.3261978849,-0.6811988581,0.3726619494,-0.7556070185,-0.0791139489,-0.3767268688,0.1793680399,-0.1334579486,-0.4544746101,0.8110900665,0.1913834161,-0.8232646285,1.5821474165,-3.2380345052,-0.418609352,-1.0369258766,-0.3962654084,0.5197986022,-0.1554374759,0.082279196,0.156378598,0.3917674868,0.6354898809,1.5564840895,0.0101671776,0.8150302664,0.2708090136,-0.339746168,0.0703072555,-0.2036144156,-1.005385916,-0.457437641,0.3232869946,1.1337408591,-0.4176152975,0.4529850493,-18.0959875818,-0.2106249648,-0.4236336795,0.6171400823,0.4347549457,0.1088904166,1.3228765984,-0.4556206206,0.9824534934,0.5054854296,-0.6090788015,-0.5262718368,0.1689512329,0.4615539657,-0.5445027367,0.1185151398,-0.8259986335,0.4650810995,-0.1209711319,-1.1007023028,-2.1137725974,-0.3805974572,0.7953914479,0.3413079101,-0.566491902,0.0947342037,0.0793107555,-0.1142422384,-0.2076496843,-0.1615375735,-0.7317242803,-0.8531354881,0.2786355573,-0.8591393499,-0.6434273855,-0.2667764386,-0.2831297455,0.3580716696,0.5394899448,0.829090766,-0.6265722345,0.1708986513,0.4582852877,0.5577907646,-0.8526282901,-3.2846455617,0.8896866068,0.3482054083,-0.4397265919,0.8710586291,-0.8136823895,-0.2277078599,0.240906413,-0.8952598618,-0.8412344351,1.0084948767,0.5714714558,-0.0953282148,0.3515592991,0.1852841782,-0.1142900308,1.0705355866,0.4113488839,-0.5660320442,1.0792044466,0.1553374474,-0.2350195546,-0.7841490037,7.1340802393,3.3616833356,0.0931328455,-1.0042182973,-0.3414694348,-0.2540177068,0.510119978,0.0561182211,-0.8812868204,0.1058046989,-0.0291684148,0.7610410483,-0.6958634626,-0.5881776326,-0.215564463,0.0361257666,0.1658654933,-0.3311609317,-0.7393827972,0.3504011856,-0.1352321709,0.5569204347,0.4436442856,4.7903672493,-5.9283699984,0.4490104917,0.7898918587,0.1563713555,0.625449033,1.0273905543,-0.7803896321,-0.6049734428,-1.1860806602,0.417705422,0.4342981164,-0.2397435984,0.248073616,-0.1992869108,-0.9791259236,-0.185703536,-0.5806831701,0.5452212125,-0.4793881201,-0.1286201182,-0.5419624275,-0.1906199433,0.0009812204,10.1806243299,0.146333596,0.3291214145,-0.8556820039,0.1849701321,-0.5544783805,-1.0719939679,-1.0942287037,-0.1081434266,0.1884494587,0.3349765916,0.0559547476,0.3333409411,-0.9284522893,0.8813259891,-0.4873946201,-0.9567756204,-1.0530984231,-0.9013338038,-0.3963139851,-0.3446845391,0.8533471879,-40.0901475224,-9.4567477863,-0.1855823226,0.0509793431,-0.7732125606,-0.484124487,1.0715260346,0.0212594715,0.3208172941,0.1003099755,-0.8719467697,-0.1066482245,-0.7559560936,0.6885062678,-0.4423464388,0.8272096708,-0.5817430299,-1.1158891952,-1.1419254191,-0.8671229173,-0.8347574294,-1.3280202137,-0.7539328184,-1.1552682247,1.0544800901,-0.4869110639,-0.7585270308,-0.6011336084,-0.3442716108,-0.990374526,-0.8984748233,0.26978059,-0.0814946734,0.1265391524,0.1157841406,-0.8564566013,0.0850441216,0.0131779773,-1.2219598306,-1.276984165,-1.1719833992,-0.8121129797,0.3747412669,-0.2691731278,-1.2552493481,0.1962199069,-4.5420963206,37.1777864049,0.0740935668,0.0343490106,-0.095435416,0.5009909544,0.7683327928,0.688973762,-0.4009472531,-0.9222403885,-0.4489798646,0.0275168642,-0.7067392645,-0.8088113281,-1.0824352308,-0.5187835438,-0.3269934824,0.481653486,-0.0360139742,0.9445344458,1.9714713262,-4.6024494577,0.6341884465,5.38049894,3.8008847468
   -0.6491846887,0.4926487424,-0.1826037807,0.2235111812,-0.6113524341,0.6035251321,0.131450212,0.9773913522,-0.814656923,-1.0954012105,-0.6736477825,0.7417068262,0.1968256594,-0.9952882439,-0.2598815185,-0.8439389842,-0.0728276991,0.2669400863,0.6371422961,0.8225204905,-0.239713571,-6.7405516773,8.7627896724,0.1555365404,-0.114180059,0.0229094713,1.1979054732,1.0210727273,0.8722479624,0.473583283,0.3959656797,-0.0963944721,-0.0695461549,-0.5475570109,1.3770112398,-0.5776967648,1.2060126338,0.6172498003,0.6958844109,0.0261651163,0.1410044071,1.3175596379,0.9706731741,0.1659981576,-7.4393817957,-13.8442041044,-0.159561047,-0.610393379,0.2462513919,0.5841700154,-0.1727937711,-0.3095415777,0.1639001567,-0.0589563946,-0.6657313287,-0.1371105846,-0.7540375095,0.4900181191,1.1308504535,0.4477261069,-0.0466415829,-0.683699759,-0.4122341915,-1.0433059676,-1.0242138267,0.8700492526,-0.4156404569,0.2901540495,3.8976948759,-0.6233184564,0.0920484488,-0.6643507296,-0.4369634739,0.5107199083,0.4927361924,-1.0343782505,0.6888602456,0.3377740181,0.492603391,0.7344953448,0.4320575586,-0.9348707966,0.3018164363,-0.3339498062,-0.3048689994,1.0402381651,-0.6236495195,-0.2162639208,-0.3446389246,-0.2554142418,-0.4599720161,0.3115306955,0.6180875308,-0.2486658019,0.3116632644,-0.7126602106,0.07321867,-0.9664451711,-0.576685386,-0.7888607114,-0.796450987,0.0572232367,-0.9468670032,-0.4770955318,0.1402473548,-0.2535592803,0.0049470248,-0.6350378028,0.2992493061,-0.7651140066,0.4426315084,-0.6530796276,-0.6041631635,0.6121254716,-1.0544056125,-0.8245269867,0.5591990026,0.5227074479,-0.7145588683,0.5421453319,0.514903666,-0.7013994826,-0.0021685562,-1.1989682016,-0.9172771779,0.1482152682,-0.8863893985,-0.1221346835,0.5839260184,0.5233433651,-0.7766389641,0.6329370192,-0.7593671627,0.5656588127,-0.4687291498,-0.3527147615,-0.9593530532,-0.583213879,-0.2018428043,-0.9318511883,0.2527127475,0.252448662,-0.6396163134,0.0811140018,0.3218128019,-0.7968271213,-1.0460226992,-1.0714297033,-1.2565298515,0.5582662009,-1.0325291953,-0.0689269821,0.1033364815,-0.9523148166,0.4335745236,0.4729278361,0.2880307868,-0.3785874146,-0.498037512,0.0514852648,-0.0701501518,0.3439467231,1.2423805616,0.4576732584,1.8229813636,1.1464426819,-0.036824703,1.362860154,0.8724798176,0.4920103177,0.6548774031,-0.2752966418,0.9759925358,-0.1118128466,0.5313138249,0.6873053722,1.1286913952,-0.2498918684,-0.2083863992,-0.2326003433,0.9579208286,-0.3269129836,-0.1533499596,6.6958633431,1.3293785996,0.3397154596,0.5519823488,0.7348869409,0.78554938,-0.0821163973,0.1256012462,-1.1132075475,1.4315966155,0.4328722676,0.1711179551,0.2012124687,-0.1959134226,0.5127154764,-0.3159370878,-0.5479282594,0.0120645295,-0.5629037025,0.2617015269,1.1530252788,-0.7844745176,-3.3546607444,38.4655460828,0.1226736158,-0.1328932221,-0.1761686603,-0.3263291129,1.1803956568,1.0856962289,-0.3209799144,1.126306897,0.9386463614,0.9091979629,0.1032939493,0.2443726499,-0.531867077,-0.7072066758,-0.2076709789,0.7736319639,1.0135361362,-0.7197945353,0.3204666871,-0.5850741693,0.2877178848,7.9885164942,34.6650046928,0.7611348963,0.5870317747,-0.9661913918,0.4251658043,0.3928660209,-0.5976068955,0.1983452757,-0.1324543891,0.1197188733,-1.003498513,0.5938736327,0.7464707367,-0.0586715729,-0.8799861123,0.1274566385,-0.6987931119,-0.6014914545,0.4647433608,-0.8923279859,-0.0502711895,0.6371591201,-6.1224385296,4.4657162105,-0.1327533582,-0.4914486652,0.0022947261,-0.5838500629,-0.4138619759,-0.2412531264,-0.1155115398,-0.5345576837,1.0228701433,-0.4664079977,0.5048125751,-0.4991584597,0.3634365175,-0.3089568083,-0.887292253,0.0487634586,-0.0799298959,-0.4271387443,-0.7608179558,2.8007464273,1.0401009094,-3.8385104308,20.9417437575,0.027352761,-0.5775085026,0.5748475625,0.0896451325,-0.9739373235,0.7697654099,-1.1026521917,-0.1730573695,-0.4341295425,0.4478774443,-0.5345749656,0.5723147326,-0.7873355691,-0.1873604405,0.3789882459,0.0217388187,0.377271726,-0.8180829983,-1.3830315215,0.457881455,0.3333584744,5.4762326294,12.5870978068,0.9807346117,0.233985028,-0.3417106802,-0.4395407976,0.3227143834,-0.2349391782,0.5204240812,1.0446896081,-0.4258134544,-0.3055726624,-0.318319494,-0.7190268635,-0.6692065914,0.547968769,0.523649463,-0.5933713053,0.0828974233,-0.9186826733,0.3676474761,3.7039959274
##end
biasActivation=0,1,1,1
[BASIC:ACTIVATION]
"org.encog.engine.network.activation.ActivationTANH"
"org.encog.engine.network.activation.ActivationTANH"
"org.encog.engine.network.activation.ActivationTANH"
"org.encog.engine.network.activation.ActivationLinear"
