encog,BasicNetwork,java,3.4.0,1,1571649932486
[BASIC]
[BASIC:PARAMS]
[BASIC:NETWORK]
beginTraining=0
connectionLimit=0
contextTargetOffset=0,0,0,0
contextTargetSize=0,0,0,0
endTraining=3
hasContext=f
inputCount=22
layerCounts=3,41,101,23
layerFeedCounts=3,40,100,22
layerContextCount=0,0,0,0
layerIndex=0,3,44,145
output=0,0,0,0,0,0,0,0,0,0,0,0,0,0,0,0,0,0,0,0,0,0,0,0,0,0,0,0,0,0,0,0,0,0,0,0,0,0,0,0,0,0,0,1,0,0,0,0,0,0,0,0,0,0,0,0,0,0,0,0,0,0,0,0,0,0,0,0,0,0,0,0,0,0,0,0,0,0,0,0,0,0,0,0,0,0,0,0,0,0,0,0,0,0,0,0,0,0,0,0,0,0,0,0,0,0,0,0,0,0,0,0,0,0,0,0,0,0,0,0,0,0,0,0,0,0,0,0,0,0,0,0,0,0,0,0,0,0,0,0,0,0,0,0,1,0,0,0,0,0,0,0,0,0,0,0,0,0,0,0,0,0,0,0,0,0,0,1
outputCount=3
weightIndex=0,123,4163,6463
weights=##0
##double#6463
   0.2609765032,-0.615545988,-0.3478695574,0.5335755742,-0.1707910487,-0.6863513369,-0.542450699,-0.6201349064,-0.55390929,-0.9816476867,0.6969820806,0.1906921727,-0.5785116615,-0.0267536547,0.0120192547,1.2933597732,-0.0645838871,0.5083695634,0.2526110729,0.3551722075,0.5691747408,-0.2004347293,0.8124846965,0.0784641484,-1.2086983455,0.6461619523,0.5964774774,-0.997188402,-0.1264987553,-1.0308746234,0.2969844993,-0.0043038717,-0.0078488451,-0.0285013926,-0.1883968116,-0.360579061,1.7152903564,-1.1820569852,0.537370821,-0.6032117861,0.3997042067,1.0828028605,-0.7599866823,-0.0708187181,0.398635868,-0.989662316,0.7874320999,0.5887021887,0.7611390638,-0.0418480861,0.1725946202,-0.5569059763,-0.1321965302,-0.3078666032,-0.4905669341,0.5931893281,-0.45509006,-0.092057596,0.2019509191,0.6253962185,-0.3675359326,-0.2648566161,-0.4577811819,-0.6240013838,0.2751441388,0.0034852743,0.7289896781,0.1125056393,-0.7720993772,-0.540864445,0.9013065029,-0.7682566471,0.3996681801,0.4615464881,-0.5143866121,0.0038647372,0.8139422754,0.6601985701,0.5566273073,-0.6711512164,-0.3373048089,-0.88399188,-0.7635932561,0.1942173054,-0.6625558311,0.9081015929,0.2983946941,0.2651885133,-0.5412796663,-0.1948333138,-0.5298935234,0.4671532618,0.0070193076,0.0027847102,-0.0083984275,-0.2328068586,-0.0075330624,-0.0029946878,-0.8227429528,-0.8640372504,-0.4959234701,0.1886502538,0.9356916338,0.6510437165,0.0469369017,-0.439189346,-0.0059344223,-0.3418119298,0.7306413763,-0.0431909379,-0.8589821594,-0.2823843535,-0.6924909448,-0.3943705463,-0.2522791977,-0.2099861442,0.3979755232,-0.4523120879,0.6475990767,-0.4345089969,-0.2934064383,-0.0621246959,-0.1443318686,0.7250452528,0.7257933486,-0.4812355525,0.8749663274,-0.752242203,0.1402617761,-0.043757747,-0.3907743611,-0.6404525125,-0.9629703316,0.1072250474,0.5422675451,-0.5706215301,-0.3506365037,-0.9628363472,-0.7553745651,0.9058041095,0.894358428,1.2627607274,-0.7964205049,-0.8644596855,1.3308058728,-0.1311793613,-0.6005758516,-1.2459855156,-0.0977978547,-0.0954925458,0.4276641189,-0.0503517286,0.8666007677,-0.7855193533,0.5682655883,0.7196933786,0.6814321067,0.9365548666,0.105490505,0.4427991895,0.5817057845,-0.6280566283,-0.4118214542,1.0428047764,-0.2676086817,0.0259865921,0.1517668905,-0.6857480329,-0.4531953691,0.7015319919,0.1191603712,-0.5224144721,-0.3424801093,0.0723848303,0.4889551781,-0.5155926513,-0.4594826322,-0.4972924675,0.7700959549,-0.1877594467,-0.0051142862,-0.2394019988,-0.3189380598,0.0037520328,-0.5457019916,0.1621283155,-0.6779157688,0.3633207458,0.0649833315,0.5906936251,0.9907158103,-0.0690370873,-0.4400731446,0.7634238318,-0.4394183789,1.0566291551,0.1419071252,-1.2829577829,-0.6848096712,-0.5015015413,-0.0210203457,0.9018539079,-1.0547089107,0.5388377361,-0.6264880068,0.009201381,0.6952782814,-0.7457556191,0.2966313033,1.27756336,-0.9481373744,-0.5472157609,-0.5713891859,-0.5070553444,0.7679858141,0.9059383953,-0.1742781985,-0.0911929725,-0.2942424255,0.9334086641,0.5958206547,-0.2723350517,-0.0860883907,-0.6780723558,0.5324772826,0.3441500083,0.5696852998,-0.8865580962,-0.9491744104,-0.2285250454,0.2861776501,0.2355867538,0.6330400212,0.6456343719,0.4028830581,0.5450225638,-0.8069498428,0.8760803578,0.7781462344,-1.0998385561,-0.8274797318,-0.2209640578,0.2809182603,-0.4046867914,0.4926000393,0.3861078165,-1.4550775657,-0.3548445508,0.4341284975,-0.0094197202,-0.8315346468,0.1158105141,-0.7651892992,-0.7267312794,-0.6629594478,0.5069817084,0.8243659592,0.6309420429,0.4607192313,0.5867782217,-2.7388757625,0.082961929,0.600849762,0.0797949092,0.6836739616,0.5597600471,-0.1423646584,-0.8630044534,0.9694313711,1.1875769177,-0.6880347671,0.1771813929,0.518789792,0.6437854289,0.1178117775,-0.3355733849,-0.9091135086,-0.4672917712,-0.7408600441,-1.0111170073,-0.8622110091,0.0951720874,1.0472726909,0.2949726445,-0.1238273736,-0.2409732462,0.0688631312,0.3879524119,0.2504889448,-0.2372599368,0.4784421282,-0.0642662819,0.6634408512,-0.3101714865,0.3928237846,0.0625489633,0.0955761533,0.0119318886,0.6458538343,1.2238751673,0.4813074119,-0.8338477577,-0.6852319502,-2.3573606061,-0.7330068885,-0.7441579433,-0.073932361,-0.3470447157,-0.5128730527,0.4458299292,0.2709618899,0.7115481958,-0.8915797856,-0.6311375974,-0.8109266868,-0.6087020616,-0.6122324534,0.3798522518,-0.0913696329,0.0940334139,0.3530826154,1.1185444668,-0.9616666494,0.6210835018,-0.7855952725,-0.3222075708,-0.6943424624,0.0331030245,-0.4846763836,-0.7147378064,-0.4259808029,-1.0502977426,0.9261662889,-1.2151298544,-0.542172208,0.5396422643,-0.5086898379,0.1468521036,0.3770768976,0.3788730119,-0.326148759,-0.7661529079,-0.5377493058,0.5370266614,-0.6919421947,0.3570668931,0.0685228175,1.5696684341,-0.2690799202,0.5756590658,0.7010573587,-0.0279064727,-0.5136731451,0.9464425347,-0.496237879,0.2928996384,-0.0773412309,0.4684388106,-0.8650946163,-0.6249675219,2.5383184919,1.0343365465,0.9652048896,-0.7810838633,0.248462845,-0.4622381621,1.2498763531,-0.150570702,0.732042575,0.1872467004,0.8949690596,-0.340732123,0.6975632064,-0.4324842437,1.5936702162,0.4009666457,-0.4013797843,0.8653273271,0.8165622619,-1.4480138377,-0.0772301266,-0.1387740538,0.9719302456,-0.8679013159,0.9818350226,0.346628946,0.5553192709,-0.1740473359,-0.05034384,0.6029019757,-0.8464174315,0.6358111465,0.8626829612,0.8841315134,0.7960321807,-0.2345078045,0.0450302181,-0.2721946322,-0.9161128612,-0.087370766,0.0659586838,-0.6516898948,-0.5309591349,-0.2511020705,-0.447937207,-0.2310570123,0.7862190881,0.2235764013,-0.4547166527,-0.0046571404,0.0530880169,0.4260339694,-0.9089034987,0.9846302285,-0.541057838,0.9694212045,0.6628999232,0.7753239079,0.3690847051,-0.6234491151,-0.2349696454,-0.1718835149,-0.4971033469,0.2791118224,-0.1120973322,0.1128147533,-0.667957872,0.7936156945,0.7757105061,0.8995619574,1.845385759,-0.7727631986,0.395023751,0.0237597503,-0.74798189,-0.4995757422,-0.4330278066,-0.5925964684,-0.1964131943,-0.2450665046,-0.2230487751,-0.1606627688,0.1332214958,0.593222532,-0.5460139666,-0.1913065326,-1.9753793889,0.6405139769,0.7919630533,-0.3863062118,0.9908657043,0.4695796535,0.6832301365,0.195940597,0.5934185075,-0.0270819948,-0.6366113375,-0.1648090672,0.7738980018,-0.1001056902,-0.2719017115,-0.9105276252,0.4024829328,-0.4280203774,0.2479552171,1.1480274334,-0.057019766,-0.0792523919,-0.690900222,-1.8963897392,1.1532735604,1.4267877434,1.3568703084,0.2643950046,0.5967045181,0.9175130415,-0.0689278449,0.3904263838,0.4007213513,-0.1527932775,1.7434341258,0.8887724392,-0.9419685663,0.1829498673,0.2386985547,-0.2329405665,0.6084059761,0.8623715285,-1.3203318263,-0.5622013693,1.1758555248,0.5267116171,-0.5233317997,-0.3475780439,-0.4356387906,2.054218073,-0.5986400293,-0.3280183298,-0.3076205428,-0.4292849732,0.1594194812,0.2978467872,-0.3731397312,0.1437623066,-1.9574515519,0.1596513757,-0.5971153115,0.3633139208,0.3002289064,-0.0816595378,-2.070282664,0.4939573242,-0.2804109992,0.6133920866,0.1044767294,-0.3319225544,-1.0877444522,-1.3962304009,-1.4062255908,-0.2667257905,-0.8596980767,0.0980798519,0.5354829771,-0.6439817808,-0.0551791254,-0.5297463354,0.4895066861,0.3911190175,-0.3958090214,-0.4936058211,0.3843558439,0.2548453185,0.2352582839,-0.9646299743,1.1865013427,-0.1089499333,-0.189752611,-0.7535167474,-0.2003047678,0.4806565976,0.2071495586,-0.4028678174,1.1254302426,0.286560312,-1.018836579,1.7452612845,1.4041518973,-0.366167306,-0.3910633158,-0.8719079796,1.2692909288,0.1532014606,0.905714185,0.1924716018,0.7995737338,-0.0896776322,-0.1470966427,0.0598336484,1.2075448873,-0.532974566,-0.011058536,0.4644973315,0.3383250426,0.6146024589,-0.035403477,-1.5329942112,0.3428862807,-0.0614670015,1.1321262763,0.9988493604,0.3981859253,-0.793846211,-1.5356075236,-0.9128338578,-0.0715104145,-0.3404569614,0.1765079108,-0.6443393502,-0.1499358435,0.6379976897,-0.6009636862,0.0119923155,-0.4982893092,0.2682033161,-1.5501126161,-0.9027261256,-1.2663043386,-0.4618143045,0.3570001791,0.5588686515,0.5625223334,-0.7613824568,-0.2761849942,-0.0114833499,0.1535061032,-0.7966908025,0.3442940928,0.0032396485,-0.6673863937,0.3370928847,0.2649804317,0.1142199288,-0.1441119195,0.6367475287,-0.4442784729,-0.5072717078,0.9711888628,0.6165207563,-0.2184327401,0.2453862051,-0.7392043906,0.3156848028,-0.121808689,0.0279240875,0.1489959041,-0.2771904074,0.7136303659,0.2917103816,-0.7212115894,0.1638069116,-0.1363382003,0.32513216,0.3888285692,0.8608132218,0.6628896554,-1.3787017854,1.6774873388,-0.696392487,-0.5030588153,-0.420078966,-0.1738751078,0.1535385587,0.5056456695,0.8786156717,-1.0186557168,1.1148403799,-1.7922173815,-0.2874320035,0.0227313014,-0.9177381143,-0.2280486536,-2.2425803889,-0.7170617669,0.5853852952,-0.0553599776,-0.4590367215,-0.3097080971,-0.002565408,0.912062877,-0.728390415,0.4069616946,0.2440758135,-0.8861266905,0.3537425586,-0.835400378,0.2270013114,0.4462433062,1.430699182,-0.6012873017,1.5366244952,0.0461999097,0.0038994047,0.4749885689,0.3003776879,-0.8039698592,-0.5428064784,0.4137419899,0.2118569623,1.0444653861,0.2881149314,-0.1816861999,0.7055171394,0.3409484327,0.4460110879,-0.566940368,-1.4123533071,-0.4702583941,0.3921150836,0.049064732,-0.588665017,-0.5964318298,0.442845372,0.8763358811,-1.7376633256,-0.4090777052,-1.1804852754,0.3904204889,-1.0074639992,-0.4712506184,0.1041110444,-0.1522529706,-0.1247820479,-0.0457435168,-0.9399232437,1.0707219428,-0.8613183163,0.2319396261,0.6592409692,-0.4332881644,-0.2217505137,0.6150320929,-0.110505711,0.1691670069,-0.266264312,-0.7496881379,0.3526925043,0.2130338147,-0.0825645458,0.3822005822,-1.0432848402,0.2201193694,0.6442322609,0.5379907208,-0.1603428266,-0.8755545832,0.9531093556,1.053854234,-0.2237851376,1.0432273742,-0.6221260592,0.7920049845,-0.0724174716,-0.9954345826,0.4809654513,0.8625311256,-0.5956913689,0.0304572916,0.2141526145,-0.6023057528,-0.3936812262,-0.3348113826,0.6616556884,-0.3787361338,0.0102201897,0.0246382366,-0.9727501317,1.0517430364,-0.4873011285,1.1239233269,-0.0538739107,-0.1992745694,0.8675942434,0.4948711787,-1.1036488133,-0.5812015834,0.2401885077,0.3745751696,-0.6026188737,-0.1778420609,0.5371070639,-1.0721529283,0.0409347469,-0.074682021,-0.790546132,0.6365480208,0.0773242712,1.1338831086,1.0087649431,-1.2249824253,0.5210531289,0.5016915768,0.5710501537,-0.687431898,-0.1907922917,-0.1024294786,0.4731216749,-0.3946174937,0.5327156721,-0.7718463677,-0.7115390728,0.7242930773,-1.2477294446,-0.7383804951,-0.5356098675,0.2204243749,-0.4527337744,0.8081274555,-0.4736939316,-0.8674048729,0.8131114908,0.7219145723,0.4367582618,-0.4957002958,0.7811814245,0.2280604773,0.6000767194,1.109180311,-1.9004306186,0.4827474118,0.5946071433,0.0923386754,-0.8313958608,-0.2949970158,-0.2083240714,-0.6276388553,0.0836270487,-0.3435006671,-1.1088168753,0.7874365238,-0.3565040557,-0.4541250839,1.0292601887,0.2023848076,0.632557499,0.3431367885,-0.7668271318,0.6607418505,-0.1884529423,-0.2490718401,0.9191826234,0.9917891244,0.8510303189,0.7803072408,0.3243238934,-0.0126602009,-2.3625677285,-0.9797436558,0.6344045721,0.3321655426,-0.8983857998,0.3926781272,-0.6335038662,0.2303752423,-1.6838130187,-0.4203747581,-0.7233420913,0.7954977875,0.6180882488,0.0188990088,0.5633029964,-0.8232542305,0.3730956513,-0.8598207626,-0.5258075995,0.6343600669,0.5906405188,1.1349569484,0.5148553822,0.6355815958,-0.8909310374,0.3944824972,0.1090312783,0.5231072955,-0.2287872784,-0.481205039,-1.0988872037,-0.962178333,0.1375526123,-0.6894022137,0.1530070025,0.2128700354,-0.7762855887,-1.4247691252,0.2538104202,-0.1325765162,0.3088706662,-0.7290295494,-0.9451272938,-0.7936883021,0.2966023503,0.9161642815,-0.0990677494,0.8294127748,-0.1805884344,-0.4137215744,-0.045874834,-2.7404473587,1.0263686512,0.2351919137,-0.2264494623,0.664414248,-0.3376095489,0.8187741311,-0.6598103703,-0.8740688343,0.4033166826,0.9705259694,-1.8808362697,0.3001298444,0.68665882,-0.7754086413,-0.4080997554,0.9267437369,0.5200327436,0.0778283114,-0.9553563842,0.2487091052,0.5005132154,1.2174410623,-0.2505112287,0.7021036307,-0.6601843649,0.9558601379,0.3890489357,0.413651403,-0.3223416237,-0.8719619067,-0.7630219982,-0.1506949387,0.1352873443,-0.3917515833,-0.0913878417,0.0889013917,0.1275840851,0.3359510433,1.2191801232,1.7386554046,-0.1733656359,-0.7424759888,-2.3280639999,-0.4446671898,-1.3529305544,-0.0105095205,-0.3235598339,0.4917845368,0.1220422783,0.5877868853,0.6966090737,-0.0182272494,0.9838159315,0.4379297701,-0.3035626053,-0.4663575661,0.634611908,0.4794474149,0.1573080142,2.291331175,0.021674404,-0.5130547143,0.3537769822,0.141906259,1.1054804333,0.1010209092,-0.1089299949,0.1907806422,-0.0213726059,-0.0427635964,0.0611509804,-0.0771547578,-0.165448153,1.6396549066,0.6484767423,1.3125143153,1.186980532,0.6991329625,0.5623526384,-1.1252535147,-0.2498973616,0.209178068,-0.3853886147,-0.7663547789,0.4925808274,-0.4172465379,-0.0224032522,0.7981975318,-0.6992828075,-0.6188603779,1.0980607501,-0.0128069819,1.6805222097,0.0221295617,0.8063281019,1.5977325243,-1.5722333479,0.9295809727,0.3021529003,-0.5162520311,0.8912271411,-0.7817078782,-0.60059404,-0.8882279784,-0.4640303294,-0.4873266158,1.2651465145,0.7153719478,-0.8836971718,-2.8948642707,-0.0073908279,-0.1168202192,-1.0404328111,2.4693338766,-0.4436909139,-0.8094770021,-0.1893286131,0.8222714238,0.2206118755,0.4594531126,0.8187470328,-0.3469837162,-0.4403546797,0.8055368195,-0.4143769822,-0.8855979385,0.7171342669,10.617614479,0.2825052734,1.7027977552,-0.4982592692,-0.3586463551,-0.0214738875,-0.2330381492,0.1256887883,-0.0279134286,-1.4235560526,0.8476745398,-0.6167980095,-0.1074108943,-0.0425521479,-0.0369397074,0.9834344611,0.7419687895,-0.2814304129,0.1883582712,-0.0122954518,-0.4266767882,0.0122898958,-0.6851197038,0.3994407052,-0.5702950015,-0.082621572,-0.5999080535,0.0551045408,-0.1013040438,-0.0533557119,0.2894161785,0.239141411,-0.7730258968,-0.7721557534,-0.0236444388,0.216993291,-0.1558241509,-0.8846753405,0.8042173804,-0.2742354976,-1.2273809596,-0.7949814674,-0.2678209535,0.4424940241,-0.5198538815,-0.3093837712,0.3399458756,0.3777175211,-0.234660368,0.0681410323,0.7415796481,-5.1086157402,0.0253420903,-0.3007890954,-0.4751051178,1.6812544833,-0.2495968727,-1.1067759931,-0.5665392523,-0.350502834,-0.2166723573,3.3904532834,-0.8517647737,1.2386478489,0.0405133947,-0.3862750778,0.025761118,2.4014997245,-0.7449275665,1.2583112842,-2.5624878337,0.9017733477,1.1769214714,0.8537924901,-1.0776177971,-1.0999861179,0.4750227318,0.4442590313,-0.1982555514,-0.3283573985,2.1439197798,0.6575199554,2.5089596823,-2.4930503011,-0.0084985687,-1.6670376732,-0.3679328143,0.196702287,-2.816554332,-0.0695152868,-1.500606198,0.3120168407,-0.6779498808,-0.5175392136,1.0305828443,0.630512035,-1.6351307032,-0.4783082336,0.3504887308,0.2347835723,-0.5841767562,-0.3180857743,0.2874156604,0.1455830506,0.455754978,1.1754052746,-0.8605006598,-0.2171141608,-0.2849305537,0.1948944394,0.041911187,-1.4524793235,-1.0340669467,1.4689422953,0.9003666824,-0.898813839,-0.3550925371,-0.3289052177,0.0524792097,-0.5281416131,4.0000508954,-0.5263891582,-0.5274182876,0.7262961708,0.1699603083,0.3294291854,0.852586961,0.6862796026,-0.6667742612,0.8230865913,0.873713389,0.0762000259,-1.0910899779,0.3791807487,0.4980937743,1.6643980774,0.0919940642,-0.6263158995,0.4861376827,0.9892535877,0.959728562,0.3613439553,-0.9643812823,-1.0645681311,0.8932209143,0.27162712,0.8854751706,-0.8344641185,0.8450708574,-0.0312510197,0.8571441406,0.4617064177,-1.2649139333,-0.267781789,-0.5248956321,0.9546759826,0.7460412438,-0.8687445197,0.8340517735,-0.0710093348,-1.455299364,0.3303161483,0.7753243635,-0.620820469,-0.2429154153,-0.1842485885,-0.464454176,0.8493109765,0.8116066615,-3.7593813509,-0.3829841669,-0.3777705754,0.9221416018,0.3036990963,0.2213960013,-0.398842977,-0.2344836672,-0.2757980132,-0.6530244956,-2.59945611,-0.8036311505,-1.0986851536,0.5285208522,0.1885697654,0.2006160973,0.0105168983,-0.1738257901,-1.0506105377,0.0568304317,8.2346799546,0.1467508762,-0.3028558499,1.1880574249,-0.6009716066,-0.2332962681,-0.2422215938,2.7997423525,2.9069860317,1.2016725058,-5.9835251572,0.6485310573,0.4860374804,1.3708957412,-0.2008643597,-1.7448912254,-0.453201505,0.6813064139,0.0584333249,0.2566657584,-0.8475729188,-3.1547354441,-1.4344580775,0.1036444004,-0.5271329383,-0.7984970489,-1.3846371095,1.1195166236,-0.1982511213,-0.8248136183,0.7317293532,0.2301794029,-0.7815292448,0.0942183523,0.807378835,0.8143173184,9.9837809834,-7.524584116,2.6399826239,-1.3173027047,0.1555450205,-0.3704904513,0.0645242504,1.2154327079,-2.7166727757,-3.5399370099,-0.9573533312,-0.5371366436,-0.8823107727,-7.5703539236,0.5380084411,-3.2067444283,-0.7568022847,-0.1304629003,0.7576082548,0.3164419001,-0.7801347744,1.924321123,-1.6941998058,-1.9057655674,-0.0523865918,-0.7657300305,-0.1395619761,0.7551958771,-1.0066067165,-2.3618847782,0.4313492824,2.9140322733,-0.5226879932,-1.0749350521,-0.3349551486,0.1769649462,0.2934869546,-0.5573232743,-1.9912388407,2.6734547466,1.1556227206,7.244240449,-0.6778455588,-0.4615728436,-3.4686728963,1.3017555471,2.5378788189,1.4320634397,-0.4271669213,-0.2794597696,-0.0456009525,0.5988170466,2.3503903794,-0.3112004916,-0.0251132294,2.2719870118,-0.4081182752,4.8520030204,0.1852147513,-2.4621441351,0.7297790098,-0.006995757,0.2397063004,0.8547141198,2.1893046483,-7.6488929559,-0.5616017509,0.4722701068,0.5019334027,2.3001010888,-4.1450255261,0.5936146385,-1.7016148036,-4.6013794071,-0.7213966093,-0.9268316089,0.5160577409,-0.7078400014,-0.8870129249,-1.0921249841,5.5471097347,-0.4651030398,-0.9568364817,-0.785225997,0.7739759494,0.6339092746,-3.1108395941,3.8778264856,3.304371686,0.007847856,-0.8086338927,-3.8367591571,-1.477152557,0.0749592896,-1.024688601,0.5518104514,5.3688642763,-1.0666290638,2.4208626849,0.2702818723,0.7648059229,-1.9034888002,0.3888283863,0.191771687,-0.1572779707,-0.0335825301,0.2687544,0.4199336174,-0.8550404532,8.6480242707,-0.0008041156,-0.9625594544,4.7885002375,0.4576027839,-1.9440984375,0.8354420808,0.1488983318,-0.118322166,0.0972971677,-0.8527088402,-0.6571751569,0.266142822,0.8193999248,-0.1784106365,-1.3883764326,0.6194853947,0.1815038106,1.0192591371,0.6627236837,0.4540075567,-0.3768143358,-0.6479163676,0.7955168607,-0.1936878247,0.7088292918,-0.0822323838,-0.0872960912,-0.3385681632,-0.3055968191,0.8842243608,0.9325571199,-1.0695692019,-1.1704505217,0.8494946694,0.2840606817,-0.9593686796,0.9457771609,3.5698066152,0.5796172525,-0.3043275069,0.5781307623,-1.2712170572,-0.0841670514,-0.0311588686,0.184769668,-0.7914444679,-0.6063730338,0.0055955806,-0.9263041234,-0.1565361926,-0.5306946999,0.2479489248,-0.345293934,0.2163117389,-0.3226257182,-0.4967591272,-2.124244523,-0.8221691656,0.1124523279,0.3006107854,-0.895110027,0.7290113153,0.7067190301,-1.4326536242,-1.0137400639,-0.3938769223,-0.2134089182,-0.7718612369,-0.8545593544,-0.6904029436,-0.4417714357,1.0776919846,0.4688658215,-0.2447717388,0.0701688392,-0.7977961759,-0.4333284315,-0.1378804844,-0.6359280108,-0.2919527327,-0.2777989085,-0.0646313047,-1.8908105834,0.5149444463,-0.0170973998,0.1808460899,0.8713574647,0.0468519778,-0.3037746645,1.0721593112,-0.5725451114,-0.318749021,-1.6663448111,0.3537472075,-0.7479699049,-0.8727645165,1.0674574134,1.0480319818,0.4569975351,0.4098337224,-2.2118500761,-0.7989519332,-0.8103759497,-0.2802691661,-0.2733305079,0.0747751115,0.3471375318,1.1562329563,1.0323867028,-0.0591298129,-0.3631502716,-0.6361883399,-0.1702073329,-0.5438093997,0.804225257,0.7075726637,0.7802907551,0.4230833485,0.8483013564,0.1423850085,0.3644425331,-0.9494645908,-0.9014419652,-0.4821917345,0.958957067,-0.1046601088,-0.8338450949,0.5603989707,-0.1451488449,-0.0653996068,-0.3468710216,0.0009203708,0.9445745522,-0.7702377837,-0.6244533159,-0.136347743,-0.5083217254,0.7523041837,0.8273388624,0.6463664947,-0.8213620365,-0.7174525545,0.1880405418,-0.7575379999,-0.6159652589,0.283325574,-0.3050825624,-0.65235068,0.252548139,3.0342606751,-0.5975730296,0.2390910464,0.0832726688,0.7758541131,-1.1596986417,0.1563381885,-0.1907167679,-0.0476572088,-0.2079186668,-0.6697230574,-0.0998489828,-0.1077465747,0.3982676277,-1.0351680366,-1.821152202,0.0688592259,-0.6058484112,-0.2395102218,0.8568214265,-0.6314879588,1.2363756392,-0.3219100029,-0.3053769066,0.1875478873,-0.063668077,-0.88584455,-0.6830262375,0.6181592886,-1.1545893481,0.5145469264,-0.0022120916,0.2864544256,-1.0349114186,0.3550504736,0.3362127869,-0.5469454256,0.6424201059,-0.6306590993,-0.0775686354,-0.0964829483,-0.80702576,0.4352081162,-0.1815474422,-0.0513241477,-0.1300057413,1.278222173,-0.0100220747,-0.5564594602,-0.2827059444,0.2739614669,0.647815491,-0.264367046,-0.0821794615,1.0141993363,-0.6666768909,-0.2851745092,-0.1423509841,0.3163047769,2.9377125612,-0.6985601514,-0.2059851356,0.7535423576,-0.3075230039,-0.7692849446,-0.9303746553,-0.4848579836,-0.8398554584,0.5363434265,0.5366322921,0.054345297,0.6549015417,0.6006581574,0.360585984,-1.6134340561,-0.532848696,-0.0921459499,0.6024175357,-1.6247238795,0.0798397608,-0.2466694138,-0.7880183294,-0.8088605742,1.4109428616,0.0903678048,-0.1875473,0.3160195535,0.23359191,-0.6667983625,3.1106923883,0.4535867462,0.3676909613,0.3900317508,0.3575782793,0.3512205309,-0.7333175125,0.999621946,0.2200592186,-0.227238154,-0.0873397732,0.0793976641,1.1842030882,-0.223135022,-0.1581213664,0.7502631932,0.1572551287,-1.2092039411,-0.9478787461,0.8194515608,-3.0960360095,0.7587792924,-0.8941647889,0.742063848,0.6791165864,-2.1869909146,-0.1243997219,0.4981820165,0.0413345553,0.9864457827,2.5628833532,-0.6709088601,0.8493236364,0.306638115,0.4582121968,0.0983562773,-0.6156991003,0.5842559207,0.4893877467,-0.6412130991,-0.3159669923,0.0388530659,2.2286821923,1.9805330218,-0.0959533958,-2.0715733345,-4.8644931649,0.6107260451,-0.1941846677,-0.5854452441,0.6262474951,-1.3316510252,-0.6376545482,-1.1354490416,-0.604968417,0.3015460501,2.3493799725,-0.2649457941,-0.7236608287,2.7379159076,0.5367959834,0.0643956721,0.5717006254,-0.5233701379,4.9124910581,-1.8837103733,0.5717775853,0.6022252602,-0.778164097,0.6005553741,-0.1694420093,-3.1153042664,0.7965322491,-0.5081422132,-0.1400531569,0.1755050978,-0.1881806848,-0.6204062802,-0.1542156254,-2.5644506072,1.7322948074,-0.676188961,-0.6065659927,0.5505659469,-0.3536573884,-0.8134199497,1.1318108574,0.5877791991,-0.2272527034,-0.0380002968,1.5807874354,-0.980447696,-0.2067480636,-0.0818401592,0.5162979824,0.9433403874,-0.1592552451,-0.1211041886,-0.5497427713,1.5060790001,0.0208633375,0.8352573929,-0.371612587,-1.1127115752,0.8184114706,-0.7442909779,-0.2250800971,-0.0876142238,-0.3108880059,-0.066416121,0.4610830546,0.5040622095,-0.7930884342,-2.7797316092,0.0523697167,-0.2783140038,-0.1654151687,-0.7369053992,0.4349509955,-0.6488185731,-0.6496726685,1.9023181309,-0.0543210251,-0.202594719,0.4181142816,-0.7402734803,-1.67277696,0.5953543092,-1.807382662,-1.7885075159,-0.6482241077,-0.3664488626,-0.1357490659,0.4661409051,-0.5546348795,0.3868526345,0.9220116224,-0.4613899636,0.8181527486,0.7026140275,0.9336620598,-0.8633189852,-0.3810043766,-1.8470080911,1.6462835286,-0.0476395528,0.2047129379,4.292152173,-1.1527321947,0.1749491607,-1.1284987862,-0.0336921987,-0.3760927904,0.8657616274,0.6108592643,0.1902946905,1.2472579254,-2.8066908183,0.104176501,-1.551352292,-2.6776296312,-0.8612447365,-0.711761552,0.4328042242,0.3316683616,-4.2513472119,2.1983839413,-0.9812579755,-0.8205191444,0.6991254404,-0.4035117468,-0.8158407409,-0.152955428,-3.9761905852,0.7448234662,0.2930310236,-0.2026331883,-0.1647322904,-0.1115347029,-0.7574044709,-0.365808881,0.6119110784,-1.4408268947,0.8136570471,-0.6282831391,1.0191929564,1.2525802337,-0.310009251,-0.2667814304,-0.6668315054,1.0326819676,0.2744693573,-0.0937456668,0.197062531,-0.4056941078,0.2191974912,0.6750688248,0.2024033287,-2.1638633141,-0.7925022665,-0.1676322868,0.9740110993,1.5888391176,-0.2196817528,-0.3168626997,-1.5639154794,0.5162692272,-0.5785285492,0.5773126566,-0.8399612922,-0.8152677576,-0.4833381954,0.9365492209,0.5234771578,1.1875366664,-1.0214382743,1.1580080867,0.8366042042,0.2592203467,0.6816784157,-0.9579880091,-1.200051472,-0.8804200348,0.9504346563,0.2598389852,-0.5942808614,-0.6413458498,0.0678632298,2.0085391223,-1.0042394538,0.8894704083,-0.9099993158,-0.4953889754,-0.8738788567,-0.5863990834,-1.068761305,-0.6159240473,-0.6526167752,-0.9052204158,0.7839172424,-0.6267645072,0.9288280039,1.0781998353,-1.2152063037,-0.7726094351,-1.4840621685,-0.585146065,-0.4138231406,-0.5305253133,-0.8586101292,0.3797422551,1.3178430562,-0.7173933082,-1.3776945691,2.5818139383,1.0546369024,0.4689114713,0.4612530701,1.1914104425,0.0487362874,0.9658924632,1.8614132428,0.6667369554,-0.2004449026,-1.0264241434,-0.2914054785,0.029479428,0.0379170827,-0.355260189,-1.284848094,-1.0283272258,0.2465249393,0.7985668745,-0.2969382738,-0.0554567754,-0.0558137885,0.9300067568,-0.7039072255,0.2902781905,0.6408031914,0.3068664793,-0.0067816193,-0.7185194044,-0.6800288922,-0.4381806075,-0.7311918851,0.8947210444,0.42772114,-0.50795568,-0.1450868647,0.9010909777,0.2030851628,-0.0566456755,-0.7745440946,-1.1185492844,-0.370080282,0.5904419088,0.0161492132,-0.5589603067,-1.0420767293,-0.5526811212,0.7889985004,-0.8232540604,0.174333433,-0.3861000637,-0.8591740234,0.2311945801,0.2524835276,-0.3369609115,0.5582473906,0.0859460239,0.3657959732,-0.3531223762,0.1339008607,-0.6850642801,0.0722074067,1.0158532087,1.6551903957,0.7994253914,0.8553236427,-0.0713443946,-1.0115698106,0.1241340437,0.0403373112,0.2556812618,0.8343888963,0.6939963867,0.7770026167,0.1930781031,1.002760231,0.3035779698,0.007746411,0.0746636683,0.0219639781,-0.8415091452,0.2982271349,1.3789304125,0.5445564956,0.2942153903,0.758434822,-0.8882311001,0.0361103176,0.6262075508,0.6242812521,0.7412791446,-0.0768620572,0.293062813,0.1539794606,-0.6140020017,0.6371754358,0.4432268112,-0.6960708209,-0.7289713986,0.4108480307,-0.3831499051,-0.1082274024,-0.8929381765,-0.6579671332,0.0448242151,0.0213938363,-0.4856809629,-0.4361085716,0.0239984554,0.5237628427,-0.8780213152,-0.0794974852,-0.612655066,0.5890154625,-0.283246158,-0.0046209063,0.1385001667,0.7382855204,-0.4655201721,-0.0931787869,-0.8605222605,0.538691837,0.617314646,0.2070526353,-0.5932815255,-1.1194584857,-0.2152178985,-0.6136727416,-0.2026677431,-0.6058148176,-0.8841660327,0.5452802285,0.5632056265,-1.1818929215,-0.6251871448,-0.3283541349,-0.1935400531,-0.3507548754,0.0539308354,0.9609790056,-0.6165506856,-0.9039867615,0.9600062355,0.3507363262,-0.1725656811,0.5210320679,-1.6138237705,-0.150300842,-0.8007933872,-0.0284538162,0.3926684815,-0.5098975592,0.4142176485,-0.802041427,-0.266307767,1.7630789577,-0.8607729149,1.9666763233,-0.2551545569,-0.5259019334,0.3178843841,0.5932722642,-0.5988088749,-0.2465410065,-0.184638127,-0.5770678346,-0.480872078,0.3722481708,-0.8582715331,1.320243788,-0.5512326303,-0.4105902797,-0.2998057863,0.1588198359,0.4156435879,-1.0719806406,0.3686634272,0.3941798468,0.0073689488,-1.1701549081,-1.7220467227,-0.0829312445,0.8014545391,0.8196098713,-1.0195761171,0.2492921285,-0.4545459337,0.469511881,0.8666850129,0.1282066245,0.1859476214,-0.1782688139,-1.2322316151,1.0564626743,-0.9848688954,-0.155528683,1.5603093847,1.6344942893,-0.0858352168,0.4546131287,-0.1441225868,0.2366296966,-0.4630295061,0.2946520411,0.357326815,-0.317567404,0.0125846954,0.6034742367,2.8054453795,-1.6173361054,-0.9216697142,-0.2072648971,0.1168841023,0.7201377355,-0.1402724987,0.9182328777,0.239506097,-1.112840499,0.041648353,0.0180397795,-0.1240938423,0.0816630059,-1.0059794145,0.9759050482,-0.0406240395,0.9787173398,-0.5877169572
   0.9514322695,-0.1169286088,-0.5268123234,-0.8797282838,0.5605045382,-0.5016698762,-0.5158812584,-0.9799936006,0.7580871348,0.793569576,0.6836218665,-1.3953488874,0.5993200237,-0.2066365154,-0.5759792116,-0.7636925933,-1.333644458,0.1578159404,0.2668357125,-2.2396256845,-0.4189626453,0.0106182918,0.1046938677,-0.0515774003,0.9728802186,-0.2860793052,0.0245367835,0.8366837155,0.6878660215,-1.2644303856,-1.4527575218,0.9902727561,-0.6749423472,-0.6143347741,0.5444771825,-1.4259560146,0.8748521727,-0.5158189739,-0.1608668191,0.6962564966,0.0037970689,0.6524712692,0.6891861096,-0.2391489214,-0.6758549858,0.6943491817,-0.7654753412,-1.1263774888,0.5399668075,0.0116717043,0.0816947497,-0.8289447419,-0.1728775591,0.1438284793,0.7850109221,-0.7266713257,-0.5211330281,-0.5138609086,2.516034422,-0.3213086402,-0.8663025454,-0.7337877051,0.0462967466,-0.0267915483,-0.5110237453,1.2372689851,0.8594002651,-0.0673543838,0.51022836,0.8843117178,0.8982219812,0.1393733562,0.5246460427,0.2325053425,0.6162202661,0.854013533,-0.1657635905,-0.1141734855,-0.0917444761,0.123876294,-0.2243218177,-1.0157551533,-0.2434749326,0.3384287449,-0.7963217842,0.4481485287,0.2139404705,-0.4816481847,-0.8517757478,0.5369163684,0.332970923,-1.0655122187,-0.9036333077,0.4187505422,0.4775577609,1.2015247964,1.1845388291,0.0329645612,0.1727101582,-0.0674561155,-0.8214115169,-0.6974451804,0.2844621965,0.4790033287,-0.6391934439,0.9355113124,0.5633647671,-0.7692449312,0.3545532732,0.4817443607,0.1191223458,-0.2995275623,0.1394096232,-0.2922691995,-0.395142098,-0.3511215943,1.5442148155,-0.6691705333,-0.599616252,-0.0451416124,0.041171833,0.1834859835,-0.901550969,0.451092974,0.4363942705,0.4510765354,0.2794412639,0.441358363,-0.4471600777,-0.7747201463,2.2090494169,0.1014158249,0.651031931,-0.8151296626,1.0251824443,0.0171075488,0.4441635848,0.1968840989,0.294774715,-0.7772336405,0.3341564146,0.1437219325,-0.4789485984,-0.2233914945,-0.9549021118,-0.0903217546,0.8535103797,-0.3008569958,0.7255128947,0.9353204504,-0.7588534541,0.1184643929,-1.4234078942,0.7049649633,-1.8881292863,0.4735143294,-0.8800440176,-0.7036056165,-0.7533336486,0.0656224592,-1.3449982157,0.6024505434,-0.7872177246,-0.405635588,-0.0582868191,0.750737109,-1.3212304155,-0.3161907564,-0.1907478598,0.335638006,1.1511153933,0.3943160967,-0.9470543383,0.8954862472,1.2670984541,0.625017879,-1.5924212092,0.497674874,0.3338874078,0.0252847909,1.3289772074,-0.2793856867,-0.0380802175,-0.422880245,0.4156759228,0.8900181817,0.0303553784,0.2120319552,0.3607293556,-1.9876519803,-1.4145028849,-0.1611229613,-1.1610254971,0.4958134023,0.5204500558,0.4789727948,1.0741309994,0.5453580711,0.5120834032,0.1502869547,-0.4552378861,-0.3835425104,0.7024740103,0.0105288366,-1.377968852,0.1059204137,-0.1587971266,-0.2629570939,-0.4744981646,-0.5274979963,0.3103371316,-0.9047895047,-0.4059648977,0.2870278723,1.0295172736,-0.2397140898,-0.7253324814,-1.0898041504,0.1669327661,1.2243466789,-0.9387967439,-0.7099637364,0.2685430414,0.0335379379,-0.2740810745,0.5947184262,-0.1957176744,0.6016640589,-0.2343725023,0.5901999252,-0.3933286802,0.0675161844,-0.6514639163,0.1453830439,-0.5502394254,-0.3632238286,-1.3077160679,0.0918234613,-0.2617285424,-0.8942645845,-0.8530848772,-0.3459929424,-0.5271660809,0.4014824016,0.412081885,1.314814871,0.7039620352,0.6184551531,-1.2287624177,0.7082318706,0.8851074785,-1.6764531654,-0.8651394788,-1.3480139746,-0.0023517802,-0.6443389667,-0.4023619828,-0.4219093591,0.3505070196,-0.9862761345,0.3301284488,-1.1454113816,0.6897891259,0.5382929084,0.979749224,0.8665341854,-0.8986873373,0.8703417803,-0.2676596737,0.3746183942,-1.2349091537,0.1950257465,-0.1594315922,1.1832994774,0.923055204,-0.5319340726,0.3153853556,-0.8144091902,0.4464335999,-0.1992267543,0.2831227269,0.8119944983,-0.5479275282,1.2308610811,-0.5288146856,0.2046328229,0.7862203761,0.3579369941,0.8072066377,0.5400109382,-0.7668335743,-0.8891819111,-0.0244607415,-0.5776973687,-0.2344030062,0.5975532514,-0.776263545,1.5412794668,0.8873810943,-0.7872450294,-0.4342751813,-0.8427389688,-0.9256593721,0.3888126868,1.3702943386,0.6204942061,2.0490644464,-0.9010935992,0.9866397902,-0.732032366,-0.4467012595,0.3119352844,2.879026105,1.5132238486,-1.7121012898,-0.0948803652,0.4466514375,0.1832294699,-0.7673881492,-0.0914266652,0.7571036061,-0.2793494718,-1.7461571234,-1.3549611539,0.5433169184,5.4351838975,0.9683538945,0.7483824534,0.1460208956,0.1920231835,0.2218251087,0.7984048629,0.6208247048,0.1379941519,-0.2495153255,-0.2591517571,0.8513500157,1.4456143384,-0.7626926241,0.1915143149,-0.6085583239,-0.5192479195,0.586876727,-0.4595670586,-1.5084671363,0.6697888751,-0.5424766833,-1.8890865681,0.7164202627,-0.5694020788,0.080810907,-0.8050852232,1.694357632,-2.13553283,-2.1732652292,-3.005653813,0.9269621039,1.6438494464,-0.320409069,0.5832453143,-0.8166525458,-0.5465714761,-0.0896034557,0.1998677982,-0.0013583566,-1.1062009524,0.4059022817,0.330646944,1.5175046956,1.2192447161,2.1568936833,-0.6102205804,2.7925084669,-2.4049831105,1.7180686554,-0.5958232756,0.6339430912,0.6036920998,-1.0958023471,-0.9356786793,0.5146030865,0.8908268686,-0.598188402,-1.2569103317,2.4822981268,0.0133473556,-0.2280267184,0.2733535752,0.5575118892,-0.1054786801,-0.3748403766,0.4716630236,-0.2645665124,0.0282284733,1.0209197119,1.4683956017,2.3763501422,-0.8354565396,1.2976657281,-0.1038984312,-0.1701368823,-0.7190241052,-0.6615754333,0.2411292359,-0.9375488525,-0.0730458154,0.7156557006,-0.1934758605,-0.3045999397,0.7309317458,-0.6908543041,-0.7969794063,2.2211012307,-0.4641401912,-1.202479212,-0.1589971621,0.3847934645,0.0430458549,0.4049176993,-3.2550096556,-0.5482712691,0.588090368,1.2357117116,0.542422984,-1.3541676642,-0.341853618,1.3761526695,-0.9947128058,-0.6096709167,1.5042714342,-0.6613741016,1.4507419405,-0.3169517893,0.023759785,1.81002263,-1.4768911993,-0.5547642578,-0.1934854908,3.865371897,0.1049926025,-1.9195948506,0.0439786238,1.1690839746,0.5080324492,-0.5915922515,0.7506928415,-0.6986513738,0.0671339668,-0.6751533916,0.96578269,-2.526940395,0.1922898163,-0.6216639718,1.0470165858,0.1186025397,0.2008747908,-1.0661979725,-2.2712221865,-0.2368598815,-0.775219571,0.2829437057,0.5415496037,0.4041473009,-1.0130920502,0.6360419751,-0.3197208009,0.241244604,0.3829624904,0.9761722562,1.5969262806,-0.195342166,-0.8389796925,0.474418207,0.2532334445,-0.5020974441,-1.1908818172,-0.3410807541,-0.0162074376,0.7655823126,1.9236579335,-0.7024477468,-0.5667695567,-0.6447028199,0.3120331744,-0.255447106,-0.5695421731,0.9552917885,0.3578157737,-0.1718045184,0.4846297045,0.3565683295,-0.2733272592,-0.2188000711,-1.4044337545,-0.1605408773,0.9265305006,-1.6270294417,1.0366620802,0.849305179,0.613588656,0.15604514,-0.1304042306,0.47334474,-0.5581131102,-0.9966355508,0.3389406961,-0.3552048195,0.4681862339,-1.7658936577,0.0440173399,-0.3624492015,-0.8612152229,0.7692368723,-0.2773485649,-1.0633945052,0.8439973149,0.557483058,1.2401015433,-0.2840914009,-0.2890517974,0.9536099641,-0.685743933,-0.3627340784,2.2916861135,-0.5344526202,1.4893281887,-0.3654960807,0.158190712,-0.8189265953,-0.7358912506,0.0198977535,0.2936554899,-0.2721911584,0.4864428551,0.1463505378,0.1904204592,0.7199543724,-0.9111890807,0.465470602,0.1249882326,0.1570864201,-4.5397891791,0.3695944309,-0.1669681167,0.8317496961,-0.1384476886,0.7090828244,-0.0077487274,0.7685812845,-0.5975860965,0.1364006397,-0.4510376225,0.5387889704,-0.1362219705,-4.0613599458,0.8570962315,-5.4684017448,-0.7322855031,1.1578688662,0.7587783138,-0.8291601475,0.6009083317,0.4514555522,0.4639507352,2.1595905277,0.0042955786,0.024479689,-0.1480982102,-0.9009402936,-0.565476471,1.8232316771,0.0896771942,-0.1486444426,-0.1154219486,-1.5510136071,-8.0927204597,0.0284494185,0.3651532408,1.3555356459,-2.6943688992,0.0499323745,-0.6746964052,-0.4588403584,-0.8919157947,0.1102351057,0.7563468701,0.4096141438,0.6675064332,0.3692286283,-0.7768711662,0.3274508888,-0.7622711209,0.1252157891,-0.1896692242,-1.5540676622,0.7619540905,2.0379023836,-0.5654170312,1.3934809062,0.2092011627,1.17223003,-0.307067447,0.9352563576,0.0472699076,-0.548001697,-0.3653218648,0.6351537036,-1.7046701018,0.1082976082,0.109510216,0.1087939985,0.1204787294,0.1033945648,0.8854775976,-0.4018912545,1.4713065634,-0.4090928294,-1.0352468095,-0.1492914335,0.2396230548,0.5225359274,-0.2568532206,-1.5090503925,-0.2458953399,-0.6869457856,0.5012668169,-1.1777901667,-0.7771619629,0.0484173668,0.6182789081,0.4960219456,-2.1147890746,0.6651516097,-0.4033286433,0.0301866818,-0.0132779032,-0.0793670633,-1.4524724401,-0.7556580339,0.4629529315,-0.5578895852,-1.3325027832,-2.1930473341,-0.0639835208,0.0840268259,-0.5229565509,0.7673415864,0.071470159,1.5360839822,-0.5102242698,0.2544773935,0.8206380578,-0.1481707991,-0.7073950588,1.3355932155,1.1417848454,0.7842219885,-0.4054309912,-0.0083404148,0.0743252607,0.2597896605,-0.8468855046,0.3647017899,0.453315749,1.4154852098,-0.2992867669,-1.0092884756,-0.8015214916,-0.9137467225,0.4205088157,-0.8568342948,-0.0082146995,-0.4989138727,0.1954392496,1.107460111,0.8412262034,-0.4049995515,0.0733654595,-0.6837939293,-0.754055322,0.6218696111,-0.9147427227,-0.6974252917,-0.0481863872,0.7966951887,-0.3799480734,-0.1977742001,-0.0715182709,-0.355176241,0.0728633988,0.7041557742,-1.0267818097,0.8253799122,-0.7837307869,-0.4276884871,-0.0729846608,-0.7908060344,-0.8479857494,0.5097621662,-0.0497459968,0.0404092924,-0.594758132,-0.3119087662,-0.8076982827,-0.3010964393,1.1302641189,0.4689456783,0.7546863224,0.9726858818,0.4885793751,-0.9553912606,0.4999421215,-0.5383411818,0.150288259,0.1121201075,-0.7629091752,0.0942397743,-0.3529079639,0.2547359804,-0.3558615783,-0.0090482619,0.4419070419,-0.5452356842,0.0848518411,-1.0179787992,0.3746654685,0.7933507216,-0.1543153343,0.6608970625,-0.2217856033,-0.5162361815,-0.2472256851,-0.8302965747,1.2067909048,1.1490897001,0.8600986064,-0.5817741527,-0.4309290074,-0.8947679257,0.076045034,0.2116325998,-0.4072061434,0.5941041258,0.7561638055,-0.9535880896,-0.2949849263,0.7418506956,0.9299701505,-0.445868263,0.3791534665,0.1037870851,-0.0825341746,0.5748171131,-0.8878812558,0.6857344883,-0.5413048164,-0.0183218567,-1.0030170324,-0.6436416308,-0.0660407006,-0.2310874176,-0.7948440428,0.06642286,0.2843388737,-2.623858004,0.6496099391,0.1292336513,0.0196994625,-0.9006867934,0.6709377827,-0.4308429008,0.6369248771,-0.6850368707,-0.179206257,-0.2928760708,-0.1063338889,0.0626542916,-0.7152424903,0.6378482622,0.1024278159,0.6365365836,-1.3597363306,-0.6297500391,-0.474476467,0.6270239972,0.3316031756,0.5974069626,-0.4601004339,0.2770325068,-0.9784448737,-0.6179702025,-0.0078240762,-0.1766273704,0.738853803,0.0219644699,-0.720679309,1.086605778,-0.2256417043,0.7634900773,-0.7702659276,0.2971298642,0.937424141,-0.1269122644,0.885601696,-1.0662109079,0.3504437551,-0.2004400056,0.0914781267,-0.012305657,-0.2768213499,0.810158919,-0.4063398354,0.3559547083,0.7137414236,-0.7305048491,-0.6605191283,0.2924101362,-0.152947888,-0.2822587037,-0.4214790557,0.9234247102,0.0939587921,0.5772240164,0.0121987892,-0.364325635,-0.4173363187,-1.2017593386,-0.5180207767,0.0326959298,0.601550974,-0.1684347526,-0.0381417495,-0.5136024363,0.0764470243,0.4768531809,-0.2098176541,0.2383129664,0.4835053021,0.7689737516,-0.2980591082,-1.6665336516,-1.2261222518,0.420783063,0.1281153453,0.7193849468,-0.5389386257,-0.020704774,-0.2087525578,0.3922283293,0.4050366907,-0.333114647,0.0718667584,0.4893708741,-0.6732196869,0.5334036627,-0.4973328324,-0.5091955689,0.7056468894,0.9522499191,-0.1746240431,0.5018625884,-0.1529278288,-0.4858931239,-0.3797479283,1.0763074118,-0.450823911,-0.6035016292,0.4878971364,-0.5839622785,0.6772421398,-0.1427480563,-0.7968425957,0.3119218487,-0.5247937301,-0.2593865329,0.2457270262,-0.4371817984,0.8695959168,0.6701873106,0.404414105,1.1365092774,-0.2549614556,-0.5564484748,-0.1259187158,1.0969899717,-1.0880419103,0.8885613647,0.2624356369,-0.4700110809,-0.3791895698,-0.2958319879,0.0469728628,0.2736656226,-0.2374886193,0.3543326766,0.8785623215,0.3551148109,-0.5055314249,0.1978741289,-0.0270951342,-0.3503441734,1.901263858,-0.7786577796,-0.3595858104,-1.1590117775,0.5453954785,-0.8225484455,0.5869795298,0.9250164543,-0.5364901132,0.1307727665,1.083259554,0.8514502057,0.3850547228,-0.3987505119,-0.5328620729,0.5655576219,-0.9440846206,0.6321227716,-0.1368154027,0.0990174305,-0.7010015223,-0.3417309599,1.1286868981,-1.3474467553,0.9022113832,1.1235765745,-0.2294973666,-0.2506262604,-0.6635270785,-0.3590681423,0.3154290542,0.1711674984,-0.9348066183,0.8549029771,-1.0655649849,0.5650168517,-0.5348501545,1.1740067837,-0.0950664257,0.1931178578,-1.1644394373,-0.0192747414,-0.3004957775,-0.3300480481,-0.4705378141,-0.3318658438,-0.2238336,-1.1708420248,0.3318882765,0.6142847213,0.2465788726,0.0069787986,0.9089430927,0.5783844721,-0.5673056533,0.3452512072,-1.3670901392,-0.3789462262,0.2001409348,0.585940327,0.6532324778,1.266948374,-0.120112993,-0.0084181126,0.0916413311,-0.7968770559,1.6606486603,-0.3593887465,0.5792035579,-0.2556235924,-0.2185390253,-0.6851960788,1.1871218168,1.2637024017,-0.9364689656,-0.5596101054,-0.7273348978,-0.2145100962,0.046826582,0.1337548649,0.6925709615,-0.1023645214,1.0041877918,0.7408510991,0.4428488708,-0.4158531139,0.2287304385,0.6369545833,0.1595192905,-0.1257089141,0.9441413962,0.4733804699,1.0437134948,0.3793869616,-0.709620211,0.497578494,0.5417035822,-0.736224725,-1.0760430945,0.3765916923,-1.3377653597,-0.5853713898,-0.876510564,-0.4571949159,-0.7193105674,-0.7908324767,-0.1323860878,0.6647606977,0.1896911498,0.6197893344,0.837618716,-0.650112321,-0.3191583299,-0.6819144427,0.2266095433,1.2067117176,-0.2415733129,-0.1309137018,0.1431930089,-0.5098664356,0.3468783632,0.4376588891,-0.907079188,-0.2078376299,0.8818333358,-0.3918638865,0.4999739871,-0.6317347088,-0.4636110751,-6.1205591051,0.9041009851,0.8787624558,-1.0812071755,-0.3148216721,-0.0848769934,-0.0166340074,0.6811777116,0.6681529869,0.4165139358,0.9944469515,-0.5538418996,0.6275775193,-0.6179747846,-1.0149427052,1.1435833718,-0.6608862792,0.3187789386,0.0222370959,-0.5954900559,-0.171987964,-0.3073234162,0.7326533663,0.7334397541,0.3811913434,0.0609931974,-0.9692989049,0.013472748,-0.628882403,-0.2617091962,-0.5552906147,0.2642477368,0.7772305885,-0.7315340029,-1.1107025098,-1.2298894261,1.0379431112,-0.4283262306,0.3086060688,0.3564716528,0.2634557185,1.2397706257,0.4061405418,0.4548736748,1.6076023059,0.0965220094,0.2522002734,0.4327929116,-0.2835902389,0.5529613797,0.9042498544,-0.0949393982,0.7925827055,1.7998574078,1.2306211322,-0.4806429125,-0.3261797281,0.921564082,0.2203123222,-0.3575499601,1.0474532134,0.1457983121,-0.0730388049,0.296493972,1.062784516,0.1951496664,0.7452684568,-0.0247320449,0.206782844,0.124723358,0.1672249358,0.9160512155,0.1815012423,-0.5462865234,-0.4173486736,-0.1194965348,-0.7865069239,-0.2771942339,-0.0033245445,0.7828661945,0.6837595928,0.4520688482,-1.4768846705,1.2031584667,-0.5447537836,0.7972840669,0.6773853728,-0.2142539488,1.4487564618,-0.151504818,0.2650094825,1.4035024346,-0.2689338541,-1.3606521329,-0.0592767435,-0.3870471434,-0.2461269489,-0.660407541,-1.8151116309,-0.6106536882,-1.0253737377,-1.1078432503,-0.9588794201,1.3616357104,-1.0781849816,0.4289990543,0.197366176,-0.5902234227,-0.9853772464,-0.0417437556,-1.4819472483,0.8386161568,0.2427897603,1.516334279,-0.6313192046,0.1816597179,-1.0864912406,0.0720304762,-0.2934598558,-0.4567019933,0.3041700021,-0.5969343668,0.4962803464,-0.6633546675,1.0005123709,0.0957660693,-0.6449042737,0.009587754,0.0079174327,0.9816054179,-0.0358765008,-0.7999318155,0.5014228504,-0.6650242944,1.8427725541,0.2985753386,-0.6088526884,-0.0597893872,0.8403226656,1.1979260272,0.2590500853,-0.7290540805,-0.2065090226,1.1510567941,-0.7107837847,-0.1912991909,-0.642112452,-0.7345667904,-0.7460173824,-0.4209921193,-1.0202869292,0.5029426308,0.2903543438,-0.9366961378,-0.4255804544,0.2841859974,0.4985548887,-0.9851340512,-0.7269889553,-0.2326489816,-0.2561395641,0.1441941813,-0.1144927408,1.2273157625,-0.0329465943,-0.4180062871,0.2731209021,-1.1557670764,-0.7840836252,0.909903395,-0.2828888372,0.0233305492,-0.5961443116,1.2728903736,0.1339496983,0.2748027037,0.9226410179,0.8812346068,0.3647198894,1.1675944877,1.0658095563,-0.6040231511,0.4420478246,-0.5958576769,0.2567106987,0.3105956923,-1.0432656212,-0.7821286068,-0.1648868049,-0.0553224446,0.6675873762,-0.2445085667,2.0754020397,1.6321256198,0.5895818566,-0.4797226204,0.5865767863,1.3130336444,0.3326992995,0.4698389505,-0.7514653913,-0.951304708,0.3364771248,-0.7462977069,0.8595499775,-1.329337763,0.5470254765,1.0319034372,-0.1681802088,-1.4653929933,0.6463811742,-0.5477645156,-0.6153955489,0.1737735399,0.4813019156,0.4756788658,-1.2198394441,0.0005423399,-1.2224075499,0.387761549,0.7020110453,-0.7810421328,-0.0364862454,1.0935815939,0.3520761022,0.7799070096,0.9442687042,-0.8319802641,-0.6305515883,-0.6393205272,0.7140441278,-0.7254603568,-0.4233668971,0.1429879627,-1.1013152531,0.4312260386,1.7874443905,-0.4373716031,0.7707138516,0.0801434224,-0.4431166385,0.8126713868,0.7136340089,0.9072003227,0.2148874458,0.9590107374,0.1582936927,-0.5599942072,-1.3611343336,-0.7293042146,1.2180723472,0.0496676179,0.2495435242,0.4150112743,0.3088965942,0.1092273567,-0.2371035957,-0.314151054,-0.5418502376,0.6834475351,-0.8365069432,-0.4170590632,0.9410427502,0.5911324098,-0.6590278231,0.4494472862,0.6483929978,-0.194791366,-0.3679282992,-0.004326814,-0.0343230593,-0.4983570934,0.7218724706,-0.2998488461,0.6976045363,0.4859744032,-0.0765657473,0.6122026888,-0.711836625,-0.7982660512,0.8450214331,-0.9810097728,0.5834267956,0.5309121574,0.3571163783,1.8241018558,-1.0661182173,-0.0045157948,0.0468915577,-0.3523247098,0.3576944443,-1.0727874298,0.4911299306,-0.7652865382,-0.0669805707,-0.9430791262,-0.3491464827,-0.751551174,0.9883256653,-0.6065875652,0.5646510102,-0.1775265637,0.7857711584,-0.940913535,0.2474674877,-0.1177325392,0.4575649621,-0.7034707914,-0.5298579682,-1.3241690944,-0.6182470572,0.7825579223,-0.4178578021,0.6070225324,-0.0163203637,-1.503049265,0.6805781896,-0.5158894039,0.3644773399,-0.1613210323,-0.2167841982,-1.7865275633,-0.366340036,0.8887180174,-0.4893842787,-0.2759195908,-0.1287761738,-0.2921609837,0.3863071171,0.9182019657,0.7375764632,-0.6928188341,-3.5308078743,-0.6058163308,-4.7715642816,-0.0967914934,-0.3369778816,-0.2397995916,0.0349699339,-0.581905485,0.2984963328,0.8243349847,-0.0907655256,0.0927621424,-0.8782743262,0.3051245158,0.6616480652,-0.7981829665,-0.7868450742,0.1214689805,-0.2343584016,-1.272663755,1.294778186,-2.6353328428,0.6485244446,-0.6863477957,-0.1806249499,-0.2831395671,-0.4641462368,0.1663302862,-0.1405819691,-0.3977764987,-0.25464117,-0.2945235181,0.2962892395,1.1502485913,0.1027161998,-0.1567184854,-0.4136369889,0.5426921759,-0.6090324976,0.6206223265,2.0568501621,0.1056426574,-0.7953173353,-0.3602519859,0.765781437,-1.0411432505,0.3714903314,0.3031428168,-0.4403797101,1.043373891,0.1801948777,-1.0798314908,1.0290934121,-0.7805990703,-2.720723598,0.5053897482,-0.6045572377,0.53495467,-0.655813551,0.9076859119,0.026835561,-0.4541799124,0.7765996626,-0.3587335274,-0.6501988834,0.5732342819,0.3349199059,-0.4925994913,0.4928016989,0.2704063206,0.2560315824,0.7017410958,0.2879587064,-0.8652130456,0.4641267909,0.1351582066,0.0095102746,-0.9406139163,-0.7624405527,-2.137753825,-0.0071502734,-0.1360721372,-0.1580620532,-0.364683543,1.6421946324,0.0514761274,0.5097038015,0.6278855126,-0.0140957245,-0.5334111441,0.1130207476,-0.4705746884,0.3686372267,-0.136428044,0.5001817248,0.4374947779,0.3847653422,-0.0884998401,0.1878521462,-1.3548321211,-0.7659386817,4.9994552419,0.0044864953,-0.6399570327,0.0583045013,1.1720767565,0.3812717907,0.4772645511,-1.5968828107,-0.3860719089,0.3747412744,0.8636154613,-0.4716113613,0.5653896201,0.3705985425,1.0522085197,0.2246345461,-0.4733308135,0.0950493127,0.523972115,-0.5570344234,-0.3826707758,3.1396916451,-0.5690690285,0.1769472637,0.6597755837,-0.5735178108,0.560668506,0.9275993979,-0.0455699106,-1.1235601193,0.2345172257,0.4785805351,0.207652985,-0.5075254414,-0.1084462254,-0.9535743605,0.380173304,-0.2177996825,-0.864031415,-0.6597774947,-2.4563169341,-0.1818205742,0.2141377813,0.8272442596,-0.3586344864,-0.5602634905,-1.8664529486,-0.0466479989,0.4867286968,0.1686338522,-0.0540494729,0.8320987657,-0.2009870073,0.1238222039,-0.7500950091,0.1396864571,0.0616787305,-0.7341597841,0.1052894583,-0.3698953718,-1.1989390369,-0.0593006735,-0.0083371063,0.4560892319,0.5281271979,0.1997173006,0.3714910827,0.0454148561,0.0768636079,0.2831484897,-0.9962758262,0.8275964434,0.0969502039,-0.2722934675,-0.2260260457,0.7867831814,0.2869558054,-0.5143582239,1.3718199248,-0.5814377472,-0.2715944319,0.7065213382,0.4475475106,0.5872827069,0.4582311393,0.0875277558,0.9696127829,0.3723965223,-0.084186378,-1.0840015577,-0.1068158316,0.4343984461,0.7771708211,-0.4438220697,-0.6214336858,-0.5317385198,-0.1106714385,0.92877485,-0.3526437502,-0.6168649941,-0.1504767043,-0.6121029007,0.2026000668,-0.2182408625,-0.0172814701,0.6750077391,0.8425326463,0.7860948167,0.5111649212,0.6296197473,0.9143820763,-0.038949894,0.5310276437,0.7571968888,-0.9247887418,0.8278457348,-0.2704058646,1.3713858377,-0.2994222673,-1.0716667862,-0.1737832404,1.7831498858,1.9104193305,0.1859888339,-0.5434528663,1.0644069632,0.1468679079,0.9388260553,0.7101959593,-0.2128081381,-0.8212917675,-0.8979695404,-0.7958473915,1.2794310112,0.2434697339,-0.4437705358,-0.0983941229,0.5457468392,-0.5881919141,0.4214770288,0.8808365238,-0.5379796788,0.3831174342,1.2396730036,0.5799152628,0.5793119085,-0.0492060916,0.1670694934,1.2788085192,-0.7429438006,0.7271944283,0.0951769747,-0.9969330584,-0.6466105011,0.1066634701,0.6230701015,-0.072241435,-0.8457500688,-0.1796077957,0.2978688578,-0.0035693574,-1.1061240475,-0.4971794028,-0.2901894228,2.230827735,-0.7947975864,-0.41917899,0.7062100971,0.3420675189,0.1692414942,-1.297206767,-0.5938872099,-3.3559968653,0.2853252137,-0.3516171474,0.0883170195,-0.2202784483,0.4420657167,-1.3931289763,0.4819901698,-0.5693837422,-0.6390865609,-1.051881607,0.8005795876,0.2811063751,0.9792029417,-0.2844808671,-0.5970626405,-0.0915362495,-0.5613333617,-1.067627209,-0.2660108536,0.645505646,0.8975743161,1.1150555965,-0.7380815422,-0.7603484883,0.874319232,-0.6645063891,-0.1956578217,0.5156027422,1.1053669723,-1.1449698497,0.1253863398,1.0743231409,-0.0329140137,0.7462677453,0.1799593656,0.6631142689,-0.9170602255,-0.3478702468,-0.1765255717,0.0057001698,-0.8625097881,0.2489992234,0.9185445144,-0.5174220566,0.5410760466,-0.0130832549,-0.4559393331,-0.178209947,0.7986282055,-1.238829326,0.1485159266,-1.1249066218,0.604318485,-0.2332434893,0.4719656203,0.5397592692,-0.4731614551,1.095986251,0.6990268164,-0.5178197508,-0.7556433895,-0.5903364443,-0.0204672333,0.010213837,-1.0914520762,0.290602018,0.5917937999,-0.9793554012,-0.2796688856,0.1187913601,0.2678450384,1.2806174127,0.7881530333,-0.1533332491,0.2694926736,-0.0358199292,-0.2674298889,0.3509923832,-0.0366889639,0.3960953496,0.2813467349,-1.0498252261,0.0478396115,-0.1133515129,-0.213622875,-0.4900746512,-0.5613316435,-0.4733201968,0.3465962309,-0.3616396924,-0.5261948289,0.8621825534,-0.0509823259,1.5755931396,0.5272596665,0.6132968692,-0.0471795288,0.2608164953,2.7678757578,-0.1662711925,0.0327380484,-0.2068022495,-0.544818988,0.006700695,0.7075704978,0.1938173519,1.5074365461,1.460498945,-0.4942271192,-0.5048505118,0.2671135135,-0.4628925333,-0.3031420907,0.6248123144,-0.0150676933,-0.6179230205,-0.3361011582,0.0442344571,0.0325542844,0.7959208457,0.5266427029,-0.7807031331,1.1601300298,-0.8643719471,0.0846722202,0.6163945432,0.9140896332,0.1354592248,0.4775263171,-0.6500889768,1.5935510149,0.2989961624,0.0078115251,-0.5346526433,-1.0050102004,0.0717963898,0.8387436208,-0.8688069751,0.1571113244,-0.1389312441,0.2886142624,0.6408125233,-0.782732947,0.2961950259,-0.3198011462,0.6648820805,-0.1357398773,-0.3921577236,-0.0506082764,-0.5587918065,0.0110200551,0.2332708479,0.1008124206,0.5781576163,-0.5481345304,-0.6577503894,-0.5935849001,0.9332998395,0.294048406,1.0080508497,0.0261800388,0.3257519228,-0.2480742183,1.3459948989,-0.1805677428,-0.5277446008,-0.4843296483,-0.3522276819,-0.5691425357,-0.6075624192,0.4828114179,0.0744379886,0.4858689027,-0.0079885533,-0.2528893478,0.1088842764,-2.9084363517,0.8906113208,0.0134501748,0.6188207848,-0.0325987627,-0.1818880634,-0.317273978,0.3777897104,-0.4144171422,-0.313964677,-0.772347334,0.5470434133,0.666701777,-0.0169250962,-0.6417120588,0.2144925697,-0.0069525813,-0.4942140892,-0.2381095695,0.7215956351,-0.7295648183,0.4967734314,-0.0136056708,0.3017722985,0.5245909364,-0.1481773895,0.1608681391,0.6364021368,-0.3037205909,-0.7235087186,-0.6566185885,0.7576595184,0.9837801774,0.7717869807,0.2856496941,-0.7401674111,0.3611266643,-0.1561241418,0.7041567037,0.6724059914,0.2542119528,0.6406883763,0.5959120227,0.2241052767,-0.9946715867,0.6794855629,-0.7337389188,0.1998547627,-0.3277372969,-0.5761236624,-0.0614680663,0.1265657066,-0.7506218139,0.1741784091,-0.2645494232,-0.4467048016,-0.6992417437,-0.8041042648,-0.0976744591,-0.3751203466,-0.2714982549,0.0954002165,-0.2726010519,-3.1843162421,0.9864121499,-0.0010434568,0.2754542818,-0.0052810766,0.8716437881,0.66637701,0.5764901192,3.1442837423,-0.5435063348,-0.6195938109,-0.4493211608,2.1188993653,1.7012940309,0.4167436648,-0.6132076372,-0.4340633912,-1.3673824936,0.3208937727,-0.6731867566,0.0335733814,-0.6492565569,0.1562395648,-0.3822238848,2.1457611928,-0.4548761683,-0.5809514029,-0.3205375786,0.9818427025,0.0865498538,-0.1564476838,-0.0183746399,0.0713144501,-0.8359120264,0.3902217627,0.6274667134,0.3656188237,-0.5381999566,0.232219732,0.6966003248,-0.1142371552,0.3679085012,-0.8518283136,-0.3746769477,1.2804044632,0.8392238984,-0.2468066485,0.6880950631,0.1935074272,-0.4898223511,-0.5823468991,-0.8624882021,-0.7318038592,0.0148452413,0.7135806611,0.4954071423,-0.5857981736,-0.9993659572,-0.5588351536,0.9685502983,0.0479354552,0.6083137237,0.3314059518,0.7881616624,-0.6805306074,0.6323692008,-0.2431856041,-0.5235993219,-0.4016039482,0.5967881581,1.0111029645,0.5437394915,-0.5964747547,0.4026634564,-0.9417437636,-0.5537581296,0.9455458363,0.6638761215,-0.738933414,-0.7263887802,0.6750150879,-0.0149108679,-0.6237812198,0.4061278049,0.7635893466,-0.6418302112,0.2651350633,-0.48923642,-0.5235713329,0.2276033213,0.4260562243,0.5167889767,-0.3254092165,-0.7894966897,-0.0070838909,0.5051795045,0.5688486408,0.9271891612,0.6553715884,-0.0757645301,-0.7293348649,-2.4553320584,0.9467527744,-0.5926259699,-0.2030081986,-0.9279506218,1.2304732637,-0.2291795086,-0.5733433648,0.7453880567,-0.1925463652,-0.3608518888,-0.4253535568,-0.0185869777,0.300451441,0.0611999666,-0.2953565765,-0.4614888777,-1.4062012792,-0.5376544966,-0.3534711526,0.9118587075,-0.4459690452,0.5532071061,0.4028770708,-0.5547410366,0.5872492407,0.1855865613,0.4247495299,0.497189261,-0.6308512442,-0.4056187295,-0.406174955,0.3253316517,0.1269850887,0.7011907011,-0.4729196779,-0.2341911773,0.4570652494,-0.5909116967,-0.3839054735,-0.3601715919,0.6396779512,-0.536325039,-0.2046917952,0.5918335052,0.1401239723,-0.1104472733,-0.6846241009,0.0161161439,-0.7647316614,-0.694341197,1.2907350634,-0.9116138755,0.6681823482,0.7883144131,0.0870003807,-0.9260056787,0.8036878392,0.0001513321,0.3794464028,0.6546545383,0.6716341629,-0.9016261415,0.1802033916,-0.801601603,0.5872223248,-0.0554921002,-0.451284233,-0.8061148937,0.4224089674,0.4801176101,-0.3467448693
   0.6251213486,0.2518539167,0.2014724562,0.8693527174,0.1506206888,0.7607321598,0.4819658478,0.2395728247,0.0396930253,0.3531867076,0.8622623906,-0.6242110171,0.9670064771,-0.155547587,-0.1799373012,0.4133735245,0.2409985807,-0.1592621297,-0.1447157928,0.6439748828,-0.737785994,-0.2920204303,0.4658680012,0.0474966106,-0.51462314,-0.7664329701,-0.0686566137,-0.0972693876,0.4356381789,-0.6595051489,-0.4566818835,-0.0470203256,0.9208197488,0.9859670988,-1.1230530619,-0.0208793102,0.3421146205,-0.0982060584,-0.4574981196,-0.3770563565,-1.0532810904,-0.1222056917,-1.1054027647,2.4526396618,0.1216581333,-0.7586724384,-0.01846124,-1.4937914811,0.9724799503,0.1195409498,-0.8978468103,-0.0251444687,-0.3969044597,0.2051076496,0.277605488,-0.8845656137,-0.0271815178,-0.5242978396,0.928680693,0.8241582547,0.7594175854,-0.4859044211,-0.1411470154,1.770632892,0.0817580325,-0.2911532281,-0.5464963039,-0.0702099787,-2.6670400526,-9.4156711264,-0.5241811756,-0.8930929729,0.6207519838,-0.6143402873,0.1899370829,-0.4153167979,-0.7487829266,0.5516611944,0.8879319662,-1.0719850923,0.3002524476,0.1764898702,-0.0628875657,1.0205589979,0.6448425957,0.1278701214,-0.1079536261,-0.3160113322,-0.410560062,0.204691078,0.2926868823,-4.9375745663,0.6635031908,-0.146759362,-0.1242097718,-0.6987409601,0.1627061854,-0.2224158503,1.1152890515,1.0232422548,-0.3375622537,0.5155108553,0.2284127865,-0.2115985028,-0.2533100982,0.3493563652,-0.6364336405,-0.3481407476,0.5052157736,0.0932145184,1.0833864828,-0.0684283067,0.7541234445,1.1916809808,0.7282909273,0.4497950092,-0.1162978639,0.6156765038,0.6702648466,1.4474799276,0.8042604934,1.0974218058,1.4906151728,1.7230503921,0.151656604,-0.4583565784,1.0652262431,-0.358761532,-0.7430181555,1.1795700382,0.996728787,0.6451959357,0.5318141654,0.2446123946,0.8994085713,-0.1465845704,0.4795150946,7.884378568,-42.5917618169,0.8186343684,0.0584703963,0.6467201214,0.5471212417,-0.1518045265,-0.5445773429,-0.5377206392,1.0379352915,0.8669634126,0.9711193551,0.2329893309,-0.0274832954,-0.0110455857,0.2800884762,-0.3850616546,-0.024320662,-0.0964692827,0.3768454317,0.3901246788,-0.7343948913,0.770219634,-0.3258140314,-1.0666970695,0.3722770304,1.1471728925,0.5542777693,-0.3092620454,-0.3379181599,0.8042949039,-0.114427199,1.2396077625,1.2707531756,0.7675459859,0.6979090138,-0.254480396,-0.2532955975,-0.0223394496,0.6448418816,-0.162760854,-0.524087519,0.1290028183,0.8594022933,0.1751619778,-0.1574449177,-0.0993513473,-0.6799526289,0.0240785972,-0.3254518578,0.0212463267,-0.126285427,0.6854242573,-0.3111446654,-0.9739848343,-0.1415321832,-1.0079244046,-1.0922182086,-0.9391199907,-0.5411211384,0.4137034229,-0.6620751459,0.273454399,0.6054338371,0.7880405579,0.2844536321,0.3029229451,-0.8634440339,0.8734463562,0.0122982431,30.1202755922,0.4112594697,-0.7021979711,-0.7112230319,0.8289698733,0.984437059,0.9806992227,1.057829858,0.4966640589,0.0402414684,0.3075685018,-0.8499854324,0.7781916565,-0.6933217991,0.8647656219,-0.3463179317,-0.6578900369,-0.262879433,0.8900259985,0.3829645509,0.3406761386,0.6662757177,5.262126127,16.2126547086,0.9662220482,0.159368055,1.0947816713,-0.6109529523,-0.465210354,0.0562645307,-0.3595614922,0.9244265044,-0.8471241787,-0.7076398957,0.1304883319,-0.5011569555,0.0826973907,0.5963165755,0.6945460092,0.3907361562,-1.1016204932,-0.4981698911,0.5920074892,-5.0462617861,0.2965377645,1.3474909752,1.5878752965,-0.9821386918,-1.1099836388,-0.4386412662,0.6847850599,0.7463886038,-0.3475118572,0.6499679089,-0.3706432855,-0.332124251,-0.184468564,0.3035789784,-0.1411431842,1.1073131842,0.0956976452,-0.8954579023,-1.308446149,0.2265071555,-0.7289096164,-0.1650257998,0.0536036551,0.135810609,13.6968868311,14.323245368,0.8716802356,-0.6281889914,-0.9631343884,0.2534624367,0.4695500128,-0.7058065394,0.1079646387,-0.6639300934,-0.4545737026,-0.0055716114,0.4984013554,-0.9459691093,-0.6589995582,-0.7455417093,-0.2827822965,0.4424128269,0.1940567194,-0.7702768611,0.0342328888,-4.6364551856,0.397197404,-0.0854462769,-0.3004057963,-0.6836151327,0.2295452978,-0.3470610438,0.5099141043,-0.2182722029,0.0413384699,-0.2343139593,0.669456465,-0.0843988407,-0.0478340064,0.8028562546,0.9343052025,-0.3531895534,-0.2796624156,1.0310406701,1.3002079955,0.6877817127,-0.4122075744,0.8233350022,0.6784942198,-0.3691478588,-0.5097812382,0.9637705911,0.2659986515,-0.4625543595,-0.4090766328,-0.5293159324,-0.6404625388,-0.0618314915,-0.3107474146,0.1479542258,-0.6405458756,-0.4219274434,-1.0830123636,-0.2656757426,-0.3984716984,0.1788095281,0.31732867,0.8988695664,0.3128128977,0.6169073751,-0.0580095233,-0.7041093593,-0.7521040414,-0.2810844679,0.5522367971,-0.2995914259,0.5171517985,-1.0743649175,-0.9125021431,0.3612832515,-0.4181481752,0.7869861378,-0.5447201163,-0.7941305783,-0.2857319021,-0.4030632072,-0.989039498,-0.4004273999,0.8588659606,-0.1463031408,-0.6254825036,-0.3653133431,-0.0216051644,-0.1931825523,0.2261667391,0.577246405,-1.8334214378,5.3986217595,-0.7386634132,0.9609524907,0.0123483802,0.6272646602,-0.2283273942,-0.5521059302,-0.4190629868,-0.4588182501,-0.0303323958,0.8106657671,-0.0818140693,-0.208322712,-0.6674581458,-0.2416145034,0.6541372471,-0.8934425121,0.4448547435,-0.8139409788,0.0898041205,-0.3463568401,-0.3062504007,-1.4028286886,-7.7074719642,0.3441904274,-0.6227478173,0.3863302819,-0.7239678994,-0.9263153314,-0.7189873483,-0.189410895,-1.1144349152,-0.514557834,-0.6812891499,0.6610542313,0.4928894952,0.8003924077,-1.1995091276,0.9313976484,0.2685857056,-0.5561383932,-0.151388265,-0.1232437812,-0.0183718708,-0.3637735445,-2.4819460926,-9.6300958929,-0.8543881006,-0.479417486,-0.5187714866,-0.0423865218,0.5466241687,-0.9316640162,-0.9584377321,-0.5904452628,-0.6834401647,0.7441874695,0.4972042863,0.2544242664,-0.1496334229,0.3958528528,-0.2676105306,-0.7996028412,-0.9093170276,-0.8574985105,-0.9211847983,-0.6266834771,1.0815503811,-2.6587372378,-25.0945827252,1.0089868249,0.7836033913,-0.7764864924,-0.7103440411,-0.8257754446,0.3184654365,-0.468716243,-0.3707124408,-0.4340029162,0.5800097476,-0.8015368047,1.1336465486,0.6315038996,-0.1734313479,-0.9086044461,0.1844362958,-0.4753786638,-0.348905405,-0.0975388375,-0.4011982065,0.8017036153,-0.7860052206,-1.5804718934,-0.1373479391,-0.0705735566,-0.4816828443,-0.2677986993,-0.7238621116,-0.3906646478,-0.9410904225,-0.2680535452,-0.1214137461,0.5343091295,0.7676540571,-0.3065026983,0.2451112749,-0.4031369449,0.5798089986,0.480699671,-0.9624994917,0.1484816651,0.2246943118,0.1456541903,-0.107604972,-4.317140923,0.3861676844,0.1985201781,0.6650051474,0.0418256474,-0.5724750855,0.1350557102,-0.9240639883,0.943379705,0.2758946204,-0.4267247185,-1.4778579348,-0.0172292502,-0.1560028024,-0.6644217269,-0.2337122898,-0.2308219927,0.0038990259,0.2686212151,-0.7238470188,0.1006625689,-0.5948147656,-0.1650261474,-3.3436303046,21.8092120213,-0.1104624785,0.6921915618,-0.2031580787,0.7564901798,0.397981232,-0.0864442415,-0.8351261438,1.1301713713,-1.0233973241,0.931048727,0.260621473,0.6365115915,0.0362731627,-0.4403847606,-0.6851595423,-0.8856787643,0.1294505344,0.7154215577,0.5458362003,-1.9815162082,-0.2920735017,-0.6529747151,-0.8755695209,-1.1428261125,-0.4646320556,-0.9846062492,0.4004753034,0.6942650983,0.8151064409,-0.8404583505,-0.8874807088,-0.9454247325,-0.7394917884,-0.8443567363,-0.1162636665,-0.7621641612,-0.8345801558,0.7989014187,0.1979834012,0.3185772605,0.4104648967,0.0230815722,-0.0337198296,0.7624565826,0.8794902432,-6.6141513564,-1.1194820386,-0.86264671,-1.2572974913,0.5558874338,0.7750159509,0.3990684356,-0.2698364269,-0.6853705296,-0.677214887,-0.8044394435,-0.8937882704,0.7192519377,-0.7807329499,0.1205139937,-0.402957793,-0.9681766324,-0.7765849988,-0.4252540998,-1.4096803938,-0.9901410999,-0.8978897147,2.1748577282,8.5374537016,0.5220838009,0.7535782149,-0.6296527525,0.5475899154,-0.1067586153,-0.2310752915,0.598113858,-0.7603442443,-0.8117431613,0.7781146567,0.5718765257,0.2715324547,-0.1108288505,-0.1788092147,-0.1336306151,0.0162227226,-0.9628163798,-0.4380886679,-0.3322035223,3.4840379045,-0.2890884898,1.781550754,-0.560724177,-1.6431638815,-0.9375706865,-0.457369536,-1.0940895008,-0.8990432327,-0.7731477566,0.0622520266,-0.4233441566,0.760241719,-1.1070321574,-0.7521749725,0.0689736243,-0.6753429095,-1.0946687286,-0.4723796017,0.3111181007,-1.2961575784,0.3853183131,-1.2230672218,0.7417146181,-0.1137788645,7.1023891481,-9.5801911971,-1.1334453436,-0.8162085188,0.8412328539,-0.0481572446,0.6340636421,-0.1883497557,-0.3198010477,-0.8018396485,-0.0650367229,0.3579372513,0.3788479829,0.4047642882,-0.0685912529,-0.1087139735,-0.7901836207,1.0648588056,0.9649038949,-0.6995437486,-0.184669475,14.8030737369,-0.9913398191,-4.1123065431,3.2305277458,-0.4281774227,-0.6217131369,0.8845697963,0.1995474975,-0.6304011124,-0.3670077144,0.3539304418,0.9921681144,0.488165144,-0.4455521351,-1.0163295265,-0.3875746646,0.9878150515,0.7819261875,-0.8121985752,-0.3839600936,0.7562417804,-0.1270348713,0.113442196,0.3686066696,0.1199971253,-1.7809502837,-0.6423454967,-0.513694972,0.817565422,0.4297378919,-0.3856850215,-0.4831568533,-0.7040376187,0.1362581828,0.1337054994,0.5173442649,0.7473943732,-0.3226702685,-0.399844166,0.0856683485,-0.6192995104,-0.4531419094,0.2289013284,0.2894803877,0.1104306171,-0.3875027491,-2.9257734655,-0.262572184,-0.0874705368,0.2403667347,1.1553755546,-0.3032590552,1.1861334109,-0.2790893939,0.506966157,0.0434147357,0.8723507183,-0.3150865189,1.2636779441,-0.1668353358,0.7162087519,1.0207476232,0.1807317538,-0.0700310391,0.5849637086,-0.0047526431,0.2040502408,0.527055961,1.3541111711,0.3731261568,-0.0281398676,-1.7714737185,20.0499423284,0.9141566103,0.5569792661,-0.7903903892,0.2481844709,0.2937935885,-0.0874286921,-0.4716112312,-0.3931751977,-0.5689049508,-0.0257257635,0.361720232,0.2062107683,0.4024304472,-0.0645182273,0.3049881863,-1.1984603597,-0.0416097068,0.5184622353,-0.8896287422,-3.6263652355,-1.036853207,7.1397556793,-21.5690826719,0.1949492614,-1.0158994319,0.1294040685,-0.6438750208,0.3895061543,-0.9770659356,0.681567148,0.816773925,0.4560574209,0.3273361715,-0.1033744617,-0.0628883498,-0.9852495049,-0.9352530537,0.5221951518,0.2194159043,0.8096566377,-0.7294927467,0.7886044623,-4.127324715,-0.4193369411,1.0516647646,16.4991957837,-0.6846541709,0.4618316189,0.3909243692,-0.2317593845,0.6123075896,0.8396205399,-0.0986816126,-0.9459994556,1.8433419544,-0.0674310536,0.6160159142,-0.4060231485,-0.0155897501,1.4011200842,0.8379204853,0.061916199,-0.2942597217,0.1792201983,1.5290600949,1.2375942264,-0.7280854889,-1.1621872737,-5.1213066232,-0.8023445924,0.0407026095,-0.8248215417,-0.5400381273,0.0238622013,-0.5117807429,0.5475406244,0.9534720929,0.2149934267,-0.4408596794,0.0564726808,-0.2830982208,0.952772377,0.0314455558,-0.8893874712,0.8445201724,0.638124217,0.2949538166,0.8714602731,-0.234788181,0.6297118228,-13.6435004094,9.2081895995,-0.8121403694,0.2953724665,0.008904782,0.5254752109,0.1637617751,0.0806894736,0.3532207281,-0.4771246546,-0.0542365119,-0.0421835933,0.3198839164,-0.9583236816,0.3211687064,0.7465825218,-0.8495422544,-0.350414098,-0.4561864222,-0.3338870334,0.0156018396,-1.8030436046,-0.7175805624,-2.1414282826,0.4481265422,-0.091236116,-0.2109699052,0.2666099506,-0.8252027957,1.1137564879,0.7671265415,0.4252296059,-0.3295540481,-0.1467807164,-0.6256533823,-0.8662440628,0.5401817048,0.1918705115,-0.7776027649,1.0734245111,0.9679957465,0.1814159238,-0.3186541876,0.8385269902,0.0881516691,-0.757071436,0.0925763943,0.3207561143,-0.25330514,-0.4630943916,-0.7807752427,-0.049719938,-0.6837302085,-0.4369130778,-0.3242197679,-0.702835709,0.34785084,-0.8077140551,0.0360235917,0.4040287496,-0.3720746974,-0.7028803437,-0.4975005106,-0.8405955308,-0.4851166064,0.1672813488,-0.9330572529,0.8121333802,0.0534243524,-0.109104427,0.9186275184,0.0257909898,-0.0449643291,0.9900415629,-0.6092551396,0.1236032365,0.5598653263,0.6024528227,0.4571011352,-0.7717418398,-0.8900602594,-0.4906018469,-0.1069837459,0.6038349958,0.4612727271,0.4378080712,0.3672602564,-0.3670487788,-0.5765777774,0.6518894633,-0.7886653868,-0.786404696,2.8142510985,-0.1275072342,0.422355608,-0.1447686048,0.5764533945,0.2373675523,0.7027024464,1.0399024165,-0.0036657256,-0.7729330748,-0.7271258684,0.5750623168,0.4362486743,-0.4632158736,0.793339101,0.6025954399,0.7361882699,0.0028121821,-0.7899458155,-0.7888328917,0.8266206525,0.4313247541,-0.8378021103,-0.6318483498,-4.5529661534,0.7891008698,-0.5445547834,-0.6573802385,0.1874501884,-0.3447255573,0.1449753802,-0.5728316633,0.7527996509,-0.5041641014,-0.2317075643,-0.2581231541,0.8461954142,0.4003521864,-0.5133948857,-0.1243892475,-0.5972337226,0.5263971579,-0.1367219257,-0.180953949,-1.1011745659,-0.0739218312,0.1166588011,2.1031661305,0.775986311,-0.3934795923,0.6367260744,-0.9783629911,-0.310701757,0.4215591389,-0.8925251119,-0.0842020651,0.2717883234,0.3976946359,0.0252713676,0.520836052,0.8543461385,0.0864415765,1.1875691032,1.0640836505,0.684151986,0.9005025589,-0.1705273076,-0.0693742914,1.1910996888,-0.5285628112,-1.1041262857,1.2137730188,0.6824581768,0.1862205479,0.6018187488,0.0477682859,0.8305642719,0.610017325,1.0703814078,-0.4051523423,0.0232475458,-0.3366827839,0.5535361793,1.1094203225,0.0101663925,0.5516925761,1.1264722501,0.657117478,0.882982043,-0.0796780344,0.5041856623,-0.3572762766,-5.2061960532,-11.0297039265,-0.1941634214,-0.7575410048,0.1463486167,-0.566179834,-0.1839979198,1.0144295628,1.1672026876,0.1758263016,0.3867073036,0.3911573976,-0.4189714615,-0.9742489988,-0.0406245327,0.0916286245,0.2368839101,-1.1208143131,-0.5100598114,0.423775208,-1.2649987123,0.3127745876,-0.4237463927,0.6117400662,32.3044329252,-0.0510031104,0.4028248636,-0.5064590964,-0.7545806325,0.18542248,0.346534638,-0.14395577,-0.6004805275,0.0008607623,-0.7039995389,-0.3014736967,-0.4185801911,0.6334966792,0.5718763561,-0.7289052513,0.2329887074,-0.655414151,0.3649823157,-1.2916696512,0.4387001754,-0.08624485,7.5030511913,18.3395360177,0.3977163004,0.5137952695,-0.4885742148,-0.0976625554,0.0675078461,0.2997935228,0.7261055249,0.2379698348,-0.5884403242,-0.8687736696,1.0313982038,-0.1595699235,-0.4424895592,-0.70190184,0.2063509961,-0.2765326122,0.2177684092,-0.4524225088,1.5525948878,4.3784915763,-0.81814683,-0.8533776077,-0.4074391171,-0.4842309363,0.2616125224,-0.3344716126,-0.967818796,-1.2609464194,-0.470997735,0.2178960924,0.2875412769,0.5008364909,-1.0588131786,-1.0748619773,-0.8404745635,-0.7205493611,-0.9158368657,-1.2086328416,-0.4482706666,-0.7820931997,-0.0425024793,-1.0678226429,-1.3360154526,0.3035197604,0.14089826,2.1235434534,0.1517299412,-0.1303785669,-0.4604757964,-0.6879328839,-0.0146858964,-0.4764622406,0.9220509234,-0.539319907,0.950608128,0.8457652708,-0.2469424956,-0.2521296955,0.564432988,0.4529737477,-0.1999290112,-0.1985067616,-0.6018851975,-1.1610971717,0.0348185073,1.1590098219,0.7168837912,0.6962492505,-46.5423734404,-0.0860506252,0.87026779,0.1022293394,-0.9365977025,0.1127178519,0.4702539768,0.8891733195,-0.1584643345,-0.3408596341,0.8661509296,-0.9496769624,0.4973246363,0.1455499393,1.0478196689,-0.1124052977,-1.4392228665,0.1041312787,-1.0124443149,-0.7955865623,5.8222981912,38.0756159759,-0.5486830628,-1.0512265812,0.1845676079,-0.3792839599,0.9727201161,0.1267606191,0.4253221446,0.4181311287,0.2699135731,0.7267715631,0.2549238242,-0.4990458581,0.6506042075,-0.296121365,0.9679737606,-0.2868162349,0.1418492714,0.8362452182,-0.6857700523,-0.2481217984,-0.4504288338,1.2078930454,0.3343681016,0.3981467199,10.1469060788,-1.0858780736,1.0346148607,0.0868667372,1.0081728133,0.9939259914,-0.150089531,0.4136633063,0.1727559661,-1.0578076322,0.4951785304,-0.3449948773,-0.0500010878,0.5111080891,0.5864469715,-1.0191303584,-0.2651145909,0.3206029852,-0.886267483,0.4722061635,-0.9784074808,1.1159695148,-0.7951318479,14.8821978219,0.1280662594,-0.3070224115,0.6622207869,1.143513767,-0.2282939828,-0.1673443754,1.0388768122,-0.7012636217,0.0231503567,0.3805553878,1.2438501481,-0.2924876654,-0.6923802188,0.7907426031,0.0115871269,-0.4203765967,0.7960063961,0.7486443436,-0.4843003397,-0.2428796473,0.0014169883,-2.268760008,5.2620220739,0.1040449733,-0.2215433568,-0.7609383164,-0.6732839056,-0.0079347725,-0.4098604872,-0.8608131749,0.7305503449,0.2301281699,-0.4240625766,0.7003994297,-0.518989461,0.9413669955,0.1444105605,-0.0448459831,-0.3150449227,0.1130444011,0.1500697711,-0.6609314242,0.8891343987,-0.8205724533,16.3592533658,5.1385341139,-0.0608772743,0.6991225931,0.6167307298,0.6046424694,0.5375072871,-0.1820459559,0.286411054,-0.2383256132,0.5564576383,1.3933639943,-0.0078113092,0.8933604558,-0.2168936406,-0.3198602285,-0.385749286,0.5276178623,-0.4263347864,0.4926790694,-0.8715493433,0.3349721235,1.0525889508,0.4920265006,-0.2706646491,0.5316239364,1.079331137,0.3337754086,-0.4210026394,0.6947133499,-0.4685729979,-0.1439904341,-0.1030735197,-0.1232964821,0.9583407695,0.0726288732,0.2365682949,0.631062821,-0.3423443211,-0.5402234868,-0.6359085312,-0.5606982646,0.3830022776,0.0694562999,-0.1202580695,-0.3234040036,-9.6989493633,36.2499071593,0.6720866369,1.3052407196,-0.3500050545,0.4758561636,1.1606874559,-0.2674560327,0.990807738,-0.4214192396,-0.4227811494,0.8269626792,0.521523497,0.6503113814,0.7781150507,-0.7354580352,0.3128347471,0.4368549361,0.752522057,0.5437865624,-0.3313367521,0.9276604519,-0.8400619911,-0.2286589094,0.2926575187,-1.3240154707,0.4748417898,-1.0802124509,-0.747553811,0.7246474265,0.5144202151,0.5620018702,-0.7040004666,-0.4779521049,-1.4029696107,-0.0973428159,-0.2748964897,0.5638999479,-1.1812440869,-0.5053437157,-0.5479643995,0.4586724843,0.8488337306,-0.7355099264,0.176113018,0.5812066259,-0.1174927325,-10.0928507476,0.7744288995,-0.7247128095,-0.1983429647,-0.0746804541,0.0961137042,-0.740615797,0.7880990345,-0.0561395308,-0.315510253,0.5669468614,0.4177748677,0.6066622276,-1.1604696767,-0.8561988118,0.2223280844,-0.79607366,0.0989441434,0.2538226663,0.5274865172,1.0315380666,-0.9033506323,-0.6011689135,0.4113803535,0.8543915648,0.6572801531,-0.537688364,1.0631954779,-0.3552270033,-0.6856172594,0.8963541732,0.5800612178,1.3098752416,-0.2050878048,0.3445280069,-0.397515693,-0.2436172207,0.84635167,-0.9213263742,0.7764186582,0.0036429776,-0.5478597522,0.1296338133,0.4050067174,-0.9401983706,-1.8861972956,-2.9905928732,-0.585963137,0.5445626307,0.866556865,-0.5768927128,-0.5175037232,-0.6702810335,-0.7437062008,-0.5976173569,-1.1233528922,-1.2640068926,0.6917595435,0.6301140293,0.4836067427,0.8989336496,0.2630453651,-0.3870882632,0.7445323362,-0.1121442413,-0.5695497078,0.68905924,0.3133720161,-2.6086311103,4.4322584986,-0.4312372736,0.0575603655,0.2128628293,-0.6351634125,0.3775381104,-0.7552770742,0.1085727881,-0.807157574,0.4875966123,0.2569877724,0.4077372155,-0.7981469364,0.7042910054,-0.6170507523,-0.3211841701,-0.7550401691,0.1780640189,0.151638347,-0.9320094813,-0.1851316499,0.505168755,6.2507133735,8.7494367951,-0.4418462953,0.5149255751,-0.2847013646,0.2028629533,0.2898329549,-0.9082559088,-0.174956496,0.2754121138,-0.502600329,-0.5026910091,0.088721276,-0.8386597508,0.230075615,-1.1493706207,-0.3432968727,-0.652421878,-0.6529589838,0.313996557,-0.2687221383,-4.0565713296,0.0704852666,-0.8658539741,-6.888317509,0.7583358352,0.0248148285,-0.1670199817,0.2692358757,-0.028492557,-0.7501905701,-0.4593048337,0.1054822399,-0.0981838617,1.0182491767,0.1982650927,0.7967514751,-0.7358696128,0.0023598132,0.5980860469,-0.2168204911,-0.2742465559,-0.0762760787,0.756834552,0.2144633994,0.3165107805,12.5388961723,-33.0022628632,-0.3859795685,-1.3660251005,-0.0831584705,-0.5125278492,0.207808948,-0.2679232171,-0.6165565462,-0.0992909146,1.0106996608,0.1889198796,0.2098663983,0.3483360761,-0.8399973138,-1.8273475008,0.9022261113,-0.9385020648,-0.3818638328,-0.928809515,2.5197854063,-3.4688071042,1.3404310217,-0.1782759094,1.1548529113,-0.7127905975,0.0658960047,0.6562395377,1.1366000908,0.3628734834,0.052687331,1.2551405675,0.4436120535,0.7378477025,-0.2756536089,0.3939842579,0.860901507,-0.2630938378,0.2617426435,-0.6558538338,1.1699909144,-0.1720564788,0.5771356937,-0.4882048337,1.173650903,-0.4416677623,0.4881551603,0.4950947894,0.6497740315,0.114224363,-0.9780091191,-1.0051080539,0.6268436007,-0.4369684084,0.8357537731,0.0527371213,-1.111827776,-1.0394964535,-0.5248028461,-1.1085268961,-0.0526338497,0.0235331834,-0.6196668506,-0.9586774614,-1.2155523844,-0.9761333765,-0.933157107,-0.8302724718,-0.8780994994,0.848875551,-18.3345154612,-0.485421354,0.543865865,0.4811473922,0.3964804314,0.8216423715,-0.3003272409,0.185139699,0.2330686594,1.4205073935,0.2057501369,-0.1499125232,-0.4269196701,0.7185007818,0.1894003131,0.0462131573,0.2092759598,1.1580629788,0.4709435198,-0.3543119518,1.1490713392,1.0465989342,19.2613896064,-10.788841175,-0.0723630075,0.7383286597,-0.7859453657,0.2270889418,0.9291428383,0.2340587777,0.1828962499,0.9681774082,0.2370324435,-0.8058740012,-0.0478072699,0.2027721904,-0.50613427,-0.3915853282,0.1432391164,-0.8004997202,1.0239521823,-0.0750953781,-0.3730423471,-0.9628441558,0.1056538331,2.870175214,6.3023860757,-0.7468532225,-0.2976427838,-0.4554444212,-0.9953279842,-0.7473941402,0.1084433194,-0.5488834093,-0.8699728379,-0.2007419982,0.3610974,0.5397377164,0.1358576679,0.957057181,-0.6030031221,-0.6175217403,-1.0897440807,0.5735028044,-0.6086275773,-1.0898627073,-0.3554006314,-1.194739727,0.0253956959,0.410156959,-0.1694764759,0.1969169972,0.2114732688,-0.0383946482,-0.2668761369,-0.4688687327,0.5384599786,-0.1501974068,-1.0783921065,-0.0952706481,-0.8273748708,-0.2642192628,-0.4999366401,-0.5678738579,-0.7913767479,-0.7367682068,-1.089570011,0.3432629236,0.0938178038,-0.5521350722,0.0043655164,-0.4185202306,0.0417072792,-0.104392973,-0.6861192059,0.5328724677,0.0991682164,0.7158930074,-1.061068021,0.4045427894,-1.1907691572,-1.0072542075,-0.7012189337,-0.1481556393,-0.5782388673,-1.1212024632,0.2359826311,-0.0059921674,-0.1960979315,-0.1184683235,-1.0516474714,-0.8937565516,0.358763105,0.9505703459,-6.774152861,9.9025621934,0.2081094539,-0.2783943594,0.631842705,0.0318438998,0.3391624026,-0.1948860673,-0.3902618243,-0.1466085568,0.3244832142,0.0562757902,-0.472819736,-0.5458958164,0.7733689138,-0.3229952449,-0.1862170689,-0.9029530953,0.0733875695,0.3375143472,0.8191225684,0.4699959381,-0.047606611,-0.2914463547,0.0611386815,-0.7893288051,1.028389645,-0.066050118,-0.2876202165,0.6467105114,0.6752799611,-0.0141769341,0.3443685325,0.2736030636,1.002204525,0.9597709568,0.1429894958,-0.1331670731,0.4018747305,1.0326001969,0.8186649197,-0.6534959418,0.4945890222,-0.1098820402,0.7881379354,-0.1715400596,-0.4537413227,-18.0321453151,0.8928534701,0.8507774488,-0.7139815916,0.4578047894,-0.8814891302,-0.2767507647,-0.2500389902,-0.3045997529,-1.1559053153,-0.0281806709,-0.5578222022,-0.3029339847,0.6035298502,0.290636711,0.1347812105,-0.0859895997,0.1748948945,-0.3882820107,-0.2671615304,-0.8568978817,0.1393576429,-3.2024938122,-4.6673346295,-0.0837283661,-0.1583473166,-1.062288305,-0.5877934834,-0.5095187835,0.8014402893,-0.8307741664,-0.9871205028,-0.6878003699,-0.222605038,0.3307667009,-0.5419342135,0.8013707276,0.8297065281,0.4188186329,0.7862362714,-0.8559067874,-0.6633144313,0.015382575,0.6073733007,-0.0015572753,-1.6276412666,-45.0396951151,1.1117094805,1.2127536381,1.1434447167,-0.3735774161,-0.7579936589,-0.7301841798,0.1601639414,0.7638155158,0.7450480163,-0.5848122742,0.5820157851,-0.7342920563,-0.739391224,-0.7001620951,0.027891639,0.7078267724,0.1710042146,0.5378555063,-0.8980044457,-2.8707713923,-0.2511709299,8.4338806965,1.5365944822,-0.7091563265,0.4423611551,-0.1732002035,-0.8943487059,0.1720315447,-0.5450406559,-0.2769692613,0.2849219677,-0.3469089012,0.4397929206,0.6100133427,0.486087767,-0.667008255,-0.7610354482,-0.2138248029,-0.7655430883,0.5772514529,-0.1565257842,0.1895863659,-11.2949263157,0.6973475343,6.9614653696,0.0306799426,0.7218441725,-0.5868304461,-0.9178896082,0.6936078564,0.1222943239,0.0455591735,-0.6895851928,-0.7746534631,0.1569736647,0.8332243992,0.2294369545,1.0901995751,-0.681551455,-0.0970804501,-0.2542850313,0.1410185387,0.9697439201,0.6695472516,-0.0538977172,-0.424998736,0.6837247509,0.7243354997,3.3058922228,0.627619558,-0.0629006066,0.0661696632,-0.4405527634,-0.1014148503,0.4299577737,0.1709428993,0.8713951572,-0.9723027236,-0.3285024013,-0.6966284039,0.3816829125,-0.7699221891,-0.0797940187,-0.3787081222,0.1777962983,-0.1340810695,-0.4542830477,0.8125083724,-0.0074379831,-0.8272254283,-0.6861852508,-2.7459150309,-0.1949441151,-1.0187177544,-0.3886847483,0.5242068959,-0.1548912768,0.0774499111,-0.0783731299,0.3863945773,0.6427478501,1.5530556987,0.0062077689,0.7362507221,0.2708241614,-0.3347992518,0.0782234947,-0.1935129305,-0.9794004589,-0.316420713,0.7465534762,1.2967818564,-0.4027237567,0.0541239158,-20.5355728392,-0.210186636,-0.4239964784,0.6166449098,0.4344200941,0.1085773068,1.3217734364,-0.4391598119,1.081111166,0.488429101,-0.6110644411,-0.5279562741,0.1499803112,0.4556974196,-0.5650001469,0.0971102161,-0.8315576793,0.4601204473,-0.1334611442,-1.4762376866,-2.2870346642,-0.3805974572,0.7953914479,0.3413079101,-0.566491902,0.0947342037,0.0793107555,-0.1142422384,-0.2076496843,-0.1615375735,-0.7317242803,-0.8531354881,0.2786355573,-0.8591393499,-0.6434273855,-0.2667764386,-0.2831297455,0.3580716696,0.5394899448,0.829090766,-0.6265722345,0.1708986513,0.4582852877,0.5577907646,-0.8592051809,-1.4711915499,5.179993388,0.3488139797,-0.4422639447,0.8641229286,-0.82419774,-0.2356313353,0.2501491598,-0.3677530602,-0.8212531542,0.9318489362,0.5218057403,-0.1353825075,0.3120969686,0.1839082765,-0.0960442839,1.2027489213,0.4499672329,-0.5662434165,1.0763931113,0.146003652,1.5678628008,-0.8075050255,9.1567155108,-5.8120980635,0.0868684858,-1.0089629184,-0.3448456816,-0.2594630784,0.5040487537,0.0514902876,-0.8863786554,0.1017611538,-0.0918914629,0.7628519818,-0.5152403165,-0.5832354549,-0.2147276461,0.0360262952,0.1652841267,-0.3318992193,-0.7402450055,0.3494882376,-0.1361798976,-1.541084185,0.4506010451,5.8159089974,-3.7703597059,0.3792646334,0.7878073057,0.1555963681,0.6266555466,1.0358549194,-0.7663325668,-0.5765672262,-1.2019225655,0.425010378,0.419135809,-0.244718307,0.2417731223,-0.1910652272,-0.9811372914,-0.1860403097,-0.580811147,0.5452948038,-0.4793007724,-0.1283783384,-0.5429369237,-0.1866811722,-0.6753245491,6.2837971388,0.1452162166,0.3281846641,-0.8570406138,0.1834829219,-0.5576836203,-1.0734761424,-1.0935721998,-0.1002968726,0.1856658613,0.3351703983,0.0511869506,0.3555947519,-0.9303085898,0.8702546371,-0.4848995026,-0.9549047357,-1.0510417921,-0.8938401558,-0.3873511364,-0.4821950258,0.8532794575,-39.8911533476,-10.1597228638,-0.2082547202,0.018465459,-0.7791295186,-0.5030577998,1.0724008161,0.0231703547,0.3339134973,0.0733670307,-0.8289932334,-0.115660674,-0.7801079108,0.6483650258,-0.4524759645,0.8250498899,-0.5848696884,-1.1227126316,-1.1508916461,-0.8830122181,-0.8514802375,1.0346978207,-0.7539328184,-1.1552682247,1.0544800901,-0.4869110639,-0.7585270308,-0.6011336084,-0.3442716108,-0.990374526,-0.8984748233,0.26978059,-0.0814946734,0.1265391524,0.1157841406,-0.8564566013,0.0850441216,0.0131779773,-1.2219598306,-1.276984165,-1.1719833992,-0.8121129797,0.3747412669,-0.2691731278,-1.2552493481,0.1959722697,-7.1900683942,37.7433652623,0.045322965,0.023040382,-0.104058773,0.4825074549,0.6835364409,0.6683996114,-0.4180009182,-1.009426142,-0.4688949913,0.067906773,-0.6937038031,-0.5472695776,-1.0768919443,-0.5196534842,-0.3307365319,0.4764973221,-0.03950703,0.9417480702,1.9711633818,-4.6043705673,0.6355067289,5.3215239286,2.627553414
   -0.6558246765,0.4861596322,-0.1893656005,0.2171665737,-0.6166805446,0.5990904969,0.1280767627,0.9745059051,-0.7737111524,-1.0982779638,-0.6734500782,0.7251929486,0.1902541626,-1.0003092244,-0.2642715019,-0.847961265,-0.0767428874,0.2624621584,0.6314131695,0.8224261809,-0.2380691429,-8.0559567578,-1.5402533069,0.1669427153,-0.1032727083,0.0320783589,1.2034483526,1.0263403568,0.878294589,0.4810889193,0.4055951991,-0.0843941241,-0.0777219971,-0.5575986735,1.3766738761,-0.5772827689,1.2065183508,0.6178108457,0.6967397502,0.027056541,0.1419380961,1.3186060446,0.9735117864,0.17060817,-6.9402472031,-17.2601835585,-0.1586944218,-0.6095664041,0.2469035082,0.5859350426,-0.1678617727,-0.2929699467,0.1416435205,-0.0343038246,-0.5831628136,-0.1027463888,-0.7581379219,0.374478816,1.2392367049,0.439979223,-0.0535151401,-0.6884485461,-0.4152986718,-1.044927629,-1.0245517416,0.8684547803,-0.4122081662,1.5152842996,-5.8654135258,-0.6213262184,0.0948219266,-0.6612291422,-0.4343889812,0.512333523,0.492491619,-1.0372084741,0.6532145525,0.3407027252,0.4874139758,0.7463269659,0.4159626134,-1.1259052108,-0.089746228,-0.3443789602,-0.299031683,1.0885762716,-0.5519061019,0.4005116756,0.8114830937,-0.2554142418,-0.4599720161,0.3115306955,0.6180875308,-0.2486658019,0.3116632644,-0.7126602106,0.07321867,-0.9664451711,-0.576685386,-0.7888607114,-0.796450987,0.0572232367,-0.9468670032,-0.4770955318,0.1402473548,-0.2535592803,0.0049470248,-0.6350378028,0.2992493061,-0.7651140066,0.4426315084,-0.6530796276,-0.6041631635,0.6121254716,-1.0544056125,-0.8245269867,0.5591990026,0.5227074479,-0.7145588683,0.5421453319,0.514903666,-0.7013994826,-0.0021685562,-1.1989682016,-0.9172771779,0.1482152682,-0.8863893985,-0.1221346835,0.5839260184,0.5233433651,-0.7766389641,0.6329370192,-0.7593671627,0.5656588127,-0.4687291498,-0.3527147615,-0.9593530532,-0.583213879,-0.2018428043,-0.9318511883,0.2527127475,0.252448662,-0.6396163134,0.0811140018,0.3218128019,-0.7968271213,-1.0460226992,-1.0714297033,-1.2565298515,0.5582662009,-1.0325291953,-0.0689269821,0.1033364815,-0.9523148166,0.4335745236,0.4729278361,0.2880307868,-0.3785874146,-0.498037512,0.0514852648,-0.0701501518,0.3439467231,1.2423805616,0.4576732584,1.8229813636,1.1464426819,-0.036824703,1.362860154,0.8724798176,0.4920103177,0.6548774031,-0.2752966418,0.9759925358,-0.1118128466,0.5313138249,0.6873053722,1.1286913952,-0.2498918684,-0.2083863992,-0.2326003433,0.9579208286,-0.3195076516,-0.6737435197,5.3916889082,1.3261709169,0.3357916275,0.5470149473,0.7329809535,0.7813436773,-0.1416936976,0.1262285099,-1.1499200752,1.525648543,0.437911239,0.168601321,0.176374831,-0.2165351902,0.5068800761,-0.3191399071,-0.5506514634,0.0092663785,-0.5658092071,0.2585154712,1.1451874229,-0.7876130964,-0.9193542114,32.4896830868,0.1141917418,-0.1465110845,-0.1954311435,-0.3410545289,1.172142591,1.0815966786,-0.3216564709,1.1278756058,0.8822478198,0.9323851333,0.1067032564,0.2395462597,-0.6085576711,-0.7146775434,-0.2108185498,0.7685761051,1.0048846736,-0.7315057645,0.2972637829,1.552747645,0.2884798328,8.5275673636,22.3160478479,0.7494683999,0.5774730004,-0.9737544997,0.4202758578,0.3914524416,-0.5951523974,0.2026080506,-0.1001186225,0.1374889315,-1.0021737681,0.5811796967,0.7021473128,-0.0903271234,-0.8871584432,0.1236751015,-0.7017049337,-0.6038388188,0.4628109063,-0.894170319,-0.0372770851,0.6353635659,-4.2345691927,7.2190671431,-0.134781652,-0.4934822442,0.0005949798,-0.585587486,-0.4160079912,-0.3598899834,-0.1352111446,-0.5475581394,1.0091684315,-0.4552987819,0.5691975634,-0.5042160544,0.3557745765,-0.3061156648,-0.8989855132,0.0501863203,-0.0773725016,-0.4242051489,-0.7586809217,2.8942471424,1.0099994799,-4.2151956941,18.937239382,0.0232691792,-0.5814704651,0.573557275,0.0884132248,-0.9757154886,0.7681404643,-1.1395028678,-0.1441952044,-0.4743039286,0.8190252841,-0.617659973,0.6053262205,-0.8845640812,-0.20394752,0.5252354824,0.0420071618,0.3772605239,-0.8158556984,-1.3625961703,0.4666497631,0.3309754452,7.8020826994,7.1259097559,0.9774289933,0.2307078993,-0.3444902717,-0.4419654767,0.321009249,-0.2356700384,0.5210842235,1.0466609674,-0.4946902608,-0.3227832024,-0.3142001975,-0.7083030724,-0.6689151654,0.5471667805,0.5237519927,-0.5924820505,0.0844936422,-0.9163285969,0.3697680087,3.968803267
##end
biasActivation=0,1,1,1
[BASIC:ACTIVATION]
"org.encog.engine.network.activation.ActivationTANH"
"org.encog.engine.network.activation.ActivationTANH"
"org.encog.engine.network.activation.ActivationTANH"
"org.encog.engine.network.activation.ActivationLinear"
