encog,BasicNetwork,java,3.4.0,1,1571652822015
[BASIC]
[BASIC:PARAMS]
[BASIC:NETWORK]
beginTraining=0
connectionLimit=0
contextTargetOffset=0,0,0,0,0
contextTargetSize=0,0,0,0,0
endTraining=4
hasContext=f
inputCount=22
layerCounts=3,27,41,41,23
layerFeedCounts=3,26,40,40,22
layerContextCount=0,0,0,0,0
layerIndex=0,3,30,71,112
output=0,0,0,0,0,0,0,0,0,0,0,0,0,0,0,0,0,0,0,0,0,0,0,0,0,0,0,0,0,1,0,0,0,0,0,0,0,0,0,0,0,0,0,0,0,0,0,0,0,0,0,0,0,0,0,0,0,0,0,0,0,0,0,0,0,0,0,0,0,0,1,0,0,0,0,0,0,0,0,0,0,0,0,0,0,0,0,0,0,0,0,0,0,0,0,0,0,0,0,0,0,0,0,0,0,0,0,0,0,0,0,1,0,0,0,0,0,0,0,0,0,0,0,0,0,0,0,0,0,0,0,0,0,0,1
outputCount=3
weightIndex=0,81,1147,2787,3707
weights=##0
##double#3707
   1.2427921141,-0.8692490681,-0.2642052491,0.6215099888,-0.4641744019,-0.4952538136,-0.0042776367,0.7578374209,-0.8535601619,-0.2867775542,-0.0416666008,-0.761674627,-2.9623462162,0.0363967124,-0.2137920267,0.6360743741,0.0743207313,0.0607490627,0.0613940373,-0.4751286469,-0.1531281131,-0.4417464367,1.5067939006,0.1563930606,-0.6282419465,-0.3542916195,-0.5691317518,-0.5900672322,0.5937381243,1.0291912387,0.9042459243,0.8168616895,-0.0540754735,0.9856578162,0.82282529,-0.1688628183,-0.4624490164,-0.6632130052,0.6368516151,1.1540818428,0.3064677081,0.6302237102,-0.4285094665,0.1441977904,0.3786172667,0.1573663491,-0.3050704219,-0.5784918252,0.5998513231,0.1715691915,0.6290901477,1.0601320072,0.595692975,1.0355555603,-0.6592825454,0.7926120922,0.3987061192,0.0706382048,-0.0207185098,-0.2941665813,0.8001817818,-0.512291746,-0.6864937269,0.2715047678,0.5914586082,-0.1041173774,0.0289581695,-0.0064523936,-0.9827112862,-0.447491916,-0.3895369193,0.336709163,-0.9041883646,-0.656384382,-0.5137587446,-0.2335993014,-0.0231423465,0.2180658917,-0.3790141092,-0.3440366426,0.1143116169,-0.1696185504,-0.1493075585,0.1665331389,0.9150967779,0.526345952,0.1065504328,-0.2039772177,-1.726243445,0.2462469984,-0.4885993307,0.7241769846,-0.5986842266,-0.08454689,0.9426753353,-0.063094852,0.2325261688,0.3177365588,-0.60513855,0.3976695032,-0.1358037336,0.2144802707,-0.9584318141,0.4292956665,-1.0925015684,0.5781080637,0.5973100507,-0.363838784,0.2724877756,0.4608236514,0.5037471214,0.204671489,-0.846436568,0.8303210207,-0.5701342928,-0.3651877711,-0.7024703243,-0.0592398033,-0.9562641274,0.6568979275,0.0005828993,-0.5543775823,0.5560849022,-0.0927260894,1.3850828796,-0.013472164,-0.5983344337,-0.8343160647,0.0139531276,0.9753804124,-0.32587014,0.97176811,-0.5728980364,-0.2058612582,-0.2965562075,0.1785417314,0.4731419984,-0.7543097975,0.0865622429,-0.7403579551,0.115809204,0.0712500323,-0.6255970756,0.9410467437,-0.6324989666,0.5005715713,0.7609862517,-0.3901230458,-0.1895802173,-0.7227433334,-0.641601657,-0.1214184493,0.5658072233,0.4079878725,-0.3597749752,-0.6056534651,0.8909445824,0.9356464984,-1.0090394338,-0.6597094314,0.1457469729,-0.4510868802,0.5515350408,-0.6049304547,-1.0477432877,1.3529052914,0.4909704227,-0.0425485272,-1.1539287548,-0.1080488308,0.2405110076,-0.6444156961,-1.328704175,-0.0060726378,0.7640200432,-0.4801922595,0.2057934532,-0.6532000338,-0.6184943128,-0.9834506275,-1.6420815669,-0.3912180252,-0.4315842728,-0.866010191,-0.3852990935,0.8292889884,0.3438687218,-0.5524665576,-0.0246975695,1.1536513245,-0.1588315837,-0.2027387648,0.0370577354,-0.2107104606,-0.4983973757,-0.0658487018,1.0206552346,0.5495413746,0.8765108628,1.0724177281,-0.8906390813,0.0037724168,0.6866728398,-0.9145068902,0.0989644302,0.8587151259,-0.7542548238,0.2575158333,0.4792227713,-0.3534502805,-0.9929619474,-0.7881647936,0.3980234786,-0.4184695351,1.5644980386,0.3997011371,-0.3154908013,-1.0026865832,-0.3860992361,-0.8281341783,1.2362962933,0.293071562,-1.0818987738,-0.7612832324,-0.6276801889,-0.3781274786,-0.636082216,0.148287836,0.6458891469,0.6253755574,-0.6755783933,0.3692120941,0.9295470923,-0.6996432494,-0.3080334347,1.112678144,-0.1883336291,-0.5962245712,0.1567435129,0.3708991762,-0.1817538666,0.0031543879,-0.147181666,0.6129460433,-0.4504551392,-0.7385231747,0.2031535517,0.1865751168,-0.5654571834,0.1110246982,0.3637435163,0.5375204166,-0.689128452,0.6565579874,0.0362958755,-0.1178709914,-0.3466661934,0.3773936425,0.3477070592,0.5555547124,-0.8931525842,0.7491486265,-0.3249797268,0.1229528958,0.3863237042,0.452045134,-0.5186856641,-0.7133271308,-0.0987462763,-0.3585573947,0.5416246041,2.5000369703,0.5560190503,0.9141839238,0.7337756252,-0.3710382473,-1.0723415268,-0.0694374584,0.2304993776,0.7100895451,0.2978917357,0.5179469686,1.5000599794,0.1231691328,0.8227954782,-0.3594477957,-0.821655494,-0.5589881723,-0.2694759322,-0.9056009554,-0.9601963755,0.8078656209,-0.3373890067,0.5513232816,0.1865489211,-0.6039498871,0.4559987535,-0.8955486336,0.2078377358,-1.2273794001,-0.4825679908,-0.1968850347,-0.610488437,0.5724073179,-0.0760891848,-0.0862654865,-0.9380533567,-0.4836216086,0.4953503126,-0.1123775114,0.4294355892,1.0172487058,-0.6139836747,0.5142912779,-0.2387566674,-0.1529829507,0.0263932533,-0.7313952234,0.1485142892,0.2067062435,-0.8445798934,-0.9076814476,0.7965923102,1.9782557119,0.1254714011,0.8486877327,-0.4153825996,0.6397964375,0.6074174221,-0.5262013993,-0.0133926598,-0.4359597313,0.2879682117,1.8174828526,0.5055018369,0.2652643622,-0.1345791071,0.6917282169,0.298790476,-0.4078624466,0.8012973886,-0.4732686787,0.8966934591,0.4166514969,0.1852370022,0.8190498737,0.5326329175,-1.0931438179,-0.6669319481,-0.5050905218,-1.2847773616,-0.3812156594,1.1307857611,-0.0740100122,0.4799983031,0.7187932791,-0.8388017788,1.027778665,-0.3722074978,-0.0880677332,-0.4485519378,-0.5182335667,0.2165537884,0.152555946,-0.3768650286,0.3866681028,0.5000671806,0.0845922071,-0.2896031517,0.0419513467,-0.0268418982,-1.0016574951,0.736667624,0.4884400915,-0.6693755209,-0.2043707459,-4.9065843332,0.8258098878,-0.212309994,-0.3730456663,-0.0909109699,1.2387341413,0.2822164943,0.7775544025,-0.0288306089,0.6246932739,-0.3010913967,1.0798770791,1.3190033866,0.3197169991,9.6938619158,0.558822503,0.4198862758,-0.4541253824,-1.1216641486,-12.7268664929,1.0260044728,0.7771764864,0.8950835967,1.7979117897,0.6327656975,-0.8789631899,-0.4942982462,0.7484141118,-0.7354311677,0.4741530937,0.5790779017,-0.5011344851,0.7526876836,0.078655508,0.8939795716,1.888808509,-0.6371215483,0.8268179564,0.7118382187,-1.2114839553,0.4901116346,0.3259208722,0.8457811946,-0.1628604926,-0.6975366405,1.0909789241,0.6635002181,-0.2336347446,0.5045251425,0.4804199274,0.583237133,0.7677848353,-0.8153826147,-0.5566432613,-1.0571110358,0.3806030163,0.6672207837,-1.1051555308,-0.7951468994,-0.3349113163,0.2516638796,0.7906800191,-0.925494033,0.7725677589,-0.1045079142,0.8849507664,0.7178355933,1.0577892668,0.4965470827,-0.1892254654,-0.4619075154,0.5929629007,0.7410740178,0.3292888857,-0.8426881449,1.8424129972,-0.9540884959,-0.5506394702,0.8368076087,-0.127333552,-0.2330892485,0.9781261205,-0.663729556,-0.5804644872,0.1291522599,-0.6500773485,0.7957540765,-1.4076522247,-0.2897828862,0.3352389602,0.1384259102,0.3832489438,0.3249100269,0.2025400336,0.4711278252,0.6463798603,-0.3894525346,-0.6562583286,-0.5450334183,0.487901474,0.982829093,-0.1906533354,-0.1343466841,-0.3361507209,-0.8529035266,-0.316752779,0.6832933384,-0.2008452487,1.3434250063,0.8042498083,0.4804607881,0.0094639577,0.3685168735,0.3930589723,0.5877841252,1.0572790287,-0.8891898042,-0.3191143578,-0.1410334648,0.4477177457,1.0442409533,0.9838272771,-0.4566756574,0.5031024713,-0.5793150963,-0.5910243096,0.637687742,0.3313498051,-0.1091825729,0.1718931229,-1.038637646,0.4116706565,-0.07043651,-0.2552420382,0.8587528005,0.4446145655,0.6760435055,-0.1727171773,-0.8456211038,0.5244319163,0.6897808043,-0.6819308125,0.2698201287,-0.6276593325,0.0093009632,-0.4536677313,-0.0910077633,0.4994705612,0.0523875613,0.0163055799,-0.9817872934,0.1878423249,0.9554419289,0.054655618,-0.2692640849,-0.0407564067,0.6006947749,-0.2363906708,-0.3987922135,-0.100633646,0.376828365,-0.6451107306,-0.2555852801,0.7060088583,0.2133629134,-1.5778418154,0.8782331849,-0.0492227818,-0.8542788815,-0.053656488,-0.4497687085,-0.3159670923,-0.6651749426,1.4551635004,-0.3763266218,-1.3255520986,0.2379332854,-0.5693677931,-0.5526770726,-0.4078389958,-0.6792930863,-0.431398291,0.8784610365,-0.2097534884,0.8929833152,-0.1338837106,-0.306744469,0.4203786059,0.8071921232,0.3004193674,-1.0052900721,-0.9997822027,-1.0017953105,0.1740446241,-0.438501311,-0.5558299203,-0.7060617558,0.9169528921,0.8234812456,-0.4253120645,0.1448347694,-0.0241048143,-0.3667172743,-0.2165322594,0.7043009503,-0.3132992371,0.5423012535,0.6670435483,0.1102326002,0.9581972534,0.6960138487,-0.4508508977,0.1597671608,0.5740534382,-0.7513806196,-0.4573719638,-0.770166004,0.927347153,-0.7790065878,-0.852975558,0.8244076193,-0.3866144499,0.9518872564,0.8185081815,0.756857147,0.9237908861,0.3617989224,-0.567968411,-0.8138180428,0.7115590216,0.0436446377,-0.7239097003,0.9321516787,0.3660104159,-0.1771485073,0.5097804059,-0.7000869835,-0.4779154408,0.778673011,-0.3106225973,0.7527736587,0.4116276606,0.8997838169,-0.1567040353,-0.0691404209,0.1674499906,-1.0022700137,-0.926664826,0.2943141997,0.7523528472,-0.6670557308,-0.3626451245,-1.6424150103,-0.9024465858,-0.3269859767,1.2201570834,0.5247986878,0.2650028177,0.3606202472,-0.1074910833,-0.212222148,0.2180249746,-0.1949409974,-1.1400696171,0.2068325842,1.0422575863,-0.4560439367,0.9745139776,0.2865133398,-0.0114263865,-0.1756974932,-1.0623850151,-1.2358463925,-0.7097271258,-0.0227918661,-0.2883064957,1.0832742769,-0.6489155335,0.0585243011,0.1977362195,-0.1532331235,-0.7326365019,-0.1657495522,0.0775122358,-0.4132082813,-0.7522910237,-0.526492089,0.486798237,-1.2491566591,0.5032438325,-0.8659185308,1.1234917612,0.2783586302,0.7357121882,0.9613237829,0.2457453105,-0.1184934153,0.8701697703,0.3430734735,-0.581158055,0.5438305771,0.5471180124,0.5599233353,-0.2955384661,0.9913317718,0.2304226417,0.2341538769,0.5566710314,-0.746106905,0.4538315669,-0.8838180321,0.7999594107,0.0231482107,0.3111322064,0.7855769655,-0.5170669306,-0.0629672186,0.9009087371,-0.9767487177,0.1409926233,-0.3844164945,-0.6375408498,-0.4135539306,1.5831574047,0.5086638753,-0.2842093449,-0.7455272378,-1.0204616336,1.3843606523,0.6523345361,-0.8828958326,0.6366922732,-1.4000413904,0.1907675706,-0.9484597658,-0.4148422584,-1.6233666704,-0.1576656274,-0.1686596605,0.7442233944,0.2929688302,0.7864907201,-0.7502190383,-0.1670907091,-1.0087491199,-0.8268937681,-0.3333793298,-0.4196657088,0.5581503195,-0.550903467,-0.322937671,-0.305484306,-0.3968299257,0.6412542351,-0.8778281262,1.1570205119,0.2245353611,0.8554304062,-0.3067808963,1.4740696077,-0.1090002728,0.6088387229,-0.2031084023,-0.4831142508,1.0376057869,-1.3592603917,0.8760090707,-0.6598174412,0.9787513606,0.227991021,1.1180512462,-0.6832314236,0.1804799724,-0.2717672187,0.7217894551,0.3207692374,0.6519327631,-0.702089978,-0.6955602677,0.8359156439,-0.7120139263,0.189449334,-0.3767751682,-0.5871818884,0.5492297333,0.287979918,1.2307787037,0.2119789084,0.6385295052,0.4958584242,-0.4511618138,-1.5760827647,0.0719741468,0.3795411732,-0.0784456312,-0.2983531271,-0.3387642573,1.3829332225,-0.698971262,1.4226848972,-0.6575702023,0.1567813017,-0.7175687159,-0.4481101225,-0.2181141813,0.6789321195,0.6063911868,0.7346120121,0.5542364189,-0.3372589422,-0.4657323301,0.187344015,0.4232703292,-0.0394831769,0.1683273505,-0.3171317267,1.2229128309,-0.7608488739,0.0565645728,-0.530017118,0.1681296907,0.4789135178,-0.039647275,0.5382457527,-0.6288264109,0.7851009587,0.8257690886,0.0538936942,-0.2130289018,-0.5992017059,0.2223809174,-0.1850086145,-0.3638111239,0.8334682639,-0.1693979263,-0.1642080024,-1.0944484602,0.1928948896,-0.541783883,0.7119696328,0.0595791151,0.8145640321,0.5321105122,0.2466276303,0.0866181764,-1.0477262163,-0.4770638843,-0.4453164583,-0.3249579401,0.3811369958,1.3690778335,-0.7334821567,0.1612167672,-0.3072031839,0.0254980868,-0.8572425201,0.0224781446,-1.0916576994,-0.6438746872,0.3562751107,-0.6021936687,0.2251044309,0.0814374465,0.2554817923,0.0175559917,0.4556392928,-0.3473224483,-0.2542200941,0.6218950047,0.4516119983,-0.4388244306,-0.1016700173,0.6978217793,1.0073153911,0.0803207924,-0.7625456166,0.9781914361,0.2163506451,-0.077145974,-0.1866847297,-0.5869422924,0.86125043,-0.4047438059,-0.3068385252,-0.519755026,-0.3900481348,-0.501217256,-1.0107737298,-0.8766081897,-0.5638887341,0.0375872165,-0.0503237574,0.5096863195,0.5441843588,0.9979145992,0.9863639601,-0.5412325734,-0.4408835607,-0.0379926209,0.7184641355,0.1299204118,0.2864799873,0.4034169223,-1.2090223798,-0.3494919501,0.297734212,0.4759345656,0.4791893435,0.576062563,-0.6003223146,0.5838541968,-0.2971703147,-0.4268082205,-0.1239475041,-0.1488109158,0.6583076984,-0.2084305272,1.1272695984,0.041303126,1.2890654065,0.6681753775,-0.3259217247,-0.161103207,-0.1464074827,0.6061469061,0.3689143667,-0.5145110146,-0.3719025198,0.0830705094,0.0286809825,0.5394754664,-0.3531631209,-0.1211588946,1.2632716703,-1.0501650912,0.2857542731,0.328767559,0.5176220508,-1.0168786561,0.2235608076,-1.0224605767,-0.0543948631,-1.7038527983,-0.4607048287,-0.7858503164,-0.4563908564,0.1945502285,-0.6920607523,-1.129874688,0.3249086611,-1.4007440057,0.1004043545,-0.25524477,-8.2246190547,-0.1974340923,-1.2141219081,-0.8247269911,-1.4427858252,0.0722016888,0.4838965427,-1.5888303247,-0.8493083094,1.3298364597,0.0259643543,1.2219320698,-0.7842023529,0.6316436026,-0.1589853318,0.5638927404,-0.5791342176,0.2990513118,2.4735187551,0.3771644223,-0.4774577775,0.6996954049,0.8501010248,0.8707623395,-0.8359633912,-0.3177476659,-0.4413935177,-0.416545425,-0.1389470545,-0.416018015,1.7830676646,0.8496023974,-0.8121480355,0.882036904,-1.4303912543,0.5304750389,0.1539916099,-0.2433758623,-0.9876814174,0.1256488614,0.1852162314,-1.5002865781,-0.1715554416,-0.5353172359,-0.7556226257,-0.2117200621,-0.7296144615,-0.2865672258,-1.596517884,-0.7179038491,-0.795842227,0.1985262417,0.0317913701,-0.3011434574,0.798820944,0.8754628871,-0.6608576905,-0.9137003234,-0.2691472712,0.1674538242,1.4910812972,-0.3844989504,-0.3481712547,1.0523264531,-0.5689488471,0.4734283827,0.1827971745,0.0702515073,-0.7966764892,1.0669917328,0.1902803579,-0.3699401559,0.9549885217,-0.704193349,1.3565928266,-0.4349680224,0.2143039128,-0.2249357777,-0.7177301771,0.6253655536,0.706175198,1.5096286396,1.2460000479,-0.3515041968,1.3457070621,-0.3851132494,0.9926585599,0.7511357226,1.1353542202,1.6106618255,1.6145786362,0.637376275,0.8013360359,-0.6132355376,0.9052540296,-0.4217968659,-0.9576126014,-0.6401639645,-0.3660507677,0.586546328,0.1325068337,-0.4376955664,0.6187958257,-1.6286002382,-0.6448710757,-0.6900991628,-0.1106525189,2.1857374278,-0.6113564689,-0.7748373064,0.2719058184,-0.3519478976,-2.3922841645,-0.4998807356,1.0069378654,-0.0955208127,0.5280156471,0.9157957501,-0.2689799083,-0.7753180298,0.1105341775,-0.6713519297,-0.9840223395,-1.6931672984,0.3112723548,1.3795853696,0.0451908463,1.3228175416,-0.5475496769,-0.6733766109,-0.0952010862,0.2843412116,-0.0235451161,0.2951340033,0.6258068817,1.3104634964,-0.3664188032,-0.1259624266,0.4997184419,0.7317037199,0.0503512312,0.3434658047,0.7399693099,-0.0868129991,0.019928653,0.5675222916,-1.3177060617,-0.4645233758,-0.6103542077,1.0374003324,0.1781723942,0.63454642,-0.3954633588,-0.7831563312,0.5591237306,-0.0591240887,0.5004490191,0.0920263543,-0.8348450102,0.8666423516,0.926244081,-0.6688366949,-0.744114392,-0.0155822786,0.4236243871,0.2571592156,0.2258983883,0.2708101821,-0.400759512,0.0600498253,0.9712623378,0.0875963769,0.4028886484,-0.7521354488,-0.0553710308,-0.4793356559,-0.2096569643,0.4463691924,0.4921253134,-0.1584242346,0.0945844918,-0.4384349107,0.43447828,-0.5025086783,0.4484707901,0.7428027364,-0.0277189353,0.825767723,-0.3717633546,-0.4353718571,-0.7788519276,0.6865100498,-0.7829324221,0.1526846952,-0.6594932167,-0.2818174068,-0.7971937796,-2.0760954313,0.209112178,-0.2828212643,1.1309412086,0.4737622307,-0.9342430657,0.8841865993,-0.8539856514,-0.7582436913,-0.4532506948,-0.8472209823,0.7714983744,-0.5159887073,0.1495540327,0.8403966764,1.1034269276,-0.657305299,0.3545104878,-0.9257000942,-0.6700488803,-0.4385739993,-0.0132959885,-0.6382709712,0.4021603166,-0.7914364342,-1.1091672326,-0.1891222842,0.7689837084,-0.4447625961,0.430862606,0.8305455437,-1.1457774156,0.0747887489,-0.4584619006,-0.8983076515,1.061700767,-0.7897344134,1.3218253504,0.0015176421,-0.1247527275,0.6885033988,-0.8025250181,-0.2791296492,1.9606003709,0.4125731674,0.520949624,0.3444079118,1.0768203998,0.4046099502,1.8379994692,-0.8309078427,0.6883114608,0.8970923821,-0.9619328652,-0.3176258296,-0.8972461403,-0.1694246909,-0.90396682,0.2135777217,0.4720431266,-0.2558642848,-0.4216072434,-0.7145282879,-0.7821339334,0.4481397012,0.2515449058,-0.1355991729,0.8636279812,0.4967543812,0.5633895141,-0.3644270793,-0.311553078,0.2588629128,-0.3017075938,-1.2888353061,0.4179016603,0.2267558707,-0.6590264107,-0.5576112915,-0.2439511978,-0.590501503,-0.4162523679,-1.9353377292,0.9423949362,-1.7102268822,-0.3545974537,-0.5250312906,-0.1842313615,-0.8469632195,1.6174021185,0.0052895614,-0.1881514965,-1.1969514033,0.5616964292,0.6218842468,-0.101551037,0.9191802777,1.1841515745,0.292504007,0.2056419526,-0.4403123605,1.6884236235,0.3541946221,-0.2612171297,-0.7422105084,0.8457285733,-0.0411510222,0.1098532875,-0.3820715836,-0.3611507988,0.8358545529,0.4835883329,-0.6132667132,0.7011737334,-1.0929005845,0.2648052491,-0.6021462981,0.156377179,0.7776486201,0.0415429253,-0.3180223114,-0.6407550847,0.9768793719,0.3227392745,-0.8928551272,0.1237630938,-0.3490865759,0.2208011628,-0.0558994174,-1.0035488339,-0.776930842,-0.0220795894,-0.0290145537,-0.7009510592,0.0597216164,-0.7100578564,0.7279604207,-0.2159885034,-0.7993955553,0.3121194028,-0.483835455,-0.2702220157,0.4985286864,-0.8202503638,-0.3096356017,-0.1440758315,0.7468432438,-1.9672286001,0.5082439889,-0.4952633253,0.8762306286,0.6309763825,-0.4998681624,0.6250021196,-0.0021824362,-0.2695612647,-0.7167486724,1.7515587677,0.3989900831,-0.5763086684,2.1539123177,0.6847962108,-0.7889327328,0.5067906424,-0.7415617908,-0.1207401043,0.1946506265,-0.9283476319,0.8871400842,0.4337922274,0.8341158105,0.6762618695,0.1302768512,1.4100458514,0.3185140198,-0.9309364952,-0.8469732407,-0.638221118,-0.230614496,-2.1864266939,-0.7506463581,0.9453543221,-0.1074433371,1.9725878476,-0.9773537799,0.2347366152,-0.1508801346,-0.5176219855,0.8568777084,0.1667495516,-0.4874202716,0.0003707931,-0.0472814575,-0.9654460965,-1.4987480813,0.8094360432,0.9946372017,0.0559255067,-1.5938909358,0.5592252333,0.5814064794,-0.7450792841,-0.5498920471,-0.0083223876,1.0827818645,0.3797536422,-0.3316281847,0.1293226356,-0.3698222391,-0.1618346556,-2.9817782817,-0.3159873809,0.2684217482,0.8086675786,-1.5458949055,-0.8961524471,-0.279550799,0.0116465451,0.3741739192,0.0922123818,2.5151416203,1.1566996806,-0.9411064089,0.463937943,0.8805392273,0.087086323,-0.6572065669,0.3584728261,0.0667343175,-0.5031092369,0.0503990855,-0.3265631933,0.2264791226,-0.0762494611,1.0053661825,0.6594996603,0.5040777271,0.5398065878,-0.3511090703,0.7894618565,0.6933831343,-0.3075099373,1.2446010189,0.2977039999,-0.2272739928,-0.9341723859,-0.5188762961,-1.8160234157,0.633120344,0.581556634,-0.308595169,0.8889411687,-0.6988101765,0.7033069832,0.7033106669,1.0352310928,0.5508671149,0.3991212456,0.6826369009,0.0579780311,-0.2572318113,0.1224519526,-0.2331363564,0.8088822076,0.1754521706,1.0303334073,-1.3485201964,0.0441158031,-0.5542262143,1.0037889747,0.413569566,-0.4819883819,0.3072743801,0.2754068364,-2.9269401869,-0.6227061658,0.7706353052,0.4244023993,-0.2845129031,2.0909383829,0.619458579,-1.8567473679,0.5773161179,1.0357187934,0.3060928959,0.157724542,-0.4794576559,-1.5763838555,-2.4316733332,-0.1499402785,0.7335449546,0.5443782442,-0.4333899598,0.5515376141,-0.4153548421,-0.9253736398,-0.3308433392,-0.0409100576,0.5533088783,0.1484343697,0.0885681067,-1.1940273722,0.4404732581,0.2144657344,1.4140977199,-0.7870462385,0.3428138454,-0.0879447914,-0.0215832691,0.3786697446,0.3244601539,-0.0233659015,0.2606903984,0.9153884326,1.105867708,-0.6970474048,-0.7313050016,0.9580741661,-1.0021872019,0.6881673417,-0.5306994295,-2.1299650919,0.4710504097,-0.3819505775,0.414245544,0.4910428228,0.5291517735,-0.7737059123,-1.3933549594,-0.6590502873,0.2709185596,-0.9996568676,0.2994488864,0.5054272973,0.3537683088,-0.5748534238,0.0848622838,-0.9194704826,-1.0214810955,0.8388964106,-0.1978071102,0.0446394911,-0.7691388607,-1.0772704292,-0.1030017278,0.1429845308,-0.3839204206,0.6496128635,-0.0944413124,0.3856380736,-0.4565488428,0.2297545369,-0.5298662649,0.8923317863,0.4224116806,0.1926154508,-0.6677880416,0.3333690932,-0.8295883406,0.5596943093,-0.5526029879,-0.8267314476,-0.2986802204,-0.5433594961,0.1255066919,1.58283541,0.3975598346,0.7470887722,-0.9081873667,-1.0872413418,0.0812766586,-0.468645547,0.5575239693,0.6143088327,1.257288941,-0.6449505671,0.3410936177,0.5083695213,0.9174485413,-0.1141160369,-0.1356063331,0.2887863347,-0.7250923087,-0.5058345322,-0.4868774113,0.6492028152,-0.5156145308,1.140007971,0.1968417172,-0.3847055809,0.034002535,0.6398131956,-0.5004735106,0.098366034,0.4168233031,0.6601979644,0.4000245129,0.7713880714,-0.546261293,-0.8444567605,1.1132023935,-0.8616712106,0.7225079055,0.5747311843,0.2047872947,-0.3616334131,0.9762869345,-0.7658640732,0.6088044839,0.6571388722,-0.7839707658,0.1645926899,0.0803559752,0.0596180579,0.7330750171,-1.2576180067,-0.3364012272,-0.0998204907,0.1436540862,0.0042392688,-0.3488380299,1.2582852932,-0.7750815337,-0.0537753506,-1.2802733721,-0.4166870736,0.1662126413,-0.2946319638,-1.2897270469,0.2175298494,0.5544937826,0.6040301364,0.1372921525,1.4597372327,-0.0908271757,-1.091451513,0.2685866901,0.5678574812,-0.3475313756,-0.4867649541,0.514644736,-0.2600049741,-0.7292035647,-1.458199299,-0.783459635,-0.4686959525,0.5111666011,-0.5880067114,0.3838190724,-0.1206945044,-0.870885739,0.4236152903,0.5109997578,-0.2548616929,0.7317367137,-1.0171517792,1.5957835153,-0.2963275165,-0.716180888,0.3926722256,1.0814851536,0.9382274029,-1.8283227608,-0.2823183656,-0.6070903337,0.2880888926,0.6204153754,-0.0496506309,0.3733361273,-0.3081801659,0.1168734734,-1.0844780335,-1.3537616647,-1.0744885757,0.4211380614,-0.1111802401,0.226793675,1.3906060441,0.9414570978,-1.1476021342,1.6311309487,-0.7357357322,-0.825209152,-0.6325887582,-0.724733851,-0.9095394948,0.3315459388,-0.9377482551,-0.3303528274,-0.0265348042,0.8436777127,0.4332016121,-0.5130049977,-0.842346307,-0.3859740795,-0.8212978341,-0.3915643808,0.0869280062,-0.3221929053,0.4210828974,-0.3756320515,0.9592299065,-0.3561487369,-0.8547472136,0.3351598897,0.284761805,0.6469029085,-0.2881178182,0.793909057,-0.0499602415,-0.1333802936,-0.0421465543,0.4148012018,0.2295476035,0.1676182664,-0.3425232565,0.8470518017,0.2339393011,-0.9323168875,-0.2036265725,0.8105787047,0.3504807404,-0.1995383561,0.0051623318,1.2129379391,0.8480824073,0.3191754775,-0.0640233232,0.1487938447,-1.2874868504,-0.8484975575,0.2832496939,-0.6465172502,0.7961605684,0.3416125738,0.6085499948,0.088259261,-0.0264077303,0.3194337298,0.9588746865,0.3282356697,-0.4729098905,-0.3080441591,-1.6103595077,-0.4116488727,0.414840829,-0.2745533078,-0.9582635341,0.272797007,0.3345931035,-0.1543695385,-0.9943536845,1.2568981321,-0.4522752654,0.9091186449,0.3814402852,-0.286735272,0.3872709072,-0.6473866612,0.6375582344,0.5001705827,-0.4609005073,-0.000655637,0.1316191666,0.6933742709,0.642913657,-0.7691570778,-0.1777390691,0.0371867637,0.717721255,-0.6588939189,0.76585091,-0.2588188319,0.9600784446,-1.3192887967,-0.7265783065,-0.295430129,-0.3334721164,-0.7414037659,0.5955555926,-0.6641966037,-0.4093430034,0.8210975566,-0.9709911084,1.1425589221,1.6225167343,1.0149211102,-0.5872988663,0.5381075716,-0.305098814,-0.6900441356,-0.522141769,-0.7081210078,-2.063665787,0.213814695,0.0913516226,-0.4732277728,0.0262607285,1.3585901877,0.7170677038,-0.4868382954,-0.5563418073,-0.1380486246,0.4982508604,-0.3970225799,-0.6034377347,0.301198179,0.5461259417,-1.1599052295,1.3999187557,-0.6701207408,-1.3010660946,0.7645415234,-0.6102039973,-0.5289334841,0.9892197589,0.0717351743,0.8935490628,0.3180808463,-0.8512400254,-0.1976836679,0.4040646463,0.3563685882,-0.2705079076,0.5267225144,2.0715720368,-1.5750709587,-0.5542740686,0.5940847801,-0.4692183373,0.9239681188,-0.409550495,-1.9256006253,-0.8923744638,-0.7500508813,0.7489145196,0.10854618,0.8160487727,0.3287140345,0.6089514014,0.3446764381,0.0407631537,-0.7562935715,0.9078871583,-0.4321295334,-1.0706595601,-0.0213936004,-0.3540577601,-0.1357876765,-0.893926506,-0.4302377803,-0.1775327769,-0.2006621564,-0.3445572377,-0.0975196956,0.7790276753,0.7735806596,1.5350970479,-0.130507363,0.8100724254,0.6214930665,0.7025381038,0.209729098,0.7438765052,-0.8690777404,0.8727638889,1.1666858224,0.4133283054,-0.8259164292,0.6406676848,-0.3775932964,0.8352711108,1.078264156,-0.3196198935,0.4577163779,1.6494641556,-0.4941879626,-0.5260496427,-0.661281619,0.9711692548,1.8475273015,-1.3200171452,0.935724248,-0.9008493777,0.8906299685,0.7495651433,-0.1773983437,0.439266285,0.1404956138,3.9800369123,-0.0171904202,0.6700597648,-0.4983260168,2.2035702795,0.896211652,0.8444047629,-0.1977945505,-0.7428350143,-0.1511656259,1.1439935268,-0.5825366035,-0.1870535882,-0.1079721898,-0.2162893135,0.0222961355,1.7951468349,0.4024174558,2.3278845788,0.0147478598,0.1869123735,-0.2519792731,-0.6769764577,-1.9047288164,0.1874583904,1.0140867083,-0.4865800834,-0.9141221458,-0.0781217074,-0.2793888374,0.0561099985,-0.0347532021,-1.1935451992,-0.2400825549,-0.7647086696,-0.7589999138,-1.1664203317,0.4846124155,1.1442366151,-0.1315326829,1.6917176424,-0.3809053805,2.0556906301,-0.0076454224,0.8510206399,-0.6691394475,1.2508216772,-0.1677751835,0.5986443298,-1.7183635696,-0.5830620415,-0.4812935122,0.2597348508,-0.8226094249,0.3121605259,-0.9684684149,-0.7826429479,0.5164860427,-0.498090756,1.1654105135,-2.3831564009,0.2924729912,0.064196948,0.7228804549,-1.2496924649,-1.3576649301,1.0096062624,-0.147690276,0.7757418866,-0.8388779241,-1.0296839604,-0.1987007203,0.4089206998,-0.5771249423,-0.0355392575,0.8175996032,0.0544976897,-0.1651491972,-0.8583821711,1.2532580848,0.3674148699,-0.3550689246,-0.336940074,0.0372241137,-0.5729487938,-0.8329645799,0.7541432047,-0.5637043273,0.6287331763,-0.8076223517,-0.8588700298,1.0461850828,0.2280743278,0.1992292823,0.985915001,1.7515474841,0.2914946449,-0.5132276173,0.3624425523,0.7843375077,0.7758923873,0.5183919264,-0.9847059815,-1.0065755746,0.7776982508,-0.1181519628,-1.7830374544,0.2760013907,0.2874902368,0.0319554437,0.838856418,0.8521239633,0.3572031134,-0.4866822447,0.0949705288,0.2161881392,0.1195882487,-0.5847818319,-0.5822612407,-0.1164066201,-0.0524651798,1.4851186589,-0.5864031122,0.0922726641,-3.7210262318,-0.5077731908,0.0369748429,-0.4595210902,0.2870016581,-0.4590577541,0.6028055094,0.953506315,-0.9753193777,-0.4134542451,-0.708393147,-0.4674372199,1.1581826283,-0.7221202232,0.1250560425,-0.2685318308,0.2030331523,-0.2407650699,-0.6804034773,0.9363890119,0.7851586402,-1.7983668549,1.2986659725,0.2921167713,-0.4300824374,-0.3692353698,0.9621398524,0.0354079576,-0.238403431,-0.6648932387,0.7330803667,-1.826286031,0.2638505511,0.0867003337,-0.1965901531,0.0523112912,-0.7444646268,0.0595017494,0.284068444,0.7534921558,0.5904434396,0.8296659714,-0.5150722945,-1.3118296104,1.9357489775,0.075516952,0.0528121294,-0.157961729,-4.2795579999,0.7680882687,0.3166526713,0.5211643035,-0.2235353435,0.885602843,0.2030417645,-2.1007165486,-0.2704008817,-0.4778107818,-2.0624794193,0.8436397893,0.0089003159,0.8882468151,-0.0813502218,-0.7620926629,0.8022827795,-0.6185700319,1.0370031139,-0.4660296695,0.5871746181,1.1803251839,0.0884569278,-1.2139206141,-0.6334378691,-0.2957073872,0.3744896316,-1.0122927402,-0.2052254144,-0.4079319476,0.28650808,1.2047475677,0.4635563257,-0.6644945155,-0.324553601,-0.7085351921,-0.5308049145,-0.0840870233,-0.5326813312,0.2005955352,1.264511485,1.4623483867,0.4168431308,-0.1295533414,0.4264024408,-0.3291317627,0.7227648637,0.2816693616,0.4046885277,0.7258588554,-1.2562544983,0.4527359651,-0.742026032,0.3592924884,0.2703509598,-0.0481281266,-0.6381947595,-0.0358212611,-0.1288623287,1.3204311879,0.2762971776
   -0.2957650883,-0.4022176761,0.4344772841,-0.7475567943,-0.5736241459,-0.1633450049,-0.8841791552,0.7299700057,0.1509455897,-0.2135377246,-1.0554053983,0.5239086186,-0.6068835098,0.6103655549,-0.3505877354,0.8734957823,0.7280305646,1.0178001958,-0.5908566373,-0.7144518697,0.2031989892,0.8574911898,-0.5823522867,-0.0899710638,0.8452600121,-0.0419999645,0.1171615597,-0.7311875455,-0.0212032932,-0.2242760756,-0.6628121728,0.6816177414,0.7027365127,0.1779707396,0.8453341363,-0.2050369114,0.2723527707,0.9834599206,0.0872814254,-0.3692819217,-0.7467883661,-0.4135370906,-0.3364500279,-0.3767812541,-1.2996631109,-0.3699116706,0.1863529044,-0.1374989755,0.37555831,0.0316125459,0.9833236778,0.1018474089,1.2770009848,0.8424345944,0.0838278971,0.6394360446,-0.3686813144,-0.347277722,-0.0424480805,-0.4908203224,-0.4652998364,-0.0635192159,-2.0936167045,0.6119762595,-0.3589489872,0.4759721771,-0.6114578482,0.0477151696,0.9222047238,0.2790210332,0.8347239937,-0.7698423404,0.122608264,0.5760390569,-0.2091308668,0.9034499647,-0.5955106598,0.6492542015,1.2696784875,0.1360590745,-0.4261589706,-0.5024964009,0.8093228041,0.5036583388,-0.4689387239,-0.9421551438,0.1392995486,0.4157681234,0.5541957408,-1.0207157367,0.2132209391,0.128435734,-0.008061095,-0.0513760452,-0.6641324055,1.648808185,1.2697416566,0.8844780305,-0.0811209836,-0.1021690538,0.0395148517,0.3567057667,0.70599892,-0.2017154227,0.6733779333,0.3381647926,-0.1212867811,0.1315640717,-0.89448303,-0.0674021865,0.4521169685,0.2903695952,-0.1985143719,0.7385392245,-0.652522091,-0.1618033299,1.5717553492,-0.5632837373,-0.7995683549,1.017822561,-0.273861447,-0.2601543766,0.0533122307,-0.0221752093,-0.5242869167,-0.1159319363,0.8491604886,-0.1499814947,-0.6632123176,-0.7124475065,0.2037077334,-0.4653030122,1.2247154323,-0.7283692016,-0.9880241154,-0.1545448485,-0.9953437026,0.8488574557,-0.3471887153,-0.3499819463,1.4022433534,0.9656236072,-0.6116945127,0.0261886129,0.544189028,0.3932899915,-0.1836690324,0.3046128329,-0.8091862794,1.522643976,0.8382554828,-0.5159942898,-0.241226407,0.9407730999,0.4833807875,-1.7061565924,1.3077659009,0.213209082,-0.6198534519,0.2332027842,-0.9232512001,0.2248963164,0.5460956138,-0.4875117359,-0.9452709138,-0.2040630668,0.2976172649,1.4659453784,1.0731812636,-0.43684086,0.7864849239,-0.5995598351,-0.9851836081,-0.1229682131,-0.5225682704,-1.0064896929,-0.8325820613,0.3376803951,0.9655036729,-0.7214674846,0.3130222962,0.9143449769,0.7760141303,0.6344306251,-0.7475091166,-0.512809518,-0.2775314541,-0.0942019463,-0.7593071942,0.3050405928,0.3745144642,0.0456433148,-0.7320733707,0.2479288159,-0.7485813272,0.8851526293,-0.6364913883,0.3451112207,-1.260644068,-0.4785491019,0.3091973308,0.0590589882,-0.1156480273,-0.3715482227,0.5377673597,-1.0931741164,0.4273906018,-0.2379734329,0.6752726788,0.7971428967,-0.4573933865,-0.0632735274,0.9960688307,-0.3486759972,-1.089995221,-1.2375077486,0.0573342268,0.5870296715,-0.3253394457,0.0014214282,-0.0346651639,0.500112942,-0.8865071225,-1.1452294552,0.5028177316,-0.4563524723,0.8250216273,0.250462592,-0.6259313151,-0.3734067076,-0.0991778985,0.4982099519,-0.0753292666,1.8220905728,0.2016459832,0.2681131673,-1.1403593417,-0.3203497044,0.6935029101,-0.2191121676,-0.7550545886,1.3179330605,-0.1783825068,-1.2405685032,0.8522873306,-1.3786791168,-0.0704611561,0.0089480186,1.0898610733,-0.766530332,0.6705746196,0.102561519,0.1405195893,-1.3531072022,0.6911631445,0.8599724157,-0.239027941,0.5452633761,0.9040478958,0.776269322,-1.0390199915,-0.5491768157,0.9766973166,-1.6593473906,0.3750746324,-0.3684650137,-0.1975724356,-0.3037252796,-0.2757429813,0.2654006746,-0.8037546264,0.1310296071,0.5319148516,0.1100770122,0.6076011072,-0.6654037711,-0.4123016068,0.8272217477,-0.8893142384,-0.0886061518,0.7060798914,-0.3037045796,-0.5489936662,-0.6423710763,0.1808998259,0.6500635382,0.0224365337,0.1990092453,-0.6035046105,-0.3687151213,0.7234996151,0.1280862853,0.2418852348,0.0349475172,0.4364200537,0.2892762225,-0.964519205,-0.3304756378,-0.6752251982,0.7421444746,1.5758661183,0.7400378678,-0.3528338281,0.4612593021,-1.7422865303,0.139606321,0.1784180243,0.1742340517,1.4274602328,0.1114486001,0.5924756393,-0.0713645931,-0.0588587944,-0.8793308414,-0.8618885398,0.2258134764,-0.313045942,-0.8562581364,-1.086494923,1.0462032748,-0.5076015043,0.3880880707,-1.083935719,0.2087323338,-0.3128682733,-0.3834912539,-0.2607406867,-0.1750750401,0.8461436845,0.320720741,0.7250757582,-0.621086919,-0.4874082789,-0.6517072748,-0.1257165895,0.9787101633,0.6771895455,-0.2432409033,-1.1537247957,0.1184410601,0.1182333304,1.4324915551,-0.9472336772,0.2322842138,-0.4407142023,-1.4807647279,-0.1783335692,-0.5580520407,-0.9320563877,0.8485059351,0.0718233265,-0.7541398681,-0.3633264242,0.4455391462,-1.1825706471,-0.4218431159,-0.712128486,-0.0271441257,-0.4039702029,0.0968016839,1.0012103403,0.6718778589,1.2264077337,-1.1298913535,-0.8824215394,-0.6221243046,0.9877126981,0.2104194784,-1.0785943791,0.6492590012,0.6258327542,0.920466117,-0.5688992631,2.8579016102,-0.8098592877,-0.0652678334,-0.5003018199,0.3561570338,0.0674798871,-0.0658095539,0.4816201442,0.9476289674,-1.3086364879,-0.3189935051,-0.109952157,0.7560743785,-0.1877773368,-0.2810564869,0.1135037311,0.7138588738,-0.2866067915,0.2548864622,1.1809714261,0.1529644982,0.1895345298,0.4927246286,0.3261491206,-0.652302024,0.8058482762,-0.0202628405,0.4313418866,-1.007924167,1.3174360138,0.8619568413,-0.1267024206,-0.884077115,0.0324683711,-0.227193771,-1.1085505248,-0.5018467811,-0.6958478585,-0.720546519,0.6739537754,0.2457642576,1.7703645889,1.1936523495,-0.2983896506,-0.3752558718,-0.1211300469,0.4201296324,0.4298809113,0.2617723415,2.0058215166,0.2325166462,-1.9221785662,-0.9264982576,0.2185601003,3.1833124609,-0.464908358,0.0333275592,-0.661919446,0.7642479233,1.7105836257,-1.5469690572,0.6310967151,-1.2570436924,0.6148241252,-1.0156817769,-1.7080158576,0.6357243072,0.1075226722,-1.1979565975,-0.9054457942,0.077703714,-0.9121204355,0.3083136175,0.9299571797,-0.1706063752,0.4854210086,-0.1594286142,-0.0698636883,0.9645973617,0.3817142602,-0.6458684103,-0.7993168606,0.8790054658,-0.539862992,0.2186634612,0.701470134,-1.7336929233,0.4684882579,0.6887596364,0.4440652398,-0.1558679912,-0.0559176088,1.4815274983,-1.0710065756,0.0446067485,0.8536732865,1.3741386086,0.8665674278,-1.2445284553,-0.1198253637,-2.7247917704,-0.2009121077,-0.461350094,-0.1364677347,0.0401303893,1.1649714179,0.4163185065,-0.6931998748,0.6001850434,-2.5058676434,-0.5371693795,-0.4917152651,-0.9800980531,0.5945548157,0.19134447,-0.5144415365,-1.5921805716,-2.1440639364,0.1626942645,-1.2820567101,-0.6546255143,0.3012824742,-0.1267792379,-0.8514612254,-3.0046751595,0.8488670482,0.2747264411,0.794831453,0.2077481056,-0.6611128227,-0.8664412397,0.6782398358,0.563681124,-0.3332677258,-0.3527186886,-1.2018773323,1.1804116964,-0.9189246401,1.0099712518,-0.5795537477,-1.6740709338,0.1030248934,0.1411323967,-0.3554863363,0.1826082422,-0.7744076424,-0.0554999314,0.8148107711,0.2593045721,0.0469709747,-0.9409093535,-0.2112363699,-0.4162099935,0.8227140839,0.0251338231,0.5085264722,-0.8679851324,1.3921727761,0.0916935877,0.3972537811,0.2252214774,-0.776082026,0.6184261261,0.870917469,-1.2820304267,-0.282543101,0.8245677306,-0.6473244629,0.597169885,-0.6612907085,1.302040809,0.0929211024,-1.0012174612,2.7722836456,-1.8722535861,-0.7668199634,0.715963347,0.2770376351,-0.1939803146,-0.8493118955,0.2794648774,-5.0650150584,0.3054674591,-0.5131586796,0.6851893938,0.6266316228,-0.4065258021,-0.2409909512,0.7077044891,-0.4997421657,0.4272761122,0.5059033743,-1.2407721808,0.4676745357,1.1664130084,-0.1403387583,-1.4584943294,0.5570525121,-0.0916480984,0.8941338503,1.2478327618,-0.6972245339,0.0599328847,0.7495429416,0.3241622209,-1.1562523608,-0.4579249335,1.0451861753,0.4745606115,-0.3787094652,0.0062785875,-0.9754325946,-0.792280185,0.2005363704,0.4962643554,-0.3418799676,-0.155423077,-0.8141351686,-0.5951962884,-0.3592313539,-0.8380716086,-0.0261479216,-2.0970718091,-1.30355033,-0.1632379187,-0.6944291908,0.6081267135,0.2234328217,0.1877482681,0.6768035964,-0.4235009315,1.0980042057,-0.6123290184,1.0164157615,-0.8326892238,-0.6628306909,0.3169307455,0.1727544675,0.1276621195,-1.1125945761,1.229484995,-0.770374332,-0.3728098857,-0.4272669146,-0.1944247235,-0.0350476795,0.7992354164,-0.363777856,0.8131326852,-0.1112848349,0.2280446795,-0.700346529,0.7648998011,-0.657724749,-1.4936439539,-0.4704669175,-0.3492107945,-0.0949610147,0.5768878248,0.0050915103,0.2855854407,-0.1554320182,-0.3899885696,-0.9823102943,-0.1954562466,0.986141892,-0.8932274286,0.4878504189,0.5843682632,-0.0768238654,-0.3464925576,-0.7185268139,-0.3873964962,-0.4600380051,-0.7022948426,0.2211207587,-1.2226667936,-0.091992958,0.0538748268,-1.4387280883,-0.9165769928,0.2372068457,0.4750703742,-0.5200461537,0.7326595591,0.1855166044,-1.1104771739,-0.8651938643,-0.1308796331,-0.3923497031,0.8291983595,-0.1167782481,-0.6684636971,0.9863521584,-0.0107173802,1.4094829683,0.2676843553,-1.0423465594,-0.6754543068,0.7245239801,-0.1081929047,0.5540819202,0.7302335284,-0.5044539763,1.0306680062,0.8997391278,0.0671075898,-0.2602972894,-0.3810126562,0.1559544022,-0.0772644042,-1.5695044818,-0.1066895846,0.5098100562,0.5152038576,0.703167458,-0.7366395743,0.4159080369,1.1117811503,1.3558729614,1.3031885092,0.3337258096,-0.6037310444,0.6837100807,0.2442579706,0.2668584521,0.042099357,0.559428879,-0.1772384102,-4.0630031237,-0.1424623309,1.739461509,0.1349566006,1.623557625,-0.2646827816,-1.9383881519,-0.5810196432,0.2692299131,0.4113914456,0.5796821626,-0.7908230102,0.5092920216,1.1742569563,0.7864982467,0.2380891088,0.2057979391,-3.8165053698,0.5986175252,-0.396124812,-1.8496344298,-2.0345860867,-0.4249982802,0.7340634449,0.6388500801,-0.376615828,1.6937184983,-0.6129455445,0.5498386554,-0.8781302952,0.7965659132,-1.5846071681,-0.7283669678,1.0077535309,-0.1094882489,1.2844235988,-0.8276408468,1.108111083,-24.4378058743,-87.872633623,0.7869793831,1.0137420843,-0.719024465,0.7169128307,-0.0342030613,0.6484103139,0.7320457454,0.8832697676,0.6678633556,-0.4828660268,0.1550575971,0.023846949,-0.5642743322,0.0292355645,0.353095999,0.6152710603,-0.5746085884,-0.6259382381,0.053245639,-0.6915368739,0.9225157473,0.5944670075,-0.0217161977,-0.9170355658,-0.0990064518,-0.2149338751,0.8543653016,-0.7090412371,0.6407253125,0.3073024105,0.8977453914,0.2042528519,0.9128511712,0.5831601947,-0.2074306726,-0.1722765702,0.3234190388,-0.1996061459,-0.3594459027,-0.4844191085,-0.0054617317,0.6895552184,-0.362326817,-1.3305280945,-0.0965464448,3.0482757586,-0.6941005664,0.7022459262,0.3308106062,0.4764057276,0.0005923233,0.5445956349,0.4884782861,-0.0613495044,-0.6275017526,0.4746492935,0.0076061249,-0.0634214446,1.0081360275,-0.5373432164,-0.6543828143,-0.0824095245,0.5341235765,-0.5945616204,-0.764829337,0.417035299,0.7359179844,-15.6815888453,-44.2608900038,-0.7309627482,-0.4730476756,0.236469537,-0.9670040565,-0.5206698946,-0.9917102078,-0.9701310276,-0.5187305937,0.1752352888,0.7609759392,-1.3113962229,-0.4668011228,0.1986951661,-0.0291669112,-0.3588019099,0.3123645169,-0.8546627977,-1.1770296577,-0.4973499894,0.3556193126,0.5434860521,2.6069998761,-3.8875713582,-0.2717823521,-0.8222637166,-0.9030826831,0.1236301803,-0.3058629663,0.2639101847,-0.9018344016,-0.0871626257,-0.4687922335,0.0174391035,0.618130421,0.288351865,-0.7744218308,0.8707803174,-0.5216314577,0.0204954759,0.2283438542,-0.2962919455,0.4595813281,-1.1634945957,-0.7232498528,0.5543947197,-0.545602605,0.5278550005,-1.0497179385,0.6433074734,0.4130583299,0.3053231791,-0.204179115,-0.5207620579,0.1154387609,-0.2279683339,0.1163438114,-1.0093279613,-0.6985601122,-0.4165271098,0.4875979908,0.1896145913,-1.0974796011,0.660952239,-0.7230369421,0.4109969209,0.1425343976,-0.2122866899,9.4185553181,-0.5545596398,-0.5050934676,-0.8711621636,0.6663268428,0.1178774678,0.4214364748,-0.593391862,-0.7566967251,0.0559374905,-0.1367823199,-0.9286284323,0.4537573821,-0.9269145284,-0.5916510584,-0.2244662713,0.3828422256,0.4796726773,-0.8423263369,0.2861049538,0.4813967193,0.6677948139,0.6062183184,5.746889123,-3.0731052819,0.7235828851,-0.5803650621,0.0442059093,-0.7284283888,-1.0553688146,0.7308597176,-0.0836260307,1.0066034454,-0.3701431789,-0.8343238067,0.0625473297,0.2193861728,0.9836041083,-0.8973699879,-0.1578260192,-0.8556964396,0.8158769693,0.7529679268,0.0806347089,3.2867063235,-0.6464110102,20.2885584429,20.1900571457,0.1926753686,-0.228369548,-0.1173444831,-0.3683534214,0.484613873,0.3267986164,0.8199173077,-0.9817625503,-0.1058448087,0.499007869,-0.8869447835,-0.922804012,0.0531949992,-0.0992642882,0.2790269628,-0.1756100943,-1.025517991,-0.8825442641,-0.543504371,-0.2331951505,-0.7105622615,-1.3086085953,-6.1462306503,0.3053184591,-0.392244933,-0.2362278348,1.368690361,0.3627174109,0.1558521184,-0.6529185975,0.5969777631,0.6234236101,-0.6155290681,-0.4180080069,-0.2467749356,-0.2323938543,0.854559493,0.269164951,0.6033425239,0.7105418024,-0.3850084589,0.7089292144,-0.5145963093,0.9851102513,-13.0400246702,-14.2920855307,-0.0663195458,-0.3306085348,0.4174854599,-1.132650117,-0.6887080615,-0.0724867917,0.0968732837,0.6085034196,-0.4335776787,0.7211440814,0.8573727947,-0.8020477115,0.9448208126,-0.3377959119,0.4120251311,-0.8949445578,0.3550217659,-0.2249004989,-0.5578532484,0.2271571143,-0.5003579002,-8.732786254,38.7356336193,7.9182078176,0.3141708829,0.3641512301,0.9739882672,0.5257106898,-0.4767455006,0.2678968798,2.7447994468,-0.1357411365,0.4101774496,0.7611226108,0.9186141819,-0.0018396017,0.5275089936,-1.5841436029,-0.967998981,0.7071551823,-0.2737998038,-1.4288889791,10.8584079551,0.4539327959,8.4040973936,-9.2459824322,-0.8872224138,-0.8077964631,-0.2105095383,-0.7325667027,0.194302646,0.2009537421,0.606142609,0.5877820629,-0.155226109,-0.3661357807,-0.7915235855,0.5937385505,0.3748189773,-0.4099296017,-0.5042230452,0.6839041552,0.7977168838,-0.2039999482,-0.4147750273,-0.9727743892,-0.5745678769,-10.2546045375,-1.859888484,-0.0687684766,-0.0981644967,-0.7531870734,0.3791681576,-0.3676098535,0.6910180207,0.0413845052,0.6022078539,-0.1799441143,0.4462441684,0.3981486544,-0.5645866995,0.0832582227,1.2780459925,1.0934125042,0.1917839729,-0.0651361098,-0.3224338831,0.3222698897,0.0842516588,0.2921478355,4.3381181508,23.8412358546,0.8522326322,0.0497960301,-0.1956472297,0.220157924,0.8841364238,-0.4582453669,0.9301272168,-0.4613191332,-0.9499641842,0.4465861703,0.5104902498,0.8220692947,-0.4996389353,0.7966939436,-0.1087943971,-0.0479945832,0.5198387662,-0.518042876,-0.7984925386,-0.369676715,0.1310011168,0.4843069041,-0.5619147202,0.7081981322,0.1386563152,0.7102876303,0.1550049276,0.8096984972,1.2717372082,1.1181284012,1.5620483821,-0.2337355735,0.6845984144,1.1851972165,0.5691722914,0.6563086475,-0.3073490077,0.2118719041,-0.3860010373,-0.3731635283,-0.5920844469,1.1302805656,0.0165956737,-0.6791626438,1.7046703564,-5.4171118438,-0.2774329672,0.9243980852,-0.3467082861,0.8445106392,1.2870252246,-0.557351094,1.5066100727,0.091209549,0.3848905176,-0.4671094561,0.377344057,0.6652643936,-0.689854128,0.0949046036,-0.1055446194,0.1212204122,-0.4025330385,-0.5184282341,-0.2960681088,0.182070425,0.3688041857,7.8885523849,22.786747016,-0.6447538953,-0.8825684099,-1.0573302677,-1.0763423428,0.580114099,0.108007177,-0.5201578877,-0.0744671377,0.2414604648,-1.4599889674,0.6975829822,-1.4347310163,-0.4288706298,-0.1002765548,0.3893994133,-0.5450825255,-0.4995675254,-0.1467582039,-0.5688883903,1.3509781733,-0.3670976494,8.3078217294,4.6317087287,0.5352992065,-0.2706084931,-0.8655321378,-0.8336472109,-0.8588220297,0.181733832,0.8441423067,0.4826533061,-1.1686416427,0.384847394,-0.469477623,-1.101359833,0.5235900049,0.6226549214,0.0361024453,0.4041561036,-0.3851710724,0.5294310201,-1.0049105845,-1.1023698186,0.8489804758,0.0336521891,0.6492255081,-0.6445553312,1.0757197447,0.0036874884,0.5290373903,-0.4808761609,0.2927638146,0.2332231011,1.0920223308,0.6119583292,0.1433739962,0.8895818677,-0.0964255518,0.6460579012,-0.7072737301,0.8515143984,0.443886034,-0.2216892527,0.3635798049,0.2757852758,0.4894720933,-0.5401392697,-8.527228334,-4.4899156422,-0.849414402,-0.9092220272,0.102066211,-0.9347479276,0.6504366335,0.4271480089,0.8880231607,-0.5448668844,0.4615659338,1.02080997,0.0261967531,0.3845519265,-0.2053146579,-0.0799614811,-0.0519452715,0.3223070491,0.1928716269,0.8515141039,-0.2348064181,-1.2435128346,0.7517763023,-3.0875579795,5.0612879,0.5664610192,0.8468808828,-0.9361998659,-0.7529658044,-0.5466404807,-0.3167620175,-0.5739967102,-0.2837031512,0.0407653636,0.6426327127,-0.3447156198,0.1891722472,-0.0574012374,0.544214305,0.4283655123,-0.4494507677,-0.2297621345,-0.3550167492,0.424132363,-0.4364090408,0.0436486915,16.2226178491,15.3737375301,0.7497398143,-0.2369823794,0.4649528076,-0.2369515057,0.8081659075,-0.7184342855,-0.9112527679,0.8452495424,-0.6274536858,0.7550963588,-0.4994790299,0.1157219319,-0.5222692507,-0.2889092572,-0.3973565436,-0.9701573147,-0.2788017555,-0.4149634073,-1.8993513399,0.0896252801,0.4936856138,-0.1000023109,-0.1364218295,0.5967771444,0.7778269361,1.3352528445,1.990773231,1.0241387007,0.2046531504,-0.014082113,-0.5907171346,-0.1558659463,1.8451050317,2.3813209109,0.7875911338,0.4926884674,-0.7611115242,-0.087577579,0.8997398852,0.1283077232,0.3026713535,-0.7303243687,0.8009546825,0.2438457639,-4.4099921653,-8.8869294548,-0.9313596073,0.8783108583,0.0412849112,0.3153960996,-0.1886664704,0.4107718155,-0.1776827405,-0.0669166235,0.4133415115,-0.7056253357,0.1787434885,0.3306279382,0.208990286,-0.1128939187,0.9443839586,-0.3002803275,0.6637292806,0.4036475778,0.6022753398,-5.2774238006,-0.5296813869,1.307063985,-4.1716470726,1.1592553161,0.0962168219,0.2410341148,-0.6353284324,0.4987154196,0.5793697621,0.0919515899,-0.5853879492,-0.0759993583,0.4878972622,0.1150755859,-0.1167802398,-0.5885011095,0.5050612286,0.9659303908,0.4126113961,-0.7781703893,-0.1574779722,0.1626994661,0.7788467862,-0.4421547358,-0.24842564,-0.9611370772,0.0393065466,-0.7940967199,-1.0263794335,-0.1565139959,-0.3939005914,-0.9360431432,-0.0707259698,-0.2734299704,0.190422187,0.101615743,-0.9886313994,-1.3703016967,-0.4882382721,0.0235165144,0.4218237131,-1.210388581,-0.9728064825,0.4430190831,-1.4255274478,0.0733404451,0.3473727095,-4.8443426942,-13.9499031734,-0.6135525419,0.6365721403,-0.7124886819,-0.0396346513,0.6022108965,0.3879857045,-0.0430189006,-0.5240535319,0.2892221834,-0.5516112302,-0.7601683098,-0.8497478384,0.1695126411,0.7252956448,0.1978583085,0.5221614153,0.0086004446,0.6192722078,0.2173234263,-0.6788536287,0.1562531249,2.3521103995,-0.7139010627,-1.1458065438,0.3732475853,-0.8146627911,0.0504896978,-0.5549007928,-0.2314681795,0.2735763975,0.5678632333,-0.0533516839,-1.304605529,-0.4888615825,0.5190333219,-0.7955229672,-0.8146147376,-1.3722220199,-0.1793149477,-0.8099207802,-1.0916962493,-0.721885978,0.3386619639,-0.948070567,-7.0310935457,-9.4374225703,-0.1608763092,0.9275821117,-0.4553716493,-0.0001445969,0.4370395301,-0.2953391842,0.1110484058,0.0289195075,0.7172520468,-0.6288477852,0.4260928175,-0.5593538761,0.9327610463,-0.8724510764,-0.6994050857,-0.5722693045,0.0863661971,0.6687224673,0.5745016235,-0.2818543597,-0.3316696227,21.3773052866,-11.4839533083,0.6190927169,-0.0403109771,-0.5094140015,1.0567936868,0.5192524719,0.507084231,0.5979196414,-0.5307944985,-0.2683118219,0.2687874894,-0.0677205553,0.4637109571,0.3579494167,0.9015244081,0.1684206142,-0.7183612952,-1.638703548,-0.6633776509,-0.3096956225,11.1664341427,0.6106226976,-2.6621450736,23.4581316748,0.704176707,-0.8555178861,1.0495407156,0.8082378448,-0.4663071871,0.3477289664,-0.2442227181,-0.5598041048,-1.1518442767,-0.7243580616,0.0886676186,0.2139367837,-0.3489622069,-0.2166958595,0.0073714065,-0.6864269021,1.0034214423,-0.6675770753,-0.6269429021,5.3705140445,0.3935224331,0.2757850851,0.0731624887,1.0018672488,1.3475405368,0.5458910299,0.4561882228,0.5537367903,1.1190777467,0.5039274148,0.9740408929,-0.136098378,1.2611236761,0.2792489554,-0.1784312861,-0.1470169604,0.1765533652,0.097124673,1.5353314199,-0.1281478589,1.2691593038,1.3437652293,0.8918190798,1.3581460844,-3.4574202588,83.7250953129,1.0193777182,0.5770291988,1.2038901011,-0.378725768,-0.4567117555,1.2824542274,-0.5723105499,-0.2650559005,0.9400100265,-0.5824979404,0.2698531051,-0.6453436636,0.4166121403,1.3712810568,0.0462220853,0.2955918558,1.066819844,0.6610997193,0.9810785092,1.3331885753,-0.8017118149,-6.0874558532,-31.8726090098,-0.0625006404,0.4642816561,0.3187357272,-0.946881284,0.3112411813,-0.9013089709,-0.7540002273,-0.5742247632,0.4184721683,0.3787305873,-0.9965578856,0.4835496744,0.7313826324,0.5733277383,0.1374714163,-0.5313517922,0.1616890021,-1.0634511657,0.5727681471,0.2701434755,0.1903784234,3.2754515483,-5.269089079,-0.8892470985,-0.4535408302,0.5519226895,-0.5665397351,-0.6204151816,0.2668260497,-0.9716211163,0.9010520066,0.1861535024,0.6359673792,-0.043082078,-0.6528943532,0.1965800369,0.6472548672,-0.9238270364,-0.4428298836,-0.9079761798,0.7283962077,0.2533427256,-0.971785645,0.5638363818,-1.9653189792,3.129699561,-0.1002399087,-0.6303959272,-0.4131213946,0.5388536827,-0.1670259341,-0.497684014,0.1902472533,-0.4345492919,0.7791233449,-0.2202734021,0.6248861173,-0.0609154037,0.0469365154,-0.6883876661,-0.0395221793,0.5224854669,0.0793380767,-0.9142638813,0.1443543568,-0.1031571622,-0.7841070078,-4.2262969411,-5.5365994489,-0.5578228297,-0.2653794832,0.1921344803,0.2120039324,0.901037329,0.206533934,0.961430867,0.5410309619,-0.1005770371,-0.6379283819,1.2951531541,2.101165577,-0.1176714361,0.9389796044,1.0628081857,0.0430634956,1.19103728,0.3954843004,0.1134693536,-4.6848253783,-0.7239859076,-1.1939964084,52.8911065527,-0.031382415,-1.0378347996,-0.1876177942,0.8450677801,-0.1456683385,0.7559624468,-0.8731868028,-0.8940692147,0.507064269,0.2353503114,-0.9903736739,-0.9663658616,0.8418680411,1.1238340317,-0.0918008946,-0.9736184313,0.2392566422,-0.4498220134,0.6370759142,0.9254125424,-0.5026842875,2.5981957921,-7.8668959395,-0.0906630905,0.9469833657,1.1658634601,0.4172507446,0.4639454576,-0.5897497209,-0.4720952722,-0.1772645486,1.2576436696,-0.6675256502,-0.4980401068,0.5566505779,-0.4439116166,0.8190658184,1.3690745949,-0.3177276955,1.2105312086,-0.2093583816,0.0535304337,4.7359149485
##end
biasActivation=0,1,1,1,1
[BASIC:ACTIVATION]
"org.encog.engine.network.activation.ActivationTANH"
"org.encog.engine.network.activation.ActivationTANH"
"org.encog.engine.network.activation.ActivationTANH"
"org.encog.engine.network.activation.ActivationTANH"
"org.encog.engine.network.activation.ActivationLinear"
