encog,BasicNetwork,java,3.4.0,1,1571655389096
[BASIC]
[BASIC:PARAMS]
[BASIC:NETWORK]
beginTraining=0
connectionLimit=0
contextTargetOffset=0,0,0,0,0
contextTargetSize=0,0,0,0,0
endTraining=4
hasContext=f
inputCount=22
layerCounts=3,31,51,71,23
layerFeedCounts=3,30,50,70,22
layerContextCount=0,0,0,0,0
layerIndex=0,3,34,85,156
output=0,0,0,0,0,0,0,0,0,0,0,0,0,0,0,0,0,0,0,0,0,0,0,0,0,0,0,0,0,0,0,0,0,1,0,0,0,0,0,0,0,0,0,0,0,0,0,0,0,0,0,0,0,0,0,0,0,0,0,0,0,0,0,0,0,0,0,0,0,0,0,0,0,0,0,0,0,0,0,0,0,0,0,0,1,0,0,0,0,0,0,0,0,0,0,0,0,0,0,0,0,0,0,0,0,0,0,0,0,0,0,0,0,0,0,0,0,0,0,0,0,0,0,0,0,0,0,0,0,0,0,0,0,0,0,0,0,0,0,0,0,0,0,0,0,0,0,0,0,0,0,0,0,0,0,1,0,0,0,0,0,0,0,0,0,0,0,0,0,0,0,0,0,0,0,0,0,0,1
outputCount=3
weightIndex=0,93,1623,5173,6783
weights=##0
##double#6783
   2.2042978176,-0.9340753734,1.1143214766,0.5731912341,-1.391859055,0.7300674563,1.2928694192,0.1165730728,-0.1520868965,-0.0951896026,-0.9950144545,-0.3610628877,0.5093730325,0.2702807328,-0.5425146689,0.55262088,0.4232728909,0.2534197784,0.4029116531,-0.2617445472,-0.9664194487,-0.5262312349,0.0487737642,-0.8016781887,0.5706004587,-0.2506776046,-0.281820376,-0.1480912326,-0.2372447256,0.1105381847,-1.0648734536,-0.3139487958,-0.6097865536,-0.5522981545,-0.3406951177,0.6996012642,0.9860573398,-0.3067697551,-0.2188274528,-0.3725401981,-0.9269358931,0.113257202,-1.0232844404,-0.6310877485,-0.0400568501,0.7847979416,0.2736918072,0.3352488908,-0.4756495222,0.4332017313,-0.3214271501,0.2615474295,0.42666365,0.4384150538,-0.2463121219,0.5758871376,-0.2653022261,-0.7718486383,-0.9987882623,0.1540734209,0.5235029862,-0.9346737911,-0.0010176716,-0.4238179793,0.8797547422,-0.037451457,0.0581235297,-0.0013854067,0.5895095318,-0.1622870275,0.4457840147,0.5946580522,-0.5511026079,-0.8730035218,-0.0827460852,-0.574096388,-0.4457786406,-0.7626590088,-0.108131083,-0.318668356,-0.0418218596,0.1107490163,0.0166189385,-0.6274885049,-0.6879680234,0.2076468757,-0.0567573405,0.3232141238,-1.0884702956,-0.0870436772,-0.2568246725,-0.1821757562,-0.562090457,0.1050419968,-1.4225420843,-1.7021504594,-0.363856284,-0.7840569407,0.68499149,-0.1822074248,0.6643997965,-0.6361495157,-0.4375234731,-0.5368688104,0.5789132208,0.6979644316,0.366516917,-0.6704432583,-0.1178273214,-0.5926029146,-0.2498971747,0.434211838,-1.128429513,-0.2782876342,0.0473779453,-0.0391256585,-0.6628865383,0.225336644,-2.646242014,-0.8169723587,-0.6988838265,-0.0050221264,-0.2615966094,-0.9895158058,0.6118036972,-0.7263993594,-0.1648084902,0.069438035,0.9285007708,0.2334412969,-0.6842990837,1.0510003503,-0.1198745067,1.4400056843,0.7358546471,-0.6616100436,-0.4396410477,1.2449971031,0.9799030403,0.8559292581,-0.9988192351,0.4573958649,-1.0685613065,-0.5819965852,0.9006101207,-0.5381791399,-0.1374878191,-0.1085875272,-1.2099495501,0.2035328095,-0.0049878309,-0.3933593772,-0.7065720581,-0.4620397335,0.3888656428,0.0533087401,-0.6021975345,-0.2361529582,0.5842913462,0.038363283,-0.2013732778,-0.1714303843,-0.8371593335,-0.6557113072,0.2100166831,-0.1214926029,0.5120356777,-0.9058515309,-0.327681968,-0.216533599,0.4381321768,0.370740252,-0.4037357393,0.1096012829,-0.4161090876,-0.3521015077,-0.3043682671,0.649671755,-0.4892866259,0.7125912227,0.2446557606,0.8200041253,-0.8888740816,-0.662233174,0.2157422119,-0.6673545943,0.5533702519,0.0923906923,0.4153336509,0.4424090003,-0.1472158532,-1.1382451662,0.3882991133,0.7308112227,0.963206674,0.5829695215,1.5436584949,-0.4170446905,0.3879754899,0.3814233023,-0.2121128116,-0.0880840466,-1.233387402,0.6447677826,-0.1796349678,1.6359479904,1.5890412544,0.5931031634,-0.6072508465,-0.1502287269,0.7428244381,-1.0644583828,-0.4589970722,0.0819902191,-1.4182537089,-0.3845993106,-0.1839783537,-0.6951812468,0.1556490275,0.5103875349,1.1955856854,-0.2499899709,1.0555772827,-1.2576064633,0.0594439577,-0.575581729,-0.7290858057,-0.8967670704,0.6815226332,0.3638042058,0.1664179549,-0.6278475288,-0.1109214487,-0.3022520545,0.134322549,-0.1416481924,-0.1867749169,-0.7687881977,0.4938880557,-0.3038748919,-0.5354830161,-0.1404346689,-0.8346319762,-0.4477782017,-0.5369596864,-0.9480880886,-0.4857243397,-1.7862062854,0.6059741156,-0.2401703043,2.6788298575,0.0195156704,-0.6530708609,0.0137075343,1.367634399,0.7487666751,-0.9939283023,-0.2179207781,-0.4805227332,-0.6758758251,-0.3002056432,1.089578344,1.3124337565,0.9109857002,0.4921690268,-0.1113668233,-0.4738860323,-0.2377721905,0.0044337076,-0.3707907498,1.2077550559,1.4118819607,0.6567796953,-0.0337610482,1.522923595,-0.6442297628,-0.7355688744,-0.593399292,-0.8269014517,0.762472371,-0.2574836123,0.2995119243,-0.5377220571,0.4213498226,0.0435596489,-0.9290576739,1.8688034142,0.2174212022,-1.1287841069,0.2989966618,0.085065314,-0.485567658,-0.036526093,0.4227010367,0.1478091884,0.143192095,0.5161870804,-1.6491134036,1.6863786117,2.9264834824,-0.6968276473,-1.3973118683,-3.8389708287,0.5390152378,-0.0290897627,0.362238524,-0.4743325526,-1.2641126678,-0.2588310498,-0.030523181,-1.2549718798,-3.4027419293,-0.7933694087,-1.0555810128,-7.4838885678,0.4450310089,-0.6197429912,-1.468055828,-4.102706732,-2.9345264185,-0.1159331932,1.1643564398,-7.060302773,0.6471278665,-0.2056167486,-0.4182148324,0.6907567351,1.4042099496,-0.7784301516,0.0732713116,-0.6549075926,0.4782029428,-0.9725130095,-1.3291457185,6.6931272384,0.4618637804,1.0635597237,-1.1071546993,0.3027929668,0.0885212465,0.0139822089,-5.1078092282,-0.6394645053,-0.7989889432,-4.5020402462,1.0391244585,1.9319318539,-1.5370290347,-1.1537852545,2.001149779,2.358549966,0.9574724866,0.9086437666,-0.9451116163,0.0102179119,-0.7418118866,1.3729847717,-0.8670355994,0.6436126423,1.4556562597,-0.4387208341,0.2203556107,-0.0935835746,-0.4988320126,0.9046736745,-0.9544115734,-0.3410879211,0.1891828985,-0.2211583867,-0.6531402205,-0.3904758814,0.7790999534,-1.4073486903,3.8163561869,0.5585127333,-0.417923661,0.0518995222,-0.1246138896,1.5519539784,-0.0397805724,-0.343571152,-0.20079193,-0.814882803,-1.1796323906,-0.7753499003,1.1671794703,-0.3488478878,0.8845266121,-2.1105977433,0.4499512606,1.0763287526,-0.3986386987,-1.8761223046,-0.4437564704,-0.5312360024,1.2166233471,-0.6764543331,1.2195232682,0.3649407845,0.4322390265,-1.0526312706,0.7838237163,-0.977216167,-0.8555407505,-0.2959454307,1.6229289108,-0.883991727,-0.112380248,0.9508938763,0.592087191,-0.2376353931,-1.2479686256,0.2769128849,0.8397684981,-0.0011996764,0.443638752,-0.0426279509,0.7614911435,0.9674838327,-0.5233125221,0.8887480735,0.0698662689,0.4668571583,0.627061061,-0.2486702935,0.0401635963,-1.0455284879,0.6317537633,-0.481402062,0.1786822046,0.3718111396,0.268493322,-0.1517990744,0.2950421681,-0.0950121177,-0.6871170434,0.2333714215,-0.900073102,0.0706528047,0.5072041245,0.5085829441,-0.890762754,-0.6522740332,0.443470795,0.2561040101,-0.362847936,0.6024172888,-0.2501874908,0.4781891592,-0.7845284765,0.869971646,0.8402941556,-0.84387377,-5.2588028598,0.853411382,0.5131995959,-2.7401088306,-2.2108625258,1.4412639765,-0.5232687843,-2.0608175105,0.3510388308,1.1724465871,-1.1170138161,4.0483344568,0.3366763609,-2.4181195144,4.1256668338,-1.4705285609,0.9052529497,-0.0664843456,-0.1376075611,2.2583143938,-0.6707096571,0.389411417,0.1944839521,-0.0439900253,0.4313917264,1.9243180633,-0.6600704902,-1.5372172346,-1.1208926603,1.6477604823,-0.9761618426,1.839828747,-0.8070395473,0.1395320432,0.4365136474,0.3810488338,-3.1759514392,0.2519480945,-0.4263021597,-0.9998868896,-0.106145477,-0.2771021858,0.497209273,0.2602079142,1.1533425293,0.6222724631,1.1910012954,1.497380136,-1.013543594,-0.1637785871,1.0693402041,0.978299122,0.0248176585,-0.5536157524,0.3963683648,-0.5371755412,-0.1236317305,-0.4220096509,0.0122460149,-0.3283706833,0.7003470451,-0.8253576283,0.9546181838,0.3045520193,1.002509393,-0.7275799629,0.6587894555,0.1493898651,0.0230988073,0.2349728653,-0.0454038979,0.1948679077,0.0839729936,-0.3107753955,0.7940873895,-0.3339519934,1.1268210073,-0.7852750688,0.1175230616,0.7580741758,0.2417786917,0.3336456276,-0.1072533675,1.5164983271,-0.4998069057,0.1490615942,-0.5847809598,1.1211273733,0.3873191404,-0.6408551904,-0.1218415607,0.1177039491,-0.4385983905,-0.4500778359,-0.7718767756,-0.1191734978,0.1353990383,0.1051493543,-0.2941991999,0.0843311603,0.398124013,0.528907017,0.5575492819,-3.3788020356,0.5970802475,-1.4782156054,0.543886904,0.3866770194,-0.1796635295,0.5881909291,-0.9961514672,-0.04781591,1.0978483317,0.6488999745,-0.4234270895,0.9528341206,-0.8207825507,-0.1567212389,-0.9072061583,0.5817377918,-0.6104517376,0.9897043666,-0.3614844046,0.790633815,0.4347686009,-0.76396477,0.0085223128,1.488448374,-0.4966590365,-0.1384744527,-0.8363585172,0.7314748738,-0.0078233638,-0.9245757653,-0.7010572545,-0.6417655917,-0.1506774565,1.1593409354,0.7160227398,0.1123157303,-0.3947271004,0.4144454325,-0.2485856467,-0.0639372398,-0.8799308324,0.8374462501,0.3170345698,-0.9339090309,0.6852738089,0.2411504757,-0.2654706018,0.7951787498,-0.2771526331,0.0754738728,0.1050908615,-0.1656105524,0.5047690727,0.1977843108,0.9511077706,0.2693173332,0.7880653323,0.0696666102,0.3068696487,-0.8040108678,0.5133409916,0.0361047736,-1.3287475463,0.2489575759,-0.1376707833,0.6042601488,0.781611399,0.5871183219,-0.0446005733,-0.7682598128,-1.2032251063,-0.0422010674,-0.8602388628,-0.209870783,0.103160964,-0.9750289634,-0.161923107,-1.0295127814,-0.2986305011,-0.6686642972,-0.6314585699,-0.3134855928,0.4809737116,0.1773283284,-1.2661080521,-0.0575110606,0.5077169276,-0.2509454051,-0.2182275367,-0.3524302081,-0.201892017,-0.5223077699,0.9411841789,0.4639252434,0.2469856876,-0.2190126004,0.5661285645,-0.6328942718,-0.1069854188,0.4571443721,-0.0524097559,1.0204552174,-0.7658524941,-0.2700606182,-0.6601025208,-0.4648378371,0.5894713597,-0.3741973241,-0.105814243,-0.1526437908,-0.7557908555,0.9542567031,0.0646856251,0.4953808487,-0.4861843383,0.4718048917,-0.7821649167,-0.4731554421,0.7783970399,-0.0299505554,-0.0914591965,0.7647074051,0.0994916967,0.0741584758,-0.386739493,0.6256464347,0.0208622861,0.224869219,0.2986872315,-0.8180556224,-0.3047209849,0.9584503071,0.880763654,-0.8278649194,-0.3239409178,-0.8428191918,0.4343294211,-0.4053886892,-0.8950178066,0.589729349,-0.7421148957,-0.8757359908,-0.3422323812,-0.4549169606,0.5600555389,0.8073440174,0.633529205,-0.0708056496,-0.5941009996,0.9377994895,0.3103296636,-0.5032310503,0.7170284081,0.1731287718,1.1687068433,1.1821360034,2.1832965182,-0.5457179243,-0.7691911731,0.8347261169,-1.227696206,-0.849201798,-0.95051208,-0.2730089605,1.0185117379,-1.2260008864,0.7480000597,0.4438961888,0.6860295501,2.7442056383,0.8238509067,-0.3917380578,-0.4155472008,0.3684547359,-0.8432246934,1.653029442,-1.4702488322,-0.3113760069,0.4067101545,0.4117162733,-0.9157951327,0.67300967,-0.3307492117,0.5341794713,-0.1705366121,-0.5408951883,0.0829777326,-0.5457139152,-0.338686916,-1.9570505991,0.5882520734,-0.7307742942,-0.4993486619,-0.3242586478,-0.890972511,1.7848763965,0.7936920083,-0.4914673125,-0.8760640114,1.0539157091,1.4881726821,-0.1911331371,-1.091211746,-0.9863551844,0.8725804881,0.6728247675,-0.0110000208,0.6637384935,0.9801896546,-0.8055536473,-0.7790230166,-0.8296561847,0.1393213732,-0.3814924289,0.0849970364,-1.0267908949,-0.0249894859,0.7687503962,0.7490902042,-0.3352113035,0.7568809785,0.7837925272,-0.628877207,0.5554232137,-0.9731228645,-0.1903561635,0.3266546641,0.1452869838,0.0321681537,1.2390941237,-0.6597466556,-0.3556440124,-0.7805075005,0.7327427177,1.7475056523,0.6841861748,-1.3341008916,-1.1039582763,-0.1292790647,0.4411843844,-0.7570246263,-0.8078705156,0.2365307127,-1.0069393039,1.0634682557,0.4401244088,-0.2179691287,-1.1000903035,-0.2909207139,1.2976041155,-0.9968041325,0.9103105482,1.0784054635,0.8518713465,-0.0839155337,-0.7116899937,-0.0848527942,0.0777416092,0.302048847,-0.2589572292,-0.3850851994,-1.0285843147,0.5945577287,0.496358231,0.5799851901,-0.7295132641,-1.2299839283,-0.3722240862,-0.0744267878,0.4972689196,-1.2018652217,-0.361416064,-0.6928495042,0.1153876813,-0.985842088,-1.0416471052,0.9418551629,-0.0645518131,0.2576371174,0.2908312537,2.0863733977,1.0256122391,-0.8123548922,-0.0454973478,0.326028455,0.7336189188,0.9050509423,1.0588887713,-0.2299437372,0.6088447827,-0.094304691,-0.3009234363,-0.4188520001,-0.1369098823,-1.1190349462,0.2217355853,0.2027280261,-1.6475997276,-0.6323389083,-0.3465945312,-0.015879032,0.9467213927,-0.3652125703,-1.2112137996,-1.2349151235,-1.9373789168,0.6113803895,-0.7238806129,-0.2004822205,0.8189895063,-0.7883790191,0.2625684679,-0.0375011154,-0.3136155091,0.2487870354,1.6111537606,0.701937417,1.7677382732,-0.1494368652,0.4004081425,-0.9403821896,-0.403459277,0.1102565402,0.5793999764,-0.9274487104,-0.1147736057,0.5231594436,-0.0434163722,0.0802369128,1.1415590315,-0.7052406949,-0.4031782722,-0.6146160536,-0.5760744152,-0.6046772782,-0.7484440058,-1.0546110132,0.1123383769,-0.9216101775,0.9325177984,-0.6399735001,-0.106301867,-0.1423438117,-0.4242705573,0.8327631833,-0.7560324183,1.65215207,-0.92258111,-0.6546746428,0.2493443095,0.994091864,-0.3066696674,-0.614366542,0.9576520056,-0.1847102426,0.0715122596,-0.3901488954,-0.1255601238,0.778341099,-0.2572405527,0.5841649068,-0.8252143913,0.0201622389,0.0948682726,1.1790582845,0.7186353412,-0.1536972984,0.4041543336,-0.4223754638,-0.6537347905,0.2853336603,-0.4742359522,-0.2300909225,-0.4219401891,0.6817126478,0.521867915,-0.2546790743,-0.2662808052,-0.577661394,-1.4864637448,0.6651943121,0.8449502725,0.6827850396,-0.1739666884,-0.4835832505,1.4761165982,-0.1449619829,-0.6117110379,0.7581376416,-0.6370443696,0.6051088512,1.1469048275,-0.3108527411,-0.956549812,0.1571236684,-0.8382872035,0.9033862008,-0.5481014506,-1.1111024125,0.2157823689,0.5454334211,-0.6209153732,-0.7841851813,0.1255686971,0.3401212102,0.3347637402,0.5996341601,-1.4067829891,-0.4216962446,1.2900144401,0.0028573792,-1.0322853166,0.6118752903,-0.960487378,-0.5608923891,-0.2746576789,-0.517844675,0.7320713315,0.6998781316,1.1261342276,0.5966259781,0.4674558994,-0.3796862461,-0.2720199789,-1.0020044498,-0.086223302,-0.58719861,-0.2867813192,-0.8429999143,1.035958625,-0.5380297209,-0.7353983367,0.427963962,1.5899276522,1.5688665057,-0.8049053528,0.1511491768,0.7666865926,0.0758871132,0.3068754174,1.4506364452,0.23134331,-0.4159242085,-0.4825065612,0.5612348135,-0.667841492,-0.1167761253,-0.6624775083,-0.4698881213,-0.8501618765,-0.3135533347,0.2856482927,-0.5185375823,-0.2736721082,0.2054304623,-0.4340874988,-1.8248172044,-0.3570152014,0.4020236949,1.0412472437,-1.0440501742,-0.458823301,1.4215833202,0.1714919682,-1.1705520259,-1.1443972172,-0.9540054655,-0.6191080435,0.2967255182,0.5528146297,-0.8426569074,0.6632066826,-0.9062082306,0.0251517051,-0.2123836897,-0.0311652856,0.4422384031,-0.3733984751,0.7424765009,-0.8485736476,0.2745212018,-0.0602801247,-1.3346182229,0.2054935434,-0.7309969002,0.0900992663,0.4606678948,0.4512145244,1.0853054817,-1.0188759863,-0.6943612131,-0.5625846263,0.7984762897,0.2140335001,0.0674717245,0.2262859144,-0.8011759177,0.6981032288,0.1347209897,0.4536046617,1.2994574245,-0.0537398686,-1.1206817297,-1.2580286192,-0.4969754605,-0.1427166665,0.7845867009,-0.1056760659,0.8800363999,-0.3271750324,-0.6472070322,-0.0782428642,1.3207315491,-0.5867790449,0.4579611463,-0.6568107518,0.1672500613,0.3871128974,1.2154500885,-0.0244221257,-0.9682247235,-1.2539907794,-0.1180722218,-0.1239841988,-0.1774351422,-0.8340796301,-0.3866555659,-0.664265337,-0.4065628269,0.9147745474,0.6679030048,0.2235324702,0.6482917977,-1.5409851122,-0.7127709869,0.6123154627,-0.0128872389,0.5466957008,-0.0364051971,0.556396513,0.0692087696,-0.3533411665,-0.3909281023,0.0861502011,-0.6739926846,-0.1485927398,0.0757190738,0.2542339186,-0.6413543062,0.0601419896,-0.2118201302,-0.7836636772,-0.1458098167,0.4660984659,-1.2093869973,0.4001871272,0.4355370286,-0.27146165,-0.8520597465,-0.097953079,-1.1646406126,-0.7351518596,-0.5520210244,2.765679848,-1.7500605337,-0.1218347018,-1.3573571242,-9.6555427187,0.591472582,-10.8391487772,0.0988347904,-0.9199819701,0.9320767699,0.2160005351,-0.3374610246,-3.2697986694,-0.4699823216,0.4717228918,-0.0732221826,-0.7692602378,-0.4473807042,0.7804223011,0.1473283662,5.975474425,0.6983412337,-0.0673681872,3.8922414342,0.3559909864,0.6955778825,-0.9127272534,-0.1861361596,-3.3260385024,0.5610786477,0.8333658978,-0.452051044,-0.0324701105,0.498137251,-0.843506296,-1.4374538296,-8.799552734,4.0538536779,-0.230339935,-1.1290764817,0.4857608877,-0.2269302533,0.4957256554,0.8903274749,0.7130225296,-1.1773802933,0.1794348973,-0.5034364384,-0.9040674413,-0.3655453082,-0.898106864,0.3360217752,-0.1760168012,-1.0681957245,-0.9255549081,-0.0945510462,0.4738213154,-0.728310346,-1.174167829,0.7388392418,-1.0090797454,0.1227516561,1.2252881664,-1.6986273138,-0.0432233577,0.9246724424,-0.8629413828,1.2540637144,0.3081213859,0.3521600278,-0.5752433658,-0.7462333867,0.8416469005,-0.4188863523,-1.1606511562,0.6784029796,-0.164564153,1.9312863069,-0.9295581064,-1.1725152231,-0.3325528114,1.6028213918,0.2679062374,-0.4605949553,-0.8702680923,-0.1349958273,0.8469185078,-0.4246320376,-0.7244362693,0.1045314343,-0.8280515141,-0.8583983164,-0.9690634838,0.6933692013,-0.6266039892,-0.838561442,-0.0898043609,-0.9739901543,0.1211265606,-0.3652152869,0.5978624929,0.0473351585,0.5115624809,-0.3947180995,-0.6904886681,0.7216509207,0.1016004134,-0.4080802247,0.4916544776,0.6837813821,0.3152601716,-0.2809331461,-0.6449889077,-0.6424067814,0.5319769451,0.4400807144,-0.5132439529,-0.345439316,-0.5233547754,0.5083084193,0.0920793952,-0.0383466605,-0.0448650031,-0.1898830519,-0.8957976822,-0.4552715067,-0.9500747095,0.5612923351,-0.1274783999,-0.2293662943,-0.8584882431,-0.077135135,-0.7136809214,-0.3627580604,-0.4414373644,0.8406087315,-1.5698686897,-0.7002578921,0.5316386439,0.597548013,-0.2716633634,0.733945441,0.3331454457,-0.0636026927,-0.2721130292,0.4137065686,-0.7065336197,-0.8583283774,-0.6893961686,-0.4512182546,0.4265081792,0.9274784327,0.4471223664,0.1226198785,-0.5904828831,0.1015644427,-1.2920026507,-0.5402920671,0.3421280038,0.0483335575,-0.6448565788,1.4826981558,0.4657169159,-0.6291571782,0.3098797621,-0.2461285909,-0.0487573692,0.3643623336,-0.217528841,2.3142123383,-1.1337094504,0.104735748,0.6982807192,-0.0008109287,1.4140100308,1.0334021955,-0.5156845222,0.8159630447,-0.2259157371,-0.2833853542,1.119916456,-0.4127020383,0.7667722389,-0.9935504802,-0.0126639399,0.9851147903,0.6350583553,-0.0094782793,0.961262871,0.3361270072,0.5060473851,0.6596577821,-1.0346650688,0.0856478992,-0.1784705089,-0.0828260192,-0.0990710567,0.8784825043,-0.0021765474,0.820454012,-0.6388890004,0.6083535295,-0.5237584302,0.4500165465,-0.7932840045,-1.7402446615,0.3829359702,0.2473366729,0.1094766174,-0.1848366745,-0.7484074759,-0.0080124561,1.0002599403,-0.6575861243,0.4217909646,0.3804548181,0.6102210455,-0.6577559295,1.4737620386,0.312103342,-0.571350723,-1.0447758409,0.0212548975,-0.5433718622,1.0462118775,-0.6028396996,-0.3432189212,-0.5993144613,0.0949700748,0.687048858,-0.1105111019,-0.123464046,-0.1339823422,0.9976739597,-1.8382932358,-0.4262496445,0.3195217956,-0.4210748123,-0.1903835247,-1.0859406287,-0.3143146543,0.7538571173,0.420411017,-0.5111571458,0.0157274785,-0.5655162763,-0.495624298,-0.5030356782,0.6413262659,0.0120248013,0.1946355964,-0.0828094139,0.7309521847,0.5408364802,-0.4178344294,0.0806329682,1.7362229641,0.0389877611,0.0969269718,-0.5892021617,0.1404493497,0.1203917702,-0.1250936903,0.6268157123,-1.3549080514,-0.1933691728,0.7139316978,0.644407902,-0.0770486281,-0.2185021046,-0.1821451445,-1.2224254736,-0.2023750738,0.2146144081,-0.0919383305,0.1853648026,-0.5094733555,-0.5990695877,-0.8458253302,-1.213508299,-0.535148188,-0.679782278,-0.2055701613,-0.8569638983,1.0529445563,0.2165739833,-0.9533591569,0.2565178886,-0.062604594,-1.072995907,-0.6913373798,-0.5127182985,-0.0040364979,0.5918717169,1.1863120365,-0.3029310984,-0.3696418872,-0.6466336583,1.3249101953,-1.2623968306,-0.4816992661,0.784835073,-0.1931778174,-0.3764116487,0.8963745077,-0.2076940683,0.4980703548,0.2193661138,-1.6704322427,-0.0479587927,0.9638325454,0.7395550637,-0.7175196629,0.2884718871,-1.1530120415,0.3939519655,1.4435198705,-0.4596471728,-0.884810148,0.2372906562,-0.3026208866,-1.3162477788,0.5911985696,-0.8704667324,0.3237895611,0.2292695522,0.2847928277,0.0830740381,-0.3943123675,0.1975203145,1.041706159,0.0434677526,1.0673726646,0.4459243009,-0.6424066682,-0.7408131891,-0.0183283403,0.027153104,0.3227536883,-0.7925732758,0.7452886983,0.2514465868,-0.2407477104,0.5992782606,-0.6790838739,-0.2487163851,0.2321653861,0.8291151792,0.4960073107,-0.7822080029,0.23783575,0.4349167347,-0.1038568777,0.3660820158,2.2454304208,0.9708539948,2.2643869151,0.5116823628,0.1078996499,0.1602246405,-1.299956685,-0.3016745134,-0.8124516105,-0.5089783665,-0.5782069753,-0.6265648437,-1.7897116338,1.7312727873,0.5206936088,-0.7159462262,0.9080390166,-0.4538545807,-0.6789316564,-0.3363013849,-0.6213406298,3.1125321825,1.0887095087,-0.3603560023,0.1430280927,0.4351251206,0.3356156711,0.1743757253,-0.0630441562,0.0579211,0.3035114709,1.5512045502,-0.6251168046,-1.6648234963,0.4804969839,-0.3177669718,0.2011864624,0.1100082446,0.578632703,-0.4517836538,-0.7336693099,0.7587279017,-0.2489930066,0.2755701106,0.9800864456,0.2252998532,0.1420563673,-0.8736151833,0.8916082795,-0.8120017113,-0.1608642254,-2.0226930666,0.5173135343,0.8389520451,0.3181237074,0.9906297188,-0.1550534564,-1.3916623138,-0.0358612456,0.5063222242,0.51561574,0.3091363855,0.0466939553,-0.4309205737,-0.311743557,-0.6686177338,0.8707242646,0.3637592524,-0.4079541322,0.4352774125,0.7506650606,-0.5687959841,-0.0135007988,0.0656812228,0.2711165388,0.3428927501,0.7530350517,0.3090003831,-0.4843199589,0.3930690772,0.25814019,-0.0275055596,-0.1629514441,0.2939091595,0.7022125605,-0.6022224228,0.0609286424,-0.1602226801,0.9065645098,0.7580106444,-0.329065546,-0.014770276,-0.5333282421,0.5057770029,0.8381217012,-0.4461856377,0.0791381593,-0.8554694257,1.1014298496,-0.8238687416,0.8952731521,0.2305549712,-0.8670632821,-0.1873029585,0.8971915064,-0.2932970989,0.9819174579,0.5869168106,-0.3742958009,1.9930850782,-0.5375443915,-0.7833559214,0.0277097702,-0.6045295726,0.2412282876,0.2546507571,0.8456614196,0.1501395999,0.235822989,0.226612108,-0.7143665626,0.4420366844,-0.6843422848,-0.9180386298,0.7490158224,1.189669706,0.334714766,0.5401967317,1.3771448826,-0.383842576,0.2539966996,-0.9035702576,0.3948611963,-0.4386388873,0.9154553628,0.0248224455,0.8097498912,-0.1836242605,0.9561070772,-0.1637727087,-1.0016544343,0.2028694863,0.2641644803,-0.3793281116,0.8404522704,-0.008935547,-0.8445663371,0.4025640864,-0.5955159627,0.4371208934,-0.1611088366,-0.8075130742,0.7832567078,0.2360833689,-0.6636385995,-0.4154428061,0.6913319089,-0.5295425002,0.3257974012,-0.2393749623,-0.5083134022,0.9448887526,0.5837515345,-0.1140300816,-0.5309947828,0.6617851407,-0.2853213596,-0.8984201517,1.2229862067,0.48844936,0.8179969023,-0.9406160999,-0.1210842353,0.2833723394,-0.9829948708,0.1801460513,0.8399202524,1.5641049896,0.6135535659,0.149221827,-0.3540804349,-0.7184056686,0.4447952853,-1.1079392266,0.1255717344,-0.0196857106,-0.7009055253,-0.426440123,-0.5751138083,0.8541395854,-0.0800471772,-0.2503194627,0.8184873101,-0.674939915,-0.0954333595,0.283498459,-0.0074581916,-0.8050192559,0.9407110341,-1.259790052,0.4340418676,-0.306466922,-0.5885450577,0.9262198625,0.9357559684,-0.0345097907,-0.3362157103,-0.1798981665,-0.5684476174,-0.365619425,1.3868302745,0.2314739646,0.5048681662,-0.7692811161,0.4886545727,0.4694337552,0.6627956557,0.8959599428,0.5713772123,-0.3386935738,0.59439871,-0.9780536455,-0.337550249,-0.6961917862,0.1097676317,-0.7768445216,1.1362723395,-1.8352205402,0.1342753816,0.1750313208,-0.8498732966,0.4477627961,0.2769462783,1.6856172081,-0.6747605429,0.2931221274,-0.5305896726,0.9538403469,-0.7296711289,0.7134046692,0.360163706,1.0142766002,-0.8186291541,-0.6942986936,-0.3994470654,-0.8061933577,1.3284113051,-0.0896914265,0.0893167592,0.3632970523,-0.6661820853,-2.3182215042,-0.4945494363,0.978923278,0.4349776808,-0.6286410019,-0.8727479314,0.7353175264,0.7428105149,1.5746844079,0.1001169321,1.5802337339,0.0256777488,0.5420926223,-0.4413412407,1.5890289523,2.1901521391,-0.829377024,-0.5014727735,0.8687004866,-0.6837225054,-0.9036115294,-0.2946597209,-0.1285546471,-0.7766740661,2.7474068584,0.5870759612,0.8278701113,-0.2788546824,0.3613533514,-0.3475978169,0.1389652465,1.0785822627,0.9587236708,-0.8365937964,-0.5064737262,-0.0339525184,1.9331195123,-0.1504110544,-0.6637977254,-0.7301600147,0.7395708903,-0.5833766205,0.791434914,-1.0586534852,0.1396661113,0.0725116567,-1.7967990956,0.3128505044,0.13138009,0.156401604,0.2016697481,0.9017099304,0.7441618122,-0.072713471,0.6186738595,-0.2526247033,-0.6146913434,-0.3181192546,0.8589331494,-0.2403232644,0.2426250022,0.6285264196,-0.8246795256,0.802660707,0.3959134494,-0.7058849723,-0.9268707607,-0.4499060833,0.4017979277,-0.6188861021,-0.5434760751,0.919406862,-0.5317519982,-0.9767846932,-0.927922867,0.7544872044,0.7811579124,-2.7302083432,-0.6153509425,-0.9709019924,-0.8277044748,0.5212909928,0.6197317706,-0.5137674404,0.3961919144,0.7458380435,3.7059104574,0.2592351807,-1.4012081412,0.8998438229,-0.5824245882,-0.1041216713,-0.381555298,0.7296172073,-0.8913681155,-1.097826065,0.5894893919,0.6601377675,0.9001139191,-0.0180380767,-0.8184964713,0.1129339319,-0.7030566935,1.0542467587,0.6269634309,-0.9462505377,0.8146245249,-0.516312986,0.4576819381,-0.7035900276,-0.1269358093,-0.6662851652,-0.8759104498,-0.7781329198,-0.9079589452,-0.8549948118,0.9911199209,-0.046016558,-0.1971640856,0.8953197314,-0.6542196437,0.9811033688,-0.3006623158,0.2214423436,0.52986039,-0.3069237552,-1.7019273721,0.7692232,0.3363185889,0.3718444121,0.8041932096,0.0556451251,0.3322476413,0.5253629565,0.9019962702,0.0492124774,-1.0076877171,-0.2183182199,0.8535218664,-0.5086048554,2.0068532722,-0.7811323512,-0.4805156629,0.002344569,-0.2440541808,0.655763106,0.3742741712,-0.266621613,-0.2671562456,0.6091974682,0.3847445215,-0.899604923,0.094342924,0.118388257,0.399496753,-0.8170242135,0.2701864178,-1.3449999235,-0.0068097678,-0.8276817345,-0.1604246367,-0.1419369948,-0.7541462502,0.816118192,-0.7212347541,-0.678924888,0.9907444629,0.0924347771,-0.5961974409,0.0317995481,0.1774111592,0.7537320386,0.324615414,0.3425479919,-0.479381282,1.0637874146,1.0312003603,0.0056383375,-0.7880426992,-1.0844825903,0.0542917467,-0.3209839553,-0.2107329044,1.1340914352,-0.2189568075,0.0233282789,0.1585729353,-0.9277610199,-2.3320037275,0.3231414581,-0.5219145248,0.6314164408,-0.3042610003,0.2574741412,0.7462662188,-0.1256282201,-1.0944806781,-1.3673354927,0.2023463058,0.4777657809,0.3223894139,0.3906380674,-0.9826117775,-0.5839227661,-0.6380150803,0.418865525,0.1718948589,-0.033548011,2.1994371189,-0.497851062,-0.8040835015,-0.4386810949,-0.5489000592,-0.6647857346,-0.6682887658,0.4910891724,-0.1473340104,-0.0230244485,-0.5857779203,-1.8446355925,-0.9532133305,0.1880337407,-0.0899399497,0.0050588021,2.001881299,-0.4344812007,1.1140365087,-0.9320602851,-0.184492214,-0.3427387165,1.1157089501,-1.2542976611,1.0461499484,0.4451729558,1.1357624807,-0.2764621644,-0.7910206112,-0.5490291998,-0.3364292648,0.182402566,0.6570172574,1.0727405874,-0.371149885,0.7639644213,-0.55234004,0.4214922219,-0.1108728301,-0.1628125296,0.428808022,-0.0366152969,-1.2940326965,-1.0550933408,0.147131353,-0.7789688376,-0.9008334784,-1.0358532917,0.2628484265,0.0791198551,0.4255889892,-0.1708259109,2.3896570063,1.4935670753,-0.2129793854,0.2520659647,0.6833133777,1.2477655585,-1.5492755476,-0.0917098016,0.1894490807,0.5159713974,-0.711772001,-0.8634988816,0.641312952,-1.5331545468,0.5134215626,-1.1312639649,-0.3251948512,0.5170302347,-0.4054402277,-0.0685996827,0.1614341218,0.2167844274,0.2597228794,-0.2900243367,3.6478427197,-0.9163087674,-0.7155684724,0.2892147693,0.5572775569,0.8698974609,0.7362917654,0.7732593675,-1.7295159723,-0.6685275973,-1.2367668638,-0.6254299364,0.4359915916,-0.5120333147,2.3664659072,0.2861317108,0.1889536826,0.8371198085,-0.6043837265,-0.7579039916,-0.5606741683,0.4128348158,0.8753166101,-0.1323025715,3.106051414,0.2614340896,0.4563493551,0.2245072824,-0.0453152537,-1.3622305176,0.2779783498,0.8547901703,-0.7494944024,-0.7221032916,0.185999087,0.3014154074,3.7147260448,0.09407834,-0.399099414
   0.2058728907,1.0508752362,0.17634551,0.9002594976,0.1218848369,-0.5432622188,0.4440713267,-0.5487686517,0.6980862485,-1.0603418071,-0.5603581504,-1.1442697024,0.2560719066,-0.6673675457,-1.228914385,0.0664644543,0.191925359,-0.3896782292,-0.3134704915,-0.7117124531,-0.7553006425,0.2139922517,-0.0796593281,1.089835181,-0.3491528361,0.645683221,0.7257157966,0.0792526547,0.2911158491,-0.5287421474,-9.0571325717,0.3664452031,-0.306450549,0.6340101825,-0.9637431443,-0.5752009495,-0.2526770106,-1.9988488342,-1.5812404186,0.9486375885,2.1116153969,0.3196312178,-0.4502716756,1.4997776099,0.8120450838,-0.9140686632,-0.5899261749,-0.8761649819,-0.5920463157,0.9625999262,0.9677006338,0.5572751407,0.8611541105,-2.1287234785,0.4986039129,-1.1388393814,0.873584266,-0.1436682055,0.5261310165,-0.6939012429,-0.8833653685,-1.0618602134,-0.8742812846,-0.5596440659,-0.125591449,-0.2384470728,1.3001714941,-0.86363636,-0.5331418622,-7.8505546751,0.3522294532,0.612116229,0.3349727182,-0.0229118287,-0.0777624216,-0.4141852571,0.2570833375,0.3689195815,-1.1123564421,0.2406063795,-0.0273553928,-0.6105545526,0.9303151415,0.8912036549,-1.0417344198,-0.8745793521,1.0557356916,0.1914026814,-0.5277642909,0.4450790374,-0.3538946669,-0.302818612,-0.1149977138,-0.2579930059,0.5409299121,0.3759996814,-0.1386336386,0.5181410609,0.0364783183,-0.0263674283,-0.4565500767,-1.2030859947,-0.6914917935,-1.2491850133,0.8811609425,0.9645613717,0.4124724834,0.4133446443,0.330940971,-1.180225218,-0.8849024278,0.031520493,0.5203857092,0.4273730149,0.6591851682,-0.2365632701,-0.4878320676,-1.0988219829,0.1428002747,-0.6788439312,2.0061278715,-0.5393360855,0.8136008744,0.9948750811,-1.7785986483,0.9872511894,0.7943321064,0.1296277938,-0.8582407406,-0.6154234543,-0.154745502,-0.7258311042,-0.2265208327,0.6853497087,0.2013765526,-0.9050321659,-0.7696966658,-0.8510654445,-0.6143662064,0.7422640156,-0.9467730067,0.1981191747,0.0033044098,0.182880363,-0.7651259276,-0.5928435703,-0.4828876285,-1.0330914324,-0.0050788778,0.7722243001,0.0918646535,-0.0909876111,-0.2972489078,0.694449703,-0.0947671484,0.9816433164,0.5233902089,0.4995766715,0.308805371,0.8657937769,-0.4224109159,0.4920597621,0.6590744219,0.5299359042,0.2609856607,-0.0001987484,0.7348358456,0.7538063805,0.2799900983,-0.7730083427,-0.6804524767,0.6885813656,0.7885601882,0.1250677071,0.2714212909,-0.8221282331,1.0867284794,0.2052817526,-0.5036862385,0.8495260731,-0.7166211675,0.3263285708,1.4805602079,-0.153566787,-0.6075361743,0.8949130268,-0.3576034652,0.2636611215,0.8411539704,0.5691313964,0.0843281252,-1.2278265035,-0.3311852217,0.2544864333,0.4636385894,1.5137857921,0.8426398028,-0.7779150174,0.8587883415,-1.0421010901,0.5104064355,0.1107107296,0.6659252166,0.1034008251,-0.2029111902,-0.1311020713,-0.45312098,-0.2654732626,-0.2754249476,0.1534053305,-0.0022661696,0.0375873001,0.07812811,0.3996431764,-0.217382523,0.3403791981,-0.8712629204,-0.24605613,-0.1965702076,1.2371528296,0.4490159852,0.6508210303,-0.638164921,-0.8394603672,0.6823329669,0.9719671466,0.9205317262,-0.523338281,-1.101892948,0.1038718449,0.2582071086,0.5410492587,0.7039171587,0.2006046107,-0.2360686201,0.4292034371,0.5247032757,-0.9112078757,-0.2237939654,0.5737738239,0.0561729164,0.0269966758,-0.1887330614,0.0035556526,-0.5325713126,-0.5679278321,-1.2240283111,-0.6349179993,-0.5325833517,-0.4255816255,0.306891694,0.0266968882,0.5961274039,-0.8449856044,0.8726956961,-1.2778462542,-0.2508185975,-0.748910191,-0.3391205705,-0.9217318031,0.1767692583,0.8770675066,0.1432888978,-0.746514666,0.9955941529,-0.2622729028,0.5773222034,-1.0088204844,0.352294906,0.7547556081,0.6194901375,0.3509670988,-0.2126957678,-0.4519547588,0.9991424281,0.7372071743,-0.9169929315,-0.1058280072,-0.8270326874,-0.2669641382,0.9156011193,0.1074924468,-0.1123224669,1.1219810417,0.7589597595,-0.9339410428,0.357814267,0.0162508691,0.9648702014,0.2552689518,-0.6896233615,2.5014619836,0.3246897864,0.7460592313,0.5028896044,0.745737831,1.3108019626,-0.357398909,-0.679051693,1.1597757313,-0.4100271198,-0.3780250711,0.8576276564,0.8845657259,0.5946460893,0.5887770388,-0.8145634593,-0.1767994198,0.1586069889,0.2162130743,-0.3216645384,-1.1201645353,-0.5526078861,0.4409039713,0.2355842465,-0.7989717067,0.8771342491,0.1568042152,-0.7213696168,-0.4315633674,0.2945856267,-0.4363319809,1.2863444469,-0.4280606986,-0.706951564,0.3009356413,1.3788924744,-1.0208535601,-0.5212322707,0.2728562815,0.6074006327,-0.1600006163,0.5966090809,0.0801905505,-0.042025896,0.123237208,-0.8880834526,-2.4713650744,-0.5142694201,0.5583098637,-0.9782631575,0.0679152278,-0.5884011704,-0.2430738099,-0.8177496411,-0.1029635034,-0.0333150211,-0.2528927671,0.7894072197,0.0539252617,-0.8839385967,-0.9021598912,-1.7182458894,0.0093103028,0.1040283807,-0.1285674398,-0.6110165337,-0.8141911238,-0.4304467926,3.6114410397,0.5919646086,-0.6482477357,-0.2639477266,0.0017804387,-0.6326045328,1.094463431,1.8163148539,0.4994093552,-0.5266964621,0.6928457737,-3.9874409722,-0.5754870202,-0.2644333341,-1.1142453821,-0.1383614791,-0.2057694103,-0.0427115063,-1.2619237852,-0.9704571484,-0.7366716782,0.165906329,0.4853545797,1.8567467809,-0.4540848631,0.5616300785,-1.3261486717,-0.8326547296,0.1478109054,0.7880287301,0.4435778217,-0.6938853777,-0.2597909207,1.0887266013,0.8568547049,0.1005097394,-0.379869308,0.5503460831,-1.0495260891,-0.1641443128,-0.4573582699,-0.4975242848,1.0845265934,-0.9505116359,0.6222195176,4.8331159701,-0.4548726272,-1.0762422463,0.6582984421,-2.4578034906,0.0241805693,0.6193776429,0.2819510947,0.1449063904,-0.989085133,-0.7232569597,0.3769637619,0.1463864967,0.6733529272,1.4136840834,-0.7014422149,-0.1572890653,0.6337712164,0.5748536267,0.8837699458,-1.1091307294,0.3074614434,0.2997285156,0.3011870177,-0.2100126854,0.7008729261,0.9649309974,0.5059679435,0.0086085191,-0.232323558,-0.6546627374,0.0488864081,-0.8677219993,0.7373348974,-0.2057366051,-0.0643383184,0.0774823051,-0.3660125418,0.3261431314,-1.4063495761,-0.6753452022,0.8018903506,0.8084526827,-0.7662238747,-0.442441522,0.7509345256,-0.8590692963,0.5142569894,2.0806681027,0.9511367703,0.0721809235,-0.6355990538,0.8943835153,0.4269948497,-0.0834956071,0.8890849309,-0.8406083824,0.8837249886,0.7063660766,-0.4979342196,0.0446331054,-0.0253702385,-0.622463662,-2.7526391369,0.1245954036,-0.3397003813,-0.5066009533,0.1358189543,-0.8576063607,0.8116907974,0.1818161304,0.8387470802,-0.0973266997,1.1277632541,-0.1982121245,0.9150559573,-1.2404444203,0.2334652166,-0.7340593994,0.1271456308,-0.7190398507,0.696684808,1.2816184906,0.316248329,0.4938574255,0.3128658593,0.7249312681,0.2504107881,-0.6989744291,-0.3463177327,-0.2139854025,0.7621356586,0.1989263174,0.5234775407,-0.7317259812,0.7435515768,-0.0259159194,0.5188264838,-0.953517597,-0.3110476503,-0.1391457495,0.5059907104,1.043469339,0.3916055972,-0.1400711205,-0.9059363241,-0.0807250996,-0.6858413424,-0.5676898637,0.1126083817,0.5075990851,0.0960617207,0.2026904077,0.7595793463,-0.1567531942,-0.428613322,-0.8666988062,0.5772532031,0.6338625877,-0.3021133317,-0.136468581,0.3141691859,0.5738816248,0.3984217956,-0.2113862971,2.2657544424,-0.5745911674,-0.5885432676,-0.5743252429,-0.5422687272,-0.159417784,-0.1571072096,0.1260189326,0.0781800211,-0.6611384291,-1.1697740915,0.4743179532,-0.4884552758,-0.4683751815,-0.2112421175,-1.0471691589,0.6844730668,-0.8311083262,0.1757568512,0.9178593028,-0.9875389051,0.0645113793,-0.1129123694,-0.7661421632,1.2095102979,-0.7181715442,-0.2324559045,0.3178838368,-0.7156976739,0.2477601755,-0.6733738485,0.3065148608,-0.2535365385,0.252380119,0.7356484614,0.2268608122,0.7639495409,-0.1268378379,-0.714607105,0.7584392534,-0.1232662878,0.0568944568,-1.0092672425,1.2807810574,0.1847251047,0.556375072,-0.3797110324,-0.2332212639,-0.2608250338,1.0267296321,0.1458513904,0.727860033,-0.7389506235,1.4584032514,-0.5192325956,0.5276421824,0.1802350752,0.4771920819,0.0568999501,0.1233410409,-2.454789139,0.7572546845,-0.2028022878,0.4636579669,0.3460097758,-0.3453090647,0.6795014364,0.9079194534,0.7379473338,-1.3594052681,-0.9450125078,-2.2158974271,0.9350866527,-0.5061808453,0.1383848142,-0.7664054125,-1.2145826928,-0.3907872417,0.6941107318,-1.0897119635,0.7673065154,-2.1635236073,-0.0564405155,0.66855788,1.0847189366,0.6803834375,1.5842526084,-0.0736181774,-0.4973916288,-2.0841298424,0.3859054439,-0.4225880416,0.2241807813,0.632382647,0.1517044467,0.9223472767,0.0660613403,-0.086065285,0.0693363032,-0.2698854542,0.4738711432,0.9326307413,0.3311848687,0.0727705576,0.8295848887,0.586194864,-0.666183994,0.1292361034,2.2427917797,-0.2023121636,0.6577334097,0.4454387799,-0.164094889,0.2881728931,-0.7658549473,-0.9693241651,0.507864471,1.3172788504,-0.6904911466,0.9955370385,0.1427348606,1.353233325,-0.2308265646,-0.6627873017,0.7491084862,2.4677808632,-0.5977348395,0.0077893011,-0.6942740396,0.3047465055,0.0851639411,-1.0091350657,-0.9105863991,1.6939098257,1.1283387104,0.6623700872,-0.3362766178,-0.9333998046,1.6291031998,0.8894387254,1.2618367716,0.0844662386,-1.1152011191,-0.2569464963,0.8041357948,0.3859980596,0.2681705729,1.3586921991,-1.2970414442,-0.2506135799,1.7716966219,0.5754615617,-0.1245770827,-1.0488866162,-0.6808110012,0.3454846218,-0.3769941484,-1.1080294653,0.4408623684,-0.6187574824,0.9972887913,-0.4445304609,-0.6869230427,-1.2892988261,-0.0213308726,-0.3520267259,0.7714519135,-0.8571577395,0.3947890199,-0.461685604,-0.0345234604,-1.4059752787,0.3657086742,-0.6138556391,0.3160592533,0.4033628079,0.92209845,-0.4086876186,-0.37123926,0.411084424,-0.2123922282,0.2131712656,-0.3224749558,-0.5781506761,-0.8671387379,-2.0705063842,0.3438317362,0.18785592,-0.9657383994,0.3086051375,-0.9560296331,-0.0672174324,-0.5802643511,-0.2204625452,-0.2042607377,-0.7065682296,1.1567501541,-0.7753871183,-0.030905454,-0.1017811295,0.2743577948,-0.3779239419,0.048885163,0.7453449314,0.5579033289,0.4127061111,-0.3520738708,-0.3308387302,-1.0217561298,-0.872110273,0.0080810269,-0.7624254014,-0.4080617079,-1.6298347623,0.5062622541,0.1378324572,0.9330093456,0.6874306678,0.6189937353,2.5188173214,-0.0016270631,-1.5297018201,-0.1159496178,-0.022065485,0.1858753619,-0.552200545,0.251345501,-1.1551711042,0.5031390148,0.7733862414,-0.8483953801,-0.8512064051,-0.715274044,0.1257942995,1.3794016715,1.1046847632,-0.0282121116,-0.9695764459,-0.3185143654,0.7557773345,0.6551606235,-0.8112114838,1.3976311465,-0.4625603004,-0.2475150813,-0.2654428606,0.1465405353,-0.0658858906,0.1683762569,0.2890439946,-0.0893707357,-0.0759494961,-0.0279681022,-0.0125590016,-0.950559262,-0.5077813717,-1.8921054473,0.403845423,0.3608514298,1.6591146887,0.265610795,1.3406181615,0.4974779177,-0.2891756348,-1.9766281567,0.7995386218,0.3687246568,1.0621903821,0.2257414537,-0.9078439273,-0.2991415564,0.3059788831,-0.0175513526,1.0089710606,-0.4389556971,0.4424820552,0.3641723364,-0.7536451731,-0.4519793974,-0.3767341811,-1.7189351013,-0.1477806742,-0.2259429207,-0.1817176721,3.0886666689,0.3165456523,-0.0830823478,0.7728557036,0.3795385019,0.7635469136,0.7853288184,0.8850985068,0.419564447,-0.4559694743,0.2327442001,-0.2330596488,-0.1996145582,0.0795659113,0.2420651065,-0.719213371,0.9656109703,2.9789881763,-0.0712147414,0.2034945202,-0.2616045741,-0.9382835289,0.1186969905,0.0021827878,-0.1628447732,-0.1451599847,0.2422309472,0.2297628311,0.2148703805,0.2118299037,-0.5485523672,-0.0637564156,-0.7576509448,0.6764237821,-0.5710452794,0.4317734795,-0.6020040855,0.0531210348,-1.2771512714,-0.8448030306,0.2059240863,0.3298832532,1.1608547262,-0.6307044816,1.0246920903,-1.5388796455,-0.6435016728,0.7305220141,1.3144050204,-0.8435893376,0.0618379275,-0.6916608197,-0.9159382116,0.3667208944,1.0672078846,-0.2472050929,-1.5483079638,3.237313897,0.2798021033,-0.521017025,-0.569104547,-0.312333053,1.1089558153,-0.5411303687,-0.9120918023,-0.029003281,0.229770336,-0.2266986386,0.0864706915,0.8118010403,-0.5863308566,0.6965831183,-0.2380767435,-0.6354414776,0.7018626546,0.7496072604,0.5867841904,1.0118419184,-0.6392370417,-0.9827905461,-1.7483676246,-0.09719066,0.3653545978,0.7540914709,-0.9362803947,-1.1055092288,0.5660903549,0.4736563954,0.2271170145,0.9642137363,0.4056367616,-0.6404255735,0.6826660765,-1.0836372616,0.4052840417,-0.5699537761,0.0926392724,-1.2004977036,0.96510826,0.3987880222,-1.9147197635,-1.8315932613,-0.8577976022,-0.0773163339,-0.6452084386,-0.8691171835,0.327559407,3.5645644107,-0.8122825024,-0.5782620201,0.1734314885,0.1963132108,-0.1606870915,-0.8772005436,-2.9811159521,0.7468086259,0.3995473623,-1.3703981722,-0.4596048756,-0.5242468751,-1.0513430317,0.9196366597,0.573968165,0.9633755851,0.9701242915,1.0237484197,-0.7803060922,0.6891656938,-0.7984674389,-0.8656829431,-0.0006119317,-0.0329310896,2.244971511,-0.6650774044,-0.9935015899,-0.1979563663,-0.3343596708,-4.0790931634,-0.7756072044,-0.1484221012,0.4743098949,-0.3254094988,0.2911271701,-0.332995748,-0.2582216218,-0.7058063681,0.5960165482,0.0459903163,1.1552085101,0.3248576859,-0.3836159657,-0.2284802399,-0.5624144633,0.4104000803,0.3482534059,1.0745927802,0.8894685801,0.9151968278,0.1916693082,-2.889451201,-0.7339640437,-0.5814179584,-0.0472598853,-0.167344456,-0.620641561,-0.9808220763,-1.065774106,-0.5062669327,0.6587352596,-0.1957686229,-0.6186956383,1.3371853592,0.0705247187,0.9589878601,-0.6435378189,-1.0841296865,0.4558770295,-0.7330890992,-1.2826711214,0.4593851886,0.755816572,-0.5668464507,-0.9507800184,-0.4867750095,0.2577723906,1.4380207307,-0.8952942341,1.9016786146,1.3897904782,-0.5277290592,-0.2268520755,-0.2153477691,-0.2436137547,0.6854785741,-0.7026165995,0.2016326658,0.2766127318,1.3658429476,0.3498686542,-0.5274316805,-0.8764717643,0.7022575821,0.8490429952,0.1783259796,0.0426029394,0.3487255509,0.6868903695,0.5013330832,0.4474501093,-0.9211265308,-0.3325080884,-0.5833612257,-0.2914686347,-0.7120928626,-0.6825242738,-1.1664509315,0.205499351,-0.8677339979,0.7788874973,-0.9135767843,-0.7460969766,-0.8903569561,0.8614127482,1.0962810447,-0.6969490739,0.6741789916,0.036412923,0.8904751404,-0.0016491084,-0.092801282,1.9175801665,-0.6590138015,0.2469236253,0.6727683717,-0.9515752695,-0.5525854051,0.5716839983,-0.6123852107,0.0244727318,0.2532846731,-0.8285161109,-1.094129461,1.61690117,1.203072156,0.349652284,0.3117293383,1.2544731312,0.5417423614,0.5115784586,0.1863975609,-1.2969163218,-1.0430235584,1.0452045605,-0.749583814,0.0028372158,0.9338676479,0.510486219,0.7854336691,0.0650128264,-0.6073459785,-0.3478449504,0.3962257567,0.6201702216,-0.6640453186,0.9820917386,0.6644641515,0.1235524361,-0.071826387,-0.4792122599,0.1078019156,0.7183707109,0.7110535948,-0.4799383689,0.2035818264,0.4363367173,0.0557134582,0.5483111431,0.5148039135,-0.8981249349,-1.2780192416,-1.0427203204,0.8596519473,-0.8984960225,0.925038115,0.741020162,-0.3378297829,0.7416162746,-0.1306336245,0.7785192395,-0.5249146068,-1.3493127641,0.7433026386,-0.6061133026,-0.8307966096,-0.6095289713,0.9001437735,0.3465292738,-0.1742680168,-0.4374539331,-0.0171858691,-1.0153175682,1.4245164095,0.6262521431,-0.6542519986,-0.8382175303,-2.3743115437,-0.4303441948,-0.7486648579,-1.8739432576,-0.8931730093,0.2774368507,-0.5440084013,0.9987521765,0.4777109024,-0.3405414422,-0.7890086279,-0.4111207794,-0.5274616547,0.5160312462,0.0055028095,-0.1000234895,-1.3161620467,-0.8965599053,-0.3361143782,0.1540808466,0.7394995911,-0.7823751139,0.5514787565,-0.5259646369,-1.0195281379,1.2570603336,0.7164631656,2.2669852133,-0.421378795,0.1778442097,-0.2249274371,0.3733975849,0.7722913446,0.4977011105,-0.2752261232,0.1911601048,0.3221255971,0.5553621336,0.611219797,0.0657465648,-0.1314574745,1.0436330376,-1.348860981,0.9545136208,-2.3807606476,0.7295438338,-0.0518665445,0.6815102072,2.3266353844,-0.0685267814,-1.9204340032,0.442339691,0.8474370252,-1.1262223794,-0.994776218,-1.0592742974,0.2927449991,-0.078006937,-1.0547287974,1.3105684107,-0.5453160476,0.4765647679,0.6891412841,-1.6707129286,-0.406267352,1.8238047259,0.7162694811,1.4611676695,1.6400027095,-1.0761916921,-0.2224153793,3.2152880874,0.5820201652,0.6575513128,0.2076802168,0.3597619281,-0.8760724174,-0.5899565671,-0.6694917461,-0.1470374841,1.2822408693,-0.7004984001,0.044594051,-0.536338867,0.8237032029,0.9280720243,-0.6388365451,-0.1334926192,1.7047151535,-0.5657118797,-0.6473327348,0.5979194854,-0.1460584809,1.2565632254,-0.1990600256,-2.4351759713,-2.5135498235,1.9671526486,2.1963355948,0.6043746399,1.0165065905,3.0598287505,-0.1147182147,-2.9473781701,1.8523002868,-0.6172479934,0.9129971699,-0.4909668505,-0.713984204,0.4186710086,-0.1751807284,3.0587784465,0.9496414878,0.0923455715,-0.5556101658,1.2103893925,0.9932409795,-0.349835018,1.145735203,-1.2625798034,0.2102213375,1.3901059165,0.0859629835,0.6425540973,0.6130576085,0.669453019,-0.1420531445,-0.9821466987,-0.6224826691,-2.9530354555,1.6750459375,0.2417768764,0.45977218,0.523677108,-0.9117863582,-3.3587207456,1.2111819048,0.2707104275,-2.3302795926,1.2841346756,-0.678179718,-0.8521413882,2.6220021906,2.0662829164,0.1924927354,-4.1012619745,-0.1908129658,0.9359403926,-0.4064841503,0.4604295658,-1.7098628257,-0.7077659703,-1.6366197624,0.6790548597,0.9414335257,1.5059554891,0.1369149627,-1.4267464556,3.158602485,1.0545753446,0.0854063148,0.3953657744,-0.7598547164,0.2983115311,1.3562489768,-0.3619143953,0.4761947348,-1.0513553811,-1.0211093451,0.1383923647,-0.900380571,1.0050168496,-1.2607740791,-0.4441233263,-0.1408663682,0.1247849516,-0.110855135,0.6294487531,-0.8421871378,0.8701777389,-0.6847275977,0.8549725867,0.1494073089,0.6612136247,0.0635703775,-0.3779680749,-0.8020101638,-1.8965919066,-0.7041591009,0.1785440659,0.744968938,-1.1184366938,0.0063964122,0.9169700427,-0.9396921791,-0.348556901,0.8442090796,-0.7541727227,0.4527453062,0.3068192084,1.0687603459,-0.280811446,0.1686386223,-0.2527028022,-0.2145288856,0.7168946907,-0.7212651463,0.985060949,0.6596127735,-1.8557021417,-1.5459992498,-0.4761646923,-0.1530100939,0.4112996688,-0.5632391618,-0.0205831751,-0.6938683529,0.4890105205,-0.9414324948,1.211159263,0.2567621022,-0.8084503555,-0.2262309032,-0.3893800243,-0.3120573316,0.827997446,-0.5792757693,-0.4766474099,0.4143587087,-0.3745858883,0.9746043015,-0.8060308376,0.1084172435,0.2749262777,0.9082697066,1.4983964314,-0.2189800928,-0.5971197954,-0.7620561513,0.2360092967,0.6036298076,-0.5238942477,-0.2968237942,-0.6613536735,0.6849352556,-0.2561582742,0.0816877933,0.2446096599,-0.3961385377,-0.0291855731,0.8144398087,-0.5081412525,-0.3992726343,-0.4261121604,-0.1953243632,-0.8891197776,-0.5701640253,-0.7056669045,0.6100216169,0.663064165,0.1588754647,0.0462992309,-0.5355037858,-1.2690403087,-0.312556735,-0.0600860741,0.8949080959,-0.0290362414,-0.3803369874,-0.1770833399,0.523813842,0.190570162,0.3920270436,0.4419335086,0.7893866353,-0.6026993529,1.030697977,2.5748828473,1.6133347823,-0.1783021206,-2.1403245728,0.6459461165,0.6063362779,0.3887961215,0.5624320453,-0.5730911139,-0.8523432505,0.6297406778,0.497445617,0.0653961802,-0.7264624063,1.0684774759,-0.1602439886,0.2078888168,-0.057397647,-0.3784922922,-0.5506541092,-1.4870718267,0.698651196,0.16248651,-0.7149193794,0.9903152465,-1.0015230814,0.5041684438,0.7887729179,0.0695169254,-0.8589536135,0.94800673,0.0446663029,0.5445177401,0.2820739343,-0.2744492872,-0.6700055454,-0.6464177636,-0.2456038808,0.3803376187,3.2812536899,-0.4168491238,0.4537218027,0.0023055219,0.7576539456,0.7682423894,-1.0989261329,1.2125799321,-0.0548972526,1.2086272288,-0.439831367,-0.3976978488,-0.8864142542,-1.4228765436,-3.6369429983,-1.5342847069,-2.6400193692,-1.098003587,0.8610158709,-0.4109713479,-0.5386942788,-0.0698009942,-0.0394695843,0.0145858411,4.9393802976,-0.6971285983,-0.9834194437,0.7442219819,-1.1116333031,1.1139041872,0.0702005849,-0.4247448132,1.4447484892,-3.2457041609,-0.832912847,-0.5414668851,-2.2591440947,-0.1046136549,0.7692892833,2.6714678815,0.7311953208,0.5377214707,-0.9777873355,0.925294603,-0.4667338307,0.2650597757,-0.2966576857,-0.0415764146,0.3346492046,-0.3344404225,-0.9449673978,-0.8275673439,-1.6310975937,-0.6351883397,1.2892098205,0.235822113,0.2209612051,-0.484917847,-1.0719943664,-0.5693088382,-0.5185595447,0.2657501902,0.6774287726,-1.1179155395,0.1840954845,0.1630646381,-0.6113390026,0.9748732184,0.4302533224,0.8130275884,-0.7272317218,-0.1088545911,-1.5953287301,0.9624961442,0.1058324614,-0.9750475149,0.9341321954,-0.5384536572,1.4531336562,-0.0015352374,-1.5870119905,0.0636514521,0.9816296349,0.2671858497,3.6628325958,-0.0520158606,-0.4187913317,-0.0583551547,-0.9136969031,1.6556433273,-0.0073214327,-0.9057021375,-0.3251323073,0.4324856593,-0.1811934866,2.1139482009,-0.6631857516,-0.9650650184,-0.1921992682,-0.9302473758,0.217586858,0.6688184511,-1.6246937095,-1.1068547833,0.5957846342,0.8652321816,0.8281351465,0.4421885542,0.5019388393,-0.0703524982,3.0457283896,0.684047284,-0.1172911665,0.4847737425,-0.9613990762,-0.408043881,0.2827301555,-1.0156120015,-0.9584196943,-0.6842033581,-0.1941011997,-0.879700407,0.6873441717,-0.8800700044,0.8981310848,-0.0153911418,-2.0099750067,1.7828609897,-0.3437725725,0.9827524427,0.3212874711,0.6321019734,-1.3281458164,0.8504176674,-1.1370599062,-1.8301532613,0.0935746282,2.0897554818,-0.0908239224,0.6995015768,0.2581557863,-0.9095366474,-0.4428420368,0.1340358697,0.6571452263,0.3964787958,0.9282511582,-0.7170217346,-0.8775882424,-0.5894994438,-0.6757346411,-0.5860851431,-0.1938780446,0.139402189,-0.4791285196,-0.926364293,-0.7413348388,0.3356025943,-0.662781039,0.3267097385,-0.8773242544,-0.0843710424,-1.0889885683,-0.8861637631,0.8724080331,0.5890165845,0.3022865003,0.1519659238,-0.389396115,0.1346455975,-1.1301656963,-0.7972820242,0.6725058489,0.8081154832,-0.650185936,0.3397690363,0.4988187617,-0.6282524939,-0.8456214621,0.2243643649,-0.4388609619,1.8769393471,0.2242453572,-1.0012757445,-1.8617696358,-0.811930436,-0.2542051917,-0.0691716974,0.1118068855,-0.1457040068,-1.0380861636,-0.086731237,-0.3959336545,0.3299660952,-0.7706253808,0.2575048846,-0.0802622272,0.5861313538,-0.4456139249,0.1920398973,0.1215845734,1.108293239,1.0259008791,-1.4749771493,0.2696837864,-0.2690002811,0.213785608,0.1268348146,0.9591904397,0.8066811198,0.0229620407,-0.6584776737,-1.0418168833,-0.9678493005,-0.1026990749,0.3574949445,-0.0619545535,1.7859371326,0.7824692942,0.3440852878,-0.519859103,0.8047466844,0.2819590119,-0.0881217372,-0.2188540166,0.9392414826,-0.4632711882,-0.5452610187,-1.643659809,0.5240626777,-0.8600871546,0.8833020334,-0.7502796437,-0.0447473269,0.3314471719,0.124933269,-1.4036056529,-0.5093698391,-0.4668195562,-0.9976506534,-0.404596198,0.6652930451,0.6198491891,-0.0391808038,0.4613741067,-0.6776452026,-0.6315093218,0.0280702987,-1.0245156533,0.293657543,0.0208266193,-0.1316188357,-0.9567070641,0.1056083085,0.577255894,-0.5546122442,-0.4137871041,0.6219745696,0.1724918848,-0.534854575,-0.4511793198,-1.1648024426,0.7416408681,-1.5841299877,-14.3736399107,0.458466921,-0.0729936942,0.194477799,0.3021589392,-0.8330100895,0.1162913467,0.957808562,1.0690643597,-0.6273298272,1.5766306764,-0.3090428505,0.45890122,-2.3131983084,0.4718597878,-0.0024158302,1.1002388395,0.4892298573,-0.2875670837,0.499382072,-2.0369441395,1.8949270552,-1.7922257484,-0.150764576,-0.1226449365,0.7559986006,0.1493346605,-0.9102853212,0.9262270067,-0.4441208831,0.4347339892,0.009103317,-0.2424004377,-1.3283819218,-0.8903781885,0.4570554513,0.9028445014,0.0157995369,-0.435110343,0.941720294,0.2520429138,0.0797873552,-0.6858455557,-0.5786820114,0.3620643308,0.202083014,-0.678848096,-0.1306470797,-1.1615789475,-0.5588171282,1.330778094,-0.7072917429,-1.0143347651,1.4251500195,0.4609424494,2.8198238328,-2.5984969735,1.0203537829,0.744802363,-1.0247346746,-0.1572815811,-0.0055325873,-0.6276016105,0.46268964,0.1416809846,-0.4129153776,1.0854638942,0.3113128199,-0.5737624191,0.6487012625,0.4626678945,-1.2456544683,0.4932769777,0.5005384316,0.3884042345,-2.2427872552,-0.8807382137,-1.2212284885,-0.4376181918,0.1467491969,-0.3618104482,0.3861462023,0.1729502337,-0.1511685257,1.2157920422,-0.6140632426,-0.3617861364,0.6093557328,-0.7815612362,0.2747979209,0.1902906163,-0.0626866052,-0.1704590485,-0.2647125961,-0.5039636124,-0.7718247087,0.5408317171,-0.5374951671,0.176142983,0.6341758678,-0.6962739101,0.0206800173,0.1286011715,0.0959850287,-0.1685528459,-0.2019704703,0.6897443537,0.3172304838,-0.5460215171,-0.0247604325,0.6550676354,0.1364286875,-0.0293711809,-0.8803382681,-0.5478380218,-0.6368134185,-0.4875630405,0.4671268887,-1.2758584919,0.6307577476,-0.0670163675,0.7641937611,-0.0579448705,-1.2316392909,0.8802277261,0.1837082951,-0.6397015024,0.4668295546,0.0986824913,-0.7347548259,-2.7358959687,-1.5401749463,-1.0553369658,-0.1963513391,1.0145396918,0.6671253266,-0.3459364389,0.6249604263,0.6678988207,-0.4042368149,-0.1558529371,0.4231270343,-0.0664082999,-0.3698955083,-0.0116999596,0.3019417656,-1.1448108263,0.5794426781,-0.983169335,0.2341252894,-0.2151198977,-1.0805291081,0.8445770219,0.2533270629,-0.2374337401,0.9500759951,1.0390722905,-0.243793468,0.9772825911,0.6609251831,-1.1192246108,1.2416258758,0.390403587,-1.0312521316,0.2644928839,0.632739493,0.2226316431,-0.6829463693,1.0620163455,-0.0021106167,0.6296109391,-0.1553117409,0.9861408935,-0.6563358689,-2.790732472,1.3217780149,0.7040081502,-0.183017934,0.5787690272,0.6818603616,-0.6306715764,-0.4501888789,0.8439025031,0.7844973597,-0.7331275221,0.5060634699,-1.2143760568,0.4815818368,0.1625210475,-0.0805104123,-0.6615870612,-0.0092568428,1.0212157651,0.250349718,-0.1329958633,0.5885912377,0.4619131454,0.3042188375,0.4908585415,0.1124202999,-0.0002665161,-0.8073849,1.8850461145,0.3988563589,0.1613847073,0.5631302393,-0.0723420904,-0.216282399,-0.3763457267,0.7687232738,-0.0741773534,-1.2485228489,0.5651004161,-0.6865621767,0.0467364587,-0.0730746977,0.0675766586,-0.2362599597,-0.0580602094,0.0130175859,-0.7387626751,0.3563852855,-0.2682928498,-0.8940962466,-0.2010993062,-0.0857922295,0.1112603643,-0.6810639866,-0.0387631876,0.741779951,-0.7440529822,0.0143862445,-0.5120555372,0.6710907374,0.6158493697,-0.2333394981,-0.3753020198,0.0377795552,0.1458189391,0.2278704089,0.0851367594,-0.2992404271,0.617719963,0.7643942819,-0.6719678902,0.086333776,0.1870742459,0.0152776013,0.1533441871,-1.1657836367,-0.9253914352,0.5182709447,0.5095681913,0.9533318953,-0.1815747469,0.5600081886,-0.1082580921,0.2414268398,0.9163000115,0.2884242158,-1.0119312706,0.9175443733,-0.0317318398,-0.8808500103,-1.0936548785,0.2217057358,-0.5901692203,-0.1705347863,-0.9326061884,0.0595324867,-0.8887971289,-0.1890358419,-0.2561812102,-0.8781460055,-0.9052960926,0.3207267834,0.163974264,-0.2022251613,-0.0396726117,-0.1851510874,-0.311585939,0.2300685191,0.8624548691,-0.1342342967,-1.3349388404,0.2663981376,0.8698527773,-0.1975907742,-0.6716137428,-0.1692889598,-0.4540119857,-0.899370523,-0.5393991166,-0.4110653704,1.2865832795,-0.8287689105,1.3511543756,1.1922000069,0.7791360616,-0.666827954,0.3482260452,-0.8453791036,1.22171754,0.8591821814,0.0685182928,0.0516409678,0.8584931787,-0.0614467196,0.2732476916,0.2828038928,0.2751311278,0.4072799712,-0.3432570253,0.7907210533,1.5776134497,0.4633957342,-0.9562996422,0.4278765365,0.7544107055,-0.9210994476,1.9089460744,0.1676584244,-0.2402669628,0.2601035846,-0.073563144,0.3168243653,-0.0843955966,0.0206934918,-0.696720036,0.6797663499,-0.3377321758,0.7928553645,0.4687027488,-0.0644599907,0.8285354382,0.4405730522,0.5755139705,0.3206584406,-0.1790985107,-0.4214675427,1.1413064102,1.2630531079,0.2272892303,-0.8629422903,1.4604015916,0.2116452777,0.520820129,-0.6244716351,-0.8162945183,0.3823820453
   0.1926452285,0.8443206535,-0.3480873095,1.1816396789,-0.2258372796,-0.0912474372,0.8810175166,-0.4407233041,-1.7259350259,1.0167220645,1.0449336406,-0.3383738124,0.8231356609,0.2964112719,0.3897793736,1.7872059858,0.4085159758,0.9548958254,0.9517738384,-0.5184675626,-0.7635892734,-0.2657343172,-0.5675840248,0.567636165,0.5938275339,-1.1523570734,-2.2569669776,-0.4675105166,-1.0944295284,0.5133522077,0.9127810008,-0.7111811484,0.5674489266,-0.9918317575,0.9406423426,0.4010682923,-0.7289865751,-0.3209119311,-0.5503472375,-0.7030945986,-1.0607838578,0.0744990828,-0.3216062709,0.3983337156,-0.7030493749,-0.930033746,-0.5872879436,-0.6659167717,-0.923742543,0.0973042959,-0.5169676095,-1.2919776152,-0.4234960222,-2.3636164415,0.3639302116,0.0483103863,1.1033450014,-0.8156626786,0.9803075688,0.682495666,-0.1432376,-0.0610078299,0.8179738984,-0.5312998358,-1.156699172,-0.0170957749,0.6907353518,-2.9398936023,-0.5159741819,-0.3493767597,-0.8161746827,0.1015323396,-0.781358704,-0.8365248993,0.2071633898,-0.999748873,0.4667890212,0.4042040383,-0.0898890501,-1.1376555504,0.9725033109,-0.2949669532,0.1659808426,0.3117794804,-0.332411167,-0.1847707798,1.0358334932,-1.0657008397,0.7444849424,-0.4705419278,0.1929699505,-1.315444547,-0.7801611943,-0.9264426883,0.6788425659,0.173340447,0.4772398288,0.8459706887,-0.1080399009,-0.0917706229,0.3052662839,0.2618204727,0.2248004189,-0.65113507,-0.907965943,-0.8058107978,-0.9472365387,-0.5889528569,0.0993749181,-0.9948814706,0.9372786635,0.7247274891,-0.0371724108,-0.110616675,0.3957553737,-0.1014043619,-1.0640343171,0.1314295401,0.6953902673,-0.3211685408,0.2052623657,0.9203957848,0.6274794543,0.3854821267,-0.028736524,0.2436080785,-0.1484018693,0.6332715098,-0.5809072423,-0.5416906278,0.180627916,-0.7773519442,-0.1747961234,-0.4420189772,-0.7392682208,0.7560013257,-0.2603930054,0.1780864235,-0.6816031866,-0.4302584309,-0.1631694028,-0.167580915,-0.3266635578,-0.8013924403,0.2334426147,-0.6442038082,0.6283539711,0.567410443,-0.9353909741,0.8937154311,-0.3514511058,-0.5258582045,-0.3781689182,0.7374292542,-0.1773962491,-0.0089556483,0.5118911825,1.3401086138,0.4811723547,0.9632527345,1.4030181438,0.4433554004,-0.2611338543,-0.8988375429,0.1871028906,-1.1532041565,0.0132681797,-0.8602982802,-0.2552564781,0.1571309391,-0.9775651154,0.1799647348,-0.173636114,-1.0923686848,-0.8105628027,0.7894758569,0.127116203,0.3965211943,-0.6052893041,-0.4896072262,-1.3147816465,-0.558339393,0.188645428,0.9001310148,0.6609426939,1.9663248675,1.0028028975,0.2457896555,-0.7453225416,0.1798873244,-0.404255841,0.1287272018,0.1638496031,-0.2447424093,0.6735396895,-0.3025256878,0.4468004036,-0.1778215633,1.3069707253,-1.2022094215,0.2707333095,-1.079084897,-2.348883157,0.3435632557,0.1675174396,0.2158831518,0.3145567437,0.0869008044,0.57180578,0.080205803,1.0979304189,-0.8335759326,0.6394356418,0.22133193,1.0708743189,-1.0910198358,-0.7558659662,-0.1536494851,-0.7559528404,0.1822164005,-0.6026283992,0.2497359254,-1.4096954586,-0.830683703,-0.4915025052,0.8807186249,-0.1880634691,0.5095689842,0.1642854226,0.3340353543,-0.435141043,-0.2875379924,-0.7645810384,0.3582701745,-0.5092547402,-1.0338072754,-1.683641728,-1.516710304,-2.9774571059,-0.0294181364,-0.4939838624,0.0805952019,-0.561549581,-0.1658269594,-0.0772494179,-0.4581999192,-0.6426796911,1.207619367,-0.1044717472,-0.7889603929,0.5000587372,-0.2273838086,0.5376308277,0.353665774,-0.5244323693,-1.3987106371,-0.3647652251,-0.3013355233,-0.7967840071,0.4964101824,-0.3471611403,-0.4539220746,-0.6503331458,-0.1274146289,-0.3399992933,0.3092483749,0.9307421977,0.6358959783,-1.2703697753,-0.3832763742,-0.0200510411,0.3785300117,-1.0359753435,-0.5570513436,-0.3761404534,0.7479204501,0.3675045886,0.0701553638,-0.2643191108,0.0414011592,1.2346586629,-0.1853885768,-0.4222390815,2.087735825,-0.2170906439,-0.4565714961,-1.2329064578,1.3229212941,-0.4518046618,-0.10011712,0.4219327682,-0.4331972328,-0.3058801552,0.2936788476,0.2689966218,-0.3591115343,0.9485579745,2.0563777213,0.5033863883,-1.1181414327,-0.0179852802,-0.313675504,0.8616190259,0.3590328417,-0.7752006242,-0.0232179244,-0.059492416,-0.9590937035,-1.1811002354,0.1726031924,-0.6759376291,-1.0295758707,0.5764073754,1.1487805401,0.8159428215,-1.2363576221,0.2639515287,0.2452525035,-0.056319266,-0.4311624988,0.0834815741,0.4038015061,-0.0820578854,0.0550510137,0.3335013431,-0.5959626631,0.3290288671,-0.5137707584,-0.5659764448,-0.5967965494,0.5743922407,0.5255720145,0.5870515338,0.075267525,-0.2328397845,-0.6490244896,0.4660895186,0.9868856601,-0.3385822992,-0.0891351308,-0.6114875654,-0.4984758208,1.0715821191,-0.2476706899,0.1494421764,0.3241422978,0.0063698132,-0.6245433494,0.3430069648,0.013067273,0.5287723449,-0.2345199111,1.1984338837,0.7487906582,0.3083958287,-0.6455696173,0.532751496,-0.142547408,0.2644814462,-0.9690574676,-1.1611474216,-0.6520594463,-0.1534192902,-1.0103501389,0.3987595401,-0.6618073501,0.4694133009,0.4332559311,-0.8064363518,0.1591206647,0.9410025302,0.5196131593,-0.4077381725,-0.7929740451,0.5957719864,-0.7084368819,-0.805844037,-0.2297370196,0.7384247517,-0.4480430141,0.2443875423,1.0574063009,0.9811191807,-0.1842767663,0.175054911,0.2259952443,0.7834179926,0.4783200978,0.5047881525,-0.6917131875,-0.9294383048,-0.0275035026,0.0057853648,0.1672511877,0.2620244135,-0.6129578402,-0.2404301366,0.9371565569,-0.0500113689,-0.4275033143,0.3775771983,0.400812417,0.2491905461,-0.7498393033,1.7179195573,0.7071535993,0.1978215461,0.0961759177,0.4400295401,0.1590700876,-0.6248379594,0.2254970145,0.4268075387,-1.6932965341,-0.4059406718,1.1743213346,-0.322517872,-1.0464627099,-0.7571442977,0.6588293782,-1.0376431725,0.2288214484,0.9118170402,-0.7730990901,0.8496376918,0.8326923487,-0.2969652713,0.0991604575,0.5351644296,0.7951019987,0.3346867981,0.1594745592,0.16886051,1.0444771332,0.4370245342,2.8012084774,0.2942430778,0.9200260612,1.6106994596,-0.9615774174,0.4237164769,0.4299031109,0.7911002998,2.5377133446,0.6102346459,0.0221269685,0.0282765414,0.7282946444,-0.3829312546,-0.7277052212,-0.3455767448,0.8022001366,-2.0589628259,0.9147655939,-0.2425880615,-0.0815133939,-0.968299123,-0.3075698255,-0.6507254312,0.7206203395,0.4802249149,-0.0444507778,0.293920801,0.3644702914,0.1914261637,-0.7389493308,0.806431978,-0.8905308085,0.6045466595,-0.8390890668,-0.8983899043,-0.230490885,-0.5613656756,0.5209882875,0.9010625946,-0.5223068919,-0.0791992691,0.8027029532,1.9244711276,-0.7970615999,-0.4323323146,-0.6574365335,0.7795206965,-1.3116282449,0.3733294759,0.690813243,0.3642656746,-0.769498756,0.3535256879,0.120256866,0.6971756961,1.3431660736,0.5343644497,-0.8349406852,-0.253940265,-0.5335232194,-0.0369494263,-1.0054434802,0.1195694942,-0.4567842226,-0.0478361743,0.118239968,-0.6277634389,-0.1575597477,0.4506175483,-0.3759914415,-0.1130537171,-0.9295798453,-0.3015218754,1.0457523027,0.1967538446,-0.032215701,-0.7157916479,1.123667232,-0.6478663345,-0.8144291626,0.1628438097,0.1354478402,0.0980163144,-0.4465663793,-0.2874716483,0.6683823971,0.7516140907,0.4672291897,-1.403134266,-0.1134223373,0.9566317768,-0.0703413836,-0.0858124634,-0.4112984388,0.651118999,0.581703236,-1.1743325321,-0.2851505625,0.9531602091,0.006327331,-0.253913503,0.49975974,-0.1156405114,-0.8454239559,0.8027872498,-0.1211497024,-0.7551025615,0.8908035109,0.8302990358,0.0418432038,1.0212028904,-1.010500888,-0.1106555722,0.7206619227,0.3856607172,0.2911375171,0.5505016404,0.9013635062,-0.7519163831,1.660617784,0.5094530685,-0.8297845192,0.6809047122,-0.2872711209,0.1619306854,-0.1123014226,0.3025880609,0.0188200262,-0.0350793315,0.5613136161,-0.0018676024,-0.1425362344,-0.3558740156,-0.9977146147,0.4978351368,-1.0283992723,-0.2237176824,-0.3344946889,0.2175142816,0.0031939021,-0.6182813394,2.5331336037,-0.1314329477,-0.6909192892,0.4245722663,0.1376144587,-0.866112345,1.6429896835,-0.3555860349,0.7782982362,1.1240584188,0.5777776533,-0.2897556833,-0.3802801414,0.4229947367,0.3480797659,-0.2297638124,-0.3227525582,-2.1019345825,0.8045400201,0.0009483648,-1.2602669695,-0.48987942,0.2633343871,-0.186869427,-0.6948024426,0.7473261721,2.541335521,0.7656394799,0.8616026525,0.4505028853,2.1557007104,0.287407071,1.2035807449,0.0736145174,0.1967312751,-0.4236973586,-0.7103978319,-0.7176123051,0.6726241351,0.2871091454,-1.059861188,0.7209528786,1.375262918,0.9189387288,0.5936704501,-1.5724775772,-0.4495273297,-0.1362940046,0.5171382953,0.0582449009,-0.8098369135,11.328902413,-0.5767414668,-0.9626457714,-0.4772080776,-0.6901246902,-0.2307445121,0.6767739401,0.3839135276,0.2871549417,-0.4468979301,0.2783051788,-0.1004422623,1.1609693663,1.2695629347,0.7907641312,0.3616206516,1.0332720948,0.4858523956,0.7173199563,0.4051660019,-2.0728314398,-0.0614583498,0.2041385306,0.4371505639,0.518919593,0.9002046889,-0.5174947506,-0.6794632249,0.2852841078,2.7335413827,0.8647926242,0.829540315,0.0045157094,-0.0719290671,-0.4146333728,-0.1947905911,0.3314979598,1.2397816402,-0.8346313751,-0.6569171859,0.3357402335,-0.0881033864,0.6458339004,-0.1937237781,-0.2795608042,0.0897952263,0.3371904056,0.6802401378,-0.615761361,-0.3214899605,-0.0172558039,-0.527459228,0.0851400646,-0.9501447525,-0.635311597,-0.6106390036,-0.4370530213,-0.4144270371,-0.6213303381,0.9309397545,2.5503232439,0.7338157149,0.8645918264,0.340273214,1.2566225903,0.0764361405,0.3648051412,0.2676733346,1.4067478256,1.4088810008,0.8727608362,0.8095782649,-0.8565103418,0.3798210465,0.450316409,-0.5188902831,0.1645238404,-0.7844907231,-0.3650288779,-0.5232845926,0.5627540725,0.3156228172,-0.5800021815,-0.2685489865,-0.6703534488,1.1141072872,0.5808958924,-0.6438203265,0.0811620922,-0.4616436907,-0.2320625842,0.2696828598,-1.1807053209,0.1308781796,-0.9664554051,-2.6171471199,0.1283186688,0.9781002359,0.5884866783,0.8946779249,-0.145123596,2.7300057756,-1.36520112,-0.859660177,-0.4793532346,0.6927481583,0.643421529,0.6345703835,-1.2874607668,-0.0710935919,-3.9765302463,-1.1132347777,0.5976067017,0.9554563575,-0.3015942315,0.2115792981,0.7237542318,-2.9872547591,-0.7746222005,-0.1819149057,1.1672778218,3.6667309417,0.0067717487,1.1046597593,-0.1172786158,-0.9668671223,-0.8987196077,0.2672429442,-2.8476540875,-0.3751673638,-1.4959716085,2.5535986649,0.2963785389,-1.4734481276,2.2351441103,-0.0690995779,-0.795476173,0.4616136647,0.8919660931,-1.5980091253,-3.1507782839,0.7743716879,0.0562075303,-0.1465276009,0.3573679181,-0.1521224033,-2.4900643481,-0.3311594095,0.1585336167,-0.0660936879,0.3201214296,-1.506180683,-0.1472475285,-0.5572959662,0.646057788,0.7479262998,-0.3157048739,-0.3038874978,0.9989909095,1.9286860696,-0.2370306429,-0.6894281162,-4.47908713,1.0074424576,-0.00270857,-3.5156043433,-1.8594362381,-1.2662601924,0.5848099263,-1.2103985964,0.1479587612,0.121292525,0.8824550648,-0.325918472,-0.7295274694,0.1235666931,0.30745617,1.1007840041,0.7920995846,-0.7466133751,-0.6412897504,0.993507738,-0.6257860951,0.552954702,0.8524909994,0.8368259129,-0.8613393377,-0.8449195623,-0.7515816584,0.1295126262,-0.5366438844,0.4041294456,-0.1081300461,-0.7720981056,0.9894864357,0.3330848825,-0.4179210085,-0.9652950711,-0.6909773851,0.3854564179,-1.1437561549,-0.1641993864,-1.0005980591,0.2282253758,0.4184095865,0.6862686519,-1.0281853785,0.6646123371,0.0412582579,0.4732462015,1.5656719521,-0.0453458234,-0.437996702,0.0109890197,0.4592189196,-0.6614781737,-0.478047568,-0.1559946643,0.1991928999,-0.0819915415,-0.2227029866,-0.5370257745,0.9771746171,0.2602699834,-1.3540370882,-0.7572499952,0.2226437909,0.8654567546,-0.2922759194,1.3285110112,-0.3889315647,-0.0015861937,1.7724264231,0.0732719133,-0.1711501719,-0.178556786,-0.2006241029,0.4918636759,0.0867193085,0.97045501,0.6419290625,0.1709501091,-1.8941616273,-0.5451525033,0.5705801181,0.8198892283,0.7628806607,0.741208521,0.0355793216,-1.3916445151,0.9406477248,-0.524794868,0.4249891574,0.2722337513,-0.7933888123,0.1327833064,-0.19286506,0.1429998429,0.66781313,0.6525550949,0.6822635167,-0.5400218529,0.2714197235,0.8714655404,-0.862911096,1.606918813,-0.8220063224,0.2804983379,0.2559292224,1.4252667243,-0.509679882,0.7487971758,0.5858893911,-1.2067307696,0.2767155402,-0.660907775,-0.5911154882,-1.1548397424,0.0452911939,0.1678874075,0.7279155882,0.535393801,-0.0503792347,-0.0099026632,-4.1066302341,0.8444391163,0.5184750039,-0.5900625197,-1.3662984288,-1.368443992,0.2981333808,-1.8496677755,0.7247131024,-0.6504680382,0.9942359428,0.6811526392,0.0250963354,0.2657906279,0.2564464762,0.7154402881,0.7219142468,-1.4971535014,-0.2392511462,0.5480254181,0.4190607603,0.2377138057,0.1911129936,0.2140361686,2.0391292631,0.209955976,-0.136256116,-0.6149712117,-0.2204728626,0.5891042868,0.5645697797,0.9732230717,0.0754044322,0.4080304308,0.3637969528,0.1103945402,0.1110662131,0.2206426065,-0.0101703957,1.1290280778,0.9171907632,0.9147001304,0.580010228,-0.1379442412,-0.7172884386,-0.5001221655,-0.1426909799,-1.0415617302,0.5184980053,-0.3516570246,0.1889384663,-0.1235079384,-0.7517451211,-0.9024879199,0.8896038556,-0.2548785835,0.4134226777,1.8940786673,0.9439840964,-0.3946439577,-0.6726866988,-0.8320838259,0.0779093939,0.8861007561,0.7180970644,-0.4891370722,-0.5715356146,0.3559592018,-0.2452708825,-1.8252604167,-0.2047647397,-0.3336857598,-2.451308538,0.2153167301,-0.0887344226,-0.8146114931,-0.1483622124,0.1754395918,-0.1934417944,0.6825147531,-0.614569778,0.3511968935,0.8882987521,0.7698091699,0.151098937,3.7155499028,0.3782402752,-0.6106916961,0.5559542662,-1.2124455345,-1.6342053402,0.3836517986,-0.3092614138,-0.9205426814,0.4201954407,0.9017345805,1.1577024499,2.0255581672,1.1227603706,-1.6334193638,1.4911311284,-1.4390053531,0.4973464347,-0.5175776682,-0.7475218683,-0.4549594131,-0.4219705118,-0.5790452739,-2.2019560229,0.1253084335,-1.2924432254,0.7745927358,-0.0612408693,0.1142001615,0.6030718755,0.1108622735,1.3605964773,-0.8234061165,0.0608611638,0.5773823826,-1.5095529192,0.1447164827,0.5482406922,0.4236354985,-0.04163276,-0.4522395857,-0.6433252115,-0.1411171233,-0.7515996526,0.1894543022,0.3949220388,-1.8369208443,-0.6756293069,-0.5193457853,-1.1113107657,-1.2930353784,0.6904605451,0.2462360341,0.010236221,-0.6122053418,9.4103886227,-0.2203036038,-1.5688333152,-0.2658500016,0.7374316792,1.0063791174,-1.6500597304,-0.862418256,-1.0166238933,0.3568841182,0.9953061814,-0.0312677448,-0.673671274,-0.3578118911,-0.7664150917,0.4465025984,0.3482904238,0.7112320764,-0.5004366339,0.4839133621,-0.7423135405,-4.2734487266,-0.5487205917,-0.8880663707,0.3660482213,-0.2986676038,3.1235324812,-49.6367446282,-0.5408614347,-0.0603199797,0.5496691513,0.4242626307,1.0439165735,0.1260173585,-0.3816702326,1.4692356392,-0.4415321188,1.029164569,0.3964037465,-0.1673525495,0.2103316537,0.8944911367,-0.3772975097,-0.3208424031,1.4607983848,0.0704583347,-0.1066503246,1.3917538503,-0.4385610145,0.7479396671,1.5272008345,0.518305584,0.1358301698,-0.8374756629,0.3304106828,0.233341097,-1.1622905825,-0.5655082636,0.3183565281,0.5496283087,-0.7598731698,-0.2268466454,-0.6400131669,-0.8105155996,-0.9439130477,-0.4762173186,0.3280008621,0.309791788,0.1530275359,-0.5967538772,-0.6257725845,-0.590645621,-0.2330771242,-0.9901338665,-0.7899441136,0.4471112394,0.4471744036,-0.3244923424,-0.5264399676,0.4110157167,-0.362973565,0.0508743248,-0.8289740227,0.0631250289,0.256134953,-0.6384652971,-0.6213472365,-0.1811466191,-0.0938380157,0.2073774942,-0.6298055948,-0.5734185941,-0.5326888317,-0.7946701452,-0.121160338,-3.2265664375,12.9822225378,0.4781797191,-0.3654946698,-0.3285117684,0.3335758755,-0.6696572738,0.5091607005,-0.6006239088,0.7406116683,1.0653258814,0.217292479,-0.5236849905,-0.3945507021,0.5543413388,0.7762528561,-0.5735112276,0.221238084,0.9182903522,-0.7096814029,0.0385096493,-0.5485884745,-0.4691190424,0.7384432435,0.3746761859,-0.2307279677,-0.1133462153,-0.9314121316,-1.1436799607,-0.6940147822,0.7962473769,-0.8531778385,-0.3178928578,0.3805812395,-1.1616969186,-1.116742319,0.1331366495,-0.6048164591,0.751634022,-0.5963254399,-0.6060165573,0.2533387702,-0.3520951382,0.3040650321,0.5736495982,0.0938744587,-1.4875624043,5.7765227005,-0.4471799772,0.8220372597,-0.420497144,-0.0575167841,0.3049227535,0.3532722758,-0.3205477504,0.1040272783,-0.8547865093,1.0872785052,0.0789567647,0.6752755319,-0.3304980786,-0.6821373254,-0.4707562862,1.0507609455,0.0060144431,0.1777896656,0.9847976238,0.0767380047,-0.020939886,3.4615987163,8.7589913848,0.7296623146,0.664673347,-1.0217206922,-0.6541245297,0.8897234706,-0.3282441824,-0.4743428518,-0.0092111472,0.4614231712,0.8204720352,-0.8536756622,-0.9862367346,0.0247235327,0.4593174661,0.2383200032,0.3532226475,0.4328905866,0.1272234548,-0.5955664532,-0.2362483491,-0.0196739475,10.7450281764,99.3578098593,0.0831360785,0.3613087052,-0.9302180462,-0.4304637282,0.7060310944,0.3655573946,0.4548618404,0.0001915367,-0.0348852936,-0.9266972871,0.7879019733,0.8367736646,0.7083327602,0.6092383706,0.1991889194,0.6482280121,0.0351746523,0.220932213,-0.3331572855,-4.2905562105,-0.8534821979,0.4519224296,1.6122845716,0.4851954911,-0.8786473812,0.2671068334,0.094980247,0.4013118417,-0.6812147506,0.204587151,0.6511392574,0.9981592144,0.7239397054,-1.2125401093,-0.5686333748,-0.2157088447,0.5530939951,-0.1895003161,0.0674090087,0.3771186629,-0.4076836235,0.2316981096,0.4303018987,0.3846851944,0.6573556483,0.4479526485,1.0638338379,0.5444995593,-0.4233240205,0.7743114082,-0.6765318565,-0.7102451644,-0.4886677925,0.6984566232,0.6046031849,0.2586948239,-0.304587335,1.7607980481,1.5656365439,1.4361215536,0.7166213027,0.5975303813,0.829896151,1.1114810532,0.7158757917,1.643372773,0.5150659986,-0.3765551899,-36.7593034886,0.2467090354,0.3424937188,-0.4490416062,0.5244066392,0.4173278076,0.5128435877,0.7549923078,-0.5967835121,0.7361312685,-0.5330938973,-0.1830147718,0.3051849477,-0.9603177888,0.5978483779,-0.6001905253,0.2706529926,0.1386277533,0.7052876593,0.8145582988,-1.6449035801,0.4126854172,-1.7387347585,8.7220410829,1.1494516752,-0.0857064437,0.4902843644,-0.1819864449,-0.7033769506,0.083825128,0.5660487197,0.3646618325,0.399502245,-0.3389241854,0.7405465847,-0.845287341,-1.1573172159,-0.7459756064,0.0360218243,-0.4751136996,0.0625879023,0.6251321424,-0.129244649,-1.2760616776,0.8081798303,-0.9218426048,-0.0390008713,0.5370804608,-0.0526488441,0.4401880982,0.5282727045,0.6860772159,0.2916375588,-0.2711974545,0.6677302881,-0.5772579506,0.9306946585,0.1836743363,0.9436728559,0.0983800976,1.1646624753,0.935674076,1.0098850132,0.5660666626,0.3263876369,-0.4019438747,0.7423077328,0.7683961601,5.3526951029,5.2341250624,-0.820232409,-0.2896579471,-0.2303329976,0.4399897144,0.4039288057,-0.8695770383,-1.0959197243,-0.6484212473,-0.481918069,0.5270255644,-1.3884491549,0.1912921198,-0.3601252127,0.3921874438,0.0182372564,0.8371570757,-0.095430749,-0.5151190987,-0.1752773498,0.1097946002,-0.074108388,-5.2084044686,-17.2575847691,-1.1050750693,-0.658643803,0.1773234858,0.8835757632,-0.8253066216,-0.7984488751,-0.3223346871,0.7184052019,0.2806669179,0.1192772926,0.329610652,-0.8135408905,-1.4180441954,-0.8037618035,-0.263547704,-0.2335958947,0.0690372229,-0.966038412,0.5799239234,1.5380626767,0.2040824484,17.811803832,-96.046851251,1.0887173647,-0.4191821591,-0.8763519518,-0.4966115382,0.1068654302,0.6153550391,-1.2243293372,-0.1014617846,-0.5424068113,-1.0896808161,0.5467524847,0.2954340508,-0.4012595396,0.4440883728,0.1398159283,0.2703690928,0.5808377459,0.5011960769,-0.0046742756,10.3099952876,-0.4851097117,3.5112868944,-19.782593443,0.896813634,-0.243519568,0.2443956248,0.8605361877,0.6696421991,0.273392812,-0.2082297978,-1.0127758196,0.9458106391,-0.8432036473,-0.1285340274,0.6050382217,0.7938577426,-1.0202951213,-0.3212422436,0.4135448428,-0.9579863899,0.4428985013,1.0519969401,-0.1653545763,-0.5082439238,0.0577756557,-0.2095411316,-0.9483906782,-0.0821351727,-0.4049916167,-0.9953031386,0.3255555689,-0.0680907684,0.5233791781,-0.4521965868,-0.0372772637,-0.7778244373,-0.3559181945,0.0694622102,0.0221394137,-0.0590576117,0.154286853,0.0609167636,-1.1809411263,0.4533272294,0.0941754969,0.0088355481,-0.8663494029,-0.8689682825,-0.4918737565,0.7453400712,-0.119553877,0.0248166766,-0.0012911233,-0.3934488511,0.8721570252,-0.3335102015,-0.0946163341,-0.3396435839,-0.5511416612,0.0446226864,-0.5559057835,-0.5190174151,-0.6357012515,-0.1160200556,0.6424209919,-0.3583684321,-0.8044410485,-0.1681481906,0.5267933764,1.1035126118,10.2528699926,-7.9463439633,-0.132763298,-0.8906584976,-0.3268982066,0.6724240349,-0.586765156,-0.0157156464,0.0740911147,0.0152919532,0.3904025774,-0.0262485406,-0.2576506934,0.239833248,-0.811850073,0.464027647,0.5070721253,0.9369007458,0.5298128134,-0.131986856,0.4224057393,-0.8414914072,0.1438152491,0.9559455647,-8.4324112877,-0.9589443872,-0.9280936391,0.3012547638,-1.600826627,-1.4332081821,-1.3132488311,-0.8314130992,-2.145111749,-0.0203121624,-0.8303119582,0.3364285144,0.7297080738,-0.0293099693,0.2817078275,0.4850665629,-0.4223894281,0.0588214844,-0.0368671219,0.207110869,1.1917780496,0.8004417055,-2.0545809974,-10.0713752162,-1.0528520591,-0.8272855631,0.0295745943,0.3754346042,-0.1712070937,-1.1400869973,-0.616124478,-1.2567697303,-1.0538714076,-0.2657968403,0.0988235938,-1.0564553875,-0.6976914631,0.2150622635,-0.9559180591,-0.5139060184,-0.1917925612,-0.5815177113,0.3185044515,1.711890949,-0.5347438389,-4.0819182816,9.5014093261,-0.1583040186,-0.3788943009,-0.3247283792,-0.5242850503,-0.6298566201,0.8123388688,0.0986745541,-0.5373568998,-0.4732427526,-0.6006526484,0.473461186,0.0812494473,-0.1217688727,0.2570811333,0.3204024381,0.8244028016,0.1136237657,-0.2095951288,0.4133854567,-0.6281284787,1.1317400339,0.3130094454,32.4531027364,0.0601629044,0.6695803246,1.2640440445,0.0438210317,0.6267645362,-0.7082909923,-0.4010258726,0.6005127903,1.0116799884,-0.1055131268,-0.750297447,-0.4747405585,-0.8654788929,0.1686669646,0.4895663421,0.5467409096,-0.2131871066,0.591522018,0.8697015593,1.0222693659,0.7185544978,-0.5004019968,-1.1850646621,-0.4700356201,0.5762705592,0.7188770887,1.2007809657,0.8917156111,-0.2916386245,0.6784210349,1.0808079784,0.0057010867,0.1846979718,0.795496755,-0.5088520012,0.1195235639,0.9653729433,0.1059903723,-0.3325725558,1.152800462,-0.0265643433,1.0823745742,-0.778395604,-0.7865885698,0.1769736463,27.314068561,0.1124693474,0.5799682611,0.201155167,0.9020987812,0.5906346644,-0.5496186089,-0.7967602679,0.2006475755,1.1469079655,-0.2152876518,-0.4173397889,-0.5190529267,-0.1153171892,-0.501275673,-0.0760698022,-0.5561184857,0.6369744501,0.0553231664,0.7227336885,1.4817647611,0.4909110863,-0.5198044511,-3.9653522412,0.1117516621,0.8870650304,-0.2536621733,-0.7831981474,-0.6970222098,-0.3090934471,0.0932405485,-0.9325658365,-0.2805460154,0.6160900202,-0.5082496021,-0.1921698809,0.416593648,0.674542973,-0.3007456155,-0.5168548515,-0.5878160287,-1.0395798189,0.7263860327,1.1532150941,0.1421040943,-1.4871673838,-10.3631503854,0.7054998182,0.6378217782,0.2585843703,0.4700117477,1.3238019474,0.8939983614,0.0456657867,-0.0008653978,0.2358981028,0.8114239305,-0.5186494678,-0.5123198493,0.1783501157,-0.0608664878,-0.576277001,-0.9843520216,-0.1887346076,-0.0881075122,-0.0125550354,-0.2608018397,0.0720638743,0.4866861787,0.6112995544,0.6884074004,-0.7177021869,0.3989749158,0.2940554005,0.448904649,0.4661989463,-0.4180472474,0.1411407953,0.7172526106,0.9497366235,0.7261046692,-0.2551140204,1.0230186757,0.1716436253,0.7001931402,1.1446820451,1.1657788503,0.7884631434,-0.1666956597,-0.0416818648,0.4409366797,-2.9295568524,-0.2975203389,-0.5806054235,-0.4416802883,0.0528843133,0.2293487886,-0.8704036539,-0.8081227518,0.4813290984,0.4107754714,0.2070107384,-0.2061140789,-0.3347467932,-0.2745778803,0.6224773452,-0.8540160089,1.0490073142,0.3327755771,0.7114142161,-0.1310992223,-1.1757802034,-0.7725306959,0.631910406,-0.397696423,0.4192763627,0.0822285555,1.3289299487,0.5506576393,0.8363674547,-0.1303308335,0.705606115,0.0419281446,0.2872838663,0.450803375,0.171314916,0.6702809223,-0.4921676425,1.1824644184,0.2261810295,0.2701745573,-0.5110899789,-0.4354402199,1.037725468,-0.6030822949,1.1179250247,-0.568520965,1.7976005489,-19.5544926402,-0.1727075785,0.0782054818,-0.4370935753,0.0388036102,-0.5839291059,0.3840487886,0.6670400526,0.5199848814,0.6790229039,-0.7545359809,0.1787036856,-0.1360535514,-0.3646193274,-0.0946215521,1.4272615359,1.7212582707,1.134161393,1.6232684502,1.0636198157,-1.4314052449,-0.9818182905,0.7328732071,1.0553213876,-0.2406192896,-0.2653424348,-1.2158423481,-1.3819325884,-0.7234168914,-0.8805773114,-0.3327072234,-0.4845952822,-1.0022048975,0.2784169519,-0.5835175175,-0.0374246884,-0.0954308242,-0.171315488,0.0303254204,-1.0182845491,-1.4042307681,-0.7622966928,-1.0905116658,-0.8992855935,0.0122086156,3.060235826,-3.9523735563,0.7164525851,-0.5188365072,-0.9904606203,-0.5398591076,-0.1529095164,-0.1625545739,0.3299066729,-0.121451078,0.4351900314,0.2248701526,-1.1634651209,0.2219526417,-0.2238525132,-0.382487014,-0.0309061219,-0.4134076042,-0.5503016149,-1.2333531157,-0.9901159428,-2.6002643577,-1.0201697012,-21.7671409892,-25.1212423233,-0.9668478974,-0.6851102746,0.4361354302,0.3803030578,-1.2061029018,0.7309279258,0.427349976,0.2960776281,0.6746979987,-0.0840015911,-0.0248252267,0.0132655978,-0.6655717268,-0.4359929771,0.4673416617,-0.7185736673,0.3287131214,0.2249360856,-0.2714528479,-1.733969632,-0.9137176837,-0.9908433072,-0.5943842279,0.6503111767,0.2745638039,0.5741225882,-0.5550808691,0.1249151833,0.2845083991,-0.4683499443,-0.080497167,-0.2742784474,-0.2848318202,0.1385510036,0.1600460951,-0.5922822707,0.3560747536,-0.3015986706,-0.6854970834,-0.151137668,-0.9248460359,0.4194112431,-0.1314375696,0.0880192607,-1.1176893484,2.9032922461,-0.573485582,-0.72306653,0.6211605165,0.2150273751,-1.0180817972,0.2720782308,0.9873374606,0.5219703076,0.2293629588,0.6808141523,0.3633517416,-0.1353207975,-0.9856238136,-0.0604848616,-0.0862303417,0.1531812806,0.8986393229,0.5844788875,-1.0217913975,-0.3569393595,-0.4295869132,8.4289146369,0.2564998091,0.7057016927,0.5250635063,-0.9036675988,-0.1939581094,-0.2195568588,-0.4593311523,0.1199760943,0.5107986268,0.2981716227,0.8075258342,0.1353693513,-0.0172054281,-0.4067646555,-0.1772817314,0.6913764344,-0.2518436881,0.4579658802,-0.616468144,-0.8388746766,3.632995261,0.5541116471,-0.57095359,-0.3040457075,-0.6211114212,-0.7866676558,-0.5819872569,-0.4984610913,0.8453738364,0.6075859919,0.6155839543,0.5442237489,0.4190128058,0.1496450002,0.6076415751,0.1853777675,0.2930485474,0.6623416929,0.1846271646,-0.935195428,0.2637412507,0.2724436775,-0.5303912411,0.3393225911,-0.0308208667,-0.2015116381,-66.1520198959,-0.1268430629,-0.8660112936,0.9112324668,0.8646003823,0.7517454357,-0.9250729901,-0.9292372139,0.1481100067,-0.2646220146,0.5417189141,-0.3052273873,1.05936017,0.1291335767,0.0376953435,0.521917466,-0.0462096221,-0.7047177721,0.7099729251,-0.6473256154,-2.7861178253,0.6764653471,8.0368473869,9.2825159703,-0.5431072512,0.6559573928,0.638797368,-0.8071930401,0.1558180521,-0.9301543693,-0.671393345,0.3000443616,-0.2093260119,-0.6153038767,0.2924721599,0.5785716601,-0.8855592204,-0.1273996855,-0.0398234903,-0.3973411767,-0.5292309323,0.5110144941,0.4360681408,0.3640542349,-0.5773469157,5.0800808622,-15.913533489,0.8570169332,-0.547087717,-0.9078911538,-0.9469655595,-1.1203119504,0.1314045051,-0.5524238379,-0.036155009,1.3837583749,0.5926102508,-0.1462280151,-0.9298633988,-0.2751314325,0.5296517259,-0.8021251868,0.5877070126,0.5953820138,0.8616723545,-0.8150137379,-3.2715661103,-0.3123807411,-5.8369411066,19.427159532,-0.1827988765,-0.7562289301
   -0.7836170076,-0.1588497928,0.3545448784,-0.3000773307,-0.150392408,0.0158021896,-0.3095323613,0.0558106376,0.2833209168,-0.5964282196,0.7050187007,1.116721273,-0.9356976342,-0.4273154286,0.5368549699,-0.3924848124,-0.0383997158,1.289967965,0.1653055819,-1.2793067712,-0.1138879899,-0.7214236789,-0.8391080033,-0.1317291732,0.038040901,0.2786726688,-1.292265508,0.0934876292,0.1907233523,-0.8379103592,-0.185287638,-1.0940765324,-0.8476777605,-0.129136074,-0.8270696428,-0.9139310328,-0.9463051799,-1.4600302744,-0.1273150873,0.1040671064,-0.5143767865,-0.2679777433,5.9401649297,0.4457902025,-0.7232279392,-0.4129934177,0.3052871769,0.0287244792,-0.6700359014,-0.3171681503,0.68862873,-0.827780977,-0.4609238812,0.2475088728,0.821951751,-0.7746327678,0.4836923909,0.9423156345,-0.5079462818,-0.4942013251,0.7225640388,-0.1629082533,0.2117151834,-10.1749706581,-0.1252011856,-0.2070343164,4.8874570314,-0.3081333419,-0.9439333632,0.1243884373,0.2110963648,-0.4616512882,-0.701970774,0.1226375695,0.2268491187,-0.0695148868,0.9849511425,-0.5406082726,0.2901899905,-0.0262694672,0.7393008791,0.3681400393,0.3072188114,-0.6814809737,-0.5915182728,0.9798265717,-0.5771332373,0.2960313349,1.4468563939,4.9180179637,1.0008254157,0.1087580794,0.3445179768,-0.5202110168,0.3460283327,-0.0524761326,-0.9654647659,0.1451758885,-0.0704310639,-0.7198621051,0.4495910152,-0.2738459437,-0.3380500523,0.3322165443,-0.916266241,0.3505664023,0.8861885549,-0.1670753456,-0.6946903094,-0.4860437572,0.414500179,0.3988406923,1.2968702134,0.9311611565,0.9090041903,0.5129952675,-0.0966655751,0.4417745025,-0.0743583505,-0.1862844647,0.7613228492,0.5657833753,0.0289954579,-0.2323137867,0.9647306643,0.5374119269,-0.6909824855,0.1377780468,-0.1204267206,-0.812439976,0.4680610985,-0.0430278289,0.3900514699,-0.3792155038,-1.899251968,15.2593216036,0.6933440764,0.0508056041,-0.7429198204,0.4423109309,0.8699432416,-0.8155526529,-0.6132947862,-0.0633247196,0.5884273126,0.5655181463,0.0248544313,0.8260849128,0.9054100081,-0.3836869075,-0.3889990769,-0.7501956642,-0.018071206,-0.8122909006,0.1074082783,0.1790096252,0.7517240062,-0.5905655088,-3.7127814642,0.0474490169,-0.6657330687,0.0410720936,-0.0448520391,-0.3205101308,0.6300227181,-1.0545620138,0.7213769502,-0.2535659593,0.4729291144,0.4281799577,-0.8667736023,-1.1607467717,1.0172037975,-0.3918787793,-0.709489684,-0.0921348711,-0.6281043804,-0.209601293,-1.2414203319,0.113657989,-14.833434511,16.905820055,-0.1966667977,-0.357716186,0.3068640232,-0.6445690778,0.4670532021,0.6410291038,0.1571355806,-1.0027108895,-0.1094984793,-0.8580945673,0.1637562678,-0.8926330674,-0.8057843132,0.5667765149,-0.1143827366,-0.4406029447,0.4794680503,0.2866733788,0.8084673317,-0.7732200099,-0.3532742855,0.5830131199,0.081466925,0.2000518266,-0.524896779,-0.9772356994,-0.0124833189,-0.8505011704,-0.546687385,-0.7425700911,0.269417335,-0.6700420029,-0.9816636549,-0.5757815929,-0.4480553234,-0.6993247205,-0.8963372652,0.4580775061,-0.8518892102,0.1080023475,0.1997480101,-0.4076452088,0.5741017433,0.5493528274,1.4932394931,16.7785169735,-0.0520903688,0.0354350871,-0.2875830811,-0.8822765023,-0.456249675,0.2863272828,-0.8312365864,-1.0297192688,0.4969567107,0.2929490805,-0.3569465524,0.5239626956,-0.494936132,-0.6705267857,-0.0382933393,-1.0345525281,0.3658389132,0.4488556769,-0.4647507275,-0.7767573622,0.4345990787,7.1212749967,-9.4116835347,0.7590077764,-0.7225210961,0.5623326226,0.7648261596,0.2069614781,-0.4465291352,-0.7532618879,-0.4344170454,-0.6924461437,0.2960739588,0.3754656659,1.1614293272,0.0853243837,-0.2543381752,0.304524341,0.768024687,-0.1155915087,-0.5946176516,0.9034653635,1.8781259277,0.9641167181,5.3937662497,-52.8010240424,-0.0873125868,0.8909203856,-0.469819975,-0.2362815841,0.5107900179,0.8153915093,0.8575342707,-0.4335342016,0.0514292313,-0.0989810707,0.5131859076,-0.1670941434,-0.9510695627,0.2055773221,0.7818549008,0.1752109069,1.4242903486,0.4325473636,0.6611831008,0.9267919216,0.4581730122,-4.6429706379,4.2149548745,0.5045207232,1.0062875978,-0.1890143544,-0.8442787054,0.1516618237,-0.0768383784,-0.6960658567,-0.6622485969,-1.2193462871,0.9671400553,-0.9514188904,-0.207627806,0.5918728558,-0.4084989299,0.2391878995,0.463813447,-0.7669643497,0.0228699267,0.3055947314,0.3665153763,-0.4674281383,-0.39225115,0.6641773393,-0.3108716987,-1.0065809482,-0.7913855318,0.7443134852,-0.4295373602,-0.2260664504,-0.472020562,-1.2007221274,-1.1573517825,-1.2095176491,-0.6715931917,0.0980835153,0.1126979547,0.5751549964,-0.5983550373,-0.4805470852,-1.0232549853,-0.1194129993,0.6645419446,-0.7835257783,-0.6139729321,-4.5901167562,-15.3039184133,-0.2315495958,0.0065432591,1.0002428487,-0.9429703065,0.6731909715,0.4099546116,0.4903242248,0.6184160816,0.0822546616,-0.529218056,0.1656402215,-0.5494553794,-0.1797366628,0.682773457,-0.0022000365,-0.8429949407,-0.0975029144,-0.2918371674,-0.6600870004,-0.4498111747,-0.6808837019,28.6475081685,36.996886487,-0.3069377818,0.4995680015,-0.2368467326,-0.4296139773,0.2375730518,-0.8977116765,-0.9914810574,0.2965206734,-0.4805561516,0.7429651829,0.106113678,-0.9100124421,0.5721000024,-1.0143307905,0.0598765166,-0.3082716976,0.1181160298,-0.0140721253,-0.6238985307,-18.9033253453,-1.1158355134,-0.4105805089,0.0237725827,-0.0808412721,-0.072921527,-0.3036259405,0.4588379667,-0.5818893532,-0.4131542714,-1.190570767,-0.8409638908,0.4683041814,-0.1169274994,0.1595555619,0.273628759,-0.9893598863,-0.2587336513,0.3718976076,0.1126355375,-0.8657931305,-1.0139131237,-0.4919275943,-0.359396196,0.9394106047,-0.4120626901,-15.8844466052,-0.8322329576,-0.2576314608,-0.5555047543,-0.8245842001,-0.9913797732,-0.4120629235,-1.0839502043,-0.8182558753,0.6223603843,0.4446248784,0.3403580876,0.1645813066,-0.2343850696,-1.6479819311,0.1745610385,0.4258490402,0.4446912908,0.4607483704,0.2416102256,0.752169701,-0.0106658764,0.1805476046,-0.0089434635,0.2367721186,0.6615361993,0.4836059995,-0.4634304545,0.3492445405,0.8511368519,-0.6288615883,0.2831366093,0.6562525671,0.6400128036,0.1833875703,0.7997572613,0.8811133389,0.796933029,-0.3474624595,-0.261946779,0.1956946321,-0.2123538065,-0.5290085481,0.3989636918,-0.860303613,9.1804174243,2.251552409,0.51853546,-0.0436718939,1.1723066893,0.8732080993,-0.6838120577,-0.0578852863,-0.2384154823,-0.4762181926,-0.0658780528,1.3233386322,0.4562346866,-0.7648958846,0.6153861783,0.2842803907,0.4290021324,-0.3377460589,0.427369229,0.9155042599,0.0635149331,-4.7027070633,1.356007196,0.0669448134,0.3136241087,1.4396931258,1.558332874,1.4128994828,0.5836402892,2.0543094081,0.8312039319,-0.6840470945,-0.5857286254,0.8723808249,0.796047994,0.3599166118,1.4412786162,-0.1192892557,1.3048541325,0.2681611408,1.2503768067,1.0262255492,0.5319747965,-0.398804328,0.1914202978,0.7790475261,-0.7671522272,0.5485635677,1.0485237663,-0.6132230499,-0.1671790185,1.1360162488,0.7887800545,1.3469496528,-0.6001288759,0.6636929133,-0.393232586,0.1352794399,1.3195864586,0.012869333,0.1227088884,-0.4924742813,-0.5714467115,0.0360282895,1.0902266104,-0.3315212115,0.3637567607,-0.5308182927,0.0866292329,-3.1539607824,3.2685838379,-0.7305439935,-0.7404054005,-0.4943304657,0.4955353961,-0.3081395118,0.9925213809,-0.2863303361,-0.6886228598,-0.1568533816,0.3487033881,-1.1092596154,0.530591362,0.2304286959,-0.0157504314,-0.7839727704,0.4425239958,0.1441895959,-0.8420816031,0.6793727386,0.1153157705,0.6247316681,-0.5693057988,0.2703622758,-0.410293768,0.0510405651,-0.9947603206,0.8950800933,-0.7475843651,0.3414249214,0.4147732649,-0.0956426153,0.6583889586,0.7752131274,-0.285698284,0.7460248066,0.1886933636,-0.1668392804,0.2238526989,0.5263905099,0.1460039457,-0.4097593658,0.3250331192,0.9097318104,-0.3301775416,-2.2412438595,7.8749066333,-1.0630574014,0.0040273706,-0.1299990172,0.2550680205,0.5716136724,-0.3729929707,0.8043908754,1.1235657098,-0.6733664379,0.5492238835,0.8731793402,0.8117126508,-1.0047751657,0.6280548488,-0.3912620856,0.8356212842,-0.4007941485,-0.8671937906,-0.4218621464,-2.698787988,-0.8450663609,5.055037328,-8.2718893975,0.1404453524,0.8655114804,-0.501436512,0.4149178416,-0.0480629252,-0.2530994967,0.545721941,-0.5209684667,-0.1257437596,1.3715857048,0.5292727737,0.5191135161,-0.4316202737,0.7764281539,-1.0418194174,-0.2739103683,-0.3217291187,-0.0976131396,0.0164458794,-3.4969847402,0.8752026027,-1.4248330397,-3.0978509037,0.0781837242,0.0726522317,-0.7054480972,-0.2621866835,0.6612784306,0.5749592302,0.3585881074,-0.7213187345,0.4277681675,-0.9372380514,0.657011192,0.674374361,-0.445853012,0.0272451066,0.2059426317,-0.5122694842,-0.2117037646,0.1246689186,-0.9414276871,-1.008992532
##end
biasActivation=0,1,1,1,1
[BASIC:ACTIVATION]
"org.encog.engine.network.activation.ActivationTANH"
"org.encog.engine.network.activation.ActivationTANH"
"org.encog.engine.network.activation.ActivationTANH"
"org.encog.engine.network.activation.ActivationTANH"
"org.encog.engine.network.activation.ActivationLinear"
