encog,BasicNetwork,java,3.4.0,1,1571495358704
[BASIC]
[BASIC:PARAMS]
[BASIC:NETWORK]
beginTraining=0
connectionLimit=0
contextTargetOffset=0,0,0,0,0,0
contextTargetSize=0,0,0,0,0,0
endTraining=5
hasContext=f
inputCount=22
layerCounts=3,36,51,66,81,23
layerFeedCounts=3,35,50,65,80,22
layerContextCount=0,0,0,0,0,0
layerIndex=0,3,39,90,156,237
output=0,0,0,0,0,0,0,0,0,0,0,0,0,0,0,0,0,0,0,0,0,0,0,0,0,0,0,0,0,0,0,0,0,0,0,0,0,0,1,0,0,0,0,0,0,0,0,0,0,0,0,0,0,0,0,0,0,0,0,0,0,0,0,0,0,0,0,0,0,0,0,0,0,0,0,0,0,0,0,0,0,0,0,0,0,0,0,0,0,1,0,0,0,0,0,0,0,0,0,0,0,0,0,0,0,0,0,0,0,0,0,0,0,0,0,0,0,0,0,0,0,0,0,0,0,0,0,0,0,0,0,0,0,0,0,0,0,0,0,0,0,0,0,0,0,0,0,0,0,0,0,0,0,0,0,1,0,0,0,0,0,0,0,0,0,0,0,0,0,0,0,0,0,0,0,0,0,0,0,0,0,0,0,0,0,0,0,0,0,0,0,0,0,0,0,0,0,0,0,0,0,0,0,0,0,0,0,0,0,0,0,0,0,0,0,0,0,0,0,0,0,0,0,0,0,0,0,0,0,0,0,0,0,0,0,0,1,0,0,0,0,0,0,0,0,0,0,0,0,0,0,0,0,0,0,0,0,0,0,1
outputCount=3
weightIndex=0,108,1893,5193,10458,12298
weights=##0
##double#12298
   -0.3330929838,0.3372608313,0.0967396779,-0.0628129139,0.7894478428,1.0994782154,-0.7353926138,-0.7220430214,0.1084928364,0.4911122986,-0.1720144646,0.1458406401,0.6002858762,-0.4596692415,-0.6647216769,0.912117208,-0.5393259178,1.4638020061,-0.6984489946,0.5191547752,0.5098323418,0.3997039767,-0.4000382187,0.9420490725,-1.3225050644,0.2545928468,-1.1920290401,1.5285888855,-1.6450114219,1.0159425941,-0.0162340653,0.8123717174,-0.7661308848,0.3251454283,-0.3746840731,0.1688049887,0.2787564856,0.6296045681,-0.8275172334,1.1149411188,0.0585416939,-0.3660676838,-0.7544296661,-0.0058781004,-0.2704288777,-0.466462159,-0.0115800316,-0.2746392657,-0.1226740925,0.5009059652,0.9900794431,0.6675066284,0.381244524,1.0919176003,-0.8253190318,0.2161838108,-0.4218221818,-0.5310903258,-0.8356141285,-0.7992189189,-0.2797886255,0.0159115495,-0.2440073106,-0.2038606483,-0.0065606508,-0.9053650965,-0.6114259076,0.0136133443,0.3918969292,0.5255724047,0.7983006314,-0.383702432,0.9992639922,-0.3523733521,-0.2578089453,1.0831235482,0.2456984709,0.8092435099,0.1932987317,-0.3588985646,-0.0340287248,-0.355597791,-0.4258547019,0.9221154378,0.6968582511,-0.5482518248,-0.8103703991,0.0716616993,0.9351342029,0.2771446047,0.512423567,-0.409944999,0.3719814455,-0.1594907033,0.2631747118,-0.1845965355,0.15235927,0.1217944313,-0.1111438534,-0.5115389906,0.0860310096,0.0239477487,0.0719590796,0.4904854185,-0.7553556047,0.5494798229,0.0870404463,0.1265551587,0.0500880601,-0.0195357994,-0.4109033797,-0.8522443036,0.5577995163,0.5524410746,-0.1355725674,0.3955993282,-0.2453325339,-0.0825907765,-0.3439824682,-0.3525895645,0.7493969439,0.410398951,-0.3568344704,0.079839726,0.6731392676,0.3863069566,0.7231730878,-0.4264618215,0.44751613,-0.1332037079,-1.0040411189,0.0277671539,-0.8045626389,-0.5562884224,-0.6751658722,0.199137641,-0.4959324055,-0.5941609019,0.6310322541,0.4209777754,-0.829659471,0.2178063058,0.9538607212,0.3154438471,-0.3333856814,-0.3189562378,0.0181578304,-0.3272932811,0.1925429261,0.3007142286,0.5783985973,-1.0064490408,-0.3192663789,0.8277608794,0.0031865175,-0.2120120046,-0.3894478849,-0.2444284315,-0.1843635842,-1.0919517769,-0.9394927541,-0.508554994,-0.2184102575,0.0441409293,0.5728190366,0.7890640156,1.3249929907,0.8761080209,0.2899084194,-0.2549224978,0.9793567391,0.6425189857,0.5077172214,-0.8691741224,0.6139186186,-0.6682454511,-0.731583866,-0.5980173654,0.3080075649,-0.0662553518,-2.3983806883,-0.9105162859,-0.3736509356,0.3688418925,-0.200256411,-0.0216710797,0.3006784856,-1.0410113432,-0.5591900957,0.0756160172,-0.1686592682,-0.1980163394,2.1816613334,-1.9423487612,-0.3469828815,0.3483234274,1.0049511116,0.2769494583,-0.1316265739,1.1684078516,-0.1606728158,0.7076425704,0.1389263984,-1.130386618,-0.0709316549,0.9449421336,1.5292693235,-0.8071385378,-0.345028939,-0.6304745404,1.0783443715,-0.3333633891,0.095542387,0.2623156544,1.2842178824,-0.7707919585,-0.9123019531,0.8511987508,0.0261584875,-1.0285833787,0.3468257041,0.4817144117,-0.5004592103,0.8954876674,-0.0258629141,-0.7421262517,-0.2163526703,-0.8216174856,-0.3283325213,0.4654403324,0.3066069794,0.2395122061,-0.9806584406,0.0713255903,0.7947694518,0.1176550514,0.6792174838,0.3179509557,0.3017295551,-0.0018257497,0.1844482476,-0.2410392683,-0.1597385495,-0.4302803952,0.7900262224,-0.8444730398,0.8596861445,-0.2031145012,0.2699841868,0.0189825049,0.6857636763,0.4199207792,-0.4706484678,1.2600179342,1.8408930169,0.8141448183,1.4310573685,0.6625773958,1.1478186053,1.0825884766,0.0573602635,0.4406433211,0.6745496191,-0.0942634028,0.0630357493,-1.0039350996,0.0572558472,-0.6827711719,0.0401137243,0.4739395044,-0.5128907996,-0.3294806852,-0.6871028534,-0.3893441037,1.6504325203,-0.8008521847,0.6032216355,-0.9546138828,0.8222655025,0.565771248,0.7509096536,-0.0640642124,-0.6159755306,-0.8945708794,1.0766223889,-0.8203232941,-0.3684906481,0.0813831214,-0.7829010878,-0.1626513004,0.2302707202,-0.6847573164,-0.9053173968,1.0068855804,-0.5140845196,-1.3267601086,0.4426705217,0.5778754519,-0.6547601318,0.5888490871,0.7371227819,0.5157471614,-0.4487236455,-0.5874014895,0.058056153,0.5335444288,0.7007025016,1.2974685026,0.1139235869,0.4213859883,0.098836859,0.1083065309,0.7278065406,0.3303052735,-0.7515852447,-0.9859734533,-0.9932763478,-0.0126192443,-0.8649765343,0.5337139696,-1.085977273,0.1624298551,1.3589496286,-0.396816874,-0.5591229221,1.0524724267,-0.8960515906,0.8674383635,-0.8461619086,-0.5547818265,-0.0423566601,-0.5866892011,-0.4129040695,-0.3654453841,0.1163137663,-0.1494402625,-0.5697875103,0.4918835432,0.6199837325,-0.6872263795,0.9560560278,0.7813518943,-0.6850519426,-0.4509339587,0.0290984263,0.4095325913,0.0014464189,0.1779314123,-0.6517484979,0.4598918803,-0.9281417963,-0.160037191,0.5955400567,0.4549682989,-0.0633228281,0.3701494986,0.6961324895,-0.5078256816,-0.3749388754,0.0953988664,0.2211350606,0.6679364664,-0.6104458107,0.0761585464,0.0241152472,-0.6844597915,-0.6086897036,-0.4852535577,0.5641005662,0.0054508283,0.5914104113,-0.1578707798,1.218250066,-0.7325037437,-1.1345739695,0.1963957022,0.5853585948,-1.1537940996,0.7338669594,0.8460347808,0.4670556288,0.174685013,0.5934519363,-0.8870528227,0.7306196566,-0.9819910817,1.0191538202,-0.8574093894,-0.0847119082,-0.4618338938,0.2375942507,-0.0693741636,-0.706715822,-0.0650908207,-0.5053526477,-0.2177008531,-0.4165413649,-0.5072089029,-0.6934178808,-0.5506834628,-0.6392448352,-0.0340025545,0.4440169315,-0.2115124586,0.7239109358,0.6947217169,-0.9352758485,-0.415478884,1.1569910769,-0.7601108088,-0.74757825,-0.6960100969,1.0178122106,-0.4280471954,1.2566138719,-0.1552928796,-0.4984658985,0.1254729342,-0.2736315844,0.315462969,0.1783769352,-0.9437879237,-0.7291785906,0.5441848819,0.6684058065,-1.599731498,-0.3443798729,0.1564545105,0.0002263245,0.7175639235,-0.3284042388,-0.4126184194,0.5149660553,-0.3734201109,0.1192930584,0.1002989438,1.9085823188,-1.6700576522,0.6228505887,0.8247673416,-0.3525182601,0.7438537859,0.03561907,0.6572278627,-0.2467511069,1.1846020988,-0.0193492613,-1.0561008149,1.7717955739,-0.8568420787,0.5471050997,0.7751611194,0.6254936165,0.7021444878,-0.5748302438,-0.8731059959,-0.0227528759,-0.0583490949,0.0101383308,-0.6402961696,-1.3434437311,0.668312783,0.6412199278,-0.5705375496,-0.1398863027,-1.0374919798,1.0848304845,-1.5096186416,-0.4618412703,0.463955743,-0.6767095906,0.3878913904,-0.5946894745,-0.6418658831,0.7699073182,0.6776487797,-0.127623358,-0.6688092278,1.4576227601,-0.2571963703,0.9926023475,-1.0263208464,1.484442551,0.082352665,-0.5140933979,-0.3693255188,-3.4055285919,0.9324935132,-0.5785007012,-0.0056187273,-2.3344019819,-0.1274694385,3.2925372593,-0.1207187193,0.3596098705,1.1349940011,-0.3726946745,0.4268717862,0.8034434302,-0.2231262633,-0.4611633353,-0.6001098485,0.3458839426,0.105153935,-0.0062849403,-0.4683200944,0.0951342078,-0.2856644585,0.6585061954,-0.2454670347,0.8463355723,-0.9109045858,-2.7460889825,0.4502584914,-0.0629508487,-0.5325539267,0.3644639455,-0.6622811971,-1.9085049031,0.3328887011,-0.9624557234,-1.2564450794,0.3886519304,0.2828177055,-0.516888847,-4.5207784794,-0.4857431631,0.961694967,0.0628699978,-0.8459849642,0.3524476185,0.164398412,0.8429052379,-0.2413880248,0.7714936039,-0.5136321594,-0.2522160666,-1.1303126756,-0.4957007363,0.430752522,0.414165579,0.2664280204,1.8087883011,-0.2162059818,-1.2018514741,-1.1770644764,-0.5958122453,-1.4580419129,0.280686017,0.2097735593,-0.1335349876,1.2982079617,0.2058081409,0.1612357064,-0.2111372746,0.7731417894,0.0298612004,0.8353065558,-2.6422583953,-0.9507839315,-0.3859807481,-0.0342956773,0.8973713969,0.5422341366,-0.2611960728,-1.3273911058,0.6607831861,-0.7199600811,-0.6945635624,-3.5314545211,0.7453629502,-0.6506151732,0.8260658867,1.0563050301,-1.1930164288,0.5835969281,0.8508886811,1.0218880675,0.7517230633,-0.7334510842,0.0333605694,-0.2278157871,1.0488660737,-1.1309078658,0.0869114657,0.7582286495,0.1678148856,-1.4076199964,-0.9728503463,0.005847148,-0.1363532218,-1.464668324,-0.6431783266,2.4475645772,-0.1696485604,-0.6669313444,0.2762307164,0.214564915,0.3409084895,0.1996830476,0.850614281,-0.9020191114,1.2848150491,-7.4430331614,-0.0271412587,0.0851343429,0.8240115887,0.363018464,0.3910397141,-1.0665973196,0.3227563337,0.5934430837,0.5143621811,-0.2963986137,-1.0683716542,0.5285353329,-11.0325647671,0.3489527797,0.6597122044,0.4562863195,-0.4751792505,0.4567498317,0.6984068459,-0.5439170732,-0.6936835874,0.7725414093,-0.311713714,-0.6572374315,-0.8692995672,0.9609327558,-0.6351072852,0.3577636025,-0.4781698171,0.494934995,-0.6619484019,-0.7681821092,-0.2164782036,-0.7711107523,-0.3914958922,-0.2908516437,0.121908438,-0.2750134145,0.4533481612,-0.047290154,-0.2604046966,0.096706789,-0.0291326268,-0.0052103753,-0.5466769832,0.6098309123,0.0924028023,-0.5087576948,-0.1316024956,-0.8173049702,-0.0775801051,0.8477349005,0.6401332746,0.0233341659,0.0980633773,-0.0520640539,0.9247086872,0.4260745537,-1.0638846343,1.1431448816,1.1546288052,-0.0421310717,0.3034082116,-0.3885611373,-0.1327635726,0.493498318,0.0055834303,0.7191504422,0.7973371149,-0.0665073493,0.3237606638,-0.4155638359,0.138684057,-0.6131480716,-0.6464292012,0.5910217338,-1.3370330028,-0.3308337968,-0.9248928886,-0.3086710736,0.2331548054,-0.8861835788,-0.5246995412,0.6345052633,-0.4730294333,0.0538212415,-0.4563740778,-0.5677358484,0.5884355221,0.2822985896,0.1059359238,-0.7105597486,-0.2322330366,-0.7928791771,0.1288911036,-0.4664357961,-0.3235104903,-1.6500773371,0.4923744142,-0.9287710816,-0.1602085336,-0.9684163239,0.3856857689,-0.8642414639,-0.4541170861,0.5804858137,-0.7721115058,0.204720921,-0.1393660138,-0.6909948905,-1.0091061514,0.3856300818,-0.2671833494,-0.7058215075,0.332767642,0.7636640163,-0.639397954,-0.0950733238,1.127433717,-0.4782313883,-0.678181429,0.4326009957,-0.0849241671,2.228314864,-0.3024943179,-0.2920444318,-0.6003418002,0.650116047,2.6292832504,-0.9504033298,0.9981514744,-0.5975153374,0.5246264439,-0.4342740294,0.5869647894,0.0863635737,0.2694169588,-0.9148126978,-0.6451541195,0.0801243797,-0.8407643063,-0.0343651129,0.7027027815,-0.4643866278,-0.0891539317,-0.1111155987,-0.0719445132,-0.5512717277,-0.1249408288,-0.567005778,-2.2159399107,0.6260092876,0.571744587,0.6381428917,0.6320289406,-0.0510010228,0.5033176793,1.0793791827,0.2160135852,0.7553091987,-0.1731780048,-0.5079282046,0.8858622109,0.4350926328,-1.2816790397,0.4065500373,0.9149645696,0.3981945074,0.6453185943,-1.7837154756,-0.9731371931,0.3038723878,-0.832962452,0.6031382549,-0.5885482557,-0.9536921842,0.0853909564,-0.1304662954,-0.2594713487,0.7089725434,-1.8573840224,0.3215811421,-0.1415437457,-0.5003037167,0.4504297844,0.3303630507,2.0035522085,-0.4667635616,-0.1547895164,0.4932540503,0.4291646883,0.2439522459,0.1968495992,0.2665996429,0.1134307349,0.6229838455,-0.1756858149,0.3209629979,0.1566758529,0.7643130888,0.1826043907,-0.0091151504,0.4041052238,0.0470846284,0.0874409649,-0.0835526937,0.4468855746,0.4743689429,0.6946673185,-0.5126434966,-0.5367474182,-0.4186628599,-0.10173763,-0.2026644884,0.2654799059,-0.9038802315,0.2679725403,1.0204295887,-0.6557854908,0.9094416018,0.4880804362,-0.4187927688,-0.486074319,-0.9264547548,0.6686195569,0.5051777068,-0.9366733388,0.8054041635,0.3879262324,0.613320622,-0.6926096079,-1.5202523015,-0.1459175469,0.3846256633,0.8558879709,-0.3622813298,0.2245987526,0.7214799347,0.4910414702,0.7906009613,-0.8585483516,-0.5761543928,0.3503143642,-0.5382495841,-0.6664064309,0.1829053736,0.1555536563,0.2601644667,0.2285787341,-0.9558184465,-1.2382902818,0.2081485775,-0.2448078275,1.1063990774,-0.0886725363,-0.1786688991,0.3619273671,-0.8207181369,0.3256536081,-0.4734431021,-0.1058674331,0.0220875758,-1.2587574089,0.1986586249,-1.052781332,0.3205735681,-0.4706332835,-0.0253990525,0.1596810536,0.3638156681,0.0765782363,-0.9097818692,0.4023023879,0.8890990584,-0.7184336472,0.6375921093,0.0633787142,1.135350572,-0.7796349403,-0.8986194185,0.1373586784,-0.6817256848,-0.3652414061,-1.720805318,-0.1527568953,-0.3840329202,0.9458687962,0.3338184649,0.2431106795,0.4125968171,0.8037338504,0.5068334066,0.0992146705,-0.2421116463,-0.8313001449,0.305757678,-0.0312116687,-0.4900977496,-1.332609768,0.3740978047,-0.9433725616,0.6178372191,-0.1726456285,-0.3982382091,0.845515103,0.2699661305,0.0097613058,0.2695983208,0.2555916921,0.5878312435,0.7655325764,-0.2917802386,-0.9782949747,0.4585912383,-0.5809644553,-0.5618704981,-0.4005339548,0.4868771091,1.2062035454,0.6866551528,1.2021316015,0.9601294946,-0.4696133081,-0.8426526546,-0.6783256472,0.7579137529,-0.0717093575,0.6267142613,0.7080805995,-0.246851203,1.5172725252,0.2487286763,0.0895838315,3.1714548128,-0.0035686479,0.0089893173,-0.8103612595,-0.628278202,0.0711765714,-1.4995399059,-0.0315049234,-0.1483211338,-0.3354865038,0.093353542,0.4268126629,-0.2144511786,0.7796805543,0.0195031361,2.0670859785,1.5004934917,-0.8883633315,0.1470685057,-0.0276261069,-0.6541449394,0.1457974793,0.0407421355,0.2207264514,0.4780291394,-0.160937915,-0.3263844097,0.049017046,0.3649618341,-0.596069418,-1.1652083026,0.5921097473,0.3418219109,-0.7536825361,0.4962120888,-0.2088069712,-1.01785605,0.335508439,-0.0995083612,-0.2364455157,2.144612893,-0.0417057452,-1.0841740955,-0.4683830679,-0.2944551749,-0.0047612146,0.881297789,1.1604084404,0.6434143635,2.2523862821,0.2786754648,-0.0005683788,-1.0770568125,-0.4189036008,-0.5645863867,0.2014968124,0.5866873596,0.5459078141,8.8307865181,0.5962083247,0.4483632639,-0.5131087004,0.3871657864,0.8055829034,0.3134603863,-1.5282354773,3.0232421301,0.0126108683,-0.174098444,0.9665965975,-1.6449921074,0.2581685786,-1.0024489506,-1.7906918855,-1.3490732824,-1.171956618,-0.9011037279,-5.7376768366,0.2214499588,0.0773170342,-0.6878949282,-0.1536452866,0.4070070832,1.0254959106,0.8374101807,0.6574342862,-0.6117082941,-3.0312501994,-0.0266541454,-0.4399298333,0.4173970578,-0.1330294183,-0.5858159122,-0.5875108311,0.5458309889,-1.0064171747,-0.7974644711,0.7470482592,-1.1144578857,-0.6456341986,0.0496223442,-0.827310709,-0.7943205898,-0.1645466276,0.1323051206,1.0166434115,0.8470700271,0.6837825983,-0.6541767471,-0.6753805359,0.7615204503,-0.2869751792,0.6059879835,0.3569012745,-0.8031728676,-0.5256480416,-0.4774411811,-0.5434245415,-0.0187445597,0.6711494575,-0.5720330635,-0.6230965227,-1.0969849424,0.2154572804,0.0685637028,0.4355595472,-0.648044481,1.0369014553,0.0856168278,0.1058428859,-0.6792592592,0.978146478,-0.3853576371,-0.1820375314,-0.4389195703,-0.6584015803,1.1807870986,0.7152172323,-0.0577400975,-0.451307136,-0.356589608,1.1501864774,-1.2614765079,-0.2394579471,-0.7750938862,-0.8387976566,0.7094632334,6.6915862803,0.7997319944,-0.3206862445,-0.0045604668,-0.0223912214,0.6092141177,3.2485049943,1.1302047196,-1.1578615124,0.2876213559,-0.3012632393,0.9203470222,0.53921786,-0.3118373123,-1.3185797246,-0.5495138182,2.8728321491,-2.0444533541,-0.0650132617,-1.2387293146,0.4971326136,0.8216094649,0.2874133927,-0.0398971807,-0.7894022164,-1.1194163061,-0.130316039,-2.8444818279,0.9438663446,0.8267654796,-0.7163378695,-0.6459767989,3.3352288638,0.095397954,-0.6136583998,0.1462232934,0.0752214588,0.2947453382,1.0645325229,0.6548558016,-0.3638056834,0.6160253838,1.4220460935,-0.3409054429,0.5990515847,-0.1436353276,1.2474158959,0.9368420035,0.7332014179,-0.6044584576,0.5583826102,0.6035898432,0.4112936564,-1.0284958093,0.6851284818,1.027691851,-0.6979493245,0.0855500437,0.3353456998,0.4179040972,0.484462571,0.13563946,-0.0775450899,0.8159149867,0.3211912509,-0.8354579875,1.3492900287,0.1925781135,-0.3117688786,0.3445059794,0.8576038126,-0.0947384928,-0.6658500265,-0.618517219,-0.254415472,0.8404829322,-0.0620603481,0.3592882184,0.3409759244,-0.8130431894,-0.6691452534,0.7776111058,-0.7942262093,0.9534087196,0.7735868525,-0.1187412885,0.7207854916,-0.7469626955,0.396361513,-0.2758098746,-0.3273840542,-0.7585641817,-0.9419943039,0.6329697831,-0.3125280797,-0.2059470125,-0.5787323476,0.0021083764,-0.9291190553,1.0026122902,1.2897355241,-0.0900788319,0.7885764317,3.3357968983,0.1342633584,-0.2134984738,-0.1414649593,0.8683691024,-0.3452158648,0.7973251701,0.4484122579,0.374728934,-0.9644729571,-0.1421220683,0.0841402337,0.3154952717,1.2109714927,-0.1798759947,0.9519079385,0.8919395439,0.254724564,0.4329855013,0.0329442698,0.3572122112,-0.2163362869,-1.1173871354,-0.1773596062,-0.0429570832,0.7135708786,-0.0010022764,-0.8229876847,3.1010397319,-0.9025703292,-0.0808077344,0.2411577158,0.4277169532,-0.5942544129,0.5217747151,-0.5514698326,0.0498836776,-0.4740750322,1.5482442818,0.0525888605,1.3350742998,-0.0758496899,-0.1330930979,-0.2807996677,-1.8182855101,1.1279594262,0.7248608259,-0.1971428003,0.7233532571,0.0215206363,-0.7637319843,0.840026546,0.5828226385,0.7399280265,-0.4512380975,-0.3352254161,-0.5282163529,0.2662232209,-0.493104497,0.3628819086,-0.6526073133,-0.825362052,1.1045336954,-0.2474240587,0.2715617651,1.2048024588,0.6799200258,1.0056099548,0.1454821007,1.8835134354,-0.1836268614,1.1139146737,0.8881000852,-0.0208410517,1.2634162636,0.2695667561,-0.5373323623,1.9794860208,-1.04441938,-4.1031738356,0.7110515361,0.8949021022,0.2033131604,-0.5358039474,0.3956059591,0.2939193279,-0.252965853,-0.0701916934,-0.0365423429,0.0451276871,1.12471542,0.2364847333,0.2982061058,-0.3592209592,-0.2193521672,-0.3414607545,-0.4244061351,0.43232833,-0.6086379716,0.3978277049,0.6744473569,0.478214705,0.7227324455,-0.7323552049,-0.0460957346,-0.6017678487,-0.6541645193,-0.6455369862,0.4220201769,-0.9828829666,0.3810251516,0.3089033042,0.1753226654,-0.1387126801,-0.2704255133,-0.6683662604,0.087315003,0.5114539661,-0.8358970106,-1.3109182913,0.023541244,-0.0083816447,-0.2932946878,-1.2655982182,0.1748979152,0.4613464482,-0.6361330965,1.3602663181,-2.1877370238,0.8860503828,0.0535382418,0.2516954694,-0.6186912887,0.3766609563,-0.0643083577,-0.4507040395,-0.2611823062,-0.8553977239,-0.8733412644,-0.3162487106,0.448730841,-0.7251585161,-0.8825998328,0.6391183212,-0.5727323504,-0.1580571138,0.6999168753,-0.5504492472,-0.6422438016,0.2046664018,0.080846264,-0.824457352,-0.3755387039,-0.4116028934,0.2631448076,0.5430049862,-0.2378692247,-1.1580937063,0.6673130842,-0.9218933845,-0.1652473883,-0.0415860678,0.9198286243,0.4899672962,-0.23474061,-0.7071811838,0.3862778535,0.5784118365,0.7204752215,-0.537667851,-0.2019609367,0.408945114,0.3769018823,-0.4850453693,0.0182392234,0.957865277,-0.5467906833,-0.2624192359,1.3780886892,-2.9656663641,0.7388896696,0.7603952999,0.6328860468,-0.9691340812,0.7716677036,-1.0963560718,-0.6321097279,-0.683289825,0.2777383684,-1.5131641681,-1.3394822191,1.0539871645,-1.2002374462,-1.7876811694,0.3751610244,0.7761865476,-0.074200543,-0.0212458877,-0.3170008793,0.5709747884,-0.2886710719,-0.221026075,0.4674183174,0.1790068049,-0.7583166621,-0.7605987826,-0.4456872904,0.3204537015,0.349786179,-0.0207006868,0.0701654284,0.5557567952,0.3975506019,0.1128685516,0.310973836,-0.3107777784,0.7496085275,1.0454415079,-0.9259851393,0.4352566143,1.3392399218,0.2643812059,1.7192093291,-0.7793462839,0.0258195524,0.3017575365,-0.30909957,0.9739563199,0.6425824202,-0.4505484809,-0.7007287563,0.0185427399,0.3367044451,0.6139851628,-0.3318902582,0.2726504292,0.7120150614,0.1393704493,-0.7186281107,0.3637780125,-0.6532626194,0.0020761297,-1.2402461195,-0.0183854034,-1.284639274,-0.0278249159,-0.9745819879,0.4039314332,0.7409726168,-0.4089153923,0.2293757076,0.7872953441,0.3592041656,0.6759684838,0.7280282646,-0.7750006295,0.5076714313,-1.2173880854,-3.3184361946,-0.4096200694,0.547950749,0.9600956244,0.3538223423,0.0423157114,0.4520140034,-0.1463217028,-0.7121830958,0.3537420495,1.0488548913,-0.9084711448,0.7568272294,-0.7956689731,-0.774493196,-1.10816515,-0.319088224,-0.936221267,-0.6856802534,-0.2296505034,0.4751580096,0.5761403221,0.6261335208,-0.6199967896,0.5161323275,0.2629425895,-0.345755924,0.3572060995,1.1781023635,-1.1860626114,-0.8461371104,0.5399151347,0.1078157857,-2.3535348075,0.6790573705,-1.1360851136,-0.4290016637,-0.8953590087,0.5066997737,0.476199343,-2.5896954116,1.4900584455,-0.4009353363,0.4125146142,-0.0326328723,-0.0398355304,0.7763276474,-0.1242558314,-0.1153659035,1.0708106266,-0.5162680691,-0.9955475806,-0.0257765929,-0.2505323999,0.0480705854,-0.2834910667,0.0422915751,-0.7563659128,0.412427919,-0.3239607808,0.8738304941,0.0522288009,0.8636757469,-0.433286153,-0.4724370566,-0.347127646,0.7827357081,-0.2815063613,-0.4348437574,0.3400784039,0.1351837844,-0.7655737415,-0.1212225505,0.7161914222,-1.2612158446,0.2147999975,1.1035600316,-0.3987588187,0.0956724233,0.5146220258,-0.5258955161,0.6431273333,0.016281914,0.2736992123,-0.9905000946,-1.4494405723,-0.2284553368,-0.6364841038,-0.5356499427,-0.6556641945,-0.9040376352,0.6888782482,0.2535696878,-0.2989518546,-1.0082096446,0.1282590646,0.6639643649,0.1168513029,-0.2481151876,-0.1244737739,-0.0476307163,-0.7469084366,-0.0851592065,1.1430123963,0.5190392074,-0.4559958655,0.5338422163,0.980822514,-0.8329217927,-0.9930819291,-0.4546925675,-0.8690221054,-0.5755081418,-0.7228577306,-0.7687844978,0.3282092606,0.2075846319,-0.3194455911,0.8990048054,-0.6455165214,0.8638598392,0.2287132412,0.2562870974,-0.5718427934,0.1643571976,0.7801768672,0.323554753,0.4785918786,-0.0457091112,-0.5344212435,-0.5422216975,0.5863881152,-0.6425994957,-0.1344209148,0.1101029569,0.2272588592,0.9009376068,-1.3719466525,-0.4762135989,-0.3462034015,-0.8223105014,0.3725031676,-0.4934308836,0.1739234875,0.8432945135,-0.8200179346,-0.9862757923,-0.0234451187,-0.6431885159,-0.0139004063,-0.3705532335,1.0076451482,-0.1069480449,-0.445472538,-0.893588534,-0.2423720616,-0.8460999266,0.7455070223,-0.8721546663,-0.4604556029,-0.239901344,0.3398640619,0.2077046132,-0.3843072733,-1.0180438408,0.0153102815,0.368261611,-0.1509012306,0.1843351866,-0.6086438227,-0.4844464554,-0.932719848,-0.0333309626,0.1561834038,0.2631216459,-0.284721374,0.4427984652,-0.487548309,-0.4191286793,-0.4963637747,0.1032277765,-0.548116285,-8.0968141913,-0.2092558043,-0.7033627836,-1.0242781634,-13.8058745767,0.5926010285,-6.6957460164,0.0366215423,-0.66382749,-0.7636159287,-0.0856269077,-0.5503457293,-0.3188600227,-0.7895649005,0.8777002012,-0.8858843033,-0.8281780591,-1.2842965516,-0.3549712843,0.2314373823,2.6973637244,-0.7016088847,0.9393996643,0.6547030614,0.0266652078,-0.6619885426,0.6562411655,-0.0938674568,0.0872992615,-1.164801974,0.2015577655,1.7428536032,1.265123311,-0.6004024348,-0.4166959533,-0.7261781868,1.0229409163,-0.2696961367,0.2731200462,1.3729474217,-0.3444863468,-0.2356492251,0.2041714054,-0.864754222,-0.2679448988,-0.3201899195,-0.8693584791,1.0478459194,-0.8428656783,0.9463801815,0.7037460688,0.6741357976,-1.7388419506,0.4901992564,0.0527935161,-0.4758246177,0.5409805213,-0.3510175024,-0.8863628044,-0.543879775,0.0888627907,0.3149804302,-0.2706014524,0.2117339833,0.4555250489,0.9789385732,0.02811359,-0.2347561944,0.9564728228,0.2906132553,-0.3107010794,-0.1901802195,0.5755742168,-0.4669105647,-3.9275125944,-0.0045998584,-0.5549789517,-1.5374554842,-0.6319446227,-0.5184174693,-0.1081780151,-0.6585935767,-0.6518697815,0.084275959,-0.6102114414,-1.3871309478,0.3499592039,-0.1316283292,-0.2528641876,0.3560074166,0.160731232,0.078485955,0.4607323776,0.7803368673,0.2393581369,0.4710897547,0.4685544569,-0.9329750322,2.3047371335,-0.0772254935,-0.5319875295,1.0131507194,0.0701147267,-0.1207328217,0.7089056793,2.1732779768,-0.9846967469,0.851031675,-0.463386297,0.8807590973,-0.4897424514,-0.5570784113,-0.1047336751,-0.9800480001,-1.1058057467,0.81222683,-0.5277245545,0.2526949449,-0.7178928451,-0.4917857342,0.4644578316,-0.6408895269,0.2782394019,-0.761087596,0.571847811,1.3149233937,0.891127398,-1.0097667323,-0.5412205517,0.762650299,-0.8266189194,-0.5672063614,-0.5712637329,0.2724587572,0.0663308192,0.4401936022,-0.2341588717,-0.4556563442,1.8550087258,0.3901174011,0.6825988734,-0.4570627158,-0.4470645856,-0.6826453543,1.126830409,-0.0885947202,-1.366917064,-1.3111466833,-0.544117224,0.3069660126,-0.1609335258,-0.0459815225,0.1132857788,-0.1906797872,-0.4476497926,0.2173872396,0.5214380614,-0.3383098747,0.8112207904,0.477729479,-1.0377203189,0.9705570779,-1.4306917949,0.8413431528,0.3819407628,0.0457773279,0.4692803015,-0.2732634135,0.4965610719,0.0661791665,-0.4081347255,-1.7394142321,-0.516802486,-0.008107402,0.7224570476,0.3335972594,0.1909854304,-0.6379491468,-1.1464537892,-0.2665368675,0.5547965917,-0.596012179,0.477713798,-2.1550334884,0.2264936252,0.5462405075,2.6342341191,-1.220718895,2.9667929538,0.4940240955,-0.1542064187,-1.7561227824,-0.4257600529,0.6681661165,0.2127316623,0.3130291705,0.736926221,0.295848022,2.7423654097,-0.6934284203,0.7125825266,-0.4128955838,0.3649638896,0.7825960515,-0.620329841,-1.1919341489,0.1563438982,0.0715253193,0.4299295596,0.496863041,-0.5192082866,0.1438244931,0.4509094854,-0.4480381014,-0.3683179917,0.7663349079,-0.6072727235,-0.4274693271,0.2750343157,0.9533482079,-0.3153864985,-0.5302919451,-0.699242115,0.5462070884,0.6877082742,0.2840005409,0.4194044749,-1.2204333477,0.1471455172,0.3559008811,0.9114143213,3.0520891287,-0.5711538693,-1.4345308148,-0.5151113038,1.0791107365,0.0920682834,-0.0142372396,-0.1560709162,-0.7086260175,0.5421400263,4.2160998284,-0.694963587,0.2304452306,0.6592404687,-2.0896787584,-0.2752992524,1.015035212,0.2285544837,-0.3934680634,0.0373009872,0.5559366422,-0.4382377867,-0.2871846575,-1.0826620097,1.6261278732,-1.5317752438,-0.4702347663,-0.9883074138,-0.67657048,-0.8514025208,1.3993085064,-0.3110648561,0.684349277,-0.0989006078,-0.6533288757,0.1360930704,-0.5883621707,-0.1860203515,0.2179265699,0.3669751865,0.2393034842,0.2213243535,-1.0743380138,-0.2276649525,0.0259976472,0.4456340545,0.0165858774,0.4868995447,-0.8500949015,-0.7139375431,0.0696552293,-0.0068106851,-0.0435625245,1.0183950106,0.4842189025,0.7916856704,-0.4451157951,0.518137829,0.8024684958,0.8250940317,-2.2864475503,1.1836163588,-0.1294722778,-0.4394024335,-0.1360811749,0.7069493573,0.6234796314,-0.0158908141,-0.6652442045,0.7130643963,1.0927473569,0.5671426127,-0.8469832948,0.7327121739,0.3068026931,0.7055540008,0.7639636347,1.4185479988,1.0698283534,-0.4897555534,1.1185361904,-0.6537102936,-1.4831102956,0.8164931473,-0.6386369267,-0.5915924231,0.921344488,-0.2981095352,0.1639535001,-0.3788897474,8.3410799554,1.3349737977,-0.8590727675,-1.9644117372,0.8781167156,0.5041217705,0.1713203272,0.9737714113,1.0877314903,0.5709831834,-1.3557155066,-0.2563583586,-0.2130092029,0.2939910794,0.0121686225,0.0472856181,-0.2579634072,-0.7199502039,1.8231966285,-0.1620379902,0.6768985213,0.2950857812,0.4047933495,-0.4043245658,-0.4312323396,0.2393703973,-0.7356722098,-0.0827398654,-0.3882608595,-0.4345671443,-0.6027804841,-0.7492168575,0.5104585945,0.13637757,0.0088081406,-0.3782697183,1.0702740701,0.3957816844,-0.0664406281,-1.0475089825,-0.0809153834,-0.3564265554,1.5672295471,0.3271808927,0.504821831,0.8359725112,-0.8140329762,0.2327111319,0.2281395756,-0.8174154209,0.2569275945,-0.6874494948,0.5603469875,0.7091576054,1.1001811856,0.0503160435,-0.2413296031,-1.0552820532,0.8876332774,-0.0766373549,-0.7324524713,-0.1615499509,-0.9008298721,-0.4363287073,1.5310022452,-0.5595986335,0.3021515161,-0.5885419518,-0.4468403872,0.7700746569,-3.2767441734,0.3845633721,-0.0001887302,-0.6880933842,0.1780827215,0.8337751945,0.6513432559,0.9007072559,0.2715804077,0.3267912956,-0.6634125111,0.7337939634,-0.0272047229,-0.395805044,-0.6884761717,0.5438094553,-0.6241358656,1.0455811037,0.2129507165,-0.1060871601,0.4041584649,0.0733874386,-1.0032245052,0.111290808,-0.6042656055,0.7135815958,-0.784657961,-0.9913226828,-0.8169034297,1.8767503998
   0.1705672778,0.5644503644,0.577762035,0.9105730962,-0.0517213527,0.2999435579,0.2634262681,0.0103035006,-0.1432217244,0.1343141309,-0.7362853441,0.4476860008,-0.0945205724,0.1688384753,-0.9043506006,-0.0545791884,0.1470230272,0.2246297139,-0.1111469992,-0.9901802687,-0.4914606038,-0.9186514249,1.1248742932,-1.0294643145,0.9665757695,1.0773072276,-0.3170383265,0.4326658737,-0.4341878565,-0.3163484771,0.031397234,-1.3728465577,-0.9197640241,-0.4006036035,-0.6190101911,-0.3140842153,-0.0559219742,-0.6332229225,-0.3083471532,0.887246384,0.7966383998,0.6089965293,0.2659976079,-0.2150359606,0.5059363493,0.434422381,0.8833857012,-0.3100764041,0.3507900633,1.1793795667,1.4393376765,0.490428162,-0.9902542026,1.2259008635,-0.2663261289,-0.8045606135,0.2206657715,0.5927703276,0.6742581993,0.3271725932,-0.223034891,0.4211922217,-0.9277913552,0.2430678564,-0.2460769946,0.9520200601,-0.1335813097,-0.0848057381,-0.608890576,-0.1828373871,0.1034979787,-1.4197378525,-1.0677944255,-1.0001636052,-0.070143067,0.8567398725,0.4046941566,0.0278624676,0.0755722483,0.8411438169,0.7936976165,-0.3398965586,-0.5946010543,-0.146646005,0.5807912117,-0.5230984649,-0.9469123174,-3.7856247368,-0.5727609159,0.9778769323,0.367234037,0.33376451,-1.0649270924,0.6285168281,-0.735649618,-0.6994939172,0.9616361709,-0.9854110099,-0.0497511519,-0.0551638563,0.8714940458,0.2000271772,-0.1770260601,-0.7424945153,-0.2552214807,0.2492375472,-0.5660962944,1.2126984132,1.2620697065,-0.1773349413,-1.0799892904,-0.5816101514,-0.9422528557,1.2270961384,0.9154987235,-0.2073019898,0.4985172327,-0.2575745602,0.9100074106,0.2506043246,-0.2715964476,-0.6125122985,0.92635824,-0.9346649366,-0.7670770003,0.009927798,0.4889370823,-1.0310635608,1.2230510941,-0.5785075997,0.383205867,0.7964822991,-0.2026635078,0.9565240939,-0.0268670338,1.092786685,1.0380095641,0.5015501276,1.8630507168,0.3430274027,-0.4461015906,-1.8541248808,-0.4656307823,-0.0946558929,5.1326539305,0.7428702019,0.7823987208,0.8073236968,0.1413372221,-0.1155285878,0.0515741919,-0.5164952252,0.2268977569,-0.2624235431,1.6981548914,-1.1290817191,-0.4952597251,-0.0353157644,2.2519468927,-0.911972561,0.7918339945,0.7885477227,0.4712429105,-0.5384839373,-0.2989426824,-0.6208543248,-0.8903606531,-2.4010903882,0.1049101681,-0.8077790883,-0.0597124894,-0.5571694852,0.3692283727,-0.2623959813,0.4802593754,-0.0589377667,0.8503178384,-0.6454379388,0.8350153523,-0.0719875945,0.5377744978,0.3618638243,-0.3943538528,0.3510298395,-0.6206542493,0.6189552656,-0.730735691,-0.7311807659,1.0217141185,1.0327597993,-0.5581689129,0.3937679342,0.5433422374,-0.1865881016,0.3318417955,-0.6212501367,0.8467980231,-0.5887821862,0.89664535,-0.289031347,1.0642402842,-0.2614187044,0.0550154128,-4.6307131063,-2.0662098829,-0.6760696802,0.2607997925,-0.7574384547,-0.4762225672,0.0900812046,-0.2870037132,-0.7351694136,0.1007025723,1.5428203637,-0.9088844709,0.2256949839,0.744554986,-1.1467943568,-1.1287113371,0.1128876376,0.0756642023,-0.4700801724,0.8491408427,0.6333596198,-0.336534837,0.8868613386,-1.0676862361,-0.6888096056,0.4414059283,0.653580675,-1.2263916442,-0.5426499654,1.3200909252,0.7778532442,0.6915854364,-0.2513216403,-0.6827253267,2.4619123701,-0.4372818592,-4.4407076783,-0.0123943026,-0.4286866484,0.8644275359,-1.0799052484,-0.2945183957,0.7712119704,-0.9093781484,-0.0395095695,1.9801257591,-0.1416315361,0.9327757096,-1.6433353236,-0.0605079071,-1.4486132053,0.5699147166,-0.6695151011,1.1757786011,-0.5715635936,-0.233443103,0.2711165155,0.5287916801,-0.4572653048,-1.1028235571,-0.0018487435,-0.6174947665,-1.6077057898,0.9900340829,-0.0967370348,-0.2180456996,0.1457658231,-1.22397442,0.5827267013,0.3898768446,0.7667994327,0.0540701421,-0.701118267,0.1307017561,0.1901174254,0.5080810957,-0.0378597999,-0.052669673,0.100824389,-0.0257691786,-0.2062333199,0.2644138959,-0.2349681845,-0.3584240254,0.7108778056,0.7560274209,-0.3894977252,-2.350147418,-1.2189460475,-1.1058534241,-0.7422110894,1.3402964117,0.3638181241,-0.2737317403,-0.3480638009,0.8415965996,-0.3548834824,0.5110482143,-0.5394950045,1.3768386705,3.7436193958,0.8224696209,1.4965834171,-0.2241369309,-0.7672320352,7.3651506836,-0.4412889064,0.8589259221,0.4533189238,-0.2491948432,-0.3204617764,-0.0088534384,-0.9142539938,-3.3732246893,0.2450935158,0.9071057111,0.744165656,-0.4437566382,2.124131056,0.5528147353,-6.2281610241,-2.5258394083,-0.7365034269,-0.810971569,0.2759659628,-0.646234247,-1.4731906097,0.4670854805,10.0036305047,-1.6042043784,-0.4657439514,0.4626435881,0.8153172435,-1.0734765012,-0.329628879,-0.7657532408,0.4060156162,0.9207068419,0.9639631845,-0.2583324164,0.3362960367,3.054428542,0.1119608318,6.3967426699,-0.7740840571,1.2568488195,-2.6181109973,0.0956518479,0.8134936241,0.5545646812,-0.7915362914,0.3691749552,0.4235955788,-2.4542496804,-0.9454803514,-0.1871029446,6.6701636668,-1.1082377833,0.1870292514,-0.1959016671,-1.1431630961,1.0054441893,0.6504488567,-0.2522203194,-0.6882433486,0.8654366391,0.5072617753,-0.2982704111,-0.2996109518,0.1021479765,0.4964319911,-1.3754750151,-0.7172716522,0.1581901193,-0.1606274982,-0.5063420822,0.0678899104,-0.8873197095,1.0937586177,0.6500347553,-0.4218909995,0.315353536,0.2510380649,-0.4814260702,-0.0050713258,-0.8184728003,1.4038729887,1.6586403248,-1.738700421,0.1334669859,0.0501101566,-0.3622443849,-0.2699522873,0.5827987873,-0.3933657303,0.6427165186,-0.3586206717,0.3382425074,-1.4002353925,-0.5257662822,-0.6837329258,-0.6204790079,-1.0671656152,0.2031399003,0.3125462154,0.1216509384,0.5581222286,0.4626161527,0.0741362686,-0.1494879722,-0.4285494276,-0.225823744,0.5743810039,-0.2703175717,0.5430189182,-0.3831795826,-0.1416395116,0.1216654095,-0.1226691625,-0.7563363389,0.2945944325,1.1211265377,-1.2360973733,-1.8391354901,-0.7232242233,0.5248174532,-0.7442759447,-0.8296754127,0.4595919885,0.8043113751,0.7874187115,-1.0799570999,0.1549275771,0.9009921578,0.5161104424,0.0354039931,0.9508237745,0.9211996358,-0.2188467745,-0.1922026223,0.3341571583,0.0401989553,-0.3614121045,0.4334784423,-0.1429743012,0.7698028251,-1.1590821886,-0.2791882316,0.3074583764,-0.5922921965,-2.915086959,0.6833317704,-0.7576075655,-0.004561989,-0.2918904606,0.7187119973,-0.3846260809,-0.8034807062,0.7723302258,0.116064663,-0.5812698512,0.550767767,-0.3272130676,0.7292266021,0.3798588602,0.9952464043,-0.4051909912,-0.1007992794,0.2518843682,-1.4143921841,-0.6674292877,-0.1421964357,0.004232486,0.6453076192,-1.3798214297,-0.6041308736,-0.0961575839,-1.3076178382,-0.1910813419,-1.20811686,1.3319768783,-0.2205730692,0.6701489879,-0.1210144536,-0.3311075756,-0.7238087414,0.1445999071,0.7752844159,0.9930205176,-0.3133974774,-0.340306413,0.2455663193,-0.2074174249,0.5951346757,0.7415770054,0.8279222212,0.7012658508,-1.6825494244,-0.6086643554,0.8844381233,0.3070470936,0.8163705121,-0.5027205057,-1.466510838,0.0692989566,0.2723756618,-0.5388011832,0.077414465,-0.4822803886,-0.839824218,-0.4205019654,1.0876110605,0.7387313234,-2.2925961179,1.2974051432,-0.239157886,0.2981270561,0.4784321837,-0.0358799135,0.1457026595,0.0745015258,0.135538718,-0.8964030253,3.7368616307,-1.0978155218,-0.0630486498,3.361768702,2.2518108083,1.3150428465,-0.1962448694,-0.1877292241,0.9465795165,-0.4244112091,0.8132214254,0.5008849676,-0.9051515189,0.3569868585,0.1705603481,-0.8410930393,1.7610284986,1.4218826851,0.4621439102,0.8243605628,0.8394535516,0.8196145622,0.5559210562,-0.1325121356,0.7404175586,-0.5429448974,-0.8210310487,0.8147572621,1.3153782133,-1.0291031631,0.2386050166,0.1169549062,-1.3675619296,0.1645088846,0.8683194364,-0.430224312,0.169218688,-0.8418783487,0.2251860475,-0.821785448,1.0680646673,0.1171609133,0.6490031083,2.9861183977,-1.1165506537,0.2902279422,-0.3723584712,0.2958362467,0.3648448115,0.2358138947,-2.583743367,0.4690820846,0.3692565921,-0.0724884368,1.4124245202,0.8652898923,0.7961019382,-0.1479475214,1.6260335733,-1.0214379736,-0.6363790153,0.0193367943,-0.0941250558,-2.1569947773,0.2276118934,-0.5403220916,0.8083514967,-0.7224100159,0.5640409359,0.2280528612,-6.6534552719,0.5086851633,0.2307705018,-0.4835214637,-0.4988526605,-0.9613754784,0.0792802391,0.6779839272,0.2412710393,1.1348899893,0.7202492767,-0.2851225986,0.6514015938,5.5741896519,-0.6090603643,-0.3270203412,1.2937278536,-1.9747988991,-1.1239042743,0.1388920871,0.0740938796,0.6882459597,0.6777087014,4.1911983449,-5.4503806286,0.4185092887,-0.9438273781,0.7056700422,-0.8365392664,0.7457094532,-0.2472103276,0.6290383573,0.4786657713,-0.5634426142,-1.285033027,1.4322916025,0.5229705035,-0.1741505789,0.6386545605,0.0859471358,-0.2617888598,-0.1667896293,-0.5107859384,-0.2521633507,-0.7375141104,0.2989119697,0.8616978941,-0.5109160497,-0.7802281717,0.1457083963,-0.3843334048,-0.793725344,-0.9321291434,0.6102124117,0.4129642022,-0.3454706695,-0.7136471922,-0.372934303,0.7775040337,-1.114089098,0.8351871963,-1.0327790778,-0.2358060146,-0.6494246756,0.7643834607,0.1879201745,-0.6530054044,-0.1111279483,-0.1873784436,0.5676500256,-0.1853916747,-0.1534855893,0.6322014213,-0.9494341515,-1.1289188096,-0.3514771844,-0.3860941009,-0.6819898113,-0.1296296611,-0.0872377016,0.3330998996,-0.2064331044,-0.0771904045,0.1663138579,1.2565395126,0.8627640221,-0.0185749179,-0.5084568814,0.0582644174,-0.7941922515,-0.5929081197,0.9619757557,0.919428385,0.2475671908,0.3693693024,0.2431792692,-0.2379058175,0.177434725,-0.6594453428,-1.0420730461,1.3008418158,-0.6893101108,-0.9609435408,0.18337596,0.7782764151,0.4155540812,0.6350110386,0.4241559615,-0.3393053314,-0.8001958194,0.2035758486,0.2997635197,0.5954251317,0.6438434998,0.9050038731,-0.7622881939,0.9407351498,0.0014859161,-0.5232877885,0.1233222199,0.3712546227,0.1611229723,0.6557240333,-0.6014770496,-0.2447285721,0.5515481625,1.0015918936,-0.5188183693,0.1525969636,0.9099973332,0.1414061584,0.3991466569,-0.3230393288,0.600416444,-0.911836414,0.3815038678,0.8503836887,1.1604060445,-0.1517902206,-1.0365204486,0.2807478389,0.0688611107,-0.5531446393,0.4825020472,-0.1220285161,1.3947127444,-0.404473409,0.6725543817,0.3769937705,0.563498548,-1.2041328056,-0.9522388013,-0.864852069,0.5710874097,-0.4930559759,-1.1843156826,0.1615581616,0.9328733295,0.2379244333,0.8057244766,-0.0222943972,0.1887625847,-0.3264784708,0.3548796534,0.2025063995,-0.4767316927,-0.6373619992,0.3145057002,0.4997775821,1.7875571575,-0.0563874311,0.8107005696,-0.178119333,0.677355247,-1.6847318964,-0.3301479301,-1.0453837672,0.6331060406,-0.5863490311,0.6983359809,-0.5108074614,-0.0726335532,0.4436158966,-0.2552461629,-0.9599517437,1.3169533166,0.6648977505,-0.803135565,-0.8577075739,-0.3661110736,-0.6175100431,-0.648652768,-0.3565560175,0.7544973773,-0.9889679896,0.4192466963,-0.7600860758,-0.8057237318,-0.85477889,-0.6705757824,-0.4935819673,-0.1966897613,0.363488847,-0.5679458359,0.5822478577,-0.8304478669,-0.1832019949,-0.5651322849,-0.1048182854,0.4509807968,0.9645781988,-0.7245303063,-0.8185074404,1.0330882916,0.2706541069,2.1831025953,-0.7215827248,0.8220992729,-0.6241965698,0.4329085107,0.434742522,0.5011842108,-0.6940995253,-0.7141228791,1.0169787167,0.9403836327,0.2909553756,0.0219853449,0.8748908389,0.8477102291,-0.0200948083,-0.5217205494,-0.66314405,0.7909817809,-1.4738459174,-1.3515963427,0.4456665945,-0.1527244266,-0.7852835706,0.8638095888,1.8947701031,0.940645605,-0.2771509206,-0.3324223572,-0.6135421147,-0.1726612994,-0.1420426253,-0.3268940986,0.4262079808,0.1380327218,-0.7348899597,0.0309338797,0.7388731971,-0.1322912018,-1.5465428524,-0.0737822335,0.6551186975,0.9029232072,-0.2222259239,-0.7287578153,-2.192465506,1.5615185021,-0.7668886926,-0.5631277601,0.4419068356,-0.1841012111,-1.4130707681,0.0621248878,-0.2319587668,-0.821616832,-2.1178743518,0.8407221604,0.4507524377,0.1171066845,0.1974262459,-0.6936170178,-0.43407838,-0.9689985597,-0.404872277,-0.0106999655,-1.2301273838,-0.3662084591,0.3973353616,0.6345061367,0.8969516501,0.877940421,-0.1340361335,-0.0095456812,-0.2818566942,0.1855024215,0.3702840667,0.7005902747,-0.5277408794,-1.1288154941,-0.45641518,0.5176082215,-0.4101892103,-0.3937075844,0.7645747915,-0.7540907842,0.2942262448,-0.4019097996,-0.1932116442,1.7106507047,0.9510602586,-0.1907821266,1.7346074924,0.5020456233,-0.6991190687,0.6383982631,1.140874879,-0.6276918854,-4.8773256759,0.3066054607,0.0307526166,0.6237074106,0.2684569281,0.4443055158,-0.6304405505,-1.7740201051,-0.6366292815,2.1425455762,0.6916182284,0.1203648254,0.6884147602,0.5001786621,0.4111867056,0.121757781,-0.2266427815,-0.8273787669,-1.9628931929,0.2301533206,0.5773916178,0.6915845904,-0.654568104,0.2606283914,-0.2402602268,-0.471654634,0.0187244074,-0.5925185477,-0.0622617133,1.1589384036,0.9962328498,1.033336597,0.7105538256,0.5063609584,-0.8640175252,-0.7536492451,-1.0314251738,-0.0141423347,-0.442185103,-0.7145020054,0.0966875511,0.4249841473,0.7019403373,1.239349276,0.2070826062,-0.5308523021,0.4484008952,0.1320539538,0.6061858999,0.8356603424,-1.4249801572,0.2018506354,0.2684534685,-0.2609191021,-0.4821737196,0.2768806253,1.1480366289,1.4574464536,-0.8831711948,0.087509702,-3.5998176915,-0.861854405,1.1188965182,0.1806788913,0.6294954714,-0.9697768079,1.7410478886,-0.9752664435,0.5052348152,0.5852745933,0.9710411819,2.0622873692,-0.3852664851,4.4657700764,-0.7519976831,-0.726481512,-1.1463413651,-0.3950426421,-1.0676459576,0.9033115723,0.8158200755,0.0850059163,0.1889930999,-0.9024525616,-1.4927430731,-0.9582427159,-0.3393410457,0.4035965792,0.2487277246,0.4055019438,-0.0157712799,0.1407165005,0.7376204054,-0.7369899485,0.7299160778,0.7111676389,0.1126252789,0.7866186359,1.0692337455,-0.7121790035,-0.5447347756,-0.8762772461,-1.727638318,0.5786392073,0.1089975326,0.5947010047,-0.3113374994,2.8617607015,-0.473733875,-1.7017650244,-0.0939369676,-3.2421941395,2.4034372109,0.4008351643,3.2785099075,0.7349813555,-0.0685039633,-0.4265650195,0.8457705228,-0.1848513232,-0.3540547645,0.3496276092,-0.4468737515,-0.0932736681,0.5481231056,-0.710667037,2.8844997926,-0.6839065465,4.7720151825,0.9108181981,-0.0529182533,-0.3008929123,0.7207654614,-0.6198836313,-0.4593536274,-0.7143998295,1.2831137987,0.2024173871,0.5528887525,3.8633090139,0.7056782915,-12.3237791779,0.461368213,0.2300393969,0.1294152957,0.9677783033,-0.5502281708,-0.7233168927,0.4927924774,0.6806602989,0.0140011482,-0.1110463772,-0.6231687257,-0.2702820316,-0.4600802893,-0.3656952808,-0.6912887696,-4.6504527651,0.4955542834,-0.1109974234,-0.8196475826,0.0855221095,-0.0213590885,-1.3389575265,-0.551779916,-0.2041378342,0.781200863,-0.1109700797,0.3059448291,-0.5900529208,-0.0778676605,-0.4618857985,0.332429803,0.8419113338,-0.2854867525,0.1600053404,0.1439579277,0.0236586401,0.8558589121,-0.2527417153,-1.2450068761,-0.9027646138,0.4402608578,-0.7314530919,-5.6984130681,0.6953103486,-0.5428859083,0.400782211,-1.1976717006,-0.434975744,0.1409674822,0.393208848,-0.6859887235,-0.9793841491,0.9039577098,-0.4450188616,-0.2147142412,0.9299080628,-0.4947155285,-0.5409889801,-0.8238540488,-0.7547847208,-0.2445199213,-0.4818864798,0.9525495031,-0.613762949,0.776714822,-1.3393202876,-0.1753329012,-0.6708596459,-0.741935002,0.3637132217,0.2669520274,-0.4326618425,0.3086669218,0.5194225766,-0.2226156935,0.3812807471,-0.7967627037,-0.709209859,-0.6216783906,0.549489668,0.9507814828,-1.0064624567,1.2373078502,0.6693715583,0.9751867492,-1.2392597998,0.3487678187,0.1480982256,0.3598353443,-0.5430755392,-0.8662906461,0.3158267841,0.1636931479,-0.5235084584,-0.4698466995,0.7119773337,-0.2088120032,0.2711182028,-0.7235076474,-1.2156938148,-0.7712102034,0.618998729,-0.6140941946,0.8496679307,-0.9149286359,-0.8253209002,0.0638204496,0.521764062,-0.7094354134,1.2640392557,-4.6646917748,-1.0089848335,0.6252185669,-0.0545643374,0.933624688,-0.3340957549,-1.0350772001,0.3046953733,0.5273867876,-0.5245365126,2.1538145266,0.1759869699,-2.0017212389,0.819856249,0.6476625207,-0.1671765243,-0.1384449439,1.8053526277,-0.0364390611,0.4867307127,-0.9854032847,0.0000842686,-0.7086932887,1.3036801422,-0.4477184913,-0.7060153133,0.498377827,0.0347926635,0.7037941851,-0.5838969288,-0.8189469619,0.8426385793,0.520714086,-0.7446313496,-1.7738578073,-0.2183646067,-0.2097198483,-0.4522474143,-0.9982681571,-0.839729027,-0.287781767,1.0821816493,0.9725642749,0.497982416,0.6651038128,0.9258587996,1.1034532877,1.2565587104,0.9666231175,0.2748301065,0.8354686556,0.1469205297,0.7361013021,0.8888025232,-0.5654983987,-0.3204024901,0.8183034154,0.9442730622,0.0503512514,-0.7121371768,-0.2484462312,0.865681808,-0.7706074643,0.5150771359,-0.7805434542,1.4536926351,0.4697466756,-0.0839707723,0.7099557005,-0.6408320621,0.3985981551,0.2651926056,-0.0471996009,-0.7821468046,-0.030955242,1.0720620592,-0.9479321032,-0.4386760977,0.4490387871,-0.4725832591,0.0769847959,1.0905646872,0.9810593343,0.2657424915,-0.0685201129,-0.6803379245,0.5134341654,2.6118090223,-0.0697662603,0.3609335335,0.6375879874,0.560319172,-0.0037045635,0.5756506474,0.4171287883,0.4112161634,0.6340551716,0.8267795396,0.9924778081,-0.3537844955,0.3969660528,0.2324932811,1.0788011744,0.190207324,0.0947067214,-0.018557456,-0.6371595678,0.7126061473,0.2587395352,1.5664993557,0.0221954203,0.3217308395,0.4410406982,-0.2437143285,1.1964701939,-0.3263552857,5.7504993313,-0.6600658488,-0.4581647873,-1.4504580501,-0.0746151601,-0.5112967159,-0.1873101898,-0.8550539253,0.409287892,-0.8903801721,0.4434888508,1.2270813481,0.686335026,0.341913208,-0.4454962004,-0.9424874784,-0.2560811485,-0.7610983662,-0.2926557842,-0.0449791438,-0.5207594241,-0.0055431221,1.2710218063,0.396414608,-0.0768815277,0.0388274177,0.194233747,-9.04502718,-1.7140614156,0.0662432021,-0.4611139989,0.8048412022,0.647305936,0.3731281563,0.671578898,-1.7620742052,0.0007637955,4.83840717,0.4767089986,-4.4164718304,-0.7380788167,-0.0432275584,-0.3917511128,4.8564071388,-0.906655203,0.2183540061,-4.1622662175,-0.7659139111,-1.3260079873,1.9108007465,-0.8862075451,1.0427760246,-0.4571341127,0.3657208731,-0.5336061791,0.5099985141,-0.520900698,3.4596480486,-1.2568241842,-2.3656815345,-0.7003670441,0.207957329,-0.4462809969,0.0900631958,0.8827032038,-0.0881988405,0.4645503681,-0.787041237,-1.1515781896,-1.983382752,7.6230456066,-1.1011189691,-0.6651782161,-0.3008551647,5.2510220052,-1.2558261415,1.1453911259,0.8352906972,-0.0719406211,6.2438213783,-0.3873439095,0.5392034033,0.5752115864,1.6468611656,-0.3503941488,-0.3892296024,-1.1809397283,0.6751439072,1.4691870633,-0.0154229185,0.0747342634,-0.1965054649,-0.1765130308,0.9558621257,-0.514052058,0.920864192,-0.0643496584,-0.8072074103,-0.2436563443,1.4356850405,-0.13521243,0.2793989441,0.1467206296,-0.9106826925,0.1276692151,1.4524058904,-1.4036394414,0.0894223128,0.1747796907,-0.4447284152,-0.0410855349,-0.5112986263,-0.0060087268,0.2914654548,-0.010977026,0.2176115622,0.146778335,0.3676586056,0.3081549998,-0.566018403,0.4479890496,0.0441995553,-0.7565656847,0.7437688705,0.5120812491,-1.5968389276,-0.1559727478,-0.7077955928,-0.6010685915,0.1019455132,1.4161624818,0.6644175986,1.0534757379,-0.9580645855,-0.7396250435,-1.252791637,2.3349954385,-1.3652043036,0.4572620188,-0.7381316553,-0.6217340805,0.7126216379,0.1800858363,0.8155119987,0.2975411437,0.068662632,-0.1301080552,2.378039275,-0.2179574654,0.1026622021,0.0847421252,-0.6104373507,-0.0469512062,-0.2172138705,0.3096583363,-0.088098924,-0.0261210587,0.1955161599,0.393621494,1.6677971534,0.61657349,-0.6237397804,-0.7987853804,0.3470342304,0.4261642939,0.4004988149,-0.5378208873,0.2819399261,-1.3458036487,-4.2375922586,-0.2979083194,-0.6899887632,-0.6472281455,-0.1563437352,1.1752647504,0.9227040278,-0.8379655573,0.0125294674,0.1105308457,-0.4152435216,-0.1272275025,-0.1376792209,0.5324135921,0.1760209902,-0.0253477884,-0.9054594355,0.0644341486,0.3841907532,-1.1281372965,-0.7138501807,0.4423547702,-0.1119163009,-2.5361521754,0.2226405543,-1.08862554,0.2228049049,1.859724318,0.7943128715,-0.71017466,0.3677989024,-0.3467206169,1.1032716792,0.9293387794,4.582980595,-0.7032180684,0.298948184,-0.4745460208,0.1520728069,-0.1227268162,-0.0672406417,-0.5769571999,0.4461243112,-0.1975981456,0.5209205617,0.6138320302,4.1078544421,0.9311853022,2.6560250259,-0.8711605232,-0.3453809842,-0.6411428323,-0.1712483729,1.0059774324,0.315936481,0.4803506511,-0.4870426082,2.6228437078,0.1924747363,0.7447330641,0.6228391357,-0.2310035435,0.9013276435,0.132070679,0.162032923,0.6219967836,-1.1686853575,0.6500414096,-0.6249181342,-0.0822629984,0.2972937755,-0.082664213,-0.6875975326,-0.0404708808,-1.5900343962,-0.0484517512,0.5857320486,0.677266344,0.0606102699,-0.719746134,0.3153873678,0.6106042366,-0.0892605357,0.0303283566,-0.4944269046,0.4177741863,0.36221987,-0.3557996808,0.8508518066,-0.5282868303,0.6096696305,0.5287840379,-0.8490408208,0.6789441566,-0.4475224393,0.7527199717,-0.8209147527,-0.1270719001,1.3517197506,-0.0742726656,-0.7558665559,0.352262709,-0.5271855266,-0.5868126913,-0.4656439731,-0.4647037262,0.4333239054,-0.1208860728,1.5492364874,-0.2683187738,-1.1098644898,0.698476063,0.8974633008,-0.7635187319,0.0473869943,-0.2623854805,0.6782726214,-1.1587349437,1.551332151,-0.0553733975,-0.1142403334,-0.8215463469,-0.960018219,0.2006601565,-0.6350574444,0.2037730564,2.5799159051,0.3239708966,-0.0290529904,-1.4861414647,-0.5041044123,-0.9898097611,1.2842010418,-0.2678045999,0.6572724658,0.6169286414,-0.4041523976,1.0508414732,0.1322428972,-0.9361759479,0.1179680302,-1.5012319523,0.6664739411,-0.1932506022,-0.4458753796,0.7630442526,-1.4679020238,1.1725757731,-0.3555910014,0.0398759458,0.8016505461,0.5168407466,0.0482985164,-0.7140372218,0.4446217993,0.0432211699,0.5817596154,-0.4554741728,0.7151212954,0.5532507217,1.6760419261,-0.2849979901,0.9470169936,-0.809411381,-0.4230068742,0.8890250358,-0.3358324557,-0.5726215353,1.3027071666,-0.2919058878,-0.3551481934,-0.194768105,1.0362179598,0.8645402597,0.9678433659,0.3239993175,-0.1774684218,-0.0923203093,0.5282765668,-0.4198555384,1.2669542612,-0.1156332897,0.7309741044,0.847045037,0.7137667441,-0.8039045773,-0.8973986379,0.23023579,-0.8886987063,1.1534610933,-0.4094449865,0.2184171375,1.7202237693,0.7620507919,-0.1798962106,-1.0185498661,-0.7803348028,-0.9617549807,-0.5906069966,-0.7411227679,-2.5468338098,-0.5839432406,0.5906496778,-0.021029627,-0.7264385278,-0.0241006493,0.2705906194,-0.0244110829,0.6272993092,0.6634050802,0.4215353664,0.4357472097,0.5478171951,0.8907054765,0.0540709278,-0.3068974793,0.3889654582,0.0894859774,0.74210193,-0.2569704202,-0.262691831,0.3173076705,-0.6136716445,0.2089267983,-0.7115811575,0.0595483678,0.067428229,1.0765416306,0.0766122695,0.0862149204,-0.3845143698,1.0763278938,0.3455030833,-0.9309287936,0.3214126031,0.376263095,-0.5833432804,0.1396594877,-0.0986103619,0.7523143261,-0.1090531533,-0.8463355987,0.4989876245,-1.0733586403,0.1806322491,-0.705010335,-1.647350053,-0.1541126398,1.3375623797,-1.078042932,1.1744904476,-0.4879041485,-0.3990379962,-0.3550343036,-0.2819916656,0.7789401807,0.9939960613,0.2087069874,0.1043917828,-0.2785255986,0.2643381484,-0.3004229996,-0.0804454564,0.5699966628,0.7561654806,1.2477145588,-0.5518728755,-0.7452417679,-0.4135591596,-0.5285081296,-0.2072056486,0.870847528,-0.9263755552,0.3963805836,-0.5628374442,0.1363408638,-0.3072822637,-0.6615377988,0.5561284726,0.1389726667,0.2661366215,0.8586953665,-0.1430057551,-0.8324751005,-0.4528571904,-0.2783430529,0.7855284724,-0.6110165511,-0.1344676084,0.3562064347,-0.2077350355,0.0760664081,1.2944469348,0.9500426426,-0.7718528685,-0.7898803355,0.585494368,-0.019938802,-0.8477145394,0.366855441,-0.2336302782,-0.140145321,-0.5437607104,0.51996851,1.1646077873,0.0209437546,-1.5987616599,0.2912769372,1.1376230021,2.1800897934,-0.5857086491,0.5947363788,0.4541291863,-0.0665770157,1.3517595165,6.0199004386,1.2264352137,-0.1587354936,-0.2597596049,1.1385731117,0.3857428121,-1.1041927805,-0.2237195923,-0.1436594456,-0.4745337571,0.0676053302,-1.459335044,-0.080228143,1.1198958019,-1.2200647207,-1.3456586388,2.1466633206,-1.0609775071,0.2226772486,-0.2884026616,-0.5698566238,0.8695205416,-0.9122003966,1.9872919446,-0.8274386022,0.2801220919,-0.2214951975,-0.7837795497,-0.9177056434,-0.6137968461,0.0360683588,0.2040178799,-0.5637631113,0.4178860463,-0.5292166069,0.9813573551,0.0450263627,0.9399278769,-0.7453787454,0.0644101265,-2.4682320823,-0.1160169283,0.8131911724,0.6522484919,-0.5438013485,-0.9368143875,-0.7303732833,0.4845995836,-0.0663379128,-0.6050711765,0.6739355381,0.4105629186,0.7400690731,0.6801391401,-0.3750054731,0.2667492648,0.0700427047,-0.6020584306,0.8841334946,-0.1291102624,0.7963238694,0.3746169135,0.5995043842,1.0361259506,0.6825754496,-0.6151580802,0.2487202049,0.0512142469,1.1841217234,-0.3172438548,-1.1303346845,-0.2188948565,0.7266264961,-1.3052179165,0.7897644151,0.3162695078,-0.4680127332,-0.1989344655,-0.6489714327,4.2271866804,0.501085375,-0.616870714,-1.3663181993,0.6554672853,-0.726618924,0.3521674406,-0.8697157869,0.3163458836,1.00632335,-1.3141980502,-2.4522313124,-0.5908031603,0.1251820145,0.7754221546,-0.1018133579,-0.2409065796,0.6942842257,0.6324323888,2.0887209959,0.7986265627,0.9215813163,-0.9308232606,-0.6966384093,1.7224467605,0.5216702502,-0.4180738731,0.7857430065,-0.1544833489,2.4294171384,-1.6415494471,-1.0149729733,-0.172311335,-0.2315747342,-0.8743438135,-2.3669742933,0.6309982668,-0.7537193575,-0.1298680451,-0.7022066587,-0.007614299,0.1623578565,-0.4390779513,0.4858321662,-0.0155006528,0.8088826704,0.4472635742,-0.7644304224,0.4216020279,-0.0179603951,1.1170132327,0.6657269055,0.2170078783,0.3828522631,-0.0967880142,0.6952708829,0.8182896946,1.1641365135,-0.2105317724,-1.0511206109,0.0621570574,0.9311610109,-0.4946542069,-1.3545345905,0.926024051,0.1205307964,-0.4485633616,-1.0123444175,-0.5584926431,2.2617993195,-0.4767001588,1.3538772172,-0.9630735924,-0.3355685848,0.0045916754,-0.4815405874,1.149241366,-0.8398386777,-0.2283844125,-0.0826074368,0.5487568603,-0.3336350058,-0.1521456002,0.874569917,0.6886953852,-1.3390035966,0.7718339932,0.5509047507,1.0999189828,-0.7890312068,0.4263959854,0.5375321254,0.7812434473,0.0866017415,0.2668921169,0.7780968636,0.2114033974,-0.3550068827,-1.0287104616,-1.1879453334,0.6865081386,0.2492440137,0.1370599856,1.0050064865,0.1739434579,-0.0585775029,-0.0511694183,-0.6017943817,1.0252561275,-1.0261040876,-0.834409037,1.5628725839,-0.611798982,0.5952418078,0.2433197889,0.7655184281,-0.0035084835,-1.6726538972,-0.5133570618,-0.2852153633,0.4090842363,-0.3208068275,0.103550493,0.2382657131,0.5478825773,0.5041203145,-0.2094197235,0.572423513,0.4384747245,0.3652242305,0.9033972285,0.6099021784,-0.4074360468,-0.255405105,-1.5639515534,0.7807667558,-0.8825987941,0.4040316705,0.5586491739,-1.3136514568,0.6022602783,-0.5579803819,1.0114783905,-0.7760842006,-0.1399374579,0.4572052297,-0.0866384317,1.8913914377,-0.8408748543,0.7310900009,-0.2319359647,-0.9117836715,0.0671640333,0.7946390384,-0.1133799659,-0.1490027216,-0.2917088023,0.6636487743,0.7244444885,0.1221515261,-0.2942208215,0.8215505354,0.739709902,0.7749857305,0.7019390036,0.9175469764,-0.389979583,0.810564219,0.9090175622,0.3108767965,-0.9364888047,0.3459304838,-0.6590994798,0.0939411831,0.1669974954,0.2617249918,1.1142917504,-0.8380324111,0.1985278011,-1.1643591962,0.5278052815,0.0414957798,-1.6270770608,-0.3118243816,-0.3684126378,-0.5239992743,-0.3948929211,0.2321125021,-1.0302006814,-0.7855023581,-1.0549819598,-1.0993916131,-0.7122888837,-0.3539860236,-0.1103696894,1.0049791563,-1.7162120181,1.5511086937,-0.4134198883,0.3247637673,0.2198442089,-0.2399855369,0.374602519,-0.1530226576,1.2764618056,0.6872553415,-0.1123944854,-0.6185412495,-1.9410697193
   1.2183233416,-1.0214410898,1.0022265911,-0.9651637315,-0.0470263083,-0.4063865265,-0.1458648812,0.1083797173,-0.5593493432,0.4192907596,0.5580622876,-0.3088357212,1.6624332525,-1.3180205079,-0.7938759979,-0.5243276839,0.1425059146,-2.7490834991,-0.3889105474,0.6868700983,-0.2288936303,0.1890330846,0.4264405035,-1.465205864,-2.6579093053,0.8461173263,-0.1189934292,0.3898716948,1.0982688224,-0.4346828094,-0.6569046698,-0.6740748276,0.2100676182,0.6273601863,0.9555649232,0.8609519667,-0.1231600713,0.6746226855,0.0975047695,-1.681487823,-0.1984132486,0.4664221717,2.6833693281,0.2506952971,-0.5537991894,-0.157331399,-0.964451673,-0.1959966263,0.0194790887,-0.5121051466,-0.3054814896,0.4399694939,-0.5078476949,-2.0969116349,0.1769418586,-0.7996933082,0.743121684,-0.3578752819,0.8267727496,0.6509732761,-1.5268074947,0.068560625,-0.7823130475,0.1697224919,-0.1705290879,0.4478549002,0.0522736633,0.8297429194,0.1685526346,0.3438926475,-0.0981464297,-0.1146869125,-1.3977329737,0.354914655,-0.0815852667,-0.6193218666,-1.0460226591,0.1408205026,-0.7365311417,-0.0587526175,-0.0800287247,0.1202617174,1.2088135823,0.8494509949,-0.2717129118,-0.845319069,0.0812201938,0.3532466425,0.2351530555,-0.8891411808,-0.585520123,-0.3814018244,0.2627469305,0.4047863602,0.3422122043,-0.2325979201,0.1944196381,0.5520899306,0.0360471287,-0.4129865472,-0.0976980765,-1.5136396981,-0.9969273812,0.0328633693,-0.8937113442,-0.085101667,0.6635847119,-1.2796116114,0.6860236273,-1.268286071,0.4309767573,0.8993680085,-0.9471123331,0.3062721567,1.1273187136,-0.7687445162,-0.2507468237,-0.8913506325,1.3592069096,0.1933445517,0.8470213626,-0.5363429051,0.3498606404,0.0323991549,0.4658712418,-0.3168048064,-0.4080080936,0.1253718896,-0.8653681226,-0.1607033774,0.2643582414,0.3324866418,-0.80823156,-0.9161215658,-0.9554397886,0.3274433257,-1.624726155,-10.5790719329,0.8075613985,-0.5972353444,0.8176379646,-0.5340825745,0.7157377469,-1.8202366737,0.3409859547,-1.3327441777,-0.2910659663,-1.4411840373,-1.2446185873,-0.0805712199,-1.2188258651,0.0538975362,0.2768335673,-0.9050838379,1.663287419,0.2474869793,-0.7435541399,-0.3240237164,-1.1566579863,-0.0932904146,0.1127075289,1.0637320517,0.2037124985,-0.5303427961,1.1301824081,0.2541999138,0.1577869842,-0.3818828723,0.4139930739,0.0159459912,-0.3599893001,-0.6044076313,0.4643390578,0.4601475319,-0.0996416175,0.5982159096,-0.7147682331,0.5885830313,0.100804126,0.7732149653,-0.673999377,-0.1103095099,0.0538755838,-0.7695524754,-0.8807559738,0.4960281256,-0.2634024179,-0.8439551837,-0.2919484589,-0.5067608312,0.2929178426,-0.3297939677,0.7618267387,-0.6310117155,0.0346514696,-0.534417083,-0.1703027334,0.6333865892,0.0153540008,-0.9775486887,0.6544152731,-0.0547106123,0.4074693231,0.660643205,-0.2485281141,-0.4989694898,0.5051072684,0.2861108238,-0.1197505952,-0.4442877407,-0.3317036053,0.3765627128,0.8098291879,-0.9011865363,0.4493819651,-0.0266614448,-0.644356104,0.874997013,0.5290389777,-0.3884852112,0.5479492314,0.4256969893,0.2895157773,0.150727673,0.2094241429,0.0323816891,0.6455381756,-0.6781400777,0.6148461337,0.0488165611,0.1644880095,-1.4757734433,0.210065144,-1.0751077488,-1.4472320376,-0.4065825993,0.6023250367,-1.169465262,-0.7356488351,-0.6566843905,-0.7736270615,-0.382097946,0.4396343162,1.0825410271,-0.4085867256,0.8324862984,-0.6563440506,-0.6925188712,-0.0195133726,0.4507583217,1.0037429597,0.1611516652,1.1609801604,-0.075571761,0.7606234848,-0.4041184484,0.8476790998,-0.4862290415,-0.8057450985,-0.2939450673,-0.2143294118,0.0228231123,-2.444734077,0.797291031,0.8840676181,-0.1274882098,-1.5849875852,-0.2251987676,-0.9155431697,0.6382884365,-0.7610086404,0.0317202828,0.554299595,0.3417455888,0.1911747388,-0.2009221494,-0.9075685876,0.1831353621,-0.0554407024,0.4531594078,-1.0570679818,-3.9912788215,0.0391853773,0.8236658891,0.8666306955,-0.296511368,1.0241881727,1.2209332274,3.7642590987,0.2268947759,-0.0763239726,1.0761455323,-0.119085279,0.4669440184,0.5188442892,-0.221007489,1.4712872754,-0.672902277,-0.0623888401,2.2589299057,0.8741116404,-0.210007097,0.3716251436,-0.9400134845,0.124932194,-0.9185762023,-0.0263356859,0.7913653146,1.3437164808,-0.9561097045,0.0621600409,-0.5280370802,0.882817096,0.5318304033,0.4000040152,0.2414206828,-0.0697678356,0.6672181569,-0.4448345505,1.0070991102,-0.9717976177,-0.3594805463,0.4727396211,0.0831095763,-0.8980727084,0.392499171,-1.0038885781,-0.1249837834,-0.6541599962,-0.4323387715,0.6391363995,0.1365988645,0.041178531,0.6923694054,-0.1200299249,-1.128141012,-0.6194569964,-0.4079471511,-0.6152457773,-0.9774801881,-0.7203223169,-0.6722678439,-0.7888123178,0.3258110328,-0.7094692311,0.4820875351,0.4341248897,-0.5615640156,0.287658028,-0.3891135265,-0.6420110317,0.2403675943,-0.4714712214,-0.1504003608,0.2716394331,-0.8868104823,0.0609647567,-0.0149951314,-0.0295397187,-0.8417128894,-0.2673629221,-0.9923973052,0.9455401555,1.0567093097,-0.5912842672,1.3075162329,0.1965847326,0.7009634005,-1.0180722373,-0.1694418547,-0.6063476156,-0.9251982968,1.464020095,0.302934298,0.4179763505,0.3099936498,0.4203303543,-0.531256127,0.311513608,-1.2512235078,0.5433142176,0.3305261847,-0.5110690746,0.8008962456,-0.088508296,-1.7836764432,0.2257242443,1.6685084109,-0.2468741899,2.1562937553,0.77970571,-0.3011517385,-0.1870081232,0.6054957138,-1.4349649571,-0.7906829283,2.3118450247,-0.7357415173,0.7604493077,-0.5123315055,-1.1803945235,-0.6633137742,-0.2780979089,-0.7188863481,-0.0191465932,0.0331303212,0.9573886939,0.492466808,-0.6632992816,-1.9840315244,0.3168839477,0.1911321156,-0.9116831984,-0.6176288866,-1.1057453051,1.1431683649,0.6841657333,0.8003710377,2.7883225032,0.247714132,-1.4490409637,-0.0498032422,0.4037176564,0.5539221233,0.2165345023,-0.7927888298,0.2402026551,-1.8377044777,1.2754227186,0.6668023449,0.3159055923,0.0921460186,0.6611371128,0.4058411334,0.7477305932,2.3570598776,-0.3736652423,0.3116653428,0.5137728437,-0.3354007476,0.3579957873,0.0599738828,0.5684523449,-0.7693022651,-0.4789575647,0.3348506585,0.6435607881,0.6099360187,-0.9692985122,-0.2269463272,0.8536982681,0.2542057216,-0.7860744644,1.9558170572,-0.4629733067,0.3511816827,-0.71416745,-1.4516134361,-1.4360642483,-0.9489683941,0.462948851,0.9330166946,-0.2747910429,0.7266597039,0.0388172783,0.6624011564,-0.5382952116,-0.240931635,0.9614237002,0.0481014238,-0.9168596576,0.2538453814,0.77187032,-0.4295867158,1.1151180593,0.4686163235,-1.6137444391,0.7634409813,0.398091895,0.9261656399,-0.1576259791,0.0960433179,-0.5223080987,-0.1326921696,0.1366831881,1.3159397234,3.1131182021,-0.2494404904,0.3286206473,0.4045432624,-0.7032949617,0.5560380813,-1.120806853,-0.4850783592,0.3772699754,0.5095650455,0.5567925079,0.9177433728,-0.2741580145,-0.0532968922,0.6889234702,0.2793348207,0.1729511919,-0.2958037426,1.3510357742,-2.1150694795,0.6325150119,-1.2064329907,-0.9306217773,0.3147575919,2.5005055514,-1.4186270209,-0.3651648578,-0.4403540232,0.7127960167,-0.2227788841,-0.6101968749,0.3400616056,-0.0111776783,-1.736913608,-0.3582930222,2.0093999512,-0.9702241917,0.1688926846,0.0050961102,-3.3637028403,0.7798450117,-0.4800124863,-0.2924030433,-0.0523725507,-1.4930980474,-0.4179879772,2.03013029,-0.2246496358,-0.894985344,0.6033605131,0.5268266729,0.5535666884,0.1247121874,0.4030109431,0.0492233061,-0.584369641,0.0668110673,-1.4189403421,0.3878210579,0.8498345536,-0.5398569778,-1.0633158532,-0.2590768482,-0.4062349067,0.3391766425,0.5239724968,0.6010739747,0.6170892487,-0.8708426189,0.3025737567,0.2078872052,-0.0580751917,-1.1619406505,-0.2536692043,-0.0633276855,5.4774095066,-0.3971429837,1.1059444437,-2.6757089241,1.126983744,0.4131688948,0.5107866221,1.013009977,-0.5657457366,0.5396436578,-1.0129459958,1.882973029,-0.5194671589,-0.0835179047,-0.7687354578,0.7618859579,-0.282896661,0.7759935651,-1.1335476982,-0.1652820259,0.9400876393,-0.3224643878,0.7593008536,0.555450632,-0.5686634958,-0.0071822496,0.2303125686,-0.7490349385,-0.0172990913,-1.1150593401,0.5340271694,-0.5636774241,0.2192088477,-0.1548531275,0.0226990495,-0.3066230058,0.9883336512,-1.0029182533,-1.3864525906,-0.5099128774,0.0511305634,0.8930474727,0.1302051443,0.6092769864,-0.0320438469,1.3461901631,0.4995543614,-1.1268845261,0.6102910612,0.3519612235,0.7111613135,0.0112822215,-0.427400307,0.3770337665,-0.769337056,0.401062214,0.8292065315,0.7334717815,-0.1023544919,0.7099476165,-0.2356068232,1.1029494211,0.0129107345,0.3842662807,0.4953642038,-0.1884607844,0.738176193,-1.9944093579,1.1883548789,0.4034840116,0.2897730382,-1.3542722304,0.5791083929,-0.5262127723,-0.3775613368,-0.8332767458,-1.0490172518,3.94258252,-0.6472147449,-0.6545747653,1.3275188731,-0.3332082,0.2512080557,1.138359624,0.7390234107,-0.5099936351,1.4672856161,-0.6410214976,0.0022663125,-0.1230666972,0.2055859583,0.829742597,-0.2103861299,-0.0202357347,1.0009486691,0.686333389,0.0024391278,-0.8393122873,-2.1407883274,-0.1891304035,0.2654687247,-0.3042016835,0.8224772612,0.1274450095,-0.5751644809,0.1720019578,0.483117321,1.0748832759,-1.0084778986,-0.0202854496,-0.065944818,-1.07417025,0.4189041876,0.4262512612,-0.7670374523,0.3316342133,0.4454165645,-0.0634781369,-1.1119242183,0.7902095249,-0.836059741,0.999985135,1.3965458679,-0.7438320047,0.2384354669,-0.2950934162,0.0949877718,-0.8344779811,0.4966429153,0.0982248746,0.1610768988,-0.0559231841,0.611941706,0.4456854955,0.5550940671,0.8274008549,0.880846381,0.3980539376,-1.4915468406,0.2059969651,-0.2978975671,1.01173283,0.7546408411,-0.2148215046,-0.0893572865,-0.2300983722,-0.5134810244,-0.4783054632,0.4714439208,-0.2459059336,0.7106407824,-0.0276656457,-0.1300399399,-0.2949545666,0.4771069815,-0.5325601457,-1.0652378538,-0.8433786251,0.4748084522,0.0351117716,-0.1425661336,-1.0872248738,-0.7408913907,0.310282978,-0.4341079069,0.3912107699,-0.4158010486,0.0400194533,-0.8026586587,0.3804268841,0.6765872776,-0.0647555837,0.7802901591,0.7274167025,-0.8687481272,-0.7526932431,-0.3545747789,0.1990079056,-0.9759181634,-0.4196782021,-0.8613726151,-0.2939403939,1.1833146839,0.9036472988,-0.8705940316,-0.56566974,-0.6606982978,0.0415778813,0.7151170126,-0.0673343579,-0.3918273337,0.5054617884,-0.0140204873,-0.6709067735,0.5234096689,0.2044037124,0.5392964944,0.800777102,0.7575384802,0.5909718726,-0.739289904,-0.5151991145,-0.7535715669,-0.1946991846,-0.9736275388,-0.0567747463,-1.1576715042,0.1117704317,-0.3362139154,-0.0453864258,-0.749888884,0.1973809966,0.1047135353,0.3387677677,-0.0844259132,-0.2894564286,1.3410693343,1.1736056286,-0.8359950098,-0.4472638622,0.329438569,1.4506497237,0.0945708583,-0.7489840908,0.1349778773,-1.1949965399,1.6288992174,0.7030248613,-0.6810938654,0.8824505061,-0.9640612818,0.9229492846,-1.3198816495,-0.7256757116,-1.203998481,-0.6370148751,0.1410279424,-1.1129336876,-2.0350265831,0.2528052829,-1.4187196735,-0.1785084319,0.0774833683,0.2519867277,0.7572527438,0.9028645021,-0.2076670259,0.1324461368,0.1888366388,0.9337997182,-1.0334132132,-0.5216961055,0.2078737718,0.4426736852,-0.2717417374,-0.0543133651,0.7355083355,-1.116821171,-0.8554982557,0.4713277405,0.8574577811,1.148087028,-0.2917529711,0.6743543817,-0.4983347169,-0.6313546937,1.6218229317,0.2757488854,0.025406588,0.0254658024,0.7960888675,0.0198588817,0.1132359533,0.944753882,-0.1012224982,-0.9124725112,-0.3971233213,0.8025196933,-0.5572089508,0.88504138,0.7366607486,-0.9551409394,-0.1630016577,0.9875200336,-3.0715281778,0.2125754894,-0.0221674736,0.1615353923,-0.6346515137,-0.0172276474,-0.4367283731,-0.5759051537,0.130027526,-0.3570526125,1.4218388011,-0.8401628803,1.2483383046,2.8162738829,0.4719228158,-0.6404279024,-0.0653895428,-0.4418956566,-0.6800336962,0.191979685,0.1842472671,-0.2611927441,0.8241596515,-0.0960861166,-0.7444675144,-1.5671964866,0.2794711343,-0.9478623465,0.7483330725,1.3256256943,0.5009957356,-1.1586058191,0.1693284902,0.062774151,0.7600746316,0.4745655008,-1.630259295,-2.0695177102,-0.3279136342,0.8094498648,0.9682647353,0.0048389114,0.6078520607,-0.7799246731,-0.1008243856,-0.5795979972,1.4974894313,-0.0480708972,0.1358289664,-0.0969173221,0.5258044288,-0.668817147,0.5774531861,-0.6211667398,-0.1345792303,-1.1330484882,-0.8021649635,0.3134034779,0.4992271267,-0.4114467854,-0.48335321,1.575915197,-0.644195583,0.1063740664,-0.2586184673,1.2505613601,-1.9540235065,-0.6831281086,0.1239090252,0.332750912,-1.9227999698,-1.1591840244,-4.0309792517,-0.9309467449,-0.3019124537,2.1732911547,-1.4676656697,-0.1037944891,0.0321353922,2.0932347707,-0.088334123,0.2436760653,0.5497699899,-0.2329764925,0.3655959174,0.3345312587,-0.0220682256,1.0870012813,-0.0957618211,-0.100550111,-0.0179150485,0.1464686236,-0.6637482277,0.7790942321,-0.0112940566,1.61823734,-1.6160542586,1.0519510217,0.8657344868,-0.1807519416,1.0465706743,0.826430031,-0.1360150426,-1.2484848168,-0.5636838202,-0.0631950247,-0.1384687383,0.3383658476,-0.8078313805,-0.1055397975,0.4875938798,0.3261077221,-0.6232032293,-0.3548913393,0.411264813,0.0924307496,-0.1024360097,-1.0827030156,0.2463993854,0.1856485295,-0.3836073843,0.2678218043,-0.6330142507,0.4133800632,-0.0479862055,-0.4092071433,0.1844204363,0.5610049215,0.3348784083,-0.0273184247,-0.3193385893,-1.0196723894,0.3833393054,0.0117100073,-0.8512207996,-0.3138148756,0.757397085,0.9190170296,-0.0315224444,-0.5723845751,0.9646202296,-0.2796263026,-0.0893989449,-0.2561086049,-0.1160751536,-0.3067331782,0.5562297038,-0.2361620357,0.13452485,-0.4251809762,-0.2416675805,-0.4448945963,0.5409122023,-0.1954635422,0.3187607727,1.3805265949,0.6902405013,-0.4283116092,0.3737259659,1.1388000819,0.0176738458,-0.1598755304,0.1716576906,0.5696613516,1.4305236465,-0.2542133197,0.3288903574,0.6247695515,0.2419351145,0.7171297489,0.631707271,-0.4195027812,0.1475295519,0.4489839389,-0.320089162,-0.0452063409,0.002799284,-0.497844684,-0.0570750105,0.2829611728,0.2364838404,-0.4569795385,0.0568719137,-0.2510677716,0.9373638367,-0.9940767056,0.7522599471,-2.150680526,0.3175244232,0.4726450993,-0.023121895,-0.3511407199,-0.5554485618,-1.070748168,-0.3401505357,0.7290505889,-0.1730535212,-0.3648883727,1.44028195,-0.2721207063,-0.1914552855,-0.5401711812,0.3873836982,-0.9965498155,0.449457488,-0.8132362671,0.4283584756,-0.1709019135,0.707131408,-0.1145932404,-0.890445162,-0.629849644,-0.9472951189,0.8918435747,0.7750580058,-0.3012393355,-0.8850341374,0.4977203641,0.4349330127,-0.5255702634,0.5866077834,-0.4631501829,0.2354013648,1.3697773035,-0.642311942,-1.1925188617,-1.0218064782,0.7962697396,2.8800500204,0.7981542464,-0.5949480543,0.0410696493,1.1536103887,-0.9825906075,-0.5925478449,-3.4023755593,-0.1207961104,0.4574175949,0.8056121296,-0.7595055368,0.1537921199,-0.7907904865,0.6845967624,0.9208256555,-0.2410766782,0.1247592441,0.059862406,-0.3721645546,0.2029879823,0.012034288,-0.710704227,0.4234520222,-0.6951735258,0.3220469517,-0.8535813297,-0.1258331588,0.5258446539,0.4416226238,0.3665640968,-0.7549840662,-0.2353353925,1.619559716,-1.1355874904,1.214634052,0.1804846613,0.8072775394,-0.3905564587,-0.6047482889,0.0632550905,0.6187000755,0.5986598702,-0.5485108413,0.2030128501,1.1919689725,-0.3838882587,0.1378394946,0.7678238277,-1.2173979381,1.1413212756,1.2253014598,-0.5897968764,0.1507692415,0.5121835279,-0.0326198378,0.9984315899,0.3132423045,-0.2613996728,0.4389217594,1.2275178681,0.0638619242,-0.8082822623,-0.2893404112,-0.9232727648,0.7576765008,-0.7411195145,-0.0111023329,0.11675998,-0.8227946639,-0.0898105659,-0.6856689761,-0.4943007223,-0.553854317,0.0279569859,-1.0016059986,-0.4286937024,0.5756324407,0.0233589685,0.6511911122,-0.3716216183,0.6381341812,0.2262312132,0.5192298117,-0.9384555661,0.5954570045,-0.0997650621,-0.758727891,-0.4088836093,-0.5593138346,0.3234764517,-0.5607226762,-1.1898262454,0.9074093284,-0.1698372425,-1.2145754329,0.6693483591,-0.7428005938,0.6682829981,-0.144928154,0.6082736662,0.1505187615,0.7751899764,0.4275528794,-0.0714903621,-0.1608967828,-0.0948211717,0.0584345942,-1.011762483,0.2471103407,-0.92866552,-0.397002346,0.6819217844,0.1893776308,0.4251261987,-0.1518215903,-0.8437801843,-0.2032137504,0.3027306142,-0.3419325688,-0.8472216394,-0.610224884,-1.3512509129,-0.201264488,0.8281332567,0.7460447512,0.304348346,-0.0249676421,-0.7637663912,0.1743692911,-0.5938511418,-0.9976379657,-0.3668699809,0.828428546,0.8186222015,-0.6769092208,-0.5128667803,0.8927237384,0.2909016144,0.3082372806,0.5065718125,-0.1246590935,1.1618813502,0.8273599268,0.008290229,0.1182614111,-0.3736421009,0.3185696057,-1.1643244976,-0.2817290905,-0.2457679,0.7347729679,0.5204415391,0.9186501447,0.0017075706,0.4966575031,0.5361201991,-0.1966297817,-0.4885293741,0.2977812891,0.2403491534,0.1269773363,0.507280787,-0.2861803117,-0.4499803302,-0.0269234359,-0.5446585701,0.7172905516,1.1731890254,-0.8093002905,-0.9461651701,-0.1189388394,-0.0414164331,0.2467837446,0.3405229507,0.7586113128,-0.585291109,0.668701973,-0.7775325986,-0.2921219769,0.9738672016,-0.5173859669,1.2274230043,0.7934061861,0.509735121,0.8487993357,-0.7238180429,-1.1118224474,-0.0968439254,-0.6121265341,0.2887284744,0.748491911,-0.8135060839,-0.6440380275,-0.6909428551,0.3253117232,-1.0814813682,-0.3079864339,0.3587228482,0.0901620058,-0.3369406967,-2.3358843354,-0.2759303223,-0.1449305877,-1.2935536261,1.5635515071,-0.691224774,0.4731554245,-0.2282871894,0.4717166381,-1.0207581441,-0.7847970442,0.7837818848,-0.4119878427,-0.6018787472,-0.7644285765,0.1398554315,-0.291639861,-0.1587580707,0.4232955657,0.0081471017,-0.5039717399,0.7141966033,0.8331678989,0.052190747,0.7729072259,-0.4396892735,1.6270164409,-1.2022104957,-0.3250289145,-0.6533343517,-2.3475024529,-0.8333070194,-0.3301228734,-0.7415499713,0.5052230704,-2.1617554788,-0.4028902654,-0.0157796966,0.5339379744,0.2414083738,-1.2071936621,0.6928786889,-0.7872871316,-0.7050658119,-1.2643598221,-1.0954235934,0.8243583317,0.1013137727,0.0355157367,-0.8469638782,-1.2501485169,3.3700612864,0.3832072927,-0.5220074011,0.7719476078,-0.1457273565,0.6066371363,0.6437772307,-0.6594293735,-0.386601758,-0.3326745932,0.7650594466,-0.7857718321,-0.5329699574,0.0961030331,0.7732581119,1.2117676097,-0.0526032975,7.7219395195,-0.3049885698,-3.1143480997,-0.2480547858,-0.8683210475,-0.238619728,-0.500065195,-1.0085294841,1.0775306887,-0.6730392676,0.7983837886,0.1769960133,-0.3485121369,0.1677026153,-0.3785711813,-0.7831138332,-0.2943087066,-0.4052569341,0.6650053139,-0.2535864842,0.2817677121,0.6866978126,0.1413393288,-0.5546253308,-0.6306025789,-0.1675356129,0.293786564,0.5828024554,0.1534964241,0.138760676,-0.9334185043,-0.3930620191,0.042952255,0.8156855883,0.4599118041,0.7362584256,0.0058669763,1.0120308781,1.0958451333,-0.5675456115,-0.344693973,0.0272206046,0.5988038714,0.6044647656,-0.298152335,-0.6999916439,0.893812156,1.5136958378,0.4637741897,1.0784590197,-0.7287255669,-0.4140461466,-0.4178540001,0.3311596931,-0.6852667936,-0.0767111196,0.5134474736,-0.4157477879,-0.2549469534,0.0935373386,-0.0342702645,0.7011589775,-0.1806780839,-0.4824996595,-0.6928102088,-0.20669734,0.0523790367,-0.2942446202,-0.874502287,0.5667094918,-0.1914491428,-0.49134813,-0.3305020569,1.1013665178,0.38222711,0.2656929603,-1.0752188737,-0.241514611,0.6415650015,0.0153062009,-0.2462919178,0.2832136242,-0.6322430453,0.2481773713,1.4478486436,0.0530084299,-1.1999264227,0.1413836063,0.1685236096,1.6307732365,0.7584418428,0.9619657269,0.3520175621,0.1684322132,0.2011514322,-1.018422772,-0.2059993443,-0.3327198384,0.5386555738,0.682472814,0.7920544879,1.0947047658,0.233179765,-0.8344413379,0.8899677057,-1.296937336,-0.2310250545,0.2307819849,-0.5794835804,1.7162647378,-0.3858972095,-0.5369001018,-0.0017939188,-0.9876297688,1.6435752616,-0.8971260446,1.8201125824,-0.6462778252,0.5002448633,0.4026741958,-0.3858801986,0.3552940298,0.3420559138,2.2920573814,0.4900726294,0.8322362123,0.4101734803,1.0922579206,0.5968757189,-0.4789816693,0.0849177169,-0.4556187733,0.7399291315,0.4050964587,-0.214414011,-1.0991827462,1.2471223017,-1.0715967209,0.7769066277,0.024339348,0.1730882036,3.9402380335,0.2244928269,0.0001708413,0.4094750516,-0.5159225273,-0.3152576323,0.7157988526,-1.0032244955,-0.5012384662,1.0313104687,0.0195667943,0.3041009623,0.5744853199,0.7158701761,0.5378264742,-0.7251127212,0.1152121374,-0.1830281328,0.4341884849,-0.8729424988,-1.6076655888,-0.8185436379,1.3486641504,-0.8893984081,-0.1708027795,-0.2269014617,0.4205467832,0.0179274751,0.7783698802,-0.7827792271,-0.4432925889,-0.8368882613,0.6908750557,0.9708327297,-1.9764471768,-1.2185780955,0.9278779338,-2.6754397058,0.4369158818,-0.2305517808,1.2938214628,0.8686506083,-0.229968621,-0.6249148414,-0.4174779459,-0.1991060646,0.6277760938,-0.1514894018,-0.0869363133,-0.2446660727,0.0540777196,-0.2488070591,0.6263678736,0.730978046,0.2259538449,0.1598547782,0.6894974414,-0.5045126819,0.3957122801,-0.966744595,-0.1672217075,-1.8105815875,-0.9594319639,-0.1289418083,0.4193547952,-0.0531876812,-0.5293007325,0.9274587992,0.2443981496,-0.2770285355,-0.5994729879,0.8500466475,0.4421668714,1.6951896131,-0.0347914557,-0.2741898672,-0.3750708221,-0.7818892358,0.0620230625,-1.0919872877,-0.7740079171,0.338447576,-0.152475941,0.6804143299,-0.3262437894,-0.4022962632,-0.0574256288,-1.0418306555,0.47285349,-1.4590927248,-1.0617711512,-0.6397448888,1.0942934559,-0.3310404907,-0.5559343022,1.4975667863,-0.3640652059,-0.2773061112,-0.3528682915,0.2401477595,-0.3214865085,0.984739718,0.1081820985,1.2627655297,0.8059821716,0.7286947361,0.2245315604,-0.4978163256,-0.6374535557,0.8791618386,0.6672145621,0.7506745173,-0.5957104211,-0.5402940483,-0.6103161986,0.4145925174,0.7340378784,0.8754638391,0.3890812073,-0.0656396378,-0.2149873577,-1.1212939401,0.123282416,0.1716180685,-0.888031767,-0.312035704,-0.6897971489,-0.8528230095,-0.20637173,0.7781019429,-0.8901387092,0.4987921767,0.8584985553,-0.3284043436,-0.381841644,-0.3447720254,-0.3520713977,0.4163922647,0.6953839973,1.0517193792,-0.4105404275,0.1466808801,0.3702047926,-1.2801631767,-0.1023083665,-0.997487395,0.110067219,0.1624534361,1.5782853296,0.8396070712,0.5216488778,-0.1756578045,-0.3156669713,0.866386032,-0.507375013,0.7858717561,-0.958087613,-0.2970130241,-0.8958339558,-0.6214203283,-0.5930926294,0.7611643026,0.1185991275,-0.1796397758,0.0316162405,0.9432868338,0.3711794534,0.5584115056,0.0507511561,-0.1258325534,-0.1950769628,0.5877627364,0.3391448512,0.3696073244,0.2623299769,-0.672193691,-0.1572413788,-0.7623128874,1.0413731506,0.6022438905,-0.9723004368,0.2739255772,0.4056191552,-0.2194083517,-0.2816478486,-0.2508259253,-0.2947565477,-0.3977622135,0.1960121597,0.6075129587,0.694627449,-0.8628091753,3.3305781457,1.5384560718,0.0095962261,0.4098645463,-0.0644615262,0.5422359723,0.1335962625,-1.7964876551,-1.4916429101,0.8858391656,0.6489878948,-0.1611991245,2.3267671332,0.5418829588,-0.6927931268,-0.6766870907,0.6752576389,1.4777971558,-0.0527234082,-0.4793901883,0.2423589159,0.7615136748,-0.1601195881,-1.4360358866,-0.3425269421,0.5611698564,-0.8366494159,-0.8758635777,0.285257783,-0.3130276411,-0.1088969304,0.1056720469,-1.2335707553,-0.0937092455,0.3542886323,-0.5216089257,0.0339631558,0.9714476799,1.180801524,-0.5305000979,1.4639116926,-1.000898808,-0.0722028624,-0.5954068789,1.3938931617,-0.8341900395,-0.3731176532,0.3660829395,0.652708414,-1.1806542669,-0.2183484988,-0.3742064799,-0.6594109433,-0.4086990881,0.3235213926,-0.8535146962,0.8516468669,0.769440671,-0.5042859366,0.0015036055,-0.2183503826,-0.1478134287,-0.4801140699,-0.8405154942,-0.594818769,0.7051520344,-0.5759991943,-0.5616675874,1.4141711186,0.8437921644,-1.0906904093,-0.7046815822,-0.300925703,0.9580921674,0.5594508268,-0.5033728932,-0.3534574043,-0.7334608972,-0.2221850034,0.5743578731,0.0857534625,-0.794839206,-0.3961099645,1.1389220502,0.0450776062,1.3750990231,-0.7620245186,0.575177986,-0.2800693381,-0.3792843602,-0.4800399559,0.6825207159,0.6438008786,-0.4301516389,0.3091154564,-0.4814388004,0.3720180427,-0.2064035713,0.4577444439,0.0090234609,0.3193331035,0.1352836935,-0.5643046195,0.8163829969,-0.416049072,-0.6214753545,0.4739639852,-0.94173268,0.5261028122,-0.4815724685,0.4101667937,0.3718022477,-0.8071121241,0.3336346755,0.7451402966,-0.4089187298,-0.80279443,1.5041746446,-0.6077395231,-0.5493167345,-0.4011385538,-1.0426781224,-0.0038614815,0.7128188106,-0.2724833258,-0.8782010665,-0.4000505203,-0.5860831924,-0.8100044922,0.0156764283,0.5390495316,-0.722418679,-0.2267677636,0.8434205427,-0.1992127816,0.1716838227,0.64936473,1.0442801657,-1.1044759622,0.9870167893,-0.4929888719,-1.1707351708,0.3894454195,-0.988869321,1.9626530851,0.0218627355,0.5050426587,-0.2363163787,0.7821118159,-0.0646680569,0.3487385492,0.0397240994,0.565723704,-0.884370844,-2.9402369522,0.0960371299,-0.9008618738,-1.0907507743,1.1487225046,0.2973964834,0.8478340805,-0.1897305581,0.6469932645,-0.5192882485,0.4568461006,-1.0982102156,0.8997933211,0.7049200795,-0.4636749553,0.2738772189,-0.0281082651,-0.5057405591,-3.0016932064,0.771413452,0.1080727907,2.1650696404,-1.312322849,1.0715243245,-0.3730913651,1.0876297996,-1.052415906,0.3168865812,-0.8237169928,1.0365769741,0.7095167204,2.4823680369,-1.1077629582,0.0549614625,0.6225949119,-8.581289993,0.3752599319,0.1702432278,-0.2313817043,-1.4874190809,0.4185395043,-0.6709606452,-0.3193550802,0.1058184668,0.7174843896,-0.5066580569,0.5385277908,0.1517911503,0.8730628069,0.4719818301,-0.6145347559,1.0685266711,-0.0877121935,-0.4771313939,-0.978096945,-0.8477890159,-0.9892446279,0.6403049832,-0.6100935426,-0.3934448632,0.6641548336,1.9124008341,0.0092020505,-0.8307419649,0.5633236724,-0.6904650667,-0.0444693986,0.2384238243,0.0820835682,-0.1225233962,0.0379767687,0.4776578847,-1.2209995254,2.3423037531,0.7521238588,0.7181289851,0.306022283,0.258961426,0.4088511048,0.6476321084,-1.1158321984,-1.2920111237,0.2181122625,0.700180156,-0.3395486361,0.1558176843,0.0956765928,0.3622769746,0.3079784025,1.5259941793,0.5523731242,1.0521338391,-0.4739410781,0.0272649149,0.4379773231,0.4465375685,-0.1027320141,-1.5764940912,-0.641701146,1.9093126205,0.7226479141,0.3117024721,0.5373357179,0.0407555758,-0.4101910851,-0.4019371226,-1.5453042457,-2.4169431288,-1.1176956636,0.0556211523,-3.8842749849,-0.9947374085,1.4748399773,0.2856856258,-0.3693030239,0.5377212431,-1.987079734,-0.1705292444,-0.2099812774,0.6307773021,0.0695356398,-3.2332129228,1.058714755,0.9468825258,-0.5766538101,-0.6859222885,-0.7640195047,-0.6518089295,0.21786826,2.403149673,0.2590724784,-0.64384155,0.4712473953,1.5437748945,0.64451817,0.1340452569,0.3458740985,0.2558204752,-0.2425640728,-0.7944672859,-0.3396443944,0.4548214923,0.8623881569,0.2424100327,-0.5595010877,2.7454388423,-0.1836430281,0.5651381669,-0.523880928,0.2440126594,-0.9192783902,-0.2449746999,-0.2365948138,0.1863807213,0.5333216098,-1.2599836642,-1.0479802207,-1.245986301,1.0770372534,1.2401360449,0.1233451561,0.7117782664,-0.354052745,-0.3701815303,-0.6015405006,-0.2051991566,-0.4902987668,-0.1655208739,-0.4946203861,0.2103169516,0.6250096211,-0.5525551756,0.6202225466,0.8232275826,-1.3416113728,0.1202920933,-0.1832261248,-0.3846427542,-0.6182975087,-0.1924055156,2.1256508539,0.099994388,-0.8086712302,-0.106131496,0.6808933207,-1.2246695926,-1.0239338651,-0.7491294147,-0.1082486619,0.7643249411,-0.7964245211,0.1818926756,-0.1244980038,-1.1461910928,-0.3634457393,-1.4674242481,-0.5783958382,-0.503839436,-0.7401321443,0.3991072486,-0.4653900528,0.4409823335,0.1777383736,-0.3783331487,0.8977889681,0.972785171,-0.3215179625,0.1176075374,0.8590888908,-0.4092423737,-0.4599393428,0.4106817704,-0.2728261431,-0.3670531914,-1.9454844461,-1.0508235394,2.9159205723,-0.7588945207,1.131093298
