encog,BasicNetwork,java,3.4.0,1,1571656333204
[BASIC]
[BASIC:PARAMS]
[BASIC:NETWORK]
beginTraining=0
connectionLimit=0
contextTargetOffset=0,0,0,0,0
contextTargetSize=0,0,0,0,0
endTraining=4
hasContext=f
inputCount=22
layerCounts=3,26,36,46,23
layerFeedCounts=3,25,35,45,22
layerContextCount=0,0,0,0,0
layerIndex=0,3,29,65,111
output=0,0,0,0,0,0,0,0,0,0,0,0,0,0,0,0,0,0,0,0,0,0,0,0,0,0,0,0,1,0,0,0,0,0,0,0,0,0,0,0,0,0,0,0,0,0,0,0,0,0,0,0,0,0,0,0,0,0,0,0,0,0,0,0,1,0,0,0,0,0,0,0,0,0,0,0,0,0,0,0,0,0,0,0,0,0,0,0,0,0,0,0,0,0,0,0,0,0,0,0,0,0,0,0,0,0,0,0,0,0,1,0,0,0,0,0,0,0,0,0,0,0,0,0,0,0,0,0,0,0,0,0,0,1
outputCount=3
weightIndex=0,78,978,2588,3623
weights=##0
##double#3623
   -0.0065798171,-0.4279960353,-0.2321780725,-1.0881852911,-1.6951367016,1.0333123908,0.7196805778,0.4139113052,0.7242398283,1.1238089551,1.1152069489,-1.3741240035,0.5139523023,0.034308652,-0.0725637194,-0.1674466978,-0.866387729,0.551284768,0.0965900057,-1.1024662468,-0.5723043364,-0.2246050633,-1.0297202908,0.7874496652,-1.036534554,0.0727810957,0.0013759952,-0.9404748333,-0.5020096428,0.0146079603,1.0001853399,0.5243461965,-0.3491989501,-0.5631893931,-0.3917749093,0.0225584927,0.0003428631,-0.0065252151,-0.7311981595,0.0507708139,0.4315686645,0.0325734007,0.5976546191,-0.1633872458,1.3333067392,0.0228855485,0.1186853647,0.8397105246,-0.7831033362,-0.3090699557,0.3555885062,-0.3220319893,0.5576614775,-0.2629982496,0.7644354206,-0.1284505379,-0.6899175959,0.8940594152,-0.9943277207,0.4597095001,-0.212351825,-0.7146314378,-0.2945759262,-0.0475775765,-1.2329600454,-0.5368658805,-0.3720078962,-0.7184982535,-0.2674977659,-0.2111945095,0.0495015882,-0.0374453924,0.7823695034,-0.1300480378,0.4200442946,0.5804579934,0.2584711269,-0.3765401893,-0.3707235661,0.83079426,0.3523687827,0.5249439291,-0.4883630552,0.3269860674,0.2761617013,-0.3441230088,0.6777022752,0.1987105785,0.6438167935,-0.0211742528,0.387129887,0.8038727,0.1838254454,-1.0497571804,0.5338506265,0.8005407613,-0.4191737075,-0.4623538024,0.1461061901,1.7177001754,-0.1674493186,1.1175254449,-0.1175078531,-0.1778038936,-0.3029772504,-0.6781638059,0.2323693765,-1.0156542523,-0.4391876935,0.4147013452,-0.8057748873,0.9972364791,0.6758096697,0.4691103225,-0.5261810457,-0.2616409028,-0.2420976071,0.107644519,-0.8612793383,-1.9096050382,-1.2552735172,-0.0089966358,-0.3305562268,-0.1243031955,0.0842267964,-0.3132181558,-0.5600843789,-0.0828414497,0.5051990226,0.1228810298,1.0997116086,-0.9227526485,1.99046932,0.0026420874,-0.812638002,0.1270357827,0.9714390311,-1.5568836328,-1.0698643699,-0.680990481,0.5482757936,1.6071003527,1.9456345294,-0.7828709697,-0.0912664651,-1.3061051178,0.7973749408,0.1324915533,1.0394551047,-0.5141113232,-0.9019947107,0.6990973262,-0.4268271061,-0.6265674898,0.2940560147,0.7468757531,-0.9371740684,-0.4388391668,-0.8807500191,-0.9796426542,-0.0253645469,-1.0994816523,0.487100169,-0.9726628146,-0.3251769261,1.0576449138,0.809089488,-0.5372659979,0.5029743776,0.3584029967,0.64616953,-0.2011062203,0.340952672,-0.3569921018,-0.5168168836,0.4168606099,-0.7805150557,0.232470573,0.2676573445,0.4378132736,2.8512118251,0.2652475453,0.9557802867,0.3148986828,-0.0892460134,0.2059886976,-0.6607441194,0.6392609322,-0.5013354697,0.3875610677,0.6618703021,0.6360791266,-0.2185903194,-1.1143814088,0.472617791,-0.6558469937,0.2855251879,0.0980896047,0.2466939991,1.0514731069,0.3981603451,0.09331709,0.4595086872,-1.0176271547,-0.5110244858,0.0836219733,0.0184307903,-0.3554405368,-0.704741209,0.6564145683,0.5081961269,0.2447746278,0.5046217313,0.3754079254,-0.4931521936,-0.9041232073,-0.0769910439,-0.2829985059,-0.9752117088,0.9051604219,-0.3014416705,-0.0666668151,-0.3136766407,-0.6310166779,0.0191931432,0.1644870173,0.3011117486,0.2320918691,-0.425674374,-0.6188125427,0.0898680699,-0.7749512668,-1.1191731496,-0.902749637,0.1016518078,-0.4832754134,0.9109737095,-0.0937310399,-0.1441293681,0.6534740304,-0.4386996376,-0.6243532051,-0.4534564829,0.7482547531,0.7426787557,0.3900305025,-0.3294942289,-0.8850365539,0.0190136284,-0.4171359516,0.6557404537,0.6775332242,0.289444647,0.3969183587,0.6094332364,0.8715726721,1.1775799541,-0.9718725085,-0.4281112761,-0.4774939545,-0.2006716346,-0.416855811,-0.3317173317,0.4215618263,-0.4680210951,-0.3580910745,-0.2047680735,0.688235089,0.3709159986,-1.029338514,0.0445024764,-0.4742923878,-0.4844959914,0.0824412127,0.0915467575,0.8727499888,0.3005843354,-0.4068594145,0.2426515599,-0.08569809,-0.7630540167,-0.3564013439,0.7028569959,-0.0767434404,0.0262639833,0.5611399016,0.135179212,-0.8140582286,1.0717230358,0.4392995407,0.6451949369,0.2437175568,-0.7641372183,0.5853814249,-0.9159126522,0.0380860246,0.6892445756,1.209866811,0.2172138462,-0.0265857999,-1.0585975451,0.4928328621,-1.3761196364,-0.6680766069,-0.3849083653,-0.5042107809,-0.3437895065,-0.2703430886,2.0051156522,1.1922214466,1.2626379861,-0.3209660605,0.7011484379,1.3026796448,0.1445640328,0.2083704011,-0.2339356998,0.6546302928,-0.9615298409,-0.108555618,-0.1858189767,-0.3102865503,-0.4554331439,0.6126677277,-1.1137261817,0.5015559253,0.9471162301,-1.1577490361,1.0159035146,-0.2934217391,0.2463261522,0.1881130086,0.1209828307,0.0868546251,0.2825836448,0.6755041487,-0.5337139982,-0.2647445574,-0.6782623274,0.6218055616,-0.8795926049,1.6142146384,0.7705368485,0.292313978,-0.1570934362,-1.0183531739,0.7381559417,0.5728002247,0.9292304975,0.3739659974,-0.5046004141,-0.0628047441,0.1548638404,-2.298930995,-1.0197727594,-0.2047973232,0.2471027485,0.6350409786,0.317075854,-0.6691869945,-0.5622974512,0.6969925832,0.7106768189,-0.7894594501,-0.4888461665,0.7119129673,0.2551744495,0.7762766463,0.6907243697,0.6726117697,1.3321154622,-0.278458388,0.6964905361,0.4632369965,-0.771230722,-0.104349542,-0.7836813409,0.2573142508,0.3918676923,-0.2896671624,-1.8250076169,-0.4201058693,0.4361270106,0.4545426818,-0.894518702,-0.1629288913,-0.183962053,-0.4279946831,-0.0074756503,0.4752973897,-0.2788812589,-0.3364409685,0.0185890159,-0.323906293,-0.6875980431,0.9812168559,0.1229579143,0.0273726258,-0.1490952571,-0.1362448285,0.2807711527,-0.8920001677,-0.1398766512,-0.6427460189,-0.5135779105,-0.3810488162,0.344637906,-0.0719928303,-0.1358669966,0.9889236884,0.5360707699,0.9330407957,-0.5966170343,-0.028310443,0.9973587098,0.5778976078,-0.4238088104,-0.7853524255,0.3076883847,0.3133212889,0.0112367164,-0.117885201,-0.5038165111,1.0963283425,0.2310297561,-0.3277807531,0.073177922,0.2821975818,-0.4648110152,-0.2351237723,-0.6853345893,-0.686259026,1.2036886126,-0.4565989597,-0.5183530554,-0.7429332923,-0.2134608026,-0.6265479294,0.9000750519,0.2483306243,-0.6500924672,1.3292055461,0.1142850109,-0.2191278426,-0.5713373343,-0.6123010361,0.1039627123,0.1057106972,-0.4267170115,0.4597649382,-0.5791191886,-0.9255190589,0.7795545568,0.4618736028,0.0537825758,1.0381686596,-0.2891456731,1.2502627757,-1.1400002973,1.2274545197,-0.1371649093,0.2281865291,0.7192479196,1.0935076114,0.3124525857,-0.4807408686,-0.6909530131,-0.8048959959,-0.1006929781,0.3210358264,0.1171336301,-0.116505852,0.7487185397,0.5885571145,0.7309088974,-0.2967597345,-0.6484761114,0.0099582174,0.9690455774,0.8687976959,-0.6692903403,-0.628726122,-0.3955681427,0.5906362801,-0.9972897098,0.6278549935,-0.3764247697,0.0069187439,2.5159761299,-0.9384450318,0.861818472,-0.569630757,3.7005628728,-0.8885662483,-0.6976341284,-0.0544418919,1.1804457033,-0.3843755047,-0.4482079882,-0.5504230995,0.5099157429,0.8261147201,0.0928073842,-0.3352039855,-0.8890677223,-0.542508003,0.2507187734,-0.3560780571,0.6900976542,0.0272321651,-0.0461120161,-0.6477484109,-0.00572746,0.8800439185,0.5881966966,0.4199554299,-0.1194186243,0.2602358274,0.2666646762,-0.8878335583,-0.7816231238,0.4929649194,0.379575181,0.4431234716,-0.7509982208,1.26700104,-0.0997910461,0.3282116113,0.0090100673,0.8618866247,-0.7739863685,-0.1423274423,-0.671360607,-0.2311656078,-0.7054473164,0.8061824111,0.1390323376,0.3058983301,-0.1038424243,-0.0899449975,0.4438993205,0.5238186115,0.006154185,-0.3294933299,-0.2188757123,-0.9484364184,-1.7981353533,0.6566685509,0.3418584266,-0.3706595186,-0.0157255388,-1.3321781045,-1.1499863043,-0.5546396081,-0.6278934849,-0.3986539227,-0.7487265732,0.8111477342,0.625144914,0.3705316221,0.4756001058,0.8912282018,0.2611756853,-1.5384385807,0.582540577,0.4712749769,-0.3961633688,-0.0222425914,-0.8424566096,0.7233702185,-0.2916911615,2.7289025095,-0.3431082165,-0.9228498656,-1.1248539783,-1.2441568805,1.6579405468,-0.939042494,-0.9400149051,-0.9534466334,-0.6708631147,-0.8520151269,0.2606631303,0.046966943,0.649405836,-0.561032564,-0.8539723764,-1.1697892045,-0.1905544178,-0.5884172836,-0.6402746669,0.5210223295,0.4426198188,-0.236765587,-0.9624420905,-0.9503575032,-0.8252341253,-0.3530957479,0.8296515698,0.5587217419,0.1454881372,-0.7893403027,0.7479232154,0.5467571339,0.706872519,-0.925189798,-0.2642389171,1.0277121676,-0.4059158273,0.7547920076,0.0901660146,-0.5124074333,-0.6621198972,0.4292056097,0.734448342,-0.6430470954,-0.9876081069,0.9229421212,0.8957149721,0.2720828542,0.26157738,-0.8068367702,0.9070627686,-0.2365222668,-0.029715158,-0.6869920358,1.1793914686,0.2097073664,-0.0292467567,0.1366412818,-0.3573645565,0.241722277,0.7455076141,-0.0230844578,-1.2747750993,0.5851629037,0.1307964234,0.5059747764,-0.3886732049,0.5254334053,-0.2605771102,-0.9099742702,0.7457058687,-0.5059462155,0.9650010426,0.5817444258,1.2694190687,0.6872982764,0.2777244131,-0.0146907484,-0.1661837383,-0.0328077242,-0.1097776245,-0.8009252956,0.5184491946,-0.3678488254,0.6174684136,-0.9106386648,-0.8775208886,-1.0518895912,0.6877623514,-0.6535930168,0.6587516769,0.2359031931,-0.4643537624,1.0111016497,0.2263816925,0.8337733903,0.5683582619,1.6095532073,-0.0962518078,0.6258971142,0.2187386272,-0.0887941412,-0.6059011319,0.0159861292,0.2254312109,-0.2985397258,0.6157023922,0.0501460072,-0.5112660709,-0.0566774113,-0.6174270617,-0.5426733966,-0.9803538105,0.5262114069,0.4969375145,-0.5032857109,-0.6715068163,-0.301503994,-0.3855565067,-0.8449423082,0.5697583049,-0.1337772277,0.2176498874,0.5949295453,-0.4496422109,0.6242158706,-1.2522736029,0.1730942518,-0.5389432688,-0.6446188023,0.0560222635,1.1287712907,0.8001904194,-0.0624521491,0.224323081,-0.820773112,1.4257722778,-0.9603717206,0.62486756,0.8898321027,0.7975685442,0.7213560638,-0.3159638033,-0.15763164,-1.1113757641,1.0990225928,0.2646523092,-1.3112260113,-0.4931816264,-0.6091415487,-0.0878648555,-0.0490322282,-0.0703228759,-0.053905479,-0.7551692641,-0.3967469331,0.5212552487,-0.7443450786,-1.0213092097,0.6404017483,-0.3981706599,-0.6361355874,-0.8117708913,0.1908345128,-0.1945644054,0.6881393321,0.7460886543,0.5323607953,1.1837717067,0.2245324082,-0.6725004121,-3.4828710899,4.3285210527,-0.3595278222,-0.8564714491,-0.3020858878,2.5014683052,-0.3474207941,0.8354779385,0.304116872,2.0733352506,3.5418905047,3.4306764898,-0.9672490207,0.6434470104,-1.7469851005,2.2803611598,0.0468796163,-0.8362769669,-1.1137666801,0.6980097028,-0.5318291806,0.545092494,-0.1409963821,-0.1608717971,-1.203894003,-0.4099537922,-0.9733074892,0.2511795025,0.6284037849,0.0467267379,-0.1261863096,-0.9617455206,1.266346354,-1.5199830143,0.065455672,0.6045599368,0.6356699508,0.7290001334,0.5501288753,-0.392086927,0.2107065966,2.4070081778,-0.2407568357,0.5704406597,-0.2444821671,-0.0208964339,3.8219806435,2.0342415696,0.6509847972,0.641238328,-2.5637508157,1.0963891824,-0.2131898886,-0.184155751,-0.0188644116,-0.5102552308,-0.7567782874,0.8951781072,0.8800507455,-0.0124693102,0.358002394,-0.4639512166,-0.7643261657,-0.9670672241,-0.7400571506,0.1914836157,0.0492684879,0.7933937769,0.6130481691,-0.9288755388,-1.1162170257,1.4976386042,-0.8815211197,-0.0859167838,-1.0838552287,-0.1041235065,0.8147730834,-0.8586877952,0.5742793428,0.0513735307,-0.2930040264,-0.4948296829,-0.7613264003,-0.2494849185,-0.1409425054,0.2406459453,-0.0812712276,-0.1339765378,-0.3270271675,-0.3061453655,-0.3903476953,0.0568459574,-0.231509389,0.4836390338,1.6701406032,0.0885477158,0.1970360437,0.627688672,0.0558094574,-0.5840357347,0.2259468849,-0.1920527842,-0.655625114,0.6594950874,-0.6129934475,-0.8805641171,0.3667631815,-0.5089979257,-0.1537241854,-0.7979470544,0.4118323695,0.1507359693,-0.0436967354,0.1886573321,0.5059087674,-1.0039692586,-0.6504157741,-0.12551226,-0.0369259692,-1.3457626403,-0.2604218463,-0.584625075,-0.7866438838,-0.8485050706,-0.009996453,1.3209508447,0.0812350607,-3.3463277277,-0.2830657892,0.5345101255,-1.6515988019,-1.0681622343,-0.3246397365,-0.0795553038,-1.0524788155,-0.4720633452,1.4942505001,0.756577991,1.2272379081,-0.6377983717,0.1436365144,1.6893147117,7.4423016439,4.039970035,-3.6079784009,0.6653651963,0.045178408,-0.0638445319,1.2805168854,-4.4729143648,-1.3326543794,5.6329767115,-1.3920938872,-0.2296739621,0.9129265031,4.0932258344,-6.8725667117,0.3944128913,0.2292119181,0.9357336265,0.8230690771,0.3172322484,-0.7598952557,-0.179537602,-0.3111051564,1.0013775479,0.9791907317,0.8592058675,-0.0974525327,0.4802190706,-0.225446554,-0.5428461679,-0.1674819467,0.2903473039,-0.16399053,0.272690826,-0.8944467509,-0.4678532883,-0.5654491566,0.6399349981,1.2172893958,-0.7586238994,-0.3665739607,1.0436865211,0.9892328163,0.2408223353,0.1628427565,-0.5555937054,-0.0833887358,0.076500649,0.1999470802,0.9723657799,-0.1150697723,0.9238303779,-0.4798225649,0.3669444669,0.9475463468,-0.5138539315,0.3778845447,0.3139058156,0.4106969341,-0.1681612372,-0.4115629707,-0.7209108674,-0.8726621577,2.9950215681,0.7582411127,-3.0484066481,0.4792268423,0.321998975,0.2273513725,-0.274156885,4.7318131368,-0.4590312141,-3.0053560038,0.7825289058,4.2422404293,1.1247396428,1.7932099301,-0.0464793689,-0.1444613967,1.3743770943,-0.777631103,2.8568864617,-0.8732088139,-1.7071404694,2.0150659759,-1.3709181427,0.2678654497,0.6310388277,0.7691361387,0.6538425815,3.9966476715,1.2199981231,-0.3672417607,0.91648772,0.1365228253,0.9038084267,0.2769545972,0.2556039175,0.0682676229,0.1534904671,-0.5827804857,-0.4560280257,-0.4663832835,-0.7857715576,1.8549930755,-0.2772545819,-0.8363792136,-0.1120683827,0.9953635167,-0.3491591892,-0.3629775576,-1.0340624152,0.2889445413,1.1963342221,-0.196571466,0.54747219,0.5566342223,0.4245699405,0.0890364765,-0.0356066228,1.2428208091,-0.9029547119,-0.4309591151,-0.9248068572,-0.5147840184,-0.4677851694,0.3747471046,0.5823972065,1.0474157,-1.4764339495,-1.2841551154,0.4701460143,-0.1497624509,0.0277224556,-0.3397885398,-2.8476113205,-0.3228564524,0.3545578518,0.9274542257,0.648062174,0.8289272459,3.6398904854,0.2198324918,0.5954263485,-0.7963617052,0.3593120361,-1.1737054101,0.3979811911,0.3472088525,1.2518874786,-0.6539584007,-0.9464634167,-0.7457109539,1.6273485105,0.5337111566,0.7048879898,-0.5132096073,0.9513535111,0.4670710484,-0.4202341988,-0.742900686,0.966001778,1.1113582144,-0.3889752232,0.2878544737,-0.3416873245,-0.6311699713,-0.2516673557,-1.5910985548,-1.2829472501,-1.4372923782,-0.2895607993,-0.9858770851,0.0709194298,0.2746952857,0.5379282926,0.435191672,-0.0572367849,0.6442434063,-0.9269382097,-0.5697884595,0.3749647349,-1.3191734552,-1.4394881091,-0.5519014365,-0.7001190486,-0.198227661,-0.7166701996,0.4852335634,-0.1546599595,-0.1693639223,0.852369201,-0.5535732986,1.1102904568,-0.7644707195,1.6865134422,-1.8909217707,-0.125464547,-0.1302099839,0.5597160218,1.7341626413,-0.4677287876,-0.8725080049,0.6546247116,0.2364605922,-0.0227393126,-0.2002994332,-0.4410832622,-0.2457622798,-0.9228077947,-0.3147351538,-0.4511269716,0.0617489567,0.026488401,-0.63472239,0.714091382,-0.4003284232,0.6286590671,-0.3136691179,0.0729894128,-0.8637851697,-0.5741595882,-0.03412867,-0.2008495581,0.4537242345,-0.2087174509,0.0770915947,-0.4986761782,0.3435703536,0.0626346815,-0.2064550159,0.5040552993,-0.7026301048,0.7716660321,0.0969353627,-0.3825507307,-0.6106466179,-0.6207267657,0.8664880541,-0.2182802781,-0.5992076262,0.2254892741,-0.669259301,0.5471637871,0.1562135454,-0.0401765412,-0.5580650624,-0.7338049099,0.4471591522,-0.8454792131,-0.3111261067,-0.0177308213,-0.1984198696,-0.0163545191,-0.3220164263,1.1598843437,1.1703923524,0.0862766685,0.0461051586,0.0242417687,0.5305386511,-0.3171625863,0.6728423209,0.931494567,0.5065624756,-1.5976238808,1.1195333434,-0.4815918473,-0.163147351,-0.0931456138,-0.2776762682,-0.1577550017,-0.2809875593,1.646535662,1.1717486462,-0.2796255984,-0.6973166023,-0.2837626523,-0.6869758356,-0.7655423713,0.6097855401,-0.935486962,1.263327755,-0.745813243,0.5627748132,-1.0961235318,-0.6259283734,-1.5457297838,-0.6386928385,0.2416782795,-0.2585826899,-0.7053083218,0.4913617074,-0.9942446765,-0.6709745926,-2.0009168885,-0.2624008506,-0.2133681913,-0.4470176055,-0.8049561379,-1.0852253615,-0.8401733956,0.0511671339,-0.934284598,0.4258345524,-1.9519583515,1.4040589992,0.8345656583,1.2440996108,-0.7034527005,1.3227549466,0.3098890068,-0.2051381106,-0.814677022,-0.1296750191,-0.3273139873,0.3793100319,0.7239073581,0.8627594611,-0.9428657607,1.7804519125,1.3532954432,1.9742275299,0.040251918,0.1860832184,0.3337475571,0.4950120029,0.4382104183,0.8892923404,-0.2631054765,-0.8560642509,-1.0232070016,0.0491294365,0.6468240749,0.2526578263,4.7333957488,-0.2036020461,-0.0396493667,0.124173039,-0.2100105545,-1.5362212416,-0.7356206556,0.6782952568,2.1725851867,-1.5646622083,-1.2325943108,-3.0212530812,0.9812805057,2.2868118338,-1.1993613,-0.7267870814,-0.1712550838,0.3226667548,0.6540378103,0.0948589946,-0.4210072178,0.9798585101,-2.9991226826,0.3171474119,-2.394096012,-2.031656351,-0.6395964067,0.8649775886,-1.6977935204,-0.6567961215,-8.1750899313,0.8370341492,-0.496934811,-0.8512298443,0.9668754319,-0.1680986285,0.8844468525,0.8098914594,-0.8918422568,0.0597979457,0.0729761096,-0.486435595,0.2125885567,0.4267335261,0.9643790188,-0.1860994529,0.3243883374,-0.1551728734,0.6712306282,-1.1462191143,-0.84564813,0.3602399002,0.916371277,0.0187577495,0.913198282,0.5417852339,-0.5503037194,-0.9297629572,-0.0228634217,0.5806067039,-0.0736438812,0.205045229,0.3648593282,-0.8240934263,0.3082319194,-1.0845533701,-0.9919469808,-0.7624789642,0.2536421778,-0.2444322458,0.0535733046,-0.1087169288,0.316089694,-0.5349778427,0.1791551985,-0.0583190539,0.7072529219,0.4044136647,0.355997026,-0.9819668212,-0.6573889723,-0.119487689,-0.9709302729,0.5058246572,-0.0100982496,0.8859116366,-0.2967298531,0.9720800926,-1.1166129045,0.6117795496,-0.0069091785,0.6048166608,0.8768692435,0.081094975,-0.0451022686,0.4700176427,-0.9205819359,1.0963065404,-0.790785392,-0.5045607692,1.8164911836,-0.1901087548,0.4535525725,-0.2985122036,-0.2387745256,-0.1922456571,-0.6138681157,0.4857358265,-0.6305243592,0.2481381658,1.1648879524,-0.0967753247,-1.0028424136,0.9255113414,-2.6398185928,-0.230170745,-0.5394254905,0.4219088258,0.3786322411,-2.4173898096,-0.5641955826,-0.5512395773,0.6325866069,0.7222887698,-0.0255440519,0.7457365127,-0.5462865935,-0.4269288853,0.3910836023,1.9905062104,-1.2971415072,0.6073981419,-0.2908187074,-0.2919912978,-0.8040918042,0.7098657028,-0.51915364,1.396877476,-0.5748686331,0.7223673589,-0.2356475212,0.3308371543,-0.0623408244,-2.1618280258,0.0278117106,0.8489161821,0.4954844992,0.0873722886,0.0463057315,0.0120364342,1.4087823813,0.1639130838,-0.1604753323,-0.2321389325,-0.764467901,1.0889093428,-0.1177175288,-0.4813177104,-0.4225347296,1.2840405797,1.6572214608,-0.0098389521,-0.5461081926,0.1458465889,-0.0189125252,-0.5579912883,0.6670176507,-0.0249800097,-1.5104722957,0.0153090513,0.1719137654,-0.5871405593,0.5287307538,0.2944442404,-0.1644573183,0.5497235237,-0.1778046658,0.2798263208,1.497117182,0.4155865417,-0.4895688485,0.3159838136,-0.03596997,-0.2434247476,0.7583982453,-0.1214030567,0.3928254955,-0.3994698939,0.7421598382,0.4465280832,0.7629813569,0.7036253921,-1.4860620096,0.8859636665,0.6541205093,0.9954016902,-0.1444445337,-0.156745833,-0.9485380095,-0.0850163849,-0.593314505,0.2725087672,-0.9904194238,-0.6083183131,-0.3040519633,-0.4752285855,0.2921942603,0.8765158539,-0.2034713965,-0.4445171253,-1.5559354407,0.8160925774,-0.0262237986,0.3799023985,0.5303536917,-0.3715541727,0.1905984903,-0.2326448466,0.610046964,1.2036460605,0.5355023428,-0.7257620117,0.7148492498,0.5577928698,0.845174235,-1.2537724522,-0.5835875848,-0.1110383012,0.4566472075,1.8357111663,-0.5356060651,0.199476532,-0.669333188,0.0138714493,0.7494153373,0.2523970626,0.3365847351,-0.4077173206,-0.7115922177,0.2358359271,-0.1700552832,0.2002265021,-0.1423441595,0.2358017452,-0.1661255242,-0.9273204702,1.1102595906,-0.8410502584,0.0555750857,0.2397801569,-0.782655713,-0.4359925605,2.0324444561,0.8000110155,0.3184992595,0.551258399,-0.3640111868,-0.412710228,-0.8700042267,-0.3703624458,3.8318720844,-0.7182061456,0.1825481202,-0.1346283398,0.6326447664,-0.7793877712,0.468007653,-0.7081603192,-0.3631177223,-1.2763515734,0.6742547,-0.9727223501,-0.0345500126,7.4905873416,-0.1396980666,-0.3265292506,0.1233100823,-1.8564769407,-0.0360471024,-0.0634966922,0.2916717077,0.3367144716,0.9648974121,-0.0889889352,-7.3082436865,-0.1234677319,1.5494336565,0.4975862171,-0.3265663134,-0.3288308702,0.8728229521,-2.3364480671,-0.8303213179,0.1600277443,0.4331952806,-0.6472730154,1.0741283486,-0.9185733221,-1.2681369664,0.43732694,-1.5280213434,0.273715028,0.4161105108,2.2873870979,1.1389813875,0.0769373721,-0.3143584427,0.4236528459,0.8761246701,0.1425249708,-1.2923573716,-0.0865130481,-0.298004219,0.3517233553,-0.4977958767,-0.8053962869,0.4326447245,-0.398546378,0.0519927412,-1.5963575275,0.0960924248,-1.6542498666,-1.060827467,-2.8122631936,-0.2227697796,-1.0734813788,-0.0004486568,-1.8904614993,0.6699510014,1.227903913,-1.4198770924,-2.4756762578,0.5718904934,-0.0674453738,-0.2759338283,1.8545304496,-1.2921882066,-4.2816742465,0.8135064856,0.7801714493,0.3200383236,0.3775335213,0.3302390886,-0.1990997413,-1.972920971,1.454468918,-3.7413428064,-0.9535627121,3.8527416526,0.0770085546,0.1294247622,1.427428385,-4.5479345009,0.9425340244,0.7531737119,-0.0954989148,-0.5992168456,-0.1640061706,0.0295674989,0.7984650277,-0.6743757794,-0.8472404552,-0.7062314977,0.0914005768,0.9387880915,-0.6673316805,0.3335776169,-0.5787668573,-0.2122159474,-0.7224699022,0.6097372314,0.2487162898,1.3095459787,0.8724310295,0.4520527798,1.084796051,-0.8248269958,0.3377951184,1.0565332071,0.7546633788,-0.7796024866,0.0299148645,0.8247351781,-1.5990842364,0.3239230286,-0.6405933731,0.5786206382,-2.7987008358,0.6899506219,-0.9024199967,0.4239198793,0.9662699387,-0.7985987906,-1.2280261242,0.6671454173,1.2489058164,0.108944327,-0.2458857518,3.9416982589,0.1643263824,0.5741360927,-0.3741386855,-1.6379362705,-0.8617705384,0.57707953,0.1320089327,-0.002929741,-0.5773675265,0.8056107859,0.2139388469,0.1491664157,0.5529561984,0.493189214,0.9749565191,-1.8077288402,0.6082938947,-0.2514937732,-0.804437649,-0.5925709865,-0.5821822611,-0.0288888473,1.2193689061,0.8561814224,2.2626975883,0.6248248219,0.539887054,-0.6920376428,0.0559361725,1.2634310923,-0.1690533533,0.4131287475,0.0351996218,-0.4560964051,-0.7281424306,0.7893127727,-0.8415458377,0.7333949517,0.7214693009,4.8554868574,-1.0694984728,-0.6593245995,-0.3074288999,-1.1497904304,0.5740296491,-0.2530805656,-1.156581196,0.8189413446,-0.4388178367,0.2388370789,0.4219960933,0.2619821252,-0.381353482,0.274553933,0.2131945507,0.4506686527,0.9740525453,-1.1986681442,0.6407752936,0.5117866978,-0.8145061503,1.5154055469,-0.5256263414,0.6892058818,-0.1265807383,-1.7182635704,-0.4179954432,-2.0425134566,-0.49047888,0.615952873,-0.5419763797,-0.9844040052,0.3094672147,0.2394179333,1.5733986432,0.8433288103,1.8590565071,-0.5020585777,-0.2931378101,-0.4160183665,-0.5046749213,-1.4305802052,0.5993703885,0.7608892093,-0.2437093918,0.8911335871,0.273885027,-0.5962793889,-1.406637785,1.07765778,-0.2764962091,0.1540373304,-0.6452549061,-0.3510912262,-0.23369015,-1.5605641907,0.572588132,0.2215519345,-1.9521921635,1.3405101536,-0.9834682804,0.8977310143,0.9097539569,-0.4339554806,0.6892663175,-0.2308433374,2.8424506738,1.0679010816,1.4757044153,-0.7269176296,1.0114621351,-0.7655424524,1.2278254721,-0.344011256,-1.6873277231,1.9133828947,0.3773350684,0.8592938951,-0.5549657115,0.8107075019,-1.7785022201,-2.2760510597,-0.8718941066,0.0598427257,-0.1471340883,-0.6887523539,-0.1937767934,-0.3394087842,-0.511380023,-0.1065976911,2.5778954703,-0.1341074071,-0.2609367569,-1.4492654932,0.0668843525,-0.8244635072,0.4365905648,0.1696457708,-0.5457403719,-0.5623378321,0.0795449125,0.0735048231,0.391122808,-0.0566907968,0.6711087502,-0.5903035926,1.0164577714,0.9943080289,-0.0830808526,0.5417792344,0.7515461839,0.0065374727,-0.6678001289,0.5807519877,-1.1380108649,-0.2651359791,-0.3638760629,0.5726276946,0.2149402452,0.1564411079,0.7473735955,-0.3099125751,-0.4952103885,-0.6895137741,-1.5135275114,-0.7812064327,-0.0831180424,0.0133615159,1.4091833815,-0.1128534405,0.4818121889,0.9421919165,0.7796834822,0.4337842185,0.7933039839,1.1845135765,0.3802152368,0.1105862168,-0.649064775,-0.6907399496,-0.4018919131,0.424493774,-0.8142096904,-0.7784643715,-0.0928821536,-0.5136056981,0.3039142761,-0.137232119,-0.7484611866,-0.8562290271,-0.4157203818,-0.9830324058,-0.9512566242,0.4827021392,-0.7365497771,0.844507008,-0.7096014461,0.5207203762,-0.1321970863,-2.263056123,-0.3790618627,0.0097755099,0.7945559926,-0.783342187,0.4292596262,-0.1837407807,-0.2241211409,-0.4063450138,-1.0933451432,-0.770862453,-0.8359811453,0.5543619407,-0.1724294175,0.5460932908,-4.168569902,-0.7853527748,-0.9545572599,0.0177079105,0.4676910235,0.1181775024,0.0524153934,0.4719230102,-0.499119071,-0.9224789714,-0.8012703741,-0.891569192,0.2922659048,-2.7814326128,0.9407169203,0.4133181103,-0.9242817656,0.48549045,0.3711423567,-0.2687699763,-0.5398520645,0.7579225303,-0.0484077624,0.9387707391,0.397173089,0.5744924882,0.4035582172,0.9968052982,-0.0713256613,1.0592516613,0.5211553515,-1.4648546221,-0.8985878407,0.3984489953,0.6078159713,0.4512557566,-0.8698523694,-0.4077194283,0.7332461887,-0.0359181113,0.4325295319,0.1902978484,-0.015438265,0.1086836784,-1.0923415535,0.1429601891,-0.5158297153,-0.0133987189,-1.022190613,-0.666388852,-0.4613263794,0.8674411968,0.3406357249,1.103777082,0.6416918318,-0.5558216295,1.0142337756,0.4662775626,-0.328772464,0.708872797,0.7124435267,1.3093932541,-0.3794379801,0.4383566958,-0.8697491403,-0.711560999,-0.3412666714,0.2769871091,0.84498506,-0.7578204474,0.3718646521,-0.8061050296,2.0019640146,-1.4534066288,0.055124265,-0.6664345286,-0.310135132,0.6851891081,-1.1349056532,-0.4207795437,-0.5579925651,-0.4601555351,-0.7335950081,-0.6378869754,-1.3792224433,0.3283999015,-0.8324824237,-1.0749388603,0.3987563513,-0.7762536473,0.2908349901,-0.3276065072,0.9827107215,-0.976986199,1.9800020005,1.1512810023,1.052990765,-0.6548458026,0.4956009412,1.103659485,0.7066008961,-1.0702335085,0.5350638983,0.7451723625,0.3112707981,-0.5106853836,0.0628844449,-0.6800129519,0.1561716003,0.8412543805,1.7044209624,0.5751272262,-0.3623106978,-0.5559792004,1.0225178373,0.0176069447,-0.3625591014,0.2889297664,-0.6976543801,0.256548734,0.0558295687,0.7399975461,-0.1832247487,0.1595330639,0.0380341636,0.4080397524,-0.3014170081,-0.5319965261,0.8120354558,-0.9889376501,-1.2844874105,-0.6552386218,-0.4653085163,-0.3400054971,-0.5454232477,-0.2018623452,-0.3736549124,-0.6371934526,0.6869166485,0.6179021756,-1.1483937773,-0.1812022351,-0.5046820866,1.0769169093,0.8755164851,-2.9249472334,0.6696575637,0.0694291706,-0.9270539867,0.3987567955,-0.4540336354,0.3074292881,0.5214191595,0.4531732865,-0.0407831963,-1.092676452,-0.0275380315,0.6990957471,-0.5062029961,0.4720663249,-0.0453658335,0.9547811798,-0.3589691236,0.2965304909,0.5261300071,-0.4950457231,0.3764506565,-0.2125829375,2.0124280069,0.6752373607,-0.9664790885,-0.0989460406,0.4127298451,-0.4747729726,-0.465853298,0.1806365409,-2.1241541386,-0.3742646175,-1.4912700096,0.6355488572,-0.7940745382,-0.8212760599,-0.0703121115,0.7172358963,0.526158723,0.7038621953,-0.3023046591,0.3864554075,0.6823588683,1.0885182614,0.5548142674,-1.5924091575,-0.3793680437,-0.8621447887,-1.168190304,-1.0061360758,-0.2553407126,0.8199914049,1.7047835824,-1.2599360768,-0.6352416184,0.5921891485,0.3208162905,0.159086939,0.8452890837,-0.7136556003,-1.0450380347,-0.7772322465,-0.2674346339,0.4332831156,-0.1280431163,-0.8382498121,-0.3124141974,0.3515386572,1.0157360829
   -0.1016529507,-1.1545282618,0.6968014912,0.6728607123,-0.6244075249,-0.031967046,0.6591407748,0.4499889364,-0.3171237805,-0.3016615809,0.9242804359,-0.5750143612,-1.102819488,0.4411373891,0.5367023352,-0.4202199301,-0.7670799105,0.430638755,0.4995235919,0.4457152146,-0.8653042754,0.7990948809,0.0212529588,-1.1306924954,0.5019952561,-0.2329028424,-0.7972846506,-0.1525204155,-0.0536941619,0.8665895644,-0.4610607994,-0.5778063387,0.6837416622,0.1842412085,-0.3187422359,-0.0438709315,0.4387533271,-0.2081989136,-0.2198589583,-0.3798507796,-0.931269195,1.4484207432,0.5616095441,-1.0543764983,-0.9059032702,-2.327367945,-1.8164850581,0.4034210551,-0.4738154684,-0.5418417703,-0.6861219241,-1.8282419797,-0.3652370629,-2.3606098642,-0.4082250566,-0.8484467821,-0.1347599446,-1.018210563,-1.1761363605,8.9282783563,-0.1917115729,-0.082875046,0.1691727244,0.8278357837,0.8056162507,-0.6378292267,-0.4290704031,0.3850348621,-1.7263995188,-1.0983461865,-1.211277634,-1.4274054158,-0.1266440333,-0.170805965,-2.2785840388,-2.2509844221,0.0356510539,0.7334276555,-0.5428254227,0.8016434627,-0.3148633433,-0.2162370602,0.6305292303,-0.1090692649,0.6707434396,-0.2496906104,0.3654362814,0.0171004242,0.1080365032,1.0628897831,-0.6904681388,-0.0728436395,0.5714453464,0.9734883558,0.498417869,0.9357599813,0.1932312796,0.0640146562,0.1672088941,0.6368277613,-0.6263757658,0.2552918261,-0.3051533625,-0.2575682386,-0.1371177174,-0.8309300434,0.1576231933,0.4178257226,0.5931459658,0.9966933838,-0.911250943,1.007903926,1.0157947906,-0.6292746539,-1.1725754836,1.7218113764,-0.5862331642,0.5573702034,-1.6046889465,0.5892734863,1.5321269878,0.3266085796,0.3011843072,-0.9476265897,1.0546911105,-0.5820681971,-0.759145018,-1.0249995641,0.5047226988,-2.7004090293,-0.6318649973,0.9935888223,0.302994078,-0.2874736653,0.5161775367,0.0684733949,0.3721481672,0.8614092737,2.2243993776,-0.4663015653,-0.0104261221,0.8779504943,-0.645081037,-0.4931923738,0.3606467361,-1.1366390155,-0.1309962213,-0.7781061153,-0.369879822,-0.662322172,-0.4513521825,3.5346564191,2.7469558776,0.3573667281,-1.1765309265,0.0751409278,0.2600808734,-0.8412066374,1.0240207487,1.3402447305,1.6625039591,0.5479459188,-0.0666249627,-0.37374834,-1.8567953288,-1.0635627933,-3.2155828874,-0.7338290632,0.4882589095,0.0038552023,0.2194742246,0.4851128229,0.7361408676,0.7011453102,0.4819848748,0.771497855,0.5294042096,-0.6322806603,-0.2041727974,-0.5141840419,0.139729269,-0.8735404157,-0.934359959,2.5548138781,0.2032608783,-0.1968017034,-0.9599581243,0.8108302468,0.3222948962,-0.4626547598,-0.6546829891,-0.7433827922,0.8847083902,1.3477665389,-0.0264183422,-0.4599626998,-0.025353941,-0.652005979,0.294033861,-1.090052261,-0.059416497,0.0407825818,-0.496457583,-0.6701945774,0.7324968487,0.2075262912,0.664044232,-0.1757765648,0.2820729069,0.6458305195,0.4424775302,-0.7823279822,-0.056333386,-0.0221110646,0.267858765,-0.9740082336,-0.4581450188,-0.7980691112,0.7495754425,0.604543277,-0.5744766879,1.2851727907,-0.5278078244,-0.3847429133,0.5640878705,-0.3513469596,-0.34089004,0.0129048772,-0.1331160186,0.9627585132,-0.0524385046,-0.1784348443,-0.2803915153,-0.538366454,0.0107598308,-1.3410074141,0.2817070012,1.1273921141,-0.0451043349,-0.3515246703,-0.1336355463,0.5104418458,-0.5185657346,-0.1007935967,-0.7503132971,-0.3995491341,0.1391906931,-0.1473984958,0.5148067373,0.3572092937,-1.0973512671,-0.4350577962,2.9056849238,-0.7862962466,0.8469596744,0.1708859295,0.5256902543,0.0132359168,1.2193816761,-0.1657151364,0.0918011747,-0.354014629,-0.1478376465,0.9789681939,0.2304957615,-0.6928571217,-0.2364528513,-0.5546134541,-0.8786298327,0.6958176794,0.8384861543,0.3460278438,0.4145380245,-2.9801894149,0.043801352,-0.6561508197,-0.8371421686,0.5658829421,-0.9695682579,-0.4851877373,-0.8276601074,-0.9183578306,0.04845652,-0.499585823,4.9730970144,-0.9878090333,-0.5932889579,-0.4796285179,1.0570518223,-2.5849723459,-0.8269675502,0.7445714667,0.6221781278,0.8458081134,0.7403761438,0.1718231686,0.3442960172,-0.7360275672,1.0554631351,-1.2088942825,1.2908102052,-0.4084031988,-1.3874490089,-0.0592350486,-0.7633299305,-0.4736454598,-0.118094108,0.6860527542,-0.7705803592,0.6502403143,-1.2343047281,-0.368798898,-0.7026581121,0.2777932617,0.2677263641,0.6766813937,0.0483616573,0.433674918,-0.2797518264,0.1290235872,-0.9972913112,-0.6678673139,0.8529451592,-0.18581183,0.3405129636,-0.7493582204,-0.4461169878,-0.0698996247,-1.0799159344,-0.4450188578,-0.0718111399,4.8428357314,-0.8321617769,0.5509606727,0.4450178378,-0.0957708119,-0.3259116648,-0.2197466671,0.1600090823,0.9690584057,-0.224378906,-0.2971411166,-1.689139446,-0.7115035801,-0.8754983116,1.2665044885,-0.2433680275,-0.4284685396,-0.34890581,-0.8859771166,-0.0120981115,1.6001086536,1.6476955667,0.3338709315,0.0299848369,-0.639315479,0.9456158495,0.5982484376,0.5034365496,1.5557082022,-0.0997838113,0.4331979875,-0.5518354706,-0.7012436288,-0.0169134341,-1.0376681474,-0.8079238256,1.4139905566,0.07434781,-0.3730952337,0.5736243222,0.7773436418,0.1499159073,-0.2596159509,-1.08778574,-1.3438802721,0.2618590449,-0.9260273706,0.2022026327,-0.4628767604,0.245417253,0.0600874368,-0.8320654828,1.6801740717,-0.4892626419,0.8796109658,-0.0563710129,-0.1004362482,0.8018332962,0.4119503909,0.3429373871,0.3076355058,-0.2650574255,-0.6941260607,-0.7066118271,-0.3503508038,0.670556377,-0.6573021734,-0.9140891245,-0.1450352894,0.985544626,-0.4142555901,0.4249920845,-0.2015341954,-0.8534079489,-1.572649772,0.5896434119,-0.5580240737,0.2830507687,-0.2505854523,1.2533648376,0.2590362172,-0.6874759911,0.1921625217,-1.1617358253,-0.7997996106,0.546873548,1.1956277656,0.656306332,0.7709549971,0.5336559861,-0.0997344584,0.5057826331,3.529641585,-0.1823911935,0.937587849,-0.1759331816,-0.0858171986,-0.7140237301,-0.4805800888,1.2017630503,-1.0539789485,-0.6534408795,0.5569286917,0.4250932947,0.2839161578,0.6861807971,0.7677730845,-0.3792906509,0.3708958371,0.6262296987,-1.0855479288,-0.34116157,0.5365045828,-1.0601302645,-0.4017220326,-0.6680973076,-0.4720134566,-0.9945556429,-1.1386982287,-0.0341136153,0.7967589343,-0.2895970557,0.1223902068,0.2491897564,0.0270403375,0.4593773347,-0.0010660777,0.272427414,-0.9281377337,0.443119172,-1.0491983223,0.3089198106,0.0130572615,-0.490814538,-0.8600423921,0.2457862133,0.7532159386,0.3705334297,-0.4288028721,0.6057186388,-1.3413310026,1.2504267294,0.2848162507,0.893317127,-0.724486698,0.1224421249,-0.2932637376,-0.4814489386,-0.9247990178,-0.0725361229,-0.3408153038,-0.25212705,-0.2842203818,-0.2566661681,0.0999705554,1.6463259755,0.3229060857,0.71230763,0.1214290345,-3.2594354947,0.5484939669,0.257990356,1.1699485638,0.4502858771,-0.0079122918,0.8158731011,0.2846134031,0.5781857785,1.4084320882,0.0936628816,-0.8616082306,-0.1885643642,-1.0412756275,-0.4592322468,1.4725169512,-1.7122319427,-0.2259897414,-0.690306089,0.3618883179,-0.2354867497,-0.7794389342,-0.964906753,-0.0567878338,-0.0700293309,-0.6921880677,0.6790514508,-0.7593918233,0.8834612915,1.0274449004,0.3118346619,-0.0484560207,-0.1507572596,-0.8585126726,-0.760595745,0.6594297203,-0.7959446489,0.9561959771,0.9641663968,-0.4678280503,-0.4187665941,-1.2889295462,-0.8547721751,-0.8606577158,-1.8633737996,1.3911038862,-0.4924612234,0.7103221013,-0.1072923986,0.3326334923,-0.3292737641,-13.1594517424,4.7915618976,-0.4831551125,-0.903149623,-0.1307789022,-0.1258876715,-0.8271478005,-0.1968004086,-0.2743317938,-0.2087218641,-0.2525481291,-0.3016320882,-1.1623519738,1.0572129532,0.5575510189,-0.5418582566,0.2665955816,-0.4530736177,-0.1547080865,-0.8846304679,0.3690380922,-1.0831473199,-1.0527125398,0.6351576017,0.8062227882,-0.0187076572,-0.8045397395,0.756118148,-0.0338952411,0.0449705986,-0.2595271706,-0.2628414623,-0.1500838727,-0.691995428,-0.0807566276,-0.4894363599,0.33321687,0.3135733088,-0.4946180009,-0.5445222664,0.4795732806,-0.3782735783,-0.927273362,-0.4432571618,0.1220216008,0.078605834,0.9182227481,-0.2375983139,-1.2203755356,-0.823727014,-1.0234027525,-1.1862089419,-0.6282353295,-0.808255509,-1.4207516617,-0.7516376392,-1.4310427271,0.0687998126,0.3057165983,-1.080363277,-0.5119490278,-0.5647004119,-0.155074817,-0.8375641615,0.1936655066,-0.2228707667,-1.4299944567,-0.8748404201,0.2242199986,-8.5959412782,-20.0716546195,0.0717350244,0.0357864844,-0.1410859465,-0.7019356384,0.5772005472,0.0047786478,-0.3492062592,0.4312187658,-0.7647688365,0.3235374148,-0.31758101,0.9062251284,1.2074265631,0.2797810514,-0.092325546,0.3116801937,1.09056891,0.0932100078,1.1689928912,1.1053028331,-0.3976581804,-2.1930100462,16.9752365672,0.6605888984,-0.2430744936,-0.4662125616,0.4250229289,0.583669163,-0.7008987283,0.026468288,-1.2702973602,0.5952013091,-0.695935364,-1.0373900971,0.7365254358,-0.8412797013,-0.1196654277,0.3306919104,0.8241516031,0.4873884383,-0.436043462,0.5434340368,-3.625111977,0.6756041183,-0.9899010748,57.4857137253,0.3029671752,-0.1448836145,-0.3604941497,-0.3062824377,0.5381248285,-0.0635037547,-1.041827165,0.4296000873,0.343068774,-0.4422447239,0.6974094365,0.2599576336,0.5654416213,-0.0286706592,-0.978586543,0.8275940678,0.2924440833,-0.2916004546,-0.4095699368,-0.9750049158,-0.3125042868,0.121271456,-0.4672269766,-1.2143530181,-1.1090501328,-0.9382735567,-0.8328939514,0.3948266243,0.04530345,-1.3591242436,-1.0754781961,-0.5999735856,-0.0895082363,0.2844118352,-0.0932805454,-0.1815255428,0.0307647456,-1.2589572025,0.0251107916,0.3579887308,-1.1613555755,-0.6407041089,-0.3754305963,0.7348185292,0.6329159957,0.3742407791,0.1225609546,-0.113873906,-0.3401527185,0.3113345565,0.1354324429,0.8533286987,-0.2311588126,0.1973304744,-0.3859761381,1.2499964635,-0.3333493644,0.6674715056,1.282244205,0.9221994306,-0.3649964489,0.9686511367,0.5705118308,-0.2135499203,0.7932465502,-0.222610247,-1.3963278372,-0.3367914505,-0.7688054199,-0.7854883749,-1.4561108669,-0.4371765317,0.1033538895,0.2766925869,-1.4418623486,-0.0524702203,0.3499609041,-0.5646385854,-1.1241046526,0.2771681989,0.751680163,-1.2537868663,-0.2973413654,-0.4575023164,-0.52369338,-1.4664092957,0.2442478469,0.2650948591,-0.9104489093,-1.0995780539,-1.9168340816,10.9302052724,0.5858606091,0.5730700449,-0.9888423916,-0.9307058933,0.2472114964,-0.3101746784,-0.5782338631,0.6178027266,0.0118299662,0.7744802281,-0.0714735262,0.2424644559,0.4468340078,-0.5532023333,-0.5227056799,0.7808346109,0.0753058046,-0.3126418566,0.7020545429,-4.8690518762,0.4165592359,0.6263437823,-0.4968072336,-0.1329532341,-0.2784184025,-0.4378048586,0.2934761986,0.1327010604,-1.0427679236,-0.2481313651,-0.9816170473,-0.5771768405,-1.1157724803,0.1085367008,-0.0980121477,-0.3563641942,-0.9994387354,-1.1440270414,-0.1749319854,-0.4415827699,-1.1584890697,0.3439912533,-0.7327631253,0.7354629833,-3.4047959199,-1.2124059737,-0.5887998628,-0.4563632622,-0.1743320431,-0.1026510417,0.4718145383,0.6985318362,0.4652879283,-0.6847870494,-0.5017872675,-1.3879609302,0.0137352583,-0.7096052783,0.2858481541,0.6036182631,0.4059846184,-0.8290532235,0.1721891492,-0.0755809886,-0.4086439355,1.1518255665,-0.4283728453,-3.7743730758,0.36744768,1.311605359,-0.5795599022,-0.4363790879,-0.668624037,1.1060619631,-0.3781816492,0.1677327174,0.734705531,0.3030287764,0.0519004171,0.099206213,0.0380979892,-0.7750734057,0.1444151538,0.9691577913,-0.8036985713,0.0408164031,0.0599874675,0.7619448371,-2.6249010928,-1.0671363122,9.5160316324,18.2535118215,0.4096163034,-0.7603395574,0.5533312222,0.6785157919,1.2563713839,0.2429861984,-0.0008551249,-0.0601028187,0.0498090825,-0.5362265947,-0.2808509468,0.2598952843,0.4553501247,0.5343630817,-1.4096765996,0.1120329219,0.3767646921,-0.5792148165,0.4237051193,-0.8810184784,-0.3836480128,-0.8824034417,-0.0536977343,0.6500691664,0.3995960189,0.2264450753,0.0897034145,-1.0537164402,-0.9645049534,-0.4381252375,-0.6076285163,0.5029836701,-1.0129870547,-0.9036028176,-0.9165460609,-0.0148021034,0.5658908922,-0.9473344922,-0.4698954125,0.2256996037,0.3875903429,-0.9175499832,0.5540336341,-0.6182031971,1.1358329396,0.7979245124,0.0822528395,-0.4629175346,-1.2652285782,-1.1582472555,-1.5465028842,-1.1714500209,-0.9734796644,-0.1143175642,0.1739266266,-0.4754181409,0.6427618284,-0.2779826843,-1.4309524351,-1.0908126567,-0.5868043817,-0.7295353079,-1.7608126531,-1.4364074294,-1.2182690875,-0.0005261649,-1.1634279726,0.9542477085,-0.1127912779,0.1481365788,-0.5187548108,-0.858831477,0.099345331,-0.8124285881,-0.5622671337,0.5495151224,-1.1409445892,-0.3929703882,-0.3877350009,-0.2977627735,0.6497215705,-0.5828453722,0.0096537394,-0.104824307,-0.2478981369,0.2415634811,-0.3835778495,0.4837896882,-0.9528720473,-0.6046539126,-8.9033139238,9.989133356,0.287437553,-0.3151381533,0.8020375888,-0.0668024175,-0.4606225848,0.5290026468,-0.6733586252,0.7838777933,0.6212971851,0.1280316861,-1.0205829166,-0.4425371063,0.1847966107,0.4942266236,-0.3661320196,0.1354697495,1.0918381921,-0.376699497,-0.4664271222,-1.2940840872,-0.2235546325,0.7767903234,-0.0762672697,0.240181197,0.8959319651,0.0997344204,-0.7464976553,-0.4055752916,-0.6350096195,0.5367145391,0.0669186189,-0.9066339528,-0.0249310453,0.0186937534,-0.819539954,-0.2455164688,-0.0163965934,-0.3671973718,-0.9673106162,-0.9947524458,-0.42150206,0.0774934747,-0.8819949884,-0.8755632024,-5.5254091175,19.4936431903,-0.1903354172,0.5078730351,0.5787619279,0.5240274119,-0.8756566501,1.0094052029,0.0138625033,0.631313103,-0.7168831882,-0.2554393421,0.6937484682,-0.0151897143,-0.1479378339,-0.6405507041,1.3947050551,0.5065108652,0.9720510916,0.0753610847,-0.0415981779,1.5580814904,0.8637519718,-8.6648501214,4.5718838257,0.8158838954,-0.4518008755,0.0507119906,0.9788397381,-0.6932811053,-0.8895252162,-0.1707955874,0.0348729871,0.45675904,-0.7515614509,0.732061239,0.5379870546,-0.0489204055,-1.1445786806,0.2698335823,-0.525462379,-0.4164797481,-0.2872975985,-0.1034505219,-1.2083252916,0.7909551603,-9.0566787068,21.2457318044,-0.5403001901,0.0709622928,0.0241664896,0.1841938309,0.7545321063,-0.1009814721,0.3900966004,-0.4934289383,-0.5428244634,-1.0481155206,-0.4489292533,-0.0198983904,0.1319898636,-1.0766448377,0.4006158105,-0.0754667267,-0.6093551555,-0.5486024615,0.7362195837,9.5779483257,-0.91123013,-0.4963346974,-0.2221403448,0.4389070499,0.2505008402,-0.3333346143,0.1446253649,-1.2003325257,0.7082410044,0.8168326714,-0.1578228791,-0.6198266683,-0.6948885638,-0.757883562,-0.4075067476,-0.2856575308,0.2428166563,-0.9776729209,-0.9582812468,0.4657830092,-0.8782909614,0.3903471816,0.656191291,-0.796526349,-2.8865519927,-46.1732306155,-0.6525298255,0.4170148703,0.4308851499,-1.2355909654,0.532785114,-1.0607058248,-0.573426755,-0.7415726965,0.396305279,-0.7011841947,-0.2398131029,-0.1009671259,0.388413456,0.8193874461,0.5572528633,0.6566986424,0.6267479521,-0.7586925186,-0.1719184156,-1.1572315744,-0.3836532321,-1.4958274438,6.4136190856,0.0717214024,-0.0760889522,0.3437516981,-0.1279810113,-0.9784195106,0.4836770943,-0.4199658225,0.3837212267,0.0712333083,0.056785577,-0.0373807833,1.4352229558,-0.8902761826,-0.1337250624,0.1842412257,-0.2277886552,-0.0898560821,0.2867434354,-0.5287925831,-0.6358681584,0.054188631,-1.3150424705,-4.686615885,0.0294228432,-0.3297653407,0.3821084672,-0.7411637992,0.1360375947,0.4651895178,-1.2979739081,-0.5442503237,-0.1978372994,0.7849115853,0.2064251531,0.0911641985,0.0714076153,-0.9431286897,0.2501925431,-0.2671241187,0.1846947546,0.3101928002,0.8469937087,8.4950942067,0.2861255429,-2.0030944624,2.8300841419,0.5817969728,0.7594825789,-0.6380133915,-0.3289906242,0.1413444078,-0.6901487187,-0.443844648,0.2924473984,-0.3750283358,0.1467314097,0.7927910471,-0.7283919215,0.3891694898,0.0930788386,0.6475557553,0.8081073762,-0.696395994,0.3252485445,-0.8342089212,-1.1363898156,-0.0169939749,-2.9066241633,-44.0494019487,-0.5337183539,0.509224936,0.8209359716,-0.4763086088,0.1453139808,-1.043074848,-0.5242521641,-0.084153494,0.3498552613,0.0412344908,-0.2577768936,0.4666701942,-0.0095533825,0.3469564175,0.5510462902,-1.0907260367,-0.7509666014,0.7054136408,0.4671430898,-5.0247936155,-0.2570156918,-0.2159329837,0.991677289,0.6972815277,-1.0068124825,-0.4576204348,-0.3226430303,0.1710920887,0.5040516141,-0.6398321863,-0.3942465584,-0.6521738287,-0.0210947417,-1.0181948482,0.2362047592,-0.3231844586,0.2220856155,-0.7509982116,-0.8475799033,-0.7273381671,0.1038168261,-0.4124179715,0.580561237,1.1255323418,0.8962256567,-0.0470582112,-0.5371296766,0.1138439956,0.0085120867,-0.5673374785,0.4194919659,0.2581016058,0.8832518151,-0.5298767758,0.2086789248,0.5211609202,0.4559025685,1.1657286398,0.8406608502,0.3032108473,0.1412666757,-0.1177956307,-0.1671154493,0.5190852125,-0.3155125059,0.5759538303,-0.3281278218,-0.7742335173,0.939082775,0.5241082149,0.4179146954,0.2916657393,1.2808948378,0.432705046,0.3813563294,0.9552541031,0.022341916,-0.0253099838,0.9228448118,1.4300762606,0.8122729361,0.6363903851,1.041998637,0.0971044197,0.9935699165,0.5245277304,-0.1895395523,0.2375742778,-0.2180732907,0.2508700612,-26.6712858533,46.7755869175,-1.5607665856,-0.0788735191,0.7632005884,-0.7824846949,1.1201811986,1.1479038658,-0.615809684,0.8499432066,0.8085848904,1.4835203704,-0.8230329811,0.1157332185,0.7898855005,0.6110195213,0.6750621075,-0.8983522251,0.2433462846,0.5358811994,-0.3802074416,0.1255868215,-1.4447255572,-23.721269785,-127.8950143721,-0.4406307064,0.391661427,-1.1002916752,-1.0085854919,0.1813305379,-0.9994292017,0.5375405883,-0.5762021297,-0.4265717486,0.4700409479,0.0937439357,-0.2387190434,0.2984124152,-0.0353355763,-0.5674890368,-0.1482039421,-1.1795726361,-0.6982348396,0.7385113293,0.5223083604,1.0283982059,-0.5582535271,-1.1598023758,-0.7300782406,-0.2888869357,-0.4264686241,-0.1958790382,0.5864009025,0.4582900808,0.8883921382,-0.5345860789,0.729627356,0.1812976853,1.0978286476,0.6110000966,0.4262012531,-0.2870129166,-0.0493471233,-0.0667567099,-0.3048450892,-0.5025817138,0.0236498496,-0.8554319244,0.8711537574,1.1229609861,-30.2631148039,-0.1150872673,0.3999978926,-0.637572726,-1.1561752673,0.1643869122,-0.4215628958,-1.0257789627,-1.0006438694,-0.1321164302,0.4885174045,-1.1986241842,-0.1671069542,-0.0943554309,-0.8067025434,-1.0859786932,0.1042601676,-0.9269045501,0.6750759846,0.0744136564,-1.1999072149,-0.0841545927,19.1277768099,35.460401759,1.1749927202,0.288427159,-0.0388382132,-0.6584479046,-0.3173171868,0.4163324268,0.7836141676,1.1499237709,-0.7342207032,0.7007085145,-0.0335526007,0.1256480407,0.61568606,-0.3901238195,-0.8667167286,0.6612186327,0.244928676,-0.0042658253,-1.5580878064,-7.9152291865,-0.3247178528,1.7489624584,14.1434142651,0.7743575704,-0.5631823218,0.7483404718,0.8237671659,0.6829358959,0.4080891539,-0.4724334152,-0.3672682181,-0.5907151317,-1.0081762495,-0.1430286758,0.3277621016,0.7374277319,-0.367682556,-0.0385391487,0.5135071115,0.3962813317,-0.2576757799,-1.0447219021,-0.3611771392,0.9101736036,11.8305841203,-25.0362776161,-1.5361800514,-0.1690175273,-0.0559536445,-0.093224685,0.7622035706,-1.0900987769,0.7761362499,0.8661506325,-0.1870681997,-1.043152038,-0.0131638484,-0.462827578,-0.6265740451,0.3802793858,-2.2405811349,-0.810870036,-0.0173904071,0.1771100238,0.6837421476,-3.75395572,0.2821400962,-0.9156869375,-11.1591410844,-0.3586180477,0.3376864972,-0.1164520312,-0.912047002,0.1318908891,0.3181671585,-0.460255784,0.8668607062,-0.437599776,-0.5742790507,0.1880598324,1.4013430623,-1.8149671693,1.5731043642,0.1645452977,1.0366422529,0.8258760233,0.666136322,-0.7755596246,-1.3963300387,-0.9273997313,10.4308147259,-65.2661241434,-0.6955255816,-0.3097513804,0.5334424969,-1.1248713414,-0.5924728918,0.8095730096,0.7312892919,-0.8005505547,-0.7766360362,0.4536245025,-0.4490846618,-0.6284365605,-0.8031362196,0.8199258163,0.743611134,-0.8079133291,-0.7825623058,0.9296721463,-0.3926424954,0.6241662601,-0.0232868559,-5.031166105,-20.0295863302,-0.4399985354,-0.1530253555,0.6734226682,0.8143724278,-0.4992830842,0.7552631947,0.9402496486,-0.2634896006,-0.6580469345,0.1758283341,-0.4061545384,-0.8032874941,-0.319486397,0.0489715719,0.7222729232,-0.6683805175,-0.3845359975,0.2616679003,1.0908695225,4.2492353827,-0.0033882844,43.7313108606,35.6135701422,-0.7955700698,0.6294269073,-0.3569189638,1.1182268314,0.7636580792,0.1338625551,0.0846024883,-0.1222731069,0.3648399973,-0.3274424964,2.4401369085,1.0813892623,1.1652844106,-1.1754918215,-4.8217263752,-0.9023864088,0.453564625,-0.2790450653,-0.5166707168,-3.0276266623,-0.0856885939,1.2827515013,3.9877672884,-0.2199680751,0.7286716759,0.7733230087,0.1829324943,-0.7252019019,-0.5963620181,-0.5891175098,1.0287204334,-0.8894218342,0.0170178916,-0.0314772099,0.2404467582,-0.6259492608,0.7206492486,-0.6866986578,0.8804490808,0.0200395038,-0.1956726339,0.7533126542,0.5799392181,0.0506155412,0.6694329138,-0.3601282404,1.2080724131,0.1604617411,0.7702537577,-0.521097274,0.9621907219,0.4990411749,0.4186588954,-0.0756268527,0.7723720713,0.4590318624,-0.2432097142,1.0998414306,1.6284509926,1.5412381982,0.314994866,-0.1925524361,1.5131730978,1.4910562003,0.4639868808,0.2223247922,0.9838975116,0.4549030922,-0.5382519674,0.0274934667,0.6257457506,-0.0706382759,-0.037237783,1.4961301027,1.2882895267,1.3994622024,0.8801891069,1.2290660978,1.4623260315,0.1795341852,-0.4643068137,-0.4189318957,-0.7457369573,1.372744754,0.2443232582,0.8086641112,0.194909056,-0.304081141,0.0272652434
##end
biasActivation=0,1,1,1,1
[BASIC:ACTIVATION]
"org.encog.engine.network.activation.ActivationTANH"
"org.encog.engine.network.activation.ActivationTANH"
"org.encog.engine.network.activation.ActivationTANH"
"org.encog.engine.network.activation.ActivationTANH"
"org.encog.engine.network.activation.ActivationLinear"
