encog,BasicNetwork,java,3.4.0,1,1571657871889
[BASIC]
[BASIC:PARAMS]
[BASIC:NETWORK]
beginTraining=0
connectionLimit=0
contextTargetOffset=0,0,0,0,0
contextTargetSize=0,0,0,0,0
endTraining=4
hasContext=f
inputCount=22
layerCounts=3,26,36,46,23
layerFeedCounts=3,25,35,45,22
layerContextCount=0,0,0,0,0
layerIndex=0,3,29,65,111
output=0,0,0,0,0,0,0,0,0,0,0,0,0,0,0,0,0,0,0,0,0,0,0,0,0,0,0,0,1,0,0,0,0,0,0,0,0,0,0,0,0,0,0,0,0,0,0,0,0,0,0,0,0,0,0,0,0,0,0,0,0,0,0,0,1,0,0,0,0,0,0,0,0,0,0,0,0,0,0,0,0,0,0,0,0,0,0,0,0,0,0,0,0,0,0,0,0,0,0,0,0,0,0,0,0,0,0,0,0,0,1,0,0,0,0,0,0,0,0,0,0,0,0,0,0,0,0,0,0,0,0,0,0,1
outputCount=3
weightIndex=0,78,978,2588,3623
weights=##0
##double#3623
   -0.0009865,-0.4145012748,-0.2385790051,-1.9388328418,-1.7052145698,1.0262007736,0.7383342968,0.4260553857,0.6190251915,0.9528779157,1.1168662705,-1.5567505313,0.5059232814,0.0441895227,-0.0541417144,-0.1114533705,-0.856842683,0.8495700196,0.164004137,-1.3923450757,-0.552585995,-0.2528424415,-1.0185976382,0.8795150166,-1.0703241616,0.0632338496,-0.0148514616,-0.9713572796,-0.3332815029,0.0229049783,1.0503857266,0.5337843682,-0.3673848693,-0.6178451248,-0.3725991092,0.0265025611,-0.0029122488,-0.0041451875,-0.7209958634,-0.0058099542,0.3879479582,0.0270908664,0.5457447606,-0.1071206755,1.5305515818,0.0073848988,-0.0052449102,0.8799007335,-0.8918142739,-0.6949253692,0.5712933189,-0.2678010711,0.465887247,-0.2693911945,0.7770747086,-0.0856772406,-0.6809844187,0.9146657035,-1.0093421899,0.4503606055,-0.1331761417,-0.7255696136,-0.2261282009,-0.0118045616,-1.2130787403,-0.5457020303,-0.3806139252,-0.6622736094,-0.2764297712,-0.1243070593,-0.0016851623,0.0003586586,0.7701152061,-0.1290299235,0.411636384,0.0465888218,0.08636091,-0.3673244349,-0.378534622,0.8305502561,0.7090532259,0.2931047166,-0.4881190513,0.3293044932,0.0078428685,-0.3401555266,0.6773361143,0.1968077536,0.6434042094,-0.0562386108,0.3877834576,0.8036391221,0.0588226232,-0.8059509843,0.5421217649,0.8251439646,-0.5369299812,-0.4624817576,0.146350194,1.8045276629,-0.091331869,1.1037154662,-0.1100630343,-0.1747890224,-0.2943542933,-0.6700773127,-0.0228493073,-0.9878585074,-0.3553015049,0.2503261883,-0.8102194068,0.9957954572,0.977046972,0.4693543264,-0.4857711542,-0.228186879,-0.2138084645,0.1002456072,-0.8947333621,-1.2612787218,-0.9579759331,-0.0421362334,-0.3511346166,-0.090417724,-0.2145692501,-0.2794597349,-0.6511182033,-0.0506704181,0.8615821773,0.0886958502,0.385779238,-1.4346450461,2.2401480365,-0.7320384602,-0.8460920259,0.191073432,0.2235332171,-1.5906512812,-0.9844337364,-0.6560008052,-0.0529830145,2.0161597776,1.7886278,-0.8742198574,-0.1879759956,-1.1635151086,0.1491971246,0.1223273898,1.0427922361,-0.547565347,-0.9029538783,0.6901681641,-1.1012201114,-0.0504240018,0.3029851768,0.6204437122,-1.6025585607,-0.4326756327,-0.8719323411,-1.0819443195,-0.010401762,-1.0608374191,1.6355549767,-1.7258166645,0.0966470415,1.0641828966,0.8017638517,-0.5539166353,0.4080512757,0.3591632413,0.6550986921,-0.3526425983,-0.4550825785,-0.4712736897,-0.507990232,0.6202720881,-0.7885687379,1.4507736161,0.3750599133,0.5480506517,2.8346428022,0.1429912273,0.946579352,0.3287640732,0.0504231773,0.2149178597,-0.655047117,0.6344597424,-0.5057694028,0.3931425893,0.6666714919,0.6382057772,-0.4758774464,-1.1095909066,0.4778472346,-0.660680723,0.2843926445,0.0929196432,0.2514860129,1.0463624613,0.3932781907,0.1025014944,0.4532960618,-0.8594590221,-0.6261070575,0.0814781113,0.0232319801,-0.3333253058,-1.1805744048,0.6651072669,0.5132526999,0.2397565476,0.2662253939,0.3055378225,-1.431782699,-0.9045145043,-0.0728078143,0.4275489597,-0.9086189481,0.9107153682,-0.2973042927,-0.0618656253,-0.2955164812,-0.6055480546,0.0445225455,0.13940056,0.2756431252,0.0696219625,-0.4652574863,-1.1292191919,0.0294256792,-0.6664282011,-1.1173255288,-0.8489421389,0.0788655199,-0.3232473651,-1.5626730481,-0.3315873879,-0.610563126,0.8738948368,-0.0292713011,-0.6273657498,-0.4789251063,0.8922317306,0.0056191543,0.192809872,-0.5200714963,-0.6339266958,-0.0735286133,-0.3809193697,1.2084028546,0.3936903675,0.045603907,0.222282663,0.6284094651,0.0039292532,1.2237634736,-0.9973411318,-0.4010588746,-0.475180548,-0.3399994498,1.4531033406,-0.3340307382,0.4371544541,-0.4015848757,-0.3600397756,-0.2059930321,0.6890759964,0.3763877334,-1.0196039917,0.0395786179,-0.4665690238,-0.6261440861,0.3174412519,0.1008192695,0.8191878028,0.1802783543,-0.399169601,0.2403381533,0.0838636913,-0.7441236455,-0.6476511225,0.6998559277,-0.0766373852,-0.0606886533,0.6365573529,0.229182786,-0.7900603504,0.5314592841,0.2972758701,0.6481552336,0.242275518,-0.7601123688,0.5830680184,-0.9285534089,0.0571249334,0.693310746,1.1937888136,0.1981749374,0.2602701564,-1.4185928605,0.3458723849,-1.2747464834,0.5122788803,-0.6090331625,-0.4853737091,-0.4061890559,-0.2517364487,2.0360838296,1.8578577489,1.746837339,-1.2849037832,0.6448016586,1.2283541438,0.125525124,0.5287842568,0.1925661116,0.0512442341,-1.3023823146,-0.0951974082,0.2456680233,-0.0873708428,-2.0100317825,0.5901961693,-1.1623323992,-0.0478158959,1.2377364231,-0.9827451944,0.9490121367,-0.3124606479,0.2946329438,0.1818550511,0.1146187722,0.2082620915,0.2888416024,0.6824035509,-0.2995388374,-0.2683819606,-0.7598656258,0.6516019581,-0.8856238562,0.6463851798,0.7766993669,0.285949217,0.0395086571,-0.6689810611,0.5428875456,0.8953146873,-0.08294339,0.5678496408,-0.4983424566,-0.1545193818,-0.1678454553,-2.5347371965,-1.2204708692,0.1900729157,0.6868652226,1.6622532297,0.876842064,-0.5143278744,-0.5581736873,0.265525711,-0.2341903812,-0.6396029177,0.6912154207,0.7181709248,0.272875827,0.7724118555,0.6835263267,0.688707596,1.3359802529,-0.2725089561,0.6944435688,0.4668221829,-0.7671749711,-0.1093741716,-0.7851580764,0.2741555423,0.3966844248,-0.293603778,-1.7108030684,-0.4147441522,0.4307320035,0.3077614473,-0.8900350553,-0.5306237989,-0.1800972623,-0.4290039406,-0.614231992,0.4759640205,-0.2711547668,-0.3354156071,0.3365349185,-0.339326198,-0.6288977289,0.9633077855,0.1301865307,0.0390285282,-0.2210011636,-0.1297673828,0.286386955,-0.8881353769,-0.1410892796,-0.6426035566,-0.5073515506,-0.3696741998,0.3444954437,-0.0682722937,-0.0133631029,0.9878507446,0.5347016384,0.9340522947,-0.5968869592,-0.0308386869,0.996944525,0.5770366567,-0.4298160107,-0.2882419701,0.3316205378,-0.0495604378,-0.1945785541,-0.1363545929,-0.5039589734,1.0844232799,0.3795957906,-0.2985066827,0.0744133174,0.2804369939,-0.3384602875,-0.1302506336,-0.9147885071,-0.6767640179,1.2025140615,-0.3154344483,-0.5202506082,-0.7428841491,-0.20687612,-0.6266903917,0.8982453175,0.2521083969,-0.6420134584,1.3271826375,0.1105072384,-0.2262352108,-0.4903021571,-0.6167016675,0.1028564569,0.1094693738,-0.4175378769,0.4635122474,-0.5829289058,-0.9269432939,0.7661334806,0.4648657269,0.0561234828,1.0311136818,-0.2646321696,1.2531006543,-1.1437780698,1.2235747068,-0.1250335266,0.2303960648,0.7156726698,1.0972272406,0.3132563733,-0.4521662571,-0.8545360181,-0.8165827148,-0.1038208757,0.0278115439,0.1445996601,-0.1198130206,0.744626185,0.584779342,0.7337699437,-0.2973641223,-0.7287907837,-0.081352929,0.9696499652,0.9421535466,-0.4543791562,-0.6281151342,-0.3952193188,0.5900309947,-1.0171353714,0.6274058729,-0.3757261572,0.0065500436,3.0580370204,-0.9376999477,0.8608587414,-0.6172529552,4.8605918336,-0.8913502022,-0.6970297406,-0.0558747098,2.1946052179,-0.3847272501,-0.4473686504,-0.5509964297,0.6257822707,1.0982939597,0.0803925053,-0.333247634,-0.8894503464,-0.8248300343,1.2523965671,-0.3551267052,0.6910058791,0.0278365529,0.0099450078,-0.638604395,-0.0576555734,1.3779880182,0.5790526807,0.3460306658,0.0096054755,0.249443798,0.4935484371,-0.8809829465,-0.7733249477,0.5012271725,0.375112126,0.451683807,-0.5400265299,0.9095875407,-0.3705404477,0.1976814099,-0.0030945795,0.7911806086,-0.7831303843,-0.1664044113,-0.4785750867,-0.2562103143,-0.7324393272,0.813510286,0.4164382833,0.430072565,-0.0275066818,-0.096100912,0.2821307022,0.3617087939,-0.1451421387,-0.3332270818,-0.0870976268,-0.9575804342,-1.4559756062,0.6391635576,0.6298781508,-0.3554255304,0.0017794545,-1.5755036044,-0.6324275508,-0.5513337602,-1.0981934032,-0.6293552726,-0.7901055486,0.7883193763,0.6365229404,-0.448608287,0.41744593,0.9037773896,-0.1076829634,-1.225073976,0.145550408,0.4449699156,-0.3786583756,-0.4302863407,-0.5279087256,1.0924051255,-0.4376606928,1.9877724673,-0.525696432,-1.2909711164,-0.2019719057,-1.2230179914,1.83248918,-1.0905109827,-0.6144829795,-1.1329992513,-0.1041133584,-0.8345101336,-0.0192046133,0.054338391,0.6169635973,-1.9174541306,-0.8613438244,0.3921920578,0.7663564334,-0.5938904853,-1.1184919277,0.3581580477,0.5535389756,-0.2362315545,-0.9726873551,-0.9402965981,1.624495116,-0.8280745843,-0.0505147371,-0.0291067778,0.0057910875,-1.5891840071,0.7405517674,-0.8095019873,1.6629734941,-0.8595369107,-0.4178195112,0.7450188024,-1.2629454115,2.2377052464,0.0637437258,0.0940273817,-0.8343617193,0.5659220619,-0.4872178904,-0.5561217446,0.4069103391,0.9155706732,0.9004211232,0.2726558741,0.4318257495,-0.8080213405,0.9064897487,-0.233051616,0.1828432037,-0.7122900646,1.1800617235,0.2075585898,-0.0302247536,0.1635325686,-0.3582470504,0.273066709,0.7090027923,-0.2020362295,-1.2741997811,0.301178763,0.2131496815,0.4995653795,-0.3892462248,0.5360600111,-0.1873705474,-1.0591173497,0.7420544573,-0.5104711675,0.9909501054,0.2022607758,1.4097064961,0.6818596066,0.2694559051,0.2564136706,-0.1571943037,-0.0343221341,-0.1134988029,-0.8014983155,-0.8071588418,-0.3640690895,0.620566151,-0.9162722458,-0.8813006244,-0.2251743877,0.3413581384,-0.6850933009,-0.4074632114,0.2364097195,-0.459383303,1.5399624246,0.2223854693,0.7892077812,0.5588517192,-0.0730318925,0.1655097475,0.6198309496,1.4537636829,-0.0848227112,-0.6096808677,0.3654374975,0.8582723081,0.5273879002,0.5681794855,0.6826648251,-0.686184224,0.7056220166,-0.5282592738,-0.4960335061,-1.5497207896,-1.3995788925,-0.4069443633,0.2270773707,-3.612237538,-0.3052837299,-0.3911906079,-0.8426690786,0.5713108389,-0.1648287971,0.2153766578,0.5921166853,-0.4487642324,0.6219105034,-1.2544308741,0.1753136318,-0.5366256389,-0.6381292143,0.0538504618,1.1291399263,0.8033121174,0.0818098121,0.226438212,-1.0633141742,1.1956510651,-0.9616920875,0.6225943305,0.6452574766,0.7735234444,0.7192964447,-0.3162652187,-0.1548431182,-1.0946408871,1.1655251037,-0.1257837918,-1.3094813009,-0.6665366451,-0.5420895773,-0.0156985765,-0.0516298276,-0.0701618274,-0.0561787085,-0.8054726068,-0.3705665593,0.5610463325,-0.7585560243,-1.0474895835,0.6638415075,0.0713708387,-0.6634937381,-0.8205450254,0.2170596193,-0.5342343586,0.6883796898,0.7224202069,0.5585444084,1.438003041,1.2548074208,-0.6512331658,-3.4788715482,4.8924445392,-0.3512156341,-0.8826518229,-0.2145611535,3.2569554322,-1.1927342723,0.6127294949,0.3262037082,2.5544815772,3.701142442,4.3283522068,-1.1231132623,0.4508870541,-2.9329488459,2.9117006442,0.0786913393,-0.8454203312,-1.1399470539,0.700525771,-0.5341474014,0.5430765223,-0.1491280771,-0.1585535763,-1.2009491498,-0.4107791546,-0.9709914684,0.2537993236,0.6260653535,0.0440147018,-0.1285076984,-0.9594272998,1.2640695812,-1.5237555713,0.3041747334,0.6018999279,0.6397808862,0.7279920096,0.5486297576,-0.3897687061,0.2106774132,3.5059686222,-0.2382286778,0.5724497092,-0.2467940519,-0.0723257169,4.3810998071,3.0328330645,0.6512751298,0.7397117614,-5.0623777353,1.0985892103,-0.210144769,-0.1815594024,-0.0165461908,-0.739163511,-0.7739965194,1.3359249322,0.8013722423,0.0047489218,0.387399319,-0.2942302482,-0.7226114875,-0.8470393103,-0.7555499928,0.1890124257,-0.3815127014,0.8115147912,1.0181585267,-0.8645558888,-0.8024342279,1.4858091693,-0.3932382006,-0.1964745983,-1.0822834309,-0.0869052744,1.0593215131,-1.0234350451,0.4581750344,0.0610097719,-0.5763552792,-0.242877139,0.0099698295,-0.237039166,-0.0807282526,0.2614994573,-0.023617592,-0.155826664,-0.0355891283,-0.5165270088,-0.3731294632,0.063034851,-0.2463041126,0.0210384271,2.1045080459,0.1033424394,0.2075434009,2.7056173318,0.0722601881,-0.568208177,0.2111737307,-0.2024895384,-0.6761542773,0.6783259352,-0.6277817541,-0.6548139969,0.3580585884,-0.5112703513,-0.1535075434,-0.8255572384,0.4108423458,0.1655306928,-0.046412522,0.3499238801,0.5198922274,-0.4396057468,-0.6600187792,0.0028245199,-0.5450892934,-1.3363114812,-0.2504549075,-0.1550234582,-0.6968360636,-1.4903733597,0.0054874602,1.3103811196,0.0960297842,-2.8436554294,-0.2617627547,1.2115001892,-1.9568804557,-1.0894652688,-0.207419788,-0.0706451696,-1.1491130734,-0.4927959282,1.9356981878,0.7458979529,1.5078784975,-0.6606449519,0.1621613353,1.6863631946,7.4316503818,4.0927518637,-3.5921243518,3.1023916187,0.0581897472,-0.0851475664,1.0732880255,-4.57819228,-1.3502396116,5.611673965,-1.1745975942,-0.2506448226,0.8860824422,2.667831153,-5.7504406959,0.371499724,0.1511176973,0.9552391376,2.209211388,0.2719600104,-0.7811982902,-0.1929660409,-0.3220006364,0.9728320215,3.2034590219,0.8701013474,-0.2365609839,3.5173067184,-0.2146013805,-0.5307354841,-0.178636684,0.2826138013,-0.171769226,0.2841334564,-3.0128432746,-1.102709135,-5.3111553591,0.6391456525,5.4619180408,-0.750480299,-0.3798013684,1.054582001,1.0261396159,3.4660982491,0.2117656964,-0.5470189842,-0.0937845662,0.0357495555,-1.1251474754,2.1694255696,0.0143914405,2.055812078,-2.8481060635,0.3554343903,0.9504540239,-0.5037818305,0.3887800247,0.3599075191,0.4100127296,-0.253617898,-0.0737075963,-0.720226663,-4.8182247173,3.8298753582,0.7589253172,-4.0874166511,2.9144988083,-2.8339765788,0.2267385607,-0.274511031,7.5433448087,0.2087349704,-2.5409827574,0.7419485416,5.183321236,1.3071790262,11.1469371938,-0.0457951644,-0.5640951986,6.9961069435,-0.9615327649,5.3976046013,-0.8754131779,-3.1056052932,1.2602370162,-2.2290471307,0.2116789008,0.6315724911,0.4618631563,0.6229852866,8.1197108799,1.2079108136,-0.3665575562,0.7035659,0.0949547002,0.8622403015,-0.3793803859,-0.0046215668,0.1156642429,0.1119223419,-0.5412123606,-0.4975961509,-0.6104467665,-0.8273396827,2.3078394892,-0.5185565201,-1.6722227696,-0.1536365079,0.9537953916,-0.3907273143,0.4402280583,-1.0735414983,1.5655492673,2.47045776,-0.9122853696,0.5079931069,1.3083849241,0.2986183907,-0.0660581235,-0.36370264,4.5191391446,-0.9445228371,-0.38939099,-0.883238732,0.0390035992,-0.5100613854,0.4163152297,2.4924455024,2.3829523371,-1.3173798333,-1.9736606768,2.3031462609,-0.1973371384,-0.8977723773,-0.6692920528,-7.2696403846,-0.2812883273,0.396125977,0.9690223509,0.648062174,0.8289272459,3.6398904854,0.2198324918,0.5954263485,-0.7963617052,0.3593120361,-1.1737054101,0.3979811911,0.3472088525,1.2518874786,-0.6539584007,-0.9464634167,-0.7457109539,1.6273485105,0.5337111566,0.7048879898,-0.5132096073,0.9513535111,0.4670710484,-0.4202341988,-0.742900686,0.966001778,1.1113582144,-0.3889752232,0.2878544737,-0.3416873245,-0.6311699713,-0.2516673557,-1.5910985548,-1.2829472501,-1.4372923782,-0.2895607993,-0.9858770851,0.0709194298,0.2746952857,0.5379282926,0.435191672,-0.0572367849,0.6442434063,-0.9269382097,-0.5697884595,0.3749647349,-1.3191734552,-1.4394881091,-0.5519014365,-0.6954914029,-0.1936181864,-0.712060725,0.1870131117,0.0040234754,-0.1715220528,0.8569786756,-0.5581827732,1.1148999314,-0.7582497535,1.6911229169,-2.2808754274,-0.1083936201,-0.1256005093,0.5643254964,1.7387721159,-0.4631193129,-0.9316038604,0.6592341862,0.0599940869,-0.0365834213,0.0419259077,-0.4364737876,-0.2411528052,-0.9174158192,-0.3341004807,-0.4855680526,-0.00580291,0.0310978756,-0.6393318646,0.7094819074,-0.3292243508,0.6340514792,-0.3182785926,0.255122061,-1.0073027564,-0.5696283066,0.0760823447,-0.1395806039,0.4590557503,-0.1698534617,0.0108978571,-0.4901991402,0.338960879,0.0580252069,-0.2110644906,0.5085353913,-0.6981454128,0.7761507241,0.0958377423,-0.3783963394,-0.6145000857,-0.6162420737,0.8620033622,-0.2137955862,-0.5721770724,0.2299739661,-0.2377727338,0.5546204423,0.1601793666,-0.0356918493,-0.5535803704,-0.729320218,0.4516740195,-0.8410920192,-0.3069514128,-0.0409416631,-0.3739026989,-0.0119673252,-0.3175317344,1.1643364195,1.1238878904,0.0829686461,-0.0019938015,0.0287264607,0.5260539591,-0.3216472782,0.6684732518,0.935979259,0.5020777836,-1.6137421041,1.2973507247,-0.4777531568,-0.2259032562,-0.1942155894,-0.2732890743,-0.199784921,-0.1043723128,1.6747068226,1.1672639542,-0.2841102904,-0.7018012943,-0.2837626523,-0.6869758356,-0.7655423713,0.6097855401,-0.935486962,1.263327755,-0.745813243,0.5627748132,-1.0961235318,-0.6259283734,-1.5457297838,-0.6386928385,0.2416782795,-0.2585826899,-0.7053083218,0.4913617074,-0.9942446765,-0.6709745926,-2.0009168885,-0.2624008506,-0.2133681913,-0.4470176055,-0.8049561379,-1.0852253615,-0.8401733956,0.0511671339,-0.934284598,0.4258345524,-1.9519583515,1.4040589992,0.8345656583,1.2440996108,-0.7034527005,1.3227549466,0.3098890068,-0.2051381106,-0.814677022,-0.1296750191,-0.3273139873,0.3793100319,0.7239073581,0.8627594611,-0.9428657607,1.7804519125,1.3532954432,1.9742275299,0.030458224,0.1744365667,0.3221009054,0.5066586546,0.4266042283,0.0412360731,-0.2747521282,-0.8444175992,-1.0348536533,0.0374827847,0.6351774232,0.2162287546,4.5602226374,-0.2152486978,-0.0512960184,0.1125263873,-0.2216572062,-1.711489181,-0.7472673073,0.7315972854,2.1845337751,-1.7664865731,-1.2442409625,-3.032186786,0.9688937658,2.5777216865,-1.1889447774,-0.6131593507,-0.1829017355,0.3343134066,0.665684462,0.1064744696,-0.4326538696,0.9915051618,-2.0987761075,0.5276912748,-2.4039005838,-1.9231296707,-0.627954595,0.8533309369,-1.7469297181,0.6816812072,-9.4054245372,0.8486808009,-0.4852881592,-0.8395831926,0.9617708737,-0.1837502161,0.868795265,0.8153905985,-0.9233242566,0.3098906025,0.0573245221,-0.4707840075,0.1969369692,0.3846735529,0.9487274313,-0.7456173651,1.8753853775,-0.1688997591,0.6555790407,-1.1618707018,-0.8612997175,0.1780166637,0.9006961351,0.5568308342,1.0280643829,1.4984136153,-0.5659788614,-0.9454045864,0.4682333248,0.6988929401,0.014904681,0.477877908,0.3492077407,-0.8084418388,0.323883507,-1.2860722557,-1.0075805885,-0.7468273767,0.5040519571,-0.1394675944,0.1187650028,0.1792003908,0.6725389716,-0.5506847,0.3915271727,-0.054375407,0.9470164958,0.4200652523,0.3716486135,-0.9663152337,-0.6399426161,-0.1191377146,-0.9705802985,0.4519968609,-0.0097482751,0.8807234613,-0.2963798786,0.9717301182,-1.1162629301,1.0716642177,-0.006559204,0.9102022371,0.8667526822,0.0814449495,-0.0447522941,0.4703676172,-0.9202319614,0.4704174967,-0.7904354176,0.6944009399,1.3568833654,-0.57468775,0.453902547,-0.2981622291,-0.2914460773,-0.1925956316,-0.6142366273,3.0340443747,-0.6301743848,0.2477881913,1.164537978,-0.1142192409,-3.5307758283,0.9251613669,-0.5392280702,-0.2305436566,-0.5401164096,0.3880071887,-0.251344134,-2.429837013,9.2130320529,0.4759193205,0.6511850383,0.7219387953,-0.0258940264,0.7453865383,-0.2947589404,-0.4308173666,0.387195121,2.174174628,-1.271728115,0.6112663016,-0.2947071887,-0.2881028164,-0.8079802855,0.8789353914,-0.5230421213,0.8791735119,-0.935186717,0.7134288107,-0.2395360025,0.326948673,-0.0662293057,-2.0971494599,0.0239283093,1.5840101585,0.4500736732,0.0518716915,0.0424223301,-0.0035968802,0.9783256834,0.0995686062,-0.1589704623,-0.4829512989,-0.7683563824,1.0927978242,-0.1138290475,-0.4773048722,-0.4262935511,1.2879290611,1.9616477239,-0.1827458675,-0.3233648926,0.2199643205,-0.3182622635,-0.5618616479,0.3281412004,0.4852962906,-1.2127919509,0.0191975326,0.1758022468,-0.583252078,1.2445622523,0.2763851732,-0.1825163856,1.2014413031,0.1198886748,1.1717551899,1.4790581148,0.433645609,-0.5076279157,-0.092400122,-0.0540290372,0.1141737589,-0.438239157,-0.4737962533,0.3747664282,-0.4175289612,0.7241007709,-0.5422850764,0.7597834664,1.3626881466,-1.0396976832,0.8756742069,0.6509226189,0.789195435,0.155221701,0.2152109537,-1.63147351,-1.1943796336,-0.6113735722,0.2905678344,-0.9723603566,-0.0689258002,-0.3318873078,-0.4571695182,-1.1603613186,0.4260236973,-0.951299755,0.2520477926,-1.0391014023,0.8050428258,-1.0619146949,0.4011155841,0.9679519813,-0.3534951054,0.2086575575,-0.2145857794,0.6795885213,1.2716358138,0.6034920961,-0.793751765,0.7843908071,1.1524215099,0.9131639883,-1.3217622054,-0.5155978315,-0.0432499597,0.5246369608,0.8086543718,-0.6245449455,0.177498512,-0.6013434347,0.0818612026,0.8174050906,0.2330963206,0.4045744884,-0.3473819262,-0.5800270499,-0.8423885769,-0.1020655299,0.1055193818,-0.0937013607,0.5486730889,-0.2356670815,-1.2956939657,1.1782493439,-0.9090400117,-0.0124146675,0.1702651995,-0.7146659598,-0.5039823138,2.5438999373,0.7676022141,0.3880430167,2.1509728002,-0.4320142639,-0.3447204747,-0.8383360157,-0.3234047591,5.7958285725,-0.7861958989,0.1145583669,-0.2026180931,0.6684950715,-0.7435374661,0.5038579581,-0.7850423306,-0.3272674173,-1.3073763822,0.7101050051,-1.0085726552,0.0013002925,7.9810142791,-0.1038477615,-0.4353248487,-0.6601537705,-1.7839119198,-0.0001967973,-0.0276463872,0.3275220128,0.502649328,1.0425016239,-1.0384255505,-6.5590531653,-0.2322661038,1.6270378682,0.530906565,-0.5753401116,-0.8260194031,0.9817268627,-2.7768686774,-0.7944710128,0.1241774392,0.3973449756,-0.7248772271,1.1099786536,-0.9544236272,-1.3747814485,0.4014766349,-1.4927431349,-0.6038364701,1.0759027425,2.3649913096,1.4460187898,0.1229782155,-0.3284968971,0.3878025408,0.840274365,0.1066746658,0.3251544088,-0.0852616512,-0.2967528221,0.3435600301,1.218324192,-0.6703290477,0.4338961215,-0.399797775,0.0532441381,-1.5585681009,0.0973438217,-2.287202413,-0.4113924046,-2.7280733774,-0.2215183827,-1.0722299819,0.0008027401,-1.7877044706,0.6712023983,1.2411473571,-1.4591185262,-0.3035374932,0.5731418903,-0.0669789335,-0.0410113137,1.4066409222,-0.9603348872,-1.1118692732,0.8147578825,0.7789200524,0.3187869267,0.3762783919,0.3912803298,-0.2003511382,-2.8171077183,0.8203521912,-3.4709717714,-0.8393696037,2.4826482902,0.1380861117,1.0011071871,1.4058210877,-1.6517652207,0.9412826274,0.751922315,-0.0967503117,-0.5829632587,-0.1477525836,0.0458210858,0.7761462682,-0.6581221925,-0.8635005533,-0.6899779108,0.0751469899,0.9550416785,-0.65150708,0.3498312039,-1.2697624861,0.6268102579,-0.707931412,0.6259908183,0.2649698768,1.3257995657,0.8942582994,0.4683128778,4.8060493223,-0.8394035349,0.2144358975,1.0727933051,0.7692553149,-0.4929866115,-0.1448370967,0.8014896214,-5.1800743423,0.3401766155,-0.6568469601,0.5623670512,-1.3371733636,0.7062042089,-0.9186735836,0.4238497435,-10.457043074,-0.7823452036,-1.1154460009,0.652380922,1.2651659144,0.4937603145,-0.395186192,4.2741927549,0.1480727954,0.5578825057,-0.3903922725,-1.6361884589,-0.8585444872,0.5803055812,0.1287722335,-0.0015091476,-0.5805935777,0.8088368371,0.2107127957,0.1523924669,0.5560585684,0.4964152652,1.3372229261,-1.807742768,0.6056190757,-0.248267722,-0.8012115978,-0.5893449353,-0.5790516355,-0.0256627961,1.223425272,0.8589890556,3.3488441809,0.6280508731,0.5431131052,-0.6844869482,0.106382795,1.2680534102,-0.2784831483,0.4163547987,0.0319735706,-0.4593224563,-0.7319700546,0.7925388239,-0.8447718889,0.0692604691,0.719093858,4.8501055168,-1.0483150628,-0.6945038819,-0.3042028487,-0.6167075688,0.5700813262,-0.0623815252,-1.1598072472,0.8157152934,-0.4420438879,0.2382157839,0.4213747983,0.2613608302,-0.3752753919,0.273932638,0.2138158458,0.4500473577,0.9746738404,-1.1992894393,0.640150197,0.5111654028,-1.8615984529,1.1457795871,-0.5255122261,0.6885845868,-0.1272020333,-1.7188848655,-0.4240914746,-2.0431347516,-0.1240553474,0.614125619,-0.3422686444,-0.9850253003,0.3089735983,0.2395523587,1.1904435787,0.8544842035,1.8616965715,-0.5026798728,-0.2925165151,-0.4153970714,-0.5040577607,-1.4312015003,0.5999916836,0.8101443134,-0.2409017407,0.8897149364,0.2023455745,-0.6042869643,-1.40725908,0.552743207,-0.4083720597,0.1536775625,-0.6446336111,-0.3504699312,-0.233068855,-1.693652061,0.575757871,0.2247216735,-4.2188075525,1.2664901486,-0.9866409475,0.9009007533,0.9065842179,-0.4307857416,1.2913476707,-0.2276735984,2.8207865555,0.891173601,1.1094171913,-0.7237478905,1.0146318741,-0.7623727134,0.9940537651,-0.340841517,-2.7435339534,1.8265262005,1.1479596147,0.8624636341,-0.5517959725,1.1322957856,-2.2043300213,-4.1168695117,-2.4570711789,0.0630124647,-0.1503038274,-0.6919220929,-0.1968614116,-0.3362356772,-0.514549762,-1.3982018019,2.4391336219,0.2915024425,-0.1530576547,-1.5002306718,0.0700574595,-1.1569125796,0.4412874629,-0.1265664013,-0.5489101109,-0.5655075711,0.0763751735,0.0708477567,0.3880939418,-0.059719663,0.6570694766,-0.5931750053,1.0194844376,0.9912791628,-0.0800519864,0.5387503682,0.7485206936,0.0035086065,-0.9061353832,0.5698476066,-1.1419272939,-0.2681648453,-0.3669049291,0.5695988284,0.2120783218,0.1534122418,0.7493884313,-0.3059050122,-0.636183563,-0.6925426402,-1.5165700723,-0.8986628822,-0.0769544261,0.0165999688,1.4079775281,-0.1158823067,0.4848410551,0.9452207827,0.7783553331,0.4307553523,0.7963328501,1.2942722713,0.3672495555,0.107872301,-0.3612550013,-0.6892964422,-0.4049207793,0.5612192395,-0.8120129454,-0.4213427296,-0.0898532875,-0.510576832,0.3069431423,-0.1356552645,-0.7469053609,-0.8546732014,-0.4178818851,-0.9812300817,-0.9528500331,0.484257965,-0.7381056028,0.8460628337,-0.7068153242,0.5222762019,-0.1706327374,-2.775789434,-0.3768905356,0.0113313357,0.7961118183,-0.7817863612,0.4324659541,-0.1822049641,-0.2223233689,-0.4098896475,-1.0940297801,-0.7693266364,-0.8341459484,0.5554011087,-0.168144927,0.5446180206,-4.4363948753,-0.7837969491,-0.9561130856,0.0161520848,0.466155207,0.1198340462,0.0508595677,0.1857181456,-0.551935942,-0.921545489,-0.8035251124,-0.8961226984,0.2938928415,-2.9062108721,0.9723754525,0.4315163896,-0.9258375913,0.4839346243,0.369586531,-0.2581400607,-0.529266001,0.7685085939,-0.0380113704,0.9491994024,0.387727872,0.5850785517,0.3929721537,1.0073913617,-0.0605778938,1.0698377248,0.4852527769,-3.870960839,-0.8828608448,0.4090350588,0.6184020348,0.4618418201,-0.860694854,-0.3971333648,0.9533242562,-0.2381876443,0.0352374456,0.200883912,0.0009754589,0.1240367881,-0.835150288,0.118258614,-0.4875655955,-0.0028126554,-1.0327766766,-0.6769749155,-0.7121390809,0.8780250603,0.3300496613,0.5823646543,0.2945727096,-0.5453929662,0.8051834694,0.4575454349,-0.3181864004,0.6671257118,0.5909872819,1.3029253258,-0.3900240437,0.4277706323,-0.8803352038,-0.711560999,-0.3412666714,0.2769871091,0.84498506,-0.7578204474,0.3718646521,-0.8061050296,2.0019640146,-1.4534066288,0.055124265,-0.6664345286,-0.310135132,0.6851891081,-1.1349056532,-0.4207795437,-0.5579925651,-0.4601555351,-0.7335950081,-0.6378869754,-1.3792224433,0.3283999015,-0.8324824237,-1.0749388603,0.3987563513,-0.7762536473,0.2908349901,-0.3276065072,0.9827107215,-0.976986199,1.9800020005,1.1512810023,1.052990765,-0.6548458026,0.4956009412,1.103659485,0.7066008961,-1.0702335085,0.5350638983,0.7451723625,0.3112707981,-0.5106853836,0.0628844449,-0.6800129519,0.1561716003,0.8412543805,1.7044209624,0.5782683187,-0.3591569432,-0.5528254459,1.0214932353,0.0212879096,-0.3641367292,0.2920835209,-0.7008081346,0.2597024885,0.081278716,0.7431513006,0.1295373371,0.252062578,0.0412827983,0.4111935069,-0.2982632536,-0.5288427716,0.8097280056,-0.9857838956,-1.2763820086,-0.6577791192,-0.3129060134,-0.3368517426,-0.542269589,-0.5055247962,-0.3618230725,-0.6404381967,0.6944487727,0.6210559301,-1.1515475318,-0.1843559896,-0.4646784949,1.0819207342,0.8723627306,-2.9228078746,0.6679758407,0.0716922234,-1.0045846692,0.397595826,-0.4493685793,0.1356515289,0.5474799438,0.667441745,-0.0439369508,-1.0958302065,-0.030691786,0.6984543756,-0.5080304124,0.4702389085,-0.0438920083,0.952907691,-0.3571417073,0.2947030746,0.5279574234,-0.4968731394,0.3745754207,-0.2144103538,2.5814930686,1.1939281557,-0.9679890675,-0.1007734569,0.4109024288,-0.4766003889,-0.4680886562,0.1788091246,-2.1267099495,-0.3727568385,-1.4902939106,0.6337214409,-0.7955823171,-0.7354708744,0.0036430851,0.7169879562,0.1056748446,0.702034779,-0.3004772428,0.3882828238,0.6839282819,1.0866908451,0.5566416837,-1.6018452275,-0.4645174294,-0.8634972083,-1.1707781279,-1.0036642176,-0.2571681289,0.8531345149,1.9297700452,-1.3023913439,-0.633414202,0.5940165648,0.3226437068,-0.4740769758,0.841683994,-0.71726069,-0.9702613299,-0.7925699411,-0.2389558152,0.4296780259,-0.1244380266,-0.8418549018,-0.1538748249,0.3479335675,1.0764652288
   0.096560719,-1.0172839207,0.6931964015,0.6692556226,-0.6280126145,0.2542116805,0.6555356851,0.5262677075,-0.5989864552,-0.3298407361,0.9206753462,-0.4543245383,-2.2289313295,0.5878578497,0.3562267818,-0.0505362101,-0.7706850002,0.4342438447,0.5031286816,0.1551992311,-0.8701075518,0.8026999705,-0.1206119278,-0.1515042711,0.983387689,-1.6346359946,-0.731269462,-0.181910554,0.0548639193,0.4868461952,-0.5046340915,-0.5742012491,0.6873467519,0.1878462982,-0.3218992973,-0.0470279928,0.4355962657,-0.3810309646,-0.2227530427,-0.3766976979,-0.9344262563,1.4515778046,0.5584524828,-1.0511327231,-0.9090603316,-4.1024399429,-4.0364949462,0.4002679734,-0.4769725297,-0.5449988317,-0.6892789854,-1.5567491611,-0.3683901446,-2.3632320734,-0.4051277317,-1.0272924701,-0.1379130262,-1.0213636446,-1.3648553616,10.3438334641,0.3147846965,-0.2973764542,0.1660156631,0.830992845,0.808773312,-0.634676145,-0.4322274644,0.3881919235,-1.1655543722,-1.0865925146,-1.2144346953,-1.4245667821,0.453377643,-0.1739590466,-4.1694733966,-2.6169760527,0.034368942,0.7365847168,-0.5396683613,0.8048005241,-0.3063191261,-0.2070193923,0.6397468982,-0.428470761,0.6630971918,0.0864371184,0.3746539493,0.0078827563,0.1172541711,0.1366827008,-0.6812504709,-0.4139064049,0.7231753124,1.8215564173,0.5076355369,0.9449776492,0.2024489475,0.0793964372,0.1904228218,1.0955350737,-1.1524313304,0.0291834025,-0.2819394349,-0.2483615478,-0.7292809669,0.1815501461,0.306028234,0.7999210857,0.6023636337,0.9874757159,-0.9204686109,0.9846683816,1.010668363,-0.6384923218,-1.2286357102,1.7363889756,-0.6853887184,0.9193194479,-1.5452251997,0.7212492282,0.952213018,0.33457724,0.2064689319,-0.9568442576,1.0454734426,-0.591285865,-0.7433550465,-1.0145235557,0.5151987072,-2.7883821783,-0.6256706238,0.9832524071,0.3134700863,-0.2979496736,0.5266535451,0.0768011144,0.3826241756,0.8024671146,1.6883332041,-0.4539046568,0.0000498863,0.8884265027,-0.6346050287,-0.0453400494,0.3709831512,-1.1292047912,-0.1434264533,-0.7180622639,-0.3595434068,-0.6506981458,-0.4267256109,3.5309416295,2.5221665275,0.9005560989,-1.1660549181,0.0646649195,0.249604865,-0.8515430525,1.0344967571,1.3297687222,1.2115351025,0.1901566435,-0.0612903966,-0.3849881439,-1.8625934633,-1.0532263781,-2.7269133192,-0.3220237146,0.5093697895,-0.0066208061,0.2089982162,0.4746368145,0.7361724226,0.7012085956,0.4820481603,0.771514295,0.529467495,-0.6323505457,-0.2041095119,-0.5142473273,0.1397925545,-0.8735002044,-0.9342966736,2.7781813659,0.1171387216,-0.1966351956,-0.9598948388,0.8108935322,0.3223581817,-0.4625280996,-0.6546197036,-0.7466817903,0.8845070836,1.1574616633,-0.0263550567,-0.4599053027,-0.0254930922,-0.65207031,0.2938646392,-1.3505017442,-0.0593532116,0.0407192964,-0.4965208684,-0.6692345619,0.7325601341,0.2074630057,0.560927716,-0.2998275524,0.2822124552,0.6465157139,0.4423418872,-0.7822646968,-0.0646416161,-0.0220234424,0.4913152557,-0.9740715191,-0.4582083042,-0.7981323967,0.741070206,0.5984296368,-0.5805903281,1.3148459983,-0.5339536971,-0.3740381418,0.5579742303,-0.3452333194,-0.3470036802,0.0104585256,-0.1392296588,0.8747280629,0.0874065431,-0.1822547592,-0.2865051555,-0.5444800942,0.0046461905,-1.3461871414,0.2755968232,0.8330576741,-0.0430439423,-0.3568074451,-0.1397457243,0.5043770736,-0.5322167765,-0.0473636393,-0.7437183537,-0.2203226848,0.1330770529,-0.1412848556,0.5209203775,0.3657002044,-1.1039175611,-0.428944156,3.0566210833,-0.9002568399,0.8403126509,0.1057678461,0.54314695,0.0067052158,1.6054406289,-0.1602664169,0.1295838901,-0.3479009888,-0.1417240063,0.9850818341,0.2305258048,-0.6928270785,-0.2364228081,-0.3295162602,-0.8785997894,0.6956730296,0.8385161976,0.3459978005,0.4145680678,-2.7635354681,0.0438313953,-0.0309936152,-0.4255160541,0.5965892321,-0.9695382146,-0.485157694,-0.8276300641,-0.9119826321,0.0484865633,-0.6193437869,4.7027375057,-0.5545578527,-0.5932589146,-0.4789044341,1.0577651394,-2.6077614584,-0.8775198935,0.7547225826,0.6222081711,0.8457780701,0.7403461005,0.3455452064,0.3443105726,-0.7360576105,1.0479924004,-1.2098190438,1.3553594242,-1.5209312035,-1.4032663562,-0.0592132062,-0.3914018284,-0.4746484043,-0.1120622413,0.6860227109,-0.7706104025,0.650210271,-1.3015725012,-0.4360666711,-0.7699258852,0.2980974424,0.214933075,0.6766799155,-0.0189061158,0.5009426911,-0.3470195995,0.1187205182,-1.0645590843,-0.6516819517,0.3051546639,-0.2966604241,0.2732451905,-0.8166259935,-0.5133847609,-0.1020714271,-1.1471837075,-0.4716895215,-0.0629054304,7.3024466486,-0.89942955,0.5106148277,0.4335491706,-0.0602629135,-0.2830935691,0.3367706011,0.0927413092,1.0363261788,-0.1571111329,-0.21024951,-1.7006826238,-0.644235807,-0.9819656864,2.1144752274,-0.3106358006,-0.1600703104,-0.7200373261,-0.8972574193,-0.0368921566,1.634861241,1.4864251722,0.4011387046,0.09725261,-0.5720477059,0.9407425058,0.5933750939,0.4985632059,1.5787712317,-0.104657155,0.438026798,-0.5567088143,-0.6963702851,-0.0217867778,-1.0409268392,-0.8127971693,2.0852368396,-0.090087167,-0.3781881767,0.5687509785,0.772470298,0.1450425636,-0.2677552452,-1.0926091825,-1.3442911454,0.2658741522,-0.9149873256,0.1973791902,-0.4677596176,0.2948978258,0.0679549551,-0.8242817957,2.0389032651,-0.4941359856,0.8844843096,-0.0514976692,-0.0946966329,0.7969599525,0.4168237347,0.2662483336,0.3105621359,-0.2699562759,-0.7015218741,-0.7041116312,-0.3551742463,0.4688736967,-0.6520957733,-0.9129739399,-0.1401619457,0.9904179698,-0.4093822464,0.4232763691,-0.2032686303,-0.8551423838,-1.566374215,0.5879089771,-0.5562896389,0.2813163338,-0.2488510175,1.2516304027,0.2573017823,-0.689210426,0.1710594188,-1.1653999983,-0.8015340454,0.5451391132,1.1938933307,0.6545718972,0.7647404675,0.5319215513,-0.1014599313,0.5074865805,3.5339168402,-0.1841256283,0.9358534142,-0.177960489,-0.0820248186,-0.7074367101,-0.2696510464,1.2000286155,-1.0522445137,-0.6517064446,0.5586631265,0.4233588599,0.2856505927,0.9368950102,0.7714904725,-0.3810063663,0.3725893432,0.6317200103,-1.0872823637,-0.1173175611,0.5346547096,-1.0872456734,-0.3999875978,-0.6663628728,-0.4702790217,-1.0492115176,-1.1445979906,-0.0400133773,0.8290992117,-0.5482086894,0.1276981784,0.2432899945,0.0329400995,0.4534775728,-0.0014219042,0.266527652,-1.2291170112,0.4532416056,-1.0493171086,0.3030200487,0.0071574996,-0.4967142999,-0.6774455068,0.2398864514,0.6587279001,0.4110647588,-0.7610068334,0.5998188769,-1.3475229804,1.5040207817,1.9351830577,0.8305983234,-0.2400458973,0.116542363,-0.2873639757,-0.4755491767,-0.9197449418,-0.0784358848,-0.3349155419,-0.7551016783,-0.3779802535,-0.9092658913,0.3267158706,1.66692288,0.3170063238,0.696303719,-0.2402757552,-5.0236618643,0.5543937288,0.2638901179,1.1758483257,0.4314251959,-0.0267813287,0.7970040642,-0.3383644159,0.5593167416,1.0933423231,0.0747938447,-0.8427391937,-0.2074334011,-1.5377475586,-0.4781012837,2.6678251568,-0.7189265533,-0.2798924014,-0.7091751259,0.3430192811,-0.2543557866,-0.0139170716,-0.9838219098,-0.4845373535,-0.2617395954,-0.3532680974,0.660136294,-0.7782797844,0.4277812209,0.8634118892,1.2090898699,0.2945980352,-0.1696262965,-0.8396436357,-0.7417267081,0.6254124497,-0.1893181076,0.9750650139,1.2220765015,-0.5827304339,-0.5736283532,-1.9584004891,-1.5114320101,-0.6609110131,-2.0424926255,1.5095767156,-0.6421327214,0.7291911382,-0.0884233617,0.3515025292,-0.2994455096,-12.5298935509,-12.5072536997,-0.5063937064,-1.5055246976,-0.2956261902,-0.1539708744,-0.8246166769,-0.1678516496,-0.2528859848,-0.1593100273,-0.1354993479,0.3186336782,-1.5540578949,1.1585852972,0.5591912794,-0.145632189,0.6726813139,-0.4368638845,-0.2233578705,-1.2611315211,-0.3113817561,-9.8688526326,-1.0527125398,0.6351576017,0.8062227882,-0.0187076572,-0.8045397395,0.756118148,-0.0338952411,0.0449705986,-0.2595271706,-0.2628414623,-0.1500838727,-0.691995428,-0.0807566276,-0.4894363599,0.33321687,0.3135733088,-0.4946180009,-0.5445222664,0.4795732806,-0.3782735783,-0.927273362,-0.4432571618,0.1220216008,0.078605834,0.9182227481,-0.2375983139,-1.2203755356,-0.823727014,-1.0234027525,-1.1862089419,-0.6282353295,-0.808255509,-1.4207516617,-0.7516376392,-1.4310427271,0.0687998126,0.3057165983,-1.080363277,-0.5119490278,-0.5647004119,-0.155074817,-0.8375641615,0.1936655066,-0.2228707667,-1.4299944567,-0.8748404201,0.244254186,-8.5822618519,-20.1773343798,0.0889972984,0.0464110064,-0.1343947316,-0.6983193339,0.5787182753,0.0054441588,-0.3507881924,0.4157464431,-0.8577003355,0.3421977216,-0.3330539976,1.1907723239,1.2128352578,0.2848502393,-0.0863858072,0.3197945064,1.1030183391,0.1211166276,1.3766963175,1.5744618024,-0.467167175,-3.5182684199,11.6684602672,0.7148593089,-0.4988627788,-0.4682145031,0.4452758728,0.5990908627,-0.6869361457,0.0261835117,-1.3350212865,0.6641188989,-0.7130666709,-0.9962170646,0.7207127026,-1.1714418197,-0.1402912793,0.3270870285,0.8225760687,0.4879380898,-0.4304116561,0.7286617985,-2.4069471313,0.3889839797,-8.2389117361,99.4677110429,1.7305914654,-0.0386066585,-0.2637095058,-0.2126715236,0.5982840405,-0.0116780892,-0.9827876457,0.3150917872,0.5655457489,-0.4653274907,0.7696396577,0.3140342529,0.6323376234,0.112407125,-0.8441459541,0.9185910939,0.363240997,-0.2409579936,-0.3642141059,-0.9739944303,-0.3125042868,0.121271456,-0.4672269766,-1.2143530181,-1.1090501328,-0.9382735567,-0.8328939514,0.3948266243,0.04530345,-1.3591242436,-1.0754781961,-0.5999735856,-0.0895082363,0.2844118352,-0.0932805454,-0.1815255428,0.0307647456,-1.2589572025,0.0251107916,0.3579887308,-1.1613555755,-0.6407041089,-0.3754305963,0.7348185292,0.6329159957,0.3742407791,0.1225609546,-0.113873906,-0.3401527185,0.3113345565,0.1354324429,0.8533286987,-0.2311588126,0.1973304744,-0.3859761381,1.2499964635,-0.3333493644,0.6674715056,1.282244205,0.9221994306,-0.3649964489,0.9686511367,0.5705118308,-0.2135499203,0.7932465502,-0.222610247,-1.3963278372,-0.3367914505,-0.7688054199,-0.7854883749,-1.4561108669,-0.4371765317,0.1033538895,0.2766925869,-1.4418623486,-0.0524702203,0.3499609041,-0.5646385854,-1.1241046526,0.2771681989,0.751680163,-1.2537868663,-0.2973413654,-0.4575023164,-0.52369338,-1.4664092957,0.2442478469,0.2650948591,-0.9104489093,-1.0777988725,-1.4816758222,-0.0658033662,0.4805474147,0.5234081502,-1.0271970323,-0.9663891391,0.2157088164,-0.3350326086,-0.6021437849,0.6437189778,-0.0363222174,0.7873064665,-0.2002621838,0.1916964355,0.4542926152,-0.5803650076,-0.5367629565,0.7696136618,0.0664025566,-0.3129816986,0.7112403193,-1.2979078773,0.4165592359,0.6263437823,-0.4968072336,-0.1329532341,-0.2784184025,-0.4378048586,0.2934761986,0.1327010604,-1.0427679236,-0.2481313651,-0.9816170473,-0.5771768405,-1.1157724803,0.1085367008,-0.0980121477,-0.3563641942,-0.9994387354,-1.1440270414,-0.1749319854,-0.4415827699,-1.1584890697,0.3439912533,-0.7327631253,0.7361554577,-2.3192728565,-2.1736497733,-0.4429263287,-0.44217226,-0.169378048,-0.101243088,0.4712168207,0.693694885,0.4542899086,-0.6792360348,-0.5067971138,-1.3889554112,0.0085136143,-0.6960815947,0.2786571914,0.5842281617,0.4002483692,-0.8302490811,0.1720764305,-0.0750432717,-0.4075070873,0.7308042168,-0.4317915931,-3.7727770951,0.8567919595,1.3324715978,-0.5670222658,-0.4291384005,-0.6652332283,1.1069287185,-0.3799281482,0.1623418512,0.7282733092,0.3010860302,0.0557474647,0.1023920127,-0.0058012826,-0.5284356248,0.1436808069,0.9624223455,-0.81586547,0.0232055969,0.0277710925,0.5337151343,-2.6338069848,-1.0656472224,9.4374849163,19.5787641167,0.4101061757,-0.7600404464,0.5508465564,0.6726374843,1.2587366805,0.2036523426,-0.0161672399,-0.0639592194,0.0497008698,-0.5345565892,-0.2778547753,0.2722553762,0.5032018065,0.5239542039,-1.375214095,0.1191168562,0.374999926,-0.5807744279,0.4190738157,-0.8804892967,-0.3836480128,-0.8824034417,-0.0536977343,0.6500691664,0.3995960189,0.2264450753,0.0897034145,-1.0537164402,-0.9645049534,-0.4381252375,-0.6076285163,0.5029836701,-1.0129870547,-0.9036028176,-0.9165460609,-0.0148021034,0.5658908922,-0.9473344922,-0.4698954125,0.2256996037,0.3875903429,-0.9175499832,0.5540336341,-0.6182031971,1.1358329396,0.7979245124,0.0822528395,-0.4629175346,-1.2652285782,-1.1582472555,-1.5465028842,-1.1714500209,-0.9734796644,-0.1143175642,0.1739266266,-0.4754181409,0.6427618284,-0.2779826843,-1.4309524351,-1.0908126567,-0.5868043817,-0.7295353079,-1.7608126531,-1.4364074294,-1.2182690875,-0.0005261649,-1.1634279726,0.9542477085,-0.1127912779,0.1481365788,-0.5187548108,-0.858831477,0.099345331,-0.8124285881,-0.5622671337,0.5495151224,-1.1409445892,-0.3929703882,-0.3877350009,-0.2977627735,0.6497215705,-0.5828453722,0.0096537394,-0.104824307,-0.2478981369,0.2415634811,-0.3835778495,0.4837896882,-0.9528720473,-0.6090116152,-4.9281850648,1.2032487328,-1.5486847817,-0.2326959876,1.1835011496,0.9227045283,-0.0409250541,0.4556910285,-0.2234857153,0.8177060127,0.6361955554,0.1473363614,-1.2266182919,-0.5248143279,0.1675458717,0.5394954999,-0.3406389322,0.2706382666,1.1912544297,-0.3486205536,-0.4528676177,-5.6324580477,-0.2235546325,0.7767903234,-0.0762672697,0.240181197,0.8959319651,0.0997344204,-0.7464976553,-0.4055752916,-0.6350096195,0.5367145391,0.0669186189,-0.9066339528,-0.0249310453,0.0186937534,-0.819539954,-0.2455164688,-0.0163965934,-0.3671973718,-0.9673106162,-0.9947524458,-0.42150206,0.0774934747,-0.8819949884,-0.8577688077,-5.5427661039,21.6596767593,-0.1907754484,0.512379001,0.5822275703,0.5237490861,-0.9108261165,1.0004087899,0.0071975615,0.63334122,-0.7244369426,-0.2793185837,0.6919494639,-0.0253668985,-0.2110571645,-0.6415767634,1.4009380541,0.5178570449,0.9815075264,0.0845851973,0.099538076,1.8498751132,0.8622418306,-7.9773857074,4.1391008012,0.8393630832,-0.4224548957,0.0856049656,1.0127648788,-0.6677454886,-0.8838847323,-0.1692151795,0.0290050835,0.4429870067,-0.7593141085,0.7419705105,0.5437144259,-0.0463330004,-1.1715211103,0.2790074688,-0.5186608253,-0.4099371483,-0.2795112087,-0.0981190727,-1.2488401997,0.7813760275,-8.6715828147,22.0165122844,-0.5730856642,0.0330770335,0.0076954931,0.1752649768,0.7536222153,-0.0894184701,0.849599087,-0.5393123681,-0.5321683792,-1.0873535288,-0.4555720704,-0.0030716962,0.1577038345,-1.0454649274,0.475835603,-0.0452498007,-0.5849275739,-0.5236835538,0.7675069418,6.7551771077,-0.91123013,-0.4963346974,-0.2221403448,0.4389070499,0.2505008402,-0.3333346143,0.1446253649,-1.2003325257,0.7082410044,0.8168326714,-0.1578228791,-0.6198266683,-0.6948885638,-0.757883562,-0.4075067476,-0.2856575308,0.2428166563,-0.9776729209,-0.9582812468,0.4657830092,-0.8782909614,0.3903471816,0.656191291,-0.7934365046,-12.9547052318,-24.6916888037,-0.6152119078,0.4524796033,0.4715939438,-1.1937466131,0.559987385,-1.0297157783,-0.4332601811,-0.7207039315,0.369507303,-0.6956603287,-0.151673145,-0.1086285776,0.3716232119,1.0814489829,0.5523219781,0.65323983,0.6227107143,-0.762279627,-0.1746127856,-1.1540904011,-0.3717541904,1.940828124,6.3055362528,0.0613013128,-0.0851922145,0.3351643906,-0.1362483933,-0.9867666131,0.4762808233,-0.4254931961,0.3926618506,0.0863587298,0.0700666545,-0.0512054001,1.4391519008,-0.7551106175,0.1768056619,0.3667913801,-1.1185107025,-0.1973266379,0.2550581884,-0.5824894246,-1.4638524486,0.0864154549,-0.8796608343,-5.5338349909,0.0423743696,-0.3267896786,0.3769940848,-0.7500490942,0.1397222113,0.4738563127,-1.2944444607,-0.5438941671,-0.2076111882,0.7326695481,0.1757033652,0.0920411792,0.1034168175,-0.9397212052,0.1914109961,-0.2787890856,0.180836887,0.3129187674,0.8922970925,8.491970934,0.294564798,-1.4723024947,2.7813523571,0.5480543471,0.7439958241,-0.6499769611,-0.3707315835,0.1850460333,-0.6849317653,-0.4399456547,0.2969720536,-0.3744496704,0.1347481436,0.8063493918,-0.7213649787,0.4066462105,0.0958580242,0.6513211382,0.8121813105,-0.6924149715,0.3292343248,-0.8301185134,-1.2226535426,-0.015515456,-2.0322699286,-44.8287985088,-0.5748079532,0.4959052157,0.8141566963,-0.4796269854,0.1447709656,-1.0410569016,-0.3717731146,-0.0457579168,0.291185167,0.0461844391,-0.2469524607,0.4144750909,-0.0044203675,0.3482768688,0.551382634,-1.0906177203,-0.7510593901,0.7051257972,0.4666690387,-5.0275425142,-0.2570156918,-0.2159329837,0.991677289,0.6972815277,-1.0068124825,-0.4576204348,-0.3226430303,0.1710920887,0.5040516141,-0.6398321863,-0.3942465584,-0.6521738287,-0.0210947417,-1.0181948482,0.2362047592,-0.3231844586,0.2220856155,-0.7509982116,-0.8475799033,-0.7273381671,0.1038168261,-0.4124179715,0.580561237,1.1255323418,0.8962256567,-0.0470582112,-0.5371296766,0.1138439956,0.0085120867,-0.5673374785,0.4194919659,0.2581016058,0.8832518151,-0.5298767758,0.2086789248,0.5211609202,0.4559025685,1.1657286398,0.8406608502,0.3032108473,0.1412666757,-0.1177956307,-0.1671154493,0.5190852125,-0.3155125059,0.5759538303,-0.3281278218,-0.7742335173,0.939082775,0.5241082149,0.4179146954,0.2916657393,1.2808948378,0.432705046,0.3813563294,0.9552541031,0.022341916,-0.0253099838,0.9228448118,1.4300762606,0.8122729361,0.6363903851,1.041998637,0.0971044197,0.9935699165,0.5245277304,-0.1895395523,0.2375742778,-0.2180732907,0.2737629482,-22.7137561172,47.6266670372,-1.6911409278,-0.0930417266,0.7550424306,-0.7889959572,1.1155763457,1.1438442741,-0.6195829587,0.8471978604,0.8070407765,1.5729682815,-0.8462514417,0.0667278128,0.7912850149,0.6126498277,0.6814693588,-0.890385076,0.2523819527,0.5447223321,-0.3716345968,0.1250015997,-1.4577244343,-24.681871239,-152.961031447,-0.4236137674,0.408595549,-1.0833670501,-0.991676092,0.1982470774,-0.9827300552,0.5542348047,-0.5598083026,-0.4112634398,0.4732382333,0.0966043573,-0.2368557073,0.2997387819,-0.0342533146,-0.5664288917,-0.1471679263,-1.1785923909,-0.6973381016,0.7393153609,0.5262052913,1.0283982059,-0.5582535271,-1.1598023758,-0.7300782406,-0.2888869357,-0.4264686241,-0.1958790382,0.5864009025,0.4582900808,0.8883921382,-0.5345860789,0.729627356,0.1812976853,1.0978286476,0.6110000966,0.4262012531,-0.2870129166,-0.0493471233,-0.0667567099,-0.3048450892,-0.5025817138,0.0236498496,-0.8554319244,0.8720670614,3.999876642,-30.8362450259,0.0657656431,0.4354726681,-0.6099504795,-1.1500322193,0.1610389041,-0.4488289327,-1.1021813743,-0.9307821062,-0.1176933276,0.486480878,-1.2009295404,-0.1425129138,-0.1100491474,-0.8949238444,-1.122462942,0.0899776981,-0.9336478808,0.67202462,0.0741176435,-1.6001563349,-0.1131726683,13.3099751539,20.7618276815,1.1989958153,0.3041772515,-0.0220240304,-0.6155177622,-0.3289251317,0.225184103,0.5037403567,1.0949692762,-0.5938341413,0.6922066054,-0.0095015253,0.1624046173,0.303526007,-0.2215479729,-0.8462233317,0.7249355378,0.2744926128,0.0089168649,-1.6741145419,-8.6164633814,-0.3323075518,1.7279330841,14.3701334539,0.8043042369,-0.5458198893,0.7689432186,0.7066737814,0.694590594,0.4134386205,-0.4667853477,-0.359544528,-0.583781271,-0.965286278,-0.1446503405,0.3434748606,0.7081362881,-0.3687060613,-0.158486026,0.4963030251,0.3902278836,-0.2621845637,-1.0480647741,-0.3623781138,0.881673182,4.6421111623,-24.5400231928,-3.5216859772,-0.2016256957,-0.0708835744,-0.0959208897,0.8214315937,-1.2153534961,0.7862169175,1.3400440247,-0.3112514916,-1.0565593224,0.0604213426,-0.3638691762,-0.857046855,0.5286384461,-2.2556046077,-0.8265796072,-0.0435698803,0.1621887194,0.6670911944,4.9320967153,0.3156328222,-9.136300595,-13.2194317425,-0.4893785631,0.2838258252,-0.3268770165,-1.1469213935,0.1136620363,0.4393683667,-0.4117575069,1.2021244492,-0.5475192674,-0.6554215417,0.1866319837,2.4958977294,-2.8177187304,2.1634031052,0.1573011242,0.9600328585,0.4809626044,0.4653391011,-0.3679247285,-8.6525191416,-0.9183220295,11.5375010271,59.8721807057,-0.6895151776,-0.3037384916,0.5394798707,-1.1189124768,-0.586436248,0.813815504,0.7349361678,-0.7957335056,-0.7719911091,0.4551853782,-0.449491293,-0.6286863532,-0.8033009434,0.8197938258,0.7434979811,-0.8080150829,-0.7826557811,0.9295890498,-0.3927236356,0.6256947983,-0.0232359595,-3.3512602929,-18.9441161678,-0.4421815222,-0.150559061,0.684416188,0.9168929088,-0.5601562732,0.7525813948,0.9321991938,-0.2494327529,-0.6497699518,0.1774470264,-0.3785216117,-0.9419110743,-0.4428657837,0.0397785738,0.7204559993,-0.6659538417,-0.3772778236,0.2797007597,1.4398231986,4.2517907886,0.051065836,44.9527577955,35.3841997521,-0.8925197778,0.5520085678,-0.4182758171,1.0663415997,0.712858309,0.0986707801,0.0676288272,-0.0884534552,0.3313696051,-0.3093779998,2.5472488746,1.0059012698,1.1347724481,-1.1890621337,-4.9102245987,-0.9676440366,0.4002585418,-0.3220918118,-0.5534987205,-3.049083962,-0.0597610824,1.2729116043,2.2043175388,-0.2425757568,0.7212337263,0.7671833391,0.1764672713,-0.7338521623,-0.6476194015,-0.6340539828,1.0302919099,-0.8749549754,0.0297058612,-0.0224230012,0.2480924959,-0.6308700745,0.7147307004,-0.8312748335,0.8586934267,0.0044295967,-0.2095286446,0.7452367485,0.5802408773,0.0506155412,0.6694329138,-0.3601282404,1.2080724131,0.1604617411,0.7702537577,-0.521097274,0.9621907219,0.4990411749,0.4186588954,-0.0756268527,0.7723720713,0.4590318624,-0.2432097142,1.0998414306,1.6284509926,1.5412381982,0.314994866,-0.1925524361,1.5131730978,1.4910562003,0.4639868808,0.2223247922,0.9838975116,0.4549030922,-0.5382519674,0.0274934667,0.6257457506,-0.0706382759,-0.037237783,1.4961301027,1.2882895267,1.3994622024,0.8801891069,1.2290660978,1.4623260315,0.1795341852,-0.4643068137,-0.4189318957,-0.7457369573,1.372744754,0.2443232582,0.8086641112,0.194909056,-0.304081141,0.0272652434
##end
biasActivation=0,1,1,1,1
[BASIC:ACTIVATION]
"org.encog.engine.network.activation.ActivationTANH"
"org.encog.engine.network.activation.ActivationTANH"
"org.encog.engine.network.activation.ActivationTANH"
"org.encog.engine.network.activation.ActivationTANH"
"org.encog.engine.network.activation.ActivationLinear"
