encog,BasicNetwork,java,3.4.0,1,1571654375014
[BASIC]
[BASIC:PARAMS]
[BASIC:NETWORK]
beginTraining=0
connectionLimit=0
contextTargetOffset=0,0,0,0,0
contextTargetSize=0,0,0,0,0
endTraining=4
hasContext=f
inputCount=22
layerCounts=3,31,51,71,23
layerFeedCounts=3,30,50,70,22
layerContextCount=0,0,0,0,0
layerIndex=0,3,34,85,156
output=0,0,0,0,0,0,0,0,0,0,0,0,0,0,0,0,0,0,0,0,0,0,0,0,0,0,0,0,0,0,0,0,0,1,0,0,0,0,0,0,0,0,0,0,0,0,0,0,0,0,0,0,0,0,0,0,0,0,0,0,0,0,0,0,0,0,0,0,0,0,0,0,0,0,0,0,0,0,0,0,0,0,0,0,1,0,0,0,0,0,0,0,0,0,0,0,0,0,0,0,0,0,0,0,0,0,0,0,0,0,0,0,0,0,0,0,0,0,0,0,0,0,0,0,0,0,0,0,0,0,0,0,0,0,0,0,0,0,0,0,0,0,0,0,0,0,0,0,0,0,0,0,0,0,0,1,0,0,0,0,0,0,0,0,0,0,0,0,0,0,0,0,0,0,0,0,0,0,1
outputCount=3
weightIndex=0,93,1623,5173,6783
weights=##0
##double#6783
   1.7985495023,-0.8159505045,1.0947832697,0.2613863774,-1.0025499048,0.4293255414,1.1635300427,0.1144145842,-0.1494573807,-0.1455141509,-0.8593164266,-0.3603963872,0.504018415,0.2683196342,-0.5452954691,0.3498770666,0.4249740032,-0.0094249099,0.4130344671,-0.3798261401,-0.928885267,-0.5244070411,0.0473336131,-0.6950749942,0.5666379356,-0.2428273791,-0.2798790677,-0.1571044771,-0.3944947596,0.1049745267,-1.066866889,-0.3114531229,-0.6127875021,-0.5382456017,-0.3302345811,0.5034177334,0.8752449896,-0.412566681,-0.2196596825,-0.3667739786,-0.9278300405,0.1037163517,-1.0165354761,-0.6134223021,-0.0463172934,0.7867576533,0.2726106557,0.3401650351,-0.4632921058,0.290290323,-0.3748210959,0.2531214848,0.4334121424,0.427952267,-0.2682505897,0.5678355832,-0.2658348445,-0.7655046081,-0.8119280075,0.1993601974,0.5181099536,-0.9409326695,-0.0017425511,-0.5275007897,0.9170768966,-0.0455617527,0.1320379772,0.0002151052,0.6386499318,-0.1608920313,0.4441732401,0.5921867599,-0.61134947,-0.8781318438,-0.1790419371,-0.5725336907,-0.4481369602,-0.7560574628,-0.1114678193,-0.3982233847,-0.0495158284,0.1362278027,0.0888814632,-0.628671716,-0.68960184,0.1939243849,-0.1030463749,0.4119983434,-1.0901940323,-0.154542422,-0.2804407437,-0.1815061721,-0.5605726338,0.1036079129,-1.3416618663,-1.643398837,-0.3644511177,-0.6589794452,0.6836437901,-0.1784162763,0.6335191781,-0.3234933509,-0.4389383089,-0.5347462568,0.576354446,0.7000780541,0.3635264043,-0.6610717642,-0.1281167704,-0.582973752,-0.2506585125,0.4356459219,-1.1257270637,-0.2794487977,0.0413332807,-0.0405848498,-0.6336370193,0.2277435934,-2.2706933869,-0.8147178002,-0.7000884577,0.1290448961,-0.2601625255,-0.897120408,0.6119877856,-0.7278161953,-0.1633892303,0.0648591483,0.9302227738,0.232007213,-0.6652347922,1.0524344341,-0.1184477908,1.3427530659,0.7345639776,-0.6600770816,-0.4389924123,1.0805910315,0.9774116477,0.8545051823,-0.8685075847,0.4588299488,-0.7100473889,-0.583430669,0.900484808,-0.599344376,-0.133716682,0.0159154955,-0.9483648438,0.203346246,-0.0178057287,-0.2491249751,-0.7426591009,-0.4620527646,0.6135475163,-0.1573266173,-0.4685888426,-0.2537188713,0.6037123701,0.0462135174,-0.1546807695,-0.190760601,-0.8370805459,-0.5094026913,0.2074474255,-0.0486485771,0.4971717878,-0.8774762509,-0.3271464396,-0.1886097942,0.4382667634,0.4992314126,-0.3650923998,0.1101062481,-0.3650161834,-0.3689428981,-0.3044715305,0.6498612253,-0.476236722,0.5969118317,0.2445304479,0.8111908111,-0.8889571786,-0.662017007,0.0532188443,-0.6688475822,0.5470015398,0.0932178108,0.3405676879,0.4374341719,-0.1476308892,-0.8918780257,0.388426386,0.7253738539,0.9630813614,0.5806824715,1.6207240801,-0.3164012754,0.5782891158,-0.2301050504,-0.2146820006,-0.0190057093,-0.9375997334,0.6492487483,-0.1816679436,0.754113374,1.3287808897,0.909284762,-0.6793524869,-0.5775096731,0.9932612676,-1.1990621546,-1.0347144131,0.047291955,-1.4051520418,-0.3872108862,-1.0834883271,-0.6919973704,0.4579351784,0.902580278,0.7832703768,-0.3193808333,0.4496968305,-1.6231656377,0.0617310077,-0.5218688188,-0.4131833205,-0.8204025968,0.6828820825,0.4015072533,0.1980802173,-0.6301367788,0.2939872261,-0.4546354968,0.1369431413,0.2394198109,-0.1350047766,-0.7666024279,0.4916010056,-0.1228340974,-0.3350721421,-0.1424998877,-0.8022034685,-0.4454786671,-0.2901564391,-0.9503751386,-0.4830741015,-1.2151503364,0.5716196097,-0.3288190355,2.6929273075,0.022272508,-0.5257580926,-0.0710664002,1.0812214392,0.7516549172,-0.696594916,-0.1529209954,-0.6122421338,-0.7070588193,-0.2932754978,0.9445057037,1.2854489091,0.8805373369,0.4893165029,-0.0672785513,-0.4619437672,0.1556543493,0.0064746602,-0.4650435947,0.6317789586,1.174723052,0.6537001508,0.1408495957,1.2730128487,-0.646837853,-0.5343375403,-0.6181973473,-0.824850633,0.7605223791,-0.2598140504,0.0496100295,-0.535067614,0.3935002721,0.0387804208,-0.931712117,1.7506293159,0.217479493,-0.9208209267,0.2384914948,0.1299497432,-0.4834548034,-0.0338546559,0.4403662728,0.1462560317,0.1398568986,0.5188415235,-1.6409554636,1.3154693076,1.7786874335,-0.7668008302,-1.3980169216,-2.1140978976,0.5288598714,-0.029878602,0.3661765837,-0.4661746126,-0.3575129919,-0.2517148171,-0.0384458639,-1.2412241507,-2.506383074,-0.7856938434,-0.6218469818,-4.7132284812,0.436873069,-0.6613921681,-1.4599189343,-4.0321978446,-2.9273685709,-0.0741323614,0.456246249,-5.6832998442,0.6497551954,-0.1981828266,-0.5043178473,0.6825987952,1.4235033982,-0.7807124157,0.0814292515,-0.6629242723,0.4816159569,-0.4839863032,-1.3209877785,3.6007559616,0.4537058405,1.0554017838,-1.1862366674,0.3109509067,0.0803587446,0.0221401488,-4.034701062,-0.4651179597,-0.7908310032,-3.2239702533,1.0309665186,0.9668961993,-1.5288710948,-1.150386914,1.9120981274,2.3648769428,0.8025257214,0.7177869453,-0.9238564154,0.3696894599,-0.733576887,0.7909164963,-0.8647913944,0.4098156326,0.7637872211,-0.4336634713,0.2252792072,-0.2563732942,-0.5044550842,1.2481343003,-0.9646514422,-0.3444822159,-0.001894783,-0.2185852634,-0.7400665708,-0.3878152329,0.5801905668,-0.7855295627,3.3952053131,0.5551143928,-0.4207039158,0.0707369282,-0.1280122302,0.8606766227,0.0933768799,-0.3411424799,-0.2042355062,-0.8207258822,-1.181663975,-0.7719515598,0.7661851573,-0.3522462284,0.8811282715,-2.0160330276,0.4529214729,1.0728980157,-0.3955553229,-1.7981082098,-0.4407021312,-0.5278376618,0.9834006697,-0.6798526737,-0.1017022387,0.3683391251,0.437084099,-1.0539726959,0.7901294832,-0.9714438029,-0.8110518821,-0.2913700759,1.2038638386,-0.930937612,-0.6276943897,0.9554910197,0.6823270416,-0.232788177,-1.257534515,0.2818483805,0.8505616884,-0.0033910922,0.4444214026,-0.0471826409,0.7562924726,0.9656622274,-0.5186619342,0.9236064306,0.0745759829,0.4730136772,0.6198004592,-0.3759643498,0.0364066818,-1.0417604267,0.6222349996,-0.4862471345,0.3094715482,0.3494974995,0.2733606003,-0.1566643642,0.1985322954,-0.1059435536,-0.6822719709,0.227574426,-0.9049521457,0.0657875663,0.5003063748,0.5146288441,-0.895719253,-0.6474997096,0.4359000512,0.2555326451,-0.3579438035,0.5943207915,-0.2550188621,0.4766108212,-0.7796834041,0.8657415715,0.8412869539,-0.8424945764,-0.400027861,0.3303949541,0.509077503,-1.0160716043,-0.5418775761,0.3472290534,-0.5284794154,-0.9411859218,0.34950233,1.1834964329,-1.1211609924,0.372041282,0.3306440997,-0.1923024216,3.012576309,-1.4626342182,0.3109708129,-0.3016605733,-0.8269918454,2.1240381647,-0.6753900697,0.3680075872,0.138697702,-0.0399169837,0.0478350598,1.4604896137,-0.6552674862,-0.7141418794,-0.5092187177,1.3670505161,-0.9745912221,2.1648702957,-0.0276062964,0.1354590016,0.5887550783,0.3851168665,-3.1669664337,-0.6661771539,-0.583978273,-0.996193858,-0.1111235464,-0.5490114503,0.4878856099,0.2437566225,-0.6296214459,0.6253013916,0.8392118851,1.4933070944,-0.9837591307,-0.1670471305,1.0742533485,0.246370786,-0.5967506108,-0.5240885333,0.3760727477,-0.2550220741,-0.4293817575,-0.392313868,0.1642222146,0.1392123776,0.1048565779,-0.3239787482,0.9789674227,0.0922278631,1.0039431019,-1.1003701124,0.6296059684,0.810823181,0.0363947585,-0.1564815067,-0.0061186728,0.1677359858,1.0973355682,-0.3169245203,0.8715913412,-0.8003877367,-0.5048093704,-0.8150204844,-0.1395893883,0.000532207,0.271557155,0.3038702402,-0.244989532,-0.568165886,-0.4700224424,1.0860916264,-0.6145654231,1.1019730433,0.9530175839,-0.6048538784,0.8340778212,0.9057739946,0.9083836357,-0.4445118374,-0.744920091,-0.2336239228,0.105614575,0.2787814788,-0.2644147366,0.0811641619,0.0837758274,0.0207420127,0.4245598854,-1.5072412421,0.5743408658,-1.3113451706,0.5032729539,0.924112913,-0.1829016177,0.6738909793,-0.9991757903,-0.0169812617,1.0892110784,0.8045892572,-0.4455486267,0.5261539025,-0.4103371968,-0.1549626463,-0.926661807,0.5784501423,-0.1084990477,0.9822976554,-0.3691527865,0.7916873036,0.2519943332,-0.7585808399,-0.0027930313,1.2827623614,-0.4934124151,-0.1740189696,-0.0473495397,0.7316243123,-0.0068778889,-0.6863387278,-0.546968366,-0.6449495228,-0.1372484167,1.1619022765,0.7191930214,0.0870709461,-0.3827992874,0.4176529719,-0.2518342281,-0.0455341221,-0.8899459947,0.834310249,0.0921300515,-0.9307975432,0.5804497767,0.2379691846,-0.2629178039,0.7925169955,-0.2739736222,0.0783354206,0.0389665727,-0.1631781404,0.5008112253,0.2725761562,0.6180835377,0.2718701312,0.5464463592,0.0696889843,0.3043025225,-0.8024304787,0.5149815914,0.042382793,-1.3022508011,0.2471389579,-0.1402144568,0.601941579,0.785105159,0.5103249405,-0.0421728796,-0.7662742943,-1.2106693239,-0.0301491489,-0.862858601,-0.2071201148,0.1051746933,-0.9775817613,-0.1436658264,-0.563502729,-0.2960777032,-0.6712170951,-0.6277403096,-0.3083697228,0.4835265095,0.1732931751,-1.2685634828,-0.0600638585,0.5113580939,-0.2483991384,-0.2208159777,-0.3500519993,-0.2012108178,-0.5200249577,0.9437369769,0.4627458408,0.2444328897,-0.2182332101,0.5686813624,-0.6225481973,-0.1169042672,0.4668972682,-0.0854357728,0.7617947741,-0.7552405334,-0.27867551,-0.8340078561,-0.5609592273,0.5998174342,-0.3867016943,-0.3319905935,-0.0855253648,-0.7504242867,0.963794094,0.4810629084,0.7179279807,-0.4956013392,0.4615382695,-0.7891954177,-0.4679355691,0.7940162846,-0.0196839333,-0.0849236667,0.71698121,-0.1124549837,0.0638124013,-0.3264477363,0.5084365526,0.010598832,-0.2317377573,0.673204451,-0.8077095478,-0.3150520075,0.9674865206,0.8899075735,-0.8175188449,-0.5203238918,-0.8531652664,0.4239833466,-0.5513158327,-0.8847511844,0.8322059628,-0.7496716243,-0.8792661209,-0.3319045265,-0.4445708861,0.5965997255,0.7969979428,0.6317830563,-0.0604595751,-0.5636000897,0.9316010472,0.033119076,-0.5232903318,0.6725347807,0.2035843814,0.531738954,1.3153343024,1.5048634642,-0.4875590897,-0.3243995115,0.8592375685,-1.2321610592,-0.6266130529,-0.9427873775,-0.2504591516,1.0281346992,-1.1582738426,0.7326387941,0.3087836015,0.6965900695,1.6998429287,0.8327541255,-0.4760558975,-0.1319500622,0.0755573543,-0.8732756457,0.6741388333,-0.9011379182,-0.3214949968,0.3799659814,0.1478864221,-0.8967961789,0.6582642773,0.0033451882,0.4587605913,-0.1400391904,-0.5885434781,0.051895054,-0.5823689444,-0.0669848931,-1.9536097845,0.5680600084,-0.7206689344,-0.5265250838,-0.2784555642,-0.849240323,1.654876428,0.7701313268,-0.5138173403,-0.8455665898,1.0581537926,1.4922585515,-0.1919653022,-1.1902723703,-0.9888676489,0.8767109283,0.6703316244,-0.0135189588,0.4877838234,1.3002407068,-0.8028554224,-0.7765298735,-0.8269647374,0.1519324526,-0.3831236671,0.0873455792,-1.027345924,-0.0103249007,0.7662548531,0.7293856417,-0.3327344352,0.5003420269,0.7825641975,-0.8607786548,0.5527249487,-0.9758595628,-0.1928330318,0.4760405774,0.1442337386,0.0296912854,1.2437736552,-0.6693642112,-0.841575325,-1.9182446549,0.6350919019,-0.4652804683,0.6866630431,-1.336844738,-1.1064351445,-0.1327868774,0.4439232827,-0.6770567502,-0.8103473838,0.239007581,-1.0043964791,1.0582677072,0.4472104519,-0.3454569889,-0.4550339718,-0.2933671046,1.3000809838,-0.9980034986,0.8993707803,1.0817031422,0.8516166801,-0.1656744196,-0.7158895136,-0.0424256504,0.1102168498,0.3616376701,-0.2601837722,-0.3605243428,-0.9989519803,0.5957660842,0.4926215645,0.5739242253,-0.726597668,-0.9555191492,-0.3685512009,-0.0733851949,0.4670455243,-1.2041664603,0.2243738424,-0.6953577621,0.1144623745,-0.9828818617,-0.9972242402,0.9439690036,-0.1029497409,0.136632673,0.2917045814,1.8136631473,0.0896873982,-0.8136224782,-0.044405528,0.5188055926,0.7648981426,0.9038484082,1.0575991398,-0.2250817472,0.6100421488,0.0276660553,-0.3020215135,-0.4215977947,-0.4844118446,-1.1658079863,0.2203774826,0.20152866,-1.589235734,-0.6311395422,-0.2938428441,-0.0170783981,0.940251231,-0.364266255,-0.0142764323,-1.0238039295,-1.4276227172,0.6078048838,-0.2401947143,0.274706766,0.6455406165,-0.8034378407,0.1013668906,-0.0416192624,-0.311660948,0.2448181034,1.1167909519,0.7148463536,0.4525523687,0.0524477574,0.3867621113,-0.6623185482,-0.4037605222,-0.7637935553,0.4168904015,-0.4301902538,0.2718287297,0.6187068116,-0.039475504,-0.060706216,0.8026805901,-0.6997527214,-0.1514700722,0.1264819885,-0.5756915563,-0.1678068039,-0.5180460446,-0.9778219308,0.1063261791,-0.7864714117,0.9375084701,-0.6339292996,0.1321310224,-0.0460854768,-0.4184916366,0.828693782,-0.5160115706,1.0156052728,-0.9277200124,-0.601643434,0.309145801,0.3915685002,-0.3126752924,-0.6119430906,0.9624996595,-0.1915146653,0.0497834331,-0.3925521906,-0.1258501346,0.7759181185,-0.2596705733,0.5881349979,-0.8406746279,0.0651775944,0.0968335273,1.0894559158,0.7184931676,-0.1494574343,0.4068188762,-0.4237700763,-0.7576243489,0.2772988277,-0.4822731284,-0.222053,-0.4285348974,0.6880655946,0.5172737821,-0.2570907034,-0.2686889209,-0.5800093969,-1.4302565696,0.6573471947,0.83691235,0.6787614529,-0.1758449371,-0.4814681438,1.2522472016,-0.1296433311,-0.6192069188,0.7605135766,-0.6394559987,0.6028178363,1.1444043222,-0.3090665162,-0.9489547449,0.1543554492,-0.8302421982,0.9059471133,-0.5249712079,-1.1112166697,0.2114427551,0.5283832781,-0.6233380361,-0.7817735522,0.1262553395,0.3413135281,0.4750250391,0.2622876374,-0.689463661,-0.4214059464,1.1479848296,-0.2019636043,-0.4646939461,0.6125555328,-0.7477336674,-0.2957893369,-0.268008033,-0.559197426,0.7346057894,0.6942694962,1.0499734696,0.5976219914,0.4667800048,-0.4072762954,-0.2667720603,-0.9539146376,-0.0858095734,-0.5134908143,-0.4578701779,-0.8467157109,1.0350893429,-0.537528962,-0.4043250327,0.4272773196,1.5626316394,0.7799986483,-0.8041927426,0.1504229575,0.7631029008,-0.2629481835,0.3075701101,1.6549810745,0.2275438418,-0.416610851,-0.5095272799,0.5619370179,-0.6695935253,-0.1149130775,-0.5695372589,-0.470576071,-0.8494752341,-0.1082631931,0.2849616502,0.2845698766,-0.2729854658,0.202306807,-0.4310822632,-1.8270626346,-0.1679902392,-0.1950273875,1.0381691669,-1.0243533962,0.0328790846,1.0914296291,0.1683550117,-0.9461877648,-1.0757683938,-0.6725755812,-0.2765971776,0.233193121,0.6978808544,-0.8928533766,0.657460394,-0.9027373772,-0.3803040979,-0.2147846214,0.1516912788,0.4325296884,-0.4307185032,0.737612978,-0.8490332126,0.277117181,-0.3896197784,-1.1821404366,0.2085934699,-0.5834589407,-0.1538908908,0.4577330432,0.4543221809,0.5099708533,-1.1016951808,-0.6974848683,-0.1083710811,0.8015999449,0.2171223738,-0.0499400043,0.2265776322,-0.8023969039,0.998252731,-0.092193249,0.450232589,1.2966259001,-0.06194923,-1.1175580744,-0.6801077958,-0.5000991158,-0.1345258168,0.8203503017,-0.1388706899,0.8994098535,-0.1015452783,-0.6868792789,-0.1302679094,0.651960592,-0.7265046669,0.4748662642,-0.190984657,0.1751264797,0.5081693351,1.2994108594,0.0034420328,-0.9325309973,-0.7080074114,-0.1565687764,-0.1345182011,-0.1305505906,-0.8248275886,-0.5883085516,-0.6055250103,-0.5931702882,0.9087029282,0.3906407485,0.2208708994,0.6444548221,-0.8216083216,-0.7209202459,0.8494021806,-0.0995658743,0.5546988459,-0.0602989029,0.6630223496,0.0048704246,-0.3452030015,-0.5712766394,0.0779039484,-0.6821904507,-0.0575578364,0.2017077403,0.2460836658,-0.6331854319,-0.0531788192,-0.2078410029,-0.7764654746,-0.0307797271,0.4584723262,-0.6403626675,0.4083363862,0.438843224,0.1809307733,-0.8523388903,0.2400038238,-0.8080333526,-0.7345118933,-0.5553272198,2.5274099456,-1.732633388,-0.1185285064,0.6844225237,-7.5221179001,0.5873512568,-7.8559318565,0.0975709314,-0.9166757747,0.9332446503,0.212710198,-0.34076722,-0.8800697888,-0.4598157679,0.4684040897,-0.0698355751,-0.7678716105,-0.4502881607,0.7767562877,0.1440221708,3.7869670128,0.6995557686,-0.0706743827,0.3227475072,0.3526882793,0.6988805896,-0.9159420347,-0.1831182896,-0.0804517892,0.5643848432,0.8300677526,-0.4553572394,-0.0357763059,0.0702402718,-0.8403828661,-0.4372353916,-4.9466311037,3.7701478252,-0.2270337396,-1.1259869769,0.4871560607,-0.2302364487,0.4924194599,0.8936336703,0.7126794662,-1.1117141155,-0.4880956345,-0.4687616283,-0.8998113805,-0.3664341171,-0.9469593523,0.3472072917,0.0979036185,-0.9344497293,-0.2824640639,-0.2530201437,0.8312064986,-0.7288005333,-1.1715932468,0.7381755501,0.042382983,0.1980132149,0.9789707854,-0.9240430845,-0.043053482,0.0267935699,-0.5191329054,-0.4788886825,0.4761744414,0.830083912,-0.5753326798,-0.7975381311,1.6338859348,-0.4190147587,-0.7972752472,0.7554310035,-0.9858039103,1.997455908,-1.1075943981,-0.5511318642,-0.3324905137,0.7140075135,0.2678260259,-0.4607153899,-0.8780963132,-0.2569024522,0.8455245808,-0.4245036313,-0.6057346138,0.1610647288,-0.9193722992,-0.0858116087,-0.9717698892,0.3391032385,-0.6265416915,-0.8390893368,-0.1070073536,-0.9745888791,0.0661598076,-0.20093008,0.5973743697,0.1317319357,-0.0496230241,-0.3712198825,-0.691072289,0.2063616683,0.1029810169,-0.4831501203,0.4901696901,0.6573441699,0.3248615966,0.1848128599,-0.6381770518,-0.6424111492,0.1697055011,0.4405280331,-0.4911936078,-0.3478460511,-0.5386456266,0.5177994713,-0.0509159951,-0.0389128527,-0.0450889671,0.0938492063,-0.8954350117,-0.3832066629,-0.0283806076,0.5602481533,-0.1269021168,-0.3071627504,-0.9038576677,-0.0776630298,-0.729128376,-0.362243399,-0.4409094696,0.8541759796,-1.5699372442,-0.7038861919,0.5329241869,0.5473617727,-0.2746596833,0.7334175462,0.0408507773,-0.0630747979,-0.0973450389,0.4131786739,-0.7033125309,-0.6700005868,-0.7247123899,-0.2484209545,0.2063896405,0.9318517213,0.377211952,0.2117815814,0.305336437,0.1037633504,-0.6915085109,-0.5319398795,0.5525726302,0.05029325,-0.6444194478,1.0484045403,0.3918951259,-0.6568217165,0.3086640947,-0.5249077503,-0.0489091869,0.58955416,-0.1654879682,1.9371863809,-0.2207184542,-0.3144674915,0.6979262277,-0.0058606247,1.0306551032,1.0304576932,-0.2393339424,0.399277075,-0.221150961,-0.2873080322,0.9891438483,-0.4371425498,0.7700269954,-0.7076114858,-0.0114152204,0.9818727388,0.374406398,0.0226182357,0.9588960531,0.3378444705,0.1213334207,0.6269406493,-1.0303430901,-0.130048934,-0.1814772851,-0.6056323219,-0.0958499679,0.8652540999,0.1177946395,0.4927577856,-0.0951684636,0.3761990312,-0.5416975023,0.7657099883,-0.8572966453,-0.2387905349,0.3795856839,0.3893042381,-0.4899198101,-0.4213749281,-0.7090374845,-0.1346250606,0.6252142346,-0.2545059667,0.4512411611,0.3983338452,0.1302889347,-0.7293925052,1.1074771544,0.2973287623,-0.7736298711,-0.6707264926,-0.4788804663,-0.926629066,1.0843978998,-0.4465267167,-0.3253398941,-0.7825777847,0.6641014655,0.6660806378,-0.101349841,0.2659067895,-0.7618356626,0.9811651373,-1.6523071307,-0.4091135138,0.3374075013,0.3338880118,-0.2014817161,-1.0909279309,-0.2488095729,0.203192245,0.7448361295,-0.5290361728,0.171408027,-0.5557667272,-0.4907535911,-0.5209147052,0.6387836921,0.0145705306,0.1915513762,-0.1883509282,-0.4459260793,0.5382923818,-0.4165374971,-0.1223219392,1.7392567779,0.0364451872,0.3170472455,-0.5921006807,0.0808858474,0.1277969301,-0.1263460708,0.4252162082,-1.3415661239,-0.189739694,0.7164162856,0.7093883224,-0.0800495791,-0.1496202387,-0.1841998748,-1.2253475121,-0.2183110841,0.2183070225,-0.0893649007,0.0999413538,-0.067919172,-0.5965270139,-0.8501571124,-0.5701679221,-0.5376907618,-0.6772535324,-0.2090665298,-0.8580630408,1.0504019824,0.0762841277,-0.9506454686,0.2590404214,-0.0451653331,-1.0755924656,-0.6901140235,-0.5160364672,-0.1397090769,0.589375649,1.1837988164,-0.3024716195,-0.3671019534,-0.341118342,1.3223676214,-1.2567877666,-0.5333953337,0.6516981877,-0.016551218,-0.3806891954,0.9005614331,-0.2117001361,0.4383038561,-0.2255262467,-1.4284859835,-0.0432901314,0.9679484683,0.7862318927,-0.7136699625,0.2649197238,-1.1454794427,0.402909303,1.4457469061,-0.4639253236,-0.9069882464,0.2415007865,-0.1903316029,-1.1649093952,0.6175617679,-0.8748005134,0.3195960642,0.2282829457,0.3100355512,0.0718254677,-0.3984930472,0.2222589588,1.0661113064,-0.1125240294,1.4017189223,0.1518838778,-0.7171113049,-0.7366503718,-0.0228931362,0.0229127895,0.3198432958,-0.7861161785,0.7202835404,0.2456948372,-0.2365599548,0.6015400107,-0.7884227642,-0.2540685116,0.2529539897,0.8578676469,0.4315080657,-0.7780273232,0.2326557755,0.7359307254,0.108409527,0.3159126456,1.3703117665,0.9650408978,1.9449232436,-0.039328997,-0.0253742776,0.1551501705,-1.2139507234,-0.3052107688,-0.807483949,-0.5141181007,-0.3810002225,-0.6049614811,-1.6086806762,1.1073582052,0.5258829852,-0.8477380218,0.9028820375,-0.7466218092,-0.8274372029,-0.4491990241,-0.5015747536,1.4754657638,0.9974307451,-0.3638016183,0.1210780361,0.4403050951,0.2478541603,0.2858765737,-0.0680290966,0.0633040739,0.1986944851,1.6087831187,-0.6302762545,-0.8861721163,0.4856712588,-0.3125869974,0.0085179278,0.104638269,0.5837963752,-0.4569636282,-0.7955077684,0.7611115771,-0.2541729811,0.0454955135,0.9852664201,0.2337688616,0.1368763928,-0.8767087543,0.9522561579,-0.5352846248,-0.0912976983,-1.5644074463,0.5508549779,0.7093884003,0.2924049134,1.0435135027,-0.1547197763,-0.668942736,-0.0383247119,0.8068467624,0.5190648139,0.2800162952,0.081425839,-0.4926239024,-0.2641800895,-0.6655242591,0.8120508286,0.3607439121,-0.4185652513,0.4330517686,0.5860609428,-0.5544534877,0.005035089,0.0650216221,0.2869382754,0.33926513,0.7560251387,0.5536821116,-0.4008888921,0.3878313808,0.2627871534,0.06642784,-0.1217507539,0.2908094592,0.9016172252,-0.5993473311,0.0638264964,-0.062515605,0.856304071,0.7608976049,-0.3315542076,-0.0375639149,-0.5319700093,0.5005028876,0.7022123979,-0.4436437714,-0.1903512347,-0.858569126,1.0978342293,-0.7352632616,0.673229845,0.2333352895,-0.8704398285,-0.1904170255,0.8986498357,-0.2981223174,0.9872373903,0.498313594,-0.2485956014,2.0001339918,-0.3832805533,-0.7836389397,0.0293803918,-0.6081067885,0.2374918373,0.2695207461,0.8492534415,0.1434953633,0.2328386711,0.2291771805,-0.7195786549,0.4354013654,-0.6816760353,-0.6456623705,0.7525790767,1.303252622,0.3264353468,0.5437887536,1.3728629067,-0.3799884661,0.2506172458,-0.8609967712,0.3949244441,-0.7024859687,0.9118030346,0.0234881099,0.813353098,-0.1800322386,0.9518093168,-0.1673836555,-1.0050938986,0.2089512628,0.2670041501,-0.3786882565,0.8371157116,0.6366397172,-0.8407417983,0.4060032341,-0.5991079846,0.4307459129,-0.1547338561,-0.8011207268,0.7768678093,0.2424757163,-0.67001358,-0.4218317046,0.6977210224,-0.5359313986,0.3194050538,-0.2217118217,-0.420422884,0.9384964052,0.590143882,-0.1076512996,-0.5246058843,0.6681949359,-0.2789290122,-0.8920278043,1.2165938593,0.4948382584,0.8243892497,-0.9342272014,-0.1274731337,0.276979992,-0.9893837692,0.2384768156,0.833531354,1.5577126422,0.6200223349,0.1428294796,-0.3604727823,-0.7120133211,0.4511702657,-1.1340287715,0.1319640818,-0.026078058,-0.7072978728,-0.4328324704,-0.5815799373,0.8605284839,-0.0864360756,-0.2439305642,0.8248796575,-0.6927217436,-0.1018257069,0.2898908064,-0.013850539,-0.8114116033,0.9343360536,-1.2533977046,0.4404342151,-0.2581415986,-0.6100356693,0.919827515,0.9421483158,-0.0281174433,-0.3298233629,-0.1732226213,-0.56205527,-0.3720117724,1.3804379271,0.2247311515,0.4984758188,-0.7756734635,0.4950469201,0.4630414078,0.6563268867,0.8894911738,0.5778459813,-0.3450859212,0.6011396779,-0.9839435884,-0.3442912169,-0.4753774167,0.1030266638,-0.7699198435,1.1369130368,-1.723820526,-0.0093119058,0.1817722887,-0.8427921478,-0.2872518468,0.2836872462,1.3237329786,-0.7606698515,0.1335172239,-0.5353954085,0.947099379,-0.7364120968,0.7201490052,0.368196532,1.009616408,-0.825370122,-0.6875520767,-0.3927060974,-0.8115339689,0.7142838385,-0.2589532613,0.0960577271,0.3652219719,-0.6594411174,-2.1246939224,-0.5012904043,0.9720737319,0.4293034658,-0.6353819699,-0.8658515211,0.7885257405,0.7495514828,1.405785822,0.2108911063,1.3844151885,0.00584357,0.5353516543,-0.3325833347,1.3500626078,1.9248127508,-0.8226360561,-0.6143159765,0.8755685323,-0.6904634734,-0.9103524974,-0.2364843641,-0.12056452,-0.7699297301,2.7049765691,0.5803349933,0.8218154566,-0.285593164,0.3546123835,-0.3218328961,0.1457062144,0.6350740509,0.9654646387,-0.8298528285,-0.5133417719,-0.0272115505,2.0659738861,-0.1681880036,-0.6565836269,-0.7234190468,0.7427433506,-0.5865195874,0.7882598137,-0.9323839156,0.136491011,0.0756143896,-1.7702789783,0.1152701716,0.128536862,0.1595767044,0.2048422085,1.0081137461,0.7473369126,0.0170552173,0.6156024942,-0.1219978397,-0.6176154787,-0.321294355,0.8557580491,-0.2371481641,0.2000158642,0.6847178074,-0.827854626,0.8058602195,0.3990885498,-0.7090049122,-0.9237957606,-0.4420871665,0.404973028,-0.6143459375,-0.5403009748,1.0462672691,-0.5349270985,-0.9799197677,-0.931071673,0.751312104,0.7844283448,-2.2331562308,-0.6121758422,-0.9234975138,-0.8247591486,0.5183879291,0.6165501011,-0.5169425407,0.3921882988,0.6215452795,3.1298471776,0.262410281,-1.0715486379,0.9028098103,-0.585631906,-0.1072967716,-0.3787139785,0.7324748776,-0.8881930152,-0.8616808117,0.5863142915,0.6572062513,0.8969388188,-0.021213177,-0.8155257256,0.1161090323,-0.7067590335,1.0574218591,0.6301385312,-0.8391035924,0.8177996252,-0.2510318986,0.4539981345,-0.7003797371,-0.1237607089,-0.6675945752,-0.8745808415,-0.7768442163,-0.8712672263,-0.8537061083,0.987190928,-0.0412841932,-0.1339957297,0.8984492703,-0.6555083472,0.9829143214,-0.2959319487,0.2201536401,0.6924338542,-0.3618911869,-1.7537020731,0.7796964057,0.3366371445,0.3731331156,0.8029020661,0.0497995356,0.3335692993,0.52665166,0.900778081,0.0479237739,-0.9769513728,0.5905294082,0.6295874745,-0.5098935589,1.786294349,-0.7824210548,-0.4557964712,0.0036332726,-0.244030764,0.6572365205,0.3755628747,-0.2664992897,-0.1186524203,0.6079087647,0.0064119112,-0.8956990124,0.080332406,0.1196832021,0.4007854565,-0.8160679596,0.2698304045,-0.9811851889,-0.0080984713,-0.2926649379,-0.1561859183,-0.1367425985,-0.7528575466,0.4130592472,-0.7258118368,-0.6802135915,0.9324715047,0.0937234806,-0.5852368603,0.0330944932,0.1786998628,0.747591514,0.3242968584,0.1896944104,-0.4806699856,1.063468859,1.0312144999,0.004349634,-0.5647604076,-1.4183266563,0.0561342466,-0.3222726588,-0.205618161,1.1290476224,-0.2240037883,0.0269031081,0.1535259545,-0.9227101304,-1.7584143054,0.0296243694,-0.5269378069,0.6364634216,-0.2992382463,0.2614611869,0.7513131995,-0.1696626016,-0.5442159621,-1.0301139869,0.1562902038,0.4727188001,0.3173424331,0.3956411283,-0.9877493954,-0.5886033492,-0.6430157831,0.423882271,0.1769418397,-0.0386445751,2.0167492201,-0.4688162928,-0.7990365208,-0.4273370192,-0.5438530785,-0.6695125029,-0.6733357466,0.4860109799,-0.1523778231,-0.0280714292,-0.5806464556,-1.8383741199,-0.9481663497,0.2895883432,-0.0848488744,0.000009587,1.9969054326,-0.4395281815,1.1100998807,-0.9842861039,-0.0454046342,-0.3376917358,1.0498940814,-1.2490129479,0.2108875284,0.440125975,1.093038495,-0.2712781078,-0.7859736304,-0.5869336077,-0.3414762456,0.1773293892,0.6519971434,1.0676936067,-0.3661751387,0.7690114021,-0.5525785437,0.4265392027,-0.1058258493,-0.1688711773,0.4338550028,-0.0209370906,-1.483777236,-1.0500705868,0.1521783338,-0.7795040374,-0.9002982786,-1.0353180919,0.2627389251,0.0796550549,0.424725582,-0.171199954,2.3910936981,1.4893216645,-0.2135145852,0.251539212,0.6834041944,1.2472303587,-1.570464488,-0.0954925858,0.2158009458,0.5161245359,-0.7112368012,-0.8629636818,0.6408403929,-0.8792459975,0.4812102976,-1.1307287651,-0.3256654103,0.5164950349,-0.4093280166,-0.0427980374,0.1613966746,0.2162492276,0.2595895094,-0.2905595365,3.6502264911,-0.9157735676,-0.719171606,0.2897499691,0.5578127567,0.8695077181,1.2248623138,0.7727241677,-1.661292342,-0.6644102597,-1.5232234415,-0.6250359633,0.4365267914,-0.5119712801,2.3661853166,-0.7051482769,0.1884184827,0.2194766812,-0.6048312563,-0.7574364094,-0.5601389685,0.4163973468,0.879204399,-0.1328059967,2.9226850143,0.2619692895,0.4567842749,0.2250424822,-0.0447800539,-1.3626654374,0.27744315,0.6346617755,-0.7500296023,-0.7226384914,0.1699094904,0.3008802076,3.4889810794,0.0786613814,-0.3996346138
   0.2053376909,1.0539287812,0.1733429552,0.8972059525,0.4512225006,-0.5463157638,0.4479420176,-0.552172777,0.7014705138,-1.063410011,-0.5573046053,-1.1412639428,-0.3189521609,-0.6643140006,-1.2378547119,0.0626517642,0.2120343173,-0.2541503455,-0.3165240365,-0.7147659981,-0.7522318045,0.2108951546,-0.0823937001,0.9283092059,0.1246688071,0.6487367661,0.7227018546,0.0231140792,0.2695266399,-0.5256886024,-7.8676012875,0.3694987482,-0.362683424,0.6309566375,-0.9667966893,-0.5782384355,-0.2557305556,-1.1127979242,-0.8275284817,0.9516911335,2.1182045027,0.318698736,-0.4533066908,1.4945174596,0.8089915387,-0.741890112,-0.8472075061,-1.2046657563,-0.5889927707,0.9638238258,1.0094943323,0.5542593901,0.8581005655,-1.854751722,0.5016724677,-1.1357858364,0.8797111212,-0.1467217506,0.5231409773,-0.6969700809,-0.8864189136,-1.0554883655,-0.8712277395,-0.4913043157,-0.122537904,-0.2353935277,1.2352014236,-0.8605828149,-0.5305407366,-6.7863837905,0.3552352128,0.6151697741,0.342063683,-0.0300027935,-0.0848533864,-0.4281099999,0.2499923728,0.3739317262,-1.1157832008,0.11319567,-0.0287139928,-0.6034635878,0.937214508,0.8705046393,-1.034643455,-0.8754973346,0.6127692049,0.3758453736,-0.0875569693,0.4379880726,-0.3609856317,-0.2958740004,-0.1072837328,-0.2882944564,0.5323085276,0.4711504699,-0.1315426738,0.5175062613,-0.2257837999,-0.0311669599,-0.4494591119,-0.958188621,-0.6844008287,-0.8267601296,0.8740699777,0.9597986891,0.4070830541,0.4062536795,0.3267771175,-0.255736576,-0.8778114631,-0.032894917,0.4957131524,0.4259846181,0.6557334596,-0.2436542349,-0.4221745546,-1.1151100001,0.1889231798,-0.6717529664,1.9175481532,-0.4046239449,0.784724544,0.9877841163,-1.5601599781,0.9919755718,0.8014199091,0.0351948594,-0.8653317054,-0.6193627317,-0.1618364668,-0.732922069,-0.2260358427,0.6924406735,0.1572607222,-0.8979412012,-0.762605701,-0.8528565393,-0.6072752416,0.7469820942,-0.7201499776,0.2120681446,0.0103953746,0.1810231845,-0.7636484289,-0.5911701057,-0.4243084248,-1.0314179677,-0.0033795088,0.7686358824,-0.0805635704,-0.0887290422,-0.2989223725,0.6974707041,-0.0914306837,0.9799698518,0.5247230145,0.3125883658,0.3089920565,0.8617581347,-0.4207374512,0.4937332267,0.6577146372,0.5302071386,0.2626591254,0.0000641268,0.7347638631,0.7521329159,0.2782902702,-0.3631152825,-0.6812795807,0.6869079009,0.7551795313,0.1233942425,0.2732447155,-0.8204547685,1.0880917092,0.2055469846,-0.5020127739,0.8510952306,-0.6061745514,0.3246551062,1.302037728,-0.1489879846,-0.6097887625,0.8948610532,-0.3559300005,0.2553477678,0.846632527,0.5736444322,0.0826546606,-1.0328451354,-0.331087156,0.253272664,0.465312054,1.1904364406,0.8360691499,-0.779400295,0.8579968293,-1.0404276255,0.5149844013,0.1116680294,0.6675986812,0.0991958056,-0.2045846548,-0.1332453496,-0.4547944447,-0.2671467273,-0.2807387324,0.1517318658,0.0020922048,-0.0524567955,0.0793290993,0.3979697117,-0.2166185943,0.33882379,-0.8720553297,-0.2452702101,-0.1973626169,0.8771896533,0.4488264216,0.6598489086,-0.6431120873,-0.8386679579,0.6747109906,0.9668248621,0.9213241355,-0.3616864958,-1.1567911197,0.0945604333,0.5835800707,0.5402568494,0.7031247494,0.201407824,-0.2368577448,0.4284110278,0.5239108664,-0.9104159819,-0.2230015561,0.575086265,-0.4536259636,0.0277825957,-0.1879406521,-0.1249454126,-0.5317789033,-0.545725335,-1.2248207204,-1.0557666708,-0.4206354729,-0.4263740348,0.2989465888,0.0192818015,0.5969198132,-0.8444008005,0.8697155444,-1.2852634962,-0.2434069439,-0.7497026002,-0.3346184731,-0.9206653849,0.18184708,0.8778599159,0.6404311031,-0.7458844651,-0.0850931915,-0.263065312,0.6669434166,-0.8666054075,0.3530981193,0.5561422961,0.6186977282,0.6323047707,-0.2136353251,-0.4527471681,0.3511083823,0.7379995836,-1.2758773254,-0.1050355979,-0.8262402781,-0.2683338763,0.9163935286,0.0961007282,-0.0849334331,1.389644164,0.7597521688,-0.9411520271,0.3650252514,0.0234618534,0.875178684,0.2624799361,-0.7002198615,1.7724817289,0.6270167771,0.7527761651,0.4956786201,0.7392300012,1.2940639399,-0.3646098933,-0.6694023334,0.8505484081,-0.3212863169,-0.3717196208,0.8648386407,0.8917767102,0.5874351049,0.592860692,-0.8076335119,-0.170380472,0.1529978301,0.20900209,-0.3145142015,-1.1907724689,-0.5545014222,0.433692987,0.1982561676,-0.806182691,0.8776557768,0.1640151995,-0.7139226628,-0.4243523831,0.301796611,-0.4470883917,1.0093442393,-0.4352716829,-0.3517557025,0.2920626919,1.3879166189,-1.0111038367,-0.5140212863,0.4516047657,0.590612093,-0.4415826758,0.5893980966,-0.1929839534,-0.0486914017,0.6542898814,-0.8808724683,-1.3029585605,-0.5215520578,0.5510988793,-1.0029346479,0.0751262121,-0.5771768385,-0.2358628256,-0.8105386568,-0.1145992228,-0.0405260054,0.1033178177,0.7821962354,0.0467142773,-0.8754431604,-0.9093708756,-1.1915324273,0.0123538137,0.097054728,-0.1357784241,-0.6268143058,-0.6547347823,-0.4150843861,1.8835296804,0.6073270151,-0.6877274156,-0.2648674723,-0.0257283526,-0.5827909226,1.0791010245,1.250236733,0.4964963859,-0.5420588686,0.8273296488,-2.3362869129,-0.588147747,-0.2597844289,-1.0832882834,-0.1229990727,-0.2211318168,-0.1208149221,-0.9960184148,-0.9550947419,-0.7520340847,0.1505439226,0.5244667171,0.7684213377,-0.4856719612,0.546267672,-1.0974852069,-0.8480171361,0.2004123405,0.8033911366,0.4830435323,-0.6544196671,-0.2444285142,1.0733641948,0.7970145713,0.0851473329,-0.2075645749,0.5108260455,-0.1100465991,-0.1487819063,-0.4419958634,-0.4667731467,1.0846253243,-1.044304828,0.6068571111,3.5550683362,-0.4830635467,-1.0608846799,0.6736608486,-1.4155352682,-0.2469282943,0.6040152364,0.2910406733,0.1602687969,-0.8250621245,-0.7078945532,0.3923261683,-0.1645255704,0.6423958286,0.6592197479,-0.7168046214,-0.188246164,0.6491336229,0.5594912203,0.8861084539,-0.7964642692,0.1029017217,0.2843661091,0.3033021925,-0.2140919228,0.6969558732,0.756843571,0.5020508906,0.0433212988,-0.3952966666,-0.923612397,0.0491064452,-0.8638049464,0.7464551838,-0.2045775369,-0.0604212655,-0.0036419558,-0.1311600988,0.4007952698,-1.3997160654,-0.679264455,0.7979732977,0.8120766721,-0.7702178362,-0.4529237064,0.7470174727,-0.856012975,0.5181740423,2.0830234645,0.7328970404,0.0760979764,-0.6316820009,1.1796360208,0.4309119026,-0.0672449949,0.885167878,-0.8422370823,0.8443564809,0.7024490237,-0.4971760619,-0.1462887933,-0.0214531856,-0.4716713883,-2.509789768,0.1300648448,-0.3463145586,-0.5105180062,0.2333962304,-0.4821452893,0.8014101756,0.1857331833,0.6165267324,-0.1004415511,0.7082976654,-0.2021291774,0.6562564302,-1.2371447315,0.2373822695,-0.7290479274,0.1232285779,-0.7680114,0.7000574617,1.2777014377,0.4823578166,0.4977766784,0.2875305441,0.728848321,0.254330041,-0.6953789343,-0.3424006798,-0.2581481154,0.8284918182,0.2050715227,0.5273945936,-0.7314108624,0.743236458,-0.0262310382,0.507760708,-0.9538327158,-0.3116495315,-0.1378669083,0.556287029,1.039855821,0.391920716,-0.1396584713,-0.9056260389,-0.0804099808,-0.7616442701,-0.7275040371,0.0309063315,0.5075451592,0.0957466019,0.2023752889,0.7598944651,-0.1579177462,-0.4836348703,-0.8671261655,0.5780045876,0.6341777065,-0.3057393427,-0.0903561926,0.3140995148,0.5741967436,0.3885349888,-0.2110711783,2.2667286142,-0.5749062862,-0.591704164,-0.5746403617,-0.542583846,-0.1591153068,-0.2857483254,0.1263340514,0.0624873598,-0.6343759959,-1.1401897052,0.4744878335,-0.4887703946,-0.6192732481,-0.2193788393,-1.0834369943,0.6847881856,-0.6760058318,0.1760876523,0.917545744,-0.9878540239,-0.0598661425,-0.1092863584,-0.7658270444,1.1888430219,-0.718486663,-0.2327650217,0.317568718,-0.7160127927,0.2480678207,-0.6730587297,0.1816007864,-0.2532214197,0.2526952378,0.7351786192,0.227175931,0.7649299936,-0.1353894253,-0.7140784229,0.7587543722,-0.1258162997,0.0594352796,-1.0067264197,0.6413393391,0.1872659275,0.5592566418,-0.4432774091,-0.0149842253,-0.3000000967,1.0241888093,0.1427188668,0.7009259316,-0.7414914464,1.3419329379,-0.5193964194,0.6290895251,-0.019336323,0.4783541723,0.0594407729,0.1208002181,-2.0349122008,0.7574064579,-0.2086521154,0.6278234377,0.343468953,-0.3401237276,0.7007355559,0.8187009138,0.735406511,-0.9664069238,-0.9475533306,-1.7992121676,0.9376274755,-0.5077397427,0.1394621256,-0.7638645897,-1.2176845212,-0.4028049988,0.691569909,-0.9851332427,0.6925091083,-1.2077446285,-0.0577387897,0.6710987028,1.031345995,0.8080852075,1.5477931886,-0.0761590002,-0.1600148359,-1.7856470004,0.4465066777,-0.4200472188,0.106971151,0.5730777277,0.1491636239,0.5283271418,0.0686021631,0.2908201759,0.071877126,-0.2673446314,0.4109576417,0.9314686509,0.3290849571,0.0702297348,0.8284258854,0.6894194406,-0.6687248168,0.2410327696,2.0679881534,-0.203665923,0.6551925869,0.4418367579,-0.1643867768,0.2878810053,-0.4867623789,-0.9696160528,0.5060834864,1.3161536737,-0.6900959489,0.9953600182,0.1430267484,1.3605535633,-0.2143571711,-0.6624954139,0.6959456004,2.1834614317,-0.541166075,0.2118220941,-0.6945659274,0.3044546177,0.1119254589,-0.9018810806,-0.9104699199,1.731099302,1.0409145127,0.6626619749,-0.3364015661,-0.4250359203,1.0444951352,0.8897306131,1.2493744036,0.0847581263,-1.1621643032,-0.2572383841,0.8061601621,0.3857297235,0.2678786851,1.4972439392,-1.1631726544,-0.2503216922,1.2380417438,0.5813907873,-0.1244726182,-1.0561912845,-0.6811028889,0.4652671292,-0.6363158826,-1.055315495,0.4411542562,-0.7506029925,0.8601393497,-0.4448223486,-0.6872149304,-1.269142418,-0.0233666826,-0.3506942463,0.6995725254,-0.8574496272,0.3944440317,-0.4619819775,-0.0348153481,-1.405819558,0.3660005619,-0.6183414861,0.316351141,0.4036546957,0.8741374086,-0.4083957308,-0.3675255227,0.581907586,-0.2121159514,0.2134631533,-0.3239267673,-0.5764555173,-0.8661923324,-2.0001392582,0.3447781417,0.187321729,-0.9863844982,0.3701575455,-0.9565238825,-0.0681638379,-0.5820584499,-0.2227835053,-0.2052071431,-0.3724853754,1.1566585202,-0.9048451022,-0.0253623663,-0.100824201,0.2753042003,-0.3788676193,0.0439711485,0.6033811063,0.5585032605,0.4124159838,-0.3530202762,-0.3303003979,-0.7981328504,-0.8681636689,0.0071346214,-0.7681982279,-0.4090081134,-1.6355865646,0.5072086596,0.142127832,0.9337617787,0.6883770733,0.6157339791,2.3018449053,-0.0025734686,-1.5465278733,-0.1186814271,-0.0209836928,0.1868190394,-0.5512541395,0.2391072626,-1.1098988143,0.501648127,0.7724398359,-0.7167991448,-0.8539243481,-0.7191985172,0.126740705,1.2094404171,1.105048003,-0.029158517,-0.976784088,-0.3175679599,0.7553225038,0.6566659365,-0.8102650783,1.397080077,-0.4635172288,-0.2549551622,-0.2663892661,0.1455836068,-0.0631881797,0.1674298514,0.287119408,-0.0903215799,-0.0781530997,-0.0289145077,-0.0120889374,-0.9495735638,-0.5065213797,-1.938113167,0.405105415,0.3692126042,1.5921461467,0.2637039309,1.334289247,0.4962179257,-0.2898947678,-1.4747731525,0.7982786298,0.3656914136,1.0633951758,0.2758937874,-0.9065910686,-0.2991949501,0.3072388751,-0.0188113446,1.0239917684,-0.4376867016,0.4437420472,0.3627020277,-0.7549051651,-0.454105091,-0.3753463316,-1.6387883925,-0.1490406662,-0.2367265023,-0.1829776641,3.0824200169,0.3178056444,-0.0845781045,0.7729651655,0.3807984939,0.7622925296,0.705712797,0.8838385148,0.4200294416,-0.4588186715,0.2327081515,-0.2308373897,-0.1983545662,0.0803681775,0.2381892527,-1.3866259213,0.9643509783,2.9192273352,-0.0731070349,0.2079105628,-0.2603445821,-0.94118536,0.1215567662,0.0009227957,0.333212655,-0.1438999927,0.2197304637,0.2309751082,0.2161303725,0.2140146819,-0.5484989734,-0.0222246795,-0.7589109368,0.6764771758,-0.5687232945,0.4305134875,-0.482708969,0.0677345497,-1.2781676039,-0.8460630226,0.1978536644,0.3416707429,1.1689018666,-0.6754030181,1.0327392307,-1.3532277887,-0.0541291963,0.7224748737,1.3006151776,-0.851636478,0.0536460119,-0.6997079601,-0.923985352,0.3747680348,-0.3544235801,-0.2391579525,-0.2263588014,3.2453610374,0.2878492437,-0.5290641654,-0.5610574066,-0.3042859126,1.1170029557,-0.5491775091,-0.9201389427,-0.269987446,0.3542629363,-0.234745779,0.0784235511,0.8037538999,-0.594377997,0.4758817522,-0.2300296031,-0.5791801475,0.8990547653,0.7576544008,0.57873705,0.7398921581,-0.6472841821,-0.9745986305,-1.3249738367,0.3520826729,0.3734017382,0.7621386113,-0.928428116,-0.8591172881,-0.2888340152,0.465609255,0.1162756923,0.9582497841,0.413683902,-0.6323784331,0.5110489993,-0.9266278507,0.3972369013,-0.3510281272,0.1006864128,-0.365544758,0.9731554004,0.4068351626,-2.117273452,-1.8396404017,-0.8497482618,-0.0853634743,-0.653255579,-0.8610700431,0.3195122666,2.001285027,-0.8046897528,0.2503015042,0.1653843481,0.1959864507,-0.1603495586,-0.8765300052,-2.043755561,0.7474791643,0.3991189409,-1.119992635,-0.4593460811,-0.5732034854,-1.0520135701,0.918989852,0.4854405624,0.9627050468,0.8601224149,0.8884739993,-0.6102365999,0.6720957402,-0.7977969006,-0.8650124048,-0.0012824701,-0.0405036975,1.7234908068,-0.6644574748,-0.9947037832,-0.1986269046,-0.3325754219,-2.7738964577,-0.4585558175,-0.1490926395,0.3106509143,-0.3260800371,0.3221914217,-0.3323252096,-0.2578962026,-0.7054654041,0.5966870865,0.0462089618,0.9244624293,0.3241871475,-0.3533040341,-0.2693584084,-0.5619970194,0.4110706187,0.3489239443,1.0877133321,0.8253248924,0.6492861819,0.1909987698,-1.8892350609,-0.688802256,-0.5803347626,-0.046589347,-0.2834701228,-0.5657683628,-0.9814926147,-1.0061957708,-0.5055963943,0.7126177071,-0.1950980845,-0.6180251,1.3199729267,0.0698541803,0.3682184745,-0.6442083573,-1.0848002248,0.4546796654,-0.7337596376,-1.3067755935,0.2364620857,0.7562144907,-0.5675169891,-0.9368443935,-0.5040379346,0.2438389657,0.3658135957,-0.909227659,1.9211997535,0.8482300824,-0.5155228077,-0.271066071,-0.2014143442,-0.2362800231,0.6924999009,-0.6886831746,0.8277449818,0.2481125078,-0.0887428069,0.2931336338,-0.5413651054,-0.8904051892,0.7124691515,0.8349947663,-0.0049535563,0.0286695145,0.359985361,0.7008237944,0.3937483159,-0.042526214,-0.9071929137,-0.3185746635,0.4763305874,-0.2775352098,-0.6070979842,-0.6964576987,-1.273015261,0.0989144896,-0.8816674228,0.7864892835,-0.5323069367,-0.7321635517,0.7821508426,0.8654174094,0.9896969749,-0.7105761275,0.6602455667,-0.1117705545,0.5011464539,0.6598740315,-0.0788678571,1.0261312069,-0.2976166603,0.2034165618,0.6588349468,-0.1461383136,-0.5872478658,0.9655732579,-0.5087675539,0.0105393069,-0.0552816935,-0.8424495358,-1.1080628859,0.3303978232,1.2170055809,0.3191923458,0.3256627632,1.2684065561,-0.1183165153,0.5255118835,0.2279112386,-0.4555239383,-1.0286217921,1.0591379854,-0.7446569746,0.0001407579,0.9308935237,0.4059087686,0.7824595448,0.0694411528,-0.5355616139,-0.5616610818,0.301048334,0.6231443458,-0.6641067562,1.0287263753,0.6674382758,0.1228218206,-0.1394983003,-0.3757506144,0.1186350005,0.7156139676,0.7080794706,-0.4794682551,0.1414424644,0.433362593,0.0540348203,0.5459929004,0.5177780378,-0.8995917175,-1.1821658417,-0.9369961865,0.8626260715,-0.8326741381,0.9280122393,0.6288883269,-0.3408039072,0.7289342024,-0.1347436712,0.7755451152,-0.5255366414,-0.5852118054,0.7462767629,-0.4936126004,-0.8322270574,-0.6125860236,0.9020772294,0.3435551496,-0.2038125523,-0.4418304513,-0.0036989669,-1.0123434439,0.8225091555,0.6289828258,-0.8502345366,-0.8411916546,-1.1985117379,-0.2878889998,-0.748079771,-1.8733980222,-0.8961471336,0.2479485544,-0.5469825256,0.9957780522,0.5919976507,-0.3377846989,-0.7851151268,-0.4081466551,-0.5247049114,0.5157019673,0.0084769338,-0.0277168758,-1.0342551745,-0.893523235,-0.3331402539,0.1384730767,0.8751749394,-0.766767344,0.0630521668,-0.510356867,-0.3420906274,0.9220422281,-0.683594999,0.1892266444,-0.4369865649,-0.040424351,-0.0139524947,0.357789815,0.7232796847,-0.2152221843,0.1020738119,0.3326913998,0.3377333669,0.5709699035,0.5968814043,0.1880232625,-0.1158497047,0.975328237,-0.3884544038,0.9389058509,-1.1104290429,0.9631604754,0.3843395439,0.6659024373,1.7427208899,-0.0841345513,-1.1793657018,0.4579474609,0.8623056266,-1.0160878542,-0.9791684481,-0.5677429033,0.4395273858,-0.0936147069,-1.0289669293,1.0611166244,-0.4140362964,0.3877463793,0.7047490539,-0.7948025655,-0.597271325,0.7155713458,0.7006617112,0.5464137404,0.9309213343,-1.0790167827,-0.2068076094,1.404833104,0.5167379348,0.64321292,0.2169962372,0.3753696979,-0.4219676741,-0.489784508,-0.6538839762,0.6853119695,1.2666330994,-1.0306648514,0.0289862811,-0.5519466369,0.7700237152,0.9124642545,-0.6508376056,-0.4872550227,0.3268387852,-0.5813196496,-0.6470311728,0.5987434759,-0.1463600429,1.1787602219,-0.1993615877,-1.4847379633,-2.8034790364,1.9935871142,2.0599467275,0.604676202,1.0060445818,2.4089972974,-0.1144166526,-2.8387837195,1.3366982216,-0.2815219333,0.8712937188,-0.4912684125,-0.714285766,0.4189725706,-0.0037519728,2.220739237,0.2755441619,0.3597798377,-0.5553086038,1.1913773196,1.1202329296,-0.4981548988,1.146036765,-1.3954746136,0.2105228995,0.7376046542,0.0856614215,0.5376906131,0.6068575976,0.669151457,-0.6733091275,0.4332919421,-0.6221811071,-2.6528196235,1.7949482449,0.9681903169,0.4591066228,0.523375546,-1.2547288199,-3.3079747683,0.3989848158,0.2710119896,-1.9379128099,-0.3950266274,-0.8245596639,-0.8524429502,1.3315384826,1.5956477629,0.1927942974,-2.8603681992,-0.1911145279,0.9375869523,-0.4067857123,0.4601280038,-1.1494242683,-0.7074644083,-0.9659470736,0.6793564217,0.9417350877,1.3997777225,0.1372165247,-0.599082842,1.7570459652,0.8205554482,0.0857078768,0.3954238421,-0.759912784,0.2982534634,1.0299373376,-0.361972463,0.4762192179,-0.8715045062,-0.5965905968,-0.0060400652,-0.9003225034,1.0055843598,-1.199294707,-0.4440652587,-0.1484681716,-0.0061373599,0.0333110755,0.4121573463,-0.8422452055,0.8701196712,-0.6841599332,0.8031547683,0.1493492412,0.6638523334,0.0583579084,-0.3779100073,-0.8021404042,-1.5535497001,-0.6893039075,0.1786021335,0.7132256889,-1.1183786261,-0.0128033066,0.9169119751,-0.9397502467,-0.3486149686,0.844151012,-0.754622216,0.2580209974,0.3068772761,0.4577093802,-0.4423164583,0.1684640471,-0.1162798832,-0.2145869533,0.7077972191,-0.4788689161,1.156124912,0.6596708412,-1.6215398334,-1.4685915039,-0.4773434344,-0.1530681615,0.3121118824,-0.5372214154,-0.0199770652,-0.6971594498,0.4889524529,-0.9670163099,1.2111011954,0.2567040345,-0.7547332905,-0.2261728355,-0.3859371587,-0.3119992639,0.8280555136,-0.5781166561,-0.4765893422,0.4123735992,-0.1970682277,0.9762424834,-0.80597277,0.1111272512,0.2726599639,0.9055596988,1.5820678202,-0.2216901006,-0.5944102276,-0.7463587649,0.1489414019,0.6027492809,-0.5211842399,-0.294659787,-0.6225957497,0.6876452633,-0.2540611026,0.0872415838,0.1492434154,-0.3988056464,-0.0318907408,0.8117298009,-0.5054697438,-0.3825980848,-0.4464664939,-0.198034371,-0.8864544287,-0.5674540175,-0.7078486125,0.6006692499,0.6841064572,0.1615854724,0.0490520905,-0.5327937781,-1.2518694371,-0.3152667428,-0.0627934419,0.8922002882,-0.0317462492,-0.3776676786,-0.3129995841,0.5265238498,0.3843798218,0.3946768415,0.4405247848,0.7866912894,-0.6054093607,1.0285069666,1.972104452,1.3252741287,-0.1755921129,-2.0003143505,0.6486063852,0.6032249047,0.3860861138,0.7289367682,-0.5721654159,-0.8496717418,0.5357114404,0.4947356092,0.0644750441,-0.7291681724,1.0657674682,-0.1593462547,0.2105939846,-0.0168286476,-0.3757822844,-0.5479489415,-1.4835074265,0.7013612038,0.1396363102,-0.7173811612,0.9925511594,-0.9988130737,0.5026489142,0.7902924475,0.071036455,-0.5671731289,0.9495262595,0.0408749462,0.82056861,0.2699655244,-0.2739869966,-0.6715250749,-0.6497553,-0.864471757,0.3788180891,2.1974411889,-0.4143006774,1.4948769335,0.0545587081,0.7591734752,0.7697619189,-1.0997847308,1.4463818895,-0.0533792924,1.1695818441,0.4286547804,-0.3992173784,-0.8848947247,-0.9795585819,-0.4912878584,-1.5358042365,-2.8681613424,-1.0995231166,0.5831518588,-0.4094518183,-0.5371747493,-0.0682814647,-0.0379500547,1.2649414542,3.7263740115,-0.6986481279,-0.7140305067,0.7341034675,-0.7993984387,0.7921606354,0.0717201145,-0.5667764563,1.8384395221,-1.2764729402,-0.8344323765,-0.2954570658,-2.1589185122,-0.1030941253,0.7708088129,0.898268067,0.7296757912,0.5362019412,-1.0524981514,0.9268141325,-0.4652143011,0.2657606851,-0.2951381561,-0.0430959441,0.3331296751,-0.546568782,-0.9464869273,-0.8290868734,-0.8196776845,-0.6367078693,0.8692093472,0.0033603134,0.2176325189,-0.4864373765,-1.0742060502,-0.5670971544,-0.516360299,0.7466213407,0.6796280183,-1.0953623785,0.173666803,0.1446055223,-0.6235961284,0.9726739727,0.113474069,0.9095511546,-0.7294309675,-0.0248242915,-1.6740803485,0.4793285548,-0.1198818462,-0.9728482692,0.9363314411,-0.540582169,0.8382894316,0.0162347461,-1.540760104,-0.0946072001,0.9794303892,0.223292485,1.6920430507,-0.051855737,-0.4209905774,-0.2743140042,-0.9158961488,1.405276255,-0.005122187,-0.8484231388,-0.4001555682,0.434684905,-0.1521396224,0.9398388532,-0.6653849973,-0.6442892673,-0.2784342341,-0.5697049251,0.4452626572,0.6710176968,-0.908833081,-0.9613863579,0.1521228674,0.8630329359,1.0418582193,0.3896254463,0.8006995555,-0.0681532525,2.5809641751,0.6791577601,-0.1194929204,0.5179716556,-0.9591998305,-0.1809285099,0.2855171086,-1.0134127559,-0.7036023738,-0.6864026038,-1.0514104228,-0.8818996527,0.685144926,-0.7737289261,0.8959318391,-0.6131065201,-1.6217770848,1.6168018188,-0.3459718182,0.9837190311,0.320228643,0.6310828253,-1.5389064894,0.8493985193,-1.0772637807,-1.5659876179,0.0332397133,2.0903261135,-0.0898047744,0.7005458584,0.2562538036,-0.9085174993,-0.6473103779,-0.0766562575,0.304558677,0.3598647288,0.9272320101,-0.7180408827,-0.8765690944,-0.5917988154,-0.4898112558,-0.587054344,-0.192860263,0.1404213371,-0.4904614664,-0.7858819667,-0.8301457457,0.3366217424,-0.3120560938,0.3277288866,-0.8917660578,-0.0853901905,-1.0892464562,-0.8867448921,0.871388885,0.5885362264,0.5252856058,0.1529850719,-0.5757066391,0.1809110031,-1.0981351887,-0.7982895192,0.6714867008,0.7260673834,-0.393703899,0.244905435,0.4998379098,-0.5770580088,-0.8461841349,0.4769624249,-0.43988011,1.1305592868,0.5205768497,-1.0002565965,-1.4294687849,-0.8129495841,-0.315563097,-0.070205017,0.1107877375,0.0534394335,-1.0370670155,-0.0274266944,-0.3949145065,0.3309852432,-0.7702431889,0.2585240327,-0.233142605,0.7462472161,-0.4453631023,0.1930590453,0.117373059,1.1133470562,1.0268841689,-1.4693133996,0.2706670763,-0.2661684062,0.2188394252,0.1211710649,0.9582071498,0.8056978299,0.0220846419,-0.6593550725,-1.0428001732,-0.9668660106,-0.0976452576,0.3583723433,-0.0569007363,1.7802733829,0.7834525841,0.3431019979,-0.5188758132,0.8056240832,0.2829423018,-0.0891050271,-0.2198373065,0.9442952998,-0.4632140177,-0.5462443086,-1.6464916839,0.5230793878,-0.8610704445,0.8823187435,-0.7494022448,-0.0456247258,0.3305697731,0.1259165589,-1.4045889428,-0.510247238,-0.467802846,-0.9966673636,-0.4017643231,0.6703468623,0.620832479,-0.0383034049,0.4563202895,-0.6785226014,-0.630526032,0.0270870089,-1.0194618361,0.2945349419,0.0236584942,-0.1306355459,-0.9510433144,0.1064857073,0.5762726042,-0.5536289543,-0.4128038142,0.6163108199,0.1733692836,-0.5338712851,-0.4455155701,-1.1591386929,0.7473046179,-1.5869618626,-14.1043142497,0.4612987959,-0.0739769841,0.1894239818,0.3012815404,-0.8338874883,0.1153080568,0.9669363121,1.0611095105,-0.6350623182,1.2243983786,-0.3167753415,0.5612488303,-2.2505030058,0.4774365545,-0.0340297301,1.1079713306,0.4970717609,-0.2937956969,0.5071145631,-1.0942489545,1.7249346619,-1.6767655472,-0.2979002864,-0.1307128261,0.7482661096,0.1570671515,-1.5765298791,0.5261057039,-0.4524782712,0.4472648878,0.016835808,-0.2471580413,-1.3383292072,-0.8825768385,0.4647879423,1.0805205835,0.023532028,-0.4410558519,0.9339878029,0.2435621593,0.0699603871,-0.6935780467,-0.5728338571,0.578774952,0.2098155051,-0.6145006441,-0.0344969834,-1.1717556834,-0.2651067857,1.323045603,-0.7316832197,-0.7761355045,0.3990251657,0.4686749404,2.0022319373,-1.8708178085,1.0166072943,0.737069872,-0.9569622997,-0.1506027264,0.0021999037,-0.4219877321,0.454957149,0.1615467232,-0.4206478686,1.0777314031,-0.2197465173,-0.5656945295,0.7066607133,0.4704003855,-1.2375865788,0.4973872904,0.5082709227,0.3015708533,-1.510423543,-0.8759511939,-1.2134959975,-0.4298854574,0.1390147876,-0.3695131937,0.3909428518,0.1652474882,-0.1451208649,1.2117401385,-0.5044013762,-0.3699202936,0.6170584783,-0.7767022679,0.2814782691,0.1979933618,-0.0646507247,-0.1865561707,-0.2690878261,-0.5071561188,-0.7795274542,0.5331289716,-0.5321478623,0.1662434131,0.62499104,-0.7039766556,0.0261894152,0.136303917,0.0888623354,-0.1854803743,-0.1939373476,0.6974470992,0.3221363057,-0.5383187716,-0.0386336439,0.6473648899,0.1238245515,-0.0383064025,-0.8880410136,-0.5415341952,-0.193580247,-0.479860295,0.4750363705,-1.0813097837,0.6236840201,-0.0707103088,0.7564910156,-0.0645761179,-1.2367128362,0.9243812542,0.1914110406,-0.424639663,0.4763071496,0.2914775119,-0.7424575714,-2.3362030507,-1.5334135269,-1.0482229591,-0.2010264289,1.0068369463,0.6604060682,-0.3536391844,0.6172576808,0.6734576006,-0.3965340694,-0.1587939258,0.4308297798,-0.0587055544,-0.380577599,-0.0039972141,0.3354415641,-1.1496482419,0.5845844328,-0.9754665895,0.4660264343,-0.0348314717,-1.0743194745,0.845356327,0.2595366966,-0.0016153404,0.9669596172,-0.3605757458,-0.2430111286,0.9710729574,0.673509881,-1.1255913956,1.2354162422,0.3966132207,-0.7918382694,0.2636216034,0.9370320382,0.2288412767,-0.6767367356,1.0558067118,-0.0026510085,0.6358225728,-0.1558499327,0.9866487461,-0.6625455026,-1.6618907604,0.6858986478,0.7046706759,-0.1892275676,0.4465638567,0.6756507279,-0.587864488,-0.4439792452,0.8912668666,-0.1038234499,-0.7269178885,0.4998538362,-1.2205807625,0.4753722031,0.0053912456,-0.1721075926,-0.2486982719,-0.009615024,1.0274253987,0.2491536482,-0.3513808716,0.4289042158,0.4557035117,0.7776626778,0.4158410645,0.1186299335,0.0059431176,-0.6500818718,1.7376572059,0.3926467253,0.1432862923,0.569339873,0.1127794612,-0.2100727653,-0.370136093,1.1676396381,-0.080386987,-1.0786536562,0.5588907824,-0.6927718104,0.0529460924,-0.0792843313,-0.1532946215,-0.7593625128,-0.0774235393,0.0068079522,-0.5174199243,-0.2699339944,-0.270385691,-0.902163468,-0.2031921473,-0.0500924408,0.1022292482,-0.6819832534,-0.0054718576,0.7438727922,-0.7140392155,-0.1712679945,-0.5099626961,0.5197366594,0.6165665124,-0.2310321817,-0.6281707676,0.0385407116,0.143726098,0.2296125289,0.0712773179,-0.3014615342,0.6156271219,0.7660729438,-0.669875049,0.0791266958,0.2574042013,0.0179069413,0.1554370283,-1.1337756677,-0.923298594,0.5320847745,0.5074753501,0.960015277,-0.0516061508,0.5579153474,-0.106147575,0.2397061074,0.9183928526,0.27015353,-0.9418725332,0.9127297572,-0.0329233199,-0.8829428515,-0.8874073397,0.2438118586,-0.5953750637,-0.1684419451,-0.9348166351,0.0594909875,-0.8908525889,-0.1911286831,0.2520115108,-0.9795449669,-0.9031831355,0.2401267668,0.1618814228,-0.2062097836,0.2239213575,-0.1872439286,-0.3089660232,0.2293073627,0.4977746095,-0.1321414555,-1.3356999968,0.2680574487,0.8719456185,-0.2044544304,-0.6748879413,-0.1560214027,-0.4519191446,-0.2609160991,-0.4750036698,-0.42036942,0.7743674655,-0.8380729601,0.9367880139,0.9623883484,0.6857051472,-0.6660137488,0.3575300947,-0.7227303411,0.4506494138,0.868486231,0.1273469111,-0.3599891192,-0.0342851895,0.2836459144,0.2639436421,0.2734998433,0.2843611563,0.0059598331,-0.3510932475,0.7879265301,1.1833424541,0.4726997838,-0.9171152799,1.5394373064,0.7596874407,-0.911795398,1.3295208496,0.176962474,0.1078885144,0.250799535,-0.3177596866,0.2360123534,-0.0936996462,0.0566761106,-0.4227171288,0.6890703994,-0.5234977134,0.6698848478,0.7942264265,-0.1527189721,0.8192313887,0.4648732325,0.3093674248,0.6300465036,-0.1697944611,-0.3253968621,0.520994823,0.6214864661,0.2179851807,-0.2788588475,1.422265064,0.2208777461,0.5151782585,-0.6337756847,-0.4224735448,0.3724081548
   0.183341179,0.7416485485,-0.3387832599,1.4711927891,-0.2165332301,-0.0819433876,0.8979127196,-0.4314192546,-1.0799280451,0.8475488411,1.0141780952,-0.3290697628,0.8257836388,0.2560053541,0.387155429,1.4719352525,0.4058920312,0.9504992734,0.9543065868,-0.3989697929,-0.5795103568,-0.2631103726,-0.0389556123,-0.2003602884,0.5964514785,-0.3972614928,-1.7235085043,-0.2716145354,-0.8250132045,0.5107638478,0.9101570562,-0.7101721386,0.022072721,-0.9111376944,0.938018398,0.3861935202,-0.7263626305,-0.3188065842,-0.2720298784,-0.3864180213,-1.0581599131,-0.0437382105,-0.3189823263,0.3034772524,-0.7056733195,-0.9330905906,-0.5845963419,-0.6685407163,-0.8101487686,-0.3705581548,-0.5143436649,-0.7265999949,-0.4212439165,-1.3819066663,0.393489168,0.0456864417,0.7874380031,-0.7958711958,0.7523140498,0.6851196106,-0.3204182785,-0.0105414145,0.8154126356,-0.5339237804,-1.1511154553,-0.0191881534,0.6915485526,-3.0040487073,-0.5185981265,-0.3588269276,-0.8188526051,0.0989083949,-0.7296415679,-0.8339365394,0.4035272106,-0.9971249283,0.4693773811,0.3331154326,-0.0872651055,-0.1368632275,1.0637407136,-0.0804958713,0.1686047872,0.3071573268,-0.3278739465,-0.1802313594,1.0457140789,-1.0611614193,0.7398782572,-0.4583487937,0.1241667602,-1.2991266672,-0.7847006147,-0.9278610726,0.7708418344,0.1688010266,0.4726406348,0.2609138832,-0.1799164924,-0.1037370227,0.3098057043,0.2663598931,0.2202609985,-0.6633346041,-0.9034694045,-0.8012740174,-0.9517759591,-0.5934922773,0.4367186807,-0.9994259822,0.9494781975,0.7201880687,0.1354657066,-0.1151560954,0.3788853058,-0.0968649415,-0.7464026926,0.1359689605,0.6999296877,-0.3091328723,0.2771389571,0.9158563644,0.6963701843,0.3854158577,-0.0154480065,0.2481271005,-0.1438624489,0.637886153,-0.5854218643,-0.5372080621,0.1760884956,-0.7818453147,-0.1627249965,-0.4374795568,-0.7347288004,0.780383918,-0.2649227939,0.1735470031,-0.6862081758,-0.4257190105,-0.1586530208,-0.0143746331,-0.3221241374,-0.8059066222,0.2289031943,-0.6319987858,0.6238145507,0.5628710226,-0.9504976046,0.8891760107,-0.3277282585,-0.4583543882,-0.4971289138,0.7328898338,-0.171646646,-0.0145794762,0.5061415794,1.2444964471,0.4754227516,0.9689329574,0.8472769203,0.4422413247,-0.2611479517,-0.8930879398,0.1932725836,-1.8985057159,0.0190177828,-0.9097085602,-0.3295883771,-0.1609681467,-0.9949225734,0.1742151318,-0.1793857171,-1.0866190817,-0.7579682881,0.7896305235,0.1214527345,0.4022707973,-0.599539701,-0.4944569212,-1.1338875286,-0.4057063707,0.1943950311,0.9036216679,0.6666922969,2.1171777503,0.9970532944,0.2400262803,-0.7510689767,0.1741377213,-0.3985758387,0.1965852254,0.1695992062,-0.5632369448,0.6762206098,-0.3010060044,0.4410508005,-0.1835711664,1.1548250179,-1.1367707794,0.4304888056,-1.0733352939,-1.6601192579,0.3496756995,0.1637938693,0.2101335487,0.3164698685,0.1981104071,0.5775553831,0.0651165473,1.0921808158,-0.8330697731,0.6336860388,0.2155823269,1.0625690172,-1.0852702327,-0.7867293371,-0.147899882,-0.7502032373,0.1784819075,-0.5968787961,0.2338100976,-1.4153246829,-0.8210114469,-0.4857529021,0.8925249778,-0.1998698221,0.4977626312,0.1760917755,0.3222290014,-0.4241149191,-0.287074247,-0.7545557233,-0.1798079101,-0.4974483873,-0.9656712946,-1.6954480809,-1.5049039511,-2.9922823377,-0.0396071804,-0.0335280132,0.0842556285,-0.5733559339,-0.1776333124,0.7173562607,-0.4700062722,-0.654486044,1.1958130141,-0.7197699097,-0.7771540399,0.490261022,-0.2175860934,0.5494371806,0.3654721269,-0.5125226022,-1.3869042842,-0.3745629403,-0.3131418763,-0.8085883232,0.4866124672,-0.3589674932,-0.4639495897,-0.6603523137,-0.115608276,-0.3281929404,0.2965338911,0.9207168826,1.2020161953,-1.2821761283,-0.3238894277,-0.7344097751,0.3670861806,-1.0241689906,-0.5452449907,-0.3798008799,0.7361140972,0.3556982357,0.0575120487,-0.2525127579,0.0568323969,1.2438278695,-0.1971949298,-0.4334098572,2.0747953629,-0.2288969968,-0.724356816,-1.2211001049,1.3300194542,-0.4399983089,-0.0883107671,0.337072614,-0.4213908799,-0.3120468313,0.2862403078,0.2790219369,-0.3473051814,0.9546493389,2.0634733731,0.5038410845,-1.1200652735,-0.0175305841,-0.3086235832,0.8598502235,0.357514638,-0.7793908457,-0.0236726205,-0.0593090613,-0.9604867114,-1.1815549315,0.1754216008,-0.8030206503,-1.0292434088,0.570883089,1.1492352362,0.8163975177,-1.2368123183,0.2648891742,0.2457037331,-0.0558645698,-0.431617195,0.083026878,0.3996059045,-0.078366949,0.0541209058,0.3330466469,-0.5979006139,0.3285741709,-0.5190575579,-0.5655217487,-0.5998349778,0.5678151016,0.5260267106,0.5865968377,0.0731282865,-0.2332944807,-0.6490393158,0.4679929999,0.9810985321,-0.3381276031,-0.0886804346,-0.6085336392,-0.4980193882,0.2137068175,-0.2481253861,0.1451498458,0.3231813258,0.0068245094,-0.6240886533,0.3379585988,0.0178950068,0.5283176488,-0.2325584705,1.1988885798,0.7455560305,0.308859488,-0.6451149211,0.3530621945,-0.1430021042,0.268480509,-0.9695121638,-1.1616021177,-0.6516047502,-0.1538739863,-1.0100894162,0.4034706587,-0.6620347599,0.4689586047,0.4346826989,-0.8078269891,0.157874169,0.9960248737,0.5183666636,-0.4063034405,-0.7647112826,0.4852223694,-0.7111954961,-0.8045975413,-0.2283152216,0.7025130658,-0.4467965183,0.2045799683,1.0597874348,0.8294723265,-0.182794985,0.1738084153,0.2247487485,0.7846517828,0.2162348902,0.4972166169,-0.6929628513,-0.9281859066,-0.0262570068,0.0041400651,-0.076645763,0.2693225167,-0.6117113444,-0.24081762,0.9384030527,-0.1302842975,-0.4287498101,0.3763775331,0.3995413756,0.2479440503,-0.7494458942,1.3556188174,0.7084000951,0.1547191955,0.0966644947,0.4381574299,0.1575734738,-0.6260844552,0.2273516611,0.3369427096,-1.6355511313,-0.404694176,0.9224945326,-0.322037472,-1.0477442344,-0.7583907935,0.6609536477,-1.0353490113,0.2300574385,0.6742470854,-0.7743455859,0.8473625492,0.8314458529,-0.2982117671,0.1017305855,0.5364109253,0.56156785,0.3359332939,0.1607210549,0.1671360616,1.0457236289,0.3353582156,2.8028515183,0.2955707256,0.9212725569,0.9161214939,-0.5709535076,0.4204998788,0.4331197091,0.7878837016,2.7600969913,-0.3277359496,0.0475862252,0.0337174007,0.7315112426,-0.0494043775,-0.724488623,-0.3423601467,0.7862455418,-1.9375786681,0.9100229484,-0.0499833224,-0.0847299921,-0.9715157212,-0.3043532274,-0.2530283574,0.7174037414,0.4770083168,-0.0412341796,0.2971373991,0.1413585821,0.9255167996,-0.7357327327,0.8096485762,-0.8872954805,0.6077632577,-0.6995652882,-0.9016065025,-0.623195007,-0.547781213,0.5177716893,0.9042791928,-0.5131319075,-0.0759826709,0.1190870017,1.6948493551,0.1514416342,-0.4355489128,-0.6606531317,0.7763040984,-1.2240553996,0.6437657571,0.6940298411,0.1170455644,0.1207637594,0.3502996505,0.1170402678,0.6182635572,1.434930474,0.5375810479,-0.868693275,-0.2571568632,-0.8275830988,-0.0401660244,-1.0086600784,0.0508244765,-0.4535676245,0.3706587574,0.1214565662,-0.6245468408,-0.2742014633,0.4538341465,-0.2532302345,-0.1320615223,-0.0913654825,-0.2983052772,1.0616780942,0.1888960267,-0.0481414925,-0.7403884594,1.1077414404,-1.0260755427,-0.6863170756,0.1787696013,0.1416082111,0.113942106,-0.3599199302,-0.2709708516,0.6843081887,0.7356812244,0.2444135355,-0.9617296101,-0.1472564972,0.9528140471,-0.0862671752,-0.0698866718,-0.445012912,0.8151952385,0.5637204493,-1.036750545,-0.2692247709,1.0237509525,-1.1386898873,-0.2410834082,0.5156855316,-0.2195602674,-0.8294981644,0.9423372059,-0.1370754939,-0.8240264254,0.8365743816,0.8143732442,0.0577689954,1.0155407013,-0.9945750964,-0.5209742281,0.7890145497,0.0995941118,0.2867634827,0.5345758488,0.4441941695,-0.5990158075,1.6626531618,0.5253788601,-1.1849756571,0.6847178019,-0.2740443991,0.1460048939,0.5151313581,0.2962042914,0.0347458178,-0.0510179807,0.5453878245,0.0045161672,-0.1584620259,-0.3717998072,-0.9774067612,0.5016528665,-0.4179400687,-0.2077918908,-0.3306631338,0.20158849,0.0191196937,-0.5448970201,0.6522942983,-0.1272384787,-0.6749934976,0.3954812162,0.1667055088,-0.8370212949,1.6068024129,-0.3264949848,0.8162948193,1.0860610013,0.5486866031,-0.231999237,-0.4093711915,0.3939036865,0.386076349,-0.2588548625,-0.3607491413,-1.6304058906,0.3228147451,0.0300512726,-1.2311759193,-0.4607883699,0.234243337,-0.1577783769,-0.3863361991,0.7764172222,2.5122444709,0.7365484297,0.8906937027,0.2057207567,-0.5372242522,0.2583160208,0.3277079326,0.0445234673,0.2544886894,-0.3946063084,-0.6813067817,-0.6885212549,0.7017151852,0.3101547925,-1.0218261409,0.6918618284,1.3372719403,0.9569339463,0.6227615003,-1.6104741603,-0.4204362795,-0.8837658776,0.4791473177,0.029121122,-0.8389279636,5.954135364,-0.605832517,-1.0006409888,-0.4481170275,-0.5405857119,-0.2885009584,0.6476828899,0.4130045777,0.3162459918,-0.4830902766,0.307396229,-0.0713512121,1.1971617129,1.2404718846,-0.1567731941,0.3325296014,1.0041810446,0.5149434457,0.6882289061,0.3760749517,-2.0742522757,-0.0905613385,0.1750474805,0.439154795,0.5178533789,0.8991185546,-0.4886908599,-0.6805493593,0.2866311975,1.8933989191,0.7196391764,0.8254363303,0.0056018437,-0.0708429328,-0.4133605385,-0.1937044568,0.0013079648,1.2261221936,-0.6979187215,-0.6565396562,0.3346237761,-0.0891895208,0.6469200347,-0.1298217419,-0.6149398129,0.0884941663,0.3378944925,0.6813262721,-0.6167954733,-0.1889797687,-0.0177152652,-0.5263730937,0.0865185705,-0.9490586182,-0.509200566,-0.611725138,-0.4388295581,-0.4150271266,-0.6224164724,0.9318798104,1.9468757548,0.7349018493,0.5711677084,0.3411583453,1.2550079631,0.0754551624,0.3637190069,0.1053669696,1.4058632768,1.370274904,0.8738469705,0.6574294925,-0.8571544244,0.3786329973,0.4492302747,-0.5050970541,0.1685566238,-0.7834045888,0.3297224837,-0.5243707269,0.5592107417,0.3145366829,-0.5810883158,-0.2654090122,-0.6692369914,1.1112676203,0.5819820267,-0.6427038691,0.0834603293,-0.4605575563,-0.2589626934,0.2733741439,-1.1795073306,0.1319643139,-1.1069268363,-0.9050188495,0.1293583489,0.9804146839,0.5895263584,0.4855886527,-0.1570207555,2.3660247873,-0.2414803195,-0.8606998571,-0.5990557797,0.1370792203,0.6423818489,0.234763863,-1.4139917781,-0.8028563939,-2.4656458169,-1.026102368,0.5986463818,0.9544166773,-0.3499152755,0.2126137046,0.3080077097,-2.9322104418,-0.7756618806,-0.8683031908,1.4178820472,1.2107368867,0.0057320686,1.1763711141,-0.1183182959,-1.5075289203,-0.8976799275,0.342539091,-2.6560578475,-0.3741276837,-0.8651867284,2.1782602541,0.2953388588,-1.3904388689,2.1231036783,-0.0056105873,-0.8321635819,0.4626533448,0.8700764325,-0.993206748,-1.4107469787,0.7733320077,0.1395051684,0.4360214079,0.2592267431,-0.1510827232,-1.60884501,-1.0691384698,0.1574939365,-0.0850389636,0.3211611097,-1.6303830482,-0.1461890916,-0.5562562861,0.3181440071,0.66079389,-0.5389800805,-0.3049271779,0.9136679816,0.7339963057,-0.238070323,-0.6013469103,-1.6157845563,0.6047393293,-0.0037482501,-3.5054077757,-2.7553173239,-1.2655936099,0.5850906607,-1.2097320139,0.2660736113,0.1215732595,0.8785445631,-0.3256403775,-0.7301940519,0.1229305743,0.3067895875,1.1001174216,0.7927610871,-0.8992070223,-0.6411399881,1.1517819747,-0.6251195126,0.5536212845,0.8518244169,0.8374924954,-0.860540707,-0.8442529798,-0.7522482409,0.1288460437,-0.5363657899,0.5036862861,-0.1087941886,-0.7727646881,0.9901581823,0.3324183,-0.4189802585,-0.9646284886,-0.5633266133,0.4803539157,-1.1430895724,-0.1648659689,-1.0012622016,0.2275587933,0.3507420456,0.297635214,-1.0279531153,0.6652789196,0.0419248404,0.4732614623,1.5886563937,0.3016406436,-0.4386632845,0.011004661,0.4591052993,-0.6608115912,-0.4773809855,-0.0701973489,0.2010953803,-0.082658124,-0.2220364041,-0.536359192,0.741207402,0.2609365659,-1.3533705057,-0.7589764546,0.2219772084,0.8658993458,-0.2929425019,1.3278444287,-0.3882649822,-0.0022527762,1.7690473272,0.0729474926,-0.1717862907,-0.1792233685,-0.2038406152,0.494097336,0.0892593184,0.8081876765,0.6444690724,0.1646860965,-1.719272991,-0.1684111036,0.5803483719,0.8173492184,0.7604682743,0.9059010641,0.0330393117,-1.2113971613,0.9441515112,-0.382250994,0.456226787,0.2747737612,-0.7908488024,0.1302432965,-0.1321523557,-0.1140905505,0.6694216796,0.6499316046,0.6797235068,-0.5311771186,0.6057508848,0.8489022516,-0.8654511059,1.4308004419,-0.8245463323,-0.0966815854,0.2584692323,1.4286279038,-0.507007515,0.7513371857,0.5845884089,-1.1287183837,0.2741755303,-0.4332998045,-0.5975566093,-1.0515185344,0.0482300102,0.1704274174,0.7180036066,-0.0452410292,0.2170163283,-0.0124426731,-4.1537482045,0.843489413,0.521251395,-0.5875225098,-1.3624525141,-1.3764679226,0.2955933709,-1.7539896463,0.7272531123,-0.6466143969,0.9967759527,0.6836926491,0.0198982156,0.263250618,0.3060111089,0.7129002782,0.7193742369,-0.887805236,-0.2417911561,0.555880266,0.4195116466,0.2358005634,0.1885729837,0.2179020135,2.0294206185,0.1997552613,-0.1260554013,-0.6251719263,-0.2035294464,0.5993027204,0.625638474,0.9835864593,0.0856051469,0.4289360275,0.3648869953,0.1205952548,0.0983302743,0.2111054707,-0.0205317833,0.1406990352,0.9069900486,0.9044994158,0.5902109426,-0.1481489418,-0.7274891532,-0.5103228801,-0.1324925462,-1.0313610156,0.5325699414,-1.0115662555,0.199139181,-0.1133072238,-0.7587847347,-0.8922872053,0.8998022893,-0.2650792981,0.1033020261,1.7351698206,0.9337833817,-0.384445524,-0.6624882651,-0.8218831112,0.0763419624,0.9172087147,0.7282954981,-0.4993355058,-0.5817363292,0.340794064,-0.2355924548,-1.8354831581,-0.194564025,-0.3234850452,-2.4409858043,0.2051160154,-0.0989351373,0.1493438957,0.1126844682,0.1856403065,-0.2036345541,0.6723140384,-0.6242451321,0.340995227,0.8780980374,0.7800039709,0.1612996516,3.7252244844,0.3884409899,-0.6004909815,0.5457558325,-1.2022448199,-1.6271690922,0.3384581592,-0.3163010274,-0.9103419668,0.4354208146,0.8933770411,1.1425784793,0.6253442515,1.1076363999,-1.6200721758,1.6377044305,-0.1939536405,0.4725003434,-0.5024536976,-0.7335557956,-0.4709694495,-0.4068465412,-0.5843566297,-2.2115368663,0.2032719491,-1.3028443059,0.7594687651,-0.0763648399,0.1293241321,0.1804357699,0.1037455952,1.3454725066,-0.8082821458,0.0759851344,0.5680510897,-0.3673689517,0.0242998335,0.5633646629,0.4540826772,-0.0265087893,-0.2667416843,-0.6584491821,-0.1515182038,-0.7619884362,0.1743303316,0.4183201643,-1.8355381846,-0.6605053362,-0.9573637509,-1.0979573187,-1.357868883,0.6600025403,0.2311120635,-0.0467524767,-0.7301278446,7.3248111102,-0.2051796331,-0.1800057437,-0.250726031,0.7162999671,0.9912551468,-1.5159182587,-0.8594024553,-1.0014999226,0.6637060451,0.9801822108,-0.0344066373,-0.6887952447,-0.3729358617,-0.7610894848,0.4616265691,0.3236756299,0.726356047,-0.4853126632,0.4687893915,-0.7271895698,-3.1591488748,-0.6057254606,-0.8740957361,0.3811721919,-0.2605785451,-0.7463074644,-45.5217190994,-0.384124114,0.0918038855,0.575224097,0.4448152882,1.0563151016,0.1378822538,-0.4106025863,1.4675139587,-0.4285923689,1.0727322422,0.101919148,-0.1698289451,0.2081772059,0.9349391488,-0.0619109703,-0.2477070123,1.4816743211,0.0791153133,-0.1461452422,1.4010413596,-0.4397551998,0.248387678,0.4507073805,0.5270740697,0.1439136664,-0.8270899999,0.3405588866,0.2443906115,-1.1534591501,-0.5557667758,0.3176345093,0.5462000083,-0.8627482554,-0.2383190276,-0.6473201063,-0.8170225293,-0.9547976213,-0.4939710722,0.3245099284,0.3095316991,0.1708582181,0.077483079,-0.625492666,-0.590645621,-0.2330771242,-0.9901338665,-0.7899441136,0.4471112394,0.4471744036,-0.3244923424,-0.5264399676,0.4110157167,-0.362973565,0.0508743248,-0.8289740227,0.0631250289,0.256134953,-0.6384652971,-0.6213472365,-0.1811466191,-0.0938380157,0.2073774942,-0.6298055948,-0.5734185941,-0.5326888317,-0.7946701452,-0.1066143795,-2.4759409407,12.3603336303,0.4901319943,-0.3448761421,-0.2711260023,0.4307515105,-0.6646877418,0.5827545235,-0.4819770171,0.7530450597,0.8382032766,0.2368898677,-0.5223061348,-0.4803197742,0.570352627,0.7771303351,-0.5734819355,0.2205668634,0.9165441911,-0.7125794616,0.037003021,-0.2405641153,-0.4691190424,0.7384432435,0.3746761859,-0.2307279677,-0.1133462153,-0.9314121316,-1.1436799607,-0.6940147822,0.7962473769,-0.8531778385,-0.3178928578,0.3805812395,-1.1616969186,-1.116742319,0.1331366495,-0.6048164591,0.751634022,-0.5963254399,-0.6060165573,0.2533387702,-0.3520951382,0.3040650321,0.5736495982,0.0599765239,-2.9908019322,5.9257754894,-0.4426245214,0.8266715396,-0.4172039982,-0.0540901193,0.3090872455,0.3624564324,-0.3440165266,0.124156732,-0.8588513251,1.0313013649,0.2082072574,0.6944796421,-0.3410333709,-0.5128242771,-0.2962568988,1.0475678063,-0.0068381062,0.1440229527,0.9303245995,-0.3748757286,-0.0131927142,3.5040883365,7.855324415,0.7275363262,0.6633575105,-1.021789026,-0.6528165904,0.892640091,-0.321429514,-0.4638693834,0.0002849009,0.4622775396,0.8128514309,-0.8605484907,-1.0013734252,0.019517379,0.4546676778,0.2374302274,0.3517695885,0.4311669128,0.1252640733,-0.5974882865,-0.23727057,-0.0199843042,12.5816665776,96.8045950279,0.0677251313,0.4510365459,-0.9159316502,-0.4303372116,0.704860004,0.3660324203,0.4633081842,-0.0530136592,-0.0638285851,-0.9177507892,0.8094602788,1.0234038223,0.6815353871,0.3372281442,-0.1262480907,0.6210268515,0.0251554684,0.213811508,-0.339114643,-1.4387867707,-0.8556514916,1.1903342674,2.7427014973,0.5090548211,-0.9032862026,0.1579500329,0.0860258601,0.3941159135,-0.6816498179,0.2773550803,0.6178067359,0.9926571251,0.7104470639,-1.0963338173,-0.7194275713,-0.2305935017,0.5466705304,-0.2030571838,0.0473620235,0.3602433186,-0.4032024604,0.4167035491,0.7766665451,0.3846851944,0.6573556483,0.4479526485,1.0638338379,0.5444995593,-0.4233240205,0.7743114082,-0.6765318565,-0.7102451644,-0.4886677925,0.6984566232,0.6046031849,0.2586948239,-0.304587335,1.7607980481,1.5656365439,1.4361215536,0.7166213027,0.5975303813,0.829896151,1.1114810532,0.7158757917,1.643372773,0.5102373952,-0.0945982073,-41.8594211828,0.250960393,0.3464645112,-0.4452786135,0.5275206898,0.4199891572,0.5136007281,0.7298955703,-0.5926454859,0.7478266186,-0.5257238662,-0.1672840959,0.3091056025,-1.0166442503,0.6012299581,-0.5968441226,0.2740402528,0.1419980148,0.70854429,0.8178629664,-1.6433896354,0.4080284612,-0.6835156856,1.9327629701,0.0910663051,-0.1280874334,0.478773456,-0.1328920298,-0.6491707898,0.0775484823,0.5536832125,0.6727447697,0.3456996507,-0.3542060724,0.736700292,-0.8320310219,-1.162231549,-0.7503560645,0.0344548447,-0.4736095219,0.0673973974,0.634553943,-0.1005543612,-1.2290602398,0.8081798303,-0.9218426048,-0.0390008713,0.5370804608,-0.0526488441,0.4401880982,0.5282727045,0.6860772159,0.2916375588,-0.2711974545,0.6677302881,-0.5772579506,0.9306946585,0.1836743363,0.9436728559,0.0983800976,1.1646624753,0.935674076,1.0098850132,0.5660666626,0.3263876369,-0.4019438747,0.7423077328,0.7638491019,4.4718242569,-0.3618203084,-0.8242496611,-0.2898559721,-0.2265330549,0.4476110583,0.4770835832,-0.8522825096,-1.0676802051,-0.652554126,-0.4950005087,0.5302822652,-1.3921520125,0.1793126401,-0.3737745541,0.3734194984,0.0136312966,0.8368602166,-0.0914869083,-0.502066588,0.0114297649,-0.4554811226,-0.0734966341,-5.4379502058,-15.075065583,-1.1052875204,-0.6591767906,0.1754398213,0.8797677936,-0.8376780912,-0.8169853628,-0.3303301796,0.7108014415,0.2824214953,0.1125196654,0.3397047091,-0.8538723525,-1.4223510973,-0.8077410634,-0.268474184,-0.2396972148,0.050392842,-0.9892515399,0.5566026733,1.5386864846,0.2139455841,13.8974052029,-97.2559141955,0.4385272272,-0.4740548583,-0.8956097923,-0.5084570137,0.1007435448,0.6068732486,-1.0096513172,-0.081373091,-0.4366764878,-1.0782415679,0.5365821543,0.3106177838,-0.303561255,0.4469486902,0.1499147005,0.2921051333,0.6096869363,0.5278830568,0.0333887077,5.4277858693,-0.4876087886,2.5795881536,-9.9349047508,0.8921592968,-0.2481363387,0.24117685,0.8619104097,0.5318048455,0.2575763135,-0.2176014274,-1.0125653699,0.9240218276,-0.8258287346,-0.2418578589,0.815520472,0.7029815974,-0.998696617,0.0360894065,0.4510833662,-0.9468157904,0.4449054892,0.840117526,-0.5313176807,-0.5082439238,0.0577756557,-0.2095411316,-0.9483906782,-0.0821351727,-0.4049916167,-0.9953031386,0.3255555689,-0.0680907684,0.5233791781,-0.4521965868,-0.0372772637,-0.7778244373,-0.3559181945,0.0694622102,0.0221394137,-0.0590576117,0.154286853,0.0609167636,-1.1809411263,0.4533272294,0.0941754969,0.0088355481,-0.8663494029,-0.8689682825,-0.4918737565,0.7453400712,-0.119553877,0.0248166766,-0.0012911233,-0.3934488511,0.8721570252,-0.3335102015,-0.0946163341,-0.3396435839,-0.5511416612,0.0446226864,-0.5559057835,-0.5190174151,-0.6357012515,-0.1160200556,0.6424209919,-0.3583684321,-0.8044410485,-0.1681481906,0.5267933764,1.0969783236,4.7789948215,-7.2405272631,-0.1410326197,-0.9019379432,-0.3405445109,0.6577302161,-0.6107171679,-0.032074375,0.0571590625,0.006071336,0.3829411648,-0.0457991861,-0.2593575063,0.2392689872,-0.8165215982,0.63515369,0.5104067034,0.9382970476,0.5297224156,-0.132893901,0.4206726647,-0.8472643302,0.1393876094,0.9364587915,-9.8198293054,-0.9226424706,-0.9284206401,0.2897258756,-1.6278292034,-1.622440769,-1.3713582346,-0.8372284762,-1.7928668634,-0.074243368,-0.7668048711,0.3529597106,0.7317964229,-0.0326359353,0.2745618825,0.4744013933,-0.4604247828,0.0144944971,-0.0560197529,0.1876558639,0.251842555,0.8016792593,-2.3732023639,-10.6258264869,-1.0477962217,-0.8239809615,0.032061074,0.3771676317,-0.1699753711,-1.1392671369,-0.6155750049,-1.2557625477,-1.042443622,-0.2644530575,0.090657204,-1.0804551372,-0.7020675307,0.2126693437,-0.9573948444,-0.5148306758,-0.1921154841,-0.5813290634,0.3189697817,1.7124068888,-0.5508906267,-4.0867285271,4.5799634984,-0.159185388,-0.3807154833,-0.3271785606,-0.527336839,-0.6335545867,0.8082530251,0.0941475075,-0.5417569984,-0.4765303861,-0.4911716229,0.4532957515,0.0757006913,-0.1229056326,0.2567058137,0.3200871451,0.8241835529,0.1124532061,-0.2111987903,0.4114582374,-0.6327851737,1.130142206,-0.553429368,17.4753371737,0.0711126911,0.6872361347,1.2743883613,0.0499338686,0.6303280802,-0.7098384255,-0.4058161472,0.5919092327,0.9905771658,-0.1823669638,-0.756177655,-0.5167491205,-0.7849604556,0.1821044534,0.4901181187,0.5441530836,-0.215856768,0.5885675723,0.8663532923,1.0225649349,0.7185544978,-0.5004019968,-1.1850646621,-0.4700356201,0.5762705592,0.7188770887,1.2007809657,0.8917156111,-0.2916386245,0.6784210349,1.0808079784,0.0057010867,0.1846979718,0.795496755,-0.5088520012,0.1195235639,0.9653729433,0.1059903723,-0.3325725558,1.152800462,-0.0265643433,1.0823745742,-0.778395604,-0.7851988666,1.5185678259,13.7226925728,0.0954180041,0.5556159648,0.1875449203,0.8794834285,0.6450463266,-0.5464481923,-0.7780080293,0.1881460273,1.1717652979,-0.2386638662,-0.3879717569,-0.5197761464,-0.1189556353,-0.5134254358,-0.0965107194,-0.5747812002,0.624109878,0.0449065772,0.712108855,2.6965092373,0.4919956641,-0.5219337287,-0.967445044,0.1010605547,0.87958083,-0.2611808052,-0.7909756381,-0.7037659586,-0.313475901,0.0942319178,-0.9253050344,-0.250920758,0.6232212418,-0.5149303497,-0.2614893812,0.575143168,0.5867914243,-0.3025963414,-0.5187307931,-0.5906424312,-1.0516729455,0.3768932182,1.0659256788,0.1353223239,-0.5303935489,-11.4207543887,0.6967575386,0.6212248712,0.2228064997,0.4564829312,1.3174414036,0.892876736,0.1281299179,0.1858937258,0.179027585,0.8118922376,-0.5279485439,-0.5276343241,0.1808560742,-0.058398546,-0.5742757537,-0.9830429643,-0.1882411291,-0.0882455416,-0.0130523112,0.1047054846,0.0720638743,0.4866861787,0.6112995544,0.6884074004,-0.7177021869,0.3989749158,0.2940554005,0.448904649,0.4661989463,-0.4180472474,0.1411407953,0.7172526106,0.9497366235,0.7261046692,-0.2551140204,1.0230186757,0.1716436253,0.7001931402,1.1446820451,1.1657788503,0.7884631434,-0.1666956597,-0.0416818648,0.4360888032,-2.9407019702,-1.0981696098,-0.6503881325,-0.470408174,0.0391202643,0.222333127,-0.8732486443,-0.8074299331,0.4855619714,0.4188390012,0.2214834238,-0.1979495192,-0.3313780255,-0.2686426138,0.5436107844,-0.8875072638,1.0482081293,0.3365342605,0.7210035609,-0.1126615779,-0.9603909775,-0.0596485908,0.631910406,-0.397696423,0.4192763627,0.0822285555,1.3289299487,0.5506576393,0.8363674547,-0.1303308335,0.705606115,0.0419281446,0.2872838663,0.450803375,0.171314916,0.6702809223,-0.4921676425,1.1824644184,0.2261810295,0.2701745573,-0.5110899789,-0.4354402199,1.037725468,-0.6030822949,1.1179250247,-0.5781918274,2.5028013613,-17.2091696115,-0.1664901106,0.0833303234,-0.4335629262,0.0411025877,-0.5835116533,0.3789059081,0.6552187871,0.5088614483,0.6951087816,-0.7585918947,0.1787676093,-0.1412810261,-0.2698698184,-0.0902314122,1.4217964171,1.7051427146,1.0725917442,1.484465424,0.9609769454,0.0366607107,-0.9818182905,0.7328732071,1.0553213876,-0.2406192896,-0.2653424348,-1.2158423481,-1.3819325884,-0.7234168914,-0.8805773114,-0.3327072234,-0.4845952822,-1.0022048975,0.2784169519,-0.5835175175,-0.0374246884,-0.0954308242,-0.171315488,0.0303254204,-1.0182845491,-1.4042307681,-0.7622966928,-1.0905116658,-0.8992855935,0.0215213055,2.2395388868,0.1937146744,0.7188853364,-0.4831554976,-0.9939696071,-0.557123738,-0.2016869726,-0.2091383299,0.3178334654,-0.1836200238,0.4323099222,0.2237368778,-1.1421036753,0.2196226725,-0.2268092619,-0.3854936503,-0.0342202451,-0.4185426735,-0.5562633236,-1.2473781195,-1.0030715574,-0.0827485139,-1.0162780171,-16.028662061,-20.1167336741,-0.9660884205,-0.6841509879,0.4374236933,0.3817625059,-1.2046275952,0.7315672208,0.4225699306,0.2759466468,0.675747962,-0.0709959001,-0.0209974546,0.0158798522,-0.6634318558,-0.4339761318,0.4693073312,-0.7165293093,0.330889224,0.227273346,-0.2690545356,-1.8208851533,-0.9137176837,-0.9908433072,-0.5943842279,0.6503111767,0.2745638039,0.5741225882,-0.5550808691,0.1249151833,0.2845083991,-0.4683499443,-0.080497167,-0.2742784474,-0.2848318202,0.1385510036,0.1600460951,-0.5922822707,0.3560747536,-0.3015986706,-0.6854970834,-0.151137668,-0.9248460359,0.4194112431,-0.1314375696,0.1065137017,-2.9936057793,16.7581352169,-0.5677014815,-0.7117394524,0.6329749865,0.2231893173,-0.9903328543,0.2904615722,0.9722872585,0.4212569305,0.2160826095,0.4078283686,0.342335526,-0.164262176,-0.8690178082,-0.0187512304,-0.0552512425,0.2792158433,1.060933059,0.748349357,-0.371768663,-0.3469135455,-0.4264770231,8.4486193537,1.5762727879,0.6931980156,0.5098531657,-0.9253042343,-0.2732592792,-0.4005959452,-0.4704475314,0.1243932209,0.625302021,0.3184619899,0.7988676166,0.1860179732,-0.0014803669,-0.4116530021,-0.1953160802,0.614910558,-0.4577287274,0.4171777581,-0.6393291902,-0.8528472938,3.6552629181,0.5541116471,-0.57095359,-0.3040457075,-0.6211114212,-0.7866676558,-0.5819872569,-0.4984610913,0.8453738364,0.6075859919,0.6155839543,0.5442237489,0.4190128058,0.1496450002,0.6076415751,0.1853777675,0.2930485474,0.6623416929,0.1846271646,-0.935195428,0.2637412507,0.2724436775,-0.5303912411,0.3393225911,-0.050504202,-1.1889413466,-62.6928022778,-0.1314033585,-0.8833882292,0.9027324006,0.8538484418,0.7365542041,-0.95152317,-0.9315549853,0.2310867927,-0.2536109035,0.5179643085,-0.2877780445,1.0952296294,0.0908189791,0.0077387567,0.5126037676,-0.0512261923,-0.7062791209,0.7113929443,-0.5386790206,-2.0698245462,0.6767610109,7.2643530133,8.7997507616,-0.5544297502,0.6400744952,0.6170245284,-0.8732044621,0.2270083556,-0.9276365654,-0.668869486,0.3007249297,-0.1932962142,-0.5923237683,0.2998733175,0.5795898479,-0.7989545376,-0.1903808063,-0.2265048255,-0.4315347787,-0.5625775654,0.4789938594,0.3328333608,0.1318887489,-0.5883938714,5.1280460306,-22.6743635224,0.49247223,-0.5511393245,-0.8975227997,-0.9114755363,-1.0302187443,0.8126646491,-0.7693812365,0.0084881978,1.3284498251,0.6638410807,-0.0886222542,-0.9295718323,-0.2865149309,0.4932833997,-0.816823558,0.5698005606,0.5731407614,0.8338792879,-0.8349553331,-4.9365560941,-0.2917255877,-3.9719937904,5.8455884261,-0.173796243,-0.7441428046
   -0.7614885774,-0.1220370809,0.3863057442,-0.2614958141,-0.1056099894,0.0195266147,-0.3088949878,0.0899737448,0.2884469553,-0.720050295,0.7208506898,1.137484541,-0.8751640913,-0.3854187519,0.5620389157,-0.3995913074,-0.2809389307,-0.4564704855,0.1653055819,-1.2793067712,-0.1138879899,-0.7214236789,-0.8391080033,-0.1317291732,0.038040901,0.2786726688,-1.292265508,0.0934876292,0.1907233523,-0.8379103592,-0.185287638,-1.0940765324,-0.8476777605,-0.129136074,-0.8270696428,-0.9139310328,-0.9463051799,-1.4600302744,-0.1273150873,0.1040671064,-0.5143767865,-0.2925268239,2.8933169755,-5.0374408784,-0.6826370039,-0.3992572826,0.3163364501,0.0377603482,-0.6621688534,-0.3101882496,0.695644554,-0.8114017801,-0.4595205699,0.2176803455,0.8213966673,-0.79030918,0.4723292498,0.8631206485,-0.5094041491,-0.4931207367,0.7264969771,-0.1518634511,0.2853142047,-7.1875491228,-0.1099361047,-0.179350497,9.5017349553,-0.2782296051,-0.9216546407,0.1327468931,0.212023803,-0.4683438403,-0.7567420404,0.0531470419,0.2258484901,-0.0764946472,0.9890257275,-0.5625903462,0.288908897,-0.0476450068,0.8810097829,0.3934544303,0.312805377,-0.6822795116,-0.5991395289,0.8750258952,-0.671614376,0.2925127628,1.6249754505,3.9948365206,1.001319858,0.1087381286,0.3437839587,-0.5220277365,0.3427386139,-0.0561959459,-0.9680491763,0.1463460705,-0.0523307342,-0.7195190907,0.4607992725,-0.2754358726,-0.3542431498,0.3228526953,-0.9186112212,0.350341369,0.8865093418,-0.1667675523,-0.6943983513,-0.3879005314,0.414500179,0.3988406923,1.2968702134,0.9311611565,0.9090041903,0.5129952675,-0.0966655751,0.4417745025,-0.0743583505,-0.1862844647,0.7613228492,0.5657833753,0.0289954579,-0.2323137867,0.9647306643,0.5374119269,-0.6909824855,0.1377780468,-0.1204267206,-0.812439976,0.4680610985,-0.0430278289,0.3900514699,-0.3777024997,-4.0656553135,16.1619954624,0.6605387858,0.0311921679,-0.7565463473,0.429744823,0.8584264434,-0.8344161363,-0.6492861314,-0.0705823575,0.6214287391,0.5471377372,0.0214534842,0.9169184904,0.9133375796,-0.3819478124,-0.3905181304,-0.7532053074,-0.0219403401,-0.8170053047,0.1021453072,0.0421907974,0.7567457149,0.5558986613,1.027372245,0.0915501702,-0.6522986851,0.0492323492,-0.0391281491,-0.3514433449,0.6284573155,-1.1183017286,0.7369803247,-0.2812962392,0.5089785422,0.4584590002,-0.8678454674,-1.1018047576,0.8352747417,-0.3882513753,-0.7055579711,-0.0877263331,-0.6244172247,-0.2064186437,-1.2381282938,0.1099980803,-17.1468788914,1.7271130123,-0.1636454944,-0.3275210447,0.3331377351,-0.6233103882,0.5005355618,0.6763529432,0.1775017106,-0.9813862497,-0.0499234453,-0.8590344022,-0.0344298188,-0.8693502705,-0.8002238517,0.52439741,0.0569986034,-0.2810264482,0.4789867494,0.27007435,0.7621427782,-0.7484779221,-0.3532742855,0.5830131199,0.081466925,0.2000518266,-0.524896779,-0.9772356994,-0.0124833189,-0.8505011704,-0.546687385,-0.7425700911,0.269417335,-0.6700420029,-0.9816636549,-0.5757815929,-0.4480553234,-0.6993247205,-0.8963372652,0.4580775061,-0.8518892102,0.1080023475,0.1997480101,-0.4076452088,0.5741017433,0.5483610137,1.4538460502,19.6454382805,-0.2657708394,0.0107807753,-0.3019547132,-0.8921500135,-0.4624897088,0.2846176981,-0.8262036832,-0.9436741919,0.5193765756,0.35293619,-0.3916684728,0.6276962755,-0.5125090991,-0.586405169,-0.076323328,-1.0667185057,0.3251561632,0.3959506655,-1.0433254942,-0.7831573164,0.4406543339,6.566273073,-11.8528245713,0.7559686338,-0.7252968646,0.5603845929,0.7641002818,0.2099194294,-0.4118934432,-0.7512997434,-0.4420927231,-0.6940226864,0.2814116259,0.3742881408,1.1606674062,0.0846984126,-0.2547773075,0.304137604,0.7675279268,-0.1162473448,-0.595379964,0.9024371479,1.9198938457,0.9620497308,1.2372786174,23.5432565446,-0.0905693446,0.8890967512,-0.4715104656,-0.2381441883,0.501537131,0.8064500152,0.8514826692,-0.4403554283,0.0476048565,-0.1035018153,0.5087425798,-0.1733979412,-0.9557607429,0.0114409719,0.7912180137,0.1796882695,1.4452581251,0.4735180465,0.6962621666,0.9236101902,0.4634486709,-6.7675479319,10.2969984946,0.5036118482,1.0030718698,-0.1949296558,-0.8545798057,-0.22139388,-0.228233548,-0.6946821358,-0.5793847177,-1.1481055278,0.9612434626,-0.9745472432,-0.1419465273,0.602839329,-0.3762802723,0.2471850051,0.4668484547,-0.766190007,0.0221855059,0.3038641664,0.3401760753,-0.4674281383,-0.39225115,0.6641773393,-0.3108716987,-1.0065809482,-0.7913855318,0.7443134852,-0.4295373602,-0.2260664504,-0.472020562,-1.2007221274,-1.1573517825,-1.2095176491,-0.6715931917,0.0980835153,0.1126979547,0.5751549964,-0.5983550373,-0.4805470852,-1.0232549853,-0.1194129993,0.6645419446,-0.7835257783,-0.622144836,-4.109708548,-14.5048304099,-0.5867314318,-0.0481052733,0.9923594083,-0.6608948162,0.6856333784,0.3684757405,0.4524995682,0.612021626,0.1106997267,-0.5150099448,0.2025004752,-0.5414784435,-0.1718285198,0.7125888072,-0.0002880978,-0.8414725643,-0.0962621577,-0.2904535229,-0.658527551,-0.4500218536,-0.7670018775,38.0822487078,87.929274674,-0.3128039646,0.4935249588,-0.2430219638,-0.4358735082,0.2308383716,-0.9064281998,-1.0044832854,0.2113988512,-0.6184961246,0.7399766238,-0.0077404217,-0.9365131896,0.5608172587,-1.0171860077,0.05684551,-0.3112719782,0.1146174403,-0.0175592994,-0.627595157,-3.3691315088,-1.1158355134,-0.4105805089,0.0237725827,-0.0808412721,-0.072921527,-0.3036259405,0.4588379667,-0.5818893532,-0.4131542714,-1.190570767,-0.8409638908,0.4683041814,-0.1169274994,0.1595555619,0.273628759,-0.9893598863,-0.2587336513,0.3718976076,0.1126355375,-0.8657931305,-1.0139131237,-0.4919275943,-0.359396196,0.8565185762,-0.5595770099,-15.6722617297,-0.8864921815,-0.2711485184,-0.5567483298,-0.8131848969,-0.9368285184,-0.4890953725,-0.9205029197,-0.8877010703,0.6671023553,0.5036440723,0.4544522875,0.1535896896,-0.2064426861,-1.5953440465,0.1710719862,0.4212370327,0.4393745244,0.4550067175,0.2392616039,0.7325907879,-0.0106658764,0.1805476046,-0.0089434635,0.2367721186,0.6615361993,0.4836059995,-0.4634304545,0.3492445405,0.8511368519,-0.6288615883,0.2831366093,0.6562525671,0.6400128036,0.1833875703,0.7997572613,0.8811133389,0.796933029,-0.3474624595,-0.261946779,0.1956946321,-0.2123538065,-0.5290085481,0.3989636918,-0.863434137,1.5790643542,8.6357620264,0.5723126139,-0.0587021529,1.1092095449,0.7828927638,-0.7768262295,-0.138526199,-0.3122493235,-0.5136351828,-0.0851337701,1.2004034843,0.4655271699,-0.7405964976,0.6140158302,0.293897911,0.8601791976,-0.3196175949,0.4389181233,0.926357449,0.0747648736,-1.2540637573,1.356007196,0.0669448134,0.3136241087,1.4396931258,1.558332874,1.4128994828,0.5836402892,2.0543094081,0.8312039319,-0.6840470945,-0.5857286254,0.8723808249,0.796047994,0.3599166118,1.4412786162,-0.1192892557,1.3048541325,0.2681611408,1.2503768067,1.0262255492,0.5319747965,-0.398804328,0.1914202978,0.7759171854,-0.7734081113,0.6150617982,1.042984877,-0.6187619391,-0.1727179077,1.1304773596,0.7832411652,1.3427446502,-0.5975455585,0.661084296,-0.3969889949,0.1329020096,1.3150114587,0.0082943331,0.1175883113,-0.4975948584,-0.5765672886,0.0309077124,1.0851060333,-0.3366417886,0.3586361836,-0.5354340337,0.0895898975,-3.3005808804,4.1824134941,-0.6485122453,-0.7182353401,-0.4831674648,0.495779322,-0.3094312641,0.992803175,-0.2845172036,-0.6849904743,-0.201984739,0.3522403928,-1.0927608008,0.5108895272,0.2506664821,-0.0768603886,-0.7989975388,0.4353592508,0.1413518076,-0.8432789534,0.6884243675,0.1252067584,0.6247316681,-0.5693057988,0.2703622758,-0.410293768,0.0510405651,-0.9947603206,0.8950800933,-0.7475843651,0.3414249214,0.4147732649,-0.0956426153,0.6583889586,0.7752131274,-0.285698284,0.7460248066,0.1886933636,-0.1668392804,0.2238526989,0.5263905099,0.1460039457,-0.4097593658,0.3250331192,0.9097318104,-0.3336140363,-2.2860667101,9.5577905724,-0.6517211503,0.0356144276,-0.1141824205,0.2637251701,0.5755492881,-0.3732622288,0.7971723981,0.9804783334,-0.6793637921,0.5899113914,0.7783915478,0.8054977151,-1.0006201492,0.6338637028,-0.3884527513,0.8374947479,-0.3991180707,-0.8656980619,-0.4188405553,-1.576974285,-0.8466486587,2.8547192413,-4.5662909833,0.1424218168,0.8672764855,-0.5003243065,0.4149343614,-0.050337683,-0.2592936354,0.3468470938,-0.5418273611,-0.1166919214,1.3438365889,0.5509384706,0.4875820269,-0.4342643207,0.7602145511,-1.0386846147,-0.2711392962,-0.3193533417,-0.0957280108,0.0178620256,-0.7355595966,0.8857797197,0.0365916013,3.436890057,0.1562849961,0.1302782455,-0.5779320665,-0.0064713401,0.6795487952,0.5775452625,0.1917888421,-0.7207062222,0.36064447,-0.9147783102,0.6060608551,0.4324189744,-0.4701740493,0.0274539193,0.2056038978,-0.5096779374,-0.1890431938,0.1761478421,-0.5750061631,-1.0441550464
##end
biasActivation=0,1,1,1,1
[BASIC:ACTIVATION]
"org.encog.engine.network.activation.ActivationTANH"
"org.encog.engine.network.activation.ActivationTANH"
"org.encog.engine.network.activation.ActivationTANH"
"org.encog.engine.network.activation.ActivationTANH"
"org.encog.engine.network.activation.ActivationLinear"
