encog,BasicNetwork,java,3.4.0,1,1571333946945
[BASIC]
[BASIC:PARAMS]
[BASIC:NETWORK]
beginTraining=0
connectionLimit=0
contextTargetOffset=0,0,0
contextTargetSize=0,0,0
endTraining=2
hasContext=f
inputCount=22
layerCounts=3,26,23
layerFeedCounts=3,25,22
layerContextCount=0,0,0
layerIndex=0,3,29
output=0,0,0,0,0,0,0,0,0,0,0,0,0,0,0,0,0,0,0,0,0,0,0,0,0,0,0,0,1,0,0,0,0,0,0,0,0,0,0,0,0,0,0,0,0,0,0,0,0,0,0,1
outputCount=3
weightIndex=0,78,653
weights=0.4028423113,0.6759585388,0.7844519526,-0.0966100764,-0.2426410812,-1.6761601314,0.2387183005,-0.3384633464,0.3299627121,-0.2111928146,0.0866255868,1.294614962,-0.8785120987,0.3628471344,0.2591122802,0.9959803621,-1.133473108,-0.3881566034,0.9564552298,-0.3359781061,0.2221849567,-0.0463302872,-0.0749239273,0.1819008612,-0.7343654866,0.8393968616,0.1764051112,-0.4860073127,0.6981078412,-0.0092646321,1.1155773087,0.0812677364,-0.4198417746,-0.2575477069,-0.7866444544,0.5344060343,-0.1559271327,-0.6169555068,0.5086929951,0.6121174337,-0.004179209,-0.6117195719,-0.5208700726,0.3063321023,-0.641065682,0.5198355885,0.4965427655,0.7678136113,0.4973076813,1.0413860253,-0.3037271768,-0.316786901,0.1267189226,-0.4704969803,0.5334011235,0.2331193607,-0.4560202758,-0.0468028931,0.0286627442,-0.4377691188,0.062358705,-0.1701310155,-0.5935504635,0.049685171,0.1133523916,0.8185000885,0.9676058714,-0.1567193024,0.2105905234,0.6493966102,-0.432661397,0.0866163946,1.2497146695,0.627137019,0.0481660875,0.5218822595,-0.012564589,-0.2506576879,-0.1157819219,0.76840322,-0.2848506869,1.2554440024,-0.0931449737,0.6388672274,0.9766395162,1.0024909875,0.1466774014,0.5171842426,1.2990431243,0.296845803,0.5344128337,-0.2079061548,0.9742086192,0.1389396983,0.5831881256,0.1992900557,1.3470134024,1.255534608,-0.2290077906,-0.6048768416,1.3522775039,1.0199218916,-0.9511026325,-0.0692566646,0.7314626603,-0.1986005967,0.5582353951,-0.0324790326,1.4825021473,0.3046022509,-0.3102180345,0.2319588325,0.2160002574,1.5158090683,-0.1747749054,-0.1497810716,0.2469316306,0.0106995152,1.0680292235,0.3824626407,-0.3009201421,1.5307936243,0.4022448804,0.4580376505,-0.9053680942,19.5824994817,-46.0471949885,0.6890296534,-0.5965818854,0.3246873797,-0.7901940999,-0.5302731248,-0.9506716604,0.179516498,-0.6887028973,-0.9501472722,0.65198006,0.3116779628,-0.0112003741,0.381064768,-0.5701353838,-1.5293383047,-1.5395361051,-0.3125468571,-0.365408319,-1.0350559334,-0.9721778358,-0.021649681,-12.0177595036,-17.3601782988,-2.2189009314,2.1533642165,-1.6389210666,2.6775908168,0.4289819249,-0.0356735503,0.4340833997,-0.9980960739,1.1185560272,-1.0753262109,-0.0361085225,-0.6812271287,-0.2028263676,0.0175877592,1.3344859062,1.1429144382,0.2963146267,1.3052028953,-1.2054001311,-5.8686600257,-0.6408462823,0.8329935612,-0.6512538269,-1.1125475862,-0.442965124,-1.1830546648,-0.3956113202,-1.3175698525,-0.4562805216,0.135019918,-1.2869672123,-0.166555178,0.2723320239,-0.332895423,-0.97870377,-0.624164343,-1.1469891759,-1.2727307293,-0.9317273412,-0.3578328105,-0.3656435524,-0.9885082061,-0.4681582831,0.1773088612,16.2699681948,-97.5232077006,20.5636068285,0.0813860275,-4.2416903323,-4.7974684012,1.2448396374,-1.2250038804,-1.6249100956,-0.5591640338,1.4911907548,-0.4709085839,-0.5917702896,1.8308015604,-0.4530193023,-0.3649967888,-0.2596576567,0.7189405536,1.04370277,0.5300351524,-0.1174048062,-1.3490211904,1.5420283741,-15.3085908289,39.3873295194,-0.0278449736,-0.2619182165,-0.5410789749,-0.0306417377,-0.0326325951,-0.0383617979,-0.1257970728,0.6775198429,1.3041862791,-0.7792124,-0.1813405312,0.7750589912,-0.3885275759,0.668572849,-0.4520647492,-0.1869038156,0.8336292625,0.7368090283,-0.0534124221,0.1367650934,-0.9963380306,-0.7951650368,-0.3763075697,0.8172619225,0.8080355766,0.901610391,-0.4203284091,-0.8243461786,0.3286827785,0.0851338616,-0.535971718,-0.1412428717,-0.1897370649,-0.5575827794,0.1817416558,0.1150899092,0.1895888527,-0.5571210044,-0.6122607515,0.7412599479,0.6294857537,-0.6493488124,0.5977845221,0.5456842613,-0.5783609102,-0.6783247994,-0.0045382951,1.1178176021,0.4678028895,-0.3435140813,0.9040740352,0.1182749796,1.10119915,-0.2300332232,0.4098566601,0.6151194147,0.9717933712,0.4470205783,-0.4505746212,0.4494621402,-0.1349513327,-0.3608627399,0.1001963295,0.5339339877,0.5200359544,0.2428417704,-2.6346977486,-135.8761992879,-74.2448816257,-0.5908692155,0.0768341528,0.1346479978,0.4726202913,-0.2780689869,-0.2439332004,-2.8592721444,1.0590702226,-1.2816832808,-0.7464474362,1.445890018,0.6209059575,3.243987024,-3.4241734169,-5.1786481763,0.217717187,0.2738886852,0.8801010072,14.1196191613,7.8596110666,0.5953054018,-0.1415355806,-0.6290409115,0.3814325297,0.8279397635,-0.4728354729,0.2241694102,0.7568527006,0.8971904703,-0.308543123,-0.1089413493,0.5948015179,0.8089251679,0.3829159478,0.638359836,0.5320135549,-0.565213917,0.440583888,0.3344188827,0.3716588186,0.407338234,-0.5079586291,-0.7569837718,-2.7332604616,-0.0135670951,2.8854937167,1.3618458364,-0.541028522,-0.9133159046,-1.9448225222,1.0451373637,-0.8898573928,-0.5849015117,1.1162094454,2.0946609405,5.167786952,-0.0046603028,-0.0759606005,4.2226273451,-1.092545139,-0.130249661,-0.8562060634,-0.3494850733,-0.1930593589,-0.3383271032,3.0558965031,-0.2172757956,-24.5724731869,7.2009065537,-4.8616902972,-1.124967924,-0.2275818632,1.1291810708,1.2386014272,3.2119591115,-2.5140868825,-0.1593655038,1.0398611667,0.2868245749,-0.3022322238,0.2806770332,0.9495596558,0.4497378297,0.899390667,-0.2071598884,0.5710446456,0.8298066761,-4.4874540599,25.3092256164,0.7817553196,-0.7177362489,-0.2051302548,1.5530257232,1.290113395,0.8777095367,0.1758330086,0.6096288044,1.4474399813,1.3842671187,0.7487911868,-0.3971809022,-0.1992121962,0.0684895298,0.3747878212,0.3125904412,0.7625633132,-0.2098112732,-0.111912163,0.0359772747,0.8190121389,0.5851879914,0.2652108762,0.0069041305,-0.2196902583,3.009552121,1.9973724856,0.4323887584,-2.5479149395,-0.188387761,0.3021776693,0.0351932209,0.0031307288,0.0669792507,-0.0570025032,-0.0006059197,-0.0319942089,-0.0072837822,-0.0338175409,-0.0161744772,0.5019271555,-0.860060277,-0.1227143311,1.0569174867,-0.4142258284,-1.1752985156,-0.0711893862,-8.077164931,2.5089076792,0.1272689027,0.1842910519,0.5425858566,-0.6630481312,-0.1878938725,-0.0723231819,-0.9720347312,-0.0307678907,0.7777793293,0.051546454,-0.0124084026,-0.0000718361,0.0112312117,0.1214570314,-1.1256601732,0.7190151057,0.6925634689,0.1289140084,1.1452442393,-2.2730439355,-1.0133594917,-0.7551045365,3.8914623452,-1.1188882939,0.36802288,-0.6740564792,-1.422296178,-0.2036429775,-0.2022623329,0.0449303778,-0.1820013007,0.6696002697,-0.9994564413,-0.3235206177,-0.6175017361,-1.0792394034,-0.4987001349,0.0628258228,-1.0298364384,-0.0156978054,-0.0086029972,0.0901120067,-0.0208434697,0.4745816138,-0.2401142163,1.2221467356,-0.3325998502,0.0471654622,0.2140839739,0.4450742141,-0.393307647,0.9692046096,-0.5767269191,1.0206806169,1.0175436395,0.2818840189,-0.5597110039,1.184063232,1.1936445174,0.1332418886,0.2242655303,1.2206802436,0.9994148791,0.1039346199,-0.196357014,-0.6390645121,-0.0208115991,2.4253202452,-4.9794703497,-1.1290614282,-0.6805198475,0.7084801235,1.0845433029,0.6468294257,-0.0224745486,0.0575950578,-0.0121268154,-0.1727915113,-0.1427526683,0.0009413322,0.0052148275,0.0006364674,-0.0078950058,0.4494788072,1.6106962227,-0.6219404748,-0.3928542359,-2.186647266,3.5198283145,0.5879836909,0.3046647293,-118.8468468922,0.5376875761,0.7175883117,0.7519359479,-0.225829345,0.5312970625,-0.1003259089,1.0757776208,1.7193306354,-0.6613553654,0.9925782956,-0.4623418563,0.4477434821,0.6590734166,0.7582426917,0.8640536125,0.4151536263,-0.4239861157,0.3008017806,0.7111189166,0.5399121731,-0.7075039005,-0.3178841474,0.177545308,-0.0936402245,-0.9323436111,0.3548171171,-0.0873590564,-0.8500217941,-0.8204423901,-0.659991945,-0.6149159723,-0.0641350741,-0.5354879608,-1.2904146634,0.3680733314,0.3731823447,-0.6989807511,-0.5686733302,0.8259336493,0.4971600208,0.3845671518,0.6926810407,-0.3850140579,0.6653837171,21.2141160007,-21.7990089329,0.4986259567,-0.1636211633,0.5116744518,0.1168684837,-0.0214141776,1.0450144659,-0.3933118171,-0.0094194666,-0.0820602911,-0.2094531541,0.9913601173,0.8277131001,1.0899303421,-0.5521332731,-0.3177763555,0.6997506367,0.5429523257,0.8780430224,-0.5220400635,-0.1993008752,-0.9092289678,22.376111428,-95.9748408501,0.8039598512,0.2141775366,0.9956813604,-1.1096558316,0.2823243421,-0.3454810388,-0.3156128543,1.303358988,0.4325934264,2.3849902361,-0.2158002018,1.0681842554,0.56879639,-0.5921871292,-1.3583055616,-2.1135028071,-0.5404517126,-0.3295838249,-0.0985461987,41.8191877394,1.5100212058,-44.9697908593,-157.1495308987,0.2882187364,1.2878652954,0.9175209864,0.289284106,0.0218536508,0.1339040604,1.0561694427,0.7574589856,-0.3672680569,-0.7872728181,-0.1135668257,0.8866758515,0.0686235135,1.1137162383,0.1777076803,0.8268605282,0.2834361183,0.5430567961,-0.0977041359,1.0178892932,-1.4158488693,0.2434022867,0.2679940524,0.0068332782,-1.1309903818,-1.518707839,-1.3581160216,-0.9079944099,-0.9682663431,-0.3879356696,-1.0129260931,-0.4677991716,0.422108973,-0.7092341651,-0.9511654251,-1.0998954621,0.2126680887,-1.523399637,0.0626151148,-1.3091938285,0.3197118247,-1.1917242978,-1.2839834013
biasActivation=0,1,1
[BASIC:ACTIVATION]
"org.encog.engine.network.activation.ActivationTANH"
"org.encog.engine.network.activation.ActivationTANH"
"org.encog.engine.network.activation.ActivationLinear"
