encog,BasicNetwork,java,3.4.0,1,1571324942499
[BASIC]
[BASIC:PARAMS]
[BASIC:NETWORK]
beginTraining=0
connectionLimit=0
contextTargetOffset=0,0,0
contextTargetSize=0,0,0
endTraining=2
hasContext=f
inputCount=22
layerCounts=3,26,23
layerFeedCounts=3,25,22
layerContextCount=0,0,0
layerIndex=0,3,29
output=0,0,0,0,0,0,0,0,0,0,0,0,0,0,0,0,0,0,0,0,0,0,0,0,0,0,0,0,1,0,0,0,0,0,0,0,0,0,0,0,0,0,0,0,0,0,0,0,0,0,0,1
outputCount=3
weightIndex=0,78,653
weights=0.3667903216,0.6399065491,0.8202181386,0.3361622473,-0.2065890915,-0.2783168931,0.2029182768,-0.3024113567,0.2939107224,0.0905094182,0.0505735971,1.168851041,-0.5957759138,0.3267951447,2.4089663572,1.352668469,-1.0974211183,-0.4242085931,0.2825948939,-0.3720300958,0.2582369464,-0.0823822769,0.4868310117,0.1460986375,-0.6983134969,0.8033448719,0.2035253073,-0.4588871166,0.7416653934,-0.0074961695,1.0884571126,0.1900013523,-0.4521981472,-0.284667903,-0.7595242583,0.3845974141,-0.1288069366,-0.5194001604,0.3359245261,0.6392376299,-0.0634553788,-0.0952317434,-0.5479902688,0.3334522984,-0.0328499159,0.5469557846,0.4694225694,0.7949338074,0.07207635,1.007351743,-0.330847373,-0.2896667049,0.1269785351,-0.4702373678,0.6007496117,0.1990571158,-0.4562798883,-0.0081555194,0.058128226,-0.4380287314,0.0626183175,-0.0050470665,-0.593290851,0.0414359424,0.2277982341,0.818759701,0.4278202798,-1.0298942899,0.2103309109,0.6496562227,-0.6754751118,0.0868760071,1.2494550569,0.6273966315,0.1981502026,0.5466009809,-0.0128242016,-0.2503980753,-0.1157819219,0.76840322,-0.2848506869,1.2554440024,-0.0931449737,0.6388672274,0.9766395162,1.0024909875,0.1466774014,0.5171842426,1.2990431243,0.296845803,0.5344128337,-0.2079061548,0.9742086192,0.1389396983,0.5831881256,0.1992900557,1.3470134024,1.255534608,-0.2290077906,-0.6048768416,1.3522775039,1.0199218916,-0.9511026325,-0.0692566646,0.7314626603,-0.1986005967,0.5582353951,-0.0324790326,1.4825021473,0.3046022509,-0.3102180345,0.2319588325,0.2160002574,1.5158090683,-0.1747749054,-0.1497810716,0.2469316306,0.0106995152,1.0680292235,0.3824626407,-0.3009201421,1.5307936243,0.4022448804,0.4580376505,-0.7851980525,11.3869187198,-46.2758218276,0.6789595838,-0.606674644,0.3146336882,-0.8001225198,-0.5400051399,-0.9601219445,0.1707017138,-0.6962713721,-0.953838581,0.6225985194,0.2885960408,-0.026668641,0.3675440728,-0.5827323974,-1.5414030829,-1.5513311606,-0.3241530165,-0.3768704785,-1.0463701909,-0.9861976126,-0.0763482052,-13.7295343565,5.9743052705,-2.2989777782,1.9909225891,-1.977917514,0.6213964538,0.3838376087,-0.3448281573,1.128691734,-0.7082333994,1.1151380901,-1.0168690221,0.1252831261,0.1037884273,-0.5409946433,0.2426630254,-0.1011101753,1.4227748101,0.7839826919,0.6583271371,-1.2329583433,-1.3711493934,-0.6408462823,0.8329935612,-0.6512538269,-1.1125475862,-0.442965124,-1.1830546648,-0.3956113202,-1.3175698525,-0.4562805216,0.135019918,-1.2869672123,-0.166555178,0.2723320239,-0.332895423,-0.97870377,-0.624164343,-1.1469891759,-1.2727307293,-0.9317273412,-0.3578328105,-0.3656435524,-0.9885082061,-0.4681582831,0.1405365284,0.2608883647,-65.1195258569,6.4539750922,-0.0861108801,0.072587695,-0.6001948955,0.3578868066,0.1873239139,-1.9330393771,-0.5821489871,1.2610117701,-0.3852951282,-0.4442859544,1.2381467924,-0.3255373296,-0.3204473798,-0.2994246356,0.6765552551,1.0360681692,0.8263346362,0.3748402944,12.7422454562,1.5436697047,0.4553060845,47.0240114774,-0.0354840811,-0.2695276706,-0.5486262279,-0.0380195575,-0.0399872793,-0.0456977521,-0.1330146842,0.6704257757,1.297534083,-0.7777007894,-0.1787715122,0.7777750137,-0.3857664106,0.6713411135,-0.4492739568,-0.1841020144,0.8364372637,0.7396369594,-0.050557389,0.1378731106,-0.9963380306,-0.7951650368,-0.3763075697,0.8172619225,0.8080355766,0.901610391,-0.4203284091,-0.8243461786,0.3286827785,0.0851338616,-0.535971718,-0.1412428717,-0.1897370649,-0.5575827794,0.1817416558,0.1150899092,0.1895888527,-0.5571210044,-0.6122607515,0.7412599479,0.6294857537,-0.6493488124,0.5977845221,0.5456842613,-0.5783609102,-0.6783247994,-0.0045382951,1.1178176021,0.4678028895,-0.3435140813,0.9040740352,0.1182749796,1.10119915,-0.2300332232,0.4098566601,0.6151194147,0.9717933712,0.4470205783,-0.4505746212,0.4494621402,-0.1349513327,-0.3608627399,0.1001963295,0.5339339877,0.5200359544,0.2428417704,-1.0983132492,-37.1766924111,-17.1084167832,0.2856200772,-0.0616814694,-0.2479519806,0.1432807486,-0.5406727938,-0.5377769605,-1.7615189143,0.403793654,-0.220683933,-0.494179381,0.7254118305,0.0230579204,0.0779544028,-0.5595369331,0.5736304178,-0.4904596574,-0.1140727211,-0.2106953926,1.4838444693,25.3400265732,0.5953054018,-0.1415355806,-0.6290409115,0.3814325297,0.8279397635,-0.4728354729,0.2241694102,0.7568527006,0.8971904703,-0.308543123,-0.1089413493,0.5948015179,0.8089251679,0.3829159478,0.638359836,0.5320135549,-0.565213917,0.440583888,0.3344188827,0.3716588186,0.407338234,-0.5079586291,-0.7569837718,-0.6690425216,-1.2807137855,1.2034717844,-0.1512206906,-0.7025106051,-0.196590393,0.546044776,0.8538917094,-0.3157146838,-0.7698013712,0.3986909484,0.5118704927,1.2623692645,-0.0100649036,0.1312982139,0.6997817687,-0.1424638673,-0.3783963985,0.0620045595,0.5539728485,0.0915614839,-0.5560428398,0.6780560022,-0.0532634328,5.7149870955,-3.0766147608,-0.3025486216,-1.0878311373,-0.4262526358,0.5408133582,0.6452209628,0.5592332797,-0.2292763519,-0.0499928288,0.4046402024,0.1017460681,-0.0761433536,0.0634468691,0.2742712092,-0.201884179,0.4509440313,-0.5601118968,0.4938112447,0.4867292492,-1.6345122446,-0.1666196582,0.7817553196,-0.7177362489,-0.2051302548,1.5530257232,1.290113395,0.8777095367,0.1758330086,0.6096288044,1.4474399813,1.3842671187,0.7487911868,-0.3971809022,-0.1992121962,0.0684895298,0.3747878212,0.3125904412,0.7625633132,-0.2098112732,-0.111912163,0.0359772747,0.8190121389,0.5851879914,0.2652108762,0.0283767396,-4.4521274996,0.2231400506,1.3313191733,0.4821666043,-1.2969304657,-0.2718100138,0.0821881221,-0.0949088512,-0.0729019568,0.5622418198,-0.5179125827,0.0070125758,-0.2961636074,0.0326926366,-0.0016538747,-0.3438571864,-0.2094192328,-0.6923884504,-0.0220001396,1.0049871741,1.8484615563,-4.5461865871,-0.2080141888,-0.1059365067,5.0116744652,0.747363895,0.3459966056,0.6996673212,-0.5183882281,-0.0141245019,-0.04678656,-0.714010721,-0.209497164,0.8827063921,0.2604953926,0.0314965144,-0.0248208825,0.0985718877,0.0224157995,-0.0034758044,0.7888325015,0.494692812,-0.0021179012,0.1447980487,-6.304960886,-1.0133594917,-0.7551045365,3.8914623452,-1.1188882939,0.36802288,-0.6740564792,-1.422296178,-0.2036429775,-0.2022623329,0.0449303778,-0.1820013007,0.674671546,-0.9994564413,-0.3235206177,-0.6175017361,-1.0792394034,-0.4987001349,0.0628258228,-1.0298364384,-0.0156978054,-0.0086029972,0.0901120067,-0.0208434697,0.4745816138,-0.2401142163,1.2221467356,-0.3325998502,0.0471654622,0.2140839739,0.4450742141,-0.393307647,0.9692046096,-0.5767269191,1.0206806169,1.0175436395,0.2818840189,-0.5597110039,1.184063232,1.1936445174,0.1332418886,0.2242655303,1.2206802436,0.9994148791,0.1039346199,-0.196357014,-0.6390645121,-0.2516869707,-6.2761956936,15.0644063899,-1.0508444793,-0.7971187072,0.6850998208,1.084982627,0.7617055654,-0.1570255214,0.0514466878,0.1948030823,-0.6503902047,-0.1779953327,-0.6797418016,0.8562341076,0.0845898142,0.1043459299,0.8061121178,1.1134637034,-0.8902957808,-0.3805755485,0.3849210899,6.4017780105,0.5879836909,0.3046647293,-118.8468468922,0.5376875761,0.7175883117,0.7519359479,-0.225829345,0.5312970625,-0.1003259089,1.0757776208,1.7193306354,-0.6613553654,0.9925782956,-0.4623418563,0.4477434821,0.6590734166,0.7582426917,0.8640536125,0.4151536263,-0.4239861157,0.3008017806,0.7111189166,0.5399121731,-0.7075039005,-0.3178841474,0.177545308,-0.0936402245,-0.9323436111,0.3548171171,-0.0873590564,-0.8500217941,-0.8204423901,-0.659991945,-0.6149159723,-0.0641350741,-0.5354879608,-1.2904146634,0.3680733314,0.3731823447,-0.6989807511,-0.5686733302,0.8259336493,0.4971600208,0.3845671518,0.6926810407,-0.3850140579,0.6653837171,21.2141160007,-21.7990089329,0.4986259567,-0.1636211633,0.5116744518,0.1168684837,-0.0214141776,1.0450144659,-0.3933118171,-0.0094194666,-0.0820602911,-0.2094531541,0.9913601173,0.8277131001,1.0899303421,-0.5521332731,-0.3177763555,0.6997506367,0.5429523257,0.8780430224,-0.5220400635,-0.1993008752,0.3302969595,-3.7128044932,-81.9373503912,0.5499096242,0.1116138547,-0.6806299843,-0.5049536209,0.0037393167,1.0162633713,0.7320458074,0.2257169885,0.8036476468,0.5605821823,-0.3827272479,0.6968209744,0.4153866505,-0.7663576231,0.7989015325,-1.1610038371,-0.467335781,-0.2443753108,-1.7583363824,-0.1487039848,1.5367552644,-31.3880178006,-143.3733419237,0.2695257872,1.2692458019,0.899105887,0.2711649693,0.0041968892,0.1169776994,1.0405940539,0.7447174806,-0.3737845736,-0.7924720869,-0.1096105473,0.8919007798,0.0742692656,1.11957172,0.1837006837,0.8329545561,0.2896001862,0.549276064,-0.091440868,1.014249303,-1.4158488693,0.2434022867,0.2679940524,0.0068332782,-1.1309903818,-1.518707839,-1.3581160216,-0.9079944099,-0.9682663431,-0.3879356696,-1.0129260931,-0.4677991716,0.422108973,-0.7092341651,-0.9511654251,-1.0998954621,0.2126680887,-1.523399637,0.0626151148,-1.3091938285,0.3197118247,-1.1917242978,-1.2839834013
biasActivation=0,1,1
[BASIC:ACTIVATION]
"org.encog.engine.network.activation.ActivationTANH"
"org.encog.engine.network.activation.ActivationTANH"
"org.encog.engine.network.activation.ActivationLinear"
