encog,BasicNetwork,java,3.4.0,1,1571244640019
[BASIC]
[BASIC:PARAMS]
[BASIC:NETWORK]
beginTraining=0
connectionLimit=0
contextTargetOffset=0,0,0,0
contextTargetSize=0,0,0,0
endTraining=3
hasContext=f
inputCount=22
layerCounts=3,41,101,23
layerFeedCounts=3,40,100,22
layerContextCount=0,0,0,0
layerIndex=0,3,44,145
output=0,0,0,0,0,0,0,0,0,0,0,0,0,0,0,0,0,0,0,0,0,0,0,0,0,0,0,0,0,0,0,0,0,0,0,0,0,0,0,0,0,0,0,1,0,0,0,0,0,0,0,0,0,0,0,0,0,0,0,0,0,0,0,0,0,0,0,0,0,0,0,0,0,0,0,0,0,0,0,0,0,0,0,0,0,0,0,0,0,0,0,0,0,0,0,0,0,0,0,0,0,0,0,0,0,0,0,0,0,0,0,0,0,0,0,0,0,0,0,0,0,0,0,0,0,0,0,0,0,0,0,0,0,0,0,0,0,0,0,0,0,0,0,0,1,0,0,0,0,0,0,0,0,0,0,0,0,0,0,0,0,0,0,0,0,0,0,1
outputCount=3
weightIndex=0,123,4163,6463
weights=##0
##double#6463
   -0.2428799401,0.2075761601,0.6334556464,0.4235486785,0.8627124107,0.9407153489,0.3709801297,-0.3602311492,0.3145315365,0.0170325175,0.5738404601,1.2218823539,-0.1092297416,0.054293161,0.1541612843,0.0025772735,-1.1167322704,1.5492216761,-0.8752883033,0.3150100388,-0.658120783,0.1060272361,-0.9496637326,-0.5672540054,0.4936626382,0.1213350924,-0.0194283942,0.3406338112,-1.4098550742,0.105626069,1.1336136264,0.8572857263,0.2440394267,0.2868188065,0.4172538679,0.4760457921,-0.926445418,1.1578447709,-0.6125028067,0.701086175,0.4689929226,-0.3419006151,0.8232505003,-0.5955688444,0.0173247072,0.300473862,0.5277567117,0.4211291222,-0.987488857,0.5658483777,-0.0125949222,-0.0126518461,-0.0002789749,-0.4394537997,0.0089886468,-0.1666734991,0.0159196336,0.4665779398,-0.0004911147,0.4093237823,-1.1018520892,0.6660764083,0.3450630742,0.8725186445,-0.4877563819,-0.452851566,0.686996035,0.0670969012,-0.0310422231,0.4097334914,-0.8509493456,0.5263812077,-1.1079107648,0.0305178931,-0.0129024087,0.0087932616,0.8349082498,-0.3635406438,-0.0923469682,-0.8825668538,-0.6891054941,0.8259565645,0.9207071497,0.6714309948,1.0608562696,1.6345778006,0.2941009947,0.0393614796,-0.6023404603,-0.0841348315,-0.5869937691,-2.1608879605,0.0088413965,-0.0086138439,0.9036890318,1.8936752476,-0.8286671587,1.9333696638,0.9558066516,0.0051718297,0.9724895958,-0.0054211068,-0.0262929867,0.549252731,0.0067362911,-0.1274204976,0.0455061882,-1.2381898579,1.8500834884,-0.7341761774,0.3927637413,0.2175936406,0.229075052,-0.015702254,0.7260153983,1.6010761765,-1.09225014,-1.1198537388,-0.7383810143,0.734098587,0.1050599076,-0.4523495314,0.5706371941,0.4338230049,0.3571040052,0.2542744503,-0.6296434137,0.2036231908,-0.7655279581,-0.4145694241,0.6925148775,0.2600578062,0.9050387552,1.4685881326,0.0259728636,-0.3665441385,0.3948683354,0.69157471,-0.2968148391,0.1078186896,-0.1347846118,0.9753326097,0.5079769091,-1.0649372051,0.5310701949,0.7914543733,0.4405820834,-1.4256011295,-2.3303942974,-0.7261354775,-0.3150600216,0.4590002835,1.5734092819,-0.2496465752,-0.6496582863,-0.8465660506,-0.8279869599,-0.2028323267,0.5537927929,0.2563179203,0.2901507029,-0.1530466541,-0.2037961525,-0.1008972388,0.6754250331,-1.2896120344,0.3575356093,-0.1879357379,0.3813952139,-0.726765563,0.4634187339,1.5549204901,-0.4000265962,-0.5282132698,-0.0062676813,-1.4958821086,-0.1226769454,0.3856185459,-0.3674173177,-1.1043298665,-0.1429392092,0.6908191441,-1.104087248,0.1767311112,-1.4813291823,-0.8509713797,-0.0924539247,0.9953175114,-0.5656372855,0.5402153935,-0.9197640448,-0.8853535104,-0.250262622,-0.3856979522,0.1854385816,-0.7259234015,-0.2331280863,0.1241487967,-0.2432343702,-0.2501398079,0.5585296131,-0.7066171941,0.7317419511,-1.0943339055,-0.0057270146,-0.5545765239,-0.8494259273,1.4481275808,0.623389435,0.0102016685,0.4984369126,-0.9403812421,1.3874264018,1.3477917837,-0.0455785255,-0.7339997788,-0.1935806045,1.2934379329,0.0812385394,0.3514730986,-3.2449615034,1.1371309383,0.2467251105,-0.1498073197,-0.6678146784,-0.2107997767,-0.1022881245,-0.1599256011,1.1597557623,-0.038580382,-0.7433230546,0.2521982613,0.0931449192,-0.1483283891,1.0708737883,0.4547873001,0.0153499401,0.5827816607,0.1802107124,-1.0628517266,0.1507532605,-0.4880029733,-1.1215327096,0.1408298856,0.0999479218,-0.0665294347,0.7125335997,-0.4522715685,0.0105223124,-0.392417317,0.1316200187,0.7874853718,-0.4330394737,-0.4456680387,-0.6714348024,4.6895860837,-0.7828362277,-0.7584006012,0.0139547603,2.509147423,-0.0308767801,-0.2205744152,-1.1453971554,-0.1689488502,-0.8832808522,0.9758024927,-0.6317646075,0.127003466,-0.3635309117,0.4796896057,-1.3181603973,-0.5332634656,0.1199328884,-0.7036384666,-0.4157209142,-0.9638259039,-0.2643264265,1.9414029003,1.9669391483,-0.4804130719,-0.0589080684,-0.7972643375,0.0195587244,1.5937170877,-0.0388036594,-4.2015570641,-0.1125523002,0.0310053117,0.0637409963,-1.0615389602,0.7078914218,1.4895790469,0.6066617948,1.3247494751,0.9056303618,-0.1175211823,-0.4032286636,0.2655347851,-0.1618495294,-5.309165324,0.3619344033,-0.0976940324,0.6760662163,0.1801206361,-0.0295510001,0.9592214214,-0.1672842261,-0.6231764604,-0.2382998448,-1.033715915,-0.4389212323,-0.1109026757,-0.7385354514,0.0303359977,-0.6842947906,-1.1247074908,0.1661441961,-0.1596686696,-0.2416396966,0.002775594,0.0556560153,1.9399187183,0.6515238692,0.2407189781,0.9082216932,1.0248535089,0.4939949838,-0.0067963854,-0.9165805345,-0.189307335,-0.0226940919,0.533924248,0.1401193918,0.5575776113,-0.4421879613,0.3596687528,0.7335986072,-0.7116053302,-0.0018658287,-0.4899249217,-0.281807537,0.3673015128,-0.1978850807,0.4673089551,0.8508929437,0.1151357003,-0.5125291516,-0.5115163131,0.8713599649,-0.0146591189,0.0154133542,0.6126517184,-0.435391761,1.04494474,-0.1166683344,-0.7612811288,0.4312541663,-0.2841010453,0.3756687844,-0.4651462477,0.7875323057,0.3388673901,0.5799077421,-0.7253239346,-0.2018423464,0.86800257,-0.0046069459,0.7197762874,0.3610590778,-0.5921339934,0.6509733213,0.3523824885,-0.6808450125,-0.0006320194,-1.0756749158,-1.0088882517,0.3952393012,0.4212357867,0.4617383437,-0.6889752496,0.9025728752,0.3639971243,0.1213812259,0.0052617449,-0.0397158552,-0.0354761456,0.0379511556,0.9906237515,0.0146044116,-0.795291568,-0.4295129717,0.2205747183,0.3712938363,-0.9558509321,-0.5877031843,-0.1636292802,0.0252793979,0.2334938561,-0.0761247945,-0.1039655224,-0.0169676142,0.5306218449,0.1671326915,0.8401227817,1.0405549553,-0.9789018235,-0.1107334819,0.6213785343,0.6800405909,-0.4748744018,0.6913382303,-0.62447017,-0.1513478885,0.775822202,-0.088114919,-1.0978313853,-0.0038416979,-0.4701122544,-1.8927537373,0.2192485641,0.772446808,0.1274847562,0.0116730813,-0.2069911906,0.558386513,0.4991413338,-0.8225087923,0.4722224133,0.6295474491,-0.9346080059,-4.6163071679,-0.11483189,0.5242247636,-0.1628685905,0.2386764598,1.2601421686,0.9994051287,-0.3694774882,0.720564123,0.5382610981,0.8536074746,1.2126921941,0.0578745141,-1.0943008035,0.4056207834,0.0514781143,0.0474744668,-1.004316908,-0.733969158,0.0716214771,0.0844441271,0.9963970714,0.8527822999,0.1568882412,0.9272768803,3.0503802008,-0.5310176188,2.2320682699,-0.0354691191,0.2307849103,-0.4810510289,0.9575659351,0.538820024,-2.1117659091,0.9840392844,0.083037497,0.0462224048,0.5924594684,0.0895995165,-0.0587742932,0.7798478864,-0.0529913026,-1.0711841198,0.6096382352,-0.0773619507,0.1962834073,-0.4856150112,-0.7405326682,-0.7505361359,0.0395868666,1.781387463,-0.854159618,-1.4467275052,1.1772098207,0.5448968946,-1.0763547341,0.927970366,0.1077751392,-0.0610995943,-0.0168073236,0.3541336389,0.6345060415,0.1715517001,0.3606089284,0.4917910102,0.2321898333,0.8593215249,-0.4876375538,0.0097905774,-0.3281037157,-0.1708007723,-4.2476419398,-0.2140101978,0.0231496322,0.6578471855,0.8768936416,0.7900642928,-0.0648225461,1.2806011663,-0.4374062691,-0.0552042254,-1.2882364796,0.9753707914,-0.2513429521,-0.8291676542,3.4452413481,0.1633994738,0.3894432895,0.410547314,1.1397629046,-0.6886709421,-0.0053125822,-0.042361215,0.0601390185,0.1712543426,-0.0121355691,-0.8867437174,-0.1038989175,-0.8957610175,0.9807249329,-0.2635369725,-0.1954862865,-1.1759565092,0.4473798605,-0.1724146016,0.6161750452,1.0446901608,0.7603736458,0.2795889579,0.7605020963,-0.8887036981,-0.397692794,-2.3797679582,-0.0772494626,-0.4979495617,-0.3078281483,0.4187542557,1.1748297348,0.535307279,-0.7381172804,-0.0588835026,-0.0753097879,-2.4782248185,-0.1302265549,-0.0460020817,0.386120456,-0.5606708153,0.7534144193,0.0355397235,0.7995227673,0.382964886,-0.0632120864,0.2899144506,0.748703367,-0.3449387334,0.5964471678,-0.322818589,0.0840072138,-2.6065140672,0.4198119584,-0.8795138828,0.0631681403,-0.1671130619,0.6678539496,0.3824589285,1.2826989194,-1.0583680908,-0.3652413707,0.4851273893,-0.5852630074,0.0755053899,-2.4910332506,-0.9898278088,-0.6624612629,0.0396304683,-1.3754318736,-0.680707796,-3.3771331239,-0.7485536984,0.0372702176,-0.2834621053,-0.4151071387,-0.741802864,-0.0041502853,0.4228180181,0.4912021368,-0.7391921495,0.4531034564,0.619294028,-0.8025515416,-0.9949214773,0.519686185,0.1932687539,0.8689777846,1.3981507828,0.185985335,0.936458573,-0.9644017507,0.532762703,-1.0511833233,-0.4306251557,-0.8771126215,-2.1024001859,-0.6617850695,0.4688427381,0.6020760952,0.574524196,-0.7984041916,0.5769240619,-0.1822444832,0.9926380422,-0.1870314219,-0.5262357569,0.8779700347,0.8677484033,-0.957929924,2.5859385123,-0.6653564885,0.522589836,-1.1207040992,-1.4293127264,-0.6961510649,-0.5490050112,-1.5154493652,0.7719761548,0.3844637815,-0.8301964984,-0.1138228357,-0.4527985891,-1.0479805594,0.9035383485,-0.6718165514,-1.1809290488,-0.6863954771,0.1845604812,-0.5066783448,-0.7016015955,-0.4167946591,-0.2587967443,0.4169288728,-0.9359664621,0.2320193749,-2.1033727727,-2.3373352483,0.7615159732,-0.0406569312,-0.4941555434,-0.6937378891,0.5067480792,-0.5541288816,0.2106648669,0.5117010048,1.7298274557,4.6446024906,1.2819664814,1.2494942669,-1.6531110154,-0.8011740592,0.6142783108,-0.6018177214,0.979775898,-0.0487252982,0.1952992574,-1.5833344278,0.7391892348,0.6615736835,0.0842988008,1.6680113378,-0.3379515553,-0.059017948,-3.4793950417,-0.2410923248,-0.9162852499,-0.3488178866,-0.3122960195,-1.7491360429,0.8431319522,1.177610493,-5.2286904974,0.0489352427,-0.967814238,5.0753396696,-2.7911926224,0.5201472663,0.1739949985,-1.7613510219,-0.1565415162,0.2422194598,-0.2144955811,0.2863139059,0.2884909921,-1.0579395147,1.6575981162,0.7123289907,-0.7531414316,0.7960197805,-0.029252722,-0.3314426435,-0.8265559993,-1.3760149994,0.6764027906,-1.1801490126,-0.7847304921,-3.9699664802,0.1714468854,-1.7237294641,0.4073373057,-1.8018579395,-1.0080152924,4.431051931,-0.2062522241,-2.384704777,-1.174842416,-0.1022527729,0.8811017033,-2.6891404708,1.174814051,0.0713326461,0.6335465263,0.6248120439,0.6913401696,0.8964996717,-0.6581720732,1.3805139992,1.0767260858,1.4932206219,-1.5798415985,-0.1170636331,1.0948406754,0.9378063208,-0.0392928319,1.0185153116,0.0710884239,0.9574660864,1.6714190427,0.4766293773,0.2082900351,-0.9168611446,0.2185426117,0.5606936218,-0.2060974923,0.8702337471,0.8846291849,-0.119600934,-0.1671187564,-0.5537350501,0.1537707021,-0.9939330008,0.0610983072,0.5077115839,-1.8907409335,-0.7005510527,0.4998042717,-0.3038353841,-0.2688568976,-1.1196398243,-3.4341880544,-0.1028659666,-1.2716723576,0.7440479869,0.0789784412,-0.0551148759,2.3178229115,0.8870573407,-1.0243064833,-1.2748460684,0.4128774483,-1.016971131,0.7872493635,-0.494903344,-0.3014843046,1.0255309802,-0.2358550406,0.03124716,0.2394402002,0.6931870469,-0.6847486398,0.4937773227,-1.0609669333,-1.6930812731,-1.3330545456,-0.1048422564,-1.942253894,2.7605510292,0.0440243845,0.7896693329,-0.860127997,-0.7518105223,0.5624303471,-0.5078407298,0.3461455584,0.1430602139,1.0655035741,-0.8163250633,-0.5358113955,-0.7584601753,-1.3704875518,-0.7758140718,-0.432068608,0.5894862851,-0.2293131318,-1.419646786,0.4040133103,-0.0852357587,-0.6940265408,-0.4568218887,1.5510184151,0.2413576749,0.375708473,0.651773077,-2.5785806082,-0.5966242417,0.8576109211,0.975393156,-0.080039143,-0.9019350961,0.6132439293,-0.0639903292,5.0071205884,0.8084735902,-0.4176595662,-2.4379348926,-2.9688668585,-0.8112475794,-0.0049148675,1.1987834387,2.1883240093,-0.9781634263,-0.634112246,-0.0284690637,0.3290752752,0.5576096018,-0.1158486529,0.2858389665,0.4226258996,-0.0477881681,1.2042479869,-0.4571853407,0.1233464071,0.2373823033,0.3934193889,0.5901368179,-1.0780452152,0.6114736996,-0.3598205758,-16.4923573528,-0.913742408,-0.6309537478,-1.8372512468,-0.1461023893,-0.320767647,-1.119722244,-0.1086560034,-0.1308933683,0.1301929941,3.3886544348,-0.5704406304,-1.4267516348,1.3826165516,-0.7672917302,0.1898860276,0.3011793947,-0.7757682041,-0.8647900199,-0.8854049869,0.4865622378,-3.8074721665,0.9802877086,-2.0861086202,2.1123581142,-0.2119529702,0.2206125535,-2.9488198765,1.0410082513,-0.3516785917,-0.1069541795,-2.0471061174,-0.8309328095,-0.8252045337,3.2142269121,-1.5078817982,-6.5413721986,0.0070065389,5.729660998,0.4573691534,-0.1868079945,0.1058019867,-0.0482138894,-0.4859359317,1.3408559428,0.0265466444,-4.4254371942,1.1263965429,-0.0899524693,-0.703306925,1.2654389004,-0.7211614941,-0.608177693,0.5389951493,-0.0591188873,-0.461582345,0.7138063724,-2.4164699861,0.1680027103,-0.4383153938,-0.5560684771,0.7801407283,0.5389185203,0.6285159052,1.2962425129,0.6367057216,-4.0121713774,-0.3310059294,0.1128973501,-3.4364056776,8.5319204472,1.4550683918,-1.4781351599,0.4254659931,0.3233143594,-0.7923866748,0.5413649044,-0.9521361154,0.7101935528,-0.1676757492,0.2925592431,-3.1399146635,-0.6821490813,-0.0339573466,0.0848736232,-0.3577743333,1.0295297958,0.2366722717,0.6875292486,0.7743711177,-0.0626023858,1.4041307958,-1.6814455506,0.6885242876,-0.7562250742,-0.5389920599,-0.654341847,0.8421963228,1.2086567164,-0.0307629052,-0.6863592726,5.4562776633,0.3067182464,0.7189069885,-0.6480225665,0.1546328642,-0.7649275089,-0.6672292749,0.3931923617,-1.0781873868,3.4243693849,2.6268113874,0.2085265881,-0.1808477854,-0.1034216211,0.7614206345,-0.8191963638,1.2222170308,-1.1269423866,0.7465449476,0.6389713546,4.4913643962,-0.8108247646,-0.9004624215,-3.4456816213,0.8059221062,0.0623318933,0.5240997404,3.5462109646,-2.4318483748,0.099335452,0.2725066359,0.7179277657,0.4055413261,-0.8266114508,-1.6606687657,0.7357047372,-0.0821870069,-0.0407822611,4.9645920737,-0.6022620469,-0.8090695259,0.7219437922,0.8935685389,0.0916956402,-0.6374183042,0.915860248,3.5436090791,-0.7674641645,-0.243691282,1.0350620307,0.7882215828,0.1324679934,-0.2691210122,-0.7448052549,-0.6609440178,0.1152172584,-0.0209043258,-0.1121868851,-0.9829886112,0.0213211858,0.0746180066,-0.2142828144,-0.0423611982,-0.4013938504,0.9440979997,-0.7005359262,-0.9107113862,-0.5013003631,0.6277818755,-10.1629430222,-0.4462528688,-0.0212420442,3.2599886088,-0.699222877,-0.2647167004,0.099289814,0.8457772898,-0.6048106366,3.3523783835,-2.0566603539,-3.4781312811,-0.2722007288,0.2328523113,-0.6820168059,-0.5386365001,3.9999441936,1.126238111,0.720564122,-0.9135080065,-0.593305613,-0.5442438772,-0.5220117094,0.0710278112,-0.1912506462,0.8317400279,-1.3208492769,-12.1581748247,0.653666061,0.0395070116,0.401063927,0.7195766526,-1.983541162,0.7891567082,-0.944978544,2.4244038268,1.1496767087,-0.6049311809,2.9820507576,0.1632161951,0.6219993513,-0.7894020552,6.7620887828,0.6941691343,-2.2850071027,-0.440275399,0.7418040845,0.7244639296,0.3614251238,0.7290721653,1.4624699159,0.405065557,-0.7537256742,-0.7303082458,-0.542710956,2.1849724755,6.8840439877,-0.8721711434,-3.421573165,6.5154750238,0.8812289996,-0.4739311067,0.1802823354,-2.935041076,0.6808854679,-0.544340553,0.3483322363,0.3959955962,-0.7927554254,-1.8071264053,1.1503135976,-1.7926937254,-0.1606228184,0.805675583,0.5512988222,-0.3475724919,0.6246876765,-0.3942428478,-4.5353926632,-1.1938154643,0.1563434649,0.4483683334,0.4650193351,0.4578943469,3.1982687034,-0.797748093,0.8655358466,0.5707485655,-1.0297963614,-0.7467995648,-0.0962153961,-9.115003585,2.6444328832,0.3949219951,1.1626293339,-1.0918096789,2.220599295,-0.304773278,12.5777017869,0.4120948372,0.170079591,1.020960916,-1.4988397369,-4.4363552175,-4.5239330602,-0.0230314878,3.7628952834,0.9199004031,0.6416148368,3.9408412654,-1.543253856,0.2754177078,0.1872720613,-0.4348291145,-0.4589482508,-0.4717894231,0.7644021108,1.0527385012,0.5667624134,-0.9220300918,0.1587215973,-0.3667790413,-0.2871683669,0.3972464189,1.4805426377,-1.0018271182,-0.9850314502,0.6496314713,4.4628108822,-0.2817219066,0.6241664163,0.4636441656,-2.3621479329,-0.0957170078,0.1262117424,-0.2535096205,-2.46829473,0.2011467132,0.428612941,0.7192882329,0.3190851307,0.5515479006,0.2930450803,0.8617413415,-0.5174087703,1.0780765349,-0.9992388022,0.4647128684,-0.0111935329,-0.7082063281,0.4531918795,-9.8041596029,0.6176044207,-0.6380387471,0.0767081031,0.714134668,-0.2004517627,0.4833623039,-0.4663128719,0.436252554,-2.4452825059,-0.7839030693,-11.3050211373,-0.6948454129,-0.589180719,-0.2131317607,0.4416549572,-0.7741081621,0.6639527753,-11.6012559745,-3.4833221312,-22.6136198263,11.5668405349,0.5160891288,0.3214327459,-0.3561775886,0.6449763993,0.0503394413,-0.5833584895,-0.5469376543,0.4570868304,0.4504010529,-0.055637144,-0.3255227354,0.9189969087,0.9759867226,0.7163967448,-0.9337833238,-0.9747341149,-0.4660542997,0.5133813263,0.8795699525,0.6266773323,0.7518542247,-0.8725651387,0.332527378,-0.5934698992,-1.2858685761,-0.4318912899,-2.1352582961,-0.4507120987,-0.9235076491,8.1335520675,1.1651634194,7.4035730738,-0.1213356741,0.235553651,-0.4912463937,0.9207883066,0.406866242,1.5189595122,-2.4752298463,-0.8302638755,0.8478406379,-1.0035039935,-0.4156225209,0.5372576954,0.6167506481,-2.627653807,0.0685619201,-0.1320352882,-0.9019288429,-0.3578403972,-0.2405977237,-0.4028157016,2.6025399198,-0.6033361032,-0.81428494,-0.5538021569,-0.6099618163,-0.9299251888,0.8824560345,-0.5492850544,2.5764318654,-0.3517885212,0.3918380567,-0.1700600781,-2.2163415018,1.1293490764,0.2084738424,-0.1239287414,0.5254610558,-0.176748575,-6.5048473981,-0.6957608176,0.006850753,2.169017921,-0.2445068891,0.4454884214,0.615154307,-0.2751184253,-0.7295549005,-1.2528794412,-0.8898470564,0.5567230541,0.125765354,0.3883108671,-0.777849641,-3.4865634106,0.4275404489,0.8945871069,-6.7085465762,0.1293430012,-0.6572080923,0.6158907136,2.958147434,-0.53333588,0.3696697215,0.9048211005,-0.5510312435,0.0188314765,-1.0483647523,-16.56484076,1.1423579753,-0.8611364214,0.9616927044,1.3084550361,-0.7869914454,-0.5366165419,0.6582732422,1.0831520781,0.9342011872,0.2384727879,-0.7685215116,0.3162918877,-0.827421555,-0.5984734638,-0.6967701526,-0.0334680284,-0.5199832031,0.2471239241,3.6106596702,0.0545241888,2.2333330296,0.9492494117,-0.8425808897,-0.092611875,-0.6096334995,5.966484989,-0.8417125565,-2.3865613692,0.8858263475,2.6875337372,1.0991739135,-0.2423026877,-0.3803330245,1.8160503017,-0.1920666673,-0.0795345186,0.4329953503,-0.1968337225,-1.2933390586,0.0705539976,-0.9749812777,-2.0749011314,0.2610234367,-0.7742766211,-0.5610601894,0.8163331365,2.0922254829,-1.0749882526,-0.1973093233,0.6297027367,0.392783972,0.3192179557,0.6506550346,-0.0330159658,-0.888480425,1.0388850457,0.1801135084,-0.0452725151,-0.8972800817,0.7330795018,-0.8957874803,-0.0312683907,0.5115480437,0.1343361241,-0.6904438208,0.0134708108,-0.1724842899,0.8055565368,-0.115235501,-0.2819824131,0.5453392699,1.7954834152,2.2716151908,0.2253455189,1.4113265622,-1.4499869148,0.6593225582,-0.7992277911,0.3131111225,0.3768148652,-0.0836585772,-0.7387625355,-0.6114450658,0.2990550674,0.1243023979,0.0634910957,-0.2974084847,-0.9382693318,0.825257775,0.7180196211,-0.0305133021,1.3275429405,-0.4682065845,1.3616175252,0.1150997787,-0.5938424841,-2.2077134846,-0.9450364298,-0.4218302248,0.0500045368,-0.0132520178,-0.0536555187,1.0265591867,0.849462147,0.1537133447,0.623937867,1.9956529666,1.0727149448,-0.1372999588,0.4603876522,0.94693524,0.2486433378,-4.5360650253,0.2319857284,-0.0261939232,-0.4447374904,-0.4409352688,-0.7487480024,-0.6245402909,-0.141852191,-0.424963455,0.0077669295,0.7712599282,-0.015273385,-1.1525536101,0.7606882799,-0.042664099,-0.5119061078,0.60080811,0.3903046878,-0.0196141932,0.5821930137,0.0654121688,-0.0074498239,-0.3674380462,0.0913210511,-1.2087485332,-0.5981279711,0.0738589724,-0.6098685803,-0.4819367227,0.5033161354,-3.4978888363,1.0693749744,-0.8249896524,-1.2100592773,-0.6068397808,0.7624492461,-1.0528396485,0.6151512103,-0.5422287812,0.1248934833,-0.4969955765,-0.724939355,2.3723776226,0.8096647262,-0.775709865,-0.3390343755,-0.4829911463,0.391881747,-1.1557513769,-0.9586895543,1.2642835229,-1.8483699518,0.8681006448,-0.845460901,0.4641079652,-1.6100278902,0.8393197312,0.6872980834,0.0884265722,0.1845262171,-0.3557481065,3.7114844681,0.3991485896,-1.6205532564,-5.4068605018,0.5127404843,1.0483085204,-0.6149757208,0.9880563845,-0.4879155073,-0.2043886169,-0.7202266933,-1.5235417439,-0.3123107221,-0.2915660657,1.6253872588,0.6852605966,-0.0266407437,1.2619594756,-0.0069178395,-5.6052356016,-0.9362538129,0.441934637,-0.5787862828,-0.3676621442,-0.2435768448,-1.067692411,-0.4519416446,0.0537914581,1.1729382553,-0.3217164979,0.4828598099,0.0929364927,0.5051221053,0.9602099308,-1.3578679924,-0.5905275473,-0.8915943501,-0.1941492977,-0.4031868455,-0.3580181915,0.4738740817,0.4727759701,0.9605734667,-0.0133427085,-0.4200574023,-0.6457997661,1.5206574392,-0.3448435233,1.0506456556,0.0634334412,3.2314720868,-0.6732008262,1.0781198741,-0.0829826265,-5.4529577825,-0.1822124485,0.4948265913,-0.8596395627,2.1650806841,-0.3684639564,0.0108165172,-8.0070552958,-0.3891833382,-0.4572960152,0.0755754335,0.4686781689,0.4615994499,0.2292243719,-0.3825668547,0.0285272867,-0.5290205319,-0.9833965432,-1.1265657203,-0.1462331135,-1.1658962069,-0.3138743781,0.8666934592,0.4166307652,-1.6203050773,0.9174969957,-0.1906656449,1.0096300165,0.3865360293,0.6130911219,-0.2303371786,-0.767451067,0.052677345,0.4591588931,1.9956098773,0.8773418932,0.8104523493,-0.8049025232,1.0558085359,-0.4199758266,-0.6912891593,-0.891987476,-0.5508206223,0.2770189884,-1.3549294119,-0.0254954243,-0.0198239359,1.0544918776,-0.018811263,-0.9589769266,0.0553500118,0.7783192378,-0.2980261906,0.771203526,0.691548975,-0.8272237856,1.0738779182,0.6438715536,0.6945908715,0.086725014,-0.5023028165,0.4384926118,0.0292206353,-0.7709436024,0.8663305569,-0.7319053137,0.1433693527,1.1097221576,-0.8475838211,-0.4524285773,0.7122227371,-0.1870062126,-0.8730642311,-0.4962991574,-0.979520547,-0.5795353306,-0.8147107744,-0.3868544383,-0.8820168897,-0.192338768,-0.4499150945,0.3425745716,1.4683162778,-0.3940666921,0.0327501569,1.023912911,-0.2360727617,0.1425866887,-0.1313379387,-0.9836221338,-0.4461279398,1.3256534567,-1.6052012113,-0.273562385,-0.3111861793,-0.5095436564,0.1691045931,-0.9084875867,-0.4889450337,-0.3451568289,0.2884304989,-0.6712855067,-1.1175865606,-0.3771754939,0.5554596933,0.7354535467,-0.6203216472,0.6102285063,0.5051027889,-0.7154434239,-0.0640401653,0.3087215462,1.1677183972,-0.6164129766,-0.1198626009,0.6924484548,-0.62262177,0.3087073063,-6.4448557447,-1.0142184407,0.4978733117,0.6657865207,3.4702546883,0.8811430962,0.1605119536,0.596272945,1.1264419821,-0.2072032446,0.3995226737,0.047225999,-0.232350662,0.7834920031,-1.071643889,-10.0549882016,0.4071186725,-0.1583744698,1.0027640936,-0.6710828469,-0.1597222817,0.9146797592,-0.7240309598,-0.5396576781,0.2631814082,0.2956840905,0.6897665762,-0.2863483299,-0.5715678827,-0.0799693002,3.910384611,0.3741845059,-1.4072367952,-0.412899662,-0.0133666861,-0.8944728756,3.8466309608,-1.067783816,0.0079537503,0.9064574607,0.1681573002,-0.2447651685,-0.8456911206,0.4847164008,15.6687494623,-0.2105499286,-0.3339958168,-0.3150254779,-0.1014710069,0.0010659006,0.9298825214,0.9063661577,-0.1833371498,0.1054985503,-0.371833426,0.6453497034,0.1892912648,-1.0224249446,0.4478256275,0.1378378048,0.3894027307,-0.1825582435,0.5382103068,0.2118365977,0.4309423411,0.9828811056,-2.9027040762,0.5406279796,-0.6407877075,0.238751755,0.0851889074,-0.5131236101,-2.8096307321,-0.1086551935,0.4944294966,-1.0268779772,-0.6759432188,-0.3616158378,-0.4952300289,-10.9382516273,-0.9162340385,-0.923714418,-0.4272485753,-0.438788834,-0.1036340518,0.5972640385,-0.3325752402,0.3433201816,-0.3963207516,1.0821999906,-0.0194482183,-4.1846163325,0.1814554442,1.1875824061,0.0783555927,0.1770611896,1.1756013967,0.5927413007,0.1623141731,-0.9237889421,0.7321073458,0.5012165703,-0.5152899822,0.2166469517,0.303543294,0.4996050533,0.8775666808,0.9738860614,0.2498100798,-0.4545387459,0.5890704079,0.7985118886,-0.9111600747,-0.5798809466,-0.930881428,-1.0968124796,-0.9156669202,0.7718229632,-0.4714545116,-0.4212673389,-0.390464721,1.8339100241,0.7400589289,-0.2760072173,-0.0999216033,1.1175171018,-0.2284099427,-0.8536497411,-0.1130708496,-0.6068888264,1.7635641482,-0.2449344754,0.7049097809,0.4314716204,-0.3980212167,0.4772916527,0.7015205606,1.0170699149,-1.3141124033,1.3115740448,0.907853625,-0.1834276284,3.7510768337,0.7278912268,-0.2151444902,1.1528077262,0.1579930667,-0.5937732881,1.9093417301,0.4395969049,-0.307260231,0.542396583,1.8077728589,0.7044366949,-0.5721783847,3.0235846169,0.4814619119,-0.3797179708,0.0943011713,0.0761045955,-0.9954745438,-0.5160727564,-0.101597335,0.7154354793,0.809357875,0.0533955366,-0.4079719845,-0.8764478927,0.4804298768,1.1322021642,0.9712671554,-0.7472756319,0.8241080116,0.9441730325,0.6367299462,-0.5153073178,0.6447250365,-0.4748673206,0.6261583279,-0.2035961537,5.8895441464,-1.7542052267,0.6824519647,-4.5998125138,0.4120047171,-0.0899730627,-0.1642057283,-0.3722115268,-0.5185509185,-0.3680391947,0.2907584743,-0.6889073328,0.8681960927,0.5088009606,1.0328363763,-0.2466510354,0.628077529,0.0302380708,4.40312957,7.3825351379,-0.1500183348,-1.01171329,6.7820427284,0.7095451495,0.5773649148,-0.0054928284,1.3251624591,-0.4072910998,-0.9310601874,0.2746145132,-0.1230763124,0.5731610806,0.1622336891,1.6256764243,0.1256690914,-0.687206127,-0.7297384257,-5.748407667,-0.7584795553,0.9138200794,0.0297562296,-6.1242747881,5.8564352228,-0.8040219158,-0.6481356248,-6.2254169173,0.0119583268,0.7156779721,-0.2442480192,0.3631129389,-0.537244745,1.7872137381,-0.4534003357,0.2730351406,-5.029779414,0.052438484,-0.7305991553,0.6931624287,-0.0421475022,-0.4928434008,-2.1796470596,-0.1405392128,-1.5360711422,0.4836453048,-0.3084080706,5.7579773364,0.0340776428,0.1528868024,-0.0128783441,-0.5565144861,-2.2249116124,2.7687677578,0.1767971441,0.6039328833,-0.5132521976,0.3277130836,4.719631275,-0.2261713852,-5.7558363076,-2.4446513776,-7.5756304289,1.416035615,0.6043059946,0.4594657633,-0.8185053825,0.827637952,0.3185503155,0.8340247864,0.3202366195,0.0033403557,0.6159255668,-0.8275757205,0.5142608025,0.5535313968,2.1216790266,-0.3766509766,-0.919945726,-0.958454632,0.1924085191,1.2827028845,-0.6299134749,-0.4068190089,2.7565252056,0.5579709323,0.4227688018,0.3629094589,3.4631326549,0.8737940194,0.0405820638,0.1547526534,0.6333346557,7.5831386346,0.6599878701,-0.506592873,0.9163181979,0.1319049404,-1.2469141358,-0.0145060186,-0.4749565097,0.491433394,-0.026237575,0.5031895497,1.3980868079,-2.1260543332,-0.1798152086,-1.2415609166,1.0597124408,-0.053976643,-0.9305916464,1.0440323292,-0.9373275638,-0.8002094635,-0.5171514322,0.8415662803,-1.5605897469,-0.1352560021,0.0824015452,1.9978594968,3.242804801,0.3432668602,0.5732241199,-0.5559132949,0.5453717523,-1.0400899834,0.0153165182,-0.3597378863,2.5916394565,-1.5329696714,0.0876550256,0.5547132738,0.7556948541,-0.6875657021,-0.2479440609,-0.2243655978,-0.0048349228,0.8731177048,1.3158675266,0.2165967213,0.9362336377,2.2861106255,0.6968291929,0.1009039861,-0.8647884841,0.0963018849,-4.9664685448,1.0723544933,-3.8621680065,-0.1856274913,1.2177771888,1.2097533464,-1.5070548195,0.1382840176,-0.3483184386,0.1097231695,-0.2320167944,0.1637239999,-0.8015042743,-2.6300505251,0.6999102502,2.514030118,-2.6622942753,0.363823108,0.3394968724,0.1628060381,0.2743057656,1.7405693926,0.8995847378,-0.0842716809,0.589031527,-1.8061587785,0.1232272468,1.3262685201,1.6236924405,0.8449095936,-0.8217680419,-0.2630066222,1.3074339215,0.4329540916,0.2955510055,-0.629227262,-0.5360586514,0.9233292391,-1.4249510104,0.9790398166,-0.5460505145,1.8384152633,1.2761062008,0.3970817418,-0.4447207511,-2.2184304763,-1.022042429,-2.8146732054,-0.0969633337,0.4599212852,-1.3087158501,1.7962653958,-0.3529494341,0.5138419254,-0.9189567053,0.7703568876,3.8989477506,-1.271556844,-0.6922039259,-0.8447916524,8.965939567
   -1.124280657,0.2177277538,-0.0817036057,2.8183413392,-0.6463286042,0.6217593643,0.0680094905,-0.2955418429,0.5003406185,0.1624844853,2.398443631,0.5345465701,-0.0219950098,0.7317216942,-6.6121459857,-0.4818486163,1.0303254671,0.7012056662,-6.181745174,-0.5787072239,0.8901356483,0.3033357486,0.8279030024,-0.097193014,0.7444348056,-0.4411305113,0.4614535853,0.4590859886,0.0068326567,0.628026102,0.1176109698,0.9511264424,-0.2197622695,-0.8555050512,-0.0694930137,-0.1259402338,0.6264943014,-3.1455904513,0.0702235219,-1.5573621627,1.3755861076,-0.5745620341,5.7807682726,-0.3715953515,-0.9346108278,-0.432735876,0.8251800643,-2.3762182196,-1.0325636953,-0.6871508257,-1.083111174,0.442291163,0.3269916106,-0.8276205385,2.247775465,-6.1429305011,-3.815967559,-10.1053220343,0.2370499751,0.8277980823,-0.0287202609,-0.6076029567,0.8888815045,0.1240486951,0.9002139265,2.0263356175,-0.2837024002,0.2394856771,0.1635455573,-0.0028953288,-0.3560761991,-1.9616793119,-1.0223957412,0.0786888405,-0.7277647507,0.885487129,1.4481369796,0.3501118482,-0.7384776479,-0.818192099,0.1702151785,-0.6081179055,0.8243841778,-1.2680645059,0.9284800006,0.407707973,0.4652825208,1.0369472215,6.0953581419,0.6078655717,-0.1781997705,-1.5361375433,-0.0682429531,-0.2157796506,0.8037169965,-0.8433847598,-0.9987312857,-0.1688308494,-0.3965646086,0.2871391646,-0.4792445162,0.4946490074,-1.0796110168,0.7706185038,-0.3020903595,0.2279670455,-0.7865959686,-0.7504843913,0.406361818,1.0024152025,-0.5959073857,-0.9067979227,0.2029773747,-1.3740164978,0.4895273491,-0.4876995001,-0.4134153792,0.0403743327,-0.9037938837,0.9780992826,-0.2487156487,0.4954484793,0.8698654238,0.0612455598,-0.4571360828,0.8787425487,0.1865517783,0.9947127972,0.8888631085,-0.6604775513,0.21498922,-0.929982716,-0.670971883,-0.7573763273,-0.728148976,-0.4692647614,0.7312798407,-0.9116599101,0.1690643287,-0.6209350956,-0.9174522473,0.9965878557,0.8470525581,-0.3822025497,0.8582619935,0.1360753107,-0.067598558,-0.401908514,0.7057427877,-0.6884949033,-2.2341559606,0.8549122273,-0.7492841,-0.9081294436,0.6353442209,-0.1393432991,0.5212699702,-0.1598695178,-0.2592814964,-0.2205546546,0.7274540213,0.3712655738,0.8567328212,-0.0225524201,-0.2500756972,-0.102404124,0.8301983934,0.3781131169,-0.5124343027,0.2641313048,-0.0134666909,0.0411993377,-0.086048142,-0.0476388854,-0.6428692046,1.0338010461,0.0115595071,-0.6637384221,1.4369731108,-0.0954213808,0.837417112,1.3090115561,-0.7257484246,1.0604471697,-1.1391723226,1.0892571061,-0.9272786912,-0.3634679687,-0.5066719977,-1.0979079619,0.4051307134,-0.2823395504,0.9476322117,-0.5103892489,-0.4596215768,-0.010954592,-0.538555248,0.0746195309,-0.4219999857,1.3369347055,-0.1470296245,-1.8957671882,-1.6974280816,-0.5305699683,0.2924944935,-0.7908466575,0.2585187367,-0.0686614751,-0.6087304075,-0.8366583841,0.537265968,0.4763158539,0.0599550356,0.523621285,-0.0274113474,-0.0107246712,2.0600664393,-1.3190524585,0.478472248,-0.8992605251,-1.0805284058,3.2790121423,-0.9892624789,-0.6315310166,1.1412876658,0.5833332562,0.4822341991,-3.1694330665,-0.4166667602,0.8620855288,2.4084486018,-0.7130431872,-0.127056346,0.7698613493,-0.2779885927,-0.9428119087,0.3194293221,-0.4478308539,0.2424858822,-0.0647755289,-0.0381255287,-2.4010912013,-3.2925135244,0.3421132635,0.1151565179,0.1618462576,0.0411916187,0.9015272474,-0.6174915993,-0.5677282158,-0.6567564276,-0.0415129829,0.072618744,0.9182302081,-1.7917872717,0.2947137765,-0.5531345079,2.4312584174,-5.266329441,-0.3290354045,-1.3025205489,1.1918905032,-0.476212389,-1.7568729661,0.2832941652,-0.1793168439,0.0702643918,2.9554495786,-1.5086144443,-2.4776975475,1.5755047896,-0.5582582581,-0.3889529554,-0.1571758262,-0.6438857576,-1.2509055226,0.0642400812,-0.5628944753,-0.0985884254,-0.5312266948,1.6939653081,-0.5932275653,-0.6589895144,-0.4903054859,1.0109474805,-0.4609929907,0.1374994096,0.0262245565,0.3147742879,0.0773677732,-1.0863117966,-0.3689323044,0.4648184579,-0.0319304978,0.3007620988,-0.5912602619,-1.3235422885,-0.3423566043,-2.941172432,1.8405231341,1.7277721172,-0.7831061357,2.3725003236,-1.1379721767,0.2856194503,0.6857749109,0.0150161301,-0.693557509,0.9590335336,0.09211993,-0.0230849257,0.5737722225,-0.2381671458,1.9526688488,-0.8432982478,-0.9914302748,-0.385477286,2.3546606199,-1.1851025036,0.6950777963,-0.5021114376,0.484080526,0.3631907006,0.5013650809,-0.2921068983,7.5007895132,-0.933368979,1.350916757,-0.7571075778,-0.5014765044,0.8121200203,0.4320077588,5.0120379889,-0.5373047241,3.0995415303,0.5444517825,0.1330507091,0.3445069272,-0.7647594943,0.1706323902,3.0043502794,-1.0749039044,-4.3215398823,-3.1251504355,-0.0365903303,-1.6299523409,5.2140552419,1.2810898941,-0.4412540083,4.7666642907,1.3684162802,-4.4979149926,-0.7416203039,-3.7138154961,-1.5616647647,0.7277524458,-3.138090388,-0.9336900152,1.1193694274,-0.7840424524,18.4841401484,-3.965589766,0.8471129566,-1.0244315296,2.5207871246,-1.0381650977,0.9464328182,-1.2201870506,-8.5770658862,2.0267000132,-1.2135861986,-0.5498914831,0.4348884768,-0.3961054739,2.9865784427,-0.5447698314,-0.8165811783,-0.2127848172,0.2590206118,-0.4886270112,1.312822502,-0.018725183,-0.1722960676,0.8709328957,-0.0537958932,-0.3090585498,2.793266837,0.0021547989,-2.8909774634,-1.0758582067,-0.5260233282,-10.7452659947,1.8935377587,-6.4338880211,0.2180154459,-0.9681002745,-1.3082350001,-0.1252280246,-0.2929944458,2.1524173633,0.3931109192,-0.9298597111,2.4263624744,5.7587784996,1.8724946043,-1.9077661332,1.1689695924,0.4437779709,-2.2368784109,0.9320586766,0.7486454188,-0.9159263143,-0.5765813158,0.8175292599,0.492868224,0.5389333631,-0.5684413331,0.314903498,-0.667486043,-0.232915144,-0.0032746702,0.1425851349,-0.6061290041,0.1276196161,-0.7791751308,1.4716648521,1.6525710492,-0.83385056,-0.4783353175,-1.0471985218,-0.0366840959,1.1271126977,0.5020185472,-0.7361282186,-0.4096647788,1.1342982881,-1.7580056759,-0.1849153601,-0.2881880384,0.4225249835,0.6226286204,0.1012342158,-0.4332467058,-0.625836261,0.6164062981,-0.0642204581,-0.0259097834,-0.4116860685,0.1177876973,-2.0316536778,3.2921459305,0.8076289665,-3.0826338039,-0.2921138172,0.5348724028,1.4640771022,0.0307277078,2.8276093895,-1.1304191649,-0.5396159889,0.9505872366,0.991924593,13.007287556,0.4546197299,0.5386292464,0.3972223034,-0.2859812806,-0.2854310476,-1.2843154938,-0.9055758924,1.2330236654,-0.4119052179,0.7426340028,-1.4922121883,0.2368057854,0.5776935195,0.1788582076,-0.5023844837,-0.5225730822,0.0487284027,-0.3638833443,1.0589632405,1.3601318121,0.2918211423,1.1916496786,0.5078052536,0.8102309572,0.1426217969,1.8073317179,-3.1449124936,-0.0133686215,0.1615677143,-0.7688607134,0.0111711108,-0.1284330262,-0.2974329151,-1.2641842965,5.7652553327,-0.6400612943,1.2273356966,0.9391663804,0.5536558879,0.1634430277,-0.0859552397,-0.7036505904,-0.4255724688,0.6534338583,0.0084024262,-0.4941460477,0.7506831736,0.5648608919,0.2906058602,1.2106586928,0.3751668107,-0.481705794,-0.1322946262,0.9217733482,0.0489274157,-0.1184042097,-0.0034304074,-0.2234139533,0.628918559,0.8458457479,0.3230983896,-0.8586451247,0.1053204906,0.0523968748,-0.8986241856,0.4157442668,-0.5518938921,-0.4232193291,-2.2891412771,-1.7907523432,0.0294224634,-0.448550573,1.075236423,-0.8760531624,-0.3957277768,-0.3896427593,-1.1777360225,-0.0194814316,-0.7280208443,0.0700007904,0.1233023176,0.0843183665,-0.2813293233,0.5077065671,0.0427495357,0.1712297459,-0.3260199336,-0.3190320917,-0.7685092373,-0.9219054675,0.8197539387,0.4336221019,0.4369595077,0.584821671,0.8774321648,0.0173892913,-0.1143958866,-0.7396784263,0.0629089081,-0.199190277,-0.1582975709,-1.4761033365,-0.0391756038,-0.3197941048,-0.4455103543,-0.2288191671,0.2565896981,0.471050969,0.503690628,-0.5042992144,0.6149710499,-0.2259900852,-0.0156588065,0.2480676085,-0.1348615166,0.2225846228,-1.4617472995,-1.1814555369,0.5268481746,-0.1239892357,-0.3634403374,0.3472171781,-0.2925757594,-0.6166907405,0.1679575786,1.5513564286,-1.4336238714,-0.9125229598,-0.4180217754,-0.9254537337,1.0005112408,-0.7135900745,0.7479278101,-1.0080106841,0.5468584107,0.4859476955,1.2181479245,-0.5626120114,1.3051077708,0.0531090326,0.152262895,0.9458399658,0.7508941734,-0.6594442889,-0.2819392703,0.6373796867,0.0119400915,0.6227450994,0.6006104598,0.2128712864,-0.793087648,-0.2144436929,0.9058812182,1.632995835,-0.2111260439,-0.8388233454,0.0834718197,2.752179677,-0.5615466554,-0.0609409119,-0.7169516576,-0.744644093,0.4103470305,-0.3323978862,-0.5902963184,0.2913256303,4.8808615376,0.448810223,-0.2767822812,-0.3963758119,0.1971442873,-1.5221457461,-2.0036891372,0.1396681254,-1.4489240568,-0.6842732986,-0.6046590648,0.1605244156,-0.2140556046,0.5264417764,0.2066445671,-0.1157214147,-0.2307023015,0.0259886163,0.7573351081,0.0750011571,-0.2246540274,0.9551469866,0.0393233989,-0.6688889801,-0.108731396,1.0772826337,0.5357921848,-0.6744917379,-1.0934009684,0.4215941053,-0.0964542373,-1.1035975726,0.1575393992,0.2144859831,-0.5517084547,-0.5309651535,0.8763506762,-0.2449193714,0.9148295741,-0.216821231,0.5731719337,0.4774451774,-0.7010063765,0.0033009171,-0.2205967823,0.4409160411,-2.0497497169,-0.6842345597,-0.0643511426,0.1190489996,-0.6523062246,0.3798380767,0.6399646265,-0.858476575,-0.269972953,-2.6377102829,-0.4891371071,-0.92472171,0.0904192959,0.3793058672,1.5523179445,-0.0455336426,1.7453999396,-0.7891022788,0.9732308194,0.238768151,0.1022811042,-0.3369038476,0.9066975132,0.9735127208,0.7877092101,0.5007786111,0.303153359,1.1435893115,-1.3138696683,0.6902828859,1.9806912824,-1.7433123888,2.4728823965,-0.3437141999,0.8402293755,-7.2999259481,0.128475738,0.5687446809,-0.3821758449,0.199382985,-0.0768260461,2.2196841098,1.9071810307,-0.0702130558,-1.3598511111,0.1427277012,-11.4101239984,-0.4145080325,-0.8128798289,-0.3446645411,1.2705390241,0.9331645992,0.3248876488,-0.7996063202,1.6821854596,2.3589739997,0.456343488,-0.1442070573,-0.4894355617,0.0239757644,1.9916244502,-1.1367121072,0.5080563741,20.5811610829,2.0696635504,-0.4585393566,-0.0554167154,-0.5618873386,0.7795411588,-2.3617479897,-0.9748017905,0.0505101307,-3.0247268407,-0.0461477802,-0.3999369617,-1.6786445247,0.247434833,0.6586084557,3.6099696966,4.9489004755,14.535359519,-0.5049294972,1.1416671931,-1.5391484845,-0.9054909232,0.1439395695,0.896737477,9.3837714496,-1.2236140157,2.9781482185,8.6240069533,0.4590918125,0.6935302402,-0.5707443117,-0.609270448,-1.1000557405,-0.6909012377,-6.7758275512,11.6463078268,-0.8375534735,-0.106640631,0.0010856639,-1.1560026988,3.6622797805,-0.1953607029,0.4863924473,1.040011327,-0.5651718833,-2.3531062022,0.2664637059,22.2612875231,2.8299679345,-0.1578721944,-1.3745842842,0.9035452825,-32.40618996,1.199627837,0.776504545,0.1502780286,11.763606969,0.0073340755,-1.0588663087,10.2701141977,-0.1903831379,-1.1758135169,2.5346521714,0.6548911226,-0.4824517571,1.4759014646,0.7552716564,-0.4011472672,-0.0455294264,-0.4263420334,0.0233005137,-0.0619678299,-0.1750768523,1.7247061368,0.0811765952,-0.8715546693,0.7314404384,-0.4674113513,-0.1041013141,0.676610893,-0.0697728039,0.0808298473,0.6049538459,-0.0071502217,-0.1097346626,1.4203503597,1.0452532558,0.019672638,0.2442968562,-0.3440368854,-0.9206967509,0.9700136861,-0.3342657288,0.3882440339,0.1550268329,-0.0830048666,0.0880092492,-0.5902713481,-0.7855597418,0.5417194397,0.6530583576,-2.5565356404,0.5862874679,-0.2892900578,1.0062973313,-0.4288162447,0.221638759,0.0176678595,0.3635803809,-0.4021619082,-0.2393039231,-0.9485885941,-0.2739447717,-0.1218125573,0.9037975068,-0.7293650518,-1.5322333627,-0.1490974203,-2.0556215455,0.7822768705,0.7667773309,0.3735743636,0.8574854459,-0.8918030299,0.1555584461,0.8488564293,0.420313133,-0.0489434696,0.6753346822,-0.4022391072,-0.1503536493,-4.5773125663,0.3834825518,-1.3863511104,-0.3589973187,0.4890050225,0.3055332084,-0.7090344342,0.0368880199,-2.3193633342,-0.9487824785,0.539583982,0.1592704602,0.5625494316,0.1568281777,0.5688429606,1.2926608289,-0.7681653175,-0.6268220407,-0.8269575724,0.193452523,0.4876443494,0.3220341337,2.4525254762,-0.8875544995,2.1148485086,0.0309312921,-0.101844838,-0.1119624609,-1.2745594938,-1.4703404512,-0.1700097261,0.0576873172,-0.6937702287,0.5173357765,-0.8533956375,-0.8462123293,2.2751095157,-0.6825216343,1.1957405655,1.3459764964,0.8034492203,-0.6954886231,-0.6110876531,-3.4290678221,0.5436101309,-0.6207252622,-0.6749007298,-0.443466639,0.67540667,0.2547382821,1.1328628895,0.3168523073,-0.0634362225,0.8914048801,-0.0132698174,0.8316741895,0.4682416006,-1.1270117172,1.3480308824,-0.7013960532,0.9781007032,0.4122821398,0.2061220487,0.0308279842,0.8226038517,-0.2578778833,0.4461250455,0.5268103475,-3.0919062179,-0.2765736063,0.4385180244,-0.0657777007,1.0230456315,0.4948844199,0.2450637683,0.5068749609,-0.835380824,0.4439188607,-0.4651679424,6.6538466429,0.9839209989,-0.0478073605,0.1773156365,-0.0068332421,0.1952072477,-0.915997174,-1.653223132,2.5310290543,0.1108948548,0.0990139129,-4.6720416882,-0.7094094815,-0.7301203482,-0.339451832,0.2927098584,0.8588437658,-3.5455697905,-2.4075960313,3.6862516408,0.3180929483,-0.8707949338,0.6016887703,-1.0033584926,-0.0807112784,-0.9516953187,0.9687337785,0.8393201574,-0.2657071488,-0.4732903105,-0.9899211046,-0.6688810279,1.0451821715,-0.4972160922,0.5128721072,0.8076088996,-0.487745897,-0.3187528487,0.844882574,0.9214330605,-0.3057015553,0.3561995347,0.7725491092,0.6460832631,-1.1659110701,1.9814509626,0.2047563941,-0.9696387501,1.0808237708,-6.3355584206,0.9747208568,-0.9312145918,1.2776271254,-0.2776232334,0.6581353517,-0.0529995342,0.6745187754,-0.0321670782,-1.5552054592,0.0884138385,0.551967925,-2.5662073272,-0.0578893378,0.2914316743,0.6766118791,-1.8838657318,-0.4835397702,1.1562411671,0.8628434583,0.9069693053,-1.1133710322,0.5729484156,2.0806656125,0.7522129927,0.1090430177,-0.8730917088,-0.6961742972,-0.4050739444,0.4985387418,0.1154279785,-0.3255251167,0.8797633611,0.6446613812,0.6372667196,-0.4348468157,-0.3996942477,-0.5349359116,0.8899651599,0.6761678276,0.7276187354,0.9577515086,1.106736672,-0.6802722483,0.1914481265,0.8403777419,0.7978796562,-0.0181192959,0.1923345509,-0.7234181622,0.0640394368,-0.8226802838,-0.33935142,0.2148123871,-0.3993083254,-0.9596174304,0.6472321996,-0.9084609661,0.4658707664,-0.4055859422,0.6241789203,0.0518435742,0.4106588905,-2.1923883307,-0.3449274955,-0.7399959935,-0.51707913,1.1947969346,-1.3374322747,1.2848066707,0.1364002372,1.0096257405,0.8459449923,-0.074222193,1.1753384522,0.3397693224,0.7073993272,0.7275968947,-1.9784983122,-0.0303520292,0.7294318703,0.5440922342,-0.0326510658,-0.571117372,-0.3519656912,-0.2719330641,0.9575702712,0.0496577309,0.1443683025,-0.011389647,-0.6362947135,0.3229568187,0.6815103661,-0.1758172155,0.1384397382,0.6524868423,2.1720126547,0.6057062569,-2.093934551,0.6160157994,-0.9791417464,0.5391226109,-1.6842517423,0.3046196327,-1.6747602257,0.8109807657,0.79049239,-0.5483154326,-0.1314535984,1.636183156,1.3350410477,1.0289732672,-1.8615163742,0.1608880004,0.1824388016,0.196217369,0.6284915841,-0.6188257014,-0.9410349357,0.477883366,-0.7111125881,0.9983386664,0.6412003917,-0.4799123659,0.3120785453,-0.9738099663,-0.8548868591,0.4384303543,0.3183701742,-0.4390666562,-0.3007565406,-0.8713687915,0.3788076967,0.0116419649,-0.7893325199,-0.1438614382,0.4918970444,0.2723501302,-0.3116149202,-2.293058417,0.3756806769,0.621604357,0.2066326497,1.2142533417,-0.181585553,-1.1863703537,0.3878244044,0.6556148476,0.2172408181,-0.8494959625,-0.2076037576,-0.0097213037,-0.0707240742,1.4829387368,-0.8707804595,-0.698470653,1.1119304102,-1.5641627129,-0.0704891248,1.1844917667,3.5988653994,0.2579934728,0.8207129364,-0.9655547982,0.5491358209,0.5610129238,-0.3535047427,0.1269655602,0.8809552011,0.2069221302,3.4903267765,1.5429622565,1.3823044284,0.6626314177,0.9220589892,1.33101251,-0.0475336554,-0.8772847023,-0.9102204676,2.4877881932,1.5161899381,-0.57735457,0.6888729056,-0.4147046897,-0.4115772445,-0.6985451621,-0.5150209003,-0.6928044627,0.629260117,-0.3343436302,-0.7190751912,0.2658321512,0.7462359654,0.8344110061,-0.6410688084,0.3499335885,-0.1924010223,1.7472636389,0.5709892168,-4.4185817187,0.4375772715,-2.0247149774,1.7746585466,-0.1065591943,-1.041483138,-0.6735635539,-0.743439627,1.056037456,0.8189734866,-0.4331910248,-0.2335373415,4.4174661761,0.3248605231,-0.0808082285,2.1660767759,11.5168636117,0.1854410166,0.9526715511,-1.2463415505,0.4573123263,-0.3617456789,1.1398034721,0.1199091703,-0.7432230625,0.5624278874,1.1542551058,-0.4261419178,0.3241417336,-0.4715656056,-10.2653872259,-0.6923261161,-0.2996187979,-0.4679207692,6.145977751,-4.0491695341,-0.8860688791,1.1617013025,-0.0143582999,-1.3568889443,-0.2848534184,0.3018787742,0.4633019618,0.4684558419,2.3878852579,-10.7169006531,0.2955428915,-1.4585013549,-3.8165458437,0.1436953087,0.9142142446,-1.0554476733,0.607758055,-8.7880861086,0.4904487751,4.1913965652,-1.7602147824,-0.1890268663,-10.3871007043,0.3208864529,-0.0078842558,-0.0669722622,3.8061969293,1.0846562304,-12.4400768381,-0.7219981811,0.4341640574,0.7621675604,0.9819709863,10.6141486997,2.1760624109,0.470941342,-5.4928468659,17.1753272175,-6.8952061232,0.9238960362,-0.9684024662,0.0509916567,0.589291091,-0.0346279248,0.9132513383,-2.2323135046,0.2539179168,-0.875607935,-0.9940945161,0.6965651411,0.9268447653,-16.9256759845,-0.822139742,0.7491343898,0.4933040398,-0.1413270187,-5.90087795,1.013481562,-3.2087837594,0.7479675724,0.5650415829,0.1499381894,0.1987217854,0.6600881946,-0.5006470079,-0.8373529951,0.4969152368,-1.5447833364,-2.099914079,-6.4043401389,10.411807292,0.5422964507,0.1946282518,-0.459504556,-0.585120978,0.1125111895,0.4072646662,-0.5123845238,-1.0635040197,1.226093604,1.172886575,0.4187776537,0.3913566914,0.5601048852,2.3551039331,0.5125083283,0.3265891238,0.1545546629,0.9857054282,0.6883511749,-0.2458755285,-0.6493616449,1.0295689624,-0.668105787,-0.9765751914,-2.1374805225,0.2215377932,1.1144223713,0.9730040371,-0.3022390961,-0.828107808,-0.4401059155,-0.4387940128,0.2899866638,-0.0276511647,-0.6234698559,-0.3489662219,0.588879731,-0.2706784104,0.4018750221,2.0676335392,-0.2163287429,-1.8941929036,-0.89252158,-1.164670131,-1.078344505,0.7893873147,-0.9357965415,0.2039579155,-0.5085205675,0.1764804517,-1.6148693168,0.777570581,0.1881384672,-0.3990169351,-0.3013212783,0.0475984165,-1.6016262348,-0.218170301,-2.3277118263,-0.645459734,-0.660098638,0.5576987344,-0.8071148529,-0.2439595349,-0.8662899475,-0.7816226769,-0.4555696336,0.9532315952,-1.0974977139,0.5241434325,0.696419529,-4.8444148705,-1.0187766329,1.0281306317,0.1976790199,-0.4635400582,-0.3363454584,0.5303721221,-0.8543591316,-0.9035236104,0.4465545117,0.8414362029,-0.3032540813,0.3577738613,-0.8240396122,-0.9384915207,-0.1484846397,0.3158297843,-0.6610450165,-0.1363293634,0.4807985017,1.248116993,-0.4642485902,1.7276329592,-0.0622050185,1.5370351601,0.6965851734,0.2441769685,-0.296705604,-2.4919492708,1.0727229862,-2.1231500946,-0.1654220242,0.4863528794,0.411177747,-0.3412134364,-0.0658754885,0.0533090578,0.2153379673,2.3011169266,-0.0391542484,-0.3826499777,-1.7826812414,-0.4508798347,0.6366631871,0.4057248497,-1.0986444439,-0.7244014519,-0.0479103414,0.8229996505,-0.9469813823,2.768429806,0.8121252482,0.3535353736,-0.2902196249,-0.8781051647,0.4895999872,-0.1278033923,-0.2072230488,-0.0457665326,1.1251038395,0.4811303289,0.2797622911,-1.279615116,-1.7929022562,0.6363573369,-0.9798387399,-0.7722707556,1.0073156945,-2.0155934409,-0.2681880981,0.406192292,-3.3876050594,0.5434420764,-0.2330393567,0.0061072205,-0.5078772683,-0.8070721188,0.0708487779,-0.1055002331,-0.219593666,-0.2573528167,0.0879739191,0.3576257627,7.3415657254,0.7511065042,0.570353592,0.9078834961,-2.2628606089,-5.2496001417,0.2245755395,2.4162795202,-2.1940225712,-0.9070094792,-0.5595574861,-0.0139439004,-0.6105043564,-4.2897536701,1.265625822,1.1594179372,0.0382130141,0.703826824,-0.377702212,-0.6542114179,0.2324659741,-0.4876397127,-0.7804688749,-1.4572783039,0.3283125235,-0.4486241556,3.4598101288,0.1074478848,0.5810147569,0.8568270848,0.3740017039,0.2501420738,-0.2856953268,-0.7621974938,0.0449780581,-1.1432369878,-0.0550768451,-0.227213112,0.1949546281,-0.730827979,-0.3388964479,0.1784081581,-0.4294083458,0.7573184983,2.3475855889,1.0589066023,-3.6948748513,-3.3989158665,-0.1031654214,0.0800708349,0.6529801277,-0.5779832251,-1.3125757458,-0.9054372501,-0.2919459687,1.213795238,-0.5002800414,1.0682692088,4.202177023,0.7567868456,-0.3424766228,2.0840192081,-0.6289291121,-0.6795622542,-0.2650889742,-0.8031111062,-0.3111266745,-0.1659654971,0.287009917,-0.7268141049,0.7994868244,-0.0152475323,0.1417668813,2.2215131818,0.2029879791,-0.6862398425,-0.6741381236,0.3108198546,0.0969766592,0.9411517771,-3.9167482431,-2.0108808018,0.7297219763,1.6981402412,0.9098142686,0.6025736307,-1.2965276253,-0.6605399214,-0.9726548639,-2.1729489632,4.0367306304,0.8996079409,-0.1258855688,0.185481474,-1.0446946819,0.1490481936,0.349535181,1.3041807912,-1.8166428292,0.6664888797,-0.0821185037,-0.1746665696,-0.1360390791,-0.3652236169,1.1782567491,0.5177242872,1.0479272314,0.8341317658,8.6156328808,0.9110247346,0.0493872979,1.9078070466,-1.6249813162,-0.3289122938,0.5999177275,0.1028104119,0.3644222714,-0.0698925595,-0.280475241,0.3555358433,0.4895001506,1.4548267127,-0.7213426734,-1.2622165596,2.5201478402,-0.1176397501,0.6429417736,-4.2342697243,0.4053894676,1.7193340763,-0.5377461161,-0.1182515431,-0.3023091872,-0.2518369233,1.8285515421,0.0565654814,1.9904156658,2.0514552703,-0.7523053637,-1.7323041908,-0.7978488891,2.2832751619,1.8584037107,-0.6176459858,-0.9362991588,-0.6359814417,-2.2907370495,-1.012347423,0.169341742,0.9583632095,0.2352250532,0.9177075682,-0.5479300593,0.7672725416,-0.4924225916,-0.2152970178,-0.4434430899,0.315515045,0.1587100357,-0.4906414468,-0.3307044228,-0.4890718506,0.5291894393,-0.8508213969,-1.728485549,0.3589075624,1.6741623061,-0.8789760079,0.0606599543,1.5237876838,0.9692388656,-0.2588539613,-0.0172884157,0.0638588471,-0.3371656294,-0.3962813918,0.4433141961,0.0810389886,1.2462476176,0.3039883842,-0.1616868511,-0.3144048542,0.2600986186,-0.6485367728,0.9144864836,-0.5894821494,-1.2566595481,0.0053579381,-0.2746234146,1.2947307083,2.0571600655,0.2775380643,-0.7376028982,-0.3634999109,0.8221241212,-0.045217616,0.9744497391,-0.6164596195,-0.5543036634,4.1862058163,-0.9726089695,-1.164844048,-0.1436821255,0.2577607409,-0.9019028101,-0.0828506562,-0.3418443544,0.4610741249,-0.3924490753,-2.270469526,-0.0204021153,-0.7950106124,0.4921691069,-0.5405252285,0.3125417418,-0.269709237,1.7295265078,0.4859462744,-0.8408541449,0.5077303306,-0.8929444982,-0.254820815,-0.6001324444,0.0249358317,-0.2948810569,0.9344475454,-0.510354086,0.3682584112,0.0829797152,-0.4300255756,0.6311292253,-1.0429849554,0.4491054485,-0.5105599474,0.3525744312,0.0490200942,-0.2182821874,-0.2493350739,-0.5206924324,-1.2166377302,-0.1588388745,-0.2779469445,-2.6418987248,0.2425980702,-2.8021910643,0.5943013476,-0.9397909585,-1.3905178955,-1.7247861784,0.0381324329,-0.2830639484,0.7964198549,-1.2673003993,0.5078517962,0.8441377777,0.3423604381,-0.5266283342,3.9047049287,-0.105540253,-0.2545996022,-0.4894590644,-1.0226504258,0.7639923887,-0.9048235957,0.2354103216,0.2642340293,0.2965438839,0.066183349,0.4520057379,-0.4792355601,0.8918079246,-0.9719537756,-0.6873699345,0.4216138988,-2.2962160403,-1.3063838396,-0.6678820116,-0.976763714,0.3789414011,1.5362880256,-0.119997265,0.7639431377,-0.4719496744,0.8318014983,0.6497061635,-0.8345038004,0.915769668,0.1216839664,1.4419069494,-0.2707143573,-0.6599346524,-0.4267859759,0.49386941,0.5008016089,-0.5141802923,-4.7610343677,0.4607107128,-0.7264518197,-0.9646107514,-0.6151312935,0.4413285443,-0.8135573755,-0.3814418156,-0.8600161785,0.8886416707,-0.4469389501,0.0054242799,0.0161367644,-0.1642994198,0.0040372714,0.7572303822,-1.1880519307,0.5429020412,-0.3499100424,0.9242217575,0.0250481429,-0.5252653819,0.325273247,-0.2242572327,-0.5100242223,-0.5155322643,-0.2658169709,-0.0329854243,2.203086014,-0.4274720803,0.877580524,0.6082240275,-0.4709000143,1.0034427484,-0.0349508452,-0.794485754,-2.8317170601,1.2633040396,-0.5306410346,-0.340436493,1.0050557054,-0.7776439528,-0.7162337051,0.420975579,0.5573466115,-0.4593441087,0.6968692746,0.4945542968,-0.3449338633,0.5844148692,0.1084402054,-0.6863841456,1.4081056326,-0.6664958845,0.6128482507,0.0651164756,2.6300197799,0.737381911,1.1261911728,-0.5621244252,-0.0477647725,0.7466717124,2.3645837583,0.2497543356,0.5936401465,5.7695213831,2.2870163249,0.8425850699,0.1323681921,-1.3250637009,0.6350892147,-0.5151512527,-1.004671263,0.9858669133,0.2048249318,0.7475621608,-0.2077622263,1.0154411638,-0.4388666977,1.0407046419,2.1034352929,-0.188927082,0.8925042768,0.6674286211,-3.7531343729,-12.1218055701,-0.444011253,0.2378376453,-0.9157876888,1.1969395589,0.5780652903,1.1580466891,-0.5136727305,-0.5174615013,5.3600730143,-4.2330006331,0.0030857993,12.2408508411,0.6807489129,1.0711495784,-0.3571162255,2.3695993035,0.4894529206,-4.0389379848,-0.6801489185,-13.536799927,-3.5716130602,-0.7040029135,3.3134921484,1.8508977947,0.2457122797,-1.1999417959,3.6615278594,2.955173761,10.5080670366,0.3190711065,1.4839316051,1.3822709751,0.7375357969,0.706988865,-1.0617607381,0.7293373823,-3.4474209961,-3.9186538448,-5.2145224865,0.8833052464,-0.8446497161,0.6210802344,-0.090182299,-1.2330477442,0.8858740643,-0.213230746,6.2070563159,7.2464198034,-0.4087300118,-5.1275408888,1.1885089022,-8.7228926849,0.6201173789,-0.7481378013,-0.0236336456,0.1883001364,1.7899320232,-0.7250700941,9.3580678773,2.7623589889,-0.0798500609,5.2775818454,-0.6620712596,-13.784448613,-0.0593263882,0.4493589433,-0.5941793933,3.1928941947,2.2338628687,-8.0556838043,10.978747787,1.0989911093,-0.1383472713,1.0367964258,-0.7034964882,-0.8287555518,-0.1529583991,0.3389216739,0.2723846604,0.4736157027,0.0059049445,-0.2422662014,1.0168306508,-0.1363919676,-0.2959597718,-0.8680183266,0.4216097717,0.8156481849,-0.9182341816,0.2808833983,0.0244139482,0.0973379304,-0.5776428863,-0.8807644219,-0.7640583737,0.0002240833,-0.8601686775,-0.6957655794,-0.3095030907,0.0041561194,-0.8452576925,0.5601390958,1.0183282546,0.73370553,-0.0061803144,-0.825735472,0.9046255943,0.4002979582,0.2246843418,0.8474485481,-0.0251562644,-0.2060930327,0.1377821214,-0.2445125106,-0.526203111,0.4910852614,-0.2825772245,-0.7501301345,-0.0113646334,0.5328935146,-0.0878302546,-0.6764095735,-0.6447175466,0.1449624117,0.8804318451,-0.1494454994,-0.1044612664,1.0309435035,0.108805571,0.0421413884,-0.2157903897,-0.6275041896,0.6228813791,-0.2094301439,-0.2126389518,-0.85397851,-0.0059452275,-0.7123356401,0.083034779,0.7147129632,-1.0311261998,-0.7612500097,0.2536778008,-1.0901266918,-0.003197589,-0.3490361856,0.7023484998,-1.0568887134,0.8200561285,0.3685942464,0.0190187003,-1.0008837892,-0.3956408798,0.033487349,0.7428457417,-0.0461426738,0.6218172307,-0.1487777965,0.5653639672,-0.4284259641,-0.3468924957,0.4697128411,0.0910124114,0.158945595,0.7337553146,-0.9583030164,0.1308097884,0.7950397113,0.3082528661,0.3366231094,-0.9786316048,1.0873657951,0.5050014936,0.3646059778,1.2137833134,-0.9548189216,-0.6502067166,0.1167988407,0.0348610611,-0.7853623431,0.7008160644,-0.1079632443,-0.0247585928,-0.301365335,-0.6577817484,-0.3124759828,-2.0425967759,-0.776307468,-0.5206503648,-0.5779866923,0.5589912781,0.5139120785,0.3733848959,-0.2172016782,0.8014949812,-0.4957581417,0.0513276242,0.4033321559,0.4773606776,-0.9048502223,0.565239231,-0.3148694566,0.5864238742,-0.707127561,-0.2688338948,0.3989171213,1.1795382807,0.1633317416,-0.5589193071,0.9563253331
   0.3677958492,-1.4854840736,-0.0183522721,-1.3154505611,-1.0543874448,-0.1260648091,0.9781334048,-1.7164840669,0.1114155219,-0.1994131428,0.795441534,-0.4379489497,1.0214307044,-0.4380077071,0.0168153986,0.6453300797,0.7032148732,-0.0820124886,-0.0250865669,-0.5958235395,-0.9962584326,-0.3338085105,0.2292874746,-0.9416457596,-1.2901727602,0.3039189831,-0.2728975649,0.7297690599,-0.7713998302,-1.1129492558,0.1596166321,-0.0023364931,-0.1613637361,1.1504417717,0.3829050504,0.8144621184,-0.2927002218,-0.6333609085,0.7944022196,-0.6274262674,-0.2620381371,-0.258677095,-0.2990806561,0.1317607363,0.1129101116,0.426703638,0.3832754654,-0.6059280327,-0.4503000001,1.0929209587,0.7998986029,-0.8050825801,-0.7779477871,-0.2155371412,-0.1779457255,-0.7089494378,0.0241137478,0.4074248533,-0.1313387624,0.1150307868,-0.2403033164,0.1811846791,-0.7850823479,0.3499985253,-0.5954593547,0.7031868748,-0.9377600668,-0.370077579,-0.1313516898,0.4513565189,0.0208216456,1.3104076754,0.6040734138,-0.5757512059,1.0558643026,0.9345052421,-0.3349759227,0.6775932991,1.1072557898,0.5116683299,1.0363153526,-0.0551679551,1.0812458503,-0.5886399879,1.1246038989,0.9039620843,-0.4105321044,1.1088096285,0.9426288805,0.6468750044,-0.1183995964,-0.9404854635,6.743091643,-0.1430142336,0.4636961236,-0.1436948388,0.8835928008,-0.8716627991,-0.3008784186,0.0825993174,-0.1347145549,0.1641318864,0.1545787747,0.2095795045,0.3337058266,-0.3359203922,1.540731542,1.3334300685,0.4088559825,-0.8421618234,0.0099904416,-2.5511746682,-0.6956564883,-0.2403325535,-11.791837816,2.329621487,-0.9814130073,0.1240223286,0.6523544618,0.0563832958,0.5773655061,0.5019477322,-0.5821620486,-1.1859166503,0.4599801541,-0.3002698481,0.397996765,0.3671163798,0.8647452051,-0.7874497089,0.8915420489,0.5787722441,-0.1072133511,-0.0051848474,2.3706674084,-13.9476083125,-0.7019741166,-2.8743915882,-8.6825308158,0.4573826464,0.7807544488,0.4638070916,-0.5887619064,-0.1329293113,0.8374608874,-0.9172603481,0.4767353206,0.1881249639,0.0877593537,-0.8957359277,-0.025394055,-0.4034268474,-0.4837932588,0.4602455159,-0.9462505725,-1.0032241728,-0.2883255597,-0.1140150447,-0.0925951962,-0.9755003839,16.1399448847,4.144288833,0.0795562827,-0.6676847787,0.2543126848,-0.6255430834,-0.8042436822,-0.4754034922,-0.6926399532,0.8117110144,0.5687668282,0.7227917029,0.0924238992,-0.4120501343,-0.7801519409,-0.1185081167,-0.5807639496,-0.3181098605,0.1197474288,-0.2303603682,0.0488555873,1.7851962446,-0.3626477075,-7.368022888,-1.8179178301,0.6482551373,0.9050170728,0.8306499509,1.0872840628,0.4855281343,0.8497649629,0.3988419373,0.3692928418,-0.7472424085,-0.599922133,-0.0740326961,0.1715635805,0.5674218122,0.1047725827,0.5312749296,-0.3149658578,0.2775247136,0.8341424451,-3.1097493562,-3.1655207548,-0.1194471481,-7.7526109982,-18.7674883014,-0.9846917843,-0.9742350213,-0.0314284172,0.7455688908,-0.3328248973,0.2311042705,0.0586578897,0.0839602121,0.2203772271,-0.1631494996,-0.8424110166,0.0925024027,0.042214288,0.9106464476,0.5480392772,-0.5106011498,-0.6456887889,0.6011700582,-2.0503612259,7.476785144,0.8909360697,25.1681339531,7.6785902122,0.8812339319,-0.0368786261,0.299184462,0.2177185091,-0.9360324812,0.7024191976,0.0167625132,0.265501235,0.1101262401,-0.6060188764,0.6836346975,0.5609313766,-0.6170652218,-0.8208745665,1.0427844941,0.2077718848,0.6142021124,-0.7581442193,0.847392281,-0.3995523826,-0.7596418134,-0.3245686706,-0.2135578752,-0.394788055,0.2665419924,0.1225180023,0.1901029138,0.2356114934,-0.7912823622,-0.922262639,-0.6716452763,0.3128492061,-1.0183709559,-0.2020914723,0.5636288359,-0.7618900441,0.493227721,-0.5018114696,-0.4758860028,0.6397727598,-0.8296682018,-1.6219526831,0.8729135029,0.0216575379,-7.2242579283,-5.972954897,-0.1570318797,-0.4788849463,-0.3205339846,0.0738984396,-0.1227806898,-0.0953019474,-0.2351999831,-0.510543086,0.1235484557,0.3277475985,-0.40661806,0.2265135099,-0.2816998229,0.0136348029,-0.3005312327,0.5965114916,0.016494653,0.912249368,0.252808429,6.495665697,-0.3078458164,0.7829463667,0.4364942292,1.3332701597,0.0263476766,0.629519213,0.4180346895,-0.1226461946,0.351325515,0.1196562456,1.234425197,-0.0120093238,1.0207839172,0.6039165523,0.0653475805,0.6732597703,0.1327610096,0.5411803436,-0.4425031879,-0.2304055674,1.4871446193,1.5340929751,1.3466361683,0.0464983693,0.3983857242,0.4726582297,1.4073590712,1.7603222803,0.0024169226,0.483040389,1.6441670388,1.0319647803,1.6493583207,0.1863664514,0.6870943912,0.7774265144,-0.1950924026,-0.3317258353,0.2752611379,1.2419822224,-0.3395203624,-0.0864143364,0.3320499482,1.3444330206,0.7040617834,0.6783014001,-0.4172101041,0.79552648,-0.4329968324,-0.0706795242,0.8618065574,-0.5332494413,0.2249287892,0.789890587,-1.081271079,-0.3775039995,0.1010565942,-1.18093132,-0.4632237111,-1.4775798661,0.2034735185,-0.0667593165,-0.033157959,-1.5917786374,-0.393711903,-0.0224896267,-1.4689888998,-0.9392059534,0.0636340036,1.2648317769,15.4424705303,0.3721947757,-0.2253437647,0.9056993339,1.1448876921,0.0750982499,0.9557143742,0.2292733119,0.3345512202,0.3238845945,1.0169450823,0.5606496867,-0.770577225,0.4110447635,-0.9225687999,0.6719796234,-0.282396979,1.3771143689,0.8295540011,0.2386841414,1.3322191768,0.5811990405,-0.9355585905,-0.8135814993,-0.7856852411,-0.7162415283,0.2450805844,-0.3654791586,0.6828447981,0.5880013645,0.2939924224,0.2429773886,-0.0350405474,-0.489548195,-0.0049013476,0.0202134727,-0.631270539,0.232145123,-0.7093577296,-0.9930707462,-0.7588713349,-0.8096780819,0.4889016944,-0.1004605107,-0.3956227288,0.7625561974,31.7303045955,2.0042985386,-0.3847764004,-0.0722161314,-0.041208868,0.1326389961,-0.178376274,0.7853952092,-0.7651458486,-0.8071952136,0.9680504983,-0.1565492214,-0.2463349365,0.3516203264,0.2993059598,-0.8658695998,0.6219423571,-0.2054898704,-0.1086976447,-0.1237546308,-0.6714970273,4.3960654588,0.0372333041,0.6359129514,-0.902351489,0.9279293358,-0.724506919,0.6590567468,-0.646299004,-0.2069652361,-0.3002522918,-0.0321354807,0.693071759,0.829954552,0.0355914739,-1.0076873465,0.5393920665,-0.9608332934,0.3185334914,1.4299573804,-0.2059584246,0.7030440763,0.1668916234,-0.5757254947,4.1082787953,0.7599444101,-0.7111307271,0.1302976906,0.3056578514,-0.4855736228,-0.1103300262,0.9161995358,0.7008390911,0.788122946,-0.536461459,0.6050626704,-0.0374660325,-0.0869253485,0.7660191195,0.8660071141,0.7576403647,0.8215549439,0.6439211694,-0.6376950224,0.0780794961,0.1685080018,0.6982523163,0.7746606284,0.0498249506,0.403267438,0.3055485905,1.0453734641,0.0837924044,0.2809075699,-0.2360824171,-0.428101918,0.1319908459,1.0952255529,-0.6793425081,2.7671894585,1.3926795166,0.945135001,1.3862283532,1.6404892321,1.4581307511,1.4671352828,0.5696980786,0.8526669839,1.3284974978,0.4702386859,0.9329569722,0.4897366642,8.6674154108,3.965371253,-0.0766423973,-0.3736411418,-0.1707173028,0.3404515679,-0.0572797825,-0.9347543866,-0.7353876637,-0.5665220587,-0.6395290915,-0.6681520313,-0.1203105864,-0.6605773802,1.0154136135,-0.809608698,0.4932004654,-0.3295249365,-0.7044694133,-1.0559744891,-2.730107924,-0.3910775662,0.1053779605,-7.9900321635,6.5830270519,0.798823749,-0.9619098815,0.3438111115,0.1675517744,0.6258230933,-0.3689198077,-0.1028834454,-0.9096109688,0.6097328877,-0.6487387648,-0.1728886209,0.2499862893,0.3139566453,-0.2728417607,0.0432952191,0.4267745926,0.7112709925,0.5670975794,0.8698434219,12.6064689568,0.3269309107,-9.4342106732,20.6527070662,0.3280442299,1.0236533013,-0.078636475,0.9802752894,0.8459002481,1.8080819397,-0.4438136436,0.8827766467,-0.7402585089,0.3530836874,1.0893817375,-0.0927460775,-0.280187617,0.9040078897,0.6789054599,-0.2670654721,-0.3804509431,-0.3947376131,1.0194531536,2.4777349411,0.0997237891,0.2892216179,-1.1629002028,-0.1691935656,1.8024997258,-0.1507757486,0.4492818145,-0.2910118416,1.0627194224,0.5541008779,1.2212165769,-0.6088698306,1.1120864441,1.1334501888,0.0907074555,1.2331305494,0.2375359968,0.7956807676,0.4549814198,0.1072549251,-0.5074325997,0.7466157326,0.5853560594,0.1519316008,-0.3411793986,0.212720159,0.4670815821,-0.5247363724,0.7829574784,0.993456395,0.9571707161,-0.1373640818,0.8995360678,0.3309337571,-0.1479827244,0.5496035107,0.9200125826,0.5267277078,-0.2253259856,0.2761711845,0.6349345245,-0.2907265376,0.5492755033,0.8420283723,-0.7043522238,0.4000485928,0.4806461915,-5.6007422202,6.5637628944,0.1851690603,0.7546658017,-0.452620222,-0.8879468132,0.6354108369,-0.9724156002,0.6013791127,-1.0823709534,-0.1242937695,-0.7729828969,0.2151195904,-0.3785804229,0.0059854956,-1.0026076051,-0.8101305153,-0.288647944,-0.8392939721,0.8533115429,0.5456939306,1.4065287744,0.3610014434,-0.1804911995,-0.5816563323,-0.3573133815,-0.2112207928,0.5825136647,-0.741383646,-0.00772122,-0.5789239787,0.5315512679,-0.1054596728,-0.0567160821,0.446621088,-0.4087194281,-0.4633956974,0.4909990154,0.1422351926,-0.1459600757,-0.2202442838,-0.2220242752,-0.3001114617,0.7600112478,0.7190710676,0.3452609822,0.5405903264,-0.2892346878,0.8437616008,-0.0650240359,0.4513763463,1.153183475,0.997981321,-0.2530544092,1.0219120404,-0.3829115085,1.2766162067,-0.0932449536,0.6357159497,0.4924325436,-0.2254798182,0.9512049677,0.4238308721,0.7513763209,-0.1930644397,0.0947022128,0.5376268449,0.3147739965,-0.4822508579,-1.0500133157,6.2237519741,-0.6015692428,0.3579210788,0.360101724,0.2428751924,0.8122671435,0.7094732427,-1.0843257818,-0.997285126,0.057928773,-0.7126959107,-0.1198443732,-0.6780050098,0.9519138681,0.8276682266,-0.3068630379,-0.0990559101,-0.0429064948,-0.8118808635,-0.1758621931,-0.275238696,-0.2143767821,-5.6575900239,6.9385851713,-0.1755039232,0.1543120299,0.0668310007,-0.7951443182,-0.8661806081,0.0218217563,0.006989032,-0.8464508294,0.8478943727,-0.3927856303,0.082427177,0.0503494523,0.1056035468,-0.2618023892,-0.8069634788,-0.6519655917,0.6368606093,0.7109964239,1.8292019989,6.2919355824,-0.786518922,7.5741210828,4.4158629673,0.4440136742,-0.9194936282,0.5328161551,-0.1409885274,0.4946259503,0.0212396814,-0.5871457072,-0.0752752857,0.1791562466,0.6281850921,0.2468697271,-0.4537404369,1.2540043971,0.086286953,-0.4007069176,0.4408558134,-0.4139652498,0.5421956089,0.044755709,-2.35708827,-1.045888717,0.1790362752,-0.4585936401,-0.7886806715,-1.0175533599,-0.8374486537,-0.5723576061,-1.0499499298,-0.2892807538,-0.4643923059,0.6979813728,-0.827476656,-0.4377856331,-1.0543021896,-0.7551653706,-0.9156577949,0.0388327269,-0.7876878926,-0.0051230127,-0.6768900545,-0.8759735898,0.7965207933,-0.6547681448,0.0457558175,-0.4905931686,9.0133511322,0.1999707131,0.4576186381,-0.2143711782,1.2124797974,0.9681882972,1.0615628936,-1.057688671,-0.7739801927,-0.6811376851,0.1160305679,1.5496185002,2.5650140637,1.2928146456,1.946035776,-0.7389132163,0.0479351502,0.8763727131,-0.6430674001,-3.6173325394,-3.2776260559,-0.7857006133,0.6009520769,-1.351209574,-0.4909783583,-0.1242191828,-1.2840837294,0.4408827009,0.3710518484,-0.3149039685,0.2936150988,-0.3638644848,0.4284420725,0.0256191485,-1.0318614468,-0.0644774831,0.064219355,-1.173862304,-1.0660574442,-0.8536381695,0.1699293377,-0.38854315,0.0772829001,0.1230743649,-1.2408259416,-0.4118360157,0.2001260257,-1.2843654918,-1.1878259199,-0.3452949574,-0.5560453247,-1.0848778095,0.0511475398,-0.4453693849,-0.7020331704,-0.2283951289,-0.6796474083,-0.3174802196,0.5971189241,0.0977342091,-1.1140566175,0.4500469009,0.108499156,-0.6775321191,0.0499149477,-0.3525787602,-1.1419099659,0.1952740634,-1.2902114836,2.3573804782,-0.2042703049,0.117324559,-0.3069403935,-0.1809417475,-0.7015420688,0.8670608502,0.7055817911,-0.52100777,-0.1216181279,0.9726299282,-0.6724764541,-0.8871551416,0.617497947,0.5525513485,0.5471447783,-0.2631058439,0.9154643973,0.2719483512,0.6250642948,-0.6037512835,0.6294199761,-1.8089105148,4.0230646341,-1.0484074318,-1.3982803398,-1.2379706416,-0.8356543958,-0.730822852,-0.2206874092,0.6043085738,0.3899788461,0.2665892783,-0.1150180623,0.1599671891,-0.7592729094,-0.0963650894,-0.1652638448,0.1777768104,-0.7396119088,0.6835392425,-0.9725996432,0.1859561972,9.2321152439,0.800149236,0.0160932009,0.4932362549,1.121740929,1.2810970831,0.0002265185,0.8902612598,-0.1188713901,-0.222656328,0.0462351705,-0.4057279675,1.0966691179,0.8240482599,-0.18847251,1.452750371,0.7104191865,-0.1808834069,0.4508376649,0.3433551994,1.3589814208,-0.3525746719,1.1557616499,-0.0067527109,0.371520057,35.1521234062,0.2708320885,-1.8275954046,-0.942340751,-0.9411724189,-1.1475202748,-0.8178120981,-0.4861305815,-0.8011285549,-1.1760917613,-0.3745395163,0.0667330074,-0.2868579524,-0.3703234447,-0.1613259032,-0.4944227919,0.0035250237,-0.5601192589,1.6285038684,1.4520195504,1.5646200225,12.2621606445,0.4923527645,-0.3324729293,-8.6392386168,0.5012218632,1.145206944,-0.1577503987,-0.3658876256,0.1100499532,-0.2943493298,0.5455703655,1.1880529496,-0.3385521066,-0.6945805962,0.7809967891,-1.0280465347,-0.4738793762,-0.1611212223,0.3095923981,-0.6966650878,0.5391179379,0.8368784898,-0.0091624417,4.8022276248,1.2402816168,7.6959647458,20.4976806881,0.0047283679,-0.7656314768,-0.3624047272,0.5934756227,0.2379769765,0.5080617475,0.4411089713,-0.1790925317,0.7664947795,0.0867211974,-0.55043725,-0.1760347459,0.7177905706,-0.6122099834,1.0206734761,0.8893577068,1.0054799388,0.3492526891,-0.8599638221,-0.2081522591,-0.9671921551,0.3292856099,0.9912480648,-0.9554916151,0.5322960613,-0.1219145279,-0.5672480291,-0.878839182,0.0400915476,-0.8823729664,-0.4890698861,-0.3074935747,-0.6585485025,-0.9199587185,-0.4864507477,0.4856561561,0.0637945131,-0.5820521143,0.3387290247,0.5448404585,-0.8866087814,-0.8659164931,0.5756476259,0.534245505,3.7037526484,-1.0655720503,0.4042029704,0.1187212909,-0.3510905882,0.1523083994,0.3061332102,-0.6693646922,0.1479420389,0.7696134866,0.5436307247,-0.0660509911,-0.7811333869,-0.1125158298,-0.2711673077,0.3290673055,1.1316940477,0.8954194866,0.4503094556,0.6597027393,0.9617212337,0.2343859891,-0.0978914794,0.0562261053,-0.6940469351,-1.1028388791,-1.0133262834,0.4588927902,-0.6526900417,-0.9325861882,0.06640689,-0.9937255129,-0.9324113954,-0.8061854136,0.244989725,-0.3660372904,-0.3233131712,0.3025281978,0.3223895395,0.0211859636,-0.3576504235,-0.3774701787,-1.0240217211,0.4074330175,-0.2092354579,0.3466924886,0.8148252521,-9.4552432582,-0.0751140565,-0.6887039979,-0.8330229192,0.6320732863,0.4057979518,0.8366466193,0.2385745765,0.7406262399,0.1973047174,-0.8586343218,-0.991012209,-0.3825830871,-0.4237491443,-0.1832679582,-1.0123558006,-1.5715534755,0.1762941593,-0.7332467151,-0.3532232422,14.3760293311,0.6928869344,-0.2983944422,-0.8682098562,-0.0190043247,0.2118663396,-0.1777885887,-0.5914464317,0.9390765358,0.4329220046,-0.4241300609,0.7200271286,0.6276460278,0.9993598328,0.0457729622,0.9899868432,0.6238365034,0.1244993697,-0.1674796565,0.1718674265,-0.2406734312,0.2718552015,0.5858935874,0.9490973634,-0.0212588611,10.9163475747,-0.1173660436,0.2389887748,-0.1986924741,-0.3999413466,0.3622671762,-0.8219908426,-0.449206332,0.9624793035,-0.6651576166,-0.1867224429,0.4900520929,0.6405205844,-0.2637078222,1.0086933833,1.2670578739,-0.2039601257,0.2191789098,0.9679224677,-0.5158908998,0.6094118565,-0.0938088302,0.3226569529,2.7585368323,14.3370857477,-0.5390665273,-0.8619879426,0.1459422687,0.5611912938,0.4047997621,0.8917616532,0.9070606343,-0.672731345,-0.076422821,0.1576729666,0.1504139657,-0.8987485939,-1.0936920312,1.0060284435,0.2672551543,0.8659423925,-0.3083769279,1.3255654527,0.8151429899,-0.6549129372,-0.7804033958,-0.4176041191,0.1803095176,-0.8288527338,-0.3679471911,0.2386385533,-0.0400738734,0.1688424897,-0.7030547989,-0.9916258934,-0.6935393787,0.4156495407,-0.5055258864,-0.2370426636,-0.7072161859,-0.9586460007,0.0940460251,0.636629507,0.2346106135,-0.8377478796,-0.3749295736,-0.6647316937,0.6343858817,-0.7002027259,-3.689211682,12.2389384664,-0.1722208629,0.379008888,0.9575063209,1.0611860865,0.2838023193,-0.2392813644,0.4484128888,-0.2252405632,0.8874702208,-0.5134380802,0.6217536165,-0.21387913,0.838363527,-1.3538611394,0.1715442856,-1.3341653812,-1.5633565917,-0.3816786054,-1.6410968061,2.1954414917,0.0117933687,10.2041115809,-2.2383505711,-0.8981531719,-0.399630807,0.3166244124,-0.1095047944,-0.2914258734,0.4700290898,0.0100949169,-0.3241940758,0.7871550918,0.5681223109,-1.0534831056,-0.0752820333,-0.8259389805,-0.3336589598,-0.2424227738,-0.4195690196,-1.080358225,-0.1262040253,-0.3102923337,3.2451201707,-0.1002193962,0.1713207764,-0.0146720132,-0.1475667303,-0.0812624945,-1.2150091113,-0.5389078426,-1.1308798422,0.1414584713,-0.678717884,0.0069374439,-0.2568221073,-1.1331315415,-1.2038724093,-0.2736814861,0.2002885673,0.5392898797,-0.642257393,-0.3014438275,-0.0991146074,-1.1370083002,-0.8559914416,-0.9665651862,-0.0531570956,1.7695173173,-4.7755485964,-1.0414445651,0.6611166562,0.6453939928,0.3486685482,-0.3530465278,0.3781246765,0.0521965408,-0.9569661702,-0.9040907579,-0.56283558,-0.2572336423,0.0013012969,0.5819623485,0.3069077196,-0.8062836361,0.4973246285,-0.8871429796,0.8033123534,0.8605905856,-0.1918605587,0.0846008242,-6.7222888696,-0.6032943011,-0.2305027399,-0.8648368417,-0.8913455951,-1.0252155115,-0.1794149428,-0.4975731033,0.6135184199,-0.0677784438,1.0618016893,-0.6125624887,-0.9833094576,0.7837882029,0.2016550693,0.6641693913,0.5955050415,-0.9095404004,0.4746164511,0.2441595428,-1.4409647394,-0.8526106822,0.5574664611,-4.7510013971,-7.2244438481,-0.1981344534,0.433420367,-0.0904858864,-0.6787680132,1.5081965337,0.3653786639,-0.5224670671,-0.9012269021,-0.7197655394,-0.500930046,-0.558548569,0.3162934183,-0.2205936433,0.4278025428,0.8283505104,-0.5448607712,0.5574369102,-0.0213899571,0.4583612644,-0.4908265002,0.4499810066,-10.7262877718,1.6351904218,-0.4632410427,0.4706185789,0.4361103432,0.8038660161,-0.346577399,-0.0246530729,0.8040082998,-0.2235466783,0.4308899858,-0.5431320635,-0.3215618048,0.5838999479,0.2373234414,-0.7795019668,0.2945331959,-0.773099345,0.1054912491,-0.5707451181,-0.930119781,4.095548126,1.1295058273,0.1763592959,-0.6230174196,0.9878077951,0.4784002648,0.6795893599,-0.1030537166,0.3065353802,0.9395201524,1.0449022869,0.4232849575,-0.6320987351,1.077359713,-0.3204452105,0.57253263,1.0023261777,1.0521794697,-0.0666704347,-0.5715586105,-0.2157684844,-0.5440599023,0.5986287375,0.7591170518,-0.390137964,1.454771808,-1.3951469481,-0.6805094945,-0.0293225272,-0.757924177,0.0788784427,-0.4202423661,-1.2363175209,0.2339617555,1.0162326691,0.4936630569,-1.0557596296,-0.4772237932,0.9644650428,0.9229882339,-0.1014563821,-0.1392328308,0.7796628969,0.405444024,-0.189752972,-0.4684039508,0.5606717129,0.3455638814,-2.3083976237,2.6504980503,0.4384298853,0.6625722573,-0.4721074169,2.1766266847,-0.8006780534,0.4561996753,0.3681881541,-0.185443288,0.6830006183,-0.2491332911,0.4067984553,0.160189791,-0.7058428291,0.4815213611,-0.9406139041,0.6054011104,-0.5280048168,-0.9739612739,-0.3093792517,0.3901706876,1.1969592986,1.2686289337,-0.8110254213,1.4519155095,0.8333033335,0.3042821635,1.4055028783,1.3462433472,1.308905518,1.5537237956,0.5544836475,-0.7043261571,0.4130819975,-0.0586902402,0.3474785126,0.0664981491,1.5507705647,0.2933888765,0.0100309162,1.4772177266,1.0689695447,1.7038525182,0.3944218864,0.2743894522,-10.1011382672,-9.5894033047,0.7269435976,0.2640900215,0.8234531649,-0.7619137026,0.0240022448,0.4773790974,0.1467299149,-1.0868581035,-0.9969971684,-1.102216053,0.0266254433,0.6727599458,-0.9485520258,1.2931776663,0.248832822,-0.9047564256,-0.528303024,0.3739681462,-1.0299975934,-1.1462305607,0.0705532796,-3.2792064666,8.0367667464,-0.3726582513,0.2528237286,-0.6938293117,-0.1390154838,-0.5319711752,0.0270486427,0.5842769777,0.0477105032,1.3713375825,0.0985683681,-0.1879821793,0.3386111969,-0.9870042489,-0.0564471034,1.4452994894,0.4975577944,0.2115944721,0.0721745029,1.2495102323,0.3286091988,0.4653242255,13.8218808749,-2.7604494819,-0.8262381945,0.5642842787,-0.5866598026,0.7577821309,-0.2128214494,-0.132838722,0.9381058958,-0.3852906116,-0.2251487826,-0.9044047807,0.2475501844,0.531544823,-0.919832294,0.228382011,-0.6092692936,-0.701123832,-0.4660056023,-0.5231776188,-0.0404737067,-0.3034241268,0.5099466573,2.3335352036,4.1406707505,-0.9120265392,-0.7614169649,0.881306794,0.0613953722,0.6575362923,-0.6678894173,-0.2230810953,-0.9737504925,0.4238300325,0.7343478121,-0.7340720201,-0.6222226598,0.1066745952,0.0810949715,-1.1980916388,0.5968130174,-1.4813341575,-0.9314104256,-0.2591304487,7.2237546065,0.634164625,-1.7999736706,0.0504409471,-0.0518476478,-0.1177793822,0.8881128936,-0.4226108745,-0.1954125265,-0.6477865812,0.6400712757,-0.0901639203,-0.5102818692,-1.1947677595,-0.0116577304,-0.2316804161,0.2036137931,-1.0237970237,0.1620710894,0.2620880318,0.4667927035,-0.0884020474,-0.0007373955,0.2800783758,-0.7318837247,-3.6258676645,-7.9173852744,-0.5822949232,-0.6154806976,0.295440621,-0.7381915537,0.5157032539,-0.3252464716,0.1811477145,0.3709672257,0.0961827534,-0.4562949012,0.9446806546,-0.2311669779,0.4372863405,-0.0264683192,0.205380131,0.2393030456,1.1963026948,0.4553174818,1.2775463384,1.7916608143,-0.4076310399,0.8126334418,-0.5419512843,-0.8624008096,-1.2509673202,0.4311174037,-0.8311862779,-1.3200723131,0.5277335615,-0.1931690017,0.08186048,0.1974203612,0.0761024125,-1.2622718692,-0.6156314097,-0.0468749137,-0.892810757,-0.6262285049,-0.5837004559,0.4849061362,0.415046917,-0.7130433417,0.4185976476,-0.3639579362,-0.099683396,0.4731249299,1.1751845401,-0.5464869279,-0.264691626,0.8909248598,1.0724529734,0.6999292691,0.9296545519,0.8091137405,0.1498925443,0.7022963941,-0.0061179138,0.2823285944,0.7242427942,0.6209638824,-0.0293975408,0.0458042017,-0.2154595571,1.2778573141,0.0243741512,-0.0306033434,-0.5603422728,0.1394173024,2.078021068,-0.7126225173,0.37171208,-1.0266619468,0.141304826,0.3748106259,-1.0537428188,-0.7245882609,0.3918382079,0.7996808247,0.1180545703,0.1909174424,0.0368089531,-0.3183187121,0.0202625224,0.2197768961,-0.2739314591,0.2808827822,0.5474996343,0.1222258972,-6.2580374598,0.2443690905,-0.7197809309,0.5768211866,0.1192483659,0.01491182,0.1067467364,0.4587336064,-1.2384901132,-0.5500977461,-0.4641376414,-0.8978598385,-0.1304644156,-0.7036063598,-0.3871760878,-0.4539506109,-0.2011036708,0.3836859558,-0.3789461068,-1.4739246734,-0.9712862042,-0.4148474355,-1.0120008862,0.2000451637,0.837104272,6.8711826185,0.1688533875,0.1675193967,0.1934680295,0.8776684577,0.6667379643,0.0140954168,0.027227009,-0.6054844874,-0.8969418891,-0.3570979456,-0.1612450249,0.8487441279,0.4717353479,-0.4835220573,-0.7277598462,0.0146674555,0.6692441035,0.2322788941,0.5793023674,0.1060551936,0.2295409659,-0.5021426998,-0.7074687493,-0.3414978368,-0.0042786558,0.9593595486,0.0588600619,0.9471288913,0.845298868,0.7194113709,0.0647919504,-0.2406099781,0.7988928405,0.8209337623,0.9487530147,0.6428813647,0.5472058576,0.9089335325,1.0445594736,0.6589714717,0.9220388225,-0.4881384601,0.4750830475,0.0026082894,0.0103191791,-0.851633479,0.5042648859,1.0460451162,0.3807129707,0.1357090284,-0.5116517352,-0.6752244324,-0.8539800252,0.0433163275,-0.2037253362,-0.0438430137,0.7107146113,0.451706311,-0.8034197592,0.0031448867,-0.1012283887,0.6946784787,-0.996232553,0.2020532207,0.5066511039,-1.0304102822,-0.3289959695,-0.5806424581,-4.0043434939,12.9951583237,0.0648627338,0.1359666249,0.7768346273,0.9221535592,-0.362857149,1.1676655954,0.3369873398,-0.8209606785,0.7515336658,-1.3293843736,0.1798513036,-0.3651106321,0.1786522662,-0.371059759,0.8348428064,-0.4335415395,0.2807535629,0.2092415843,0.3147342649,6.3765757114,0.2587676717,-4.8560037329,9.2921420121,0.5179098962,-0.8612263909,-0.1648799228,0.6966835609,1.0281770802,0.4940268182,0.3050866205,-0.5304815103,-0.7622142603,0.9453450331,0.0311369635,1.0670468114,-0.1121028256,0.1112996092,0.8079577574,1.051043972,-0.8410135814,-0.6977221969,1.7589581718,-1.8883700991,0.0583189013,-9.8136757895,-4.6114237483,2.9808171215,1.1605144724,0.1864935544,1.435077584,1.7890657633,2.6161058775,1.832785061,-0.554857813,-0.308227112,0.4826528111,0.7993846535,0.869435845,0.9430975196,-0.4376768278,-0.6802511021,-0.4858892373,0.569959674,0.0608535557,0.1230231652,-0.8845545564,0.7200250388,-14.430938926,-3.954812367,0.4404536266,0.5365484689,-0.2936412258,0.7587935769,-0.1712021828,-0.7865542206,-0.7195031364,-0.7212857519,0.1565803294,-0.5329711421,-0.1364150225,0.3117140879,0.1359722497,0.763762593,0.1261223157,0.0444129006,0.1724036418,1.14303132,0.3892828581,0.8528225137,1.0598685128,-0.111013976,1.0260357014,1.0615342598,1.1607972278,-0.0047790094,0.8775469503,-0.2624630665,1.2227233229,-0.4086850136,-0.4858451638,0.9257200411,0.8156590617,0.8607821986,0.3295616244,1.2938276289,0.0511386988,0.7837996384,0.4972966252,1.3500819815,0.3527035368,-0.2520902969,0.4931479651,0.6296132987,6.5221633977,-3.3913120749,0.3268193845,0.7947122723,-0.374825708,-0.2547126608,-0.7316271003,0.8121580957,-1.0344430542,1.01011709,0.3103452976,-0.982194459,-0.4119835637,-0.7216411937,-0.6832463855,0.476749194,1.4906147486,-1.052760122,-0.6775987571,-0.4896445764,-0.4722002117,-0.9585699193,-0.5131249107,-0.5998761968,-0.7948763575,0.8607978223,-0.8377777226,0.1935560237,-0.5544968807,0.576322102,-0.9305251891,0.8152500856,-0.7582250666,-0.1167379175,-0.6952149998,-0.0918416296,-0.9181973421,-0.9005295779,-0.2078521013,-0.6621331449,0.5393491291,-0.2674424463,0.0467555066,0.6311224831,-0.8867726212,-0.1149452917,-0.5656179745,0.2916761112,-0.6510377611,0.5177441416,0.1571426767,1.1421039583,-0.4079859856,0.8137996013,0.8088469121,0.3486450609,-0.1140960993,0.6316587074,0.207038948,0.7336496004,0.6637449623,0.4501202061,0.7262388761,0.975537605,0.8654556819,-0.5845185113,0.0168960398,0.6165411557,0.0913558258,0.1589047357,-0.6554738489,-0.943650931,-0.8912415856,0.853826344,-0.5794407901,0.032880072,-0.2442196581,0.0616498916,-0.0285620128,-0.6166836258,-1.1879682419,-0.9334989947,0.2319671676,-0.2793219856,-1.127798433,-0.5243802974,0.308390918,0.3645509903,0.5832268315,0.6307915455,-1.2191196228,-0.5809497191,-19.3021721708,2.0611646965,0.602550258,-0.8157178135,0.1039408648,-0.8318027676,-1.0582345182,0.5844738114,0.4203320286,0.1155830032,0.1170382057,-0.589190748,0.0762190045,-0.0133502521,-0.8935810466,0.7911193248,1.2747831566,-0.8807078785,0.9495948826,0.8386988911,-0.661042924,-0.5985760905,0.0287231895,2.3791236401,-7.7045670557,-0.3492909292,-0.6984709879,0.0864045084,-0.5672474023,-1.007059278,0.4841261127,1.0259045678,-0.2744570628,-0.4362385415,0.6250283329,-0.4490728818,1.074419891,-0.8317529679,2.8879721908,1.610032376,1.3800390579,0.080724523,0.108480012,-0.2823418029,-5.9660343583,-0.2955389419,-0.7211269721,-0.5416566559,0.4551085985,-0.7518704709,-0.4984371763,-0.3422534957,0.4456684002,0.1549482457,-0.3001119228,-0.8950823498,-0.0406578051,-0.0365638985,-0.8871177921,-0.6302289587,-1.1218146872,-1.209325087,0.2172806853,0.3097593461,0.548909658,0.1416200865,-0.2259807927,-0.9122902834,0.037671773,-18.6250684562,-3.7535400623,-1.0516347833,-0.74069948,-0.5222456156,-0.5072739609,-0.6441882236,-0.1525181105,0.0811969873,0.1616717615,0.4781051206,0.5582187842,-0.5417682495,-0.8133193597,0.397800865,0.1316411838,0.0915824509,-0.0450630701,-0.3488334686,-0.0391649411,-0.751100063,-8.8169530869,-0.1245537378,-0.2573081092,9.099996146,0.3076529916,-0.8328397645,0.3196499728,1.0725446502,-0.202269411,-0.4011887157,0.1589690132,-0.2220810802,-0.308776512,-0.8849446464,0.3072163972,0.2770102374,0.3342826061,-0.2222555277,1.1996948609,0.6360021079,-0.4897775867,-0.1921253589,-0.6601370934,1.0089094975,-0.9505886346,-0.0565162695,-0.9333131053
   0.3048055053,0.6010139315,-0.0630474993,-0.4468770831,0.0353340205,0.8375752794,0.1050827426,-0.2487805547,-0.5977395556,-0.2970934093,-0.9566562069,-0.7942322424,0.6787589047,-0.4218092617,-0.3953248197,0.4054448445,-0.7528716433,-0.4770525399,0.6061259508,-0.1691502261,-0.0724122362,0.0645622832,-12.0088577405,-0.1874532931,-0.5737209203,-0.1601110849,-0.3194503038,-0.5333853064,-0.6699465706,0.3406614518,-1.0189568719,-0.4323416803,-1.4148524745,0.7044149742,-0.5821415444,0.0346442597,-0.1005995878,-0.3521978715,1.0273576589,0.6400832568,0.8436619199,0.234322193,-0.1741173089,-0.9312699593,0.5593729011,-0.443726719,-0.7832622363,-0.3641012357,-0.81229116,-1.1503954489,-0.8514817676,0.5833103358,-1.1117624643,-0.6530248579,-0.3575969853,-1.0696983168,-1.0171532989,0.5293099207,-0.5837050178,0.9382133065,0.346768649,0.7290072814,-0.9883065099,0.5966979845,-0.1892766165,0.7010043451,0.4317010092,57.8588193076,1.1181206779,-1.0754085876,-0.7709443963,-1.2029330715,-0.0481184624,-0.8579013716,-0.4450265557,-0.7116108084,-0.7337411997,0.182435947,-0.0146189117,0.0997114032,0.7399303273,0.4267228261,0.5813419924,0.2796782708,0.321911542,0.5520337469,-0.9850189725,0.7298954712,-58.9024045616,-1.0199749722,0.5858817185,-12.1641534251,0.368808214,0.6560616939,0.7544962136,-0.6901445189,-0.1898526441,0.0987897626,0.1877993265,-0.2074887036,0.5775553043,-1.0454835896,0.6496354235,0.4086717996,-1.0842681071,0.2551861694,-1.4727736435,0.0698037874,-1.2337168121,-1.0789461991,0.1051952174,-0.7132891265,0.1752968262,5.2619401201,2.9386548382,0.6494374586,-0.4343050164,-0.7880810348,0.3518625237,0.3162120056,0.8842363291,-0.4792653061,0.4439705756,-1.0966165788,0.9297287757,-0.394393052,0.5595345416,-0.5333732032,-0.8297914116,0.3854674819,-0.1264386466,-0.0850884636,-0.2989108869,-0.3152265598,0.231622852,0.8127800061,-0.4646953537,0.2501185308,0.9223184341,0.3890590168,-0.2791792279,0.0071936595,-0.6574520612,-0.1996348866,-0.3995720248,0.1960850346,0.9473716095,0.7298506515,0.3967217392,0.0142844033,0.1949959034,0.0171318293,1.0688809369,0.3672925126,-0.2681076795,1.0714728948,0.2421803634,-0.1008479304,-0.5455391628,-3.211128306,-3.1338068406,-1.609150096,-0.0067542329,-0.6545430384,0.2819515291,0.6070191992,0.4127518774,1.1573103366,-0.393969576,-0.0690079988,-0.2394250826,0.8024245479,-0.020090962,-1.0433250948,0.134422127,-0.5957441106,-1.1194223137,0.0308674946,0.4704502889,0.8483604133,-3.7810613735,-0.4776590703,2.762531612,0.1339017956,-0.622323258,0.7666083775,0.0269682937,-0.4272317591,0.6506706327,0.3731257905,-0.1047209518,0.1906931547,0.4187756154,0.7553262738,0.7657473067,-0.8407524443,0.0880885687,-0.6311992364,0.0088000245,0.0648881022,-0.182493158,0.9546299878,-0.2661131184,2.9671139148,0.2699812632,1.0168225429,-13.7685679943,0.1439861959,-0.9483204051,-1.1205917417,0.1650377449,-0.2369826724,-0.3839345845,0.6302063162,-0.5400126617,0.6129184386,0.4755148983,-0.6221216928,0.0467861592,0.5663242916,-0.5684114832,-0.3699893834,-2.4281115481,-1.4554687383,-0.4666641817,0.9734433848,6.843976762,0.4597522389,20.0113623565,0.562992555,1.6488190252,0.4565777567,-0.9709223808,-0.7184392529,0.0972461945,0.5097316877,0.5292450066,-0.2345060507,-0.6865526876,-0.0102101622,-0.1189543313,-1.2772825026,-0.3190794542,-0.2753948339,0.1134766409,0.7304454839,1.5824274378,-1.0890040218,-0.3982356914,-22.3236467698,-0.5748891341,-0.4484532697,4.1067415483,0.8757041776,-0.4012161912,0.9561274537,-0.3676100346,-0.0572077526,-0.4129525181,1.0552951547,-0.8744142497,-0.6044996032,-0.0279526627,0.6793593527,1.0056109042,-0.5751865437,-0.83667796,0.7447524717,0.242160739,-0.5496474855,-0.6470553535,0.030893962,-0.5466224504,1.14347426,0.6456682257,0.3936343297,0.3710231755,-0.3829797211,-0.1624271022,-0.2488525315,-0.2062842731,0.3889161618,0.0093663649,-0.2760473063,0.3174921969,0.5740774513,-0.0510734532,0.260225194,1.0043678839,0.5252072509,0.0868471107,-0.4744696951,-0.8845029566,-0.0070799095,0.5852798692,-0.8984644593,-1.0226971913,0.5433119719,-0.1355205863,0.8329010566,-0.9570224807,0.8010162037,0.3311686116,0.7114759747,0.5965252679,-0.6407254371,0.0957733368,0.208380272,-0.3703293863,0.6269319587,0.0929336464,1.0084602279,0.5981716674,-0.5461850889,-0.0386373152,0.0896669107,-0.6403030678,0.624179553,-2.4833975546
##end
biasActivation=0,1,1,1
[BASIC:ACTIVATION]
"org.encog.engine.network.activation.ActivationTANH"
"org.encog.engine.network.activation.ActivationTANH"
"org.encog.engine.network.activation.ActivationTANH"
"org.encog.engine.network.activation.ActivationLinear"
