encog,BasicNetwork,java,3.4.0,1,1571216176835
[BASIC]
[BASIC:PARAMS]
[BASIC:NETWORK]
beginTraining=0
connectionLimit=0
contextTargetOffset=0,0,0,0
contextTargetSize=0,0,0,0
endTraining=3
hasContext=f
inputCount=22
layerCounts=3,41,101,23
layerFeedCounts=3,40,100,22
layerContextCount=0,0,0,0
layerIndex=0,3,44,145
output=0,0,0,0,0,0,0,0,0,0,0,0,0,0,0,0,0,0,0,0,0,0,0,0,0,0,0,0,0,0,0,0,0,0,0,0,0,0,0,0,0,0,0,1,0,0,0,0,0,0,0,0,0,0,0,0,0,0,0,0,0,0,0,0,0,0,0,0,0,0,0,0,0,0,0,0,0,0,0,0,0,0,0,0,0,0,0,0,0,0,0,0,0,0,0,0,0,0,0,0,0,0,0,0,0,0,0,0,0,0,0,0,0,0,0,0,0,0,0,0,0,0,0,0,0,0,0,0,0,0,0,0,0,0,0,0,0,0,0,0,0,0,0,0,1,0,0,0,0,0,0,0,0,0,0,0,0,0,0,0,0,0,0,0,0,0,0,1
outputCount=3
weightIndex=0,123,4163,6463
weights=##0
##double#6463
   -0.3016505314,-0.2778989097,0.5907388953,0.2837734253,0.9123799941,0.8890341351,0.4139162941,-0.3587199919,0.3158053118,0.1996868208,0.4838374894,1.0233049666,-0.2144285532,0.083641464,0.104472852,0.6854694578,-0.5161881945,1.4849670065,-0.7739738744,0.3381493683,-0.6084323507,0.1858041854,-0.4385808618,-0.5202543909,0.4439742059,0.1512082046,-0.0587264466,0.2429029978,-0.9788402454,0.0962776161,0.5885514923,0.7285148612,0.2350498161,0.2891834941,0.4196274499,0.4273241862,-0.8767755537,0.9589761016,-0.5831168767,0.7507724073,0.4193044903,-0.3532995547,0.8102929885,-0.6908517372,-0.0041199861,0.316891757,0.5373919961,0.4500945984,-0.7828196186,0.7264884497,0.02006066,-0.0195301355,-0.0017688723,-0.4776332026,0.030013491,-0.2098933886,0.7191042034,0.4877400573,-0.0012173064,0.3799428869,-1.0214001289,0.7092962978,0.3818563573,0.8803300402,-0.4745647768,-0.4960714555,0.7946243752,0.1013635495,-0.0339912783,0.4387890131,-0.8592399109,0.5697972531,-1.0440224407,0.0669338392,-0.0375688908,0.0338339917,0.7948737535,-0.3137741023,-0.1240160682,-0.8714280645,-0.6634513729,0.782736675,0.9181658663,0.4375602536,1.0512711211,1.4092192394,0.2888106027,0.0988284207,-0.5793467272,-0.1016593408,-0.5376025221,-0.9427869472,0.0112900172,-0.0108469205,0.7875902022,1.4004842367,-0.8326243773,0.2794323069,0.9606053408,-0.0004257515,0.7853922629,-0.0005942122,-0.0223357681,0.5490481683,-0.0549171269,-0.1166869608,0.0415489696,-0.8023366952,1.4613661098,-0.6688849176,0.4730037524,0.2331191122,0.3746081226,-0.0121531058,0.7444339195,1.4053161624,-0.8765421056,-1.0887800741,-0.7294083673,0.5849954277,0.0970491217,-0.6549846117,0.5666799755,0.5564464376,0.407155459,-0.9251009534,-0.7522668464,0.0809997581,-0.758971089,-0.3326035517,0.355380756,0.1374343735,-0.8028975081,1.8571804763,0.4145652073,-0.4891675712,0.4250577585,0.5689512773,-0.0110502683,0.517948324,-0.0121611791,1.0979560424,0.3853534764,-0.9058179971,0.6899596675,0.914077806,0.5632055161,-1.5000399163,0.7357317525,-0.6959460544,-0.2752199328,0.3363768508,-0.0394584281,-0.3722700079,-0.5393949761,-0.9691894833,-0.9506103926,-0.7180206237,0.418564058,0.378941353,0.2600318714,0.6227323938,-0.2156604707,-0.2235206715,0.6720996538,-1.6782043781,0.7196963068,-0.0653123052,1.1459651501,-0.5794318392,0.3407953012,0.744494407,-0.5286227987,-0.6508367025,0.0318676074,-0.072827582,0.193024425,0.2549685684,-0.244793885,-0.0355583695,-0.1127497861,0.8134425768,-0.2930071948,0.2538481208,-2.0485645928,-0.4505566146,-0.4196877381,0.8313384743,-0.5958267086,0.9288077372,-0.9499534679,-0.9155429335,0.7420100007,-0.2630745195,0.1685710392,-1.1857364702,-0.1105091352,0.2467722294,-0.0402641616,-0.1275163752,0.1818251752,-0.8655110667,0.8543653838,-1.2169573382,0.312829983,-0.5571513854,-0.97204936,0.2840165823,0.246817298,-0.1124217642,0.4682490562,-1.0630046748,-0.141166861,-0.124730578,0.2334081338,-0.6113763461,-0.3031978855,0.5929031599,-0.7312801042,0.1712977374,-1.0505436746,1.259754371,-0.7081654809,-0.027183887,-0.6710264215,-0.1007185613,1.0605068918,0.1942776945,0.7465786609,-0.8604796624,0.4523630676,0.247341507,0.0963566623,-0.2547924464,1.0676620452,0.451575557,0.0185616832,0.7263785046,0.1834224555,-1.1201381766,0.1290317787,-0.4912147164,-1.1247444527,0.1440416287,0.3946924713,0.9366588246,0.7093218566,-0.4554833116,-0.434679199,0.7360510974,0.1284082756,0.7924061512,-0.2642067606,0.3130741982,-0.6682230593,1.0797004879,-0.7796244846,-0.7551888581,0.4184276321,-0.7846188158,-0.0340885232,-0.8958780145,0.518544771,0.1004779223,-0.8800691091,0.1212817585,-0.6285528644,-0.2208119345,-0.3667426548,0.3860824969,-1.3211302962,-0.5300517225,0.2453607825,-0.9424309409,-0.4125091711,-0.9711513314,-0.4052805197,0.4973268922,0.8873710622,-0.483624815,-0.1776274387,-0.8005030077,0.0163469813,0.1950771951,-0.0340137554,-1.0360372067,-0.0168006057,1.4280378736,0.5393364441,-1.0583272171,0.7046796787,0.3869686555,0.6098735379,0.1072134917,0.9024186187,0.3687349905,-0.0786449817,0.1537625476,0.114787319,-1.1056382611,0.3587226602,0.1266419366,0.6792779594,0.176908893,-0.026339257,0.9483643857,0.8273346428,-0.6199647173,-0.3832515856,-0.6982218962,-0.4357094892,-0.2641539454,-0.7353237083,0.0921917677,-0.5434792765,1.2283220872,0.162932453,0.7261317459,-0.0236051687,-0.0707716027,0.8645621626,0.6897211932,0.6483121261,0.6076380041,0.9050099501,1.0245378242,0.4980484851,-0.0140588611,-0.9160192352,-0.1888959895,-0.0447006,0.5704055603,0.1398059071,0.557893296,-0.4282870793,0.3593530681,0.7332829225,-0.7112896455,-0.0021773134,-0.489609237,-0.2893774322,0.3399855575,-0.1982007654,0.4669932704,0.8512086284,0.0250572653,-0.5130623832,-0.5118319978,0.8710442802,-0.0175916968,0.0154815435,0.6123360337,-0.4733913243,1.0452462925,0.6398573556,-0.7609654441,0.4246457546,-0.2837853606,0.3759844691,-0.6221989837,0.8643754942,0.3385517054,0.580359239,-0.7256302145,-0.2303922726,0.8683182547,-0.0057694898,0.7200919721,0.31642459,-0.5924496781,0.717407373,0.2696589595,-0.6805293278,0.0042781894,-1.0463119332,-1.008572567,0.3955379001,0.4221061928,0.4708682496,-0.6894127782,0.9022571905,0.3650857547,0.1214604119,0.0049460602,0.0066230963,-0.0730429743,-0.3218165492,0.3649662391,0.0408457436,-0.8264942754,-0.429197287,0.2202590336,0.3716729018,-0.9555352474,-0.5892110553,-0.1639449649,0.2310094465,0.1257457596,-0.1139848006,-0.1045400942,-0.0217146203,0.5303061602,0.2319986939,0.8404384664,1.0402392706,-0.9785861388,-0.1048975197,0.6660187648,0.6803562756,-0.4599805629,0.6904998113,-0.6241544853,-0.4494527557,0.7761378867,-0.1733739021,-1.0601739859,0.2185917301,-0.4704279391,-1.0784575589,0.2181376666,0.7823843664,0.0721242711,0.0145193509,-0.2073068753,1.1846831116,0.4988256491,-0.8113337766,0.1675757461,0.8017237808,-0.9373878969,-3.2847181687,-0.1615914614,0.5065364007,-0.3675671198,0.2275014441,0.638603151,1.0105801444,-0.3583024725,0.7093891073,0.5494361138,0.8424324589,0.9136026517,-0.0079915708,-1.0831257878,0.4167957991,0.0404637511,0.0433474894,-0.9782268135,-0.7227941423,0.0827964928,0.0320707338,0.7118935213,0.8639573156,0.1474524944,0.7893326979,2.4162363069,-0.5421926345,1.2751263801,-0.0466441348,0.2196098946,0.0019655406,0.4293578654,0.5499950397,-1.5944430808,0.1986768202,0.0932081001,0.0350473891,0.7800820714,0.0784245008,0.0201468988,0.7910229021,0.0882922447,-0.9784261357,0.5984632195,-0.0338016584,-0.0401101629,-0.4967900269,-0.7322929822,-1.0113696325,0.1137462453,1.6508531511,-0.8429846023,-1.0631692382,0.9636868258,0.5560719103,-0.995169091,0.9385759023,0.1580589382,-0.0802932675,-0.0190612747,0.5745262311,0.6233310258,0.1827267158,-0.007976729,0.4806159945,0.2721137987,0.8704965406,-0.3048878675,-0.0538023774,-0.2459590972,-0.1602740902,-2.734527384,-0.2028351821,0.0671802841,0.6466721698,0.8880686573,0.7788892771,-0.0730127089,1.0618372563,-0.4485812848,0.0451336424,-1.0549897491,0.9641957757,-0.16500058,-0.8403426699,2.6424102389,0.1522166624,0.2326059409,0.4217223297,1.1083787934,-0.5436114273,-0.0313453838,-0.0055485953,-0.0380027257,0.1824293583,-0.1390110847,-0.8755687017,-0.1256103897,-0.9174700897,1.0104016414,-0.2416464598,-0.1740032452,-0.7769401166,0.4266154346,-0.1505012046,0.6378865174,1.0652204215,0.7386621736,0.2578774857,0.7822135685,-0.8867382161,-0.3759813218,-2.6304094381,-0.4633471873,-0.5196610339,-0.3295396205,0.4404633279,1.662822886,0.5135958068,-0.7598287526,-0.0805949748,-0.1235434452,-2.5131831478,-0.1519380271,-0.0667732285,0.4776172961,0.4594039363,0.7751258915,0.0138282513,0.8212342395,0.4046763582,-0.0746914839,0.323123785,0.7269918948,-0.3080018241,-0.8439129784,-0.325233643,0.105718686,-2.6724146624,0.4415234306,-0.8578028106,0.0414566681,-0.1888245341,0.6461255782,0.4041704007,0.7951164787,-1.0368412233,-0.3435298985,0.4643562425,-0.6059532329,0.055082556,-2.6172223675,-1.011539281,-0.2620061406,0.0177399556,-1.3971433458,-0.2107879457,-3.366519577,1.7079075322,0.0148401506,-0.1859873686,-0.3951354981,-0.7200913918,-0.0258617575,0.8697313879,0.512913609,-0.7170032346,0.4313919842,0.6398142643,-0.7863452748,-1.0166329495,0.4979747128,0.1718388303,0.8472663124,0.8787572841,0.2076968072,0.9147471008,-0.9426902785,0.6319776167,-1.4789937792,-0.4089136835,-0.8556295802,-2.4266264114,-0.6400735973,0.7820668258,0.6237875674,-0.1274983734,-0.7714348602,-1.5573511806,-0.2039559554,1.0193995186,-0.1635109051,-0.5041281912,0.8983491154,0.8878271328,-0.9796413962,2.1693050938,-0.6870679607,0.4889461025,-0.2168222609,-1.4982346143,-0.5985756058,0.0646463324,-0.5580448758,0.0630408123,0.3245677735,-0.7965527649,0.1288429388,-0.4864423226,-1.0816242929,0.937182082,-0.7052874604,-1.1472853153,-0.3122503763,0.2136487952,-0.5403220783,-0.735245329,-0.3932510053,-0.2239908413,-0.2472991878,-0.9696101956,0.1983756414,0.097315801,-0.6549651205,0.7278722397,-0.0918119721,-0.5673480776,0.0798937894,0.5403918127,-0.1434989835,0.2443086004,0.5453447383,1.27123565,1.233115053,1.2483227479,0.6560604859,-0.1945443719,-0.8121366057,0.6479220443,-0.7175918199,1.0134196315,0.1678394015,0.1616555239,-0.9706482326,0.0942755136,0.695217417,-0.0731459976,-0.0002686108,-0.3043078218,-0.7672210077,-1.2174328885,-0.1262380192,-0.2879872352,-0.3824616201,0.1352726768,-0.0888760159,0.8094882187,1.8496686056,-1.1636258201,-0.5061188207,0.4750513047,1.545963951,-1.1596172029,0.5537909998,0.140351265,-0.8203903331,-0.1228977827,0.5054217443,-0.2481393146,0.1732659193,0.5981379088,0.0629621327,0.6468521768,0.2497650864,-0.7867851651,0.2698208489,0.0043910115,-0.365086377,-0.7929122658,-1.2465198275,-0.1648331151,-1.1465052791,-0.9147245385,-2.168266561,0.2050906189,0.0608971787,0.4409810392,-0.4020694602,-0.9547647564,2.0004965714,-0.2398959576,-0.9218669591,0.168070199,0.0143242245,0.58189573,-1.5620875533,1.1411703175,-0.0710741656,0.5999027928,0.6387910467,0.3062585089,0.9559749924,-0.3786776346,0.3835738601,1.2928350938,0.3737237176,-1.8957333438,-0.1310426359,0.9304676352,0.9517853236,-0.0253138291,1.0045363088,0.0853629807,0.9434870836,0.4746814471,0.6656494043,0.2222690379,-0.9028821418,0.165178971,0.1407265175,-0.5468496269,0.8842127499,0.8986081877,-0.8266542544,-0.361815422,-0.5397560473,0.104909878,-0.6553856824,0.897509325,0.4937325811,-0.9339492254,-0.7145300555,0.4858252689,-0.4970490674,1.1751227359,-1.1056608215,-1.6746549381,0.4018403415,-1.2572833652,0.7300689841,-1.2624297815,-0.0690938787,1.8113569805,0.9010363435,-0.361441644,-1.176202348,0.3988984455,-0.466192592,-0.5984161665,-0.5088823468,0.0375923744,0.9797267014,-0.7680778191,0.2433616358,0.253419203,0.3818888949,-0.4124097027,0.5077563255,-0.4907095904,-0.7609660713,-1.054652491,0.6751857726,-1.746271765,1.7050299977,0.0300453817,0.8036483357,-0.794524633,-0.7657895251,0.462898433,-0.493861727,-0.3270650747,-0.176526395,0.7124617884,-0.2771339574,-0.1273848599,-0.7444811725,-1.5556715884,-0.7897930746,-0.4180896052,0.5755072823,-0.2806758243,-0.794838697,0.3900343075,0.8420746366,0.4195775648,-0.4708008915,0.5295362627,0.2273786721,-0.4994687267,1.0519244321,-2.1428675882,-0.5826452389,1.0743785333,0.2309289383,0.0375555914,-0.9009472347,-1.5066009115,-0.0500113264,4.6259287456,0.822452593,-0.3868570744,-1.7077379783,0.2036292685,-0.8420500712,-0.0357173593,1.249140522,0.4300072036,-0.9456819859,-0.6649147378,-1.4476204659,0.359877767,0.5884120936,-0.1466511447,0.3182087132,0.3918234078,-0.0177148658,1.0962749989,-0.4263828489,0.1541488989,0.1653532389,0.0801582073,0.5679308832,-1.0472427234,0.6422761914,-0.3272326459,-3.7246470401,-0.8829399162,-0.6539247192,-1.8905486572,-0.8298510033,-0.3515701388,-0.8590177058,-0.1394584952,-0.1616958601,0.144887119,1.1799663029,-0.5396381386,0.1339528702,-0.1401162811,-0.7367693466,0.1590835358,0.3950583287,-0.8065706959,-0.1036839558,-0.8546024951,-0.0319005766,-0.8075405033,0.9494852168,-0.8718114305,-0.0840572698,-0.242755462,0.1896819217,-1.3863950134,1.2739409015,-0.3293663047,-0.0761516877,-0.7858276997,-0.7855528487,-0.7944020419,0.9615930559,-1.1820029773,-1.1264781183,0.5560010058,0.8087411609,-0.0254779006,-0.2176104863,0.1366044785,-0.0790163812,-0.5167384235,1.2630461401,0.0573491362,-0.76989934,1.0774989157,-0.129906886,-0.6725044332,1.2969241656,-0.6903590023,-0.2666553622,0.508921847,-0.0283163955,-0.4923848368,0.6837330701,-0.5276201553,0.1372002185,-0.0654771135,0.2762491939,0.7493382365,0.3859198144,0.5977134134,0.4626407937,0.6007954524,-2.3359584867,-0.3002034376,0.0967428987,-2.4529419989,3.8277378883,1.2341859716,0.0163536991,0.4562684849,0.2264397515,-0.761584183,0.4255296922,-0.5650058179,0.3140053828,-0.0181160393,0.3502588978,-2.1908988589,-0.45474361,-0.1497925588,0.2007088354,0.5381098384,0.9136945836,0.1208370595,0.8033644608,0.6845267993,0.0532328264,0.9227772999,0.082288336,0.5726890754,-0.8720602864,-0.4231568477,-0.7154746714,0.7265157138,1.0928215042,-0.1465981174,-0.3080368745,2.9032811357,0.1908830342,0.8347422007,-0.5939272577,0.2321068626,-0.6490922967,-0.6679960389,0.5090275739,-0.9623521746,1.7156153421,0.8389413982,0.0926913759,-0.1613563952,-0.7486022541,0.6738725141,-0.7033611516,1.0935423389,-1.0111071744,-0.4262623407,0.5231361424,2.2959237572,-0.0769457096,-0.7846272093,0.3594360767,0.3038841051,0.1781671055,0.6399349526,0.0433666718,-0.6599871142,0.0276948265,0.1566714237,0.8622957815,0.3500804552,-0.942446663,0.5023053204,0.6105560686,-0.4150640772,0.6903963899,1.7097778759,-1.0797609075,-0.6932343137,0.60610858,0.9417364666,0.2075308524,-0.6866987006,0.8000250358,0.8491367366,-0.6898912426,-0.3730990775,0.6140283209,-0.0404140085,0.0166327812,-0.6957699676,-0.6289700427,-0.77677923,0.2310524706,-0.033678953,-0.1228807987,-0.867153399,0.0742168079,-0.0001722588,-0.0984476022,-0.0359836362,-0.2855586382,0.9757277751,-0.5688020015,-0.6936057172,-0.6171355753,0.8499706021,-1.3310294596,-0.1996063459,0.2195967294,1.8428755828,-0.8150580892,-0.7038701408,-0.0165453982,0.778427645,-0.6010304393,1.207216416,-0.2714883553,-1.4782067751,0.1847851937,0.2480938943,-0.7438162613,-0.4712868553,2.0393567606,1.0588884662,0.6532144772,-0.8461583617,-0.6570438601,-0.4768942324,-0.575342337,0.4009373508,-0.258600291,0.7643903831,-1.2683864289,-4.6869767872,-0.1283312844,-0.0278426332,0.3337142822,0.8649844325,-1.0573801269,0.7218070634,-0.8930248634,1.1657926983,1.578184348,-0.5375815361,1.3807891661,0.2305658399,0.6893489961,0.9559913396,2.9009028246,0.6268194895,0.8856165808,-0.1536938123,0.6722776169,0.7918135744,0.2904588685,0.7964218101,1.2908020787,0.3377159122,-0.0972064218,0.2155451661,-0.4753613112,1.4320769736,1.5607444846,-0.8048214986,-1.0914709146,2.8497308808,0.3204245938,-0.7401163863,0.1129326906,-1.3144182746,0.6132745818,-0.6116901978,0.5897939157,0.3858257423,0.2223329653,-1.4599845237,-0.6000860938,0.6276492375,-0.0932731736,0.7383259382,0.4176632509,-0.2802228471,0.1495523298,-0.4615924926,-1.7393662199,-0.5012946437,-0.2453365907,0.3810186886,0.2441288401,0.3905447021,1.5146913634,-0.7307703874,0.7981862018,0.6380982103,-0.9628897825,-0.6338264169,-0.0288657513,-2.4826199538,0.1403784845,0.4622716399,1.4827397511,-1.0244600341,-1.0266748149,-0.2701671608,6.8349324301,0.3447451924,0.3991855857,0.1235522272,-0.641451746,-1.7968922339,-3.3477313269,-0.0903811326,2.5821542037,0.8525507583,0.6410871168,2.8448357732,-1.2033923953,0.2759366278,0.1877975813,-0.0583239045,-0.4580470242,-0.4723530471,0.7649298308,1.2023526852,0.5662346934,-0.9225578118,0.1592493173,-0.3673067613,-0.2866406469,0.3967025949,0.8531367211,-1.0023548382,-0.9855591702,0.6501591913,4.0354282888,-0.2822496266,0.6236386963,0.4631164456,-2.2504984905,-0.0955410064,0.1256840224,-0.2529459965,-0.9222356057,0.2016707372,0.429140661,0.7185879913,0.3196128507,0.5520756206,0.2932963053,0.8609280829,-0.5179364903,0.8994068224,-0.999426771,0.4641851484,-0.0106658129,-0.7085702843,0.4537195995,-5.8663924111,0.6170767007,-0.6374603331,0.0775892794,0.714662388,-0.8780422191,-0.6020879456,-0.4657851519,0.4370182119,-1.3156627541,-1.5290526755,-7.6824052086,-0.6953731329,-0.714307419,-0.2136594807,0.4411272372,-0.7741356618,0.6633913513,-7.6794057816,-1.2441157897,-14.6006131565,10.6399227928,0.5166168488,0.3209050259,-0.3555347646,0.6455041193,0.0497187376,-0.5838862095,0.9583443483,0.4578877043,0.4494084823,-0.056164864,-0.3260527191,0.9184691887,-0.0112007267,0.7169244648,-0.9343110438,-0.9742063949,-0.4655278117,0.6064194661,0.8800976725,0.7222538304,0.7272084711,-0.8720374187,0.3319577217,-0.5929421792,-1.1037900074,-0.4313613699,-1.5522728876,-0.4512398187,-0.9231549434,6.0728661265,0.3118891805,5.4889473914,-0.0782028174,0.235025931,-0.4922754761,0.9202605866,0.4022969695,0.9282250554,-1.4122981182,-0.825694603,0.8523841924,-1.0027180932,-0.4110710635,0.5326884229,0.6213199206,-2.5997514832,0.0639926476,-0.1366045607,-0.8973595704,-0.3624096697,-0.2360284512,-0.4073849741,2.2133662578,-0.6079053757,-0.8188542125,-0.5492328844,-0.447099903,-0.9344966613,0.877886762,-0.5538543269,2.5732007213,-0.3526887593,0.3872687842,-0.1654908056,-2.210923499,1.1309122734,0.2130431149,-0.1425732995,0.5300303283,-0.1721793025,-5.4511266598,-0.6959941944,0.0022814805,1.7536467899,-0.249169571,0.4409191489,0.6197235795,-0.275827104,-0.724985628,-0.666654207,-0.8944163289,0.551739548,0.1211556185,0.3928801396,-0.7774918493,-3.8154510405,0.4321097214,0.8990987999,-6.0401117343,0.0030668927,-0.827374918,0.6113214411,2.9624602305,-0.5379051525,0.365100449,0.9066618342,-0.555600516,-0.0598947002,-0.8964604085,-14.1456779756,1.1419603598,-0.8565671489,0.9571234319,1.3104008205,-0.7824221729,-0.5412339663,0.6537039697,1.0829677651,0.9387734937,0.2339079154,-0.7730907841,0.3116467154,-0.8319908275,-0.6103107353,-0.6922008801,-0.0380373009,-0.5154139306,0.2516931966,3.3942973559,0.0590934613,-0.0669124241,1.3538141025,-0.8380116172,-0.0887331124,-0.605064227,5.414484241,-0.837147684,-2.0868822957,0.881257075,2.2417943857,1.0287285433,0.3908291423,-0.4839216438,1.6700392825,-0.1966359398,-0.0748460101,0.4284260778,-0.1971012685,-0.9263355084,0.1328410213,-0.9655803175,0.053798475,0.2398611511,-0.7927783348,-0.553160555,0.8166006825,1.2798973255,-1.0752557986,-0.1975768693,0.6299702827,0.392516426,0.3194855017,0.5577394595,-0.0596497187,-0.888747971,1.0386174997,0.1807548264,-0.0349237298,-0.8989994563,0.7328119558,-0.8960550263,-0.0225485539,0.288131851,0.1340685781,-0.6601437902,-0.2754782392,-0.3310129172,0.8058240828,0.1326605654,-0.2817148671,0.5456068159,1.6135052256,1.138407759,0.2250779729,1.5684366873,-0.5586106141,0.6589338142,-0.7989602451,0.2934404489,0.3770824112,-0.0384090022,-0.7390300815,-0.6420684732,0.3056276524,0.1245699439,0.0253637755,-0.3420772695,-0.9380017858,0.8093798904,0.8411194424,0.0525335057,1.1969878562,-0.4684741305,0.9078653154,0.1231139631,-0.5941100301,-1.0863281359,-0.9298860781,-0.6143038174,0.0378355777,-0.0329228002,-0.1028559335,1.0268267327,0.849194601,0.2014842086,0.624205413,0.7919003268,1.0724473988,-0.1269610803,0.4222133796,0.9127737876,0.244294585,-1.287633235,0.2317181824,-0.0300339472,-0.4435574546,-0.4412028148,-0.7484804564,-0.6218883268,-0.1484515096,-0.424695909,0.3979443545,0.6341177687,-0.015005839,-1.0830042739,0.7609558259,-0.0677046494,-0.5104617157,0.8659419682,0.3900371418,-0.0641014204,0.7044228158,0.0501573235,-0.0141630405,-0.6824185905,0.0910535051,-0.9415223623,-0.5983955171,0.1221134945,-0.6282972827,-0.3886673268,0.4583096357,-2.1528946507,0.9432356577,-0.8029827939,-0.798273091,-0.6550943029,0.8976848413,-1.0045851264,0.6634057324,-0.5904833033,0.1714497325,-0.5452500986,-1.095078698,1.8713552585,0.8579192483,-0.7274553429,-0.3733731177,-0.5621311043,0.5892578823,-1.1074968548,-0.9104350322,1.0725820239,-1.7123187038,0.9163551669,-0.8719589368,0.4564516907,-1.1856857179,0.7910652091,0.7377485571,0.0401720501,0.136271695,-0.8371978739,2.7052327333,0.4474031117,-0.984477622,-3.5934662569,0.5321729259,1.0000539983,-0.5742610809,0.9398018624,-0.5673852097,-0.1561340948,-0.6697569543,-0.9039563421,-0.3605652442,-0.0478249113,0.8725359008,0.6370060745,-0.0514499415,1.5512278296,-0.1718904314,-4.5701120587,-0.8879992908,0.2751485463,-0.3004411055,-0.3194076221,-0.3987725686,-1.0387874601,-0.3301458978,0.0815478657,0.6935946023,-0.1671516631,0.4346052878,0.1411910148,-0.13867204,0.9119554087,-1.2474082134,-0.5422730252,-0.7996828224,-0.195726607,-0.4111631907,-0.1049449841,0.2935992602,0.5210304922,0.9334421513,-0.0618818636,-0.3718028802,-0.6940542882,1.4772165182,0.0225164181,1.0023911335,0.3066792495,2.6991827257,-0.7214553483,0.9969773892,-0.1312371486,-4.7842618404,-0.1985869839,0.3825376619,-0.8113850406,2.1379719829,-0.2940778815,0.5739304766,-5.340955501,-0.0423037155,-0.4090414931,-0.6077297085,0.516932691,0.4615994499,0.2292243719,-0.3825668547,0.0285272867,-0.5290205319,-0.9833965432,-1.1265657203,-0.1462331135,-1.1658962069,-0.3138743781,0.8666934592,0.4166307652,-1.6203050773,0.9174969957,-0.1906656449,1.0096300165,0.3865360293,0.6130911219,-0.2303371786,-0.767451067,0.052677345,0.4591588931,1.9956098773,0.8773418932,0.8104523493,-0.8049025232,1.0558085359,-0.4199758266,-0.6912891593,-0.891987476,-0.5508206223,0.2770189884,-1.3549294119,-0.0254954243,-0.0198239359,1.0544918776,-0.018811263,-0.9589769266,0.0553500118,0.7783192378,-0.2980261906,0.771203526,0.691548975,-0.8272237856,1.0738779182,0.6438715536,0.6945908715,0.086725014,-0.5023028165,0.4384926118,0.0292206353,-0.7709436024,0.8663305569,-0.7319053137,0.1433693527,1.1097221576,-0.8475838211,-0.4524285773,0.7122227371,-0.1870062126,-0.8730642311,-0.4962991574,-0.979520547,-0.5795353306,-0.8147107744,-0.3868544383,-0.8820168897,-0.192338768,-0.4499150945,0.3425745716,1.4683162778,-0.3940666921,0.0327501569,1.023912911,-0.2360727617,0.1425866887,-0.1313379387,-0.9836221338,-0.4461279398,1.3256534567,-1.6052012113,-0.273562385,-0.3111861793,-0.5095436564,0.1691045931,-0.9084875867,-0.4889450337,-0.3451568289,0.2884304989,-0.6712855067,-1.1175865606,-0.3771754939,0.5554596933,0.7354535467,-0.6203216472,0.6102285063,0.5051027889,-0.7154434239,-0.0640401653,0.3087215462,1.1677183972,-0.8051178803,-0.3302789741,0.0143344202,-0.4339100263,0.5073376674,-0.1876875348,-0.8861841568,0.2816114535,0.8544914244,0.800513514,0.6924381925,-0.0281929501,0.7849778487,0.9138131232,-0.0184983409,0.2206713123,0.2382637764,-0.4210555657,0.5947870994,-0.7077744584,0.0082883498,0.2199054571,-0.3470793735,0.8140591899,0.0040831637,-0.0065748639,0.7259748555,-0.6298264238,-0.299005605,0.5409736124,0.4843889942,0.6018034756,-0.0976434262,-0.382862979,-0.1544258547,0.2425762909,0.1854796022,0.0473319329,-0.1392393133,-0.2020040665,-0.7057679719,0.7749910955,-0.8790789123,-0.2844943236,0.717752557,0.3224718445,-0.4019145815,-0.6569862169,0.1190046547,0.2576354271,-0.0218450249,0.8078392647,-0.4520284879,-0.0900746968,-0.4678460241,0.7411776177,1.127458188,-0.3169927501,-0.0832063534,-0.5893003539,0.1291964268,-0.5031552618,0.0097675472,0.1959943587,0.1630685361,0.5781076344,-0.3712631472,0.7259437821,0.4005415014,0.2521626731,0.7941762019,-2.0019843389,0.5650951742,-0.8294250879,0.0500534204,0.4161321224,-0.7018285138,-0.0357229844,0.0776213076,0.3057245929,-0.8381730735,-0.5379709894,-0.1329701447,-0.3065251252,0.7377978199,0.1269344614,-0.7350095143,-0.2394599176,-0.2500839303,-0.059026686,0.7858992189,-1.047141832,0.1546152779,-0.2046353864,0.7096451389,0.0896148393,-0.0192707536,0.6533439964,0.9988775024,0.5241145259,-0.0116437141,1.1130390598,0.0120727706,0.5078907037,-0.8624809097,0.7936112631,0.2146809974,-0.3031157177,0.1535964323,0.3661056309,-0.0362909098,0.8150043439,0.9113237245,0.3123724167,-0.5171010828,0.6516327448,0.7366368361,1.7393859603,-0.6424432835,-0.9934437649,-1.0246072283,-0.1942687273,0.7185607398,-0.5340168485,-0.4838296758,-0.1455058292,1.4306457661,0.677496592,-0.2038436391,-0.3267748492,0.8729559848,-0.1658476058,-0.9151536584,-0.0505085127,-0.5443264895,1.4581533119,1.6499259204,0.642347444,-0.0029041403,-0.032018978,-0.2389854074,0.7640828975,0.847323991,-1.2515500664,0.1410225467,0.8452912881,0.2012737931,1.7096915041,0.7904535637,-0.04585598,0.8176362883,0.2205554036,-0.5417839636,0.8465209612,0.5494306823,-0.0955206552,0.4798342461,1.3807554635,0.6430291554,-0.6347407216,1.4407544331,0.6760998054,-0.5084069722,0.252306085,0.1325437335,-1.1058999064,-0.4535104195,-0.1641596719,0.7769609343,0.8719202119,-0.0084538133,-0.4705343214,0.9469536739,0.580250508,0.0450575372,0.9097632381,-1.095209088,0.7615456747,-0.6893738756,0.6992922831,-0.5778696547,0.7072873734,-0.410977137,0.104902939,-0.1410338168,0.371923289,-0.5688526146,0.7450143016,-0.5113684483,0.474567054,-0.5258723774,0.1535783956,0.4983598543,-0.5811132554,-0.7119641804,0.1661595373,-0.129217112,0.7121418382,0.8997122669,0.9702740394,-0.0442096216,0.5655151921,0.0306593434,2.5954988692,4.9356672626,-0.1504396074,-1.0121455626,4.8206265048,0.709373546,0.5777883874,-0.005914101,1.3658764392,-0.4068698272,-0.9306389148,0.2741932406,-0.1226550398,0.572739808,0.1629920577,1.0514356633,0.126090364,-0.6867848544,-0.7301596983,-3.7840128133,-0.758316175,0.914241352,0.0301775022,-4.1805108992,4.4710491966,-0.8036006432,-0.6485590974,-3.358143837,0.0114669182,0.7152566995,0.1198472334,0.3626916663,-0.5376660176,1.6246404673,-0.4644042161,0.2734564132,-3.6616389855,0.0528707566,-0.7301778827,0.6927411561,-0.0400168491,-0.4932646734,-1.3200714764,-0.1401179402,-1.6490304787,0.4837090192,-0.3088293432,3.8780085422,-0.6261191862,0.1524655298,-0.01397028,-0.4104819007,-2.2488405861,2.7583885949,0.1772184167,-0.1391822159,-0.512830925,0.3281343562,2.7571910018,-0.2260822424,-4.249086126,-2.1121881756,-5.6425018122,1.0796538074,0.603884722,0.4598870359,-0.8690391669,0.8272166794,0.3193086841,0.834446059,0.4631704036,0.0024805293,0.616411104,-0.8271544479,0.5150967871,0.5539526694,1.1207322346,-0.3770722492,-0.9195244534,-0.9588759046,0.1919850465,1.1699739011,-0.6303347475,-0.3603035795,2.6691063685,0.5575496597,0.407030616,0.3624881863,2.2743599294,0.8733727468,-0.0540642384,0.155173926,0.6156229672,5.4810520291,0.3876493342,0.086508834,1.0958828702,0.132326213,-1.1342326396,-0.014084746,-0.4668452394,0.6430161434,-1.2546983287,0.4950782794,1.386288943,-1.1305139033,-0.1819802949,-1.2452966799,1.0516011705,-0.1839306245,-0.9224803761,1.0521435995,-0.9454388341,-0.932338467,-0.5252627025,0.8503121912,-2.6793656968,-0.1271447318,0.0905128155,2.0082237812,1.801161339,0.3513781305,0.5813353902,-0.5478020246,-0.4946166709,-0.3271967177,0.0234277885,-0.3442152195,2.1241958921,-1.5845002403,0.0795437553,0.575072114,0.7475835838,-0.6956769724,1.3413550706,-1.4419407485,0.0032763475,1.5633362989,1.0452159923,0.246432238,0.9281223674,2.020108376,0.6887179226,0.2304216279,-0.8566772138,-0.852212048,-5.544173242,1.064243223,-4.7552815875,-0.1953898873,1.2096659185,0.3620923482,-1.8949663085,-0.6162381654,0.6946097231,0.1178344398,1.0368887054,-0.1150749487,-0.793393004,-1.4510732342,0.4629211559,2.0425785578,-2.5279294919,-0.0143770844,0.577511601,0.1546947678,0.2824170359,1.6047758682,0.8914734675,-0.0515994092,0.5971427973,-1.6580163443,0.1037011239,1.3341232899,0.8728519003,0.8713549317,-0.8136567716,-0.7216707602,1.2993226512,0.4410653619,0.2874397352,-0.6373385323,0.137658093,0.9152179688,-1.4022524085,0.4588406152,-0.5541617848,1.3513124973,1.2679949305,0.3018702712,-0.5007151688,-2.1762930862,-1.0139311587,-1.7853642028,0.9101315678,-0.0073703946,-1.4286972039,1.8523499073,-0.3448381638,-0.0529925202,-0.910845435,0.7680855419,2.9333167669,-0.6083313254,-0.6899325802,-0.8425203067,6.8178651106
   -0.8790652446,0.2153627207,-0.07943226,2.3004858318,-0.6485999499,0.6194880186,0.0702808362,-0.2976727328,0.5026119642,0.1599757904,1.6734269355,0.5322752244,-0.0242663555,0.7345228422,-4.9001718196,-0.484119962,1.0280541214,0.6989343205,-4.5675053667,-0.6001109379,0.8878643026,0.3063748595,0.830632506,-0.0916832335,0.7467061513,-0.4720115317,0.463724931,0.4613573343,0.0062936384,0.4249875795,0.1153396241,0.4578525086,-0.2268418355,-0.8577763969,-0.067221668,-0.1281033078,0.6287656471,-2.1760324578,0.0679521762,-1.3442978603,0.9917775532,-0.5722906884,4.2900652749,-0.7449384332,-0.9323394821,-0.428937837,0.8280150725,-2.0449341022,-0.8250801319,-0.6894221714,-1.0640174281,0.440143665,0.3247202649,-0.6796454085,2.0964019199,-4.7609108238,-2.7261541222,-7.992206165,0.2337528256,0.830069428,-0.0309916066,-0.605331611,0.8911528502,0.1220358832,0.8979425808,1.4036961939,-0.2517765088,0.0622738563,0.1612742116,-0.0050318311,-0.3583475448,-1.5769284558,-1.0201243955,0.0764174948,-0.725493405,0.8880209919,1.4785945643,0.3523831939,-0.5475794882,-0.774395771,0.1724865242,-0.6058323918,0.8266555235,-0.9836522046,0.9307513463,0.4019235066,0.4630111751,1.0373500611,4.9133125117,0.35507936,0.0700001435,-1.1645424521,-0.0705142988,-0.1635246893,0.8014456508,-0.8433847598,-0.9987312857,-0.1688308494,-0.3965646086,0.2871391646,-0.4792445162,0.4946490074,-1.0796110168,0.7706185038,-0.3020903595,0.2279670455,-0.7865959686,-0.7504843913,0.406361818,1.0024152025,-0.5959073857,-0.9067979227,0.2029773747,-1.3740164978,0.4895273491,-0.4876995001,-0.4134153792,0.0403743327,-0.9037938837,0.9780992826,-0.2487156487,0.4954484793,0.8698654238,0.0612455598,-0.4571360828,0.8787425487,0.1865517783,0.9947127972,0.8888631085,-0.6604775513,0.21498922,-0.929982716,-0.670971883,-0.7573763273,-0.728148976,-0.4692647614,0.7312798407,-0.9116599101,0.1690643287,-0.6209350956,-0.9174522473,0.9965878557,0.8470525581,-0.3822025497,0.8582619935,0.1360753107,-0.067598558,-0.401908514,0.7057427877,-0.6884949033,-2.2341559606,0.8549122273,-0.7492841,-0.9081294436,0.6353442209,-0.1393432991,0.5212699702,-0.1598695178,-0.2592814964,-0.2205546546,0.7274540213,0.3712655738,0.8567328212,-0.0225524201,-0.2500756972,-0.102404124,0.8301983934,0.3781131169,-0.5124343027,0.2641313048,-0.0134666909,0.0411993377,-0.086048142,-0.0476388854,-0.6428692046,1.0338010461,0.0115595071,-0.6637384221,1.4369731108,-0.0954213808,0.837417112,1.3090115561,-0.7257484246,1.0604471697,-1.1391723226,1.0892571061,-0.9272786912,-0.3634679687,-0.5066719977,-1.0979079619,0.4051307134,-0.2823395504,0.9476322117,-0.5103892489,-0.4596215768,-0.010954592,-0.526068114,-0.6937546229,-0.2055395206,1.5844610917,0.0546527058,-1.4503058611,-1.2419296584,-0.5167070076,0.2800073595,-0.7727949902,0.2710058707,-0.0561743411,-0.6212175415,-0.8241700991,0.524778834,0.9754955473,0.2067356685,0.536108419,-0.0149242134,-0.0232107562,-0.7403965763,-0.3784460026,0.490959382,-0.8867733911,-1.2213574158,3.2896026138,-0.9767753449,-0.6440193016,1.2298748457,-0.2467215215,0.4697470651,-2.9938369362,-0.4291538942,0.8495983948,3.4473361696,-0.736628544,-0.114569212,0.655925954,-0.1012967528,-0.9754337284,0.3069421881,-0.4430574965,0.2299987482,-0.0960225927,-0.0256383947,-3.0071014867,-0.8063310113,0.3296261295,-0.2325657561,-0.0243725162,0.0287044847,0.8890303454,-0.167055247,-0.155332828,-2.62557255,-0.0290258489,0.1992665049,0.935458719,-1.7793001377,0.7216430822,-0.7851845729,0.9410264169,-2.1227735725,-0.9173955666,-1.4131278999,1.1794033692,-0.463725255,-0.573310857,0.2708070312,0.1839025589,0.0827515258,0.7652515696,-1.0754355775,-2.2882995305,1.4162787538,-0.0851339728,-0.3764658214,-0.1348116465,-0.6563728916,-1.2384183886,0.0517529472,-0.5685184633,0.0186552132,-0.5437138288,1.3894612322,-0.6057168993,-0.6714766484,-0.4724062276,0.9984603465,0.4361979689,0.2097841488,-0.2004154266,0.3272614219,1.059416132,-0.1844739874,0.0983059435,1.5975382154,-0.0362920397,0.3132492328,-0.6042524845,-1.3110551545,-0.2320989621,-1.6659035766,1.0548189259,1.2609488694,-0.8936615854,1.2466081513,-0.8787149853,0.3942209905,0.5755172687,0.6063669048,-0.5832998668,1.0692911758,-0.0181377122,0.0879351259,0.4635145803,-0.2405498017,1.4317171441,-0.7330406056,-0.8811726326,-0.4466262037,1.3227058566,-1.0755953132,0.8053354385,-0.3918537954,0.3996852073,0.3196980557,0.6116227231,-0.3751997541,1.9416619733,-0.9742426601,1.2406591148,-0.7826868954,-0.6117341466,0.7018623781,0.4451059888,2.9767321846,-0.4270470819,0.3853018914,0.6013729212,0.2433083513,0.234249285,-0.6198815559,0.060374748,1.2057526538,-0.9646462622,-3.5458569232,-0.7061195077,-0.1468479725,-1.2548580107,1.075499431,1.1708322519,-0.4984998874,1.3987979979,1.3079871199,-2.3765588764,-0.6313626617,-2.6871431197,-1.4761240694,0.838010088,-0.876813979,-0.8808221554,-2.5865370774,-1.1737482824,7.3041982126,-0.6915843876,0.7368553144,-0.9141738874,1.8412694458,-1.1484227399,0.2526074015,-1.1099294084,-4.5576405093,1.7807145544,-1.0310073157,-0.2029086985,0.1765625463,-0.2858478317,2.4404398226,-0.6562602817,-0.7063235361,-0.3230424594,0.1475301615,-0.8017697361,1.2025648598,0.3229487571,-0.1190274117,0.7606752535,-0.0532899131,-0.419316192,0.0790271981,-0.0958986322,-2.4576816637,-0.9656005645,-0.6239235924,-8.5642268894,0.529369976,-2.4545888787,0.6049639682,-0.8578426323,-1.3613580781,-0.0149703824,-0.2673307349,0.8682933891,0.4297845753,-0.9721575072,2.1046986178,1.6955333368,1.6735552598,-0.0741475155,1.1433058815,0.4689646361,-2.2112147,0.9577223875,0.7229817079,-0.7650582602,-0.6022450267,0.8551834808,0.6830759884,0.564597074,-0.5427776222,0.7817597767,1.2097160753,0.0292148698,0.0223890407,0.1682488458,-0.6250133017,0.1162015654,-0.7535114199,0.0282065298,1.4322654457,-0.9505899562,-0.5039990284,-0.5478390905,-0.0623478068,1.1014489868,0.5494453519,-1.0958211238,-0.3840010679,1.0987671927,-1.7984983903,-0.1594515753,-0.3138517493,0.1782398956,0.5969649095,0.0669277503,-0.4075829949,-0.5838171345,-0.4495915701,-0.089884169,-0.0957374853,-0.8073457482,0.0921239864,-0.5953386878,4.0721352131,0.1423091647,-2.6000204428,-0.2664501063,0.4406948973,-0.0019312478,0.0563914187,2.4929818094,-0.9380937978,-0.4542459009,0.179186428,0.6764305676,9.4983452255,0.428956019,0.5642929573,0.0755584468,-0.3116449915,-0.2316875026,-1.2586517829,-1.1680817483,1.1184606029,0.1012714055,0.7849291059,-1.3111904206,0.2624694963,0.0718699456,0.15997391,-0.4767207728,-0.5482367931,0.0282495091,-0.4588215431,1.0332995296,0.347809312,0.2988853209,1.1659859677,0.48229675,0.7845672463,-0.6697342518,1.7819554257,-0.7787119874,0.0122950894,0.1429443308,-0.865933532,0.0417413231,-0.1473117558,-0.2014549766,-1.2385205856,0.5009559461,-0.6143975834,1.2273356966,0.9391663804,0.5536558879,0.1634430277,-0.0859552397,-0.7036505904,-0.4255724688,0.6534338583,0.0084024262,-0.4941460477,0.7506831736,0.5648608919,0.2906058602,1.2106586928,0.3751668107,-0.481705794,-0.1322946262,0.9217733482,0.0489274157,-0.1184042097,-0.0034304074,-0.2234139533,0.628918559,0.8458457479,0.3230983896,-0.8586451247,0.1053204906,0.0523968748,-0.8986241856,0.4157442668,-0.5518938921,-0.4232193291,-2.2891412771,-1.7907523432,0.0294224634,-0.448550573,1.075236423,-0.8760531624,-0.3957277768,-0.3896427593,-1.1777360225,-0.0194814316,-0.7280208443,0.0700007904,0.1233023176,0.0843183665,-0.2813293233,0.5077065671,0.0427495357,0.1712297459,-0.3260199336,-0.3190320917,-0.7685092373,-0.9219054675,0.8197539387,0.4336221019,0.4369595077,0.584821671,0.8774321648,0.0173892913,-0.1143958866,-0.7396784263,0.0629089081,-0.199190277,-0.1582975709,-1.4761033365,-0.0391756038,-0.3197941048,-0.4455103543,-0.2288191671,0.2565896981,0.471050969,0.503690628,-0.5042992144,0.6149710499,-0.2259900852,-0.0156588065,0.2480676085,-0.1348615166,0.2225846228,-1.4617472995,-1.1814555369,0.5268481746,-0.1239892357,-0.3634403374,0.3472171781,-0.2925757594,-0.6166907405,0.1679575786,1.5513564286,-1.4336238714,-0.9125229598,-0.4180217754,-0.9254537337,1.0005112408,-0.7135900745,0.7479278101,-1.0080106841,0.5468584107,0.4859476955,1.2181479245,-0.5175428603,1.2991724169,-0.3336835145,0.0084912043,0.7411471528,-0.0087393687,-0.7048070031,0.0940869123,0.5923105356,-0.3074211708,0.6678142505,0.6456796109,0.1678021353,-0.6571598279,-0.259512844,1.0740211684,0.4623723108,-0.1660568928,-0.7937541943,0.0390794854,-0.0107941049,-0.5341948144,-0.0158717608,-0.6718825065,-0.7376177513,0.2268316073,-0.2873287351,-0.6388030885,0.724211892,0.3970146623,0.4037410719,-0.2364229803,-0.441444963,0.1520751362,-1.020966539,-0.6643579648,0.1847372765,-0.8472051046,-0.1748886617,-0.4595117312,0.1154552645,-0.0951911458,0.4813726253,-0.0961616287,-0.0706522636,-0.3772116135,0.3832356692,0.712265957,-0.0815971262,-0.2194089772,0.9100778355,-0.0150003721,-0.550149862,-0.4705618778,0.0434188479,0.5808613359,-0.6873073504,-0.6241697652,0.4666632564,0.4817100827,-1.0402445034,-0.0406986943,0.2182424752,-0.6021900217,-0.2963217277,0.8312815251,-0.1998502203,0.9999000444,-0.2618903821,0.2140250672,0.5225143285,-0.8053866322,0.1171133305,-0.1858386925,0.4863443819,-0.5246755128,-0.6391654086,0.0100124312,0.0739798485,-0.6072370735,0.3347689256,0.5790830585,-0.709032857,-0.3150421041,-0.8346190918,-0.4937385547,-0.9697908611,0.1137370251,0.3342367161,0.1687261261,-0.1204260013,0.9922479111,-0.7440331277,0.6812013586,0.4725017012,-0.2168405142,0.3126955045,0.943644546,1.0185818719,0.3859500047,0.5458477622,0.4068487972,-0.1513171546,-0.2537977646,0.6545770319,1.4255080361,-1.7277654393,1.6812347906,-0.2400187617,0.7365339373,-0.5921585374,0.2321711762,0.6724401191,-0.4858712831,0.3030784232,-0.1805214843,-0.1068200279,2.6794301973,0.0334823824,-1.2561556729,0.039032263,-4.356186976,-0.4405723957,-0.7091843907,-0.2409691029,0.7292551647,0.1333231799,0.428583087,-0.9033017584,1.5960853402,1.0590155758,0.3526480498,0.0911419834,-0.5931309999,-0.0797196738,-0.0317146414,-0.7934394119,0.6117518123,6.2889123396,-0.395812708,-0.3548439184,-0.1591121536,-0.1519177808,0.6758457206,0.1483262376,-0.8711063523,-0.0200698972,-1.0449137971,-0.1498432184,-0.2176899335,-0.6182048426,0.1437393948,0.5549130175,3.4608665899,1.0117348428,8.0003991004,-0.401234059,0.1889462145,-0.6054402378,-0.801795485,-1.0187808129,1.2658295437,6.4879671784,-0.709300497,-2.2101132884,2.6675001524,0.3553963743,0.7972256784,-0.947433062,-0.7129658862,-1.2166345881,-0.5872057995,-2.6820227151,4.3810381348,-0.7325725408,-0.0709383376,0.2455201535,-1.0523072606,0.4250860145,-0.2990561411,0.5900878855,0.9363158888,-0.6688673215,-1.5278346521,0.1627682677,7.9501031102,0.8696188021,-0.2615676326,1.2710215598,0.7998498443,-12.8321798468,1.0959301988,1.1668452027,0.2539734668,4.4477078031,0.1128078258,-0.0723571946,4.6389569546,-0.4723506519,-1.0721180787,1.4144268196,0.7585865608,-0.4688811312,0.9887160904,-0.1840720613,-0.4192917924,0.3497803861,-0.3075784631,-0.2325885553,0.174953995,-0.1886474782,0.7829790165,0.0947472211,-0.8579840434,0.7178698125,-0.4538427254,-0.11767194,0.6900573355,-0.4820513946,0.0944004732,0.6185244718,-0.0207208476,0.5968758105,0.9206048117,1.0588238817,0.0332432639,0.5936109001,-0.3228623755,-0.907126125,0.9631605313,-0.1271907518,-0.5608344027,0.141456207,0.2940591523,0.0744386233,-0.603841974,-0.6630998374,0.0926951495,0.6666289835,-1.7908658234,0.1572537309,-0.27425374,0.9927267054,-0.4114627637,0.2080681331,-0.0326602324,0.3771510068,-0.4823732026,-0.5893858949,-0.96215922,-0.3669042908,-0.0784736954,0.8902268809,-0.7406565593,-1.0893611718,0.1140538909,-1.7907425101,0.7958474964,0.4805979437,0.4850871198,0.8710560718,-0.8964848676,0.0966866794,1.1110441462,0.1991446796,-0.0887863613,0.1994676218,-0.4158097331,-0.1367830234,-2.7034533736,0.3699119259,-0.1062515708,-0.3454266928,-0.0853452604,0.3116805571,-0.6059381462,0.0518537392,-1.5549809626,-0.9352118526,-0.0831031022,0.1455748579,0.5761200575,0.1432575518,0.553899382,1.0902888823,-0.7817359434,-0.0029567261,-0.7563397813,0.1798818971,0.4739493539,0.3084635078,1.6988157751,-0.9035750361,1.0444042675,0.044501918,-0.1353271994,-0.2058065891,-1.1099834832,-0.5603655115,-0.1662163081,0.0712579431,-0.4961436228,0.5309064024,-0.8411676801,-0.8835147523,1.5788670446,-0.6947495917,1.1246455589,2.0058256504,0.7557696971,-0.1267304873,-0.6233156105,-1.2509134761,0.5558380883,-0.6084973048,-0.6871286872,-0.4312510192,0.6631787126,0.3203306808,0.6918621866,0.3290802647,-0.0512082651,0.9178654403,-0.688667033,0.834107046,0.480469558,-1.1147837598,-0.6227082957,-0.5247709518,0.9903286606,0.4295861077,0.1937883936,-0.2578958445,0.8103758943,-0.2407856109,0.4338970881,0.5145823901,-1.669433229,-0.0141553747,0.4507459818,-0.5785993291,0.574655024,0.5071123773,0.2328358109,0.7851507053,-0.8476087814,-0.0004856802,-0.452939985,4.3340281266,1.8198339749,-0.0600353179,-0.1512732877,-0.1226503141,0.1829792903,-0.7373627447,-1.485325242,2.1881562268,-0.3881869646,0.1112418703,-1.5779394137,-0.7362754986,-0.7178923908,0.1347618943,0.3111143728,0.7964307122,-2.5338619656,-1.0960094062,2.3009541363,0.3058649909,-0.8585669764,0.5305856677,-1.01558645,-0.0436864231,-0.9394673613,0.8677475296,0.7029233953,-0.2534823594,-0.4610623531,-0.1575757896,-0.6566530705,1.0565638317,-0.5329433339,0.5251000646,0.7953809422,-0.5069746955,-0.394477466,0.8326546166,0.835598091,-0.2300975874,0.3439715773,-1.5953394326,0.6338553057,-0.1732293453,1.482340638,-1.4237140096,-0.9574107927,1.0445435581,-2.7712164051,0.4963265613,-1.0567102475,1.2478257998,-0.265395276,-0.0093958667,-0.0407715768,0.6604791063,-0.5308766883,-1.7035448879,0.1024392714,0.5659860778,-1.0966014153,-0.3360040259,0.5863247724,0.6906515482,-0.7830744691,-0.4975794393,1.142201498,0.8768831274,0.9785902381,-1.0993313631,0.6935875809,1.4048882528,0.7381733236,0.0950033486,-0.5649558358,-0.5237814616,-0.3691493595,0.4844990727,0.1013883094,-0.742564348,2.5894385916,0.6306217121,0.5545836782,-0.4207740213,0.2920922559,-0.5208962425,0.9406635352,0.6902074967,0.7416584045,0.3329389328,0.6594244738,-0.6943119174,0.3398237797,0.7429882774,0.7837860576,-0.0040796268,0.0634772529,-0.7093784931,-0.4176825971,-0.8367199529,0.3549387026,1.1640959885,-0.3852686563,-0.861182413,0.6612940453,-0.894421297,0.9115521553,0.0345067942,-0.0202409124,-0.3325054456,0.3966192214,-2.0823152692,-0.3054414213,-0.7540356626,0.3262940614,1.0425046887,-0.511317361,0.3948694872,0.0039318928,0.7882238881,0.8599846614,-0.0882618621,1.1894312108,0.3538089915,0.7576546715,0.7135572256,-0.3559690719,-0.0663987694,0.7153065355,0.5300525651,0.0189681436,-0.5851570411,-0.4553581955,-0.3019929656,0.9435306021,0.0636974,0.114308401,-0.3332148557,-0.6222550444,0.3150758705,0.3249836216,-0.1617775464,0.14877216,0.6665265114,1.9129926001,0.6197874475,-1.718797514,0.6019761303,-0.5726975954,-0.0729791068,-1.0361023881,0.2716599497,-0.3926430542,0.7969410966,0.3451757945,-0.5623551017,-0.0960335213,0.8923130202,1.1896668908,0.9935531901,-0.8170741027,-0.2013491272,-0.7440248449,0.2221036742,0.593071507,1.0052844907,-0.9056148586,0.5133034431,-0.7465326652,0.5996089826,0.6057803146,0.5772580109,0.6106248375,-0.9383898892,-0.819466782,0.3731248501,-0.2575118937,-0.4089325703,-0.2653364635,-0.8359487144,0.6332423155,0.2275335616,-0.7539124428,-0.1826562293,0.4961095171,-0.0051202388,-0.3470349973,-0.6952698086,0.3402605998,0.5861842799,0.1853290508,1.0120012897,-0.1461654759,-0.5548813762,0.1484155329,0.6035819985,0.181820741,-1.0269486203,-0.2430238347,-0.0751416995,-0.0353039971,0.4809392735,-0.7048961597,-0.7338907301,1.3246471455,0.0319513645,-0.1059092019,1.0818956402,2.3271264121,0.1126379952,0.3587012771,-0.9301347211,1.0477440993,0.4010221756,-0.3180846656,-0.9336219675,1.7253935346,-0.7451334792,1.0595073323,-0.0623664084,0.1467261114,0.6272113406,0.9574790663,0.753077484,-0.0829537325,0.9904869702,-0.8748003905,-0.3801668765,1.0624728044,-0.9954785277,0.7242956227,-0.903665581,-0.3761571674,-0.2391117455,-0.5461713615,-0.6573843856,0.5938400399,-0.3659142773,-1.0074175418,0.2304120741,0.6487434782,1.0370897978,-0.6764888855,0.4262735371,-0.2278210994,0.368738128,0.5835535637,-1.7003207204,0.4729973486,-0.3163136929,-0.0085471137,0.0818421932,-0.5562633125,-0.8267780792,-0.7080195499,0.2685993866,0.8543935637,-0.3971322411,-0.4519651699,1.4199357995,0.2888017394,-0.1154153927,2.0691655499,4.4127967759,0.2968564687,0.9166127674,0.8319950933,0.49337111,-0.3256868952,1.1037446884,0.1577764659,-0.7792818462,0.6705708182,1.211187098,-0.3900831341,0.3602005173,-0.5250410782,-3.3083441648,-0.6562673324,-0.2635600142,-0.4318619855,5.1171741418,-0.9056905706,-0.8500100954,0.707783598,-0.3816236722,-1.3725348598,-0.3209122021,0.3379375579,0.4272431781,0.4323970582,0.1155102713,-4.0754299936,0.3316016752,-0.4336883737,-1.0837595755,0.1797540924,0.8781554609,-1.1574131313,0.5716992713,-2.9090830763,0.5265075588,2.4219720383,-0.7927392434,-0.22508565,-4.9360777804,0.2866432415,-0.0439430395,-0.0916563096,1.3795003883,1.2050510079,-4.4790572206,-0.6859393974,0.3858118831,0.8293583226,1.01802977,3.8667080762,1.212511687,0.0430904634,-1.9386945834,6.4463499197,-2.2556032225,0.8878372525,-0.9323436825,0.0163844925,0.5532323073,0.0718534496,0.949310122,-1.9200636073,0.2178371806,-0.8395491513,-0.9580357324,0.7311723053,0.962903549,-5.7745301501,-0.8581985257,0.7851931735,0.4572452561,-0.1797084766,-2.4229416787,0.9774227783,-3.2434228311,0.6206825282,0.5289827992,0.3449150424,0.1626630017,0.4484569463,-0.5367057916,-0.8691570846,0.5329740205,-1.5655118944,-0.6039019962,-2.7243258333,3.7332184461,-0.2044804428,0.2306870355,0.3916372043,-0.5490621943,0.0885057311,-0.2006041666,-0.6301670101,-1.0024049795,0.8676281167,0.4263740499,-0.7564588756,0.4759813682,0.5841103436,0.2819271004,0.4885028699,0.3025836654,0.1785601213,0.9608416531,0.7123566333,0.0281171335,-0.748161046,1.005563504,-0.6921112454,-0.9491136483,-1.0835152245,0.4770665431,1.0904169129,0.9489985787,-0.2758277228,-0.8049769065,-0.4641113739,-0.4241008606,-0.4555353503,-0.4552221861,-0.5994643975,0.2906007323,0.6128851894,-0.246672952,0.0170291289,1.0177385821,-0.2403342013,-0.5787605723,0.0695828892,-1.2004301161,-1.0543390466,0.7473195297,-0.9117910831,-0.274412097,-0.5325260259,-0.2944915763,-1.6303852495,0.8015760394,-0.1522310306,-0.1375213211,-0.2773158199,0.0364727344,-0.9067868779,0.0764795473,-0.8354096087,-0.6694651924,-0.5414852008,0.6158899846,-0.8311203113,0.0512889311,-0.880570432,-0.1460541982,-0.8622187512,0.5295531988,0.1708630998,0.5481488909,0.6724140706,-1.9119834827,-0.9947711745,0.8144901086,0.1736735615,0.518675832,-0.0690842073,-0.1481160901,-0.8770860116,-0.4163964978,0.4225490533,0.0325726449,-0.2806510676,0.3337684029,-0.8000341538,-0.905719806,-0.3633036056,0.3398352427,-0.093254915,0.4344807665,0.5048039601,0.123975345,-0.4402431318,0.5194537876,-0.0381223262,1.0006326299,0.672579715,0.0107667811,-0.1675072542,-1.1694172498,1.0952769751,-0.981641816,-0.1894274826,0.7439382153,0.3871722886,-0.3335290519,-0.0451204203,-0.218030817,0.2071348874,1.4736281897,0.0164105383,-0.2916041052,-1.6017846793,-0.4585642192,0.7602678464,0.4134092342,-1.0909600594,-0.7320858364,-0.0402410865,0.815315266,-0.9331845223,2.4048177508,0.8198096327,0.3612197581,-0.2974458569,-1.055386385,0.3419731689,-0.1201190078,-0.1995386643,-0.260610651,1.1476442852,0.4888147134,0.2753880557,-0.5587163864,-1.5803231635,0.6286729524,-0.6390330735,-0.7799551401,0.99963131,-2.0171067497,-0.1019450241,0.4138766765,-3.1997655422,0.1369494993,-0.2250272482,-0.001577164,-0.5104227749,-0.8147565033,0.081665141,-0.0978158486,-0.0902490987,0.1373671024,0.0802895346,0.2686840837,5.9985247796,0.7434221197,0.571561415,1.2649442042,-1.4528840831,-4.8286882253,0.232259924,1.0489772111,-1.9059676006,-0.8993250947,-0.5707722921,-0.0081882709,-0.0413881123,-4.1678907311,1.2072645499,1.2170419507,0.0305286296,0.7115112085,-0.1012125212,-0.6618958024,0.0703231879,-0.4799553282,-0.8617449839,-1.0076950203,0.2379734204,-0.4409397711,2.5328410403,0.1151322693,0.6893549922,0.8491427003,0.3816860884,0.2424576893,-0.2905458763,-0.4223777746,0.0372936736,-0.5667335172,-0.2516096331,-0.2348974965,0.2015745647,-0.7385123635,-0.0581945498,0.150382292,-0.230028659,0.7650028828,1.9767636342,0.9881851308,-3.1612595393,-3.1890160268,0.0054938019,0.0877552194,0.3803779031,-0.5702988406,-1.3523571997,-0.5383313398,0.9321553872,1.2499589958,-0.3268240094,0.2693056565,2.9001507309,0.761605298,-0.3026951689,1.4120804513,-0.668710566,-0.7193437081,-0.2253075203,-0.8385794208,-0.2713452206,-0.1916210815,0.2294959941,-0.7665955588,0.7597053705,-0.0146093996,-0.1249777522,0.7618984491,0.1632065252,-0.7260212964,-0.6346645888,0.1422153713,0.0571952053,0.9416270298,-1.4407379249,-1.0751606464,0.7695034302,1.3368562763,0.9495957225,0.6423550846,-1.1278388232,-0.4585581012,-1.0124363178,-1.0541152829,2.5740772157,0.874602311,-0.0861041149,0.18470525,-1.004913228,0.0613791548,0.3097537271,-0.5031803811,-0.1191125823,0.7062703336,0.6928692311,-1.4542889486,-0.0962576252,-0.2481087928,0.2827543477,0.1882673407,0.9867224013,0.7943503119,5.6204613236,0.9096403517,0.009605844,0.5293872589,-0.7844369346,-0.3536995197,-0.0384293416,0.0596343067,0.7283818447,-0.0301111056,-0.3202566949,-0.1916229465,0.5292816045,1.0750079425,-0.7611241273,-1.3105648651,1.00425081,0.1310585077,0.517216877,-2.4561124145,0.3656080137,1.4306127917,-0.4979624622,-0.158032997,-0.2625277333,-0.2181802206,2.5394882577,0.0963469353,1.0706057754,1.2685354472,-0.7125239098,-1.6982015507,-0.7580674352,0.8372687327,1.0449877681,-1.1950894217,-0.9760806127,-0.1010374863,-1.972273834,-0.0027132273,-0.9587639173,0.9653461661,0.1954435993,0.7917040225,-0.5877115132,0.7684316123,-0.5065397368,-0.2141379471,-0.4446021606,0.3143559743,1.0006665836,-0.5862188122,-0.3495687832,-0.4902309213,0.7903567801,-0.8496623262,-1.7273264783,0.3577484917,1.4913079519,-0.8801350786,-0.2840801893,1.2005663447,0.9703979363,-0.2576948906,0.0003521842,0.2862466387,-0.3360065587,-0.3951223211,0.4444732668,0.331225942,0.9407985263,0.3051474549,-0.2223130643,-0.0668368225,-0.7128941021,-0.6496958435,0.9156455543,-0.5906412201,-1.2578186188,-0.2882574644,-0.2487030228,1.295889779,1.8104631746,0.0829421077,-0.7579871667,-0.3646589816,0.8111925256,-0.0463766867,0.9732724456,-0.6153005488,-0.4646206092,4.1986891597,-0.9737680402,-0.2438027214,-0.144826411,0.2566016702,-0.0779243825,0.2152168753,-0.2108313376,0.4096372541,-0.3912900046,-0.9327078999,-0.0380542214,-0.7938515417,-0.5417408977,0.5218902483,0.5518421583,-0.2713254595,1.5209847602,-0.4608632746,-0.8420132156,0.5088894013,-0.8605221567,-0.2559798857,-0.5989234501,0.0260949024,-0.3340584693,0.9211607102,-0.5091950153,0.3694174819,0.084132763,-0.4288665049,0.6299701546,-1.0441440261,0.4502645192,-0.5117190181,0.3514153605,0.0430573061,-0.2194412581,-0.2442640796,-0.0961958695,-1.2177968009,-1.0417978866,-0.2791060152,-0.7309705001,0.0802266099,-1.6110362253,0.5954604183,-0.9021377424,0.2495753658,-0.3401822167,0.0369733622,-0.0032573802,0.7975789256,-1.9684386456,0.5090108669,0.8342071447,0.3324404773,-0.7375183267,3.6271140671,-0.0599595621,-0.3628048916,-0.4795284314,-1.0681844068,0.7739230217,-0.8592407048,0.2254796886,0.2543033963,0.3064745169,0.5742818326,0.4619363709,-0.7741554758,0.8361140405,-0.9818844086,-0.6973005675,0.4315338596,-2.2784786187,-1.1389779789,-0.6778126446,-0.986694347,-0.605288592,0.9978440402,-0.129927898,0.7738630985,1.0573935645,-0.8316758597,0.6596367965,-0.7263181845,0.925700301,0.1316145994,1.3863305039,-0.316223932,-0.6698652854,-0.4169116913,0.448335429,0.9081988113,-0.5042496593,-1.6633440459,0.4706413458,-0.8346374356,-0.9745413844,-0.6250619265,0.4314085835,-0.8036267425,-0.9088851033,-0.8144354876,0.8985723037,-0.4370189893,-0.1027810095,0.0260673974,-0.3331598173,-0.0058933616,0.6490250928,-1.2356163549,0.5329714082,-0.3401633578,0.8693702733,-0.0058188238,-0.479684691,0.2927133719,-0.270615512,-0.5000935893,-0.5254628973,0.4675230518,-0.0230547913,3.0060625722,-0.4374027133,0.896381456,0.5393221254,-0.4808306473,0.9935121154,0.412523809,-0.804416387,-2.8217864271,1.1551184237,-0.5405716676,-0.33050586,0.8706721693,0.2006871822,-0.7063030721,0.4791175061,0.9280008948,-0.4494134757,1.1787979625,0.5044849298,-0.0113259304,0.7821858653,0.0637401293,-0.6963147786,1.3547976168,-0.5582905951,0.5441924481,-0.0430691403,2.6475377832,0.727451278,0.9783666208,-0.5720550582,-0.1600896248,0.0308427058,4.6484197028,0.3609962676,0.4563039142,2.9445861261,1.0757460482,0.6321690137,0.2446930444,0.2563494238,0.5227643624,-0.627476105,-0.8923464107,0.873542061,0.3171497841,1.2160275719,2.0365113529,0.9031163115,-0.55119155,1.6206014307,-1.8010406562,0.0962488809,0.7801794245,0.5551037688,-3.3098479202,-3.9834398467,-0.5563361053,0.4686629043,-0.8502913142,0.6074216221,0.6903901426,-0.3121592662,-0.4013478782,-0.405136649,-1.4054380782,-2.9587347658,-0.109239053,7.4566294677,-0.2334692935,0.9587805509,-0.2447913732,1.2824902965,0.6017777729,0.9585837068,-0.7924737708,-1.0763658869,-0.0582689384,-0.5916780612,3.2676166607,0.9170913658,0.358037132,-0.5972400864,0.506126061,0.8210941694,9.7319123556,0.2067462542,1.1002002615,1.1597053405,0.6252109446,0.118644324,-0.0532041547,-0.503759499,-2.4351041452,-1.4943994579,-1.3763010648,0.9956300987,-0.9569745684,0.8299928002,0.0221425533,-0.3135721939,0.773549212,-1.1679809938,1.7766435939,-0.2429163929,-0.5210548641,-2.1290052088,1.0761840499,-0.9753985252,0.73127944,-0.8604626536,0.0886912067,0.2994778022,0.616739149,-0.6127452418,1.9442416308,-0.0685654201,0.0324747914,4.5174833829,-0.5497464073,-6.817685175,0.0515614098,2.0721890669,-0.7065042456,1.5001751336,2.2746786818,-0.0248683547,6.5100191875,1.6335491694,-0.2506721236,1.336188454,-0.8158213405,-0.8379306154,-0.1201861043,0.3029217894,0.281561724,0.7982758653,0.5931449221,-0.2341337737,0.758168117,-0.127216904,0.0438851945,-0.8771933902,0.4124347081,0.8248232485,-0.9258143032,0.2900584619,0.0790137364,0.4852128064,-0.5868179499,-0.8899394855,-0.7536637297,-0.053921374,-0.9680722225,-0.704940643,-0.3186781543,-0.0638059186,-1.5559614148,0.5509640322,0.9814293024,0.960911483,-0.0223627644,-0.8165604084,0.8930664875,0.4094730218,0.2338594054,-0.0571497851,-0.0903343199,-0.2152680963,0.4775431355,0.0686636279,-0.5272894784,0.500260325,-0.3674790749,-0.7409550709,-0.0512464568,0.523718451,0.1134971633,-0.0778765753,-0.635542483,0.0191066703,0.9267783674,-0.1402704358,-0.0372791084,-0.2127263096,-0.6794854906,-0.067716014,-0.2249654533,-0.3046981821,0.6121996823,-0.2186052075,-0.2797071608,-0.8531708171,0.0729307142,0.3368846752,-0.0419638979,0.8641167668,-1.0219511362,-0.7704250733,0.56629399,-1.0809516282,0.2137250943,-0.3582112492,0.6079989929,-0.3879893794,0.8108781853,0.3586128448,-0.0854981617,-1.0100588528,0.0037991585,0.0426624126,0.7336706781,-0.0369676102,0.6310732997,-0.1166045922,0.5745390308,-0.4035847894,-0.2817599244,0.4788879047,0.0163705349,0.1681206586,0.3765490007,-0.8103233946,0.0229782805,0.7858646477,0.5737872163,0.460578784,-0.4855742914,0.6951592092,0.682031714,0.3554309142,1.317189152,-0.9639939852,-0.6476012081,0.1194135892,-0.2429308928,-0.8491529513,0.6250665938,-0.1105745184,-0.0273694211,-0.0398926326,-0.6603872569,-0.3052716522,-2.0399912674,-0.7737019595,-0.5232558733,-0.5753340682,0.5563857696,0.3695732072,0.3756171855,-0.2145961697,0.8041004897,-0.4983636502,0.0532117488,0.4059163833,0.4799661861,-0.9022447138,0.5616861004,-0.3111952588,0.5890293827,-0.7097330695,0.1012974974,0.4015247797,1.1769327722,0.1659531699,-0.5615248156,0.9537198246
   0.371487383,-1.1226373319,-0.0157467636,-1.0305026994,-1.0602834718,-0.1205476878,0.9755278963,-1.6364798211,0.1088100134,-0.2020345711,0.7980470425,-0.4353295214,1.0240368529,-0.4406132156,-0.8271668354,0.6500572332,0.7006093647,-0.0846179971,-0.0236127971,-0.5984202973,-0.9993385551,-0.331203002,0.2266785607,-0.6323558594,-1.2875672517,0.3013222253,-0.2702920564,0.7260948621,-0.4356645711,-1.1155574043,0.3998667915,-0.0049420016,-0.1587582276,1.1471042998,0.3802995419,1.0772201533,-0.2900947133,-0.6307241098,0.7918396021,-0.6248211637,-0.2594326286,-0.2624923424,-0.2964751476,0.1291551926,0.1103046031,0.4293091465,0.3806699569,-0.6194451411,-0.4464586385,1.0903154502,0.8035750007,-0.8077686538,-0.7805532956,-0.2182353109,-0.180551234,-0.7627060767,0.0214437656,0.4112063202,-0.1287332539,0.1068365886,-0.2377065586,0.0645895496,-0.7876878564,0.7901653576,-0.5928538462,0.5194594621,-0.9351545583,-0.370077579,-0.1313516898,0.4513565189,0.0208216456,1.3104076754,0.6040734138,-0.5757512059,1.0558643026,0.9345052421,-0.3349759227,0.6775932991,1.1072557898,0.5116683299,1.0363153526,-0.0551679551,1.0812458503,-0.5886399879,1.1246038989,0.9039620843,-0.4105321044,1.1088096285,0.9426288805,0.6468750044,-0.1239440114,-0.6067838646,5.5644334357,-0.1745922719,0.4419272171,-0.1547351637,0.8823836166,-0.8674165945,-0.2526395606,0.0835822739,-0.144040979,0.1639884315,0.1613925935,0.2272737189,0.4979242464,-0.4358823881,1.5380651357,1.3225173947,0.3840769335,-0.872777842,-0.0025515619,-2.5475597655,-0.6828977123,-0.2836124216,2.8309464,1.7639776517,-0.7008782185,0.1385025486,0.4947863019,0.03845273,0.557395165,0.2828921936,-0.5585249064,-0.7930304431,0.321142543,-0.3186852295,0.4204977756,0.3308041413,0.8709411215,-0.6399050764,0.9013789818,0.5713973739,-0.1287947683,-0.057729547,0.5786866605,-0.4249805941,-0.7072791816,-1.82059997,-1.4980142407,0.5678418353,0.8406702412,0.5020820544,-0.5632143022,-0.115260957,0.8491196675,-0.9120663992,0.4121105853,0.2261810134,0.0905595169,-0.8774258329,-0.0186250913,-0.3975412274,-0.4757584154,0.4696473652,-0.9359940463,-0.9910879792,-0.2680679161,0.0019157023,-0.0821855564,-0.9716205639,15.6925774525,4.9576011292,0.0777251414,-0.6694437619,0.2526459077,-0.627091745,-0.8056148557,-0.4765207109,-0.693395724,0.8138692899,0.5670540132,0.7229224149,0.0860738438,-0.4149561776,-0.7824268316,-0.1204437577,-0.5825407699,-0.3197758427,0.1181227024,-0.2319912165,0.0471748866,1.7713266276,-0.3624788717,-7.7135881741,-3.0809632754,0.648973154,0.9055432955,0.8309204587,1.0875266346,0.4864249492,0.8570123367,0.4122111345,0.374962018,-0.7505002081,-0.6169907429,-0.0745924203,0.1636373437,0.567921908,0.1093098321,0.5402104755,-0.3047683368,0.2854565769,0.8389076803,-3.1082083139,-3.1421978918,-0.0342050424,-4.6224466806,-13.857555521,-0.9114134168,-0.8818598875,0.0843299126,0.8586619069,-0.2102569124,0.2652780384,-0.0298270255,0.0708626484,0.1889839976,-0.1366681748,-0.9341120122,0.0383787946,-0.1142227751,0.8984535927,0.5122764169,-0.5201609857,-0.64730764,0.6250679379,-1.1745337777,0.692942918,0.8755242009,25.1862651354,4.0652684699,0.881122554,-0.0375108047,0.2980658263,0.2160613477,-0.938430681,0.6990837815,0.0118099507,0.2571856787,0.0824695636,-0.602501004,0.6960977255,0.5623789991,-0.6197570227,-0.8227500808,1.0405220047,0.2049082109,0.610854945,-0.761851293,0.843282266,-0.394687,-0.7596418134,-0.3245686706,-0.2135578752,-0.394788055,0.2665419924,0.1225180023,0.1901029138,0.2356114934,-0.7912823622,-0.922262639,-0.6716452763,0.3128492061,-1.0183709559,-0.2020914723,0.5636288359,-0.7618900441,0.493227721,-0.5018114696,-0.4758860028,0.6397727598,-0.8296682018,-1.6219526831,0.8729135029,0.0746546946,-5.9304671259,-5.3021764367,-0.1560158761,-0.4746071732,-0.3145330993,0.0837099994,-0.100417078,-0.0916470493,-0.3905733756,-0.5188019906,0.1238424842,0.3262209249,-0.4944047188,0.2832054474,-0.2632800378,0.0337975006,-0.3515376858,0.587151547,0.0101800783,0.9041640288,0.2367936125,5.5095039516,-0.3078458164,0.7829463667,0.4364942292,1.3332701597,0.0263476766,0.629519213,0.4180346895,-0.1226461946,0.351325515,0.1196562456,1.234425197,-0.0120093238,1.0207839172,0.6039165523,0.0653475805,0.6732597703,0.1327610096,0.5411803436,-0.4425031879,-0.2304055674,1.4871446193,1.5340929751,1.3466361683,0.0464983693,0.3983857242,0.4726582297,1.4073590712,1.7603222803,0.0024169226,0.483040389,1.6441670388,1.0319647803,1.6493583207,0.1863664514,0.6870943912,0.7774265144,-0.1950924026,-0.3317258353,0.2752611379,1.2419822224,-0.3395203624,-0.0864143364,0.3320499482,1.3444330206,0.7040617834,0.6783014001,-0.4172101041,0.79552648,-0.4329968324,-0.0706795242,0.8618065574,-0.5332494413,0.2249287892,0.789890587,-1.081271079,-0.3775039995,0.1010565942,-1.18093132,-0.4632237111,-1.4775798661,0.2034735185,-0.0667593165,-0.033157959,-1.5917786374,-0.393711903,-0.0224896267,-1.4689888998,-0.9392059534,0.0636340036,1.2638215269,14.8555245409,-3.7503357749,-0.2262463019,0.9040738786,1.1434560653,0.0739763559,0.9548968327,0.228845071,0.3346223087,0.3228169162,1.0073999721,0.5397546171,-0.7741849702,0.3782505681,-0.9374162833,0.6670551296,-0.2862236841,1.3731115461,0.8268599027,0.2364398948,1.3302327764,0.5796434125,-0.9355585905,-0.8135814993,-0.7856852411,-0.7162415283,0.2450805844,-0.3654791586,0.6828447981,0.5880013645,0.2939924224,0.2429773886,-0.0350405474,-0.489548195,-0.0049013476,0.0202134727,-0.631270539,0.232145123,-0.7093577296,-0.9930707462,-0.7588713349,-0.8096780819,0.4889016944,-0.1004605107,-0.3956227288,0.8605309145,25.1413614269,1.6581157014,-0.2557168114,0.01104179,0.0215772213,0.1799775344,-0.1417228494,0.3132301699,-0.7249496018,-0.7585818816,0.9290899929,-0.1570979688,-0.2938604209,0.5505441611,0.2718041099,-0.853240236,0.7193532841,-0.1287898388,-0.0476748559,-0.072237786,-0.6281914292,-1.9174508476,0.0324402829,0.1558890315,-0.7345845329,0.9154686406,-0.7267781684,0.6593092742,-0.6469850301,-0.2102308753,-0.2919662679,-0.0247609636,0.6952508042,0.8201478865,0.0376206101,-1.0017408003,0.5563819051,-0.974759395,0.1912388273,1.2679965859,-0.209182409,0.7044263064,0.1770595915,-0.1002482878,4.0341239335,0.7599444101,-0.7111307271,0.1302976906,0.3056578514,-0.4855736228,-0.1103300262,0.9161995358,0.7008390911,0.788122946,-0.536461459,0.6050626704,-0.0374660325,-0.0869253485,0.7660191195,0.8660071141,0.7576403647,0.8215549439,0.6439211694,-0.6376950224,0.0780794961,0.1685080018,0.6982523163,0.7746606284,0.0498249506,0.403267438,0.3055485905,1.0453734641,0.0837924044,0.2809075699,-0.2360824171,-0.428101918,0.1319908459,1.0952255529,-0.6793425081,2.7671894585,1.3926795166,0.945135001,1.3862283532,1.6404892321,1.4581307511,1.4671352828,0.5696980786,0.8526669839,1.3284974978,0.4702386859,0.9329569722,0.5019637637,5.9219339929,2.9280654394,-0.0383264978,-0.3394605407,-0.1411478032,0.3658786587,-0.0366394876,-0.9174617252,-0.7226809578,-0.558311819,-0.6348388388,-0.6624684873,-0.1308357469,-0.7308223395,0.9926277001,-0.7153560522,0.5088780294,-0.3211229796,-0.7041571329,-1.0225047778,-3.1589899842,-0.3746210343,0.1067437982,-8.8847429116,4.6827886862,0.7220512758,-0.997217244,0.3198609368,0.1487211207,0.6133967285,-0.3746893924,-0.100985351,-0.9275077639,0.6578672463,-0.658586188,-0.1807390597,0.2258798053,0.2714946483,-0.2773626934,0.0506373825,0.4942316773,0.7853031421,0.5929048164,0.8794231364,13.3875038218,0.2788634636,13.3187961386,14.5536295775,0.3306123256,0.9872102053,-0.1687288154,0.8742185018,0.6623422996,1.2757311334,-0.4191618396,0.8561235583,-0.7099105904,0.0692078762,1.2632026477,0.0734607214,-0.29229453,0.9843621842,0.7591903925,-0.1962577371,-0.2978130107,-0.1775283107,1.3998908223,1.2414060989,0.0997237891,0.2892216179,-1.1629002028,-0.1691935656,1.8024997258,-0.1507757486,0.4492818145,-0.2910118416,1.0627194224,0.5541008779,1.2212165769,-0.6088698306,1.1120864441,1.1334501888,0.0907074555,1.2331305494,0.2375359968,0.7956807676,0.4549814198,0.1072549251,-0.5074325997,0.7466157326,0.5853560594,0.1519316008,-0.3411793986,0.212720159,0.4670815821,-0.5247363724,0.7829574784,0.993456395,0.9571707161,-0.1373640818,0.8995360678,0.3309337571,-0.1479827244,0.5496035107,0.9200125826,0.5267277078,-0.2253259856,0.2761711845,0.6349345245,-0.2907265376,0.5492755033,0.8420283723,-0.7043522238,0.4000485928,0.4811582593,-5.6077901419,6.5967566067,0.1824533384,0.7516433178,-0.4561909502,-0.8915369381,0.632092837,-0.9751634329,0.5998969705,-1.0827353828,-0.1241725685,-0.7618919842,0.2103783528,-0.4153724779,0.0210116796,-0.9806896245,-0.8018099587,-0.2831594372,-0.8358449837,0.8558747486,0.5473400056,1.5024542883,0.3537700052,-0.0735178156,-1.3255049951,-0.3497159631,-0.2032467748,0.591532312,-0.7304327909,0.0264534803,-0.5947953719,0.5370680382,-0.1031863619,-0.0533408999,0.4318070484,-0.4033670238,-0.462915379,0.4853626383,0.1401751096,-0.1564262865,-0.2379672463,-0.2346781099,-0.3124595401,0.7460151372,0.7026442723,0.3452609822,0.5405903264,-0.2892346878,0.8437616008,-0.0650240359,0.4513763463,1.153183475,0.997981321,-0.2530544092,1.0219120404,-0.3829115085,1.2766162067,-0.0932449536,0.6357159497,0.4924325436,-0.2254798182,0.9512049677,0.4238308721,0.7513763209,-0.1930644397,0.0947022128,0.5376268449,0.3147739965,-0.4835560442,-2.5956652079,6.1350483178,-0.6438670727,0.302363086,0.307903815,0.1231773917,0.8221941217,0.7100956831,-0.884414194,-0.9708789873,0.0588984086,-0.7173236002,-0.1244813746,-0.6752014731,0.9850080705,0.6110458331,-0.3177459098,-0.117246588,-0.0623895794,-0.836120258,-0.2097574687,-0.2899110206,-0.2342781083,-6.2050307107,7.9464336919,-0.2091732813,0.0988924349,0.0359853421,-0.8166076546,-0.9019488627,-0.0181640414,-0.0427993416,-0.8659683184,0.9791867425,-0.4779218431,0.0782241027,0.0753859285,-0.0139734267,-0.2433376986,0.0138242309,-0.2890260035,0.786355205,0.7340931363,0.5209254077,3.9269756688,-0.7218224634,-1.1553417546,5.2318415037,0.5902142997,-0.8533756538,0.6036950177,-0.0918198467,0.7203896745,0.0375372577,-0.9381628335,-0.8248246652,0.3147654763,0.6006986583,0.2550072015,-0.4628821431,1.2107526794,0.0982996981,-0.0144864156,0.6638965566,-0.3983026498,0.5451719335,0.0405927569,-4.455357558,-1.045888717,0.1790362752,-0.4585936401,-0.7886806715,-1.0175533599,-0.8374486537,-0.5723576061,-1.0499499298,-0.2892807538,-0.4643923059,0.6979813728,-0.827476656,-0.4377856331,-1.0543021896,-0.7551653706,-0.9156577949,0.0388327269,-0.7876878926,-0.0051230127,-0.6768900545,-0.8759735898,0.7965207933,-0.6547681448,0.0922516163,-4.5837784044,-6.5506686483,0.1389594137,0.3060264692,-0.5341867572,0.6524728285,-0.0058112272,1.0057675169,-0.3448734759,-0.719595205,-0.4745395877,0.0658952453,1.2370496043,0.1423030578,0.5051062197,1.9053096836,-0.2897852577,0.2992320958,0.9199142307,-0.6246699945,-0.9753170834,5.7291239841,-0.7857006133,0.6009520769,-1.351209574,-0.4909783583,-0.1242191828,-1.2840837294,0.4408827009,0.3710518484,-0.3149039685,0.2936150988,-0.3638644848,0.4284420725,0.0256191485,-1.0318614468,-0.0644774831,0.064219355,-1.173862304,-1.0660574442,-0.8536381695,0.1699293377,-0.38854315,0.0772829001,0.1230743649,-1.2408259416,-0.4118360157,0.2001260257,-1.2843654918,-1.1878259199,-0.3452949574,-0.5560453247,-1.0848778095,0.0511475398,-0.4453693849,-0.7020331704,-0.2283951289,-0.6796474083,-0.3174802196,0.5971189241,0.0977342091,-1.1140566175,0.4500469009,0.108499156,-0.6775321191,0.0499149477,-0.3525787602,-1.1419099659,0.1834648702,-0.3853911772,1.8254260057,-0.3602669795,0.0771063094,-0.3368920114,-0.2019499163,-0.7058726577,0.8957866367,0.8418188352,-0.5267812229,-0.1089067251,0.9160529021,-0.6294985506,-0.7768740668,0.5410528999,0.3662541189,0.4307330824,-0.3068577738,0.8970573233,0.2698756223,0.734140072,-0.2710613328,0.591070838,-1.7568002164,3.6195310248,-1.0556564707,-1.400759661,-1.2427866354,-0.8415770606,-0.7218901217,-0.2160834283,0.6069280913,0.3952911768,0.2863896702,-0.1104501127,0.1708558879,-0.7643187643,-0.1048044794,-0.1409494785,0.2191754558,-0.7190808515,0.689747475,-0.9691824127,0.1858537862,8.7736043139,0.800149236,0.0160932009,0.4932362549,1.121740929,1.2810970831,0.0002265185,0.8902612598,-0.1188713901,-0.222656328,0.0462351705,-0.4057279675,1.0966691179,0.8240482599,-0.18847251,1.452750371,0.7104191865,-0.1808834069,0.4508376649,0.3433551994,1.3589814208,-0.3525746719,1.1557616499,-0.0067527109,0.3360393,45.7400061896,0.1316927228,-1.404825386,-0.7287711086,-0.7545989569,-1.0167376459,-0.69990248,-0.3710686868,-0.6957978102,-1.114920796,-0.3254753521,0.0800772654,-0.2259544151,-0.4398151503,0.0456478377,-0.1738977311,0.0157644436,-0.6860435417,1.065102853,1.0215762067,1.3461613659,6.9455443098,0.483395308,3.503202686,-8.2707861014,0.4748553845,1.1268237267,-0.170219517,-0.3724627888,0.1094166623,-0.288012884,0.5633424182,1.3019101172,-0.3781961293,-0.6827106491,0.7855431857,-0.9931990952,-0.3806854048,-0.1973473335,0.2145279402,-0.7735909422,0.4771767611,0.7817030958,-0.0803607346,4.5673713725,1.0448907934,0.0502759361,14.6645243698,0.0172006696,-0.7538801344,-0.3533876641,0.61102816,0.2456562208,0.5176436887,0.4473474762,-0.1718009944,0.7759265967,0.1484104839,-0.5088343477,-0.1522540578,0.7492047098,-0.5852255291,1.0445732131,0.9123657461,1.0278835369,0.3709074592,-0.839270714,-0.1995705606,-0.9671921551,0.3292856099,0.9912480648,-0.9554916151,0.5322960613,-0.1219145279,-0.5672480291,-0.878839182,0.0400915476,-0.8823729664,-0.4890698861,-0.3074935747,-0.6585485025,-0.9199587185,-0.4864507477,0.4856561561,0.0637945131,-0.5820521143,0.3387290247,0.5448404585,-0.8866087814,-0.8659164931,0.5756476259,0.5886130575,1.4965099213,1.6239535034,0.3112544809,0.0345163998,-0.4281864631,0.0828731147,0.2480331166,-0.7170520124,0.1127625761,0.7473090288,0.5204682024,-0.0906393898,-0.765375823,-0.1153542458,-0.2654272446,0.5525049995,1.1001714614,0.8751811379,0.4485018622,0.6736052218,1.000934265,0.1953238019,-0.0978914794,0.0562261053,-0.6940469351,-1.1028388791,-1.0133262834,0.4588927902,-0.6526900417,-0.9325861882,0.06640689,-0.9937255129,-0.9324113954,-0.8061854136,0.244989725,-0.3660372904,-0.3233131712,0.3025281978,0.3223895395,0.0211859636,-0.3576504235,-0.3774701787,-1.0240217211,0.4074330175,-0.2092354579,0.3295472342,-2.5011078898,-10.8290035495,-0.0739404132,-0.6866686784,-0.8274057746,0.6459762218,0.4351761553,0.8673268684,0.2468527761,0.7401691961,0.2408786025,-0.8692476468,-0.9919338593,-0.3457925536,-0.4542542972,0.1040601836,-0.6271508449,-1.5517936336,0.1858378642,-0.7286949549,-0.3515223423,10.0787116311,0.6928869344,-0.2983944422,-0.8682098562,-0.0190043247,0.2118663396,-0.1777885887,-0.5914464317,0.9390765358,0.4329220046,-0.4241300609,0.7200271286,0.6276460278,0.9993598328,0.0457729622,0.9899868432,0.6238365034,0.1244993697,-0.1674796565,0.1718674265,-0.2406734312,0.2718552015,0.5858935874,0.9490973634,-0.0272208185,11.3513054657,1.1906320206,0.2374460274,-0.2001229641,-0.3995806811,0.3643692781,-0.7676733178,-0.4443557545,0.9653883592,-0.6148431225,-0.1970866782,0.5024855697,0.6458568033,-0.2249322959,0.8334156077,1.2710696552,-0.1997302907,0.2257800512,0.9803973006,-0.5105665301,0.404851875,-0.8261373081,0.3344260922,3.033516101,10.2887160301,-0.5864397283,-0.9064888111,0.1081069092,0.5277537832,0.3800275997,0.8758778706,0.9088572272,-0.6546741392,-0.0094195851,0.1358574635,0.0871514224,-0.8029490186,-0.9172303134,0.8790099951,0.1406442472,0.7452190934,-0.4245643095,1.2054865756,0.6137021437,-1.1084728928,-0.7804033958,-0.4176041191,0.1803095176,-0.8288527338,-0.3679471911,0.2386385533,-0.0400738734,0.1688424897,-0.7030547989,-0.9916258934,-0.6935393787,0.4156495407,-0.5055258864,-0.2370426636,-0.7072161859,-0.9586460007,0.0940460251,0.636629507,0.2346106135,-0.8377478796,-0.3749295736,-0.6647316937,0.6343858817,-0.7043515113,-3.8122339084,13.1388010509,-0.1233653363,0.4233007361,0.983338824,1.0729003775,0.2882097677,-0.2382260251,0.4480552072,-0.2474472776,0.8829388451,-0.5316769637,0.6379262187,-0.2231190032,0.855600194,-1.3617109407,0.1576530184,-1.3480805162,-1.5785531032,-0.4071983831,-1.8253400594,1.8160164016,-0.0389352217,6.0261748719,-4.3003332709,-0.8967143425,-0.3987844954,0.318800392,-0.100280339,-0.2727766387,0.4857317731,0.0576479211,-0.3137894575,0.7844316173,0.5784492655,-1.0499492568,-0.0530344761,-0.8190305905,-0.3283456005,-0.2363310639,-0.4142779848,-1.0699650325,-0.1165001713,-0.2932799143,2.5136309181,-0.1002193962,0.1713207764,-0.0146720132,-0.1475667303,-0.0812624945,-1.2150091113,-0.5389078426,-1.1308798422,0.1414584713,-0.678717884,0.0069374439,-0.2568221073,-1.1331315415,-1.2038724093,-0.2736814861,0.2002885673,0.5392898797,-0.642257393,-0.3014438275,-0.0991146074,-1.1370083002,-0.8559914416,-0.9665651862,-0.053072521,2.0856514379,-3.062735522,-1.047652107,0.653383834,0.6365740721,0.3393990299,-0.3613796342,0.3691833586,0.0398848514,-0.9704835834,-0.9114431557,-0.5400737102,-0.2522989709,0.0119832301,0.5448212994,0.3352640765,-0.812701108,0.4932222379,-0.8900753585,0.8014382776,0.8596422322,-0.1934707025,0.0511981365,-3.5275026667,-2.1648172922,-0.232868447,-0.8489230577,-0.8789116036,-1.0237862058,-0.2135917726,-0.3267820416,0.8043229939,-0.1110952323,0.8848703336,-0.5100657118,-0.8897678418,0.7197751993,0.173704819,0.5664824049,0.6287836942,-0.8777880235,0.5059462544,0.3212084639,-0.9599705195,-0.2261460775,0.5788527574,-1.3095372615,-6.7202919983,0.5757704415,0.497203962,-0.076229122,-0.6788480837,1.1181805596,0.2246079654,-0.398889358,-0.8659002491,-0.8017247413,-0.5444904751,-0.5741664642,0.2813260583,-0.2418204999,0.3978844223,0.8328066871,-0.5274559405,0.606426664,0.0303295276,0.4764833359,-0.482831927,0.4512991684,-10.0567261289,1.6787034427,-0.2926013257,0.505166157,0.4548348715,0.8156076529,-0.3296431607,-0.0186635911,0.8064866877,-0.2695037435,0.4326616974,-0.5456117608,-0.3255622193,0.5889717206,0.2322563192,-0.794889238,0.2781866898,-0.7735650195,0.114760478,-0.5624348213,-0.9320301881,3.7296617098,1.1295058273,0.1763592959,-0.6230174196,0.9878077951,0.4784002648,0.6795893599,-0.1030537166,0.3065353802,0.9395201524,1.0449022869,0.4232849575,-0.6320987351,1.077359713,-0.3204452105,0.57253263,1.0023261777,1.0521794697,-0.0666704347,-0.5715586105,-0.2157684844,-0.5440599023,0.5986287375,0.7591170518,-0.3773162174,1.2889145749,-1.8792265509,-0.6698666069,-0.0206180722,-0.757908713,0.0636682313,-0.4612136331,-1.304921468,0.272620799,1.0305320339,0.4793764987,-1.0207510874,-0.477395375,0.9594742689,0.8950874295,-0.1055926295,-0.1479924469,0.7697082434,0.395403152,-0.1991731911,-0.476811342,0.6284186961,0.3719439883,-3.3407964792,1.9809354791,0.4170225541,0.6356327299,-0.5135548332,0.8787313568,-0.8378171581,0.4648779602,0.3877090639,-0.2079667634,0.6854833011,-0.2413574053,0.4285578692,0.1881197617,-0.6339110823,0.5061524888,-0.9156464192,0.6301314284,-0.504123771,-0.9511652786,-0.2881871538,0.3926171573,1.1969592986,1.2686289337,-0.8110254213,1.4519155095,0.8333033335,0.3042821635,1.4055028783,1.3462433472,1.308905518,1.5537237956,0.5544836475,-0.7043261571,0.4130819975,-0.0586902402,0.3474785126,0.0664981491,1.5507705647,0.2933888765,0.0100309162,1.4772177266,1.0689695447,1.7038525182,0.3944218864,0.3191485185,-9.2102042812,-9.4278239566,0.6930237537,0.2312661115,0.7915053226,-0.7924279554,-0.0025974161,0.4577985509,0.1358154603,-1.0872861896,-0.9870151968,-1.0852733864,-0.0146708607,0.6635616965,-0.911620197,1.3088108582,0.2638635838,-0.8860313402,-0.502167209,0.4097596492,-0.8806003371,-1.1676327381,0.0781458214,-4.3911904437,9.0296050088,-0.3665599084,0.2574232092,-0.6913317112,-0.1389020813,-0.5354151302,0.0190163024,0.5701277115,0.0241892797,1.354186125,0.0951969361,-0.1113065765,0.2841849558,-0.9971357593,-0.04965921,1.4788879027,0.4874475913,0.1739452282,-0.0163133904,0.982103735,0.3318877991,0.4650566813,14.5881307855,-2.9262120478,-0.8260944284,0.5645875474,-0.5861335315,0.758393068,-0.2122724605,-0.1316680753,0.9673216658,-0.3851122008,-0.2377245257,-0.8986272742,0.2477632275,0.5316732518,-0.9196814252,0.2281532613,-0.6136839692,-0.7195759923,-0.4876661201,-0.5409059508,-0.1064489267,0.1236606333,0.4943744063,1.4401738797,6.2071932866,-0.8761083366,-0.7458409508,0.8857315505,0.0572703167,0.6364767656,-0.696113398,-0.2505189278,-0.9786392504,0.4248610426,0.6945392459,-0.6976025736,-0.5697392334,0.1095019587,0.248029441,-1.1923357325,0.4509731359,-1.5597045459,-0.9341903084,-0.0665371381,6.5603995105,0.634099425,-1.7920783906,0.1307536066,-0.052835906,-0.1188017843,0.8865561609,-0.4265163781,-0.2068126396,-0.6497909225,0.6401266277,-0.0751368539,-0.5130370987,-1.1948808075,-0.0113124668,-0.2304652393,0.2090915164,-1.0237283437,0.1620483214,0.2614181899,0.4641109714,-0.0909868581,-0.0020199328,0.2801700238,-0.726533044,-3.2237864031,-4.5979285111,-0.6195334301,-0.6258857502,0.3042967115,-0.7548321493,0.4547152669,-0.2997909871,0.1986199039,0.3685677768,0.108510529,-0.454405013,0.9512101228,-0.2237880875,0.4144521612,-0.0373534817,0.1657847921,0.2265393323,1.189481052,0.4538912234,1.2816765775,1.7445619748,-0.4076310399,0.8126334418,-0.5419512843,-0.8624008096,-1.2509673202,0.4311174037,-0.8311862779,-1.3200723131,0.5277335615,-0.1931690017,0.08186048,0.1974203612,0.0761024125,-1.2622718692,-0.6156314097,-0.0468749137,-0.892810757,-0.6262285049,-0.5837004559,0.4849061362,0.415046917,-0.7130433417,0.4185976476,-0.3639579362,-0.099683396,0.4731249299,1.1751845401,-0.5464869279,-0.264691626,0.8909248598,1.0724529734,0.6999292691,0.9296545519,0.8091137405,0.1498925443,0.7022963941,-0.0061179138,0.2823285944,0.7242427942,0.6209638824,-0.0293975408,0.0458042017,-0.2154595571,1.2778573141,0.0243741512,-0.0306033434,-0.4845337893,-2.5029236142,1.9356969132,-0.4603876344,0.4480895048,-1.0061845903,0.1192285411,0.2748969117,-1.0826833208,-0.5640298931,0.3041684236,0.6792991875,0.0935358768,0.1819961945,0.0535979823,-0.347084997,-0.0966681298,0.1266810628,-0.3369227216,0.2508339798,0.5550776144,0.6718189109,-4.6557141105,0.2443690905,-0.7197809309,0.5768211866,0.1192483659,0.01491182,0.1067467364,0.4587336064,-1.2384901132,-0.5500977461,-0.4641376414,-0.8978598385,-0.1304644156,-0.7036063598,-0.3871760878,-0.4539506109,-0.2011036708,0.3836859558,-0.3789461068,-1.4739246734,-0.9712862042,-0.4148474355,-1.0120008862,0.2000451637,0.8423815259,9.6800897738,2.1710008155,0.1580505143,0.1792006281,0.8572903241,0.6369669875,-0.0002929767,0.0265334522,-0.5287662333,-0.865396718,-0.3819172629,-0.1547163229,0.8578267136,0.4765683827,-0.4806180228,-0.768741201,0.0177135721,0.6717691371,0.2341593171,0.5804616475,0.1056271146,-0.4764593741,-0.5021426998,-0.7074687493,-0.3414978368,-0.0042786558,0.9593595486,0.0588600619,0.9471288913,0.845298868,0.7194113709,0.0647919504,-0.2406099781,0.7988928405,0.8209337623,0.9487530147,0.6428813647,0.5472058576,0.9089335325,1.0445594736,0.6589714717,0.9220388225,-0.4881384601,0.4750830475,0.0026082894,0.0091120009,-0.5163764626,1.9303846115,1.1083666846,0.4022825551,0.1402174602,-0.5188101201,-0.676513012,-0.9129150347,0.0298355436,-0.1895036536,-0.0658642213,0.7091755862,0.4527684405,-0.799562355,0.0078824775,-0.0999912554,0.6952646591,-0.9955692202,0.2034796054,0.5109808258,-1.0232176543,-0.1248619545,-0.6671835667,-5.3839544868,-2.2957833536,-0.1217477876,0.0048108317,0.6581111987,0.7762059456,-0.2180490362,1.2927237859,0.4841022026,-0.6395941384,0.6951669399,-0.9259683845,-0.0108612721,-0.4364658529,0.2123482035,-0.1558451795,0.8026783169,-0.4896069962,0.1868201049,0.0498561597,-0.1213169465,5.0008276574,0.2540423236,-5.3773629411,9.5827100935,0.4070888021,-0.8405045236,-0.1412262327,0.7160639828,1.0420684181,0.498459433,0.3356873854,-0.5371753006,-0.7495022032,0.9909549785,-0.0203851244,1.0337288896,-0.1558758814,0.0895981074,0.801535067,1.0574345349,-0.8401621145,-0.7038963495,1.7440209363,-1.4540357686,0.105567525,-9.7810240627,-6.5893292727,1.837381984,0.6437802541,-0.3415095055,0.9519720164,1.1785981762,1.2654282374,1.1157596063,-0.5357331354,-0.1456906186,0.4936657506,0.8038914471,0.8704245464,0.9421177625,-0.4453728435,-0.6832493464,-0.5038808666,0.573859574,0.0479552223,0.0990906721,-0.9095076525,0.7079608793,-14.1457323155,-3.0530197993,0.4442173182,0.5462338476,-0.2778373403,0.76910259,-0.1476547642,-0.7779770879,-0.7102839068,-0.686998356,0.1377799494,-0.514666948,-0.1489065248,0.2941084963,0.1292834125,0.7599860592,0.1241050894,0.0442027036,0.1749588318,1.1490563453,0.4033727448,-0.8306255986,1.0598685128,-0.111013976,1.0260357014,1.0615342598,1.1607972278,-0.0047790094,0.8775469503,-0.2624630665,1.2227233229,-0.4086850136,-0.4858451638,0.9257200411,0.8156590617,0.8607821986,0.3295616244,1.2938276289,0.0511386988,0.7837996384,0.4972966252,1.3500819815,0.3527035368,-0.2520902969,0.4931479651,0.6276144473,9.7844352159,0.4368679011,0.3649737072,0.808758848,-0.3797724217,-0.2718419763,-0.7696698178,0.7815198409,-0.9914877131,0.9425972463,0.3439229067,-0.9930948031,-0.3744947778,-0.493526286,-0.6284000684,0.387828858,0.8701833877,-1.0693132912,-0.6791967648,-0.4827357301,-0.3854565155,-1.6372189711,-0.5131249107,-0.5998761968,-0.7948763575,0.8607978223,-0.8377777226,0.1935560237,-0.5544968807,0.576322102,-0.9305251891,0.8152500856,-0.7582250666,-0.1167379175,-0.6952149998,-0.0918416296,-0.9181973421,-0.9005295779,-0.2078521013,-0.6621331449,0.5393491291,-0.2674424463,0.0467555066,0.6311224831,-0.8867726212,-0.1149452917,-0.5656179745,0.2916761112,-0.6510377611,0.5177441416,0.1571426767,1.1421039583,-0.4079859856,0.8137996013,0.8088469121,0.3486450609,-0.1140960993,0.6316587074,0.207038948,0.7336496004,0.6637449623,0.4501202061,0.7262388761,0.975537605,0.8654556819,-0.5845185113,0.0168960398,0.6165411557,0.0913558258,0.1589047357,-0.6554738489,-0.943650931,-0.8912415856,0.853826344,-0.5794407901,0.032880072,-0.2442196581,0.0616498916,-0.0285620128,-0.6166836258,-1.1879682419,-0.9334989947,0.2319671676,-0.2793219856,-1.127798433,-0.5243802974,0.308390918,0.3645509903,0.5832268315,0.6307915455,-1.2191196228,-0.6172974477,-19.2544405166,11.0754139333,0.5938372406,-0.8240481455,0.0963370551,-0.8378873403,-1.0209950409,0.5527941609,0.4070807915,0.0927250535,0.1044055337,-0.6044849173,0.0646244964,-0.0222904171,-0.900276583,0.7767099691,1.2677544978,-0.8876523794,0.9432740804,0.8326957829,-0.6670495551,-0.6066553297,-0.012244968,2.7953694085,-5.7729826368,-0.4481801168,-0.7011050354,0.0894547897,-0.5266933347,-0.9629226102,0.489968536,0.9837992112,-0.2589422911,-0.4418550685,0.6866971325,-0.4187040207,1.0963473483,-0.9151997899,2.5205168298,1.3792528457,1.3510297852,0.0742598852,0.1070275707,0.2319372421,-4.3871862899,-0.2955389419,-0.7211269721,-0.5416566559,0.4551085985,-0.7518704709,-0.4984371763,-0.3422534957,0.4456684002,0.1549482457,-0.3001119228,-0.8950823498,-0.0406578051,-0.0365638985,-0.8871177921,-0.6302289587,-1.1218146872,-1.209325087,0.2172806853,0.3097593461,0.548909658,0.1416200865,-0.2259807927,-0.9122902834,-0.0486385806,-10.1043862624,-4.4388126606,-0.9282713193,-0.5840264404,-0.3989389827,-0.4103987756,-0.5689792273,-0.0129950573,0.0511260636,0.0836681079,0.447998693,0.6361365303,-0.4719132064,-0.8478842348,0.3804315907,0.0697236222,0.0600442203,-0.0755716743,-0.3809161081,-0.0685049774,-0.775470344,-2.0891606907,-0.1128679027,1.4705948625,9.4974730334,0.2754173713,-0.8501464068,0.3146194234,1.0600226524,-0.2995214754,-0.3947408924,0.1893913438,-0.1451678434,-0.3330839723,-0.9110145755,0.3027573702,0.2958387162,0.366613707,-0.2809942532,1.0590653017,0.6180514335,-0.4828143835,-0.1628170555,-0.4900291727,0.9177910621,-0.9505886346,-0.0565162695,-0.9333131053
   0.3048055053,0.6010139315,-0.0630474993,-0.4468770831,0.0353340205,0.8375752794,0.1050827426,-0.2487805547,-0.5977395556,-0.2970934093,-0.9566562069,-0.7942322424,0.6787589047,-0.4218092617,-0.3953248197,0.4054448445,-0.7528716433,-0.4770525399,0.6061259508,-0.1691502261,-0.1446038945,1.0253607333,-11.9236918166,-0.1935130401,-0.5798648249,-0.1664166145,-0.3255778016,-0.5391756804,-0.6752630067,0.336403302,-1.0209051995,-0.4282476753,-1.3232523717,0.7234880954,-0.5600522879,0.0320749388,-0.1057019786,-0.3591063684,1.0180789086,0.6302057187,0.8354265959,0.2289449054,-0.1708788163,-0.9312699593,0.5593729011,-0.443726719,-0.7832622363,-0.3641012357,-0.81229116,-1.1503954489,-0.8514817676,0.5833103358,-1.1117624643,-0.6530248579,-0.3575969853,-1.0696983168,-1.0171532989,0.5293099207,-0.5837050178,0.9382133065,0.346768649,0.7290072814,-0.9883065099,0.5966979845,-0.1892766165,0.7010043451,0.4302385843,58.3220366258,1.2445412095,-1.068539549,-0.7671980237,-1.2002714565,-0.045854477,-0.8557401107,-0.4431530368,-0.7037550172,-0.7448513035,0.1841288624,-0.0132742543,0.0934251964,0.7352700933,0.3936357131,0.5751630047,0.2809623039,0.3266036335,0.5553018564,-0.982544042,0.7307493579,-58.3957827953,-1.0135813502,0.6473541539,-10.5321626485,0.3729780312,0.6597716763,0.7575814913,-0.6875922915,-0.1878307871,0.101201254,0.1901029772,-0.2060662204,0.5882757902,-0.9148673655,0.6224378975,0.4030706311,-1.1289291841,0.208665346,-1.5196256219,0.0225650979,-1.2823261535,-1.131510215,0.063260605,-0.7142535382,0.1698173287,5.7091968877,4.1110823729,0.6437749298,-0.4401619035,-0.7940646173,0.3463384473,0.3112539668,0.8800504139,-0.484887998,0.496514209,-1.0835606044,0.911968216,-0.3916143065,0.5916790788,-0.556862993,-0.8068376598,0.3846915697,-0.1307652182,-0.0916176216,-0.3069817942,-0.325124794,0.256794124,0.8127800061,-0.4646953537,0.2501185308,0.9223184341,0.3890590168,-0.2791792279,0.0071936595,-0.6574520612,-0.1996348866,-0.3995720248,0.1960850346,0.9473716095,0.7298506515,0.3967217392,0.0142844033,0.1949959034,0.0171318293,1.0688809369,0.3672925126,-0.2681076795,1.0714728948,0.2421803634,-0.1008479304,-0.5818543544,-3.8442786425,-9.2356406541,-0.9977098349,0.0760006258,-0.6147859128,0.3032141151,0.6094072772,0.3788026059,1.0730898499,-0.3934584784,-0.2277646022,-0.1476181161,0.7657885844,-0.1914457092,-1.0428995029,0.2036758487,-0.4924579606,-1.0210602528,0.1191098863,0.5512005013,0.9288532916,-0.4432538341,-0.4775474943,2.635511094,0.1890510775,-0.6222468151,0.7666269945,0.0269996697,-0.4270931751,0.6509745927,0.3739067189,-0.1041799435,0.1905700398,0.4189971012,0.7562351747,0.7656801134,-0.8412692139,0.0877491303,-0.6314636691,0.0087225586,0.0648306123,-0.182536078,0.9545802297,-0.2661646541,2.9276904287,0.3177211537,-3.5577530166,-4.3962448074,0.2472613145,-0.855850566,-1.0386884084,0.2364216406,-0.1705322917,-0.3609474122,0.6851750932,-0.840450114,0.608993266,0.440409588,-0.6829373712,0.0351562117,0.5437099417,-0.5771159926,-0.079032657,-1.5513298027,-1.3345775156,-0.4847076512,0.2730516021,2.3942821377,0.4600789488,20.0822716268,0.5028880102,1.6667321112,0.4687593753,-0.962917909,-0.7129660905,0.1011108638,0.5138161505,0.5346826911,-0.2407588055,-0.6737273694,-0.0136761675,-0.1228584714,-1.2789891848,-0.3160710158,-0.2720189569,0.1153321133,0.7255658632,1.5743158541,-1.0848441891,-0.3739071563,-22.5422690744,-0.5864967111,-0.2322873652,4.4871230752,0.9228416624,-0.3771882119,0.9694872243,-0.3604823171,-0.0553704437,-0.4152370404,1.0490968821,-0.883485782,-0.6061238023,-0.0256456279,0.6770144952,0.9945665294,-0.5936775238,-0.8517372189,0.7713201258,0.274565765,-0.5258436103,-0.6297339219,0.0438691071,-0.1133791541,1.14347426,0.6456682257,0.3936343297,0.3710231755,-0.3829797211,-0.1624271022,-0.2488525315,-0.2062842731,0.3889161618,0.0093663649,-0.2760473063,0.3174921969,0.5740774513,-0.0510734532,0.260225194,1.0043678839,0.5252072509,0.0868471107,-0.4744696951,-0.8845029566,-0.0070799095,0.5852798692,-0.8984644593,-1.0184562385,0.3901340171,0.6956367972,0.8324742818,-0.9561414392,0.8029847364,0.3337643314,0.7137711438,0.5963674241,-0.6480281138,0.0221360114,0.2130813734,-0.3671453574,0.6259448721,0.0899030012,1.0167264149,0.6494195952,-0.34786485,-0.0325530748,0.0866076858,-0.6565929511,0.5219649404,-1.8676558535
##end
biasActivation=0,1,1,1
[BASIC:ACTIVATION]
"org.encog.engine.network.activation.ActivationTANH"
"org.encog.engine.network.activation.ActivationTANH"
"org.encog.engine.network.activation.ActivationTANH"
"org.encog.engine.network.activation.ActivationLinear"
