encog,BasicNetwork,java,3.4.0,1,1571295067454
[BASIC]
[BASIC:PARAMS]
[BASIC:NETWORK]
beginTraining=0
connectionLimit=0
contextTargetOffset=0,0,0,0
contextTargetSize=0,0,0,0
endTraining=3
hasContext=f
inputCount=22
layerCounts=3,23,67,23
layerFeedCounts=3,22,66,22
layerContextCount=0,0,0,0
layerIndex=0,3,26,93
output=0,0,0,0,0,0,0,0,0,0,0,0,0,0,0,0,0,0,0,0,0,0,0,0,0,1,0,0,0,0,0,0,0,0,0,0,0,0,0,0,0,0,0,0,0,0,0,0,0,0,0,0,0,0,0,0,0,0,0,0,0,0,0,0,0,0,0,0,0,0,0,0,0,0,0,0,0,0,0,0,0,0,0,0,0,0,0,0,0,0,0,0,1,0,0,0,0,0,0,0,0,0,0,0,0,0,0,0,0,0,0,0,0,0,0,1
outputCount=3
weightIndex=0,69,1543,3061
weights=##0
##double#3061
   0.3471942992,-1.2125718748,-0.0478582114,0.3260144412,-0.9315435101,0.3131449133,0.3837581645,-0.8173376125,0.4580401479,-0.3356231738,-0.0084656753,-0.933972235,0.3019658265,-1.0603995873,-0.8862118623,0.0125310641,0.689796338,0.6699656804,-0.8389257639,-0.7065019476,0.0065053922,-0.833626091,-0.4169445545,-0.3149324497,0.633449825,-0.0294096782,-1.0559938245,0.473559944,-0.6085726378,-0.0167418146,0.9648559813,-0.1073738087,0.0335885265,0.3664798368,0.279115488,0.7675247392,-0.6896399963,0.0514865695,-0.2904304503,-0.0428551126,-0.3534172292,0.9494116549,0.713419805,0.0025888871,0.6319961596,-0.8738457116,-0.5992867753,-2.2883048977,-0.893835131,1.0129746877,-0.4473126369,-0.1195323803,2.2525138258,0.0209150141,1.942924891,1.7609088488,2.3306243201,-0.0028469249,0.5386006763,-0.0366689616,-0.0153263255,-2.2465652304,-1.7301970429,1.0652293185,-0.0027237853,-0.5496607057,-2.4387056872,0.1145321855,0.8852826361,-1.3106708221,0.1878467317,-9.0286768285,-0.954687133,-1.1140766946,5.162826416,-9.3925418496,-0.0792438301,0.5850607111,4.4736699218,1.8803388346,-0.6789964405,-12.0064497452,-1.3555844372,1.7647052726,0.5885259979,3.0691054618,0.1920921022,1.0386274742,-4.5401431973,-9.7753638173,2.5687302005,0.1680561892,0.8002151982,-0.288314021,-2.3729201703,1.113848867,2.5460773338,-0.6424617217,-10.2471252999,7.2679375861,-1.020514507,3.5296768389,-1.8708423929,1.6138278127,2.0101127662,-1.3614297927,-1.2408862411,-0.1368828876,0.6240857869,1.3102875231,-5.3685375459,-1.5150213967,0.9471420031,0.7934690017,-0.5405314449,-2.0913838637,0.8630695586,-3.7817320608,1.6087273329,-8.0130777292,-0.0867676542,-0.5140488691,3.0012866455,-0.718182182,1.1323538669,-0.2467519939,7.0232874986,-0.2973487269,1.226499988,0.4286958421,-2.3763296026,-0.9917520911,-0.7598840732,0.8631065632,0.5656466113,-0.267419375,-1.2795642608,0.5965957081,0.0581080893,-0.2968112113,0.0531310103,-0.5435050134,0.241828756,-0.9461591659,0.3134931048,-0.6261377762,-0.8872737251,0.1965789346,1.1933960719,-0.0022241532,-0.0867145338,6.2861538781,-0.106519255,-0.4341162248,-0.8692796901,-0.4044129136,-1.896554466,2.3698803569,-0.0616310798,0.693053258,-5.3302374211,-0.5145115039,0.517012321,-0.8730424914,0.4413091935,-0.2776327944,-0.6807306355,-1.4214581218,-1.1366499427,0.1550685774,-0.7303684695,5.2892296403,0.6057618603,0.891180005,-0.8631702998,1.2001218344,0.0622047082,0.1024074511,0.7291189812,0.4048907075,-0.1871498556,0.6000318945,0.3402934423,0.3131857077,-2.3859747947,-1.7540823167,0.1042286835,0.2329760685,0.2691562568,-0.3410243199,0.065077249,2.9685101951,0.2099308095,1.7453737857,0.7007375076,-0.3272696412,-0.6972462986,-0.8221648073,0.0472514544,0.5717854623,1.0202623642,0.8278727343,-0.3305169424,-1.04713242,0.3640724586,0.7226851429,0.515123844,0.5895850936,0.0179428893,-0.0622941566,-0.9601498859,-0.4053264007,0.1483147224,-0.0326984393,-0.1856770432,-0.0796462505,-0.0484253882,-0.3956021079,-0.0623566764,-0.0665345248,0.7164103151,-1.0308145811,-0.2540616804,0.0226485152,-0.6231956865,-1.3557199851,0.147931037,0.3047184781,-0.0080258199,-0.2315749872,-0.2416795303,-0.2579744693,-0.1322003413,0.1291809505,0.6497564204,0.133508135,0.4873909661,-0.9357376284,-0.0027069885,-0.7484342167,-0.3228746439,0.5578936441,0.9299034952,0.055011977,-0.0227614654,-0.2187188323,0.2811358897,-0.0778673811,-1.0184371925,0.2394639687,-0.2236037693,0.9462820737,-0.5237798491,0.5001162366,0.600699458,-0.303774207,-0.5037914805,0.3708215472,0.2812738609,1.1943538359,-0.0890156414,-0.2090403961,1.1824528213,-0.8476634378,0.0332250732,-0.0563224465,0.8331253908,0.0086696712,-0.4151412875,-0.7124702693,0.5090995771,-0.8768667374,0.0412583024,0.8974764202,-0.0631022872,0.6054203998,-0.5519874418,-0.5041258192,0.8830419986,0.7115573512,-0.0043636072,0.1479791458,1.8018320848,-0.0156877148,0.130173597,1.8745987523,0.3477817861,0.7081595073,2.3857515189,0.9846337953,1.675521936,0.5998923888,-0.0885441476,-0.8445112112,0.1120940259,-0.0310832105,-0.0347037199,-1.3559021189,-0.2617413292,0.6329716321,-0.7535284127,0.2354092361,0.4577570053,-0.4711605911,0.3268746434,0.0007698168,0.4985619255,0.1990957775,-0.7332086886,0.3917269441,-0.5074049092,-0.0276592113,-0.2267244515,0.0327007586,0.0261464995,0.431523709,-1.0035820635,0.1347848142,-0.9942491562,-0.1826503022,1.4584456394,-0.2442167372,-0.1036456315,-1.4101490537,0.951032495,2.1164029755,-0.3433686066,0.0646353317,0.2362832228,-0.1828082421,-0.3670578398,1.7202782972,0.9323050391,0.8697290573,0.5031465939,-0.3540216468,0.8297605324,-0.0286530739,-2.0807862169,1.5803539806,0.6113292608,0.8742611632,1.8123831482,2.2313619159,-0.8004022258,-0.0858337208,0.2775372234,3.4337393223,0.9814625209,0.9342555243,-0.0341882827,1.5943850046,0.147835324,-0.319756862,-0.8780220923,1.4329962299,-0.1289914743,-0.436439451,-0.0632389714,0.5560271745,-0.9872294684,0.2026197827,0.1087812373,1.0991563347,-0.7783873836,-0.5650177615,-0.322612655,1.0978092436,-0.3712791686,0.3505288601,-0.0920953562,1.2258331634,0.9385060019,0.212255877,-0.2668892016,-0.1728973809,-0.192838735,0.4974466862,-0.3914611491,-1.7246652321,0.2812985615,1.8202396287,-0.4298925777,0.2214688748,-0.602750061,-0.3402508627,0.3995989326,-0.5535938554,-1.0587049801,-0.8554968826,-0.15221964,0.4179241381,-0.7701751641,-0.4677543517,-2.0232907602,-0.6089254675,-0.6598802115,-0.4917391415,-0.2532944561,-0.0647441992,-1.3535289679,1.1817954701,-0.5102041567,-0.6041228266,0.6138567881,0.0391814749,1.0899291239,0.2303957773,0.5516511883,0.5175307302,0.0674653492,-2.1386899544,0.9204467879,-0.4237588326,0.3129251426,0.278672186,0.6311531091,0.4320589245,0.2996103664,0.3409189322,0.8805000179,-0.0174907691,-0.7941771179,0.1564202487,-0.1446234206,0.8440463066,-0.4970924073,-0.748882819,0.014700527,1.0434632398,-0.336864176,-0.6111363929,0.0775069901,0.3337713975,0.795144268,0.1872296905,1.4431552434,-0.2278137938,0.9670559619,-0.3907919983,0.1345498963,-0.7230344134,0.5563520024,0.1879972977,-0.0816799924,-0.6307361212,-0.8171498214,0.2042815545,-0.0746343177,-0.5511965109,-0.520507647,-0.9280613677,-0.6183065931,0.5884294513,-0.1588523274,0.1471861707,0.3542038411,-0.7335814366,-0.4751513403,-0.2483549531,0.2844887509,-0.2789075105,0.2139485504,-0.9336111611,-0.2266581177,0.3067851224,-0.9678173484,0.0245947535,-0.3186587935,0.2731450055,0.39473967,-0.0376759474,-0.2204598729,0.1633569467,0.7574916151,0.0726187194,-0.0193334547,6.4704423296,0.2750353835,0.651940968,0.4005243723,-0.0072784313,0.0448525874,-4.8786459302,0.1293510518,-1.8838138993,5.5326885728,0.0470409306,-0.691015927,1.0281883566,0.3419032823,0.6974061278,-0.345612957,-0.6923690304,-0.4680387759,-4.1277168159,7.2353785585,1.296486899,-0.1836683368,0.0813385349,-0.7435524205,0.4014218228,-0.085276397,1.204269262,-0.9451908362,-0.5140433672,1.9437351579,0.5839707276,0.6597883315,-0.4229058164,0.5459812188,0.3427377204,0.1693526755,0.0678514409,-0.2462255264,0.3369543231,1.0170648152,7.5489802518,0.5374052872,0.8980365083,1.3523202369,-1.1193835278,-0.5417055804,-0.7056724324,-2.9926801276,-0.5647662365,-0.0454049672,-0.3434746514,-1.0143522037,-0.3676370224,0.5600795022,0.6999810015,-3.8944579703,0.0166359924,-6.6585423019,0.2465405857,1.7171523415,-0.3492307583,0.0999985864,0.1858751,0.1145931054,1.193919557,-0.3909839061,7.005443394,-1.0181261131,0.5782495023,-0.6255511047,1.5707496007,-1.0858648969,1.5852216473,-7.9566963871,-1.2057702947,-0.1826263766,-0.5115616425,-2.1848605673,-0.4783137493,-0.8605441619,1.0199431486,2.5930533967,0.2284975722,0.6279654336,0.9021857893,-1.35080823,-0.4060556807,-3.6639578521,1.8608876104,0.1335533077,0.7893243066,0.7035010738,0.1149786329,0.4244620123,-0.4682703799,2.2759228504,3.937471095,-0.844379088,0.3396514423,0.5409272871,-0.0881170391,-0.8721556543,-15.2283223826,-2.0970150253,1.8711370873,4.5254419707,-0.2770986515,-0.8267468158,-0.9793445168,-0.8802123168,1.0548745414,0.1020741595,0.1512349315,0.304397544,-0.4583334594,-0.2076787406,0.0449013121,-0.3153927059,-0.6405510025,-0.3567021046,0.9599500025,-0.735197159,-5.2444280903,-3.6119967541,4.4915492025,0.7084254683,-2.7695540188,0.8717185805,-0.6980797492,0.9428011721,0.7643506724,0.1836679142,-0.390880709,-2.1819482136,0.0113970722,1.0577611073,-0.8238357076,0.2664541367,-2.6351282214,0.3019613144,0.4243649953,-0.0002985871,0.2647023333,-1.5988682015,-5.8087386319,-0.4864097563,1.5257967621,-2.3980158129,-7.6276937211,-0.1502335284,0.6542126013,1.0415080582,-0.6619318415,3.2739196014,-0.5255162015,1.1889304127,0.0308407315,-0.4686035023,-0.5287368126,0.4590356976,-2.0365179485,-0.807736649,-1.6359604367,-0.1680884787,0.2034408804,-1.1689006636,0.5359661281,0.0547216667,0.1954995375,1.0713137475,-0.3027114322,0.057465231,0.1976999106,-0.6554118634,-0.806468749,0.4588879588,-3.5551926801,-0.8481949836,0.2088155173,0.9956076758,0.2735660693,-1.0517057476,0.7273557326,0.5967124975,-0.093087764,0.4251763834,0.7282963778,-0.3307355505,0.3067976668,-0.0561096039,2.0993480947,2.3912615786,0.5083913177,-2.517401167,0.3617522971,-1.3400333134,0.9036682089,-0.1709094744,-0.8113802934,-0.3953545765,0.2403939714,-3.1648345823,1.1750456604,-0.8270151938,0.733765547,0.3326523577,0.5574451168,0.8634537851,-0.1752556995,0.3855475135,-12.6382572821,-0.0868104424,0.4742395649,1.2586777136,-0.1942323278,-0.0142545472,0.7198356337,0.3133023802,0.2763004185,3.0402521961,-4.2100160008,2.9997676253,2.9653467869,0.3051841394,0.8403384089,-1.6341413234,-0.0963808845,-0.0849309668,-1.7345152321,0.437816643,-1.045823565,0.129292426,0.387953934,-0.4367923185,0.7994887306,-0.144731196,-0.3132898158,0.0712329811,0.8375550199,0.2368908909,-0.2612645564,-5.5685126905,-0.1316399709,-0.1724374295,-0.1856420513,-1.205882524,-0.2990949313,0.6754931493,-3.2797816441,0.4501986687,0.2524746007,0.375770484,1.3274835703,0.8108639988,2.719630502,-0.8093693233,5.2714403335,-0.3811429113,4.4228839789,0.7153375993,-0.3952354619,0.5216234888,-0.9905794529,-0.4649952046,-0.6219858253,-1.0739212631,0.5382752677,0.2194768177,-0.1406135854,0.487997626,-0.2470114503,-1.0216080505,-0.3601689763,0.5605595672,0.3915385979,0.1466820796,-0.0322626998,0.0858345045,-1.9946900599,-0.6515587048,-0.3459240653,0.4626761228,-0.6405883907,0.5709033178,-0.6554226219,0.9939809739,2.6067179551,-3.1426037383,0.2131382579,0.3247984532,-0.2756372357,0.1942193177,-1.4446956197,0.1710575479,-0.9419970922,0.8153239465,-0.2176500835,-0.5981640876,1.2243322006,-0.7760805691,-0.9272399474,0.2868671055,-0.5339348473,10.519050036,0.1784779201,-2.9305143378,0.2606048927,-0.3783630408,-0.8853787712,0.2622219778,-0.0752417758,0.7439816864,0.7470309842,-0.6631429967,-1.2275671966,-0.3051857231,-0.690019023,1.2757154388,-1.2875513663,0.7943347751,0.1444762455,-4.1101191937,0.0775778758,0.908475119,-1.2976351934,0.0599964894,-1.1937581974,0.038051732,0.3951678043,1.4677094157,-2.6730100276,7.9909624716,1.0674880384,2.2218850047,18.9902741731,-56.7891861295,-1.4584759992,1.9467939185,2.9676848334,0.4603158805,-1.8319589576,-3.1042200923,32.2883532653,-1.2788720647,2.2983709197,-1.1014506934,1.0874739723,-0.886979632,0.6291124464,-5.6407198884,-1.1492230542,-2.7188925052,-2.5099816017,5.7881806587,28.0129052157,0.7404139957,-0.0689604635,2.5088781469,-2.5995226451,3.679234011,-0.5675624354,3.7983906049,-5.1013001106,1.7783418793,-2.2506184384,-6.3751132736,2.7046302815,2.780763539,-2.1481222866,-0.9920514807,-1.7864240009,-1.7713271758,10.0382399787,-1.1233000892,-1.7637469234,4.0185167606,-2.1885411567,0.4503773832,3.0821966925,-1.6778687158,-0.7409995127,2.6572017697,2.5805535166,0.9657495996,-0.255382209,1.2296116724,-10.4609251446,1.3506159365,-14.6101074058,-0.9116429844,-0.4092993367,-11.6707530621,-18.4587625862,2.6228563137,-40.4921626291,-2.5500085182,0.5738966389,-0.7424756421,0.5761263975,-0.3785055868,-0.951671723,0.2639284101,-0.1278192163,-0.9100608004,-0.6026719417,-0.0164378012,0.0913346636,0.0713242092,1.0516009021,0.7132169207,-1.4213343663,1.0084332719,0.1839704966,-0.9557681988,0.010337793,0.6621717448,-0.0889900634,-0.5467493781,-0.5446979077,-0.3824536839,0.1246909413,-0.0427613624,-0.0522073551,0.9879326206,-0.6707474383,-0.2518587847,-0.3985693864,-0.0424314977,-0.0069031415,0.5919131934,-2.2073029777,0.4599817224,-0.0135364252,-0.4204488242,-0.2169256855,0.502132878,1.0450788046,-0.0281503634,0.1982171311,0.0220804107,0.0492354489,0.828883613,0.4983485321,0.6336279689,0.4487138049,-0.505845272,-0.2538723331,-0.1763798867,0.4181847517,-1.9535277892,0.0436852889,1.0965044967,0.8672337432,0.2486933966,-0.6675023365,-0.0841294033,-0.1142121198,1.2248926634,-0.038280286,1.1926291105,-0.176976033,-0.2640334366,-0.7971574484,0.6924513633,0.1674116723,-0.1433792361,0.8258922599,-0.4696433796,1.0811416494,3.1172879605,-0.5615237903,-0.5058118807,0.6446779136,-0.8598278872,0.8625707347,-0.2672038735,-0.0120221648,-0.9587181227,1.1034108201,-0.6498364296,1.1449316582,0.7582592593,0.9017266874,-2.4028842787,0.3397541814,-0.4794716965,-0.5465980326,-0.2304284286,-1.0793399377,0.142059732,4.4450018335,0.6757440249,-0.7396083847,0.683976902,1.7093367045,-0.9927804113,-0.9165852097,0.002472715,0.6717196717,-0.6914219733,-0.2602322464,0.3383410157,-1.1862001146,0.6383451779,-0.0223300191,-1.4033708624,2.8943112839,0.271318468,0.22762898,5.1714946794,-1.0336540497,1.4842766187,-1.2441383809,-3.3980303689,0.9204654019,0.5214356319,-0.1140807631,-0.2858892524,-0.0986177008,-0.6541870558,1.4472977424,0.0337129096,0.5348719043,-1.1592045349,-1.9584295353,-0.832871484,-1.5805633372,-0.9580688945,1.866523442,-0.8972274472,-0.3736356593,-0.0610524582,1.7388581976,-0.0959423202,0.8166340081,-1.2181462248,2.5042838799,0.6014628554,-0.5614460954,0.5980096545,0.8237797278,5.5470580005,-2.5875350057,-4.2635738217,-7.533503617,-6.8497178027,-13.7518178055,0.0469981919,-2.1127095929,0.8451716502,1.397088637,-0.0719933533,0.4704444872,-0.5935293293,-0.2893086581,-0.5222928547,-1.1191452826,3.5642711142,0.1179573386,1.1905107796,-0.6852917461,-1.9933958526,-0.4692846299,-0.7063746469,-0.1103602515,7.4296305952,0.2373731137,0.1866877504,1.4776776665,-0.8018205998,0.1342849658,-20.0451861172,-4.0487363155,-1.8360733043,4.3160816325,-0.8742032427,-2.7222793492,0.3943679623,0.9084788083,0.0483719132,-0.9503455397,-4.8411726944,-0.5643062861,-0.5384301589,1.0158448392,0.4422175158,-0.1035157947,-3.5555739589,-0.6162443085,5.4695063817,-0.6834082007,2.9905209148,4.4841089563,-3.7134162685,0.0151679942,-6.7579672683,-0.8357993499,0.400730865,1.0841415866,-1.2110775355,-0.3703939498,0.1964433161,0.3763862582,-0.1262123445,-0.3089230103,-0.3621727476,-1.2074762229,0.6635292037,-0.1955780768,0.7133602247,-2.5140638486,0.0276549362,-0.2556873922,-2.7228418754,-1.0655997191,-0.5978699718,-0.0966704086,-0.1492708705,-0.4838995501,0.3550541548,0.3337231652,3.0848170549,-8.6492503677,0.4289579643,-0.2681797738,-0.9885640356,0.9988539894,-1.8452812621,-0.0944274478,-0.4769544244,-0.6380241054,-0.5841027234,-0.0923734311,1.2008386655,-1.1938770367,0.4586465362,-0.0703771498,0.1142340972,13.3150018317,-0.2383790682,-3.8112184059,0.2548252302,-0.219752727,-0.4727745101,1.1133681107,1.9353958541,1.9612438985,1.0022128977,0.1423873863,0.4019327705,-2.4562949506,0.4979019149,1.7921425432,-0.1541191132,1.002199554,-0.6621392,-4.0723850551,1.0087198775,0.6900971816,-1.5345934008,-0.9944204892,-0.1432903365,-4.0237465661,-0.1264636843,-1.3394353732,-0.8104642295,0.7465467746,0.1794210644,0.0626507336,0.0156733353,0.4394967442,0.2676499979,0.6467790907,-0.7217655687,0.5629358744,0.0062619527,-0.4754025918,0.0000251665,-0.7196634027,-0.0069169954,-0.0017110702,-0.711257301,0.6742126598,-0.6940542294,-0.0946519729,0.4319203615,0.8892242077,-0.2203345252,-0.4223575358,0.0169713395,-0.5833254392,0.2102885245,-0.7914884992,-0.065473377,0.0233780972,0.710132239,-0.2899938401,-0.6987236966,-1.7937201771,-0.6603351537,1.2090901644,0.5013744639,-0.8961679513,-0.5829689794,0.2059260588,1.110567889,3.2264452979,-0.0118870012,0.0217739228,0.2830681707,-0.1572730712,0.2992152054,0.0129829793,0.6782547001,-0.0844607616,-3.765887364,-0.4433518925,-0.0446017832,0.4998793507,0.7093421446,-1.0398785287,0.1709702057,0.1303148906,0.001335425,1.5331387364,-0.1381743794,-1.5795159127,2.2863378659,0.1574208478,-1.201136748,-0.416951683,-1.0825763136,-0.4363821346,-0.8285777841,-0.9706905787,-0.5921471976,0.8230553441,0.4932128071,8.6758265766,0.1022583577,0.1078640138,-0.2385698102,0.317005667,-0.4124918584,0.5252582044,0.0989436556,-0.9023045875,-0.905462033,-0.7764604652,0.8702099466,0.4311536091,0.9752557092,-0.4314025184,1.2614940914,0.3628639892,-0.7447663095,0.2190611026,0.7798940327,0.4513448116,-1.072517801,5.0129505865,-0.4997670096,0.2856103481,0.5403791484,0.2531174786,-0.6258304919,-0.6182379124,-0.3707969313,-1.2532324903,-0.5151107668,0.7726828071,1.6764172652,-0.8489962351,1.0178215099,-0.8033255855,-0.1565022807,-0.2408702573,-0.4958585808,0.4022580592,0.8131574207,0.0765626356,1.1659669556,0.1764235719,-0.9084489172,-1.7823302153,0.6723212802,-0.6671781185,-0.0601663887,3.485523542,-0.7256220819,0.9399027891,0.6676818838,-0.4060885288,0.9402224075,0.3033539148,0.1647994269,-0.4611570279,-0.0469400898,-0.7647557096,0.2814677359,-3.0948043413,0.5223953389,0.1553586433,0.1428061842,1.1066803533,-0.3196706753,0.5183643053,0.4615810933,-0.6799177015,0.0116587156,4.1386524517,-0.1200669023,5.5815241872,1.3628534432,1.1103129064,-0.3089010799,0.0607682097,2.1772994879,2.3910661891,0.6463666717,-0.9340793682,0.924846219,3.5052927713,0.0938581764,1.3464748922,2.3822373006,0.0146291842,-0.4985335069,-3.3032614283,0.7265125355,0.0364542375,3.0632744454,-3.0588607116,-0.6817245884,-1.6803866389,4.0925341596,0.0638817747,0.5898948986,-0.4787692477,2.7878388489,0.0251435742,0.1298567525,-5.0588081384,0.9067356235,1.5038804576,-0.7901017341,-0.323116799,-1.1598721145,-1.389898969,0.1566730353,-0.6777224142,-2.5058325643,-0.3538906805,-0.1818776409,-0.2403466879,0.6605885872,-0.1391057983,1.0093397815,-0.7002984057,3.6391940213,2.5478455178,4.773174541,0.1945143136,4.5571622198,0.5511300858,-0.1341373949,0.0252103797,-8.1400830859,0.5546901563,0.7571865124,11.0021207388,19.362742687,-0.3682480175,0.5714519173,0.0610505599,-3.9750889921,0.065408893,1.8354913177,3.2673161197,-6.5377565071,-0.1760686657,0.0578850591,0.7637775091,0.0311432966,0.5383366674,20.4879064176,0.2892448171,0.4578150862,0.6757368281,-0.0751280518,4.9024685778,-5.3137834318,-0.4056177958,-0.7897420344,3.981903729,-0.7400625862,-0.1853512945,8.6946554682,-0.8928650595,0.353878814,0.7764691057,0.8235688077,-6.6333695884,0.1685266095,0.8434119968,-0.8057025002,11.394801674,2.179805588,-0.0170146806,6.7987073366,-0.7318403752,-0.4309524588,0.5927310732,-1.4092865295,-2.7972392859,17.2729847751,-0.8386518718,0.4845428682,0.7560928394,0.3529820042,-0.4286847721,-0.2282241257,12.8750462047,0.7351071966,-0.1990259356,1.7596854148,-2.840751651,2.2674180836,-3.4869513721,-0.3270427084,-1.5115000749,-0.8235934964,-0.5485672567,-0.077294396,-0.302311702,0.1661107898,-0.1996609554,0.386920571,4.609580368,0.0774381892,-1.4799571451,-3.065824319,-0.3091803045,1.1265557508,0.3068100274,-8.126941978,1.3827494201,6.8655987396,0.3269499104,-1.3654248019,0.7931883492,-1.3696167025,-0.3166875201,1.635920663,1.7972684868,1.0919717107,12.2518190392,-9.9817463555,-0.3514791104,-1.1371327957,0.2206516498,0.1086519015,-2.1765609948,4.4905800568,-0.2399978507,1.7270038675,-0.1115771925,1.0887143174,2.0126530729,-0.9265722673,-0.7881030797,-0.0557756175,0.5154599187,10.4821166786,0.7385964852,5.3232078,-0.7133491367,-0.4438295358,-0.0934495694,1.2122769462,-3.6516922875,-0.1401062088,0.8449802482,0.9199403492,-1.1668518769,-0.7868791595,0.3152291711,1.2503512055,-0.7761011834,0.3306689042,-1.5098821151,-7.526656721,1.5251877193,1.0314541975,0.5007346615,-0.0831692127,-1.455151184,-4.9435030349,0.3658391179,2.6878947666,0.1251615075,0.7382944431,0.4066048608,-0.6535266854,0.5498454791,-5.661318762,-0.663531293,0.7292480665,2.6273983255,0.8212535419,-0.768929615,-2.2936600601,-0.1942145711,-0.7832286158,-11.1590236892,0.0968129523,0.6534479571,-1.0265681997,-0.4058031729,2.0333167289,-1.0896421298,0.3641946676,0.4296337296,10.8813775515,3.1446204278,0.5062198008,0.7495446783,1.2285983763,-0.0753480058,0.6706971443,0.6611138392,7.2000889051,-0.1557651406,1.8256207938,-11.0298609511,-4.3970631504,-0.5459963452,-0.7975739033,0.2786928505,-0.5664582339,-1.0602614299,0.4451270964,-0.6462248593,-3.8370977241,-1.1879706895,-0.8100148169,-0.8121374506,4.0781178853,-0.7752298355,-1.1400919252,0.791732613,0.4139339362,3.295533317,0.9657596695,-0.3004774321,0.1635922967,-2.1475981721,0.9037390797,3.5221591407,0.1239066921,1.7171210697,-4.5624000539,3.1543247178,-0.3229181907,3.7350328871,-0.1439229012,-0.9511278315,-18.5701428563,-0.9858600898,-0.7822874702,0.3755456563,-0.0301153232,-1.0375767964,-0.7518985512,-0.0695576483,0.5583159983,-1.0013076598,-0.2287583148,0.7223373521,-1.5116678369,-0.1372319168,0.5961244865,0.5837653339,-1.309948799,-1.0110064856,-1.1069864536,-0.4942546481,-0.5310380976,-0.2420696084,0.2082806955,7.9389002803,5.1049234026,0.723745217,-0.3848163617,0.2116497796,0.5710725668,0.7548579727,-0.0745944183,0.4922539633,0.4011901889,0.7106676279,0.3405784802,0.7168922732,-0.7347648039,0.1643193741,1.0264488547,0.8134205565,-0.6726726853,0.9680656048,-0.247128432,0.2100910416,-0.1596852982,-0.0462953874,-8.8731274491,10.802067931,-0.3241761146,-0.0751884152,0.8046410068,-0.9036160384,0.6703593905,1.6928340662,-0.3245999249,-0.9465930861,-0.1739578805,-1.6272505768,-0.056289912,1.0320068563,-1.2562921647,-0.0706101634,2.333343368,0.7229446086,0.9725318607,-0.2763172397,0.0973746303,6.006659983,0.2175539266,0.5716975752,-0.3622507219,0.1518246409,-1.5427938308,-1.4981920989,-1.2637085338,-1.1922250856,-1.4194472702,-0.1259139351,-0.4198358136,-1.1933262963,-0.2599305243,-0.5111560273,-0.2238787883,0.5214957714,0.0568685969,-0.1120887361,-1.0197451737,0.0109258576,-0.3506443431,-0.589657465,0.1327475031,0.1333885272,0.833190161,0.3361735271,-0.295758234,-0.5675653839,-0.9081681225,-0.7018313776,-0.849158245,-0.1931680461,-0.7882430412,-0.1329208015,-1.2984069851,-0.807019029,-0.3896513653,-0.9469971112,0.42022714,-0.634146537,-0.9832914178,-0.9583043097,0.1033341652,0.732887586,0.4226027062,-0.0311743936,0.4469661781,-1.9638260481,0.9524638467,0.2845698926,-0.6969896401,-0.34332117,-0.3682541033,0.7702267036,-0.3303219782,-0.0152431562,-0.702691799,-0.5033867663,0.169519918,-0.2223837108,0.0168994535,0.2490200278,0.035295167,0.9993226842,0.2964627711,-0.6898854415,-0.6383383512,0.0992445338,-1.6010057862,-0.4386774488,11.9804620517,6.1063724877,-0.9411606158,0.2119452661,1.0992477999,0.029490387,-0.3765892032,-0.0676527726,-0.0899063489,0.7318148782,-0.6588802685,0.8353622916,0.1042496862,0.5728566747,-0.5903745184,0.363591092,-0.1777150109,-1.1108502018,-0.7743772505,-0.0017793058,-2.1807103894,22.0822997307,258.0515651195,0.928999162,0.0063820581,0.3388142377,0.4305537504,-0.7088026514,-0.8370097569,0.885759758,-0.0869105158,-0.4139150997,0.8657018889,0.4800108731,-0.2665381349,0.9772530114,0.8185688454,0.5169370063,-0.4944580021,-0.9791182875,0.6955793547,-0.344700267,0.478016508,0.8389758531,0.8639176238,-0.849069334,0.0045168408,-1.2255392272,-1.1659075509,-0.0546061875,0.6139807611,0.3988453546,-0.2608586322,-0.1865441553,-0.9645030159,0.0733823296,0.3482656853,-1.2388516955,-0.4409220696,-0.9408862882,-0.9306230252,-0.2928695994,-1.220770167,-0.2673155498,-0.9656258004,-0.063372361,-0.2115429266,0.0537907861,-0.9489192291,-0.6072147495,-7.7370180002,-0.9121029992,-0.0759806136,0.5117595202,-1.2458981081,-0.129840191,0.6534844145,0.7890407921,0.8750348803,-0.8090476214,-0.4236625357,0.1532007663,0.3932109052,0.0070447953,-0.3793477815,0.9208655415,0.2613243335,0.6898904738,-0.0633304203,0.3606585385,-0.1375371143,-0.5088652649,-15.650200453,-9.6204655546,-1.7578325218,-0.5009664049,-1.1729684534,-1.174304669,-0.4388059827,0.6549595593,-0.6047182771,0.1214201306,-0.3828390914,0.8282470896,0.8707813662,0.4116414522,0.2620915441,0.5292617391,0.0598763676,-0.4257667197,-1.5936909198,0.2372348596,-2.8349736146,-37.660519433,-0.1139249606,8.592129172,-9.6895046801,-0.8830329256,0.5405499377,-0.5372501525,0.5537596082,0.6838062099,-1.6660938031,0.2862098123,1.1590079282,-0.3678955001,-0.0091706815,-1.1334364726,0.3327113524,-0.2219002462,1.4635333866,0.1792613832,1.3049750857,1.3468243649,1.0697103022,2.4880861296,-17.9774156739,0.4419442013,-4.4237017096,2.8575520766,0.3401588747,0.7945986164,0.5812702968,-0.2276594671,-0.7569299629,-0.6893596428,-0.0017693797,-0.7294338881,-0.2717858158,0.5757906603,-0.0150291547,-0.9405204922,-1.034807398,0.1544691057,1.2460961655,-0.4090727372,-0.0917030593,0.5383110652,-0.8317020411,4.3440928771,-0.0396400819,-1.5442596161,-56.1166877915,0.8833646532,-0.4146930096,-0.8076089075,-0.8573636331,-0.7574393776,-0.081335876,0.7274734538,-0.3342964991,-0.1633626427,0.4051024924,0.0442384044,-0.3611383047,-0.6517042645,0.2938337814,0.0434587751,-0.459402086,-0.0695772818,0.7646813855,0.156699885,0.9106792878,0.9427107347,2.4038714188,17.9793454868,0.8733355975,0.2089042277,0.2438116949,-0.5899602325,0.9693455914,0.6224091835,0.7228047816,-0.2819938882,0.0282705434,0.578226083,-0.5808643844,-0.3851159059,-0.5093091668,-0.8789479035,-0.4657326262,0.7650128127,-1.0909150079,-1.0973389419,-0.3658344022,-0.8665025276,-0.0261822553,-0.5087298066,2.8159080557,-0.6166140772,-0.4765227753,0.0209107773,-0.1977285724,-0.880667125,-0.883294404,-0.3754448392,0.2662090153,-0.4535749198,-0.02566562,-0.0490255117,1.0990417071,0.8673441192,0.549431547,0.4770698802,0.2932176893,-0.980509055,0.6013376832,0.5981624154,2.0133102963,-0.6904587811,12.5347745339,-2.6069851833,0.3813402345,0.9308949611,0.959038431,0.7740222961,0.0954181688,0.6613749446,-0.1979483004,-0.2142498059,0.7549097606,0.5152465378,-0.446213361,0.2428641122,-1.9948360929,-0.7528470002,-0.0374733652,-0.9523672098,-1.0423390458,0.5050174765,-0.5665732231,7.1139208518,-0.292348537,0.5302642203,-0.3477991056,0.2385446782,0.7389201958,-0.7892434759,0.091392589,-1.1757954241,-0.0558506643,-0.0159431975,-1.0819988176,0.0897086701,-0.4400520633,-1.0535145942,-0.1462416961,0.3635214711,-1.1336183744,-0.9378586337,0.7209810252,0.3646081499,-0.1223192659,0.1388481064,-0.996835105,0.2979131812,-17.6204522294,0.3843959102,0.709403258,0.4436501538,0.6336090408,0.5632724586,1.4494242905,0.3936719776,0.6684224396,1.2676504158,0.8737171447,0.8154064741,-0.1018844821,-0.8040892514,-0.3449960745,-0.4441892168,0.9758532818,-0.4410761452,0.5282742301,0.629021181,0.7399566719,-0.5970779427,-0.4234109042,0.9831310586,0.1491250321,-2.8318458441,-1.1775215433,0.3641385808,-0.9397279074,-0.1361984779,-1.1019966124,-0.1730969642,0.5432284859,0.3223758906,0.1641572376,-0.4007953475,-0.7691705988,0.1282006977,-0.8343389492,1.0189074311,0.4815173396,-0.0357858432,0.9682324818,-0.1754397212,2.1236189719,0.20861037,-4.8816331098,1.3670527661,-0.6962627881,0.8669951997,0.290713477,-0.7618415535,0.6404897958,-0.2736412474,1.060042831,-0.3142038809,0.7673473467,-0.3096163976,-0.6799896997,0.1132448433,0.120236811,0.8613831654,-0.503469656,-0.7290056766,0.7064396914,0.9431358098,1.1878019875,3.5573225838,0.1292978802,4.9995908207,0.6141256262,-0.5441019034,1.0086719854,0.079567007,1.3130381785,-0.0143841395,0.9730078316,-0.5853512793,-0.103251615,0.3583965395,-0.333843198,0.3264137361,0.4578861929,0.3786124815,0.1463045027,0.4697859657,0.0033412404,-0.0111004414,0.4313512134,-1.0709703994
   2.6469946249,1.1124957742,-0.3689585514,-0.7678422937,0.6119447885,0.1409508552,-0.4577412919,0.1197871967,-0.7227271973,1.1956481584,-0.7576191995,-0.0099288404,0.390650996,0.33757497,-0.1227474079,0.526086301,-0.1313256485,-0.2065901693,-0.007641069,-0.1660672163,1.2194883509,-0.3348918332,-0.7477761651,0.1573251748,-0.2171549214,-1.1844281937,-0.3398407988,1.1590347222,-0.7607068054,-0.6212979242,-0.4009016745,-0.4076263612,0.9505243482,0.6373783409,0.4725972426,0.4023916936,0.9903064194,0.5052195541,1.1175067556,0.0070177566,0.5126343463,0.6719647288,-0.4179529516,-0.1869873225,1.1601493575,-0.0740938668,0.6005785043,-1.0038652372,9.794724502,-11.485634404,-0.012761128,0.6469916888,-0.3849155781,-0.3037057582,0.7021050185,0.6101530667,-0.9462267522,0.6677709137,1.251730711,0.1414356127,0.6679729045,-0.8086773706,1.3885148832,0.8071926454,0.9610464902,1.2498885191,-0.5734361086,0.6329196801,0.1775460669,4.8804996511,0.0440707809,3.330218907,0.7520303611,-0.061428058,0.6250970708,-0.13456349,-0.4424152135,1.0757367341,0.6167201308,-0.2128867881,-0.3175427929,0.8299594605,0.0120809583,-0.2880608051,-1.1693070022,-1.0766492034,0.1427366847,0.8509141968,-0.1001992302,0.7383222778,-0.7074757262,-1.0538027487,0.8513915614,0.4283848396,0.6914784384,-4.8647149495,1.4423457418,-0.1932601625,-0.1152226022,-1.1122541411,-1.2051539065,-1.4439639589,-0.3112258853,-0.1907258316,1.1193181314,0.0328868335,-0.1537288177,-0.3281979556,0.069209508,-0.8619353428,-0.2620632986,0.6341050677,0.243150218,-0.2854516014,-0.5595042988,4.6752770862,0.0204706708,2.737252007,9.1160204212,1.3291975391,-0.0631073154,0.6440151589,-0.1900179046,-0.1190318674,-2.253368386,0.8133344637,0.5262637873,-0.542848935,-0.2239272259,-0.3985630924,-0.1938858201,1.1983240287,-0.5083132289,-0.7934663295,0.0963221516,-0.3680553991,0.1066361177,-0.3764376561,1.1680890419,-0.3125007139,-0.3314788477,0.1049275554,-0.1797112036,0.5752102527,-0.1736691022,-0.7148658871,0.1514265324,-1.1267778045,-1.10161206,-0.7405927089,-0.4424628467,-0.081590298,-0.0257289809,0.1074080273,-0.3078110774,-0.4990823806,-1.0840592229,0.6168031903,-0.2118974226,0.6190513969,-0.8833782479,-0.430478941,0.3234753082,1.2366713139,-7.6784704173,0.4965601788,-0.6149553166,0.9373329988,0.2758798422,-0.3086806911,-0.9418941362,0.4846814737,-0.867006342,0.5798851063,-0.0111279562,-0.1302169634,0.9349520826,-1.0780349332,0.5822666114,0.3776524823,0.8656109911,-0.0688400132,0.1352254519,-1.5974535115,-1.8526670102,-0.7084229565,0.478070629,-0.7275547036,0.1979616206,0.6110381066,-0.2434457675,-0.1228686683,-1.0226260983,0.9019775114,0.9527667059,-0.4803548821,0.8133547506,-0.0464421653,-0.0299249246,0.1062282835,-0.482949965,1.3070137182,-1.2704894417,-0.1872053737,0.668154903,-0.0913695808,-0.0983098437,1.4335940369,0.4205711755,-8.4184208347,10.4384970748,-0.3044174216,0.4208684422,0.5205772118,0.8566985366,0.5200787231,-0.2091091282,-0.0133650095,-0.7780709751,0.0316642138,0.3250775424,-0.2772736468,0.2200916763,0.9553991002,-0.1528790108,-0.3481345938,-0.4014457782,1.075964037,-0.0952532666,0.8566743036,-0.3539643798,-0.8405775691,3.5935155241,-9.0742154579,-1.237804465,0.3828634385,0.5031664777,0.2893637516,0.0528423359,-0.3983418734,0.204212931,0.7579667412,-1.0444817164,0.7459074099,0.0891337319,0.1072179888,-0.8269104079,0.7138432551,-0.2441337963,0.0761194678,0.3708559211,0.4777060462,-0.0716376614,15.5987025104,-0.132545034,-8.3006774226,5.3416265071,-0.3962975377,0.5292195854,-0.196951174,0.4687150143,-0.8956657839,0.1886800351,0.529141325,-0.8245265338,0.6099991267,0.9086033534,0.2922092786,-0.1174418187,0.5128548563,-0.3463125198,-0.3808215513,0.429944306,0.5964503923,-0.1838804921,0.6013022996,-0.4756540776,-0.6502055492,68.4154399424,5.5679165738,-3.1536956417,-0.1718700017,-0.2107746063,0.0422450065,0.2217576602,-0.9861984909,-0.1130384641,-1.3874087936,-0.3694887271,0.3247242299,-0.5026448132,0.1239356105,-0.5830709919,-0.5151187224,-0.3203844951,0.8136842665,-0.1252143594,0.5366382276,-0.2324894535,-0.1866339622,0.5829228257,-5.5116023291,13.1874414422,1.4727268809,0.5905869837,0.2780214021,1.3499826658,1.1876306989,0.7305466871,0.8242434039,0.2170654313,2.6665378254,-1.2275278398,0.3742707552,-0.6875701424,0.680402114,-1.0477717552,-0.7370452538,-0.7485283387,0.3693133253,0.2426306996,-1.5238264842,-2.2246900171,0.3993315099,22.0947598017,-13.9387933165,0.6848449863,-0.9616313877,-0.5906217893,0.370046817,1.1830934894,-0.768928555,-0.3596756355,0.2811781774,-0.5936569336,0.840277805,0.2957251771,-0.2300592397,-0.009697153,0.3233919417,-0.4739117846,1.1695811753,0.7189718292,0.9108123875,-0.5432456248,-0.3192894456,-0.9755118424,17.2031010656,12.9371727629,-3.1137069233,-0.1267774284,-0.7504588806,-0.6398162872,0.2753675737,0.1106069511,0.2783407375,0.2527564009,-0.5974383602,-0.8031994542,0.7343028519,0.4593469345,-0.002087084,0.3000422597,0.0466527339,-0.4315084334,-0.2802919096,0.7508041922,0.3362257946,0.940034288,0.1081072026,0.193328814,0.7368802799,0.0269101884,-1.0920946466,-1.3883853113,-1.2884925325,-1.1795496451,-1.1961073799,-0.6752403128,0.1012889291,0.0801133048,-0.7357120392,-1.1008342718,-0.5610859177,-0.638072744,-0.2761179301,-0.4343954641,-0.2994710098,0.5807395421,0.5725260022,-0.7076635677,-0.1246492938,0.3985121153,-0.5281351983,-0.3356200056,0.744141287,0.0863146369,1.0013760737,-0.5662874786,0.8484289477,0.4702376911,0.3762111453,0.6659338722,0.24087452,0.2400760222,1.1487016331,1.1450970722,-0.3806049485,-0.5837364717,-0.3107714835,0.0356419511,-0.3432119842,-0.3747692855,0.7138528742,-0.5762221506,0.8698663836,0.3208642259,-1.1966655857,-0.1065694064,0.0445582174,-0.8135396332,0.6605470768,-0.3293727191,0.1906853019,0.6445844044,0.9731668185,0.1629733645,-0.0471277893,1.2870895117,0.7284738649,-0.7789868065,0.5574939454,1.1413528513,0.1629339576,-0.530455107,0.3486184023,1.0070958452,-0.1429771372,-0.4916412338,-1.9649502874,0.0317168276,0.2332151098,0.9625331357,-0.9418023471,0.5809596212,-0.7535963988,-0.5509667985,0.0007289901,0.3239683617,0.3743296135,0.916950833,0.000888832,0.2260568601,0.648741532,-0.8168112287,-1.0340826287,0.6574200074,0.116895881,0.2794374168,0.6355094053,-0.9439278116,0.3473522588,8.2855842342,-2.2866166441,0.7575474793,-0.7460409694,-0.4942976316,0.3001689905,-0.2435393244,1.0509419632,-0.4884039311,0.575863229,0.0085428262,0.4448481811,-0.7287906797,0.4435615203,0.065919675,0.7303456463,-3.0149858881,0.3198094542,0.7702254594,0.5195753184,4.9202859466,-3.2347564038,0.359645646,-10.4012075192,-7.8183038615,-0.0540222463,-1.1891568921,-0.3971040631,-0.4031621997,-0.7095124712,0.4501245831,0.1642733113,0.0654313421,0.5526156684,-0.9486154368,0.465851915,-0.5830976609,-0.1761453891,0.4677152995,0.0223210808,-0.5799841338,0.4248275021,-1.000461176,-0.3167623447,-3.5175268674,0.3145849077,-3.1533452736,9.4024217195,-0.2142097744,-0.7913330763,0.6173761184,-1.10568399,0.0575011959,-0.3874613317,-0.8710314333,0.6806338466,-0.7101822296,0.5425880529,-0.2069300953,0.1501836863,1.5230055666,0.8153715449,-0.9791399361,-0.1755492456,0.6678873172,0.5299070759,-2.0171247937,-1.4627656867,0.9883044762,-0.58530276,0.3779374935,0.4608317413,0.1513170481,0.6191033176,0.2749965408,-0.0803200749,-0.734976023,-0.0327049981,0.8610494876,-0.0314528331,0.2409689927,-0.2171145688,1.0964021544,0.0441941967,-0.7762106466,0.3236719343,-0.4058100977,-0.250791222,0.9199215659,0.9064960823,0.3039290569,0.2404691151,1.8664523655,-49.4989916812,-0.2168055214,-0.2484869108,-0.3804113948,0.8397515842,0.7431688035,0.492281875,-0.7160882936,-0.0444610962,-0.7640322057,-0.7438896374,-0.4235618672,-0.2577885615,0.6524332507,-0.5233670797,0.6210950704,0.4645552534,1.1834368196,0.50429546,-0.0002384575,7.1959630627,1.8018396136,7.8859750151,0.8184886868,1.0367693597,0.6916229293,0.0052944456,-0.5228467258,0.8568619756,0.1545235829,0.8521600854,-0.1557362556,0.9059244664,-0.4260682325,-0.33402333,0.791606565,-0.0049144316,0.6978569858,0.4629778176,-0.8414713379,0.4566002882,-0.0364827665,1.0988170357,0.9972781812,0.6156544064,52.3268843109,6.6859628719,0.2923613585,-0.0226960449,-0.594002427,-0.7054595679,0.3444506367,-0.5815541231,0.5361057434,-0.7109005124,0.0255114417,-0.8745797234,0.1633168448,0.095779191,0.3278656056,1.0459201061,-0.5855911694,0.7206809515,0.8833411414,0.6750538667,1.0325973173,46.9802149464,-0.2854730455,3.5994440453,-2.6317926464,-0.9479015955,-0.6600096953,-0.9864276092,0.9000254879,1.09614221,-0.0062034336,1.0024023403,0.5944750224,-0.9489202533,-0.883406711,-0.2417227799,-1.0333964001,1.1037469888,0.2105936621,-0.0898051873,-0.3327675569,0.2227387747,0.5458639475,-0.9520235752,0.3278508029,0.4814669324,3.3311741131,19.2089432766,-0.49152394,0.0492044179,-0.5468696607,-0.3244198351,-0.366663216,0.5140801624,0.7104468464,0.5809112692,-0.1246421947,0.8185603065,-1.0386875413,0.8650776671,-1.0790136162,-0.3881124365,1.4377915463,-0.5189307798,-0.0550093307,1.0688183724,1.4282802992,-4.0392490379,0.6279421202,5.2688094113,-12.9022119794,1.0374458682,0.0560935848,-0.234672994,-0.9431495371,0.2105982939,0.4154259541,0.0908851297,-1.4522633468,-0.3609068657,1.0463819025,-0.1057985285,0.0267765482,0.1016781889,-0.2714599368,-1.5695978787,0.1314787936,-1.1013674409,-0.403728105,0.3267812773,-2.8988708802,-0.0018760647,0.0971021239,0.7021175345,-0.0219632218,-1.2898952595,-0.1050616029,0.3774367931,-1.1216382138,0.1512421548,-0.6177446471,-0.239164225,0.0448893294,0.1945222743,-0.8896076579,-1.4011902837,-0.1576277279,-0.8444529234,-0.741610577,0.5082787439,-1.0538788691,-0.3744337399,0.1276200379,-1.4421386595,-0.7191311408,-3.2235828667,-5.0152804283,1.2677914722,0.2357536827,0.6032805364,0.7105037002,-0.3937371323,0.9490431077,-0.5898153525,-0.4071670441,0.1510182816,-0.1588834226,0.0889935417,-0.0483038234,1.3192359998,-0.7699500383,0.8688940225,0.1647212717,-0.1392596992,-0.5724745926,-0.7330849138,0.0962304507,-0.1151814928,0.4543410966,0.2941849624,0.1954471414,-1.2544627887,0.0626414892,-0.4296801946,-0.3836563659,-0.2463976827,-0.195172928,-1.5500745639,-1.1508613597,-1.0019820834,-1.06291657,-0.5431082424,0.7635886416,-1.7730676537,-1.8525012714,-1.3070506103,-1.3565014017,-1.7253577646,-1.2419535907,-1.559147567,-0.2481214795,-0.0900576641,7.5895788986,-0.6710273834,-0.7293533768,-0.4145196555,-0.5408393874,-0.0175950084,0.4674336388,-0.4999401863,0.5929734543,0.2288233097,1.6457356283,0.579579819,0.0834538584,0.8497225496,-0.6550171362,-0.3417704947,0.2035115013,0.0778027474,0.3634041648,-0.9173370527,0.4811885308,-0.7251417761,-0.2958304882,-0.4390904629,-0.5011432556,-0.9391033692,-0.8354158791,-1.0123503052,0.458956767,-0.8705225033,-0.4586452161,0.192231868,-0.3721259911,-0.821741453,0.5544518189,-0.7710482218,-0.777132127,-0.9335159624,0.7493648686,-1.0361474497,-0.9542985661,-0.1134297491,0.4467481448,-1.1418701249,0.8751511657,0.7546988642,1.3750692564,0.4634616801,0.3200719471,0.1927984532,-0.1729547079,0.3504334508,-0.3164038627,-0.0556931664,-0.3037958217,0.463653505,0.3837178466,-0.2152886367,-0.9676443387,-0.2054784047,-0.6686810953,-1.0518508833,-0.257354483,-0.7333181805,-1.4651725575,-2.0643980959,2.7270634956,-0.8686888186,-0.2963980096,-0.6865359817,-0.3938847424,-1.0852808213,-0.2442364344,-0.7265341143,-0.257501197,0.1112321541,-0.898555359,0.2654491617,-1.0142486122,0.1458457067,-0.3292319641,-0.0651838973,0.0080858715,0.5405954913,0.2740416688,-0.8228135532,0.4661648985,0.1027068992,-0.2388741588,0.1302506148,-0.4714477302,-19.4537419556,1.6719167786,-0.9510973286,0.4582112254,0.3781330718,-0.5271362283,0.9722545968,-0.9817261631,-0.7979217266,-0.539848702,-0.272579955,-0.1005345071,1.8864251547,2.5226446193,0.3149026941,0.8083339535,0.6012000865,0.179142255,-0.2307668878,0.4854648729,-1.5997176233,14.285376408,-0.0487421427,1.5252535327,-0.7940897454,0.9891170785,0.2475794091,1.1723100767,1.2253163575,1.1906361887,0.9112593698,-0.4968507071,1.1061633109,-0.5356302178,1.1729531487,1.1469361496,0.242403504,0.48346824,0.6556742791,0.1414840539,0.0851310624,0.707037679,0.5265469469,1.0511061381,0.0626434746,0.6241695011,-6.6609840857,7.6817248564,0.2105660516,0.6000327528,-0.8454458217,-0.3422324771,0.5183495852,0.4034870521,0.2776206812,-1.5537103119,-0.2066628184,0.7135796673,-0.180534983,0.8284294122,-0.8947901195,-0.8563592376,-0.7727975379,-0.4753746111,0.359056669,-0.329226558,-0.8951428001,-8.0471099695,0.5547998286,-1.6162280932,-0.8766023892,-0.2309994537,-0.455794907,0.7540460785,-0.3799888765,-0.480688543,-0.1991847229,-0.5417291326,-0.6937562106,0.5514457402,-0.0934570536,-0.6600522085,0.1135308308,0.7209920012,-0.6511454801,0.3109821258,0.2730099191,0.2365416747,-0.4270526565,1.7970458127,0.7147187478,0.0579799703,0.5420364716,3.6426444167,0.184730014,-0.6078393501,-1.6890716938,0.8404536409,-0.4107978379,0.8880193478,-0.1176962527,0.0121829594,-0.8492776912,0.6440948853,0.461429781,0.3349942692,-0.3756173238,0.2280029656,-0.0797252561,0.1678605946,-0.2091009014,0.0156036122,-1.6560890455,0.857983673,-0.3389606364,2.081766258,-7.9499575155,0.2788923721,-0.5948691427,-1.3938913409,-0.3210987372,-0.6196775823,0.2349005056,0.4559663991,0.6253847626,-0.5530250188,0.1224563203,-1.2663800001,-0.8275061127,1.0150451663,-1.1194330016,-0.8733345161,-0.2924684474,0.208568001,0.4596245591,0.3451051421,-0.4238681818,-0.2932985426,-1.7992779851,-1.4436116432,-2.1330965078,-0.5780861312,0.4354030328,-1.0848010944,-0.0667089471,1.0181232939,-0.2164682397,-1.071426896,0.5758133703,0.5791462945,-0.404723446,0.9729674424,1.5431283043,-0.5667566238,0.7376219673,0.5440579991,-0.3121943555,-1.4401720722,-1.3725193697,2.6340052663
##end
biasActivation=0,1,1,1
[BASIC:ACTIVATION]
"org.encog.engine.network.activation.ActivationTANH"
"org.encog.engine.network.activation.ActivationTANH"
"org.encog.engine.network.activation.ActivationTANH"
"org.encog.engine.network.activation.ActivationLinear"
